
/* Species #2 : (Size 25) (AF 242.24) (Age 20)  */


/* Organism #0 Fitness: 1076 Error: 0 */
genomestart 0
trait 1 0.1 0 0 0 0 0 0 0 
trait 2 0.2 0 0 0 0 0 0 0 
trait 3 0.3 0 0 0 0 0 0 0 
node 1 3 1 1
node 2 3 1 1
node 3 2 1 1
node 4 3 1 1
node 5 2 1 1
node 6 3 1 1
node 7 2 1 3
node 8 1 0 2
node 19 1 0 0
node 68 1 0 0
gene 2 1 8 -0.850823 0 1 -0.850823 1
gene 1 2 8 0.120067 0 2 0.120067 0
gene 1 3 8 -2.18163 0 3 -2.18163 1
gene 2 4 8 -1.78249 0 4 -1.78249 1
gene 1 5 8 1.42993 0 5 1.42993 1
gene 3 6 8 0.848007 0 6 0.848007 1
gene 2 7 8 -1.74937 0 7 -1.74937 1
gene 1 2 19 3.03563 0 28 3.03563 0
gene 1 19 8 0.879911 0 29 0.849894 0
gene 1 7 19 1.07076 0 32 1.07076 1
gene 1 19 68 1.01678 0 195 0.516776 1
gene 1 68 8 0.879911 0 196 0 1
genomeend 0

/* Organism #1 Fitness: 777 Error: 0 */
genomestart 1
trait 1 0.1 0 0 0 0 0 0 0 
trait 2 0.2 0 0 0 0 0 0 0 
trait 3 0.3 0 0 0 0 0 0 0 
node 1 3 1 1
node 2 3 1 1
node 3 2 1 1
node 4 3 1 1
node 5 2 1 1
node 6 3 1 1
node 7 2 1 3
node 8 1 0 2
node 19 1 0 0
node 68 1 0 0
gene 2 1 8 -0.850823 0 1 -0.850823 1
gene 1 2 8 0.120067 0 2 0.120067 0
gene 1 3 8 -2.18163 0 3 -2.18163 1
gene 2 4 8 -1.78249 0 4 -1.78249 1
gene 1 5 8 1.42993 0 5 1.42993 1
gene 3 6 8 0.848007 0 6 0.848007 1
gene 2 7 8 -1.52524 0 7 -1.52524 1
gene 1 2 19 2.66006 0 28 2.66006 0
gene 1 19 8 0.879911 0 29 0.849894 0
gene 1 7 19 1.07076 0 32 1.07076 1
gene 1 19 68 1 0 195 0 1
gene 1 68 8 0.879911 0 196 0 1
gene 3 4 19 -0.19593 0 261 -0.19593 1
genomeend 1

/* Organism #2 Fitness: 6 Error: 0 */
genomestart 2
trait 1 0.1 0 0 0 0 0 0 0 
trait 2 0.2 0 0 0 0 0 0 0 
trait 3 0.3 0 0 0 0 0 0 0 
node 1 3 1 1
node 2 3 1 1
node 3 2 1 1
node 4 3 1 1
node 5 2 1 1
node 6 3 1 1
node 7 2 1 3
node 8 1 0 2
node 19 1 0 0
node 68 1 0 0
gene 2 1 8 -1.83318 0 1 -1.83318 1
gene 1 2 8 -0.526339 0 2 -0.526339 0
gene 1 3 8 -1.69648 0 3 -1.69648 1
gene 2 4 8 -1.78249 0 4 -1.78249 1
gene 1 5 8 1.67775 0 5 1.67775 1
gene 3 6 8 0.547204 0 6 0.547204 1
gene 2 7 8 0.295197 0 7 0.295197 1
gene 1 2 19 2.66006 0 28 2.66006 0
gene 1 19 8 1.60013 0 29 1.60013 1
gene 1 7 19 0.962463 0 32 0.962463 1
gene 1 19 68 0.394124 0 195 0.394124 1
gene 1 68 8 2.96443 0 196 2.96443 1
genomeend 2

/* Organism #3 Fitness: 33 Error: 0 */
genomestart 3
trait 1 0.1 0 0 0 0 0 0 0 
trait 2 0.2 0 0 0 0 0 0 0 
trait 3 0.3 0 0 0 0 0 0 0 
node 1 3 1 1
node 2 3 1 1
node 3 2 1 1
node 4 3 1 1
node 5 2 1 1
node 6 3 1 1
node 7 2 1 3
node 8 1 0 2
node 19 1 0 0
node 68 1 0 0
gene 2 1 8 -0.850823 0 1 -0.850823 1
gene 1 2 8 0.120067 0 2 0.120067 0
gene 1 3 8 -2.18163 0 3 -2.18163 1
gene 2 4 8 -1.78249 0 4 -1.78249 1
gene 1 5 8 1.42993 0 5 1.42993 1
gene 3 6 8 0.848007 0 6 0.848007 1
gene 2 7 8 -1.63731 0 7 -1.63731 1
gene 1 2 19 2.84785 0 28 2.84785 0
gene 1 19 8 0.879911 0 29 0.849894 1
gene 1 7 19 1.07076 0 32 1.07076 1
gene 1 19 68 1.00839 0 195 0.258388 1
gene 1 68 8 0.879911 0 196 0 1
genomeend 3

/* Organism #4 Fitness: 18 Error: 0 */
genomestart 4
trait 1 0.1 0 0 0 0 0 0 0 
trait 2 0.2 0 0 0 0 0 0 0 
trait 3 0.3 0 0 0 0 0 0 0 
node 1 3 1 1
node 2 3 1 1
node 3 1 1 1
node 4 3 1 1
node 5 2 1 1
node 6 1 1 1
node 7 2 1 3
node 8 1 0 2
node 19 1 0 0
node 68 1 0 0
gene 2 1 8 1.42653 0 1 1.42653 1
gene 1 2 8 0.960461 0 2 0.960461 0
gene 1 3 8 -4.41224 0 3 -4.41224 1
gene 2 4 8 0.530652 0 4 0.530652 1
gene 1 5 8 0.760694 0 5 0.760694 1
gene 3 6 8 2.67501 0 6 2.67501 1
gene 2 7 8 -1.31439 0 7 -1.31439 1
gene 1 2 19 4.83662 0 28 4.83662 0
gene 1 19 8 0.918297 0 29 0.918297 0
gene 1 7 19 1.74192 0 32 1.74192 1
gene 1 19 68 -0.401769 0 195 -0.401769 1
gene 1 68 8 -1.54658 0 196 -1.54658 1
genomeend 4

/* Organism #5 Fitness: 19 Error: 0 */
genomestart 5
trait 1 0.1 0 0 0 0 0 0 0 
trait 2 0.2 0 0 0 0 0 0 0 
trait 3 0.3 0 0 0 0 0 0 0 
node 1 3 1 1
node 2 3 1 1
node 3 2 1 1
node 4 3 1 1
node 5 2 1 1
node 6 3 1 1
node 7 2 1 3
node 8 1 0 2
node 19 1 0 0
node 68 1 0 0
gene 2 1 8 -2.46341 0 1 -2.46341 1
gene 1 2 8 -1.89943 0 2 -1.89943 0
gene 1 3 8 -2.75064 0 3 -2.75064 1
gene 2 4 8 0.636776 0 4 0.636776 1
gene 1 5 8 0.403083 0 5 0.403083 1
gene 3 6 8 1.35372 0 6 1.35372 1
gene 2 7 8 -0.773795 0 7 -0.773795 1
gene 1 2 19 1.60322 0 28 1.60322 0
gene 1 19 8 0.160873 0 29 0.160873 0
gene 1 7 19 1.20073 0 32 1.20073 1
gene 1 19 68 -0.493092 0 195 -0.493092 1
gene 1 68 8 -0.532448 0 196 -0.532448 1
gene 3 4 19 -0.19593 0 261 -0.19593 1
genomeend 5

/* Organism #6 Fitness: 36 Error: 0 */
genomestart 6
trait 1 0.1 0 0 0 0 0 0 0 
trait 2 0.2 0 0 0 0 0 0 0 
trait 3 0.3 0 0 0 0 0 0 0 
node 1 3 1 1
node 2 3 1 1
node 3 2 1 1
node 4 3 1 1
node 5 2 1 1
node 6 3 1 1
node 7 2 1 3
node 8 1 0 2
node 19 1 0 0
node 68 1 0 0
gene 2 1 8 -2.47796 0 1 -2.47796 1
gene 1 2 8 -1.57299 0 2 -1.57299 0
gene 1 3 8 -3.87327 0 3 -3.87327 1
gene 2 4 8 0.493059 0 4 0.493059 1
gene 1 5 8 1.32077 0 5 1.32077 1
gene 3 6 8 1.47146 0 6 1.47146 1
gene 2 7 8 -1.84828 0 7 -1.84828 1
gene 1 2 19 4.31923 0 28 4.31923 0
gene 1 19 8 -0.570491 0 29 -0.570491 0
gene 1 7 19 1.38082 0 32 1.38082 1
gene 2 19 68 1.01678 0 195 1.01678 1
gene 1 68 8 0.879911 0 196 0.879911 1
genomeend 6

/* Organism #7 Fitness: 5 Error: 0 */
genomestart 7
trait 1 0.1 0 0 0 0 0 0 0 
trait 2 0.2 0 0 0 0 0 0 0 
trait 3 0.3 0 0 0 0 0 0 0 
node 1 3 1 1
node 2 3 1 1
node 3 2 1 1
node 4 3 1 1
node 5 2 1 1
node 6 1 1 1
node 7 2 1 3
node 8 1 0 2
node 19 1 0 0
node 68 1 0 0
gene 2 1 8 -2.18489 0 1 -2.18489 1
gene 1 2 8 -0.654562 0 2 -0.654562 0
gene 1 3 8 1.93159 0 3 1.93159 1
gene 2 4 8 -1.09836 0 4 -1.09836 1
gene 1 5 8 1.59074 0 5 1.59074 1
gene 3 6 8 -0.448659 0 6 -0.448659 1
gene 2 7 8 0.718838 0 7 0.718838 1
gene 1 2 19 3.03563 0 28 3.03563 0
gene 1 19 8 3.32371 0 29 3.32371 0
gene 1 7 19 2.21077 0 32 2.21077 1
gene 1 19 68 2.38425 0 195 2.38425 1
gene 1 68 8 0.0637254 0 196 0.0637254 1
genomeend 7

/* Organism #8 Fitness: 12 Error: 0 */
genomestart 8
trait 1 0 0 0 0 0 0.460573 0 0 
trait 2 0.2 0 0 0 0 0 0 0 
trait 3 0.3 0 0 0 0 0 0 0 
node 1 3 1 1
node 2 3 1 1
node 3 2 1 1
node 4 3 1 1
node 5 2 1 1
node 6 3 1 1
node 7 2 1 3
node 8 1 0 2
node 19 1 0 0
node 68 1 0 0
gene 2 1 8 -3.09598 0 1 -3.09598 1
gene 1 2 8 -2.21615 0 2 -2.21615 0
gene 1 3 8 -3.22472 0 3 -3.22472 1
gene 2 4 8 -0.943717 0 4 -0.943717 1
gene 1 5 8 -0.327728 0 5 -0.327728 1
gene 3 6 8 2.74281 0 6 2.74281 1
gene 2 7 8 -1.81653 0 7 -1.81653 1
gene 1 2 19 4.20925 0 28 4.20925 0
gene 1 19 8 0.0758826 0 29 0.0758826 0
gene 1 7 19 -0.233258 0 32 -0.233258 1
gene 1 19 68 2.37743 0 195 2.37743 1
gene 1 68 8 -1.33629 0 196 -1.33629 1
gene 3 4 19 -1.71709 0 261 -1.71709 1
genomeend 8

/* Organism #9 Fitness: 32 Error: 0 */
genomestart 9
trait 1 0.1 0 0 0 0 0 0 0 
trait 2 0.2 0 0 0 0 0 0 0 
trait 3 0.3 0 0 0 0 0 0 0 
node 1 3 1 1
node 2 3 1 1
node 3 2 1 1
node 4 3 1 1
node 5 2 1 1
node 6 3 1 1
node 7 2 1 3
node 8 1 0 2
node 19 1 0 0
node 68 1 0 0
node 96 1 0 0
gene 2 1 8 -0.850823 0 1 -0.850823 1
gene 1 2 8 0.120067 0 2 0.120067 0
gene 1 3 8 -2.18163 0 3 -2.18163 1
gene 2 4 8 -1.78249 0 4 -1.78249 1
gene 1 5 8 1.42993 0 5 1.42993 0
gene 3 6 8 0.848007 0 6 0.848007 1
gene 2 7 8 -1.74937 0 7 -1.74937 1
gene 1 2 19 3.03563 0 28 3.03563 0
gene 1 19 8 0.879911 0 29 0.849894 0
gene 1 7 19 1.07076 0 32 1.07076 1
gene 1 19 68 1.01678 0 195 0.516776 1
gene 1 68 8 0.879911 0 196 0 1
gene 1 5 96 1 0 278 0 1
gene 1 96 8 1.42993 0 279 0 1
genomeend 9

/* Organism #10 Fitness: 777 Error: 0 */
genomestart 10
trait 1 0.1 0 0 0 0 0 0 0 
trait 2 0.2 0 0 0 0 0 0 0 
trait 3 0.3 0 0 0 0 0 0 0 
node 1 3 1 1
node 2 3 1 1
node 3 2 1 1
node 4 3 1 1
node 5 2 1 1
node 6 3 1 1
node 7 2 1 3
node 8 1 0 2
node 19 1 0 0
node 68 1 0 0
gene 2 1 8 -0.850823 0 1 -0.850823 1
gene 1 2 8 0.120067 0 2 0.120067 0
gene 1 3 8 -2.18163 0 3 -2.18163 1
gene 2 4 8 -1.78249 0 4 -1.78249 1
gene 1 5 8 1.42993 0 5 1.42993 1
gene 3 6 8 0.848007 0 6 0.848007 1
gene 2 7 8 -1.52524 0 7 -1.52524 1
gene 1 2 19 2.66006 0 28 2.66006 0
gene 1 19 8 0.879911 0 29 0.849894 0
gene 1 7 19 1.07076 0 32 1.07076 1
gene 1 19 68 1 0 195 0 1
gene 1 68 8 0.879911 0 196 0 1
gene 3 4 19 -0.19593 0 261 -0.19593 1
genomeend 10

/* Organism #11 Fitness: 485 Error: 0 */
genomestart 11
trait 1 0.1 0 0 0 0 0 0 0 
trait 2 0.2 0 0 0 0.699821 0.71326 0 0 
trait 3 0.3 0 0 0 0 0 0 0 
node 1 3 1 1
node 2 3 1 1
node 3 2 1 1
node 4 3 1 1
node 5 2 1 1
node 6 1 1 1
node 7 2 1 3
node 8 1 0 2
node 19 1 0 0
node 68 1 0 0
gene 2 1 8 -0.850823 0 1 -0.850823 1
gene 1 2 8 0.120067 0 2 0.120067 0
gene 1 3 8 -2.18163 0 3 -2.18163 1
gene 2 4 8 -1.78249 0 4 -1.78249 1
gene 1 5 8 1.42993 0 5 1.42993 1
gene 3 6 8 0.848007 0 6 0.848007 1
gene 2 7 8 -1.97351 0 7 -1.97351 1
gene 1 2 19 2.66006 0 28 2.66006 0
gene 1 19 8 0.879911 0 29 0.849894 0
gene 1 7 19 1.07076 0 32 1.07076 1
gene 1 19 68 1 0 195 0 1
gene 1 68 8 0.879911 0 196 0 1
genomeend 11

/* Organism #12 Fitness: 34 Error: 0 */
genomestart 12
trait 1 0.1 0 0 0 0 0 0 0 
trait 2 0.2 0 0 0 0 0 0 0 
trait 3 0.3 0 0 0 0 0 0 0 
node 1 3 1 1
node 2 3 1 1
node 3 2 1 1
node 4 3 1 1
node 5 2 1 1
node 6 3 1 1
node 7 2 1 3
node 8 1 0 2
node 19 1 0 0
node 68 1 0 0
gene 2 1 8 -2.61348 0 1 -2.61348 1
gene 1 2 8 -0.457864 0 2 -0.457864 0
gene 1 3 8 -3.72172 0 3 -3.72172 1
gene 2 4 8 0.565425 0 4 0.565425 1
gene 1 5 8 2.37784 0 5 2.37784 1
gene 3 6 8 2.92622 0 6 2.92622 1
gene 2 7 8 -0.760259 0 7 -0.760259 1
gene 1 2 19 3.06369 0 28 3.06369 0
gene 1 19 8 2.22992 0 29 2.22992 0
gene 1 7 19 1.10969 0 32 1.10969 1
gene 1 19 68 2.57901 0 195 2.57901 1
gene 1 68 8 1.00634 0 196 1.00634 1
genomeend 12

/* Organism #13 Fitness: 5 Error: 0 */
genomestart 13
trait 1 0.1 0 0 0 0 0 0 0 
trait 2 0.2 0 0 0 0 0 0 0 
trait 3 0.3 0 0 0 0 0 0 0 
node 1 3 1 1
node 2 3 1 1
node 3 2 1 1
node 4 3 1 1
node 5 2 1 1
node 6 1 1 1
node 7 2 1 3
node 8 1 0 2
node 19 1 0 0
node 68 1 0 0
gene 2 1 8 1.32423 0 1 1.32423 1
gene 1 2 8 1.63619 0 2 1.63619 0
gene 1 3 8 -2.63538 0 3 -2.63538 1
gene 2 4 8 1.04075 0 4 1.04075 1
gene 1 5 8 0.986511 0 5 0.986511 1
gene 3 6 8 -1.46628 0 6 -1.46628 1
gene 2 7 8 -3.52764 0 7 -3.52764 1
gene 1 2 19 3.18852 0 28 3.18852 0
gene 1 19 8 0.773985 0 29 0.773985 0
gene 1 7 19 -0.492352 0 32 -0.492352 1
gene 1 19 68 0.454559 0 195 0.454559 1
gene 1 68 8 1.37256 0 196 1.37256 1
genomeend 13

/* Organism #14 Fitness: 16 Error: 0 */
genomestart 14
trait 1 0.1 0 0 0 0 0 0 0 
trait 2 0.2 0 0 0 0 0 0 0 
trait 3 0.3 0 0 0 0 0 0 0 
node 1 3 1 1
node 2 3 1 1
node 3 2 1 1
node 4 3 1 1
node 5 2 1 1
node 6 3 1 1
node 7 2 1 3
node 8 1 0 2
node 19 1 0 0
node 68 1 0 0
gene 2 1 8 -0.586499 0 1 -0.586499 1
gene 1 2 8 1.19253 0 2 1.19253 0
gene 1 3 8 -1.41057 0 3 -1.41057 1
gene 2 4 8 -1.78249 0 4 -1.78249 1
gene 1 5 8 -0.215695 0 5 -0.215695 1
gene 3 6 8 3.24119 0 6 3.24119 1
gene 2 7 8 -3.68209 0 7 -3.68209 1
gene 1 2 19 -2.37427 0 28 -2.37427 0
gene 1 19 8 -0.252521 0 29 -0.252521 0
gene 1 7 19 1.40478 0 32 1.40478 1
gene 1 19 68 -0.833122 0 195 -0.833122 1
gene 1 68 8 0.144042 0 196 0.144042 1
genomeend 14

/* Organism #15 Fitness: 10 Error: 0 */
genomestart 15
trait 1 0.1 0 0 0 0 0 0 0 
trait 2 0.2 0 0 0 0 0 0 0 
trait 3 0.3 0 0 0 0 0 0 0 
node 1 3 1 1
node 2 3 1 1
node 3 2 1 1
node 4 3 1 1
node 5 2 1 1
node 6 1 1 1
node 7 2 1 3
node 8 1 0 2
node 19 1 0 0
node 68 1 0 0
gene 2 1 8 -2.96799 0 1 -2.96799 1
gene 1 2 8 1.27095 0 2 1.27095 0
gene 1 3 8 -1.38695 0 3 -1.38695 1
gene 2 4 8 -0.778316 0 4 -0.778316 1
gene 1 5 8 0.348227 0 5 0.348227 1
gene 3 6 8 0.554541 0 6 0.554541 1
gene 2 7 8 -1.90065 0 7 -1.90065 1
gene 1 2 19 4.37789 0 28 4.37789 0
gene 1 19 8 0.345404 0 29 0.345404 0
gene 1 7 19 0.154999 0 32 0.154999 1
gene 1 19 68 -0.710446 0 195 -0.710446 1
gene 1 68 8 1.88433 0 196 1.88433 1
genomeend 15

/* Organism #16 Fitness: 1248 Error: 0 */
genomestart 16
trait 1 0.1 0 0 0 0 0 0 0 
trait 2 0.2 0 0 0 0 0 0 0 
trait 3 0.3 0 0 0 0 0 0 0 
node 1 3 1 1
node 2 3 1 1
node 3 2 1 1
node 4 3 1 1
node 5 2 1 1
node 6 3 1 1
node 7 2 1 3
node 8 1 0 2
node 19 1 0 0
node 68 1 0 0
gene 2 1 8 -0.850823 0 1 -0.850823 1
gene 1 2 8 0.120067 0 2 0.120067 0
gene 1 3 8 -2.18163 0 3 -2.18163 1
gene 2 4 8 -1.78249 0 4 -1.78249 1
gene 1 5 8 1.42993 0 5 1.42993 1
gene 3 6 8 0.848007 0 6 0.848007 1
gene 2 7 8 -1.74937 0 7 -1.74937 1
gene 1 2 19 2.66006 0 28 2.66006 0
gene 1 19 8 0.879911 0 29 0.849894 0
gene 1 7 19 1.07076 0 32 1.07076 1
gene 1 19 68 1 0 195 0 1
gene 1 68 8 0.879911 0 196 0 1
gene 3 4 19 -0.19593 0 261 -0.19593 1
gene 1 3 68 -0.980486 0 280 -0.980486 1
genomeend 16

/* Organism #17 Fitness: 485 Error: 0 */
genomestart 17
trait 1 0.1 0 0 0 0 0 0 0 
trait 2 0.2 0 0 0 0 0 0 0 
trait 3 0.3 0 0 0 0 0 0 0 
node 1 3 1 1
node 2 3 1 1
node 3 2 1 1
node 4 3 1 1
node 5 2 1 1
node 6 1 1 1
node 7 2 1 3
node 8 1 0 2
node 19 1 0 0
node 68 1 0 0
gene 2 1 8 -0.850823 0 1 -0.850823 1
gene 1 2 8 0.120067 0 2 0.120067 0
gene 1 3 8 -2.18163 0 3 -2.18163 1
gene 2 4 8 -1.78249 0 4 -1.78249 1
gene 1 5 8 1.42993 0 5 1.42993 1
gene 3 6 8 0.848007 0 6 0.848007 1
gene 2 7 8 -1.97351 0 7 -1.97351 1
gene 1 2 19 2.66006 0 28 2.66006 0
gene 1 19 8 0.879911 0 29 0.849894 0
gene 1 7 19 1.07076 0 32 1.07076 1
gene 1 19 68 1 0 195 0 1
gene 1 68 8 0.879911 0 196 0 1
genomeend 17

/* Organism #18 Fitness: 5 Error: 0 */
genomestart 18
trait 1 0.1 0 0 0 0 0 0 0 
trait 2 0.2 0 0 0 0 0 0 0 
trait 3 0.3 0 0 0 0 0 0 0 
node 1 3 1 1
node 2 3 1 1
node 3 2 1 1
node 4 3 1 1
node 5 2 1 1
node 6 3 1 1
node 7 2 1 3
node 8 1 0 2
node 19 1 0 0
node 68 1 0 0
gene 2 1 8 -1.12331 0 1 -1.12331 1
gene 1 2 8 -0.685936 0 2 -0.685936 0
gene 1 3 8 -2.37436 0 3 -2.37436 1
gene 2 4 8 -4.07209 0 4 -4.07209 1
gene 1 5 8 -0.49124 0 5 -0.49124 1
gene 3 6 8 -1.53306 0 6 -1.53306 1
gene 2 7 8 -3.03393 0 7 -3.03393 1
gene 1 2 19 4.62244 0 28 4.62244 0
gene 1 19 8 -1.6055 0 29 -1.6055 0
gene 1 7 19 0.656037 0 32 0.656037 1
gene 1 19 68 1.62422 0 195 1.62422 1
gene 1 68 8 0.848838 0 196 0.848838 1
genomeend 18

/* Organism #19 Fitness: 5 Error: 0 */
genomestart 19
trait 1 0.1 0 0 0 0 0 0 0 
trait 2 0.2 0 0 0 0 0 0 0 
trait 3 0.3 0 0 0 0 0 0 0 
node 1 3 1 1
node 2 3 1 1
node 3 2 1 1
node 4 3 1 1
node 5 2 1 1
node 6 3 1 1
node 7 2 1 3
node 8 1 0 2
node 19 1 0 0
node 68 1 0 0
gene 2 1 8 -3.05624 0 1 -3.05624 1
gene 1 2 8 0.924093 0 2 0.924093 0
gene 1 3 8 -3.99375 0 3 -3.99375 1
gene 2 4 8 -2.53797 0 4 -2.53797 1
gene 1 5 8 -0.243025 0 5 -0.243025 1
gene 3 6 8 -0.827506 0 6 -0.827506 1
gene 2 7 8 0.116762 0 7 0.116762 1
gene 1 2 19 1.95644 0 28 1.95644 0
gene 1 19 8 1.67711 0 29 1.67711 0
gene 1 7 19 1.2736 0 32 1.2736 1
gene 1 19 68 -1.00657 0 195 -1.00657 1
gene 1 68 8 0.879911 0 196 0.879911 1
genomeend 19

/* Organism #20 Fitness: 833 Error: 0 */
genomestart 20
trait 1 0.1 0 0 0 0 0 0 0 
trait 2 0.2 0 0 0 0 0 0 0 
trait 3 0.3 0 0 0 0 0 0 0 
node 1 3 1 1
node 2 3 1 1
node 3 2 1 1
node 4 3 1 1
node 5 2 1 1
node 6 1 1 1
node 7 2 1 3
node 8 1 0 2
node 19 1 0 0
node 68 1 0 0
gene 2 1 8 -0.850823 0 1 -0.850823 1
gene 1 2 8 0.120067 0 2 0.120067 0
gene 1 3 8 -2.18163 0 3 -2.18163 1
gene 2 4 8 -1.78249 0 4 -1.78249 1
gene 1 5 8 1.42993 0 5 1.42993 1
gene 3 6 8 0.848007 0 6 0.848007 1
gene 2 7 8 -1.86144 0 7 -1.86144 1
gene 1 2 19 2.84785 0 28 2.84785 0
gene 1 19 8 0.879911 0 29 0.849894 0
gene 1 7 19 1.07076 0 32 1.07076 1
gene 1 19 68 1.00839 0 195 0.258388 1
gene 1 68 8 0.879911 0 196 0 1
genomeend 20

/* Organism #21 Fitness: 33 Error: 0 */
genomestart 21
trait 1 0.1 0 0 0 0 0 0 0 
trait 2 0.2 0 0 0 0 0 0 0 
trait 3 0.3 0 0 0 0 0 0 0 
node 1 3 1 1
node 2 3 1 1
node 3 2 1 1
node 4 3 1 1
node 5 2 1 1
node 6 3 1 1
node 7 2 1 3
node 8 1 0 2
node 19 1 0 0
node 68 1 0 0
gene 2 1 8 -0.850823 0 1 -0.850823 1
gene 1 2 8 0.120067 0 2 0.120067 0
gene 1 3 8 -2.18163 0 3 -2.18163 1
gene 2 4 8 -1.78249 0 4 -1.78249 1
gene 1 5 8 1.42993 0 5 1.42993 1
gene 3 6 8 0.848007 0 6 0.848007 1
gene 2 7 8 -1.63731 0 7 -1.63731 1
gene 1 2 19 2.84785 0 28 2.84785 0
gene 1 19 8 0.879911 0 29 0.849894 1
gene 1 7 19 1.07076 0 32 1.07076 1
gene 1 19 68 1.00839 0 195 0.258388 1
gene 1 68 8 0.879911 0 196 0 1
genomeend 21

/* Organism #22 Fitness: 30 Error: 0 */
genomestart 22
trait 1 0.1 0 0 0 0 0 0 0 
trait 2 0.2 0 0 0 0 0 0 0 
trait 3 0.3 0 0 0 0 0 0 0 
node 1 3 1 1
node 2 3 1 1
node 3 2 1 1
node 4 3 1 1
node 5 2 1 1
node 6 3 1 1
node 7 2 1 3
node 8 1 0 2
node 19 1 0 0
node 68 1 0 0
gene 2 1 8 0.369831 0 1 0.369831 1
gene 1 2 8 -2.09393 0 2 -2.09393 0
gene 1 3 8 -3.03993 0 3 -3.03993 1
gene 1 4 8 -1.66301 0 4 -1.66301 1
gene 1 5 8 -0.22507 0 5 -0.22507 1
gene 3 6 8 2.50742 0 6 2.50742 1
gene 2 7 8 -3.8527 0 7 -3.8527 1
gene 1 2 19 -0.0393963 0 28 -0.0393963 0
gene 1 19 8 0.879911 0 29 0.879911 0
gene 1 7 19 -1.62756 0 32 -1.62756 1
gene 1 19 68 0.486392 0 195 0.486392 1
gene 1 68 8 2.73514 0 196 2.73514 1
genomeend 22

/* Organism #23 Fitness: 31 Error: 0 */
genomestart 23
trait 1 0.1 0 0 0 0 0 0 0 
trait 2 0.2 0 0 0 0 0 0 0 
trait 3 0.3 0 0 0 0 0 0 0 
node 1 3 1 1
node 2 3 1 1
node 3 2 1 1
node 4 3 1 1
node 5 2 1 1
node 6 3 1 1
node 7 2 1 3
node 8 1 0 2
node 19 1 0 0
node 68 1 0 0
gene 2 1 8 -1.76508 0 1 -1.76508 1
gene 1 2 8 -1.09989 0 2 -1.09989 0
gene 1 3 8 -3.75044 0 3 -3.75044 1
gene 2 4 8 -2.68785 0 4 -2.68785 1
gene 1 5 8 -0.256478 0 5 -0.256478 1
gene 3 6 8 1.75273 0 6 1.75273 1
gene 2 7 8 0.569897 0 7 0.569897 1
gene 1 2 19 2.77863 0 28 2.77863 0
gene 1 19 8 2.20991 0 29 2.20991 0
gene 1 7 19 -0.879323 0 32 -0.879323 1
gene 1 19 68 -1.69282 0 195 -1.69282 1
gene 1 68 8 2.29641 0 196 2.29641 1
genomeend 23

/* Organism #24 Fitness: 45 Error: 0 */
genomestart 24
trait 1 0.1 0 0 0 0 0 0 0 
trait 2 0.2 0 0 0 0 0 0 0 
trait 3 0.3 0 0 0 0 0 0 0 
node 1 3 1 1
node 2 3 1 1
node 3 2 1 1
node 4 3 1 1
node 5 2 1 1
node 6 3 1 1
node 7 2 1 3
node 8 1 0 2
node 19 1 0 0
node 68 1 0 0
gene 2 1 8 -2.74801 0 1 -2.74801 1
gene 1 2 8 2.26231 0 2 2.26231 0
gene 1 3 8 -1.8926 0 3 -1.8926 1
gene 2 4 8 -0.179669 0 4 -0.179669 1
gene 1 5 8 0.398289 0 5 0.398289 1
gene 3 6 8 2.0618 0 6 2.0618 1
gene 2 7 8 0.0351154 0 7 0.0351154 1
gene 1 2 19 4.26959 0 28 4.26959 0
gene 1 19 8 0.548717 0 29 0.548717 0
gene 1 7 19 -0.45522 0 32 -0.45522 1
gene 1 19 68 -0.798242 0 195 -0.798242 1
gene 1 68 8 0.634257 0 196 0.634257 1
genomeend 24

/* Species #3 : (Size 8) (AF 44.5) (Age 20)  */


/* Organism #25 Fitness: 126 Error: 0 */
genomestart 25
trait 1 0.0875 0 0 0.00917042 0 0.0744408 0.0948746 0 
trait 2 0.2 0 0 0 0 0 0 0 
trait 3 0.3 0.0444631 0.00394923 0.0179918 0 0 0 0 
node 1 3 1 1
node 2 3 1 1
node 3 2 1 1
node 4 1 1 1
node 5 3 1 1
node 6 3 1 1
node 7 2 1 3
node 8 1 0 2
node 19 3 0 0
node 23 1 0 0
gene 2 1 8 -0.3346 0 1 -0.3346 1
gene 1 2 8 1.65733 0 2 1.65733 0
gene 1 3 8 1.91567 0 3 1.91567 0
gene 2 4 8 -2.85947 0 4 -2.85947 1
gene 1 5 8 8 0 5 8 1
gene 3 6 8 1.43928 0 6 1.43928 1
gene 2 7 8 0.0699705 0 7 0.0699705 1
gene 1 2 19 -1.59859 0 28 -1.59859 1
gene 1 19 8 -5.2133 0 29 -5.2133 1
gene 1 3 23 -2.85251 0 37 -2.85251 1
gene 1 23 8 2.15028 0 38 2.15028 1
genomeend 25

/* Organism #26 Fitness: 84 Error: 0 */
genomestart 26
trait 1 0.0875 0 0 0.00917042 0 0.0744408 0.0948746 0 
trait 2 0.2 0 0 0 0 0 0 0 
trait 3 0.3 0.0333473 0.00296192 0.0134938 0 0 0 0 
node 1 3 1 1
node 2 3 1 1
node 3 2 1 1
node 4 1 1 1
node 5 2 1 1
node 6 3 1 1
node 7 2 1 3
node 8 1 0 2
node 19 3 0 0
node 23 1 0 0
gene 2 1 8 -1.6962 0 1 -1.6962 1
gene 1 2 8 1.59475 0 2 1.59475 0
gene 1 3 8 2.71324 0 3 2.71324 0
gene 2 4 8 -2.31516 0 4 -2.31516 1
gene 1 5 8 7.96392 0 5 7.96392 1
gene 3 6 8 1.37606 0 6 1.37606 1
gene 2 7 8 0.0574061 0 7 0.0574061 1
gene 1 2 19 -1.37291 0 28 -1.37291 1
gene 1 19 8 -4.32708 0 29 -4.32708 1
gene 1 3 23 -2.23494 0 37 -2.23494 1
gene 1 23 8 0.652474 0 38 0.652474 1
genomeend 26

/* Organism #27 Fitness: 5 Error: 0 */
genomestart 27
trait 1 0.0875 0 0 0.00917042 0 0.0744408 0.0948746 0 
trait 2 0.2 0 0 0 0 0 0 0 
trait 3 0.3 0.0222316 0.00197461 0.00899589 0 0 0 0 
node 1 3 1 1
node 2 3 1 1
node 3 2 1 1
node 4 1 1 1
node 5 2 1 1
node 6 3 1 1
node 7 2 1 3
node 8 1 0 2
node 19 3 0 0
node 23 1 0 0
gene 2 1 8 -3.10043 0 1 -3.10043 1
gene 1 2 8 1.30622 0 2 1.30622 0
gene 1 3 8 1.84268 0 3 1.84268 0
gene 2 4 8 -2.18626 0 4 -2.18626 1
gene 1 5 8 8 0 5 8 1
gene 3 6 8 -0.990714 0 6 -0.990714 1
gene 2 7 8 -1.12534 0 7 -1.12534 1
gene 1 2 19 -2.63003 0 28 -2.63003 1
gene 1 19 8 -3.44085 0 29 -3.44085 1
gene 1 3 23 -3.01721 0 37 -3.01721 1
gene 1 23 8 0.851591 0 38 0.851591 1
genomeend 27

/* Organism #28 Fitness: 5 Error: 0 */
genomestart 28
trait 1 0.858064 0 0 0.543118 0.567847 0.0744408 0.0948746 0.991651 
trait 2 0.2 0 0 0 0 0 0 0 
trait 3 0.3 0.0333473 0.00296192 0.0134938 0 0 0 0 
node 1 3 1 1
node 2 3 1 1
node 3 2 1 1
node 4 1 1 1
node 5 2 1 1
node 6 3 1 1
node 7 2 1 3
node 8 1 0 2
node 19 3 0 0
node 23 1 0 0
gene 2 1 8 -1.01529 0 1 -1.01529 1
gene 1 2 8 2.11061 0 2 2.11061 1
gene 1 3 8 2.64772 0 3 2.64772 0
gene 2 4 8 -1.1141 0 4 -1.1141 1
gene 1 5 8 8 0 5 8 1
gene 3 6 8 -0.722325 0 6 -0.722325 1
gene 2 7 8 -0.49983 0 7 -0.49983 1
gene 1 2 19 -2.39695 0 28 -2.39695 1
gene 1 19 8 -1.96669 0 29 -1.96669 1
gene 1 3 23 -2.23494 0 37 -2.23494 1
gene 1 23 8 0.652474 0 38 0.652474 1
genomeend 28

/* Organism #29 Fitness: 42 Error: 0 */
genomestart 29
trait 1 0.0875 0 0 0.00917042 0 0.0744408 0.0948746 0 
trait 2 0.2 0 0 0 0 0 0 0 
trait 3 0.3 0.0444631 0.00394923 0.0179918 0 0 0 0 
node 1 3 1 1
node 2 3 1 1
node 3 2 1 1
node 4 1 1 1
node 5 3 1 1
node 6 3 1 1
node 7 2 1 3
node 8 1 0 2
node 19 3 0 0
node 23 1 0 0
gene 2 1 8 1.26642 0 1 1.26642 1
gene 1 2 8 0.874332 0 2 0.874332 0
gene 1 3 8 3.47549 0 3 3.47549 1
gene 2 4 8 -5.18285 0 4 -5.18285 1
gene 1 5 8 6.79572 0 5 6.79572 1
gene 3 6 8 2.10061 0 6 2.10061 1
gene 2 7 8 1.05634 0 7 1.05634 1
gene 1 2 19 -2.00007 0 28 -2.00007 1
gene 1 19 8 -3.18052 0 29 -3.18052 1
gene 1 3 23 -2.53673 0 37 -2.53673 1
gene 1 23 8 2.15028 0 38 2.15028 1
genomeend 29

/* Organism #30 Fitness: 7 Error: 0 */
genomestart 30
trait 1 0.0875 0 0 0.00917042 0 0.0744408 0.0948746 0 
trait 2 0.2 0 0 0 0 0 0 0 
trait 3 0.3 0.0222316 0.00197461 0.00899589 0 0 0 0 
node 1 3 1 1
node 2 3 1 1
node 3 2 1 1
node 4 1 1 1
node 5 2 1 1
node 6 3 1 1
node 7 2 1 3
node 8 1 0 2
node 19 3 0 0
node 23 1 0 0
gene 2 1 8 -3.35004 0 1 -3.35004 1
gene 1 2 8 2.81079 0 2 2.81079 0
gene 1 3 8 4.79207 0 3 4.79207 0
gene 2 4 8 -0.324701 0 4 -0.324701 1
gene 1 5 8 6.41261 0 5 6.41261 1
gene 3 6 8 -0.442447 0 6 -0.442447 1
gene 2 7 8 0.97433 0 7 0.97433 1
gene 1 2 19 -2.2334 0 28 -2.2334 1
gene 1 19 8 -3.27102 0 29 -3.27102 1
gene 1 3 23 -3.72676 0 37 -3.72676 1
gene 1 23 8 -3.05561 0 38 -3.05561 1
genomeend 30

/* Organism #31 Fitness: 38 Error: 0 */
genomestart 31
trait 1 0.0875 0 0 0.00917042 0 0.0744408 0.0948746 0 
trait 2 0.2 0 0 0 0 0 0 0 
trait 3 0.3 0.0222316 0.00197461 0.00899589 0 0 0 0 
node 1 3 1 1
node 2 3 1 1
node 3 2 1 1
node 4 1 1 1
node 5 2 1 1
node 6 3 1 1
node 7 2 1 3
node 8 1 0 2
node 19 3 0 0
node 23 1 0 0
gene 2 1 8 -5.40021 0 1 -5.40021 1
gene 1 2 8 2.58382 0 2 2.58382 0
gene 1 3 8 2.86908 0 3 2.86908 0
gene 2 4 8 -2.02562 0 4 -2.02562 1
gene 1 5 8 8 0 5 8 1
gene 3 6 8 0.744619 0 6 0.744619 1
gene 2 7 8 1.33162 0 7 1.33162 1
gene 1 2 19 -3.55246 0 28 -3.55246 1
gene 1 19 8 -2.48946 0 29 -2.48946 1
gene 1 3 23 -2.00304 0 37 -2.00304 1
gene 1 23 8 -2.20694 0 38 -2.20694 1
genomeend 31

/* Organism #32 Fitness: 49 Error: 0 */
genomestart 32
trait 1 0.0875 0 0 0.00917042 0 0.0744408 0.0948746 0 
trait 2 0.2 0 0 0 0 0 0 0 
trait 3 0.3 0.0222316 0.00197461 0.00899589 0 0 0 0 
node 1 3 1 1
node 2 3 1 1
node 3 2 1 1
node 4 1 1 1
node 5 2 1 1
node 6 3 1 1
node 7 2 1 3
node 8 1 0 2
node 19 3 0 0
node 23 1 0 0
gene 2 1 8 -1.74928 0 1 -1.74928 1
gene 1 2 8 0.350309 0 2 0.350309 0
gene 1 3 8 5.31923 0 3 5.31923 0
gene 2 4 8 -0.104722 0 4 -0.104722 1
gene 1 5 8 6.18373 0 5 6.18373 1
gene 3 6 8 3.28188 0 6 3.28188 1
gene 2 7 8 2.20426 0 7 2.20426 1
gene 1 2 19 -2.90528 0 28 -2.90528 1
gene 1 19 8 -4.85904 0 29 -4.85904 1
gene 1 3 23 -1.71742 0 37 -1.71742 1
gene 1 23 8 -0.0281058 0 38 -0.0281058 1
genomeend 32

/* Species #5 : (Size 4) (AF 5.75) (Age 17)  */


/* Organism #33 Fitness: 5 Error: 0 */
genomestart 33
trait 1 0.084375 0 0 0.011463 0.0163967 0.0993312 0.118593 0 
trait 2 0.17986 0 0 0 0 0 0 0 
trait 3 0.3 0.225246 0 0.0248525 0.045297 0.13973 0 0 
node 1 3 1 1
node 2 1 1 1
node 3 2 1 1
node 4 1 1 1
node 5 3 1 1
node 6 1 1 1
node 7 1 1 3
node 8 3 0 2
node 24 1 0 0
gene 1 1 8 -3.44255 0 1 -3.44255 0
gene 2 2 8 2.18486 0 2 2.18486 1
gene 3 3 8 -2.1443 0 3 -2.1443 1
gene 3 4 8 -2.25789 0 4 -2.25789 1
gene 3 5 8 6.42252 0 5 6.42252 1
gene 3 6 8 -1.20807 0 6 -1.20807 1
gene 2 7 8 2.8024 0 7 2.8024 1
gene 2 1 24 0.240905 0 39 0.240905 1
gene 2 24 8 -0.664632 0 40 -0.664632 1
gene 1 2 24 -1.15368 0 60 -1.15368 1
gene 2 5 24 -0.610732 0 92 -0.610732 1
gene 3 4 24 -2.26114 0 110 -2.26114 1
genomeend 33

/* Organism #34 Fitness: 7 Error: 0 */
genomestart 34
trait 1 0.084375 0 0 0.011463 0.0163967 0.0993312 0.118593 0 
trait 2 0.17986 0 0 0 0 0 0 0 
trait 3 0.3 0.225246 0 0.0248525 0.045297 0.13973 0 0 
node 1 3 1 1
node 2 1 1 1
node 3 2 1 1
node 4 1 1 1
node 5 1 1 1
node 6 1 1 1
node 7 1 1 3
node 8 3 0 2
node 24 1 0 0
gene 1 1 8 -3.71838 0 1 -3.71838 0
gene 2 2 8 4.47369 0 2 4.47369 1
gene 3 3 8 -0.175625 0 3 -0.175625 1
gene 3 4 8 -0.928615 0 4 -0.928615 1
gene 3 5 8 1.97817 0 5 1.97817 1
gene 3 6 8 0.391506 0 6 0.391506 1
gene 2 7 8 1.36947 0 7 1.36947 1
gene 2 1 24 1.41986 0 39 1.41986 1
gene 2 24 8 0.456233 0 40 0.456233 1
gene 1 2 24 -0.302148 0 60 -0.302148 1
gene 2 5 24 0.432541 0 92 0.432541 1
gene 3 4 24 2.37245 0 110 2.37245 1
genomeend 34

/* Organism #35 Fitness: 6 Error: 0 */
genomestart 35
trait 1 0.084375 0 0 0.011463 0.0163967 0.0993312 0.118593 0 
trait 2 0.17986 0 0 0 0 0 0 0 
trait 3 0.3 0.450491 0 0 0.090594 0 0 0 
node 1 3 1 1
node 2 1 1 1
node 3 2 1 1
node 4 1 1 1
node 5 1 1 1
node 6 1 1 1
node 7 1 1 3
node 8 3 0 2
node 24 1 0 0
gene 1 1 8 -0.599677 0 1 -0.599677 0
gene 2 2 8 3.42518 0 2 3.42518 1
gene 3 3 8 -2.33123 0 3 -2.33123 1
gene 2 4 8 -2.12372 0 4 -2.12372 1
gene 3 5 8 6.51737 0 5 6.51737 1
gene 3 6 8 0.00317416 0 6 0.00317416 1
gene 2 7 8 0.693668 0 7 0.693668 1
gene 2 1 24 2.02243 0 39 2.02243 1
gene 2 24 8 -2.2393 0 40 -2.2393 1
gene 1 2 24 -2.19777 0 60 -2.19777 1
gene 2 5 24 0.790203 0 92 0.790203 1
gene 3 4 24 0.571986 0 110 0.571986 1
genomeend 35

/* Organism #36 Fitness: 5 Error: 0 */
genomestart 36
trait 1 0.084375 0 0 0.011463 0.0163967 0.0993312 0.118593 0 
trait 2 0.17986 0 0 0 0 0 0 0 
trait 3 0.3 0 0 0.049705 0 0.27946 0 0 
node 1 3 1 1
node 2 1 1 1
node 3 2 1 1
node 4 1 1 1
node 5 1 1 1
node 6 1 1 1
node 7 1 1 3
node 8 3 0 2
node 24 1 0 0
gene 1 1 8 -2.36926 0 1 -2.36926 1
gene 2 2 8 4.5392 0 2 4.5392 1
gene 3 3 8 2.42133 0 3 2.42133 1
gene 3 4 8 -1.00016 0 4 -1.00016 1
gene 3 5 8 2.11741 0 5 2.11741 1
gene 3 6 8 0.279255 0 6 0.279255 1
gene 2 7 8 -2.22404 0 7 -2.22404 1
gene 2 1 24 1.70899 0 39 1.70899 1
gene 2 24 8 -3.05042 0 40 -3.05042 1
gene 1 2 24 1.97609 0 60 1.97609 1
gene 2 5 24 -0.610732 0 92 -0.610732 1
gene 3 4 24 -2.38989 0 110 -2.38989 1
genomeend 36

/* Species #6 : (Size 9) (AF 98.5556) (Age 17)  */


/* Organism #37 Fitness: 297 Error: 0 */
genomestart 37
trait 1 0.1 0 0 0.0128062 0 0 0 0 
trait 2 0.2 0 0 0 0 0 0 0 
trait 3 0.3 0 0 0 0 0 0 0 
node 1 3 1 1
node 2 3 1 1
node 3 2 1 1
node 4 1 1 1
node 5 2 1 1
node 6 3 1 1
node 7 2 1 3
node 8 1 0 2
node 19 1 0 0
node 36 1 0 0
node 51 1 0 0
node 65 1 0 0
node 70 1 0 0
node 87 1 0 0
gene 2 1 8 -0.424523 0 1 -0.424523 1
gene 1 2 8 3.00213 0 2 3.00213 0
gene 1 3 8 -0.532844 0 3 -0.532844 1
gene 2 4 8 -5.6527 0 4 -5.6527 1
gene 1 5 8 1.97892 0 5 1.97892 1
gene 3 6 8 1.88946 0 6 1.88946 1
gene 2 7 8 -0.893596 0 7 -0.893596 1
gene 1 2 19 2.90232 0 28 2.90232 0
gene 1 19 8 0.374197 0 29 0.374197 1
gene 1 7 19 1.45825 0 32 1.45825 1
gene 2 5 19 3.0357 0 43 3.0357 0
gene 1 6 19 1.93683 0 55 1.93683 0
gene 2 3 19 0.779385 0 63 0.779385 0
gene 2 5 36 1.31503 0 78 1.31503 1
gene 2 36 19 -2.39637 0 79 -2.39637 1
gene 2 3 51 1 0 125 0 1
gene 2 51 19 0.779385 0 126 0 1
gene 1 2 65 1 0 181 0.5 1
gene 1 65 19 0.994533 0 182 -0.456628 1
gene 1 6 70 1 0 200 0 1
gene 1 70 19 0.593 0 201 -0.375413 0
gene 1 70 87 1 0 248 0 1
gene 1 87 19 0.593 0 249 0 1
genomeend 37

/* Organism #38 Fitness: 297 Error: 0 */
genomestart 38
trait 1 0.1 0 0 0.0128062 0 0 0 0 
trait 2 0.2 0 0 0 0 0 0 0 
trait 3 0.3 0 0 0 0 0 0 0 
node 1 3 1 1
node 2 3 1 1
node 3 2 1 1
node 4 1 1 1
node 5 2 1 1
node 6 3 1 1
node 7 2 1 3
node 8 1 0 2
node 19 1 0 0
node 36 1 0 0
node 51 1 0 0
node 65 1 0 0
node 70 1 0 0
node 87 1 0 0
gene 2 1 8 -0.424523 0 1 -0.424523 1
gene 1 2 8 3.00213 0 2 3.00213 0
gene 1 3 8 -0.532844 0 3 -0.532844 1
gene 2 4 8 -5.6527 0 4 -5.6527 1
gene 1 5 8 1.97892 0 5 1.97892 1
gene 3 6 8 1.88946 0 6 1.88946 1
gene 2 7 8 -0.893596 0 7 -0.893596 1
gene 1 2 19 2.90232 0 28 2.90232 0
gene 1 19 8 0.374197 0 29 0.374197 1
gene 1 7 19 1.45825 0 32 1.45825 1
gene 2 5 19 3.0357 0 43 3.0357 0
gene 1 6 19 1.93683 0 55 1.93683 0
gene 2 3 19 0.779385 0 63 0.779385 0
gene 2 5 36 1.31503 0 78 1.31503 1
gene 2 36 19 -2.39637 0 79 -2.39637 1
gene 2 3 51 1 0 125 0 1
gene 2 51 19 0.779385 0 126 0 1
gene 1 2 65 1 0 181 0.5 1
gene 1 65 19 0.994533 0 182 -0.456628 1
gene 1 6 70 1 0 200 0 1
gene 1 70 19 0.593 0 201 -0.375413 0
gene 1 70 87 1 0 248 0 1
gene 1 87 19 0.593 0 249 0 1
genomeend 38

/* Organism #39 Fitness: 41 Error: 0 */
genomestart 39
trait 1 0.1 0 0 0.0128062 0 0 0 0 
trait 2 0.2 0 0 0 0 0 0 0 
trait 3 0.3 0 0 0 0 0 0 0 
node 1 3 1 1
node 2 3 1 1
node 3 2 1 1
node 4 1 1 1
node 5 2 1 1
node 6 3 1 1
node 7 2 1 3
node 8 1 0 2
node 19 1 0 0
node 36 1 0 0
node 51 1 0 0
node 65 1 0 0
node 70 1 0 0
node 87 1 0 0
gene 2 1 8 -2.88844 0 1 -2.88844 1
gene 1 2 8 2.43872 0 2 2.43872 0
gene 1 3 8 -0.299193 0 3 -0.299193 1
gene 2 4 8 -4.44146 0 4 -4.44146 1
gene 1 5 8 0.73887 0 5 0.73887 1
gene 3 6 8 4.12104 0 6 4.12104 1
gene 2 7 8 -1.39258 0 7 -1.39258 1
gene 1 2 19 4.63216 0 28 4.63216 0
gene 1 19 8 -1.06785 0 29 -1.06785 1
gene 1 7 19 -0.13986 0 32 -0.13986 1
gene 2 5 19 2.33313 0 43 2.33313 0
gene 1 6 19 -0.093921 0 55 -0.093921 0
gene 2 3 19 0.939263 0 63 0.939263 0
gene 2 5 36 -0.39896 0 78 -0.39896 1
gene 2 36 19 -2.82893 0 79 -2.82893 1
gene 2 3 51 2.90196 0 125 2.90196 1
gene 2 51 19 -1.38967 0 126 -1.38967 1
gene 1 2 65 3.4974 0 181 3.4974 1
gene 1 65 19 0.0315475 0 182 0.0315475 1
gene 1 6 70 0.506267 0 200 0.506267 1
gene 1 70 19 -0.671529 0 201 -0.671529 0
gene 1 70 87 1.71958 0 248 1.71958 1
gene 1 87 19 0.722468 0 249 0.722468 1
genomeend 39

/* Organism #40 Fitness: 36 Error: 0 */
genomestart 40
trait 1 0.1 0 0 0.0128062 0 0 0 0 
trait 2 0.2 0 0 0 0 0 0 0 
trait 3 0.3 0 0 0 0 0 0 0 
node 1 3 1 1
node 2 3 1 1
node 3 2 1 1
node 4 1 1 1
node 5 2 1 1
node 6 3 1 1
node 7 2 1 3
node 8 1 0 2
node 19 1 0 0
node 36 1 0 0
node 51 1 0 0
node 65 1 0 0
node 70 1 0 0
node 87 1 0 0
gene 2 1 8 1.63378 0 1 1.63378 1
gene 1 2 8 3.98421 0 2 3.98421 0
gene 1 3 8 -0.201713 0 3 -0.201713 1
gene 2 4 8 -3.18614 0 4 -3.18614 1
gene 1 5 8 0.748729 0 5 0.748729 1
gene 3 6 8 3.51906 0 6 3.51906 1
gene 2 7 8 -1.32688 0 7 -1.32688 1
gene 1 2 19 4.66696 0 28 4.66696 0
gene 1 19 8 2.56495 0 29 2.56495 1
gene 1 7 19 0.127192 0 32 0.127192 1
gene 2 5 19 0.629412 0 43 0.629412 0
gene 1 6 19 4.28758 0 55 4.28758 0
gene 2 3 19 -0.918999 0 63 -0.918999 0
gene 2 5 36 0.103997 0 78 0.103997 1
gene 2 36 19 -2.52137 0 79 -2.52137 1
gene 2 3 51 -0.499817 0 125 -0.499817 1
gene 2 51 19 1.83634 0 126 1.83634 1
gene 1 2 65 0.48664 0 181 0.48664 1
gene 1 65 19 0.5181 0 182 0.5181 1
gene 1 6 70 1 0 200 1 1
gene 1 70 19 -0.815127 0 201 -0.815127 0
gene 1 70 87 1 0 248 1 1
gene 1 87 19 -0.971953 0 249 -0.971953 1
genomeend 40

/* Organism #41 Fitness: 109 Error: 0 */
genomestart 41
trait 1 0.1 0 0 0.0128062 0 0 0 0 
trait 2 0.2 0 0 0 0 0 0 0 
trait 3 0.3 0 0 0 0 0 0 0 
node 1 3 1 1
node 2 3 1 1
node 3 2 1 1
node 4 1 1 1
node 5 2 1 1
node 6 3 1 1
node 7 2 1 3
node 8 1 0 2
node 19 1 0 0
node 36 1 0 0
node 51 1 0 0
node 65 1 0 0
node 70 1 0 0
node 87 1 0 0
gene 2 1 8 -0.476714 0 1 -0.476714 1
gene 1 2 8 0.593896 0 2 0.593896 0
gene 1 3 8 1.13058 0 3 1.13058 1
gene 2 4 8 -7.0731 0 4 -7.0731 1
gene 1 5 8 2.85163 0 5 2.85163 1
gene 3 6 8 1.88946 0 6 1.88946 1
gene 2 7 8 2.2051 0 7 2.2051 1
gene 1 2 19 3.94412 0 28 3.94412 0
gene 1 19 8 -2.05108 0 29 -2.05108 1
gene 1 7 19 2.31917 0 32 2.31917 1
gene 2 5 19 1.71637 0 43 1.71637 0
gene 1 6 19 3.43063 0 55 3.43063 1
gene 2 3 19 3.165 0 63 3.165 0
gene 2 5 36 1.924 0 78 1.924 1
gene 2 36 19 0.122228 0 79 0.122228 1
gene 2 3 51 0.540923 0 125 0.540923 1
gene 2 51 19 -0.370762 0 126 -0.370762 1
gene 1 2 65 1 0 181 1 1
gene 1 65 19 0.994533 0 182 0.994533 1
gene 1 6 70 -0.8428 0 200 -0.8428 1
gene 1 70 19 1.90182 0 201 1.90182 0
gene 1 70 87 3.09595 0 248 3.09595 1
gene 1 87 19 2.04581 0 249 2.04581 1
genomeend 41

/* Organism #42 Fitness: 34 Error: 0 */
genomestart 42
trait 1 0.1 0 0 0.0128062 0 0 0 0 
trait 2 0.2 0 0 0 0 0 0 0 
trait 3 0.3 0 0 0 0 0 0 0 
node 1 3 1 1
node 2 3 1 1
node 3 2 1 1
node 4 1 1 1
node 5 2 1 1
node 6 3 1 1
node 7 2 1 3
node 8 1 0 2
node 19 1 0 0
node 36 1 0 0
node 51 1 0 0
node 65 1 0 0
node 70 1 0 0
node 87 1 0 0
gene 2 1 8 0.648025 0 1 0.648025 1
gene 1 2 8 2.48159 0 2 2.48159 0
gene 1 3 8 1.46285 0 3 1.46285 1
gene 2 4 8 -4.6914 0 4 -4.6914 1
gene 1 5 8 3.03153 0 5 3.03153 1
gene 3 6 8 3.19926 0 6 3.19926 1
gene 2 7 8 0.936461 0 7 0.936461 1
gene 1 2 19 2.91685 0 28 2.91685 0
gene 1 19 8 -0.318435 0 29 -0.318435 1
gene 1 7 19 0.58316 0 32 0.58316 1
gene 2 5 19 1.98588 0 43 1.98588 0
gene 1 6 19 0.810254 0 55 0.810254 0
gene 2 3 19 -0.544729 0 63 -0.544729 0
gene 2 5 36 2.37859 0 78 2.37859 1
gene 2 36 19 -4.23027 0 79 -4.23027 1
gene 2 3 51 3.35444 0 125 3.35444 1
gene 2 51 19 1.27293 0 126 1.27293 1
gene 1 2 65 1.2846 0 181 1.2846 1
gene 1 65 19 2.35048 0 182 2.35048 1
gene 1 6 70 -1.48252 0 200 -1.48252 1
gene 1 70 19 0.593 0 201 0.593 0
gene 1 70 87 1 0 248 1 1
gene 1 87 19 2.8522 0 249 2.8522 1
genomeend 42

/* Organism #43 Fitness: 29 Error: 0 */
genomestart 43
trait 1 0.1 0 0 0.0128062 0 0 0 0 
trait 2 0.2 0 0 0 0 0 0 0 
trait 3 0.3 0 0 0 0 0 0 0 
node 1 3 1 1
node 2 3 1 1
node 3 2 1 1
node 4 1 1 1
node 5 2 1 1
node 6 3 1 1
node 7 2 1 3
node 8 1 0 2
node 19 1 0 0
node 36 1 0 0
node 51 1 0 0
node 65 1 0 0
node 70 1 0 0
node 87 1 0 0
gene 2 1 8 0.0904352 0 1 0.0904352 1
gene 1 2 8 4.17612 0 2 4.17612 0
gene 1 3 8 0.210768 0 3 0.210768 1
gene 2 4 8 -7.086 0 4 -7.086 1
gene 1 5 8 3.09784 0 5 3.09784 1
gene 3 6 8 3.67822 0 6 3.67822 1
gene 2 7 8 0.385429 0 7 0.385429 1
gene 1 2 19 1.94044 0 28 1.94044 0
gene 1 19 8 1.94939 0 29 1.94939 1
gene 1 7 19 1.0545 0 32 1.0545 1
gene 2 5 19 0.549041 0 43 0.549041 0
gene 1 6 19 3.67984 0 55 3.67984 0
gene 2 3 19 2.73802 0 63 2.73802 0
gene 2 5 36 -0.964681 0 78 -0.964681 1
gene 2 36 19 -3.98074 0 79 -3.98074 1
gene 2 3 51 1.98312 0 125 1.98312 1
gene 2 51 19 3.08183 0 126 3.08183 1
gene 1 2 65 0.243578 0 181 0.243578 1
gene 1 65 19 -0.811271 0 182 -0.811271 1
gene 1 6 70 1.04882 0 200 1.04882 1
gene 1 70 19 0.593 0 201 0.593 0
gene 1 70 87 2.45452 0 248 2.45452 1
gene 1 87 19 1.20968 0 249 1.20968 1
genomeend 43

/* Organism #44 Fitness: 5 Error: 0 */
genomestart 44
trait 1 0.1 0 0 0.0128062 0 0 0 0 
trait 2 0.682689 0.597468 0 0 0 0 0 0.953613 
trait 3 0.3 0 0 0 0 0 0 0 
node 1 3 1 1
node 2 3 1 1
node 3 3 1 1
node 4 1 1 1
node 5 2 1 1
node 6 3 1 1
node 7 2 1 3
node 8 1 0 2
node 19 1 0 0
node 36 1 0 0
node 51 1 0 0
node 65 1 0 0
node 70 1 0 0
node 87 1 0 0
gene 2 1 8 -1.47671 0 1 -1.47671 1
gene 1 2 8 3.47449 0 2 3.47449 0
gene 1 3 8 -0.928499 0 3 -0.928499 1
gene 2 4 8 -7.28002 0 4 -7.28002 1
gene 1 5 8 1.13035 0 5 1.13035 1
gene 3 6 8 -0.288959 0 6 -0.288959 1
gene 2 7 8 -0.933508 0 7 -0.933508 1
gene 1 2 19 4.82863 0 28 4.82863 0
gene 1 19 8 1.45551 0 29 1.45551 1
gene 1 7 19 -0.0414743 0 32 -0.0414743 1
gene 2 5 19 4.4475 0 43 4.4475 0
gene 1 6 19 -0.509924 0 55 -0.509924 0
gene 2 3 19 -0.323293 0 63 -0.323293 0
gene 2 5 36 3.18195 0 78 3.18195 1
gene 2 36 19 -4.38732 0 79 -4.38732 1
gene 2 3 51 0.066873 0 125 0.066873 1
gene 2 51 19 0.210129 0 126 0.210129 1
gene 1 2 65 0.747972 0 181 0.747972 1
gene 1 65 19 0.288176 0 182 0.288176 1
gene 1 6 70 0.346893 0 200 0.346893 1
gene 1 70 19 -1.44843 0 201 -1.44843 0
gene 1 70 87 -0.28347 0 248 -0.28347 1
gene 1 87 19 0.0422575 0 249 0.0422575 1
genomeend 44

/* Organism #45 Fitness: 39 Error: 0 */
genomestart 45
trait 1 0.1 0 0 0.0128062 0 0 0 0 
trait 2 0.2 0 0 0 0 0 0 0 
trait 3 0.3 0 0 0 0 0 0 0 
node 1 3 1 1
node 2 3 1 1
node 3 2 1 1
node 4 1 1 1
node 5 2 1 1
node 6 3 1 1
node 7 2 1 3
node 8 1 0 2
node 19 1 0 0
node 36 1 0 0
node 51 1 0 0
node 65 1 0 0
node 70 1 0 0
node 87 1 0 0
gene 2 1 8 -1.35644 0 1 -1.35644 1
gene 1 2 8 1.36489 0 2 1.36489 0
gene 1 3 8 -2.83383 0 3 -2.83383 1
gene 2 4 8 -3.6789 0 4 -3.6789 1
gene 1 5 8 3.97713 0 5 3.97713 1
gene 3 6 8 2.28141 0 6 2.28141 1
gene 2 7 8 -2.934 0 7 -2.934 1
gene 1 2 19 1.31362 0 28 1.31362 0
gene 1 19 8 -0.0927464 0 29 -0.0927464 1
gene 1 7 19 3.77525 0 32 3.77525 1
gene 2 5 19 3.44895 0 43 3.44895 1
gene 1 6 19 2.66017 0 55 2.66017 1
gene 2 3 19 1.07003 0 63 1.07003 0
gene 2 5 36 3.30507 0 78 3.30507 1
gene 2 36 19 -0.281816 0 79 -0.281816 1
gene 2 3 51 1.47385 0 125 1.47385 1
gene 2 51 19 2.91273 0 126 2.91273 1
gene 1 2 65 2.84287 0 181 2.84287 1
gene 1 65 19 2.62002 0 182 2.62002 1
gene 1 6 70 -1.34883 0 200 -1.34883 1
gene 1 70 19 0.522605 0 201 0.522605 0
gene 1 70 87 1 0 248 1 1
gene 1 87 19 0.593 0 249 0.593 1
genomeend 45

/* Species #7 : (Size 5) (AF 22) (Age 17)  */


/* Organism #46 Fitness: 5 Error: 0 */
genomestart 46
trait 1 0.354744 0.270619 0 0 0 0 0 0 
trait 2 0.2 0 0 0 0 0 0 0 
trait 3 0.3 0 0 0 0 0 0 0 
node 1 3 1 1
node 2 3 1 1
node 3 2 1 1
node 4 1 1 1
node 5 2 1 1
node 6 3 1 1
node 7 2 1 3
node 8 1 0 2
node 19 1 0 0
node 31 1 0 0
gene 2 1 8 -2.01653 0 1 -2.01653 1
gene 1 2 8 2.37977 0 2 2.37977 1
gene 1 3 8 -1.7952 0 3 -1.7952 1
gene 2 4 8 -2.48983 0 4 -2.48983 1
gene 1 5 8 1.05378 0 5 1.05378 1
gene 3 6 8 -0.0697076 0 6 -0.0697076 1
gene 2 7 8 -2.19757 0 7 -2.19757 1
gene 1 2 19 1.91265 0 28 1.91265 1
gene 1 19 8 1.19877 0 29 1.19877 1
gene 1 7 19 -1.0667 0 32 -1.0667 1
gene 2 1 19 0.063756 0 41 0.063756 0
gene 2 1 31 -1.05393 0 64 -1.05393 1
gene 2 31 19 -0.780584 0 65 -0.780584 1
gene 3 3 31 -1.64713 0 263 -1.64713 1
genomeend 46

/* Organism #47 Fitness: 9 Error: 0 */
genomestart 47
trait 1 0.354744 0.270619 0 0 0 0 0 0 
trait 2 0.2 0 0 0 0 0 0 0 
trait 3 0.3 0 0 0 0 0 0 0 
node 1 3 1 1
node 2 3 1 1
node 3 2 1 1
node 4 1 1 1
node 5 2 1 1
node 6 3 1 1
node 7 2 1 3
node 8 1 0 2
node 19 1 0 0
node 31 1 0 0
gene 2 1 8 -3.09073 0 1 -3.09073 1
gene 1 2 8 1.56892 0 2 1.56892 1
gene 1 3 8 -1.7341 0 3 -1.7341 1
gene 2 4 8 -1.16431 0 4 -1.16431 1
gene 1 5 8 1.91431 0 5 1.91431 1
gene 3 6 8 0.505305 0 6 0.505305 1
gene 2 7 8 1.45436 0 7 1.45436 1
gene 1 2 19 -2.03155 0 28 -2.03155 1
gene 1 19 8 -2.21691 0 29 -2.21691 1
gene 1 7 19 -2.01025 0 32 -2.01025 1
gene 2 1 19 -1.97004 0 41 -1.97004 0
gene 2 1 31 1.30223 0 64 1.30223 1
gene 2 31 19 2.38908 0 65 2.38908 1
gene 3 3 31 1.2539 0 263 1.2539 1
genomeend 47

/* Organism #48 Fitness: 30 Error: 0 */
genomestart 48
trait 1 0.354744 0.270619 0 0 0 0 0 0 
trait 2 0.2 0 0 0 0 0 0 0 
trait 3 0.3 0 0 0 0 0 0 0 
node 1 3 1 1
node 2 3 1 1
node 3 2 1 1
node 4 1 1 1
node 5 2 1 1
node 6 3 1 1
node 7 2 1 3
node 8 1 0 2
node 19 1 0 0
node 31 1 0 0
gene 2 1 8 -0.894441 0 1 -0.894441 1
gene 1 2 8 0.289713 0 2 0.289713 1
gene 1 3 8 -3.29601 0 3 -3.29601 1
gene 2 4 8 -1.48048 0 4 -1.48048 1
gene 1 5 8 4.39974 0 5 4.39974 1
gene 3 6 8 3.03741 0 6 3.03741 1
gene 2 7 8 2.07396 0 7 2.07396 1
gene 1 2 19 -1.25257 0 28 -1.25257 1
gene 1 19 8 1.25869 0 29 1.25869 1
gene 1 7 19 -1.63656 0 32 -1.63656 1
gene 2 1 19 -1.61252 0 41 -1.61252 0
gene 2 1 31 -4.86966 0 64 -4.86966 1
gene 2 31 19 -1.73699 0 65 -1.73699 1
genomeend 48

/* Organism #49 Fitness: 32 Error: 0 */
genomestart 49
trait 1 0.354744 0.270619 0 0 0 0 0 0 
trait 2 0.2 0 0 0 0 0 0 0 
trait 3 0.3 0 0 0 0 0 0 0 
node 1 3 1 1
node 2 3 1 1
node 3 2 1 1
node 4 1 1 1
node 5 2 1 1
node 6 3 1 1
node 7 2 1 3
node 8 1 0 2
node 19 1 0 0
node 31 1 0 0
gene 2 1 8 -3.58656 0 1 -3.58656 1
gene 1 2 8 2.77045 0 2 2.77045 1
gene 1 3 8 -0.178015 0 3 -0.178015 1
gene 2 4 8 -1.64155 0 4 -1.64155 1
gene 1 5 8 1.82884 0 5 1.82884 1
gene 3 6 8 5.53272 0 6 5.53272 1
gene 2 7 8 1.029 0 7 1.029 1
gene 1 2 19 -0.54223 0 28 -0.54223 1
gene 1 19 8 0.161432 0 29 0.161432 1
gene 1 7 19 0.193277 0 32 0.193277 1
gene 2 1 19 -1.43111 0 41 -1.43111 0
gene 2 1 31 1.51981 0 64 1.51981 1
gene 2 31 19 -2.61407 0 65 -2.61407 1
gene 3 3 31 -1.37199 0 263 -1.37199 1
genomeend 49

/* Organism #50 Fitness: 34 Error: 0 */
genomestart 50
trait 1 0.354744 0.270619 0 0 0 0 0 0 
trait 2 0.2 0 0 0 0 0 0 0 
trait 3 0.3 0 0 0 0 0 0 0 
node 1 3 1 1
node 2 3 1 1
node 3 2 1 1
node 4 1 1 1
node 5 2 1 1
node 6 3 1 1
node 7 2 1 3
node 8 1 0 2
node 19 1 0 0
node 31 1 0 0
gene 2 1 8 -0.623882 0 1 -0.623882 1
gene 1 2 8 0.500273 0 2 0.500273 1
gene 1 3 8 -1.69274 0 3 -1.69274 1
gene 2 4 8 -0.646613 0 4 -0.646613 1
gene 1 5 8 2.01594 0 5 2.01594 1
gene 3 6 8 0.321613 0 6 0.321613 1
gene 2 7 8 1.30926 0 7 1.30926 1
gene 1 2 19 -2.41617 0 28 -2.41617 1
gene 1 19 8 -0.547308 0 29 -0.547308 1
gene 1 7 19 -1.83151 0 32 -1.83151 1
gene 2 1 19 -2.1914 0 41 -2.1914 0
gene 2 1 31 -1.7072 0 64 -1.7072 1
gene 2 31 19 -2.58522 0 65 -2.58522 1
gene 3 3 31 -1.17491 0 263 -1.17491 1
genomeend 50

/* Species #8 : (Size 6) (AF 37.6667) (Age 17)  */


/* Organism #51 Fitness: 112 Error: 0 */
genomestart 51
trait 1 0.0875 0 0 0.00917042 0 0.0744408 0.0948746 0 
trait 2 0.2 0 0 0 0 0 0 0 
trait 3 0.3 0 0 0 0 0 0 0 
node 1 3 1 1
node 2 3 1 1
node 3 2 1 1
node 4 1 1 1
node 5 2 1 1
node 6 3 1 1
node 7 2 1 3
node 8 1 0 2
node 19 1 0 0
node 23 1 0 0
node 32 1 0 0
gene 2 1 8 -2.38566 0 1 -2.38566 1
gene 1 2 8 0.452497 0 2 0.452497 1
gene 1 3 8 -2.12328 0 3 -2.12328 1
gene 2 4 8 -3.10798 0 4 -3.10798 1
gene 1 5 8 4.40768 0 5 4.40768 1
gene 3 6 8 1.63539 0 6 1.63539 1
gene 2 7 8 -0.556888 0 7 -0.556888 1
gene 1 2 19 4.93753 0 28 4.93753 1
gene 1 19 8 -0.778261 0 29 -0.778261 1
gene 1 3 23 1.08823 0 37 1.08823 1
gene 1 23 8 -1.16808 0 38 -1.16808 1
gene 3 6 32 -0.898948 0 66 -0.898948 1
gene 3 32 8 4.27877 0 67 4.27877 1
gene 3 1 23 -0.836805 0 76 -0.836805 1
gene 2 3 32 -0.872773 0 116 -0.872773 1
genomeend 51

/* Organism #52 Fitness: 5 Error: 0 */
genomestart 52
trait 1 0.04375 0.317465 0 0.00458521 0.310688 0.0744408 0.546601 0 
trait 2 0.2 0 0 0 0 0 0 0 
trait 3 0.3 0 0 0 0 0 0 0 
node 1 3 1 1
node 2 3 1 1
node 3 2 1 1
node 4 1 1 1
node 5 2 1 1
node 6 3 1 1
node 7 2 1 3
node 8 1 0 2
node 19 1 0 0
node 23 1 0 0
node 32 1 0 0
gene 2 1 8 -2.147 0 1 -2.147 1
gene 1 2 8 -0.697689 0 2 -0.697689 1
gene 1 3 8 -1.86467 0 3 -1.86467 1
gene 2 4 8 -4.13319 0 4 -4.13319 1
gene 1 5 8 2.82469 0 5 2.82469 1
gene 3 6 8 -0.562542 0 6 -0.562542 1
gene 2 7 8 -1.69332 0 7 -1.69332 1
gene 1 2 19 3.36253 0 28 3.36253 1
gene 1 19 8 -1.89101 0 29 -1.89101 1
gene 1 3 23 0.594722 0 37 0.594722 1
gene 1 23 8 0.140693 0 38 0.140693 1
gene 3 6 32 -1.46124 0 66 -1.46124 1
gene 3 32 8 1.8641 0 67 1.8641 1
gene 3 1 23 -2.94941 0 76 -2.94941 1
gene 2 3 32 -2.38212 0 116 -2.38212 1
genomeend 52

/* Organism #53 Fitness: 8 Error: 0 */
genomestart 53
trait 1 0.0875 0 0 0.00917042 0 0.0744408 0.0948746 0 
trait 2 0.2 0 0 0 0 0 0 0 
trait 3 0.3 0 0 0 0 0 0 0 
node 1 3 1 1
node 2 3 1 1
node 3 2 1 1
node 4 1 1 1
node 5 2 1 1
node 6 3 1 1
node 7 2 1 3
node 8 1 0 2
node 19 1 0 0
node 23 1 0 0
node 32 1 0 0
gene 2 1 8 -3.49093 0 1 -3.49093 1
gene 1 2 8 -0.116535 0 2 -0.116535 1
gene 1 3 8 -3.98328 0 3 -3.98328 1
gene 2 4 8 -0.650904 0 4 -0.650904 1
gene 1 5 8 2.05324 0 5 2.05324 1
gene 3 6 8 -0.417828 0 6 -0.417828 1
gene 2 7 8 -0.217037 0 7 -0.217037 1
gene 1 2 19 4.37472 0 28 4.37472 1
gene 1 19 8 1.39017 0 29 1.39017 1
gene 1 3 23 1.47449 0 37 1.47449 1
gene 1 23 8 0.384277 0 38 0.384277 1
gene 3 6 32 -2.82117 0 66 -2.82117 1
gene 3 32 8 3.11282 0 67 3.11282 1
gene 3 1 23 -0.117632 0 76 -0.117632 1
gene 2 3 32 0.0949428 0 116 0.0949428 1
genomeend 53

/* Organism #54 Fitness: 6 Error: 0 */
genomestart 54
trait 1 0.04375 0.317465 0 0.00458521 0.310688 0.0744408 0.546601 0 
trait 2 0.2 0 0 0 0 0 0 0 
trait 3 0.3 0 0 0 0 0 0 0 
node 1 3 1 1
node 2 3 1 1
node 3 2 1 1
node 4 1 1 1
node 5 2 1 1
node 6 3 1 1
node 7 2 1 3
node 8 1 0 2
node 19 1 0 0
node 23 1 0 0
node 32 1 0 0
gene 2 1 8 -4.04977 0 1 -4.04977 1
gene 1 2 8 -0.613591 0 2 -0.613591 1
gene 1 3 8 -1.57157 0 3 -1.57157 1
gene 2 4 8 -3.03853 0 4 -3.03853 1
gene 1 5 8 1.96712 0 5 1.96712 1
gene 3 6 8 -0.597419 0 6 -0.597419 1
gene 2 7 8 -1.09853 0 7 -1.09853 1
gene 1 2 19 7.40269 0 28 7.40269 1
gene 1 19 8 1.42491 0 29 1.42491 1
gene 1 3 23 -0.85858 0 37 -0.85858 1
gene 1 23 8 1.18797 0 38 1.18797 1
gene 3 6 32 -2.052 0 66 -2.052 1
gene 3 32 8 4.33464 0 67 4.33464 1
gene 3 1 23 -0.836805 0 76 -0.836805 1
gene 2 3 32 -1.851 0 116 -1.851 1
genomeend 54

/* Organism #55 Fitness: 5 Error: 0 */
genomestart 55
trait 1 0 0.634929 0 0 0.621375 0.0744408 0.998326 0 
trait 2 0.2 0 0 0 0 0 0 0 
trait 3 0.3 0 0 0 0 0 0 0 
node 1 3 1 1
node 2 3 1 1
node 3 2 1 1
node 4 1 1 1
node 5 2 1 1
node 6 3 1 1
node 7 2 1 3
node 8 1 0 2
node 19 1 0 0
node 23 1 0 0
node 32 1 0 0
gene 2 1 8 -1.39742 0 1 -1.39742 1
gene 1 2 8 1.29678 0 2 1.29678 1
gene 1 3 8 -2.89306 0 3 -2.89306 1
gene 2 4 8 -2.26653 0 4 -2.26653 1
gene 1 5 8 0.558207 0 5 0.558207 1
gene 3 6 8 0.439742 0 6 0.439742 1
gene 2 7 8 -2.93163 0 7 -2.93163 1
gene 1 2 19 4.67812 0 28 4.67812 1
gene 1 19 8 -2.77401 0 29 -2.77401 1
gene 1 3 23 2.36303 0 37 2.36303 1
gene 1 23 8 -0.000659444 0 38 -0.000659444 1
gene 3 6 32 -2.12398 0 66 -2.12398 1
gene 3 32 8 2.15651 0 67 2.15651 1
gene 3 1 23 0.541628 0 76 0.541628 1
gene 2 3 32 0.644103 0 116 0.644103 1
genomeend 55

/* Organism #56 Fitness: 90 Error: 0 */
genomestart 56
trait 1 0.04375 0.317465 0 0.00458521 0.310688 0.0744408 0.546601 0 
trait 2 0.2 0 0 0 0 0 0 0 
trait 3 0.3 0 0 0 0 0 0 0 
node 1 3 1 1
node 2 3 1 1
node 3 2 1 1
node 4 1 1 1
node 5 2 1 1
node 6 3 1 1
node 7 2 1 3
node 8 1 0 2
node 19 1 0 0
node 23 1 0 0
node 32 1 0 0
gene 2 1 8 -1.76043 0 1 -1.76043 1
gene 1 2 8 -0.294024 0 2 -0.294024 1
gene 1 3 8 -0.95289 0 3 -0.95289 1
gene 2 4 8 -4.92357 0 4 -4.92357 1
gene 1 5 8 4.86138 0 5 4.86138 1
gene 3 6 8 1.81871 0 6 1.81871 1
gene 2 7 8 -0.232654 0 7 -0.232654 1
gene 1 2 19 3.8623 0 28 3.8623 1
gene 1 19 8 -3.26111 0 29 -3.26111 1
gene 1 3 23 -1.07127 0 37 -1.07127 1
gene 1 23 8 0.0327626 0 38 0.0327626 1
gene 3 6 32 -0.163451 0 66 -0.163451 1
gene 3 32 8 4.48566 0 67 4.48566 1
gene 3 1 23 -1.22701 0 76 -1.22701 1
gene 2 3 32 -2.13448 0 116 -2.13448 1
genomeend 56

/* Species #9 : (Size 12) (AF 87.6667) (Age 17)  */


/* Organism #57 Fitness: 377 Error: 0 */
genomestart 57
trait 1 0.0875 0 0 0.00917042 0 0.0744408 0.0948746 0 
trait 2 0.2 0 0 0 0 0 0 0 
trait 3 0 0.110288 0 0.68069 0 0 0 0.763251 
node 1 3 1 1
node 2 3 1 1
node 3 2 1 1
node 4 1 1 1
node 5 2 1 1
node 6 3 1 1
node 7 2 1 3
node 8 1 0 2
node 19 1 0 0
node 23 1 0 0
node 37 1 0 0
node 61 1 0 0
gene 2 1 8 0.103004 0 1 0.103004 1
gene 1 2 8 -1.74255 0 2 -1.74255 0
gene 1 3 8 -2.05171 0 3 -2.05171 1
gene 2 4 8 -7.57546 0 4 -7.57546 1
gene 1 5 8 3.81054 0 5 3.81054 1
gene 3 6 8 3.30234 0 6 3.30234 1
gene 2 7 8 5.02604 0 7 5.02604 1
gene 1 2 19 0.822242 0 28 0.822242 1
gene 2 19 8 -3.16414 0 29 -3.16414 0
gene 1 3 23 -1.16673 0 37 -1.16673 0
gene 1 23 8 0.973763 0 38 0.973763 1
gene 1 7 23 -0.76399 0 69 -0.76399 1
gene 1 19 37 1.22071 0 83 1.22071 1
gene 1 37 8 -3.03726 0 84 -3.03726 1
gene 1 3 61 1.97716 0 161 1.97716 1
gene 1 61 23 -3.56509 0 162 -3.56509 1
genomeend 57

/* Organism #58 Fitness: 70 Error: 0 */
genomestart 58
trait 1 0.0875 0 0 0.00917042 0 0.0744408 0.0948746 0 
trait 2 0.2 0 0 0 0 0 0 0 
trait 3 0 0.110288 0 0.68069 0 0 0 0.763251 
node 1 3 1 1
node 2 3 1 1
node 3 2 1 1
node 4 1 1 1
node 5 2 1 1
node 6 3 1 1
node 7 2 1 3
node 8 1 0 2
node 19 1 0 0
node 23 1 0 0
node 37 1 0 0
node 61 1 0 0
gene 2 1 8 -0.83615 0 1 -0.83615 1
gene 1 2 8 -0.537096 0 2 -0.537096 0
gene 1 3 8 -2.52006 0 3 -2.52006 1
gene 2 4 8 -8 0 4 -8 1
gene 1 5 8 5.96841 0 5 5.96841 1
gene 3 6 8 1.41836 0 6 1.41836 1
gene 2 7 8 2.66177 0 7 2.66177 1
gene 1 2 19 -1.24423 0 28 -1.24423 1
gene 2 19 8 -1.55878 0 29 -1.55878 1
gene 1 3 23 -4.37573 0 37 -4.37573 1
gene 1 23 8 0.393004 0 38 0.393004 1
gene 1 7 23 -2.20132 0 69 -2.20132 1
gene 1 19 37 -1.25047 0 83 -1.25047 1
gene 1 37 8 -3.27703 0 84 -3.27703 1
gene 1 3 61 1.80303 0 161 1.80303 1
gene 1 61 23 -2.37972 0 162 -2.37972 1
genomeend 58

/* Organism #59 Fitness: 6 Error: 0 */
genomestart 59
trait 1 0.0875 0 0 0.00917042 0 0.0744408 0.0948746 0 
trait 2 0.2 0 0 0 0 0 0 0 
trait 3 0 0.110288 0 0.68069 0 0 0 0.763251 
node 1 3 1 1
node 2 3 1 1
node 3 2 1 1
node 4 1 1 1
node 5 2 1 1
node 6 3 1 1
node 7 2 1 3
node 8 1 0 2
node 19 1 0 0
node 23 1 0 0
node 37 1 0 0
node 61 1 0 0
gene 2 1 8 0.670673 0 1 0.670673 1
gene 1 2 8 0.0213122 0 2 0.0213122 0
gene 1 3 8 -0.222521 0 3 -0.222521 1
gene 2 4 8 -8 0 4 -8 1
gene 1 5 8 7.12324 0 5 7.12324 1
gene 3 6 8 0.637511 0 6 0.637511 1
gene 2 7 8 6.31272 0 7 6.31272 1
gene 1 2 19 -0.998001 0 28 -0.998001 1
gene 2 19 8 -0.473442 0 29 -0.473442 0
gene 1 3 23 -2.36048 0 37 -2.36048 0
gene 1 23 8 2.75797 0 38 2.75797 1
gene 1 7 23 1.501 0 69 1.501 1
gene 1 19 37 -0.814837 0 83 -0.814837 1
gene 1 37 8 -5.87747 0 84 -5.87747 1
gene 1 3 61 1.75327 0 161 1.75327 1
gene 1 61 23 -2.87054 0 162 -2.87054 1
genomeend 59

/* Organism #60 Fitness: 87 Error: 0 */
genomestart 60
trait 1 0.0875 0 0 0.00917042 0 0.0744408 0.0948746 0 
trait 2 0.2 0.183778 0.705113 0 0 0 0 0 
trait 3 0 0.110288 0 0.68069 0 0 0 0.763251 
node 1 3 1 1
node 2 3 1 1
node 3 2 1 1
node 4 1 1 1
node 5 2 1 1
node 6 3 1 1
node 7 2 1 3
node 8 1 0 2
node 19 1 0 0
node 23 1 0 0
node 37 1 0 0
node 61 1 0 0
gene 2 1 8 -0.443736 0 1 -0.443736 1
gene 1 2 8 -1.4897 0 2 -1.4897 0
gene 1 3 8 -3.37445 0 3 -3.37445 1
gene 2 4 8 -8 0 4 -8 1
gene 1 5 8 4.76208 0 5 4.76208 1
gene 3 6 8 5.09468 0 6 5.09468 1
gene 2 7 8 4.54485 0 7 4.54485 1
gene 1 2 19 -0.415895 0 28 -0.415895 1
gene 2 19 8 -1.3848 0 29 -1.3848 0
gene 1 3 23 -1.2958 0 37 -1.2958 0
gene 1 23 8 2.38962 0 38 2.38962 1
gene 1 7 23 -1.53299 0 69 -1.53299 1
gene 1 19 37 0.04621 0 83 0.04621 1
gene 1 37 8 -3.03726 0 84 -3.03726 1
gene 1 3 61 -1.97543 0 161 -1.97543 1
gene 1 61 23 -5.99618 0 162 -5.99618 1
genomeend 60

/* Organism #61 Fitness: 6 Error: 0 */
genomestart 61
trait 1 0.0875 0 0 0.00917042 0 0.0744408 0.0948746 0 
trait 2 0.2 0 0 0 0 0 0 0 
trait 3 0 0.110288 0 0.68069 0 0 0 0.763251 
node 1 3 1 1
node 2 3 1 1
node 3 2 1 1
node 4 1 1 1
node 5 2 1 1
node 6 3 1 1
node 7 2 1 3
node 8 1 0 2
node 19 1 0 0
node 23 1 0 0
node 37 1 0 0
node 61 1 0 0
gene 2 1 8 0.138643 0 1 0.138643 1
gene 1 2 8 0.0592396 0 2 0.0592396 0
gene 1 3 8 0.784438 0 3 0.784438 1
gene 2 4 8 -8 0 4 -8 1
gene 1 5 8 8 0 5 8 1
gene 3 6 8 1.19291 0 6 1.19291 1
gene 2 7 8 5.13959 0 7 5.13959 1
gene 1 2 19 2.48832 0 28 2.48832 1
gene 2 19 8 -1.43495 0 29 -1.43495 0
gene 1 3 23 -4.21325 0 37 -4.21325 0
gene 1 23 8 3.36455 0 38 3.36455 1
gene 1 7 23 1.61893 0 69 1.61893 1
gene 1 19 37 -0.776993 0 83 -0.776993 1
gene 1 37 8 -1.43013 0 84 -1.43013 1
gene 1 3 61 1.30702 0 161 1.30702 1
gene 1 61 23 -0.712782 0 162 -0.712782 1
genomeend 61

/* Organism #62 Fitness: 102 Error: 0 */
genomestart 62
trait 1 0.0875 0 0 0.00917042 0 0.0744408 0.0948746 0 
trait 2 0.2 0 0 0 0 0 0 0 
trait 3 0 0.110288 0 0.68069 0 0 0 0.763251 
node 1 3 1 1
node 2 3 1 1
node 3 2 1 1
node 4 1 1 1
node 5 2 1 1
node 6 3 1 1
node 7 2 1 3
node 8 1 0 2
node 19 1 0 0
node 23 1 0 0
node 37 1 0 0
node 61 1 0 0
gene 2 1 8 0.103004 0 1 0.103004 1
gene 1 2 8 -1.74255 0 2 -1.74255 0
gene 1 3 8 -2.05171 0 3 -2.05171 1
gene 2 4 8 -8 0 4 -8 1
gene 1 5 8 5.95976 0 5 5.95976 1
gene 3 6 8 3.30234 0 6 3.30234 1
gene 2 7 8 5.02604 0 7 5.02604 1
gene 1 2 19 1.33645 0 28 1.33645 1
gene 2 19 8 -1.54789 0 29 -1.54789 0
gene 1 3 23 -1.16673 0 37 -1.16673 0
gene 1 23 8 0.973763 0 38 0.973763 1
gene 1 7 23 -0.76399 0 69 -0.76399 1
gene 1 19 37 1.22071 0 83 1.22071 1
gene 1 37 8 -3.03726 0 84 -3.03726 1
gene 1 3 61 1.6289 0 161 1.6289 1
gene 1 61 23 -1.19435 0 162 -1.19435 1
genomeend 62

/* Organism #63 Fitness: 35 Error: 0 */
genomestart 63
trait 1 0.0875 0 0 0.00917042 0 0.0744408 0.0948746 0 
trait 2 0.2 0 0 0 0 0 0 0 
trait 3 0.28475 0.110288 0 0.0916667 0.245451 0.436465 0.118382 0 
node 1 3 1 1
node 2 3 1 1
node 3 2 1 1
node 4 1 1 1
node 5 2 1 1
node 6 3 1 1
node 7 2 1 3
node 8 1 0 2
node 19 1 0 0
node 23 1 0 0
node 37 1 0 0
node 61 1 0 0
gene 2 1 8 -2.02655 0 1 -2.02655 1
gene 1 2 8 -0.999777 0 2 -0.999777 0
gene 1 3 8 -3.50636 0 3 -3.50636 1
gene 2 4 8 -8 0 4 -8 1
gene 1 5 8 2.9975 0 5 2.9975 1
gene 3 6 8 2.73839 0 6 2.73839 1
gene 2 7 8 -0.701176 0 7 -0.701176 1
gene 1 2 19 1.23702 0 28 1.23702 1
gene 2 19 8 -0.427974 0 29 -0.427974 0
gene 1 3 23 0.71403 0 37 0.71403 0
gene 1 23 8 2.17354 0 38 2.17354 1
gene 1 7 23 -1.36055 0 69 -1.36055 1
gene 1 19 37 1.67351 0 83 1.67351 1
gene 1 37 8 -1.63175 0 84 -1.63175 1
gene 1 3 61 -0.286083 0 161 -0.286083 1
gene 1 61 23 -3.2084 0 162 -3.2084 1
genomeend 63

/* Organism #64 Fitness: 77 Error: 0 */
genomestart 64
trait 1 0.0875 0 0 0.00917042 0 0.0744408 0.0948746 0 
trait 2 0.2 0 0 0 0 0 0 0 
trait 3 0 0.110288 0 0.68069 0 0 0 0.763251 
node 1 3 1 1
node 2 3 1 1
node 3 2 1 1
node 4 1 1 1
node 5 2 1 1
node 6 3 1 1
node 7 2 1 3
node 8 1 0 2
node 19 1 0 0
node 23 1 0 0
node 37 1 0 0
node 61 1 0 0
gene 2 1 8 1.2652 0 1 1.2652 1
gene 1 2 8 -0.177609 0 2 -0.177609 0
gene 1 3 8 -0.437742 0 3 -0.437742 1
gene 2 4 8 -8 0 4 -8 1
gene 1 5 8 5.58081 0 5 5.58081 1
gene 3 6 8 3.84188 0 6 3.84188 1
gene 2 7 8 5.14176 0 7 5.14176 1
gene 1 2 19 0.0555045 0 28 0.0555045 1
gene 2 19 8 -0.224574 0 29 -0.224574 1
gene 1 3 23 -6.04932 0 37 -6.04932 0
gene 1 23 8 2.03456 0 38 2.03456 1
gene 1 7 23 -2.735 0 69 -2.735 1
gene 1 19 37 2.88098 0 83 2.88098 1
gene 1 37 8 -2.83222 0 84 -2.83222 1
gene 1 3 61 -0.5598 0 161 -0.5598 1
gene 1 61 23 -1.19435 0 162 -1.19435 1
genomeend 64

/* Organism #65 Fitness: 128 Error: 0 */
genomestart 65
trait 1 0.0875 0 0 0.00917042 0 0.0744408 0.0948746 0 
trait 2 0.2 0 0 0 0 0 0 0 
trait 3 0 0.110288 0 0.68069 0 0 0 0.763251 
node 1 3 1 1
node 2 3 1 1
node 3 2 1 1
node 4 1 1 1
node 5 2 1 1
node 6 3 1 1
node 7 2 1 3
node 8 1 0 2
node 19 1 0 0
node 23 1 0 0
node 37 1 0 0
node 61 1 0 0
gene 2 1 8 1.71191 0 1 1.71191 1
gene 1 2 8 -1.92408 0 2 -1.92408 0
gene 1 3 8 -1.3839 0 3 -1.3839 1
gene 2 4 8 -8 0 4 -8 1
gene 1 5 8 5.95976 0 5 5.95976 1
gene 3 6 8 2.53083 0 6 2.53083 1
gene 2 7 8 5.02604 0 7 5.02604 1
gene 1 2 19 1.33645 0 28 1.33645 1
gene 2 19 8 -1.54789 0 29 -1.54789 0
gene 1 3 23 -3.64119 0 37 -3.64119 0
gene 1 23 8 0.973763 0 38 0.973763 1
gene 1 7 23 -0.404142 0 69 -0.404142 1
gene 1 19 37 1.00744 0 83 1.00744 1
gene 1 37 8 -3.5168 0 84 -3.5168 1
gene 1 3 61 1.6289 0 161 1.6289 1
gene 1 61 23 -1.19435 0 162 -1.19435 1
gene 2 37 61 0.54513 0 283 0.54513 1
genomeend 65

/* Organism #66 Fitness: 50 Error: 0 */
genomestart 66
trait 1 0.0875 0 0 0.00917042 0 0.0744408 0.0948746 0 
trait 2 0.2 0 0 0 0 0 0 0 
trait 3 0 0.110288 0 0.68069 0 0 0 0.763251 
node 1 3 1 1
node 2 3 1 1
node 3 1 1 1
node 4 1 1 1
node 5 2 1 1
node 6 3 1 1
node 7 2 1 3
node 8 1 0 2
node 19 1 0 0
node 23 1 0 0
node 37 1 0 0
node 61 1 0 0
gene 2 1 8 2.59743 0 1 2.59743 1
gene 1 2 8 0.574543 0 2 0.574543 1
gene 1 3 8 -3.64272 0 3 -3.64272 1
gene 2 4 8 -6.96645 0 4 -6.96645 1
gene 1 5 8 3.81699 0 5 3.81699 1
gene 3 6 8 1.93149 0 6 1.93149 1
gene 2 7 8 4.57896 0 7 4.57896 1
gene 1 2 19 2.75836 0 28 2.75836 1
gene 2 19 8 -3.45659 0 29 -3.45659 0
gene 1 3 23 -2.62193 0 37 -2.62193 0
gene 1 23 8 0.341354 0 38 0.341354 1
gene 1 7 23 0.266436 0 69 0.266436 1
gene 1 19 37 -0.600781 0 83 -0.600781 1
gene 1 37 8 -3.47698 0 84 -3.47698 1
gene 1 3 61 1.48913 0 161 1.48913 1
gene 1 61 23 -2.37972 0 162 -2.37972 1
genomeend 66

/* Organism #67 Fitness: 62 Error: 0 */
genomestart 67
trait 1 0.0875 0 0 0.00917042 0 0.0744408 0.0948746 0 
trait 2 0.2 0 0 0 0 0 0 0 
trait 3 0 0.110288 0 0.68069 0 0 0 0.763251 
node 1 3 1 1
node 2 3 1 1
node 3 2 1 1
node 4 1 1 1
node 5 2 1 1
node 6 3 1 1
node 7 2 1 3
node 8 1 0 2
node 19 1 0 0
node 23 1 0 0
node 37 1 0 0
node 61 1 0 0
gene 2 1 8 -0.934413 0 1 -0.934413 1
gene 1 2 8 -0.846761 0 2 -0.846761 0
gene 1 3 8 -1.9417 0 3 -1.9417 1
gene 2 4 8 -7.37367 0 4 -7.37367 1
gene 1 5 8 4.26838 0 5 4.26838 1
gene 3 6 8 4.81097 0 6 4.81097 1
gene 2 7 8 3.06871 0 7 3.06871 1
gene 1 2 19 3.23909 0 28 3.23909 1
gene 2 19 8 -2.81133 0 29 -2.81133 0
gene 1 3 23 1.28183 0 37 1.28183 0
gene 1 23 8 -0.154012 0 38 -0.154012 1
gene 1 7 23 -2.17977 0 69 -2.17977 1
gene 1 19 37 3.26634 0 83 3.26634 1
gene 1 37 8 -1.98299 0 84 -1.98299 1
gene 1 3 61 2.23619 0 161 2.23619 1
gene 1 61 23 -4.45309 0 162 -4.45309 1
genomeend 67

/* Organism #68 Fitness: 52 Error: 0 */
genomestart 68
trait 1 0.0875 0 0 0.00917042 0 0.0744408 0.0948746 0 
trait 2 0.2 0 0 0 0 0 0 0 
trait 3 0 0.110288 0 0.68069 0 0 0 0.763251 
node 1 3 1 1
node 2 3 1 1
node 3 2 1 1
node 4 1 1 1
node 5 2 1 1
node 6 3 1 1
node 7 2 1 3
node 8 1 0 2
node 19 1 0 0
node 23 1 0 0
node 37 1 0 0
node 61 1 0 0
gene 2 1 8 -1.71152 0 1 -1.71152 1
gene 1 2 8 -2.6695 0 2 -2.6695 0
gene 1 3 8 -0.115394 0 3 -0.115394 1
gene 2 4 8 -8 0 4 -8 1
gene 1 5 8 4.45461 0 5 4.45461 1
gene 3 6 8 2.11841 0 6 2.11841 1
gene 2 7 8 1.14143 0 7 1.14143 1
gene 1 2 19 1.3198 0 28 1.3198 1
gene 2 19 8 -3.73999 0 29 -3.73999 0
gene 1 3 23 -3.09974 0 37 -3.09974 1
gene 1 23 8 1.91007 0 38 1.91007 1
gene 1 7 23 1.32255 0 69 1.32255 1
gene 1 19 37 -0.698327 0 83 -0.698327 1
gene 1 37 8 -5.93242 0 84 -5.93242 1
gene 1 3 61 -0.830483 0 161 -0.830483 1
gene 1 61 23 -0.117172 0 162 -0.117172 1
genomeend 68

/* Species #10 : (Size 4) (AF 32.25) (Age 16)  */


/* Organism #69 Fitness: 33 Error: 0 */
genomestart 69
trait 1 0.1 0 0 0 0 0 0 0 
trait 2 0.2 0 0 0 0 0 0 0 
trait 3 0.3 0 0 0 0 0 0 0 
node 1 3 1 1
node 2 3 1 1
node 3 2 1 1
node 4 1 1 1
node 5 2 1 1
node 6 3 1 1
node 7 2 1 3
node 8 1 0 2
node 19 1 0 0
node 34 1 0 0
node 66 1 0 0
gene 2 1 8 -1.49651 0 1 -1.49651 1
gene 1 2 8 -3.17206 0 2 -3.17206 1
gene 1 3 8 -6.34685 0 3 -6.34685 1
gene 2 4 8 1.94223 0 4 1.94223 1
gene 1 5 8 1.83546 0 5 1.83546 0
gene 3 6 8 7.01034 0 6 7.01034 1
gene 2 7 8 -0.298655 0 7 -0.298655 1
gene 3 2 19 1.3015 0 28 1.3015 1
gene 2 19 8 1.71821 0 29 1.71821 1
gene 1 7 19 0.0847567 0 32 0.0847567 1
gene 3 3 19 1.3462 0 52 1.3462 1
gene 1 5 34 0.407867 0 72 0.407867 1
gene 1 34 8 -3.70616 0 73 -3.70616 0
gene 1 34 66 1.00523 0 185 1.00523 1
gene 1 66 8 -0.307908 0 186 -0.307908 1
genomeend 69

/* Organism #70 Fitness: 28 Error: 0 */
genomestart 70
trait 1 0.1 0 0 0 0 0 0 0 
trait 2 0.2 0 0 0 0 0 0 0 
trait 3 0.3 0 0 0 0 0 0 0 
node 1 3 1 1
node 2 3 1 1
node 3 2 1 1
node 4 1 1 1
node 5 2 1 1
node 6 3 1 1
node 7 2 1 3
node 8 1 0 2
node 19 1 0 0
node 34 1 0 0
node 66 1 0 0
gene 2 1 8 0.514389 0 1 0.514389 1
gene 1 2 8 -2.69023 0 2 -2.69023 1
gene 1 3 8 -4.654 0 3 -4.654 1
gene 2 4 8 -0.584308 0 4 -0.584308 1
gene 1 5 8 -0.0755642 0 5 -0.0755642 0
gene 3 6 8 8 0 6 8 1
gene 2 7 8 1.07496 0 7 1.07496 1
gene 3 2 19 2.97241 0 28 2.97241 1
gene 1 19 8 1.30286 0 29 1.30286 1
gene 1 7 19 1.203 0 32 1.203 1
gene 3 3 19 0.476919 0 52 0.476919 1
gene 1 5 34 1.6414 0 72 1.6414 1
gene 1 34 8 -2.50271 0 73 -2.50271 0
gene 1 34 66 -1.06476 0 185 -1.06476 1
gene 1 66 8 3.21396 0 186 3.21396 1
genomeend 70

/* Organism #71 Fitness: 39 Error: 0 */
genomestart 71
trait 1 0.1 0 0 0 0 0 0 0 
trait 2 0.2 0 0 0 0 0 0 0 
trait 3 0.3 0 0 0 0 0 0 0 
node 1 3 1 1
node 2 3 1 1
node 3 2 1 1
node 4 1 1 1
node 5 2 1 1
node 6 3 1 1
node 7 2 1 3
node 8 1 0 2
node 19 1 0 0
node 34 1 0 0
node 66 1 0 0
node 98 1 0 0
gene 2 1 8 0.0740014 0 1 0.0740014 1
gene 1 2 8 -2.34509 0 2 -2.34509 1
gene 1 3 8 -4.13353 0 3 -4.13353 1
gene 2 4 8 -1.30335 0 4 -1.30335 1
gene 1 5 8 -1.31927 0 5 -1.31927 0
gene 3 6 8 6.90084 0 6 6.90084 1
gene 2 7 8 0.304417 0 7 0.304417 1
gene 3 2 19 3.46522 0 28 3.46522 1
gene 1 19 8 1.17675 0 29 1.17675 1
gene 1 7 19 2.31594 0 32 2.31594 1
gene 3 3 19 -0.918927 0 52 -0.918927 1
gene 1 5 34 0.524053 0 72 0.524053 0
gene 1 34 8 -0.916088 0 73 -0.916088 1
gene 1 34 66 -2.26392 0 185 -2.26392 1
gene 1 66 8 3.21396 0 186 3.21396 1
gene 1 5 98 1 0 284 0 1
gene 1 98 34 0.524053 0 285 0 1
genomeend 71

/* Organism #72 Fitness: 29 Error: 0 */
genomestart 72
trait 1 0.1 0 0 0 0 0 0 0 
trait 2 0.2 0 0 0 0 0 0 0 
trait 3 0.3 0 0 0 0 0 0 0 
node 1 3 1 1
node 2 3 1 1
node 3 2 1 1
node 4 1 1 1
node 5 2 1 1
node 6 3 1 1
node 7 2 1 3
node 8 1 0 2
node 19 1 0 0
node 34 1 0 0
node 66 1 0 0
gene 2 1 8 -2.25075 0 1 -2.25075 1
gene 1 2 8 -4.21732 0 2 -4.21732 1
gene 1 3 8 -2.91495 0 3 -2.91495 1
gene 2 4 8 -3.088 0 4 -3.088 1
gene 1 5 8 -3.48953 0 5 -3.48953 0
gene 3 6 8 8 0 6 8 1
gene 2 7 8 1.85999 0 7 1.85999 1
gene 3 2 19 4.70207 0 28 4.70207 1
gene 1 19 8 -0.365264 0 29 -0.365264 1
gene 1 7 19 0.135413 0 32 0.135413 1
gene 3 3 19 0.292103 0 52 0.292103 1
gene 1 5 34 0.721635 0 72 0.721635 1
gene 1 34 8 -0.622375 0 73 -0.622375 1
gene 1 34 66 -0.681478 0 185 -0.681478 1
gene 1 66 8 -1.54701 0 186 -1.54701 1
genomeend 72

/* Species #11 : (Size 3) (AF 29.6667) (Age 13)  */


/* Organism #73 Fitness: 16 Error: 0 */
genomestart 73
trait 1 0.1 0 0 0 0 0 0 0 
trait 2 0.2 0 0 0 0 0 0 0 
trait 3 0.3 0 0 0 0 0 0 0 
node 1 3 1 1
node 2 3 1 1
node 3 2 1 1
node 4 3 1 1
node 5 2 1 1
node 6 3 1 1
node 7 2 1 3
node 8 1 0 2
node 19 1 0 0
node 31 1 0 0
node 48 1 0 0
gene 2 1 8 -1.30182 0 1 -1.30182 1
gene 1 2 8 5.17527 0 2 5.17527 1
gene 1 3 8 3.40958 0 3 3.40958 1
gene 2 4 8 1.83445 0 4 1.83445 1
gene 1 5 8 -1.29435 0 5 -1.29435 1
gene 3 6 8 4.70748 0 6 4.70748 1
gene 2 7 8 0.57819 0 7 0.57819 1
gene 1 2 19 4.34655 0 28 4.34655 1
gene 1 19 8 1.50004 0 29 1.50004 1
gene 1 7 19 -1.65748 0 32 -1.65748 1
gene 2 1 19 -2.5806 0 41 -2.5806 1
gene 2 1 31 4.10103 0 64 4.10103 1
gene 2 31 19 2.31398 0 65 2.31398 1
gene 1 5 31 -0.444788 0 80 -0.444788 1
gene 3 3 31 0.353858 0 101 0.353858 1
gene 1 5 48 4.77424 0 114 4.77424 1
gene 1 48 8 -2.43119 0 115 -2.43119 1
genomeend 73

/* Organism #74 Fitness: 41 Error: 0 */
genomestart 74
trait 1 0.1 0 0 0 0 0 0 0 
trait 2 0.2 0 0 0 0 0 0 0 
trait 3 0.3 0 0 0 0 0 0 0 
node 1 3 1 1
node 2 3 1 1
node 3 2 1 1
node 4 3 1 1
node 5 2 1 1
node 6 3 1 1
node 7 2 1 3
node 8 1 0 2
node 19 1 0 0
node 31 1 0 0
node 48 1 0 0
gene 2 1 8 1.06412 0 1 1.06412 1
gene 1 2 8 5.83685 0 2 5.83685 1
gene 1 3 8 1.43502 0 3 1.43502 1
gene 2 4 8 0.719839 0 4 0.719839 1
gene 1 5 8 2.66123 0 5 2.66123 1
gene 3 6 8 5.72193 0 6 5.72193 1
gene 2 7 8 -1.17903 0 7 -1.17903 1
gene 1 2 19 5.65904 0 28 5.65904 1
gene 1 19 8 -2.89436 0 29 -2.89436 1
gene 1 7 19 -0.617356 0 32 -0.617356 1
gene 2 1 19 0.26285 0 41 0.26285 1
gene 2 1 31 3.4907 0 64 3.4907 1
gene 2 31 19 0.76721 0 65 0.76721 1
gene 1 5 31 -4.31533 0 80 -4.31533 1
gene 3 3 31 0.353858 0 101 0.353858 1
gene 1 5 48 3.34823 0 114 3.34823 1
gene 1 48 8 2.20337 0 115 2.20337 1
genomeend 74

/* Organism #75 Fitness: 32 Error: 0 */
genomestart 75
trait 1 0.1 0 0 0 0 0 0 0 
trait 2 0.2 0 0 0 0 0 0 0 
trait 3 0.3 0 0 0 0 0 0 0 
node 1 3 1 1
node 2 3 1 1
node 3 2 1 1
node 4 3 1 1
node 5 2 1 1
node 6 3 1 1
node 7 2 1 3
node 8 1 0 2
node 19 1 0 0
node 31 1 0 0
node 48 1 0 0
gene 2 1 8 -1.22602 0 1 -1.22602 1
gene 1 2 8 8 0 2 8 1
gene 1 3 8 5.87382 0 3 5.87382 1
gene 2 4 8 -1.04468 0 4 -1.04468 1
gene 1 5 8 4.93976 0 5 4.93976 1
gene 3 6 8 6.16346 0 6 6.16346 1
gene 2 7 8 -0.374469 0 7 -0.374469 1
gene 1 2 19 2.24068 0 28 2.24068 1
gene 1 19 8 0.506703 0 29 0.506703 1
gene 1 7 19 0.724508 0 32 0.724508 1
gene 2 1 19 -0.159007 0 41 -0.159007 1
gene 2 1 31 6.70046 0 64 6.70046 1
gene 2 31 19 -0.573044 0 65 -0.573044 1
gene 1 5 31 -0.919106 0 80 -0.919106 1
gene 3 3 31 0.353858 0 101 0.353858 1
gene 1 5 48 5.37365 0 114 5.37365 1
gene 1 48 8 0.935543 0 115 0.935543 1
genomeend 75

/* Species #12 : (Size 5) (AF 51.4) (Age 12)  */


/* Organism #76 Fitness: 49 Error: 0 */
genomestart 76
trait 1 0.1 0 0 0 0 0 0 0 
trait 2 0.190751 0 0 0 0 0 0 0 
trait 3 0.3 0 0 0 0 0 0 0 
node 1 3 1 1
node 2 3 1 1
node 3 2 1 1
node 4 3 1 1
node 5 2 1 1
node 6 3 1 1
node 7 2 1 3
node 8 1 0 2
node 19 1 0 0
node 50 1 0 0
gene 2 1 8 -1.12919 0 1 -1.12919 1
gene 1 2 8 -1.44053 0 2 -1.44053 1
gene 1 3 8 -3.55874 0 3 -3.55874 1
gene 3 4 8 -1.35409 0 4 -1.35409 1
gene 1 5 8 6.55684 0 5 6.55684 1
gene 3 6 8 4.50947 0 6 4.50947 1
gene 2 7 8 -0.95969 0 7 -0.95969 1
gene 1 2 19 2.24966 0 28 2.24966 1
gene 1 19 8 1.34756 0 29 1.34756 1
gene 1 7 19 -4.74222 0 32 -4.74222 1
gene 1 5 19 1.9394 0 97 1.9394 1
gene 1 2 50 -0.848223 0 121 -0.848223 1
gene 1 50 19 2.01646 0 122 2.01646 1
genomeend 76

/* Organism #77 Fitness: 36 Error: 0 */
genomestart 77
trait 1 0.1 0 0 0 0 0 0 0 
trait 2 0.110389 0 0 0 0 0 0 0 
trait 3 0.3 0 0 0 0 0 0 0 
node 1 3 1 1
node 2 3 1 1
node 3 2 1 1
node 4 3 1 1
node 5 2 1 1
node 6 3 1 1
node 7 2 1 3
node 8 1 0 2
node 19 1 0 0
node 50 1 0 0
gene 2 1 8 3.03914 0 1 3.03914 1
gene 1 2 8 1.93437 0 2 1.93437 1
gene 1 3 8 -2.35064 0 3 -2.35064 1
gene 3 4 8 0.500432 0 4 0.500432 1
gene 1 5 8 2.10374 0 5 2.10374 1
gene 3 6 8 6.78029 0 6 6.78029 1
gene 2 7 8 -3.4281 0 7 -3.4281 1
gene 1 2 19 -2.4585 0 28 -2.4585 1
gene 1 19 8 2.85788 0 29 2.85788 1
gene 1 7 19 -0.401508 0 32 -0.401508 1
gene 1 5 19 5.33842 0 97 5.33842 1
gene 1 2 50 -1.15934 0 121 -1.15934 1
gene 1 50 19 1.68269 0 122 1.68269 1
genomeend 77

/* Organism #78 Fitness: 48 Error: 0 */
genomestart 78
trait 1 0.1 0 0 0 0 0 0 0 
trait 2 0.110389 0 0 0 0 0 0 0 
trait 3 0.3 0 0 0 0 0 0 0 
node 1 3 1 1
node 2 3 1 1
node 3 2 1 1
node 4 3 1 1
node 5 2 1 1
node 6 3 1 1
node 7 2 1 3
node 8 1 0 2
node 19 1 0 0
node 50 1 0 0
gene 2 1 8 -0.823778 0 1 -0.823778 1
gene 1 2 8 2.55558 0 2 2.55558 1
gene 1 3 8 -4.45622 0 3 -4.45622 1
gene 3 4 8 -2.48629 0 4 -2.48629 1
gene 1 5 8 7.0986 0 5 7.0986 1
gene 3 6 8 6.41961 0 6 6.41961 1
gene 2 7 8 -1.67679 0 7 -1.67679 1
gene 1 2 19 4.57406 0 28 4.57406 1
gene 1 19 8 3.19025 0 29 3.19025 1
gene 1 7 19 -1.9949 0 32 -1.9949 1
gene 1 5 19 2.15174 0 97 2.15174 1
gene 1 2 50 -1.757 0 121 -1.757 1
gene 1 50 19 1.313 0 122 1.313 1
genomeend 78

/* Organism #79 Fitness: 80 Error: 0 */
genomestart 79
trait 1 0.830189 0.0886475 0.831189 0 0 0 0 0 
trait 2 0.190751 0 0 0 0 0 0 0 
trait 3 0.3 0 0 0 0 0 0 0 
node 1 3 1 1
node 2 3 1 1
node 3 2 1 1
node 4 3 1 1
node 5 2 1 1
node 6 3 1 1
node 7 2 1 3
node 8 1 0 2
node 19 1 0 0
node 50 1 0 0
gene 2 1 8 -0.113497 0 1 -0.113497 1
gene 1 2 8 2.21083 0 2 2.21083 1
gene 1 3 8 -2.18315 0 3 -2.18315 1
gene 3 4 8 1.37412 0 4 1.37412 1
gene 1 5 8 3.98806 0 5 3.98806 1
gene 3 6 8 4.00873 0 6 4.00873 1
gene 2 7 8 -1.33489 0 7 -1.33489 1
gene 1 2 19 4.06358 0 28 4.06358 1
gene 1 19 8 4.57547 0 29 4.57547 1
gene 1 7 19 -2.66639 0 32 -2.66639 1
gene 1 5 19 1.76202 0 97 1.76202 1
gene 1 2 50 -1.20562 0 121 -1.20562 1
gene 1 50 19 0.26924 0 122 0.26924 1
genomeend 79

/* Organism #80 Fitness: 44 Error: 0 */
genomestart 80
trait 1 0.1 0 0 0 0 0 0 0 
trait 2 0.271112 0 0 0 0 0 0 0 
trait 3 0.3 0 0 0 0 0 0 0 
node 1 3 1 1
node 2 3 1 1
node 3 2 1 1
node 4 3 1 1
node 5 2 1 1
node 6 3 1 1
node 7 2 1 3
node 8 1 0 2
node 19 1 0 0
node 50 1 0 0
gene 2 1 8 0.60462 0 1 0.60462 1
gene 1 2 8 1.64377 0 2 1.64377 1
gene 1 3 8 -1.7347 0 3 -1.7347 1
gene 3 4 8 -1.75303 0 4 -1.75303 1
gene 1 5 8 4.68765 0 5 4.68765 1
gene 3 6 8 4.92994 0 6 4.92994 1
gene 2 7 8 -3.48058 0 7 -3.48058 1
gene 1 2 19 2.25021 0 28 2.25021 1
gene 1 19 8 3.11378 0 29 3.11378 1
gene 1 7 19 -4.01818 0 32 -4.01818 1
gene 1 5 19 2.20924 0 97 2.20924 1
gene 1 2 50 -0.848223 0 121 -0.848223 1
gene 1 50 19 1.68269 0 122 1.68269 1
gene 3 6 50 0.961431 0 286 0.961431 1
genomeend 80

/* Species #13 : (Size 5) (AF 40.4) (Age 12)  */


/* Organism #81 Fitness: 44 Error: 0 */
genomestart 81
trait 1 0.084375 0 0.324965 0.011463 0 0.0993312 0.836081 0.639369 
trait 2 0.17986 0 0 0 0 0 0 0 
trait 3 0.3 0 0 0.049705 0.090594 0 0 0 
node 1 3 1 1
node 2 2 1 1
node 3 2 1 1
node 4 1 1 1
node 5 1 1 1
node 6 1 1 1
node 7 1 1 3
node 8 3 0 2
node 24 1 0 0
gene 2 1 8 -2.10647 0 1 -2.10647 1
gene 2 2 8 1.96215 0 2 1.96215 1
gene 3 3 8 -1.41217 0 3 -1.41217 1
gene 3 4 8 3.7278 0 4 3.7278 1
gene 3 5 8 6.8329 0 5 6.8329 1
gene 3 6 8 6.11516 0 6 6.11516 1
gene 2 7 8 -3.6406 0 7 -3.6406 1
gene 2 1 24 -0.162428 0 39 -0.162428 1
gene 2 24 8 1.17441 0 40 1.17441 1
gene 1 2 24 2.01946 0 60 2.01946 1
gene 1 4 24 -0.613211 0 100 -0.613211 1
genomeend 81

/* Organism #82 Fitness: 35 Error: 0 */
genomestart 82
trait 1 0.084375 0 0 0.011463 0.0163967 0.0993312 0.118593 0 
trait 2 0.17986 0 0 0 0 0 0 0 
trait 3 0.3 0 0 0.049705 0.090594 0 0 0 
node 1 3 1 1
node 2 1 1 1
node 3 2 1 1
node 4 1 1 1
node 5 1 1 1
node 6 1 1 1
node 7 1 1 3
node 8 3 0 2
node 24 1 0 0
gene 2 1 8 -1.87758 0 1 -1.87758 1
gene 2 2 8 2.50535 0 2 2.50535 1
gene 3 3 8 -0.958802 0 3 -0.958802 1
gene 3 4 8 2.66751 0 4 2.66751 1
gene 3 5 8 5.35334 0 5 5.35334 1
gene 3 6 8 7.52761 0 6 7.52761 1
gene 2 7 8 -2.18696 0 7 -2.18696 1
gene 2 1 24 -0.700708 0 39 -0.700708 1
gene 2 24 8 -2.11037 0 40 -2.11037 1
gene 1 2 24 1.2627 0 60 1.2627 1
gene 1 4 24 -0.293722 0 100 -0.293722 1
genomeend 82

/* Organism #83 Fitness: 28 Error: 0 */
genomestart 83
trait 1 0.084375 0 0 0.011463 0.0163967 0.0993312 0.118593 0 
trait 2 0.17986 0 0 0 0 0 0 0 
trait 3 0.3 0 0 0.049705 0.090594 0 0 0 
node 1 3 1 1
node 2 1 1 1
node 3 2 1 1
node 4 1 1 1
node 5 1 1 1
node 6 1 1 1
node 7 1 1 3
node 8 3 0 2
node 24 1 0 0
gene 2 1 8 -5.11665 0 1 -5.11665 1
gene 2 2 8 -1.61496 0 2 -1.61496 1
gene 3 3 8 1.78906 0 3 1.78906 1
gene 3 4 8 2.72131 0 4 2.72131 1
gene 3 5 8 7.55918 0 5 7.55918 1
gene 3 6 8 5.23601 0 6 5.23601 1
gene 2 7 8 0.518632 0 7 0.518632 1
gene 2 1 24 1.27086 0 39 1.27086 1
gene 2 24 8 2.92378 0 40 2.92378 1
gene 1 2 24 1.27576 0 60 1.27576 1
gene 1 4 24 0.268988 0 100 0.268988 1
genomeend 83

/* Organism #84 Fitness: 49 Error: 0 */
genomestart 84
trait 1 0.084375 0 0 0.011463 0.0163967 0.0993312 0.118593 0 
trait 2 0.17986 0 0 0 0 0 0 0 
trait 3 0.3 0 0 0.049705 0.090594 0 0 0 
node 1 3 1 1
node 2 1 1 1
node 3 2 1 1
node 4 1 1 1
node 5 1 1 1
node 6 1 1 1
node 7 1 1 3
node 8 1 0 2
node 24 1 0 0
gene 2 1 8 -5.3852 0 1 -5.3852 1
gene 2 2 8 2.22608 0 2 2.22608 1
gene 3 3 8 -0.906798 0 3 -0.906798 1
gene 3 4 8 4.0805 0 4 4.0805 1
gene 3 5 8 5.98033 0 5 5.98033 1
gene 3 6 8 7.19243 0 6 7.19243 1
gene 2 7 8 -1.09996 0 7 -1.09996 1
gene 2 1 24 -1.78773 0 39 -1.78773 1
gene 2 24 8 -0.670361 0 40 -0.670361 1
gene 1 2 24 -0.335235 0 60 -0.335235 1
gene 1 4 24 0.512897 0 100 0.512897 1
genomeend 84

/* Organism #85 Fitness: 46 Error: 0 */
genomestart 85
trait 1 0.084375 0 0 0.011463 0.0163967 0.0993312 0.118593 0 
trait 2 0.17986 0 0 0 0 0 0 0 
trait 3 0.3 0 0 0.049705 0.090594 0 0 0 
node 1 3 1 1
node 2 1 1 1
node 3 2 1 1
node 4 1 1 1
node 5 1 1 1
node 6 1 1 1
node 7 1 1 3
node 8 3 0 2
node 24 1 0 0
gene 2 1 8 -1.93627 0 1 -1.93627 1
gene 2 2 8 -2.01215 0 2 -2.01215 1
gene 3 3 8 2.71322 0 3 2.71322 1
gene 3 4 8 4.52352 0 4 4.52352 1
gene 3 5 8 6.65554 0 5 6.65554 1
gene 3 6 8 6.864 0 6 6.864 1
gene 2 7 8 -2.61542 0 7 -2.61542 1
gene 2 1 24 4.52268 0 39 4.52268 1
gene 2 24 8 -0.201509 0 40 -0.201509 1
gene 1 2 24 0.959318 0 60 0.959318 1
gene 2 4 24 0.479872 0 100 0.479872 1
genomeend 85

/* Species #15 : (Size 3) (AF 25.3333) (Age 12)  */


/* Organism #86 Fitness: 44 Error: 0 */
genomestart 86
trait 1 0.0875 0 0 0.00917042 0 0.0744408 0.0948746 0 
trait 2 0.38799 0.149688 0 0.667406 0 0.495571 0 0.830423 
trait 3 0.3 0 0 0 0 0 0 0 
node 1 3 1 1
node 2 3 1 1
node 3 2 1 1
node 4 1 1 1
node 5 2 1 1
node 6 2 1 1
node 7 2 1 3
node 8 3 0 2
node 19 1 0 0
node 23 1 0 0
node 32 1 0 0
node 52 1 0 0
gene 2 1 8 -2.48221 0 1 -2.48221 1
gene 1 2 8 -1.63123 0 2 -1.63123 0
gene 1 3 8 0.73667 0 3 0.73667 0
gene 2 4 8 -1.00149 0 4 -1.00149 1
gene 1 5 8 8 0 5 8 1
gene 3 6 8 -1.23869 0 6 -1.23869 0
gene 2 7 8 3.53561 0 7 3.53561 1
gene 1 2 19 0.824767 0 28 0.824767 1
gene 1 19 8 -5.94598 0 29 -5.94598 1
gene 1 3 23 1.66028 0 37 1.66028 0
gene 1 23 8 -2.00916 0 38 -2.00916 1
gene 3 6 32 3.95376 0 66 3.95376 1
gene 3 32 8 4.01368 0 67 4.01368 1
gene 3 1 23 2.05821 0 76 2.05821 1
gene 1 3 52 0.618033 0 128 0.618033 1
gene 1 52 23 3.30825 0 129 3.30825 1
genomeend 86

/* Organism #87 Fitness: 7 Error: 0 */
genomestart 87
trait 1 0.0875 0 0 0.00917042 0 0.0744408 0.0948746 0 
trait 2 0.38799 0.149688 0 0.667406 0 0.495571 0 0.830423 
trait 3 0.3 0 0 0 0 0 0 0 
node 1 3 1 1
node 2 3 1 1
node 3 2 1 1
node 4 1 1 1
node 5 2 1 1
node 6 2 1 1
node 7 2 1 3
node 8 1 0 2
node 19 1 0 0
node 23 1 0 0
node 32 1 0 0
node 52 1 0 0
gene 2 1 8 -1.27823 0 1 -1.27823 1
gene 1 2 8 -0.930562 0 2 -0.930562 0
gene 1 3 8 1.32116 0 3 1.32116 0
gene 2 4 8 -2.05183 0 4 -2.05183 1
gene 1 5 8 0.824531 0 5 0.824531 1
gene 3 6 8 -0.383688 0 6 -0.383688 0
gene 2 7 8 2.76007 0 7 2.76007 1
gene 1 2 19 -0.7528 0 28 -0.7528 1
gene 1 19 8 -8 0 29 -8 1
gene 1 3 23 -0.850211 0 37 -0.850211 0
gene 1 23 8 -3.39805 0 38 -3.39805 1
gene 3 6 32 -2.24401 0 66 -2.24401 1
gene 3 32 8 2.72117 0 67 2.72117 1
gene 3 1 23 2.31531 0 76 2.31531 1
gene 1 3 52 0.141055 0 128 0.141055 1
gene 1 52 23 1.01941 0 129 1.01941 1
genomeend 87

/* Organism #88 Fitness: 25 Error: 0 */
genomestart 88
trait 1 0.0875 0 0 0.00917042 0 0.0744408 0.0948746 0 
trait 2 0.38799 0.149688 0 0.667406 0 0.495571 0 0.830423 
trait 3 0.3 0 0 0 0 0 0 0 
node 1 3 1 1
node 2 3 1 1
node 3 2 1 1
node 4 1 1 1
node 5 2 1 1
node 6 2 1 1
node 7 2 1 3
node 8 1 0 2
node 19 1 0 0
node 23 1 0 0
node 32 1 0 0
node 52 1 0 0
gene 2 1 8 -4.54692 0 1 -4.54692 1
gene 1 2 8 1.48875 0 2 1.48875 0
gene 1 3 8 -1.10668 0 3 -1.10668 0
gene 2 4 8 -0.282446 0 4 -0.282446 1
gene 1 5 8 5.72811 0 5 5.72811 1
gene 3 6 8 -1.32454 0 6 -1.32454 0
gene 2 7 8 2.28079 0 7 2.28079 1
gene 1 2 19 0.699338 0 28 0.699338 1
gene 1 19 8 -6.84263 0 29 -6.84263 1
gene 1 3 23 0.817373 0 37 0.817373 0
gene 1 23 8 -3.64853 0 38 -3.64853 1
gene 3 6 32 2.62902 0 66 2.62902 1
gene 3 32 8 4.76778 0 67 4.76778 1
gene 3 1 23 3.53419 0 76 3.53419 1
gene 1 3 52 -1.83692 0 128 -1.83692 1
gene 1 52 23 2.23327 0 129 2.23327 1
genomeend 88

/* Species #16 : (Size 8) (AF 57.875) (Age 11)  */


/* Organism #89 Fitness: 203 Error: 0 */
genomestart 89
trait 1 0.084375 0 0 0.011463 0.0163967 0.0993312 0.118593 0 
trait 2 0.17986 0 0 0 0 0 0 0 
trait 3 0.3 0 0 0.049705 0.090594 0 0 0 
node 1 3 1 1
node 2 1 1 1
node 3 2 1 1
node 4 1 1 1
node 5 1 1 1
node 6 1 1 1
node 7 1 1 3
node 8 3 0 2
node 24 1 0 0
gene 1 1 8 -1.76508 0 1 -1.76508 1
gene 2 2 8 1.83221 0 2 1.83221 1
gene 3 3 8 -3.93269 0 3 -3.93269 1
gene 3 4 8 -1.43761 0 4 -1.43761 1
gene 3 5 8 5.52291 0 5 5.52291 1
gene 3 6 8 1.29495 0 6 1.29495 1
gene 2 7 8 0.447718 0 7 0.447718 1
gene 2 1 24 1.31843 0 39 0.943431 1
gene 2 24 8 -0.819698 0 40 -0.519346 1
gene 1 2 24 -1.40703 0 60 -1.40703 1
gene 2 5 24 -0.917591 0 92 -0.917591 1
gene 2 7 24 0.594029 0 123 0.594029 1
gene 3 6 24 0.769071 0 136 0.769071 1
gene 2 4 24 0.849194 0 153 0.849194 1
genomeend 89

/* Organism #90 Fitness: 5 Error: 0 */
genomestart 90
trait 1 0.084375 0 0 0.011463 0.0163967 0.0993312 0.118593 0 
trait 2 0.17986 0 0 0 0 0 0 0 
trait 3 0.3 0 0 0.049705 0.090594 0 0 0 
node 1 3 1 1
node 2 1 1 1
node 3 2 1 1
node 4 1 1 1
node 5 1 1 1
node 6 1 1 1
node 7 1 1 3
node 8 3 0 2
node 24 1 0 0
gene 1 1 8 -1.37601 0 1 -1.37601 1
gene 2 2 8 3.03985 0 2 3.03985 1
gene 3 3 8 -2.91771 0 3 -2.91771 1
gene 3 4 8 -1.60327 0 4 -1.60327 1
gene 3 5 8 3.42412 0 5 3.42412 1
gene 3 6 8 -0.00885251 0 6 -0.00885251 1
gene 2 7 8 -0.146953 0 7 -0.146953 1
gene 2 1 24 -1.14037 0 39 -1.14037 1
gene 2 24 8 -3.2051 0 40 -3.2051 1
gene 1 2 24 0.620059 0 60 0.620059 1
gene 2 5 24 -0.905902 0 92 -0.905902 1
gene 2 7 24 -2.13566 0 123 -2.13566 1
gene 3 6 24 1.35344 0 136 1.35344 1
gene 2 4 24 3.13637 0 153 3.13637 1
genomeend 90

/* Organism #91 Fitness: 5 Error: 0 */
genomestart 91
trait 1 0 0 0.00661159 0.011463 0 0 0.118593 0 
trait 2 0.17986 0 0 0 0 0 0 0 
trait 3 0.3 0 0 0.049705 0.090594 0 0 0 
node 1 3 1 1
node 2 1 1 1
node 3 2 1 1
node 4 1 1 1
node 5 1 1 1
node 6 1 1 1
node 7 1 1 3
node 8 3 0 2
node 24 1 0 0
gene 1 1 8 0.0675951 0 1 0.0675951 1
gene 2 2 8 1.65351 0 2 1.65351 1
gene 3 3 8 1.35974 0 3 1.35974 1
gene 3 4 8 -3.56096 0 4 -3.56096 1
gene 3 5 8 -1.19406 0 5 -1.19406 1
gene 3 6 8 0.524327 0 6 0.524327 1
gene 2 7 8 -1.57273 0 7 -1.57273 1
gene 2 1 24 1.31843 0 39 1.31843 1
gene 2 24 8 -3.28966 0 40 -3.28966 1
gene 1 2 24 -0.556187 0 60 -0.556187 1
gene 2 5 24 0.378979 0 92 0.378979 1
gene 2 7 24 -1.32356 0 123 -1.32356 1
gene 3 6 24 1.88002 0 136 1.88002 1
gene 2 4 24 0.511884 0 153 0.511884 1
genomeend 91

/* Organism #92 Fitness: 142 Error: 0 */
genomestart 92
trait 1 0.084375 0 0 0.011463 0.0163967 0.0993312 0.118593 0 
trait 2 0.17986 0 0 0 0 0 0 0 
trait 3 0.3 0 0 0.049705 0.090594 0 0 0 
node 1 3 1 1
node 2 1 1 1
node 3 2 1 1
node 4 1 1 1
node 5 1 1 1
node 6 1 1 1
node 7 1 1 3
node 8 3 0 2
node 24 1 0 0
gene 1 1 8 -1.76508 0 1 -1.76508 0
gene 2 2 8 1.94385 0 2 1.94385 1
gene 3 3 8 -3.93269 0 3 -3.93269 1
gene 3 4 8 -1.43761 0 4 -1.43761 1
gene 3 5 8 5.52291 0 5 5.52291 1
gene 3 6 8 1.29495 0 6 1.29495 1
gene 2 7 8 0.323067 0 7 0.323067 1
gene 2 1 24 1.31843 0 39 0.943431 1
gene 2 24 8 -0.927419 0 40 -0.645839 1
gene 1 2 24 -1.47467 0 60 -1.47467 1
gene 2 5 24 -0.931098 0 92 -0.931098 1
gene 2 7 24 0.594029 0 123 0.594029 1
gene 3 6 24 0.769071 0 136 0.769071 1
gene 2 4 24 0.849194 0 153 0.849194 1
genomeend 92

/* Organism #93 Fitness: 63 Error: 0 */
genomestart 93
trait 1 0.084375 0 0 0.011463 0.0163967 0.0993312 0.118593 0 
trait 2 0.17986 0 0 0 0 0 0 0 
trait 3 0.3 0 0 0.049705 0.090594 0 0 0 
node 1 3 1 1
node 2 1 1 1
node 3 2 1 1
node 4 1 1 1
node 5 1 1 1
node 6 1 1 1
node 7 1 1 3
node 8 3 0 2
node 24 1 0 0
gene 1 1 8 -1.67877 0 1 -1.67877 0
gene 2 2 8 -0.649137 0 2 -0.649137 1
gene 3 3 8 -4.90715 0 3 -4.90715 1
gene 3 4 8 -2.26886 0 4 -2.26886 1
gene 3 5 8 6.78571 0 5 6.78571 1
gene 3 6 8 2.37577 0 6 2.37577 1
gene 2 7 8 0.323067 0 7 0.323067 1
gene 2 1 24 3.35177 0 39 3.35177 1
gene 2 24 8 -1.28085 0 40 -1.28085 1
gene 1 2 24 -0.290857 0 60 -0.290857 1
gene 2 5 24 -1.71387 0 92 -1.71387 1
gene 2 7 24 1.42224 0 123 1.42224 1
gene 3 6 24 1.03995 0 136 1.03995 1
gene 2 4 24 2.17847 0 153 2.17847 1
genomeend 93

/* Organism #94 Fitness: 6 Error: 0 */
genomestart 94
trait 1 0.084375 0 0 0.011463 0.0163967 0.0993312 0.118593 0 
trait 2 0.17986 0 0 0 0 0 0 0 
trait 3 0.3 0 0 0.049705 0.090594 0 0 0 
node 1 3 1 1
node 2 1 1 1
node 3 2 1 1
node 4 1 1 1
node 5 1 1 1
node 6 1 1 1
node 7 1 1 3
node 8 3 0 2
node 24 1 0 0
gene 1 1 8 -1.70666 0 1 -1.70666 1
gene 2 2 8 1.60891 0 2 1.60891 1
gene 3 3 8 -2.76478 0 3 -2.76478 1
gene 3 4 8 -2.23163 0 4 -2.23163 1
gene 3 5 8 4.59918 0 5 4.59918 1
gene 3 6 8 -0.819325 0 6 -0.819325 1
gene 2 7 8 0.491911 0 7 0.491911 1
gene 2 1 24 1.68905 0 39 1.68905 1
gene 2 24 8 -3.0357 0 40 -3.0357 1
gene 1 2 24 0.709794 0 60 0.709794 1
gene 2 5 24 -3.35515 0 92 -3.35515 1
gene 2 7 24 -1.6725 0 123 -1.6725 1
gene 3 6 24 0.0788072 0 136 0.0788072 1
gene 2 4 24 -2.2511 0 153 -2.2511 1
genomeend 94

/* Organism #95 Fitness: 5 Error: 0 */
genomestart 95
trait 1 0.084375 0 0 0.011463 0.0163967 0.0993312 0.118593 0 
trait 2 0.17986 0 0 0 0 0 0 0 
trait 3 0.3 0 0 0.049705 0.090594 0 0 0 
node 1 3 1 1
node 2 1 1 1
node 3 2 1 1
node 4 1 1 1
node 5 1 1 1
node 6 1 1 1
node 7 1 1 3
node 8 3 0 2
node 24 1 0 0
gene 1 1 8 0.124889 0 1 0.124889 0
gene 2 2 8 4.11872 0 2 4.11872 1
gene 3 3 8 -4.20842 0 3 -4.20842 1
gene 3 4 8 -1.87674 0 4 -1.87674 1
gene 3 5 8 4.73686 0 5 4.73686 1
gene 3 6 8 -0.222622 0 6 -0.222622 1
gene 2 7 8 -0.88117 0 7 -0.88117 1
gene 2 1 24 0.618139 0 39 0.618139 1
gene 2 24 8 -1.37629 0 40 -1.37629 1
gene 1 2 24 -2.18524 0 60 -2.18524 1
gene 2 5 24 -1.22053 0 92 -1.22053 1
gene 2 7 24 2.67556 0 123 2.67556 1
gene 3 6 24 1.13665 0 136 1.13665 1
gene 2 4 24 0.849194 0 153 0.849194 1
genomeend 95

/* Organism #96 Fitness: 34 Error: 0 */
genomestart 96
trait 1 0.084375 0 0 0.011463 0.0163967 0.0993312 0.118593 0 
trait 2 0.17986 0 0 0 0 0 0 0 
trait 3 0.3 0 0 0.049705 0.090594 0 0 0 
node 1 3 1 1
node 2 1 1 1
node 3 2 1 1
node 4 1 1 1
node 5 1 1 1
node 6 1 1 1
node 7 1 1 3
node 8 3 0 2
node 24 1 0 0
gene 1 1 8 0.403545 0 1 0.403545 0
gene 2 2 8 3.88978 0 2 3.88978 1
gene 3 3 8 -2.20918 0 3 -2.20918 1
gene 3 4 8 0.520418 0 4 0.520418 1
gene 3 5 8 7.68181 0 5 7.68181 1
gene 3 6 8 2.40154 0 6 2.40154 1
gene 2 7 8 2.61045 0 7 2.61045 1
gene 2 1 24 1.53697 0 39 1.53697 1
gene 2 24 8 -2.41905 0 40 -2.41905 1
gene 1 2 24 0.762865 0 60 0.762865 1
gene 2 5 24 0.246966 0 92 0.246966 1
gene 2 7 24 -1.05626 0 123 -1.05626 1
gene 3 6 24 0.769071 0 136 0.769071 1
gene 2 4 24 -2.11552 0 153 -2.11552 1
genomeend 96

/* Species #17 : (Size 3) (AF 28) (Age 11)  */


/* Organism #97 Fitness: 31 Error: 0 */
genomestart 97
trait 1 0.1 0 0 0.0153675 0 0 0 0 
trait 2 0.91351 0 0 0 0.321441 0 0 0.403945 
trait 3 0.3 0 0 0 0 0 0 0 
node 1 3 1 1
node 2 3 1 1
node 3 2 1 1
node 4 1 1 1
node 5 2 1 1
node 6 3 1 1
node 7 2 1 3
node 8 1 0 2
node 19 1 0 0
node 36 1 0 0
node 47 1 0 0
node 74 1 0 0
gene 2 1 8 0.542774 0 1 0.542774 1
gene 1 2 8 -0.435854 0 2 -0.435854 0
gene 1 3 8 4.77488 0 3 4.77488 1
gene 2 4 8 -2.32894 0 4 -2.32894 1
gene 1 5 8 -3.00058 0 5 -3.00058 1
gene 3 6 8 7.54488 0 6 7.54488 1
gene 2 7 8 -0.795109 0 7 -0.795109 1
gene 1 2 19 -5.70285 0 28 -5.70285 1
gene 1 19 8 -1.05559 0 29 -1.05559 1
gene 1 7 19 4.27184 0 32 4.27184 1
gene 2 5 19 1.52169 0 43 1.52169 0
gene 1 6 19 -2.91573 0 55 -2.91573 1
gene 2 3 19 4.07098 0 63 4.07098 1
gene 2 5 36 0.784474 0 78 0.784474 1
gene 2 36 19 4.22291 0 79 4.22291 0
gene 2 36 47 -1.50313 0 111 -1.50313 0
gene 2 47 19 1.86646 0 112 1.86646 1
gene 2 36 74 -2.2089 0 213 -2.2089 1
gene 2 74 47 -2.70043 0 214 -2.70043 1
genomeend 97

/* Organism #98 Fitness: 22 Error: 0 */
genomestart 98
trait 1 0.1 0 0 0.0153675 0 0 0 0 
trait 2 0.91351 0 0 0 0.321441 0 0 0.403945 
trait 3 0.3 0 0 0 0 0 0 0 
node 1 3 1 1
node 2 3 1 1
node 3 2 1 1
node 4 1 1 1
node 5 2 1 1
node 6 3 1 1
node 7 2 1 3
node 8 1 0 2
node 19 1 0 0
node 36 1 0 0
node 47 1 0 0
node 74 1 0 0
gene 2 1 8 2.85795 0 1 2.85795 1
gene 1 2 8 -1.08274 0 2 -1.08274 0
gene 1 3 8 6.45006 0 3 6.45006 1
gene 2 4 8 -0.100718 0 4 -0.100718 1
gene 1 5 8 -0.478439 0 5 -0.478439 1
gene 3 6 8 5.97611 0 6 5.97611 1
gene 2 7 8 -0.590317 0 7 -0.590317 1
gene 1 2 19 -4.91363 0 28 -4.91363 1
gene 1 19 8 0.761405 0 29 0.761405 1
gene 1 7 19 2.68098 0 32 2.68098 1
gene 2 5 19 2.3813 0 43 2.3813 0
gene 1 6 19 -3.97755 0 55 -3.97755 1
gene 2 3 19 2.22138 0 63 2.22138 1
gene 2 5 36 1.72889 0 78 1.72889 1
gene 2 36 19 5.1524 0 79 5.1524 0
gene 2 36 47 1.0232 0 111 1.0232 0
gene 2 47 19 -2.02883 0 112 -2.02883 1
gene 2 36 74 -0.814202 0 213 -0.814202 1
gene 2 74 47 -0.264784 0 214 -0.264784 1
genomeend 98

/* Organism #99 Fitness: 31 Error: 0 */
genomestart 99
trait 1 0.1 0 0 0.0153675 0 0 0 0 
trait 2 0.91351 0 0 0 0.321441 0 0 0.403945 
trait 3 0.3 0 0 0 0 0 0 0 
node 1 3 1 1
node 2 3 1 1
node 3 2 1 1
node 4 1 1 1
node 5 2 1 1
node 6 3 1 1
node 7 2 1 3
node 8 3 0 2
node 19 1 0 0
node 36 1 0 0
node 47 1 0 0
node 74 1 0 0
gene 2 1 8 1.7661 0 1 1.7661 1
gene 1 2 8 -2.08097 0 2 -2.08097 0
gene 1 3 8 6.97062 0 3 6.97062 1
gene 2 4 8 -1.29113 0 4 -1.29113 1
gene 1 5 8 0.494395 0 5 0.494395 1
gene 3 6 8 4.45417 0 6 4.45417 1
gene 2 7 8 -2.01583 0 7 -2.01583 1
gene 1 2 19 -6.35415 0 28 -6.35415 1
gene 1 19 8 -0.517196 0 29 -0.517196 1
gene 1 7 19 1.56662 0 32 1.56662 1
gene 2 5 19 -1.10363 0 43 -1.10363 0
gene 1 6 19 -1.74406 0 55 -1.74406 1
gene 2 3 19 0.604971 0 63 0.604971 1
gene 2 5 36 -2.09269 0 78 -2.09269 1
gene 2 36 19 3.8375 0 79 3.8375 0
gene 2 36 47 -0.18376 0 111 -0.18376 0
gene 2 47 19 2.55036 0 112 2.55036 1
gene 2 36 74 2.48573 0 213 2.48573 1
gene 2 74 47 -1.19633 0 214 -1.19633 1
genomeend 99

/* Species #18 : (Size 4) (AF 11.25) (Age 10)  */


/* Organism #100 Fitness: 7 Error: 0 */
genomestart 100
trait 1 0.1 0 0 0 0 0 0 0 
trait 2 0.2 0 0 0 0 0 0 0 
trait 3 0.3 0 0 0 0 0 0 0 
node 1 3 1 1
node 2 3 1 1
node 3 2 1 1
node 4 3 1 1
node 5 1 1 1
node 6 3 1 1
node 7 2 1 3
node 8 1 0 2
node 19 1 0 0
node 59 1 0 0
gene 2 1 8 -2.63745 0 1 -2.63745 1
gene 1 2 8 0.190819 0 2 0.190819 0
gene 1 3 8 -0.426627 0 3 -0.426627 1
gene 2 4 8 -2.08504 0 4 -2.08504 1
gene 1 5 8 1.26275 0 5 1.26275 1
gene 3 6 8 0.953304 0 6 0.953304 1
gene 2 7 8 2.49658 0 7 2.49658 1
gene 1 2 19 -2.07841 0 28 -2.07841 0
gene 1 19 8 2.6234 0 29 2.6234 1
gene 1 7 19 -2.36836 0 32 -2.36836 1
gene 1 5 19 0.516967 0 97 0.516967 1
gene 1 2 59 0.687205 0 148 0.687205 1
gene 1 59 19 2.54813 0 149 2.54813 1
genomeend 100

/* Organism #101 Fitness: 26 Error: 0 */
genomestart 101
trait 1 0.1 0 0 0 0 0 0 0 
trait 2 0.2 0 0 0 0 0 0 0 
trait 3 0.3 0 0 0 0 0 0 0 
node 1 3 1 1
node 2 3 1 1
node 3 2 1 1
node 4 3 1 1
node 5 1 1 1
node 6 3 1 1
node 7 2 1 3
node 8 1 0 2
node 19 1 0 0
node 59 1 0 0
gene 2 1 8 -2.26781 0 1 -2.26781 1
gene 1 2 8 -1.0427 0 2 -1.0427 0
gene 1 3 8 0.341623 0 3 0.341623 1
gene 2 4 8 -1.67094 0 4 -1.67094 1
gene 1 5 8 0.32439 0 5 0.32439 1
gene 3 6 8 4.58753 0 6 4.58753 1
gene 2 7 8 2.67804 0 7 2.67804 1
gene 1 2 19 4.14566 0 28 4.14566 0
gene 1 19 8 0.421661 0 29 0.421661 1
gene 1 7 19 -4.72422 0 32 -4.72422 1
gene 1 5 19 2.55981 0 97 2.55981 1
gene 1 2 59 3.28501 0 148 3.28501 1
gene 1 59 19 0.320856 0 149 0.320856 1
genomeend 101

/* Organism #102 Fitness: 5 Error: 0 */
genomestart 102
trait 1 0.1 0 0 0 0 0 0 0 
trait 2 0.2 0 0 0 0 0 0 0 
trait 3 0.3 0 0 0 0 0 0 0 
node 1 3 1 1
node 2 3 1 1
node 3 2 1 1
node 4 3 1 1
node 5 1 1 1
node 6 3 1 1
node 7 2 1 3
node 8 1 0 2
node 19 1 0 0
node 59 1 0 0
gene 2 1 8 -0.245743 0 1 -0.245743 1
gene 1 2 8 1.51484 0 2 1.51484 0
gene 1 3 8 1.15035 0 3 1.15035 1
gene 2 4 8 -4.72318 0 4 -4.72318 1
gene 1 5 8 1.23154 0 5 1.23154 1
gene 3 6 8 0.334047 0 6 0.334047 1
gene 2 7 8 -1.59779 0 7 -1.59779 1
gene 1 2 19 0.620836 0 28 0.620836 0
gene 1 19 8 -0.955247 0 29 -0.955247 1
gene 1 7 19 -4.07213 0 32 -4.07213 1
gene 1 5 19 -1.33124 0 97 -1.33124 1
gene 1 2 59 1 0 148 1 1
gene 1 59 19 2.54381 0 149 2.54381 1
genomeend 102

/* Organism #103 Fitness: 7 Error: 0 */
genomestart 103
trait 1 0.1 0 0 0 0 0 0 0 
trait 2 0.2 0 0 0 0 0 0 0 
trait 3 0.3 0 0 0 0 0 0 0 
node 1 3 1 1
node 2 3 1 1
node 3 2 1 1
node 4 3 1 1
node 5 1 1 1
node 6 3 1 1
node 7 2 1 3
node 8 1 0 2
node 19 1 0 0
node 59 1 0 0
gene 2 1 8 -2.85823 0 1 -2.85823 1
gene 1 2 8 -0.327715 0 2 -0.327715 0
gene 1 3 8 1.69977 0 3 1.69977 1
gene 2 4 8 -3.46541 0 4 -3.46541 1
gene 1 5 8 0.488833 0 5 0.488833 1
gene 3 6 8 1.34347 0 6 1.34347 1
gene 2 7 8 1.17398 0 7 1.17398 1
gene 1 2 19 0.00767502 0 28 0.00767502 0
gene 1 19 8 3.52558 0 29 3.52558 1
gene 1 7 19 -0.45157 0 32 -0.45157 1
gene 1 5 19 2.11603 0 97 2.11603 1
gene 1 2 59 -1.73864 0 148 -1.73864 1
gene 1 59 19 3.68501 0 149 3.68501 1
genomeend 103

/* Species #19 : (Size 6) (AF 62.3333) (Age 10)  */


/* Organism #104 Fitness: 112 Error: 0 */
genomestart 104
trait 1 0.1 0 0 0.0153675 0 0 0 0 
trait 2 0.2 0 0 0 0 0 0 0 
trait 3 0.3 0 0 0 0 0 0 0 
node 1 3 1 1
node 2 3 1 1
node 3 2 1 1
node 4 1 1 1
node 5 2 1 1
node 6 3 1 1
node 7 2 1 3
node 8 1 0 2
node 19 1 0 0
node 36 2 0 0
gene 2 1 8 -0.927719 0 1 -0.927719 1
gene 1 2 8 2.09226 0 2 2.09226 1
gene 1 3 8 -3.39827 0 3 -3.39827 1
gene 2 4 8 -4.54144 0 4 -4.54144 1
gene 1 5 8 2.84328 0 5 2.84328 1
gene 3 6 8 3.93127 0 6 3.93127 1
gene 2 7 8 -1.31983 0 7 -1.31983 1
gene 1 2 19 5.76097 0 28 5.76097 1
gene 1 19 8 0.614633 0 29 0.614633 1
gene 1 7 19 -2.48989 0 32 -2.48989 1
gene 2 5 19 -0.11031 0 43 -0.11031 0
gene 1 6 19 2.53868 0 55 2.53868 1
gene 2 3 19 3.14745 0 63 3.14745 1
gene 2 5 36 -1.33925 0 78 -1.33925 1
gene 2 36 19 -4.41933 0 79 -4.41933 1
gene 3 4 36 0.511864 0 150 0 1
genomeend 104

/* Organism #105 Fitness: 37 Error: 0 */
genomestart 105
trait 1 0.1 0 0 0.0153675 0 0 0 0 
trait 2 0.15 0 0 0 0 0 0 0 
trait 3 0.3 0 0 0 0 0 0 0 
node 1 3 1 1
node 2 3 1 1
node 3 2 1 1
node 4 1 1 1
node 5 2 1 1
node 6 3 1 1
node 7 2 1 3
node 8 1 0 2
node 19 1 0 0
node 36 2 0 0
gene 2 1 8 0.353473 0 1 0.353473 1
gene 1 2 8 1.59977 0 2 1.59977 1
gene 1 3 8 -4.18889 0 3 -4.18889 1
gene 2 4 8 -7.04774 0 4 -7.04774 1
gene 1 5 8 1.64889 0 5 1.64889 1
gene 3 6 8 4.50745 0 6 4.50745 1
gene 2 7 8 -1.45158 0 7 -1.45158 1
gene 1 2 19 5.98708 0 28 5.98708 1
gene 1 19 8 -1.19827 0 29 -1.19827 1
gene 1 7 19 -2.24012 0 32 -2.24012 1
gene 2 5 19 0.52464 0 43 0.52464 0
gene 1 6 19 -2.33128 0 55 -2.33128 1
gene 2 3 19 1.49419 0 63 1.49419 1
gene 2 5 36 0.556554 0 78 0.556554 1
gene 2 36 19 -5.97547 0 79 -5.97547 1
gene 3 4 36 -0.206773 0 150 -0.206773 1
genomeend 105

/* Organism #106 Fitness: 56 Error: 0 */
genomestart 106
trait 1 0.1 0 0 0.0153675 0 0 0 0 
trait 2 0.1 0 0 0 0 0 0 0 
trait 3 0.3 0 0 0 0 0 0 0 
node 1 3 1 1
node 2 3 1 1
node 3 2 1 1
node 4 1 1 1
node 5 2 1 1
node 6 3 1 1
node 7 2 1 3
node 8 1 0 2
node 19 1 0 0
node 36 2 0 0
gene 2 1 8 -3.89976 0 1 -3.89976 1
gene 1 2 8 0.855613 0 2 0.855613 1
gene 1 3 8 -2.44283 0 3 -2.44283 1
gene 2 4 8 -4.98394 0 4 -4.98394 1
gene 1 5 8 4.02668 0 5 4.02668 1
gene 3 6 8 2.01815 0 6 2.01815 1
gene 2 7 8 -3.81771 0 7 -3.81771 1
gene 1 2 19 8 0 28 8 1
gene 1 19 8 1.41047 0 29 1.41047 1
gene 1 7 19 -0.843443 0 32 -0.843443 1
gene 2 5 19 0.266843 0 43 0.266843 0
gene 1 6 19 2.54821 0 55 2.54821 1
gene 2 3 19 3.27243 0 63 3.27243 1
gene 2 5 36 -4.0268 0 78 -4.0268 1
gene 2 36 19 -4.52949 0 79 -4.52949 1
gene 3 4 36 0.244181 0 150 0.244181 1
genomeend 106

/* Organism #107 Fitness: 107 Error: 0 */
genomestart 107
trait 1 0.1 0 0 0.0153675 0 0 0 0 
trait 2 0.2 0 0 0 0 0 0 0 
trait 3 0.3 0 0 0 0 0 0 0 
node 1 3 1 1
node 2 3 1 1
node 3 2 1 1
node 4 1 1 1
node 5 2 1 1
node 6 3 1 1
node 7 2 1 3
node 8 1 0 2
node 19 1 0 0
node 36 2 0 0
gene 2 1 8 -2.96524 0 1 -2.96524 1
gene 1 2 8 2.82173 0 2 2.82173 1
gene 1 3 8 -3.075 0 3 -3.075 1
gene 2 4 8 -4.06622 0 4 -4.06622 1
gene 1 5 8 3.3775 0 5 3.3775 1
gene 3 6 8 4.21933 0 6 4.21933 1
gene 2 7 8 -0.137551 0 7 -0.137551 1
gene 1 2 19 4.78839 0 28 4.78839 1
gene 1 19 8 0.136779 0 29 0.136779 1
gene 1 7 19 -0.164506 0 32 -0.164506 1
gene 2 5 19 -0.893606 0 43 -0.893606 0
gene 1 6 19 4.74509 0 55 4.74509 1
gene 2 3 19 0.660306 0 63 0.660306 1
gene 2 5 36 -1.06406 0 78 -1.06406 1
gene 2 36 19 -4.41933 0 79 -4.41933 1
gene 3 4 36 2.1454 0 150 2.1454 1
genomeend 107

/* Organism #108 Fitness: 34 Error: 0 */
genomestart 108
trait 1 0.1 0 0 0.0153675 0 0 0 0 
trait 2 0.1 0 0 0 0 0 0 0 
trait 3 0.3 0 0 0 0 0 0 0 
node 1 3 1 1
node 2 3 1 1
node 3 2 1 1
node 4 1 1 1
node 5 2 1 1
node 6 3 1 1
node 7 2 1 3
node 8 1 0 2
node 19 1 0 0
node 36 2 0 0
gene 2 1 8 1.41392 0 1 1.41392 1
gene 1 2 8 2.93275 0 2 2.93275 1
gene 1 3 8 -0.378545 0 3 -0.378545 1
gene 2 4 8 -2.33948 0 4 -2.33948 1
gene 1 5 8 2.67509 0 5 2.67509 1
gene 3 6 8 2.01815 0 6 2.01815 1
gene 2 7 8 -3.81771 0 7 -3.81771 1
gene 1 2 19 2.05186 0 28 2.05186 1
gene 1 19 8 -0.531485 0 29 -0.531485 1
gene 1 7 19 -0.681865 0 32 -0.681865 1
gene 2 5 19 -0.486276 0 43 -0.486276 0
gene 1 6 19 3.07899 0 55 3.07899 1
gene 2 3 19 2.72337 0 63 2.72337 1
gene 2 5 36 -4.09142 0 78 -4.09142 1
gene 2 36 19 -4.91249 0 79 -4.91249 1
gene 3 4 36 0.244181 0 150 0.244181 1
genomeend 108

/* Organism #109 Fitness: 28 Error: 0 */
genomestart 109
trait 1 0.1 0 0 0.0153675 0 0 0 0 
trait 2 0.15 0 0 0 0 0 0 0 
trait 3 0.3 0 0 0 0 0 0 0 
node 1 3 1 1
node 2 3 1 1
node 3 2 1 1
node 4 1 1 1
node 5 2 1 1
node 6 3 1 1
node 7 2 1 3
node 8 1 0 2
node 19 1 0 0
node 36 2 0 0
gene 2 1 8 -1.88848 0 1 -1.88848 1
gene 1 2 8 0.434205 0 2 0.434205 1
gene 1 3 8 -3.8374 0 3 -3.8374 1
gene 2 4 8 -3.41552 0 4 -3.41552 1
gene 1 5 8 -0.0658279 0 5 -0.0658279 1
gene 3 6 8 1.89475 0 6 1.89475 1
gene 2 7 8 -2.05626 0 7 -2.05626 1
gene 1 2 19 5.85937 0 28 5.85937 1
gene 1 19 8 0.506641 0 29 0.506641 1
gene 1 7 19 -1.26972 0 32 -1.26972 1
gene 2 5 19 0.0813123 0 43 0.0813123 0
gene 1 6 19 4.65625 0 55 4.65625 1
gene 2 3 19 -2.24839 0 63 -2.24839 1
gene 2 5 36 1.09042 0 78 1.09042 1
gene 2 36 19 -3.39256 0 79 -3.39256 1
gene 3 4 36 -1.21305 0 150 -1.21305 1
genomeend 109

/* Species #21 : (Size 18) (AF 98.9444) (Age 9)  */


/* Organism #110 Fitness: 342 Error: 0 */
genomestart 110
trait 1 0.084375 0 0 0.011463 0.0163967 0.0993312 0.118593 0 
trait 2 0.17986 0 0 0 0 0 0 0 
trait 3 0.3 0 0 0.049705 0.090594 0 0 0 
node 1 3 1 1
node 2 1 1 1
node 3 2 1 1
node 4 1 1 1
node 5 1 1 1
node 6 1 1 1
node 7 1 1 3
node 8 3 0 2
node 24 1 0 0
node 62 1 0 0
gene 1 1 8 -1.3249 0 1 -1.3249 0
gene 2 2 8 -0.942648 0 2 -0.942648 1
gene 3 3 8 -3.75953 0 3 -3.75953 1
gene 3 4 8 -3.40119 0 4 -3.40119 1
gene 3 5 8 2.28846 0 5 2.28846 1
gene 3 6 8 1.00047 0 6 1.00047 1
gene 2 7 8 -0.169114 0 7 -0.169114 1
gene 2 1 24 2.92596 0 39 2.92596 1
gene 2 24 8 -0.229031 0 40 -0.229031 0
gene 1 2 24 -1.04962 0 60 -1.04962 1
gene 2 5 24 -1.10914 0 92 -1.10914 1
gene 2 7 24 0.798591 0 123 0.798591 1
gene 3 6 24 -0.546607 0 136 -0.546607 1
gene 2 24 62 1.78205 0 168 1.78205 1
gene 2 62 8 -0.129735 0 169 -0.129735 1
genomeend 110

/* Organism #111 Fitness: 33 Error: 0 */
genomestart 111
trait 1 0.084375 0 0 0.011463 0.0163967 0.0993312 0.118593 0 
trait 2 0.17986 0 0 0 0 0 0 0 
trait 3 0.3 0 0 0.049705 0.090594 0 0 0 
node 1 3 1 1
node 2 1 1 1
node 3 2 1 1
node 4 1 1 1
node 5 1 1 1
node 6 1 1 1
node 7 1 1 3
node 8 3 0 2
node 24 1 0 0
node 62 1 0 0
gene 1 1 8 -3.66852 0 1 -3.66852 0
gene 2 2 8 -2.43964 0 2 -2.43964 1
gene 3 3 8 -3.51664 0 3 -3.51664 1
gene 3 4 8 -1.48243 0 4 -1.48243 1
gene 3 5 8 4.5861 0 5 4.5861 1
gene 3 6 8 3.48533 0 6 3.48533 1
gene 2 7 8 -2.33496 0 7 -2.33496 1
gene 2 1 24 1.01518 0 39 1.01518 1
gene 2 24 8 -0.306103 0 40 -0.306103 0
gene 1 2 24 -1.08608 0 60 -1.08608 1
gene 2 5 24 -3.03076 0 92 -3.03076 1
gene 2 7 24 -0.76734 0 123 -0.76734 1
gene 3 6 24 0.0210105 0 136 0.0210105 1
gene 2 24 62 1.22958 0 168 1.22958 1
gene 2 62 8 -1.97778 0 169 -1.97778 1
genomeend 111

/* Organism #112 Fitness: 9 Error: 0 */
genomestart 112
trait 1 0.084375 0 0 0.011463 0.0163967 0.0993312 0.118593 0 
trait 2 0.17986 0 0 0 0 0 0 0 
trait 3 0.3 0 0 0.049705 0.090594 0 0 0 
node 1 3 1 1
node 2 1 1 1
node 3 2 1 1
node 4 1 1 1
node 5 1 1 1
node 6 1 1 1
node 7 1 1 3
node 8 3 0 2
node 24 1 0 0
node 62 1 0 0
gene 1 1 8 -1.28303 0 1 -1.28303 0
gene 2 2 8 0.628244 0 2 0.628244 1
gene 3 3 8 -5.24882 0 3 -5.24882 1
gene 3 4 8 -1.90756 0 4 -1.90756 1
gene 3 5 8 -0.0224677 0 5 -0.0224677 1
gene 3 6 8 1.22175 0 6 1.22175 1
gene 2 7 8 -0.0607207 0 7 -0.0607207 1
gene 2 1 24 2.44676 0 39 2.44676 1
gene 2 24 8 -2.02345 0 40 -2.02345 1
gene 1 2 24 -1.99212 0 60 -1.99212 1
gene 2 5 24 1.28129 0 92 1.28129 1
gene 2 7 24 -0.955496 0 123 -0.955496 1
gene 3 6 24 0.423098 0 136 0.423098 1
gene 2 24 62 1.78205 0 168 1.78205 1
gene 2 62 8 0.190345 0 169 0.190345 1
genomeend 112

/* Organism #113 Fitness: 5 Error: 0 */
genomestart 113
trait 1 0.084375 0 0 0.011463 0.0163967 0.0993312 0.118593 0 
trait 2 0.17986 0 0 0 0 0 0 0 
trait 3 0.3 0 0 0.049705 0.090594 0 0 0 
node 1 3 1 1
node 2 1 1 1
node 3 2 1 1
node 4 1 1 1
node 5 1 1 1
node 6 1 1 1
node 7 1 1 3
node 8 3 0 2
node 24 1 0 0
node 62 1 0 0
gene 1 1 8 -2.43304 0 1 -2.43304 0
gene 2 2 8 -0.270598 0 2 -0.270598 1
gene 3 3 8 -1.28773 0 3 -1.28773 1
gene 3 4 8 -3.05527 0 4 -3.05527 1
gene 3 5 8 -1.83588 0 5 -1.83588 1
gene 3 6 8 -0.807538 0 6 -0.807538 1
gene 2 7 8 -1.68182 0 7 -1.68182 1
gene 2 1 24 3.61354 0 39 3.61354 1
gene 2 24 8 -1.05343 0 40 -1.05343 0
gene 1 2 24 -2.65925 0 60 -2.65925 1
gene 2 5 24 -1.25579 0 92 -1.25579 1
gene 2 7 24 0.0941608 0 123 0.0941608 1
gene 3 6 24 -0.546607 0 136 -0.546607 1
gene 2 24 62 -0.257679 0 168 -0.257679 1
gene 2 62 8 0.73706 0 169 0.73706 1
genomeend 113

/* Organism #114 Fitness: 29 Error: 0 */
genomestart 114
trait 1 0.084375 0 0 0.011463 0.0163967 0.0993312 0.118593 0 
trait 2 0.17986 0 0 0 0 0 0 0 
trait 3 0.3 0 0 0.049705 0.090594 0 0 0 
node 1 3 1 1
node 2 1 1 1
node 3 3 1 1
node 4 1 1 1
node 5 1 1 1
node 6 1 1 1
node 7 1 1 3
node 8 3 0 2
node 24 1 0 0
node 62 1 0 0
gene 1 1 8 1.11784 0 1 1.11784 0
gene 2 2 8 -3.09746 0 2 -3.09746 1
gene 3 3 8 -2.15629 0 3 -2.15629 1
gene 3 4 8 -1.19851 0 4 -1.19851 1
gene 3 5 8 1.59277 0 5 1.59277 1
gene 3 6 8 0.361756 0 6 0.361756 1
gene 2 7 8 -2.39609 0 7 -2.39609 1
gene 2 1 24 4.39544 0 39 4.39544 1
gene 2 24 8 0.0221681 0 40 0.0221681 0
gene 1 2 24 -0.64403 0 60 -0.64403 1
gene 2 5 24 -1.63707 0 92 -1.63707 1
gene 2 7 24 1.66867 0 123 1.66867 1
gene 3 6 24 -0.346543 0 136 -0.346543 1
gene 2 24 62 0.943268 0 168 0.943268 1
gene 2 62 8 2.26315 0 169 2.26315 1
genomeend 114

/* Organism #115 Fitness: 342 Error: 0 */
genomestart 115
trait 1 0.084375 0 0 0.011463 0.0163967 0.0993312 0.118593 0 
trait 2 0.17986 0 0 0 0 0 0 0 
trait 3 0.3 0 0 0.049705 0.090594 0 0 0 
node 1 3 1 1
node 2 1 1 1
node 3 2 1 1
node 4 1 1 1
node 5 1 1 1
node 6 1 1 1
node 7 1 1 3
node 8 3 0 2
node 24 1 0 0
node 62 1 0 0
gene 1 1 8 -1.3249 0 1 -1.3249 0
gene 2 2 8 -0.942648 0 2 -0.942648 1
gene 3 3 8 -3.75953 0 3 -3.75953 1
gene 3 4 8 -3.40119 0 4 -3.40119 1
gene 3 5 8 2.28846 0 5 2.28846 1
gene 3 6 8 1.00047 0 6 1.00047 1
gene 2 7 8 -0.169114 0 7 -0.169114 1
gene 2 1 24 2.92596 0 39 2.92596 1
gene 2 24 8 -0.229031 0 40 -0.229031 0
gene 1 2 24 -1.04962 0 60 -1.04962 1
gene 2 5 24 -1.10914 0 92 -1.10914 1
gene 2 7 24 0.798591 0 123 0.798591 1
gene 3 6 24 -0.546607 0 136 -0.546607 1
gene 2 24 62 1.78205 0 168 1.78205 1
gene 2 62 8 -0.129735 0 169 -0.129735 1
genomeend 115

/* Organism #116 Fitness: 341 Error: 0 */
genomestart 116
trait 1 0.084375 0 0 0.011463 0.0163967 0.0993312 0.118593 0 
trait 2 0.17986 0 0 0 0 0 0 0 
trait 3 0.3 0 0 0.049705 0.090594 0 0 0 
node 1 3 1 1
node 2 1 1 1
node 3 2 1 1
node 4 1 1 1
node 5 1 1 1
node 6 1 1 1
node 7 1 1 3
node 8 3 0 2
node 24 1 0 0
node 62 1 0 0
gene 1 1 8 -1.3249 0 1 -1.3249 0
gene 2 2 8 -0.942648 0 2 -0.942648 1
gene 3 3 8 -3.75953 0 3 -3.75953 1
gene 3 4 8 -3.40119 0 4 -3.40119 1
gene 3 5 8 2.28846 0 5 2.28846 1
gene 3 6 8 1.00047 0 6 1.00047 1
gene 2 7 8 -0.169114 0 7 -0.169114 1
gene 2 1 24 2.92596 0 39 2.92596 1
gene 2 24 8 -0.229031 0 40 -0.229031 0
gene 1 2 24 -1.04962 0 60 -1.04962 1
gene 2 5 24 -1.10914 0 92 -1.10914 1
gene 2 7 24 0.798591 0 123 0.798591 1
gene 3 6 24 -0.546607 0 136 -0.546607 1
gene 2 24 62 1.78205 0 168 1.78205 1
gene 2 62 8 -0.129735 0 169 -0.129735 1
gene 3 3 62 0.871093 0 287 0.871093 1
genomeend 116

/* Organism #117 Fitness: 25 Error: 0 */
genomestart 117
trait 1 0.084375 0 0 0.011463 0.0163967 0.0993312 0.118593 0 
trait 2 0.17986 0 0 0 0 0 0 0 
trait 3 0.3 0 0 0.049705 0.090594 0 0 0 
node 1 3 1 1
node 2 1 1 1
node 3 2 1 1
node 4 1 1 1
node 5 1 1 1
node 6 1 1 1
node 7 1 1 3
node 8 3 0 2
node 24 1 0 0
node 62 1 0 0
gene 1 1 8 -1.6264 0 1 -1.6264 0
gene 2 2 8 -0.119911 0 2 -0.119911 1
gene 3 3 8 -5.86359 0 3 -5.86359 1
gene 3 4 8 -5.87258 0 4 -5.87258 1
gene 3 5 8 0.560021 0 5 0.560021 1
gene 3 6 8 2.07841 0 6 2.07841 1
gene 2 7 8 0.465175 0 7 0.465175 1
gene 2 1 24 1.73191 0 39 1.73191 1
gene 2 24 8 1.88637 0 40 1.88637 0
gene 1 2 24 -1.30579 0 60 -1.30579 1
gene 2 5 24 -1.58101 0 92 -1.58101 1
gene 2 7 24 0.192389 0 123 0.192389 1
gene 3 6 24 -3.00167 0 136 -3.00167 1
gene 2 24 62 2.81504 0 168 2.81504 1
gene 2 62 8 -2.37595 0 169 -2.37595 1
genomeend 117

/* Organism #118 Fitness: 5 Error: 0 */
genomestart 118
trait 1 0.084375 0 0 0.011463 0.0163967 0.0993312 0.118593 0 
trait 2 0.17986 0 0 0 0 0 0 0 
trait 3 0.3 0 0 0.049705 0.090594 0 0 0 
node 1 3 1 1
node 2 1 1 1
node 3 2 1 1
node 4 1 1 1
node 5 1 1 1
node 6 1 1 1
node 7 1 1 3
node 8 3 0 2
node 24 1 0 0
node 62 1 0 0
gene 1 1 8 -3.25432 0 1 -3.25432 0
gene 2 2 8 -2.00656 0 2 -2.00656 1
gene 3 3 8 -2.07641 0 3 -2.07641 1
gene 3 4 8 -2.60603 0 4 -2.60603 1
gene 3 5 8 0.450615 0 5 0.450615 1
gene 3 6 8 0.468307 0 6 0.468307 1
gene 2 7 8 -1.46883 0 7 -1.46883 1
gene 2 1 24 4.53286 0 39 4.53286 1
gene 2 24 8 -0.212365 0 40 -0.212365 0
gene 1 2 24 -2.21839 0 60 -2.21839 1
gene 2 5 24 -2.3925 0 92 -2.3925 1
gene 2 7 24 0.635983 0 123 0.635983 1
gene 3 6 24 -1.63463 0 136 -1.63463 1
gene 2 24 62 0.161865 0 168 0.161865 1
