
/* Species #1 : (Size 18) (AF 78.4444) (Age 15)  */


/* Organism #0 Fitness: 320 Error: 0 */
genomestart 0
trait 1 0.1 0 0 0 0 0 0 0 
trait 2 0.2 0 0 0 0 0 0 0 
trait 3 0.3 0 0 0 0 0 0 0 
node 1 3 1 1
node 2 3 1 1
node 3 1 1 1
node 4 2 1 1
node 5 3 1 1
node 6 2 1 1
node 7 3 1 3
node 8 2 0 2
gene 1 1 8 0.106909 0 1 0.106909 1
gene 3 2 8 -0.271304 0 2 -0.271304 1
gene 1 3 8 -2.73612 0 3 -2.73612 1
gene 3 4 8 -2.04163 0 4 -2.04163 1
gene 2 5 8 1.58456 0 5 1.58456 1
gene 1 6 8 0.865191 0 6 0.865191 1
gene 1 7 8 -0.168206 0 7 -0.168206 1
genomeend 0

/* Organism #1 Fitness: 5 Error: 0 */
genomestart 1
trait 1 0.114924 0 0.00331008 0.0247328 0.000683196 0.00433266 0.00592967 0 
trait 2 0.199566 0 0 0 0 0 0 0 
trait 3 0.3 0 0 0.00207104 0.00377475 0 0 0 
node 1 3 1 1
node 2 2 1 1
node 3 1 1 1
node 4 2 1 1
node 5 3 1 1
node 6 2 1 1
node 7 3 1 3
node 8 2 0 2
gene 1 1 8 0.903553 0 1 0.903553 1
gene 3 2 8 0.97716 0 2 0.97716 1
gene 1 3 8 -2.52189 0 3 -2.52189 1
gene 3 4 8 -0.210461 0 4 -0.210461 1
gene 2 5 8 2.01237 0 5 2.01237 1
gene 1 6 8 -0.850696 0 6 -0.850696 1
gene 1 7 8 -2.40994 0 7 -2.40994 1
genomeend 1

/* Organism #2 Fitness: 22 Error: 0 */
genomestart 2
trait 1 0.156788 0 0.0140678 0.109986 0.00939395 0.0604464 0.0756032 0 
trait 2 0.19491 0 0 0 0 0 0 0 
trait 3 0.3 0 0 0.0284768 0.0519028 0 0 0 
node 1 3 1 1
node 2 3 1 1
node 3 2 1 1
node 4 1 1 1
node 5 2 1 1
node 6 3 1 1
node 7 3 1 3
node 8 1 0 2
node 53 1 0 0
gene 1 1 8 0.0931873 0 1 0.0931873 1
gene 3 2 8 0.779031 0 2 0.779031 1
gene 1 3 8 -4.37767 0 3 -4.37767 1
gene 2 4 8 -3.45575 0 4 -3.45575 1
gene 3 5 8 5.29531 0 5 5.29531 1
gene 3 6 8 1.36347 0 6 1.36347 0
gene 2 7 8 0.413337 0 7 0.413337 1
gene 3 6 53 1 0 131 0 1
gene 3 53 8 1.36347 0 132 0 1
genomeend 2

/* Organism #3 Fitness: 8 Error: 0 */
genomestart 3
trait 1 0.151791 0 0.0124128 0.0958109 0.00666117 0.0426796 0.0539229 0 
trait 2 0.196332 0 0 0 0 0 0 0 
trait 3 0.3 0 0 0.0201926 0.0368038 0 0 0 
node 1 3 1 1
node 2 3 1 1
node 3 1 1 1
node 4 2 1 1
node 5 3 1 1
node 6 2 1 1
node 7 3 1 3
node 8 2 0 2
gene 1 1 8 -0.315634 0 1 -0.315634 1
gene 3 2 8 -1.67102 0 2 -1.67102 1
gene 1 3 8 -4.7216 0 3 -4.7216 1
gene 3 4 8 -0.849056 0 4 -0.849056 1
gene 3 5 8 -1.9423 0 5 -1.9423 1
gene 3 6 8 1.32004 0 6 1.32004 1
gene 1 7 8 -2.37417 0 7 -2.37417 1
genomeend 3

/* Organism #4 Fitness: 192 Error: 0 */
genomestart 4
trait 1 0.145816 0 0.0111715 0.0868137 0.00674656 0.0434392 0.0545715 0 
trait 2 0.19631 0 0 0 0 0 0 0 
trait 3 0.3 0 0 0.0204515 0.0372756 0 0 0 
node 1 3 1 1
node 2 3 1 1
node 3 1 1 1
node 4 2 1 1
node 5 3 1 1
node 6 2 1 1
node 7 3 1 3
node 8 2 0 2
gene 1 1 8 -0.946578 0 1 -0.946578 1
gene 3 2 8 0.64528 0 2 0.64528 1
gene 1 3 8 -4.16775 0 3 -4.16775 1
gene 2 4 8 -2.11829 0 4 -2.11829 1
gene 3 5 8 3.11334 0 5 3.11334 1
gene 1 6 8 1.50216 0 6 1.50216 1
gene 2 7 8 -0.170667 0 7 -0.170667 1
genomeend 4

/* Organism #5 Fitness: 51 Error: 0 */
genomestart 5
trait 1 0.567835 0 0.596133 0.0868137 0.892448 0.0434392 0 0 
trait 2 0.19631 0 0 0 0 0 0 0 
trait 3 0.3 0 0 0.0204515 0.0372756 0 0 0 
node 1 3 1 1
node 2 3 1 1
node 3 2 1 1
node 4 1 1 1
node 5 2 1 1
node 6 3 1 1
node 7 3 1 3
node 8 1 0 2
gene 1 1 8 -1.49024 0 1 -1.49024 1
gene 3 2 8 2.9895 0 2 2.9895 1
gene 1 3 8 -2.122 0 3 -2.122 1
gene 3 4 8 -0.4431 0 4 -0.4431 1
gene 3 5 8 3.80254 0 5 3.80254 1
gene 3 6 8 1.34189 0 6 1.34189 1
gene 1 7 8 0.0561542 0 7 0.0561542 1
genomeend 5

/* Organism #6 Fitness: 35 Error: 0 */
genomestart 6
trait 1 0.151791 0 0.0124128 0.0958109 0.00666117 0.0426796 0.0539229 0 
trait 2 0.196332 0 0 0 0 0 0 0 
trait 3 0.3 0 0 0.0201926 0.0368038 0 0 0 
node 1 3 1 1
node 2 3 1 1
node 3 1 1 1
node 4 2 1 1
node 5 3 1 1
node 6 2 1 1
node 7 3 1 3
node 8 2 0 2
gene 1 1 8 -3.55321 0 1 -3.55321 1
gene 3 2 8 1.2037 0 2 1.2037 1
gene 2 3 8 -3.5344 0 3 -3.5344 1
gene 3 4 8 -3.33964 0 4 -3.33964 1
gene 3 5 8 2.70926 0 5 2.70926 1
gene 1 6 8 2.45103 0 6 2.45103 1
gene 1 7 8 -2.26169 0 7 -2.26169 1
genomeend 6

/* Organism #7 Fitness: 58 Error: 0 */
genomestart 7
trait 1 0.151791 0 0.0124128 0.0958109 0.00666117 0.0426796 0.0539229 0 
trait 2 0.196332 0 0 0 0 0 0 0 
trait 3 0.3 0 0 0.0201926 0.0368038 0 0 0 
node 1 3 1 1
node 2 3 1 1
node 3 1 1 1
node 4 2 1 1
node 5 2 1 1
node 6 2 1 1
node 7 3 1 3
node 8 2 0 2
gene 1 1 8 -3.19576 0 1 -3.19576 1
gene 3 2 8 0.880344 0 2 0.880344 1
gene 1 3 8 -3.58269 0 3 -3.58269 1
gene 3 4 8 0.288766 0 4 0.288766 1
gene 3 5 8 2.7571 0 5 2.7571 1
gene 1 6 8 1.73329 0 6 1.73329 1
gene 1 7 8 0.0519801 0 7 0.0519801 1
genomeend 7

/* Organism #8 Fitness: 28 Error: 0 */
genomestart 8
trait 1 0.151791 0 0.0124128 0.0958109 0.00666117 0.0426796 0.0539229 0 
trait 2 0.196332 0 0 0 0 0 0 0 
trait 3 0.3 0 0 0.0201926 0.0368038 0 0 0 
node 1 3 1 1
node 2 3 1 1
node 3 2 1 1
node 4 3 1 1
node 5 2 1 1
node 6 3 1 1
node 7 3 1 3
node 8 1 0 2
gene 1 1 8 0.868616 0 1 0.868616 1
gene 3 2 8 2.17648 0 2 2.17648 1
gene 1 3 8 -3.00125 0 3 -3.00125 1
gene 2 4 8 -0.768181 0 4 -0.768181 1
gene 3 5 8 -0.751517 0 5 -0.751517 1
gene 3 6 8 1.12805 0 6 1.12805 1
gene 1 7 8 0.0876609 0 7 0.0876609 1
genomeend 8

/* Organism #9 Fitness: 36 Error: 0 */
genomestart 9
trait 1 0.145816 0 0.0111715 0.0868137 0.00674656 0.0434392 0.0545715 0 
trait 2 0.19631 0 0 0 0 0 0 0 
trait 3 0.3 0 0 0.0204515 0.0372756 0 0 0 
node 1 3 1 1
node 2 3 1 1
node 3 2 1 1
node 4 1 1 1
node 5 2 1 1
node 6 3 1 1
node 7 3 1 3
node 8 1 0 2
gene 1 1 8 0.106475 0 1 0.106475 1
gene 3 2 8 -0.551565 0 2 -0.551565 1
gene 1 3 8 -6.16501 0 3 -6.16501 1
gene 2 4 8 -4.43102 0 4 -4.43102 1
gene 3 5 8 3.308 0 5 3.308 1
gene 3 6 8 2.85857 0 6 2.85857 1
gene 1 7 8 -0.93501 0 7 -0.93501 1
genomeend 9

/* Organism #10 Fitness: 189 Error: 0 */
genomestart 10
trait 1 0.139841 0 0.00993023 0.0778165 0.00683196 0.0441989 0.05522 0 
trait 2 0.196289 0 0 0 0 0 0 0 
trait 3 0.3 0 0 0.0207104 0.0377475 0 0 0 
node 1 3 1 1
node 2 3 1 1
node 3 2 1 1
node 4 1 1 1
node 5 2 1 1
node 6 3 1 1
node 7 3 1 3
node 8 1 0 2
gene 1 1 8 0.0931873 0 1 0.0931873 1
gene 3 2 8 0.779031 0 2 0.779031 1
gene 1 3 8 -4.37767 0 3 -4.37767 1
gene 2 4 8 -2.48538 0 4 -2.48538 1
gene 3 5 8 3.308 0 5 3.308 1
gene 3 6 8 1.90836 0 6 1.90836 1
gene 2 7 8 0.125992 0 7 0.125992 1
genomeend 10

/* Organism #11 Fitness: 125 Error: 0 */
genomestart 11
trait 1 0.145816 0 0.0111715 0.0868137 0.00674656 0.0434392 0.0545715 0 
trait 2 0.19631 0 0 0 0 0 0 0 
trait 3 0.3 0 0 0.0204515 0.0372756 0 0 0 
node 1 3 1 1
node 2 3 1 1
node 3 1 1 1
node 4 2 1 1
node 5 3 1 1
node 6 2 1 1
node 7 3 1 3
node 8 2 0 2
gene 1 1 8 0.181898 0 1 0.181898 1
gene 3 2 8 2.72171 0 2 2.72171 1
gene 1 3 8 -6.42526 0 3 -6.42526 1
gene 3 4 8 -0.44457 0 4 -0.44457 1
gene 3 5 8 3.40322 0 5 3.40322 1
gene 3 6 8 1.15389 0 6 1.15389 1
gene 2 7 8 -0.695362 0 7 -0.695362 1
genomeend 11

/* Organism #12 Fitness: 26 Error: 0 */
genomestart 12
trait 1 0.1 0 0 0 0 0 0 0 
trait 2 0.2 0 0 0 0 0 0 0 
trait 3 0.3 0 0 0 0 0 0 0 
node 1 3 1 1
node 2 3 1 1
node 3 1 1 1
node 4 2 1 1
node 5 3 1 1
node 6 2 1 1
node 7 3 1 3
node 8 2 0 2
node 54 1 0 0
gene 1 1 8 0.106909 0 1 0.106909 1
gene 3 2 8 -0.271304 0 2 -0.271304 1
gene 1 3 8 -2.73612 0 3 -2.73612 0
gene 3 4 8 -2.04163 0 4 -2.04163 1
gene 2 5 8 1.58456 0 5 1.58456 1
gene 1 6 8 0.865191 0 6 0.865191 1
gene 1 7 8 -0.168206 0 7 -0.168206 1
gene 1 3 54 1 0 133 0 1
gene 1 54 8 -2.73612 0 134 0 1
genomeend 12

/* Organism #13 Fitness: 5 Error: 0 */
genomestart 13
trait 1 0.114924 0 0.00331008 0.0247328 0.000683196 0.00433266 0.00592967 0 
trait 2 0.199566 0 0 0 0 0 0 0 
trait 3 0.3 0 0 0.00207104 0.00377475 0 0 0 
node 1 3 1 1
node 2 3 1 1
node 3 1 1 1
node 4 2 1 1
node 5 3 1 1
node 6 2 1 1
node 7 3 1 3
node 8 2 0 2
gene 1 1 8 -1.30184 0 1 -1.30184 1
gene 3 2 8 -2.7068 0 2 -2.7068 1
gene 1 3 8 -3.71877 0 3 -3.71877 1
gene 3 4 8 -1.55632 0 4 -1.55632 1
gene 2 5 8 -0.675118 0 5 -0.675118 1
gene 1 6 8 -0.0662485 0 6 -0.0662485 1
gene 1 7 8 -0.668703 0 7 -0.668703 1
genomeend 13

/* Organism #14 Fitness: 148 Error: 0 */
genomestart 14
trait 1 0.151791 0 0.0124128 0.0958109 0.00666117 0.0426796 0.0539229 0 
trait 2 0.196332 0 0 0 0 0 0 0 
trait 3 0.3 0 0 0.0201926 0.0368038 0 0 0 
node 1 3 1 1
node 2 3 1 1
node 3 2 1 1
node 4 1 1 1
node 5 2 1 1
node 6 3 1 1
node 7 3 1 3
node 8 1 0 2
gene 1 1 8 -2.57862 0 1 -2.57862 1
gene 3 2 8 0.37199 0 2 0.37199 1
gene 1 3 8 -3.53261 0 3 -3.53261 1
gene 3 4 8 -2.79176 0 4 -2.79176 1
gene 3 5 8 3.50003 0 5 3.50003 1
gene 1 6 8 1.12805 0 6 1.12805 1
gene 2 7 8 0.0876609 0 7 0.0876609 1
genomeend 14

/* Organism #15 Fitness: 5 Error: 0 */
genomestart 15
trait 1 0.151791 0 0.0124128 0.0958109 0.00666117 0.0426796 0.0539229 0 
trait 2 0.196332 0 0 0 0 0 0 0 
trait 3 0.3 0 0 0.0201926 0.0368038 0 0 0 
node 1 3 1 1
node 2 3 1 1
node 3 1 1 1
node 4 2 1 1
node 5 3 1 1
node 6 2 1 1
node 7 3 1 3
node 8 2 0 2
gene 1 1 8 0.203687 0 1 0.203687 1
gene 3 2 8 -0.552122 0 2 -0.552122 1
gene 3 3 8 -2.88501 0 3 -2.88501 1
gene 3 4 8 0.704553 0 4 0.704553 1
gene 3 5 8 2.75622 0 5 2.75622 1
gene 1 6 8 -1.17993 0 6 -1.17993 1
gene 1 7 8 -2.2056 0 7 -2.2056 1
genomeend 15

/* Organism #16 Fitness: 31 Error: 0 */
genomestart 16
trait 1 0.129849 0 0.00662015 0.0494656 0.00136639 0.00866531 0.0118593 0 
trait 2 0.199132 0 0 0 0 0 0 0 
trait 3 0.3 0 0 0.00414208 0.0075495 0 0 0 
node 1 3 1 1
node 2 3 1 1
node 3 1 1 1
node 4 2 1 1
node 5 3 1 1
node 6 2 1 1
node 7 3 1 3
node 8 2 0 2
gene 1 1 8 -2.11049 0 1 -2.11049 1
gene 3 2 8 -0.245445 0 2 -0.245445 1
gene 1 3 8 -0.135659 0 3 -0.135659 1
gene 3 4 8 -1.10978 0 4 -1.10978 1
gene 2 5 8 1.03998 0 5 1.03998 1
gene 1 6 8 1.99899 0 6 1.99899 1
gene 1 7 8 -2.36762 0 7 -2.36762 1
genomeend 16

/* Organism #17 Fitness: 128 Error: 0 */
genomestart 17
trait 1 0.151791 0 0.0124128 0.0958109 0.00666117 0.0426796 0.0539229 0 
trait 2 0.196332 0 0 0 0 0 0 0 
trait 3 0.3 0 0 0.0201926 0.0368038 0 0 0 
node 1 3 1 1
node 2 3 1 1
node 3 1 1 1
node 4 2 1 1
node 5 3 1 1
node 6 2 1 1
node 7 3 1 3
node 8 2 0 2
gene 1 1 8 -1.98634 0 1 -1.98634 1
gene 3 2 8 0.511528 0 2 0.511528 1
gene 1 3 8 -3.95783 0 3 -3.95783 1
gene 3 4 8 -1.7512 0 4 -1.7512 1
gene 3 5 8 2.91869 0 5 2.91869 1
gene 1 6 8 1.09595 0 6 1.09595 1
gene 1 7 8 -0.467326 0 7 -0.467326 1
genomeend 17

/* Species #2 : (Size 8) (AF 45.625) (Age 10)  */


/* Organism #18 Fitness: 155 Error: 0 */
genomestart 18
trait 1 0.1 0 0 0 0 0 0 0 
trait 2 0.2 0 0 0 0 0 0 0 
trait 3 0.3 0 0 0 0 0 0 0 
node 1 3 1 1
node 2 3 1 1
node 3 2 1 1
node 4 3 1 1
node 5 2 1 1
node 6 3 1 1
node 7 2 1 3
node 8 1 0 2
node 19 1 0 0
gene 2 1 8 -0.850823 0 1 -0.850823 1
gene 1 2 8 0.120067 0 2 0.120067 0
gene 1 3 8 -2.18163 0 3 -2.18163 1
gene 2 4 8 -1.78249 0 4 -1.78249 1
gene 1 5 8 1.42993 0 5 1.42993 1
gene 3 6 8 0.848007 0 6 0.848007 1
gene 2 7 8 -1.97351 0 7 -1.97351 1
gene 1 2 19 2.66006 0 28 2.66006 0
gene 1 19 8 0.879911 0 29 0.849894 1
gene 1 7 19 1.07076 0 32 1.07076 1
genomeend 18

/* Organism #19 Fitness: 46 Error: 0 */
genomestart 19
trait 1 0.1 0 0 0 0 0 0 0 
trait 2 0.110389 0 0 0 0 0 0 0 
trait 3 0.3 0 0 0 0 0 0 0 
node 1 3 1 1
node 2 3 1 1
node 3 2 1 1
node 4 1 1 1
node 5 2 1 1
node 6 3 1 1
node 7 2 1 3
node 8 1 0 2
node 19 1 0 0
gene 2 1 8 -2.339 0 1 -2.339 1
gene 1 2 8 0.407331 0 2 0.407331 0
gene 1 3 8 -1.29076 0 3 -1.29076 1
gene 2 4 8 -0.568287 0 4 -0.568287 1
gene 1 5 8 2.75142 0 5 2.75142 1
gene 3 6 8 1.19219 0 6 1.19219 1
gene 2 7 8 -1.45504 0 7 -1.45504 1
gene 1 2 19 2.66006 0 28 2.66006 1
gene 1 19 8 1.08552 0 29 1.08552 1
gene 1 7 19 -2.26011 0 32 -2.26011 1
gene 2 4 19 -0.586344 0 135 -0.586344 1
genomeend 19

/* Organism #20 Fitness: 20 Error: 0 */
genomestart 20
trait 1 0.1 0 0 0 0 0 0 0 
trait 2 0.0207772 0 0 0 0 0 0 0 
trait 3 0.3 0 0 0 0 0 0 0 
node 1 3 1 1
node 2 3 1 1
node 3 1 1 1
node 4 1 1 1
node 5 2 1 1
node 6 3 1 1
node 7 2 1 3
node 8 1 0 2
node 19 1 0 0
gene 2 1 8 -2.35689 0 1 -2.35689 1
gene 1 2 8 -0.551679 0 2 -0.551679 0
gene 1 3 8 -1.27866 0 3 -1.27866 1
gene 2 4 8 1.65352 0 4 1.65352 1
gene 1 5 8 -0.444573 0 5 -0.444573 1
gene 3 6 8 3.24551 0 6 3.24551 1
gene 2 7 8 -1.19107 0 7 -1.19107 1
gene 1 2 19 4.44558 0 28 4.44558 1
gene 1 19 8 0.680169 0 29 0.680169 1
gene 1 7 19 -1.0771 0 32 -1.0771 1
genomeend 20

/* Organism #21 Fitness: 45 Error: 0 */
genomestart 21
trait 1 0.1 0 0 0 0 0 0 0 
trait 2 0.2 0 0 0 0 0 0 0 
trait 3 0.3 0 0 0 0 0 0 0 
node 1 3 1 1
node 2 3 1 1
node 3 2 1 1
node 4 3 1 1
node 5 2 1 1
node 6 3 1 1
node 7 2 1 3
node 8 1 0 2
node 19 1 0 0
gene 2 1 8 0.498124 0 1 0.498124 1
gene 1 2 8 -3.98126 0 2 -3.98126 0
gene 1 3 8 -2.99473 0 3 -2.99473 1
gene 2 4 8 -1.15979 0 4 -1.15979 1
gene 1 5 8 5.40667 0 5 5.40667 1
gene 3 6 8 5.13585 0 6 5.13585 1
gene 2 7 8 -1.70262 0 7 -1.70262 1
gene 1 2 19 -0.134535 0 28 -0.134535 1
gene 1 19 8 -0.0462367 0 29 -0.0462367 1
gene 1 7 19 0.814594 0 32 0.814594 1
gene 1 5 19 -0.592649 0 97 -0.592649 1
genomeend 21

/* Organism #22 Fitness: 5 Error: 0 */
genomestart 22
trait 1 0.1 0 0 0 0 0 0 0 
trait 2 0.110389 0 0 0 0 0 0 0 
trait 3 0.3 0 0 0 0 0 0 0 
node 1 3 1 1
node 2 3 1 1
node 3 2 1 1
node 4 1 1 1
node 5 2 1 1
node 6 3 1 1
node 7 2 1 3
node 8 1 0 2
node 19 1 0 0
gene 2 1 8 -2.18414 0 1 -2.18414 1
gene 1 2 8 0.264982 0 2 0.264982 0
gene 1 3 8 -3.69802 0 3 -3.69802 1
gene 2 4 8 -3.23646 0 4 -3.23646 1
gene 1 5 8 2.76467 0 5 2.76467 1
gene 3 6 8 -0.120462 0 6 -0.120462 1
gene 2 7 8 -2.80863 0 7 -2.80863 1
gene 1 2 19 0.836179 0 28 0.836179 0
gene 1 19 8 2.90948 0 29 2.90948 1
gene 1 7 19 -1.129 0 32 -1.129 1
genomeend 22

/* Organism #23 Fitness: 5 Error: 0 */
genomestart 23
trait 1 0.1 0 0 0 0 0 0 0 
trait 2 0.2 0 0 0 0 0 0 0 
trait 3 0.3 0 0 0 0 0 0 0 
node 1 3 1 1
node 2 3 1 1
node 3 2 1 1
node 4 3 1 1
node 5 2 1 1
node 6 3 1 1
node 7 2 1 3
node 8 1 0 2
node 19 1 0 0
gene 2 1 8 -2.94498 0 1 -2.94498 1
gene 1 2 8 -0.0522099 0 2 -0.0522099 0
gene 1 3 8 -2.41759 0 3 -2.41759 1
gene 2 4 8 -2.94945 0 4 -2.94945 1
gene 1 5 8 5.10063 0 5 5.10063 1
gene 3 6 8 -1.66158 0 6 -1.66158 1
gene 2 7 8 -0.0495434 0 7 -0.0495434 1
gene 1 2 19 3.59685 0 28 3.59685 1
gene 1 19 8 0.672507 0 29 0.672507 1
gene 1 7 19 -1.01717 0 32 -1.01717 1
gene 1 5 19 -2.3499 0 97 -2.3499 1
genomeend 23

/* Organism #24 Fitness: 33 Error: 0 */
genomestart 24
trait 1 0.1 0 0 0 0 0 0 0 
trait 2 0.2 0 0 0 0 0 0 0 
trait 3 0.3 0 0 0 0 0 0 0 
node 1 3 1 1
node 2 3 1 1
node 3 2 1 1
node 4 3 1 1
node 5 2 1 1
node 6 3 1 1
node 7 2 1 3
node 8 1 0 2
node 19 1 0 0
gene 2 1 8 -0.245041 0 1 -0.245041 1
gene 1 2 8 0.821151 0 2 0.821151 0
gene 1 3 8 -1.29076 0 3 -1.29076 1
gene 2 4 8 0.471306 0 4 0.471306 1
gene 1 5 8 2.12337 0 5 2.12337 1
gene 3 6 8 1.66355 0 6 1.66355 1
gene 2 7 8 -2.89049 0 7 -2.89049 1
gene 1 2 19 0.243879 0 28 0.243879 0
gene 1 19 8 0.353923 0 29 0.353923 1
gene 1 7 19 1.07076 0 32 1.07076 1
genomeend 24

/* Organism #25 Fitness: 56 Error: 0 */
genomestart 25
trait 1 0.1 0 0 0 0 0 0 0 
trait 2 0.2 0 0 0 0 0 0 0 
trait 3 0.3 0 0 0 0 0 0 0 
node 1 3 1 1
node 2 3 1 1
node 3 2 1 1
node 4 3 1 1
node 5 2 1 1
node 6 3 1 1
node 7 2 1 3
node 8 1 0 2
node 19 1 0 0
gene 2 1 8 -2.339 0 1 -2.339 1
gene 1 2 8 0.407331 0 2 0.407331 0
gene 1 3 8 -1.29076 0 3 -1.29076 1
gene 2 4 8 -2.94945 0 4 -2.94945 1
gene 1 5 8 2.75142 0 5 2.75142 1
gene 3 6 8 1.19219 0 6 1.19219 1
gene 2 7 8 -1.45504 0 7 -1.45504 1
gene 1 2 19 1.82422 0 28 1.82422 1
gene 1 19 8 1.08166 0 29 1.08166 1
gene 1 7 19 -2.26011 0 32 -2.26011 1
gene 1 5 19 -0.229207 0 97 -0.229207 1
genomeend 25

/* Species #3 : (Size 10) (AF 44.6) (Age 10)  */


/* Organism #26 Fitness: 81 Error: 0 */
genomestart 26
trait 1 0.0875 0 0 0.00917042 0 0.0744408 0.0948746 0 
trait 2 0.2 0 0 0 0 0 0 0 
trait 3 0.3 0 0 0 0 0 0 0 
node 1 3 1 1
node 2 3 1 1
node 3 2 1 1
node 4 1 1 1
node 5 2 1 1
node 6 3 1 1
node 7 2 1 3
node 8 1 0 2
node 19 1 0 0
node 23 1 0 0
gene 2 1 8 -1.96431 0 1 -1.96431 1
gene 1 2 8 -0.814172 0 2 -0.814172 0
gene 1 3 8 0.922737 0 3 0.922737 0
gene 2 4 8 -0.647278 0 4 -0.647278 1
gene 1 5 8 5.53559 0 5 5.53559 1
gene 3 6 8 3.29015 0 6 3.29015 1
gene 2 7 8 2.26438 0 7 2.26438 1
gene 1 2 19 2.40379 0 28 2.40379 1
gene 1 19 8 -2.64389 0 29 -2.64389 1
gene 1 3 23 0.608307 0 37 0.608307 1
gene 1 23 8 -1.14314 0 38 -1.14314 1
genomeend 26

/* Organism #27 Fitness: 21 Error: 0 */
genomestart 27
trait 1 0.0875 0 0 0.00917042 0 0.0744408 0.0948746 0 
trait 2 0.2 0 0 0 0 0 0 0 
trait 3 0.3 0 0 0 0 0 0 0 
node 1 3 1 1
node 2 3 1 1
node 3 2 1 1
node 4 1 1 1
node 5 2 1 1
node 6 3 1 1
node 7 2 1 3
node 8 1 0 2
node 19 1 0 0
node 23 1 0 0
gene 2 1 8 -2.20545 0 1 -2.20545 1
gene 1 2 8 -0.68511 0 2 -0.68511 0
gene 1 3 8 -1.02521 0 3 -1.02521 0
gene 2 4 8 -0.461718 0 4 -0.461718 1
gene 1 5 8 -0.832445 0 5 -0.832445 1
gene 3 6 8 3.31478 0 6 3.31478 1
gene 2 7 8 1.064 0 7 1.064 1
gene 1 2 19 1.15112 0 28 1.15112 1
gene 1 19 8 -1.63137 0 29 -1.63137 1
gene 1 3 23 0.644524 0 37 0.644524 1
gene 1 23 8 1.32779 0 38 1.32779 1
genomeend 27

/* Organism #28 Fitness: 51 Error: 0 */
genomestart 28
trait 1 0.0875 0 0 0.00917042 0 0.0744408 0.0948746 0 
trait 2 0.2 0 0 0 0 0 0 0 
trait 3 0.3 0 0 0 0 0 0 0 
node 1 3 1 1
node 2 3 1 1
node 3 2 1 1
node 4 1 1 1
node 5 2 1 1
node 6 3 1 1
node 7 2 1 3
node 8 1 0 2
node 19 1 0 0
node 23 1 0 0
gene 2 1 8 -1.10011 0 1 -1.10011 1
gene 1 2 8 -0.170935 0 2 -0.170935 0
gene 1 3 8 -2.91024 0 3 -2.91024 0
gene 2 4 8 0.689202 0 4 0.689202 1
gene 1 5 8 4.19487 0 5 4.19487 1
gene 3 6 8 3.44497 0 6 3.44497 1
gene 2 7 8 -0.410134 0 7 -0.410134 1
gene 1 2 19 2.12683 0 28 2.12683 1
gene 1 19 8 0.572054 0 29 0.572054 1
gene 1 3 23 -2.23398 0 37 -2.23398 1
gene 1 23 8 -0.572681 0 38 -0.572681 1
genomeend 28

/* Organism #29 Fitness: 59 Error: 0 */
genomestart 29
trait 1 0.0875 0 0 0.00917042 0 0.0744408 0.0948746 0 
trait 2 0.2 0 0 0 0 0 0 0 
trait 3 0.3 0 0 0 0 0 0 0 
node 1 3 1 1
node 2 3 1 1
node 3 2 1 1
node 4 1 1 1
node 5 2 1 1
node 6 3 1 1
node 7 2 1 3
node 8 1 0 2
node 19 1 0 0
node 23 1 0 0
gene 2 1 8 -2.75868 0 1 -2.75868 1
gene 1 2 8 -2.48934 0 2 -2.48934 0
gene 1 3 8 0.453023 0 3 0.453023 0
gene 2 4 8 -0.36233 0 4 -0.36233 1
gene 1 5 8 6.48931 0 5 6.48931 1
gene 3 6 8 4.17895 0 6 4.17895 1
gene 2 7 8 3.28936 0 7 3.28936 1
gene 1 2 19 1.74482 0 28 1.74482 1
gene 1 19 8 -1.9768 0 29 -1.9768 1
gene 1 3 23 0.775569 0 37 0.775569 1
gene 1 23 8 -3.54363 0 38 -3.54363 1
genomeend 29

/* Organism #30 Fitness: 47 Error: 0 */
genomestart 30
trait 1 0.0875 0 0 0.00917042 0 0.0744408 0.0948746 0 
trait 2 0.2 0 0 0 0 0 0 0 
trait 3 0.3 0 0 0 0 0 0 0 
node 1 3 1 1
node 2 3 1 1
node 3 2 1 1
node 4 1 1 1
node 5 2 1 1
node 6 3 1 1
node 7 2 1 3
node 8 1 0 2
node 19 1 0 0
node 23 1 0 0
gene 2 1 8 -0.896448 0 1 -0.896448 1
gene 1 2 8 1.72079 0 2 1.72079 1
gene 1 3 8 -1.07633 0 3 -1.07633 0
gene 2 4 8 -2.2044 0 4 -2.2044 1
gene 1 5 8 5.87917 0 5 5.87917 1
gene 3 6 8 3.35409 0 6 3.35409 1
gene 2 7 8 3.55872 0 7 3.55872 1
gene 1 2 19 1.42163 0 28 1.42163 1
gene 1 19 8 -4.50807 0 29 -4.50807 1
gene 1 3 23 1.0805 0 37 1.0805 1
gene 1 23 8 -2.93784 0 38 -2.93784 1
genomeend 30

/* Organism #31 Fitness: 42 Error: 0 */
genomestart 31
trait 1 0.0875 0 0 0.00917042 0 0.0744408 0.0948746 0 
trait 2 0.2 0 0 0 0 0 0 0 
trait 3 0.3 0 0 0 0 0 0 0 
node 1 3 1 1
node 2 1 1 1
node 3 2 1 1
node 4 1 1 1
node 5 2 1 1
node 6 3 1 1
node 7 2 1 3
node 8 1 0 2
node 19 1 0 0
node 23 1 0 0
gene 2 1 8 -2.85911 0 1 -2.85911 1
gene 1 2 8 -2.05146 0 2 -2.05146 0
gene 1 3 8 0.737586 0 3 0.737586 0
gene 2 4 8 -2.56995 0 4 -2.56995 1
gene 1 5 8 5.74289 0 5 5.74289 1
gene 3 6 8 2.32237 0 6 2.32237 1
gene 2 7 8 0.96486 0 7 0.96486 1
gene 1 2 19 2.51077 0 28 2.51077 1
gene 1 19 8 -0.856647 0 29 -0.856647 1
gene 1 3 23 3.53073 0 37 3.53073 1
gene 1 23 8 -3.11406 0 38 -3.11406 1
genomeend 31

/* Organism #32 Fitness: 25 Error: 0 */
genomestart 32
trait 1 0.0875 0 0 0.00917042 0 0.0744408 0.0948746 0 
trait 2 0.2 0 0 0 0 0 0 0 
trait 3 0.3 0 0 0 0 0 0 0 
node 1 3 1 1
node 2 3 1 1
node 3 2 1 1
node 4 1 1 1
node 5 2 1 1
node 6 3 1 1
node 7 2 1 3
node 8 1 0 2
node 19 1 0 0
node 23 1 0 0
gene 2 1 8 0.414872 0 1 0.414872 1
gene 1 2 8 -0.737719 0 2 -0.737719 0
gene 1 3 8 1.75322 0 3 1.75322 0
gene 2 4 8 1.97546 0 4 1.97546 1
gene 1 5 8 5.36059 0 5 5.36059 1
gene 3 6 8 1.05999 0 6 1.05999 1
gene 2 7 8 5.65741 0 7 5.65741 1
gene 1 2 19 4.95673 0 28 4.95673 1
gene 1 19 8 -0.223353 0 29 -0.223353 1
gene 1 3 23 -0.291662 0 37 -0.291662 1
gene 1 23 8 -1.12361 0 38 -1.12361 1
genomeend 32

/* Organism #33 Fitness: 46 Error: 0 */
genomestart 33
trait 1 0.0875 0 0 0.00917042 0 0.0744408 0.0948746 0 
trait 2 0.2 0 0 0 0 0 0 0 
trait 3 0.3 0 0 0 0 0 0 0 
node 1 3 1 1
node 2 3 1 1
node 3 2 1 1
node 4 1 1 1
node 5 2 1 1
node 6 3 1 1
node 7 2 1 3
node 8 1 0 2
node 19 1 0 0
node 23 1 0 0
gene 2 1 8 -2.19618 0 1 -2.19618 1
gene 1 2 8 -0.122819 0 2 -0.122819 0
gene 1 3 8 -2.46554 0 3 -2.46554 0
gene 2 4 8 0.0434935 0 4 0.0434935 1
gene 1 5 8 4.42745 0 5 4.42745 1
gene 3 6 8 2.85093 0 6 2.85093 1
gene 2 7 8 0.179067 0 7 0.179067 1
gene 1 2 19 -0.244305 0 28 -0.244305 1
gene 1 19 8 0.937649 0 29 0.937649 1
gene 1 3 23 -1.13394 0 37 -1.13394 1
gene 1 23 8 -0.23421 0 38 -0.23421 1
genomeend 33

/* Organism #34 Fitness: 31 Error: 0 */
genomestart 34
trait 1 0.0875 0 0 0.00917042 0 0.0744408 0.0948746 0 
trait 2 0.2 0 0 0 0 0 0 0 
trait 3 0.3 0 0 0 0 0 0 0 
node 1 3 1 1
node 2 3 1 1
node 3 2 1 1
node 4 1 1 1
node 5 2 1 1
node 6 3 1 1
node 7 2 1 3
node 8 1 0 2
node 19 1 0 0
node 23 1 0 0
gene 2 1 8 -1.09966 0 1 -1.09966 1
gene 1 2 8 -1.30941 0 2 -1.30941 1
gene 1 3 8 0.404642 0 3 0.404642 0
gene 2 4 8 -2.9264 0 4 -2.9264 1
gene 1 5 8 5.07405 0 5 5.07405 1
gene 3 6 8 3.06138 0 6 3.06138 1
gene 2 7 8 0.72465 0 7 0.72465 1
gene 1 2 19 0.211223 0 28 0.211223 1
gene 1 19 8 0.274551 0 29 0.274551 1
gene 1 3 23 -1.36041 0 37 -1.36041 1
gene 1 23 8 0.876219 0 38 0.876219 1
genomeend 34

/* Organism #35 Fitness: 43 Error: 0 */
genomestart 35
trait 1 0.0875 0 0 0.00917042 0 0.0744408 0.0948746 0 
trait 2 0.2 0 0 0 0 0 0 0 
trait 3 0.3 0 0 0 0 0 0 0 
node 1 3 1 1
node 2 3 1 1
node 3 2 1 1
node 4 1 1 1
node 5 2 1 1
node 6 3 1 1
node 7 2 1 3
node 8 1 0 2
node 19 1 0 0
node 23 1 0 0
gene 2 1 8 -3.13001 0 1 -3.13001 1
gene 1 2 8 1.47512 0 2 1.47512 0
gene 1 3 8 -0.960154 0 3 -0.960154 0
gene 2 4 8 -2.69983 0 4 -2.69983 1
gene 1 5 8 3.9284 0 5 3.9284 1
gene 3 6 8 1.61799 0 6 1.61799 1
gene 2 7 8 1.12457 0 7 1.12457 1
gene 1 2 19 2.12647 0 28 2.12647 1
gene 1 19 8 -4.19515 0 29 -4.19515 1
gene 1 3 23 -0.0548472 0 37 -0.0548472 1
gene 1 23 8 -0.00767053 0 38 -0.00767053 1
genomeend 35

/* Species #5 : (Size 7) (AF 55.7143) (Age 7)  */


/* Organism #36 Fitness: 136 Error: 0 */
genomestart 36
trait 1 0.084375 0 0 0.011463 0.0163967 0.0993312 0.118593 0 
trait 2 0.17986 0 0 0 0 0 0 0 
trait 3 0.3 0 0 0.049705 0.090594 0 0 0 
node 1 3 1 1
node 2 1 1 1
node 3 2 1 1
node 4 1 1 1
node 5 1 1 1
node 6 1 1 1
node 7 1 1 3
node 8 3 0 2
node 24 1 0 0
gene 1 1 8 -2.24292 0 1 -2.24292 0
gene 2 2 8 1.83221 0 2 1.83221 1
gene 3 3 8 -3.75953 0 3 -3.75953 1
gene 3 4 8 -0.34712 0 4 -0.34712 1
gene 3 5 8 4.30222 0 5 4.30222 1
gene 3 6 8 1.2177 0 6 1.2177 1
gene 2 7 8 -0.169114 0 7 -0.169114 1
gene 2 1 24 1.41675 0 39 0.66675 1
gene 2 24 8 -0.601703 0 40 -0.000998112 1
gene 1 2 24 -0.97044 0 60 -0.97044 1
gene 2 5 24 -0.917591 0 92 -0.917591 1
gene 3 4 24 0.715967 0 110 0 1
genomeend 36

/* Organism #37 Fitness: 65 Error: 0 */
genomestart 37
trait 1 0.084375 0 0 0.011463 0.0163967 0.0993312 0.118593 0 
trait 2 0.17986 0 0 0 0 0 0 0 
trait 3 0.3 0 0 0.049705 0.090594 0 0 0 
node 1 3 1 1
node 2 1 1 1
node 3 2 1 1
node 4 1 1 1
node 5 3 1 1
node 6 1 1 1
node 7 1 1 3
node 8 3 0 2
node 24 1 0 0
gene 1 1 8 -2.05922 0 1 -2.05922 0
gene 2 2 8 1.76013 0 2 1.76013 1
gene 3 3 8 -3.88064 0 3 -3.88064 1
gene 3 4 8 -0.983199 0 4 -0.983199 1
gene 3 5 8 3.98503 0 5 3.98503 1
gene 3 6 8 1.27666 0 6 1.27666 1
gene 2 7 8 -1.30512 0 7 -1.30512 1
gene 2 1 24 0.668556 0 39 0.293556 1
gene 2 24 8 -0.0964359 0 40 0.203916 1
gene 1 2 24 0.136276 0 60 0.136276 1
gene 2 5 24 -0.917591 0 92 -0.917591 1
gene 3 4 24 0.715967 0 110 0 1
genomeend 37

/* Organism #38 Fitness: 90 Error: 0 */
genomestart 38
trait 1 0.084375 0 0 0.011463 0.0163967 0.0993312 0.118593 0 
trait 2 0.17986 0 0 0 0 0 0 0 
trait 3 0.3 0 0 0.049705 0.090594 0 0 0 
node 1 3 1 1
node 2 1 1 1
node 3 2 1 1
node 4 1 1 1
node 5 1 1 1
node 6 1 1 1
node 7 1 1 3
node 8 3 0 2
node 24 1 0 0
gene 1 1 8 -0.133927 0 1 -0.133927 1
gene 2 2 8 3.49926 0 2 3.49926 1
gene 3 3 8 -3.62417 0 3 -3.62417 1
gene 3 4 8 -2.09181 0 4 -2.09181 1
gene 3 5 8 5.92179 0 5 5.92179 1
gene 3 6 8 1.75435 0 6 1.75435 1
gene 2 7 8 -1.38409 0 7 -1.38409 1
gene 2 1 24 1.03544 0 39 1.03544 1
gene 2 24 8 -2.0145 0 40 -2.0145 1
gene 1 2 24 -3.30158 0 60 -3.30158 1
gene 2 5 24 1.54891 0 92 1.54891 1
gene 2 7 24 -1.23418 0 123 -1.23418 1
genomeend 38

/* Organism #39 Fitness: 56 Error: 0 */
genomestart 39
trait 1 0.084375 0 0 0.011463 0.0163967 0.0993312 0.118593 0 
trait 2 0.17986 0 0 0 0 0 0 0 
trait 3 0.3 0 0 0.049705 0.090594 0 0 0 
node 1 3 1 1
node 2 1 1 1
node 3 2 1 1
node 4 1 1 1
node 5 1 1 1
node 6 1 1 1
node 7 1 1 3
node 8 3 0 2
node 24 1 0 0
gene 1 1 8 -2.24292 0 1 -2.24292 0
gene 2 2 8 4.15427 0 2 4.15427 1
gene 3 3 8 -3.75953 0 3 -3.75953 1
gene 3 4 8 1.05364 0 4 1.05364 1
gene 3 5 8 5.63963 0 5 5.63963 1
gene 3 6 8 1.14748 0 6 1.14748 1
gene 2 7 8 1.88257 0 7 1.88257 1
gene 2 1 24 -0.451938 0 39 -0.451938 1
gene 2 24 8 -2.86724 0 40 -2.86724 1
gene 1 2 24 -0.741914 0 60 -0.741914 1
gene 2 5 24 -0.290246 0 92 -0.290246 1
gene 3 4 24 1.13413 0 110 1.13413 1
genomeend 39

/* Organism #40 Fitness: 5 Error: 0 */
genomestart 40
trait 1 0.084375 0 0 0.011463 0.0163967 0.0993312 0.118593 0 
trait 2 0.17986 0 0 0 0 0 0 0 
trait 3 0.3 0 0 0.049705 0.090594 0 0 0 
node 1 3 1 1
node 2 1 1 1
node 3 2 1 1
node 4 1 1 1
node 5 1 1 1
node 6 1 1 1
node 7 1 1 3
node 8 3 0 2
node 24 1 0 0
gene 1 1 8 -2.34642 0 1 -2.34642 0
gene 2 2 8 3.24282 0 2 3.24282 1
gene 3 3 8 -1.69163 0 3 -1.69163 1
gene 3 4 8 1.27881 0 4 1.27881 1
gene 3 5 8 -0.0213841 0 5 -0.0213841 1
gene 3 6 8 -0.728699 0 6 -0.728699 1
gene 2 7 8 -1.32805 0 7 -1.32805 1
gene 2 1 24 -0.705487 0 39 -0.705487 1
gene 2 24 8 -0.952784 0 40 -0.952784 1
gene 1 2 24 2.55144 0 60 2.55144 1
gene 2 5 24 -1.31076 0 92 -1.31076 1
gene 3 4 24 2.39605 0 110 2.39605 1
genomeend 40

/* Organism #41 Fitness: 5 Error: 0 */
genomestart 41
trait 1 0.084375 0 0 0.011463 0.0163967 0.0993312 0.118593 0 
trait 2 0.17986 0 0 0 0 0 0 0 
trait 3 0.3 0 0 0.049705 0.090594 0 0 0 
node 1 3 1 1
node 2 1 1 1
node 3 2 1 1
node 4 1 1 1
node 5 1 1 1
node 6 1 1 1
node 7 1 1 3
node 8 3 0 2
node 24 1 0 0
gene 1 1 8 -4.72765 0 1 -4.72765 0
gene 2 2 8 3.98055 0 2 3.98055 1
gene 3 3 8 -3.63163 0 3 -3.63163 1
gene 3 4 8 1.80748 0 4 1.80748 1
gene 3 5 8 2.70512 0 5 2.70512 1
gene 3 6 8 -0.66106 0 6 -0.66106 1
gene 2 7 8 2.10323 0 7 2.10323 1
gene 2 1 24 -0.903808 0 39 -0.903808 1
gene 2 24 8 1.25469 0 40 1.25469 1
gene 1 2 24 -2.55392 0 60 -2.55392 1
gene 2 5 24 -0.917591 0 92 -0.917591 1
gene 3 4 24 1.88587 0 110 1.88587 1
genomeend 41

/* Organism #42 Fitness: 33 Error: 0 */
genomestart 42
trait 1 0.084375 0 0 0.011463 0.0163967 0.0993312 0.118593 0 
trait 2 0.17986 0 0 0 0 0 0 0 
trait 3 0.3 0 0 0.049705 0.090594 0 0 0 
node 1 3 1 1
node 2 1 1 1
node 3 2 1 1
node 4 1 1 1
node 5 1 1 1
node 6 1 1 1
node 7 1 1 3
node 8 3 0 2
node 24 1 0 0
gene 1 1 8 -1.32527 0 1 -1.32527 0
gene 2 2 8 3.8766 0 2 3.8766 1
gene 3 3 8 -4.99624 0 3 -4.99624 1
gene 3 4 8 -0.800849 0 4 -0.800849 1
gene 3 5 8 6.65938 0 5 6.65938 1
gene 3 6 8 0.782223 0 6 0.782223 1
gene 2 7 8 -0.048123 0 7 -0.048123 1
gene 2 1 24 0.528714 0 39 0.528714 1
gene 2 24 8 -1.67525 0 40 -1.67525 1
gene 1 2 24 -1.15279 0 60 -1.15279 1
gene 2 5 24 -3.22936 0 92 -3.22936 1
gene 3 4 24 2.98233 0 110 2.98233 1
genomeend 42

/* Species #6 : (Size 12) (AF 70.1667) (Age 7)  */


/* Organism #43 Fitness: 134 Error: 0 */
genomestart 43
trait 1 0.1 0 0 0.0128062 0 0 0 0 
trait 2 0.2 0 0 0 0 0 0 0 
trait 3 0.3 0 0 0 0 0 0 0 
node 1 3 1 1
node 2 3 1 1
node 3 2 1 1
node 4 1 1 1
node 5 2 1 1
node 6 3 1 1
node 7 2 1 3
node 8 1 0 2
node 19 1 0 0
node 36 1 0 0
node 51 1 0 0
gene 2 1 8 -0.424523 0 1 -0.424523 1
gene 1 2 8 3.00213 0 2 3.00213 0
gene 1 3 8 -1.25377 0 3 -1.25377 1
gene 2 4 8 -4.468 0 4 -4.468 1
gene 1 5 8 1.97892 0 5 1.97892 1
gene 3 6 8 1.88946 0 6 1.88946 1
gene 2 7 8 -0.893596 0 7 -0.893596 1
gene 1 2 19 2.90232 0 28 2.90232 1
gene 1 19 8 0.374197 0 29 0.374197 1
gene 1 7 19 0.536421 0 32 0.536421 1
gene 2 5 19 2.52338 0 43 2.52338 0
gene 1 6 19 1.93683 0 55 1.93683 1
gene 2 3 19 0.779385 0 63 0.779385 0
gene 2 5 36 1.31503 0 78 1.31503 1
gene 2 36 19 -1.67879 0 79 -1.67879 1
gene 2 3 51 1 0 125 0 1
gene 2 51 19 0.779385 0 126 0 1
genomeend 43

/* Organism #44 Fitness: 30 Error: 0 */
genomestart 44
trait 1 0.1 0 0 0.0140868 0 0 0 0 
trait 2 0.2 0 0 0 0 0 0 0 
trait 3 0.3 0 0 0 0 0 0 0 
node 1 3 1 1
node 2 3 1 1
node 3 2 1 1
node 4 1 1 1
node 5 2 1 1
node 6 3 1 1
node 7 2 1 3
node 8 1 0 2
node 19 1 0 0
node 36 1 0 0
node 51 1 0 0
gene 2 1 8 -2.07197 0 1 -2.07197 1
gene 1 2 8 5.43213 0 2 5.43213 0
gene 1 3 8 -1.73021 0 3 -1.73021 1
gene 2 4 8 -0.777619 0 4 -0.777619 1
gene 1 5 8 0.117621 0 5 0.117621 1
gene 3 6 8 0.621756 0 6 0.621756 1
gene 2 7 8 -1.79881 0 7 -1.79881 1
gene 1 2 19 6.05221 0 28 6.05221 1
gene 1 19 8 0.752237 0 29 0.752237 1
gene 1 7 19 1.9627 0 32 1.9627 1
gene 2 5 19 2.48324 0 43 2.48324 0
gene 1 6 19 0.835464 0 55 0.835464 1
gene 2 3 19 3.03879 0 63 3.03879 0
gene 2 5 36 -1.04942 0 78 -1.04942 1
gene 2 36 19 1.5375 0 79 1.5375 1
gene 2 3 51 1.66658 0 125 1.66658 1
gene 2 51 19 -0.0458507 0 126 -0.0458507 1
genomeend 44

/* Organism #45 Fitness: 119 Error: 0 */
genomestart 45
trait 1 0.1 0 0 0.0140868 0 0 0 0 
trait 2 0.2 0 0 0 0 0 0 0 
trait 3 0.3 0 0 0 0 0 0 0 
node 1 3 1 1
node 2 3 1 1
node 3 2 1 1
node 4 1 1 1
node 5 2 1 1
node 6 3 1 1
node 7 2 1 3
node 8 1 0 2
node 19 1 0 0
node 36 1 0 0
node 51 1 0 0
gene 2 1 8 -0.424523 0 1 -0.424523 1
gene 1 2 8 2.09226 0 2 2.09226 0
gene 1 3 8 -1.25377 0 3 -1.25377 1
gene 2 4 8 -4.468 0 4 -4.468 1
gene 1 5 8 1.97892 0 5 1.97892 1
gene 3 6 8 1.90191 0 6 1.90191 1
gene 2 7 8 -0.86326 0 7 -0.86326 1
gene 1 2 19 2.90232 0 28 2.90232 1
gene 1 19 8 0.374197 0 29 0.374197 1
gene 1 7 19 -0.420868 0 32 -0.420868 1
gene 2 5 19 1.5284 0 43 1.5284 0
gene 1 6 19 0.672066 0 55 0.672066 1
gene 2 3 19 0.779385 0 63 0.779385 0
gene 2 5 36 1.31503 0 78 1.31503 1
gene 2 36 19 -1.67879 0 79 -1.67879 1
gene 2 3 51 1 0 125 0 1
gene 2 51 19 0.779385 0 126 0 1
genomeend 45

/* Organism #46 Fitness: 77 Error: 0 */
genomestart 46
trait 1 0.1 0 0 0.0153675 0 0 0 0 
trait 2 0.2 0 0 0 0 0 0 0 
trait 3 0.3 0 0 0 0 0 0 0 
node 1 3 1 1
node 2 3 1 1
node 3 2 1 1
node 4 1 1 1
node 5 2 1 1
node 6 3 1 1
node 7 2 1 3
node 8 1 0 2
node 19 1 0 0
node 36 2 0 0
gene 2 1 8 -0.611812 0 1 -0.611812 1
gene 1 2 8 4.09091 0 2 4.09091 1
gene 1 3 8 -3.53886 0 3 -3.53886 1
gene 2 4 8 -5.36561 0 4 -5.36561 1
gene 1 5 8 2.10297 0 5 2.10297 1
gene 3 6 8 3.8965 0 6 3.8965 1
gene 2 7 8 -2.10535 0 7 -2.10535 1
gene 1 2 19 3.40049 0 28 3.40049 1
gene 1 19 8 2.01452 0 29 2.01452 1
gene 1 7 19 -2.26598 0 32 -2.26598 1
gene 2 5 19 2.50893 0 43 2.50893 0
gene 1 6 19 -0.236692 0 55 -0.236692 1
gene 2 3 19 0.0353145 0 63 0.0353145 1
gene 2 5 36 0.105697 0 78 0.105697 1
gene 2 36 19 -2.81489 0 79 -2.81489 0
genomeend 46

/* Organism #47 Fitness: 8 Error: 0 */
genomestart 47
trait 1 0.1 0 0 0.0128062 0 0 0 0 
trait 2 0.2 0 0 0 0 0 0 0 
trait 3 0.3 0 0 0 0 0 0 0 
node 1 3 1 1
node 2 3 1 1
node 3 2 1 1
node 4 1 1 1
node 5 2 1 1
node 6 3 1 1
node 7 2 1 3
node 8 1 0 2
node 19 1 0 0
node 36 1 0 0
node 51 1 0 0
gene 2 1 8 -0.424523 0 1 -0.424523 1
gene 1 2 8 3.00213 0 2 3.00213 0
gene 1 3 8 -1.25377 0 3 -1.25377 1
gene 2 4 8 -4.468 0 4 -4.468 1
gene 1 5 8 0.803003 0 5 0.803003 1
gene 3 6 8 1.88946 0 6 1.88946 1
gene 2 7 8 -2.63166 0 7 -2.63166 1
gene 1 2 19 0.946221 0 28 0.946221 1
gene 1 19 8 -1.87973 0 29 -1.87973 1
gene 1 7 19 0.484553 0 32 0.484553 1
gene 2 5 19 4.62113 0 43 4.62113 0
gene 1 6 19 4.1631 0 55 4.1631 1
gene 2 3 19 -1.5335 0 63 -1.5335 0
gene 2 5 36 3.40375 0 78 3.40375 1
gene 2 36 19 -1.67879 0 79 -1.67879 1
gene 2 3 51 1 0 125 1 1
gene 2 51 19 -1.21015 0 126 -1.21015 1
genomeend 47

/* Organism #48 Fitness: 76 Error: 0 */
genomestart 48
trait 1 0.1 0 0 0.0140868 0 0 0 0 
trait 2 0.2 0 0 0 0 0 0 0 
trait 3 0.3 0 0 0 0 0 0 0 
node 1 3 1 1
node 2 3 1 1
node 3 2 1 1
node 4 1 1 1
node 5 2 1 1
node 6 3 1 1
node 7 2 1 3
node 8 1 0 2
node 19 1 0 0
node 36 1 0 0
node 51 1 0 0
gene 2 1 8 -0.424523 0 1 -0.424523 1
gene 1 2 8 2.09226 0 2 2.09226 0
gene 1 3 8 -1.53762 0 3 -1.53762 1
gene 2 4 8 -2.96682 0 4 -2.96682 1
gene 1 5 8 1.97892 0 5 1.97892 1
gene 3 6 8 1.88946 0 6 1.88946 1
gene 2 7 8 -0.86326 0 7 -0.86326 1
gene 1 2 19 3.7086 0 28 3.7086 1
gene 1 19 8 0.374197 0 29 0.374197 1
gene 1 7 19 -0.420868 0 32 -0.420868 1
gene 2 5 19 2.52338 0 43 2.52338 0
gene 1 6 19 1.93683 0 55 1.93683 1
gene 2 3 19 1.33919 0 63 1.33919 1
gene 2 5 36 1.57775 0 78 1.57775 1
gene 2 36 19 -1.67879 0 79 -1.67879 1
gene 2 3 51 1 0 125 0 1
gene 2 51 19 0.779385 0 126 0 1
genomeend 48

/* Organism #49 Fitness: 97 Error: 0 */
genomestart 49
trait 1 0.1 0 0 0.0140868 0 0 0 0 
trait 2 0.2 0 0 0 0 0 0 0 
trait 3 0.3 0 0 0 0 0 0 0 
node 1 3 1 1
node 2 3 1 1
node 3 2 1 1
node 4 1 1 1
node 5 2 1 1
node 6 3 1 1
node 7 2 1 3
node 8 1 0 2
node 19 1 0 0
node 36 1 0 0
node 51 1 0 0
gene 2 1 8 -0.424523 0 1 -0.424523 1
gene 1 2 8 2.09226 0 2 2.09226 1
gene 1 3 8 -3.39827 0 3 -3.39827 1
gene 2 4 8 -4.54144 0 4 -4.54144 1
gene 1 5 8 2.84328 0 5 2.84328 1
gene 3 6 8 1.88946 0 6 1.88946 1
gene 2 7 8 -1.31983 0 7 -1.31983 1
gene 1 2 19 2.90232 0 28 2.90232 1
gene 1 19 8 0.614633 0 29 0.614633 1
gene 1 7 19 -2.48989 0 32 -2.48989 1
gene 2 5 19 2.52338 0 43 2.52338 0
gene 1 6 19 2.53868 0 55 2.53868 1
gene 2 3 19 3.14745 0 63 3.14745 1
gene 2 5 36 1.31503 0 78 1.31503 1
gene 2 36 19 -4.41933 0 79 -4.41933 1
gene 2 3 51 1 0 125 0 1
gene 2 51 19 0.779385 0 126 0 1
gene 2 51 8 0.903675 0 137 0.903675 1
genomeend 49

/* Organism #50 Fitness: 110 Error: 0 */
genomestart 50
trait 1 0.1 0 0 0.0153675 0 0 0 0 
trait 2 0.2 0 0 0 0 0 0 0 
trait 3 0.3 0 0 0 0 0 0 0 
node 1 3 1 1
node 2 3 1 1
node 3 2 1 1
node 4 1 1 1
node 5 2 1 1
node 6 3 1 1
node 7 2 1 3
node 8 1 0 2
node 19 1 0 0
node 36 2 0 0
gene 2 1 8 -0.927719 0 1 -0.927719 1
gene 1 2 8 2.09226 0 2 2.09226 1
gene 1 3 8 -3.39827 0 3 -3.39827 1
gene 2 4 8 -4.54144 0 4 -4.54144 1
gene 1 5 8 2.84328 0 5 2.84328 1
gene 3 6 8 3.93127 0 6 3.93127 1
gene 2 7 8 -1.31983 0 7 -1.31983 1
gene 1 2 19 5.76097 0 28 5.76097 1
gene 1 19 8 0.614633 0 29 0.614633 1
gene 1 7 19 -2.48989 0 32 -2.48989 1
gene 2 5 19 -0.11031 0 43 -0.11031 0
gene 1 6 19 2.53868 0 55 2.53868 1
gene 2 3 19 3.14745 0 63 3.14745 1
gene 2 5 36 -1.33925 0 78 -1.33925 1
gene 2 36 19 -4.41933 0 79 -4.41933 1
genomeend 50

/* Organism #51 Fitness: 88 Error: 0 */
genomestart 51
trait 1 0.1 0 0 0.0140868 0 0 0 0 
trait 2 0.2 0 0 0 0 0 0 0 
trait 3 0.3 0 0 0 0 0 0 0 
node 1 3 1 1
node 2 3 1 1
node 3 2 1 1
node 4 1 1 1
node 5 2 1 1
node 6 3 1 1
node 7 2 1 3
node 8 1 0 2
node 19 1 0 0
node 36 2 0 0
node 51 1 0 0
gene 2 1 8 1.62818 0 1 1.62818 1
gene 1 2 8 2.27019 0 2 2.27019 0
gene 1 3 8 -1.8842 0 3 -1.8842 1
gene 2 4 8 -4.24846 0 4 -4.24846 1
gene 1 5 8 1.80181 0 5 1.80181 1
gene 3 6 8 2.78537 0 6 2.78537 1
gene 2 7 8 -0.0643852 0 7 -0.0643852 1
gene 1 2 19 -0.49597 0 28 -0.49597 1
gene 1 19 8 -1.6766 0 29 -1.6766 1
gene 1 7 19 -0.943296 0 32 -0.943296 1
gene 2 5 19 -0.430922 0 43 -0.430922 0
gene 1 6 19 1.79228 0 55 1.79228 1
gene 2 3 19 -1.14396 0 63 -1.14396 0
gene 2 5 36 1.07829 0 78 1.07829 1
gene 2 36 19 -4.41933 0 79 -4.41933 1
gene 2 3 51 3.23174 0 125 3.23174 1
gene 2 51 19 -1.37968 0 126 -1.37968 1
genomeend 51

/* Organism #52 Fitness: 57 Error: 0 */
genomestart 52
trait 1 0.1 0 0 0.0153675 0 0 0 0 
trait 2 0.2 0 0 0 0 0 0 0 
trait 3 0.3 0 0 0 0 0 0 0 
node 1 3 1 1
node 2 3 1 1
node 3 2 1 1
node 4 1 1 1
node 5 2 1 1
node 6 3 1 1
node 7 2 1 3
node 8 1 0 2
node 19 1 0 0
node 36 1 0 0
gene 2 1 8 1.03435 0 1 1.03435 1
gene 1 2 8 3.08387 0 2 3.08387 1
gene 1 3 8 -3.16636 0 3 -3.16636 1
gene 2 4 8 -4.74672 0 4 -4.74672 1
gene 1 5 8 0.171955 0 5 0.171955 1
gene 3 6 8 4.17246 0 6 4.17246 1
gene 2 7 8 0.488488 0 7 0.488488 1
gene 1 2 19 4.78428 0 28 4.78428 1
gene 1 19 8 2.10304 0 29 2.10304 1
gene 1 7 19 -1.54558 0 32 -1.54558 1
gene 2 5 19 1.02732 0 43 1.02732 1
gene 1 6 19 1.61805 0 55 1.61805 1
gene 2 3 19 -2.16363 0 63 -2.16363 1
gene 2 5 36 -0.807172 0 78 -0.807172 1
gene 2 36 19 -1.73772 0 79 -1.73772 1
genomeend 52

/* Organism #53 Fitness: 41 Error: 0 */
genomestart 53
trait 1 0.1 0 0 0.0153675 0 0 0 0 
trait 2 0.2 0 0 0 0 0 0 0 
trait 3 0.3 0 0 0 0 0 0 0 
node 1 3 1 1
node 2 3 1 1
node 3 2 1 1
node 4 1 1 1
node 5 2 1 1
node 6 3 1 1
node 7 2 1 3
node 8 1 0 2
node 19 1 0 0
node 36 2 0 0
gene 2 1 8 1.13241 0 1 1.13241 1
gene 1 2 8 2.73454 0 2 2.73454 1
gene 1 3 8 -4.75013 0 3 -4.75013 1
gene 2 4 8 -6.85571 0 4 -6.85571 1
gene 1 5 8 3.06096 0 5 3.06096 1
gene 3 6 8 5.80319 0 6 5.80319 1
gene 2 7 8 -0.547112 0 7 -0.547112 1
gene 1 2 19 7.67116 0 28 7.67116 1
gene 1 19 8 -1.16097 0 29 -1.16097 1
gene 1 7 19 -2.27981 0 32 -2.27981 1
gene 2 5 19 0.661974 0 43 0.661974 0
gene 1 6 19 0.402255 0 55 0.402255 1
gene 2 3 19 2.52569 0 63 2.52569 1
gene 2 5 36 1.15442 0 78 1.15442 1
gene 2 36 19 -4.41933 0 79 -4.41933 1
genomeend 53

/* Organism #54 Fitness: 5 Error: 0 */
genomestart 54
trait 1 0.1 0 0 0.0140868 0 0 0 0 
trait 2 0.2 0 0 0 0 0 0 0 
trait 3 0.3 0 0 0 0 0 0 0 
node 1 3 1 1
node 2 3 1 1
node 3 2 1 1
node 4 1 1 1
node 5 2 1 1
node 6 3 1 1
node 7 2 1 3
node 8 1 0 2
node 19 1 0 0
node 36 1 0 0
node 51 1 0 0
gene 2 1 8 -0.424523 0 1 -0.424523 1
gene 1 2 8 2.17662 0 2 2.17662 0
gene 1 3 8 -3.39827 0 3 -3.39827 1
gene 2 4 8 -3.03821 0 4 -3.03821 1
gene 1 5 8 2.30913 0 5 2.30913 1
gene 3 6 8 -1.1487 0 6 -1.1487 1
gene 2 7 8 1.35096 0 7 1.35096 1
gene 1 2 19 3.35378 0 28 3.35378 1
gene 1 19 8 2.17264 0 29 2.17264 1
gene 1 7 19 2.53064 0 32 2.53064 1
gene 2 5 19 0.710356 0 43 0.710356 0
gene 1 6 19 1.75598 0 55 1.75598 1
gene 2 3 19 2.92493 0 63 2.92493 0
gene 2 5 36 1.19809 0 78 1.19809 1
gene 2 36 19 -2.61335 0 79 -2.61335 1
gene 2 3 51 3.03258 0 125 3.03258 1
gene 2 51 19 2.56987 0 126 2.56987 1
genomeend 54

/* Species #7 : (Size 11) (AF 42.9091) (Age 7)  */


/* Organism #55 Fitness: 122 Error: 0 */
genomestart 55
trait 1 0.470537 0.393627 0 0 0 0 0 0 
trait 2 0.2 0 0 0 0 0 0 0 
trait 3 0.3 0 0 0 0 0 0 0 
node 1 3 1 1
node 2 3 1 1
node 3 2 1 1
node 4 1 1 1
node 5 2 1 1
node 6 3 1 1
node 7 2 1 3
node 8 1 0 2
node 19 1 0 0
node 31 1 0 0
gene 2 1 8 0.269254 0 1 0.269254 1
gene 1 2 8 0.710833 0 2 0.710833 1
gene 1 3 8 -2.35029 0 3 -2.35029 1
gene 2 4 8 -1.1491 0 4 -1.1491 1
gene 1 5 8 2.04619 0 5 2.04619 1
gene 3 6 8 1.15471 0 6 1.15471 1
gene 2 7 8 0.0930652 0 7 0.0930652 1
gene 1 2 19 0.0522542 0 28 -0.447746 1
gene 1 19 8 -0.951536 0 29 -1.01157 1
gene 1 7 19 0.101184 0 32 0.101184 1
gene 3 1 19 -1.45073 0 41 -1.45073 0
gene 2 1 31 -0.791483 0 64 -1.29148 1
gene 2 31 19 -0.67631 0 65 -0.431937 1
genomeend 55

/* Organism #56 Fitness: 5 Error: 0 */
genomestart 56
trait 1 0.470537 0.393627 0 0 0 0 0 0 
trait 2 0.2 0 0 0 0 0 0 0 
trait 3 0.3 0 0 0 0 0 0 0 
node 1 3 1 1
node 2 3 1 1
node 3 2 1 1
node 4 1 1 1
node 5 2 1 1
node 6 3 1 1
node 7 2 1 3
node 8 1 0 2
node 19 1 0 0
node 31 1 0 0
gene 2 1 8 2.30488 0 1 2.30488 1
gene 1 2 8 2.99184 0 2 2.99184 1
gene 1 3 8 -4.24785 0 3 -4.24785 1
gene 2 4 8 -1.87928 0 4 -1.87928 1
gene 1 5 8 3.65433 0 5 3.65433 1
gene 3 6 8 -1.2697 0 6 -1.2697 1
gene 2 7 8 1.96991 0 7 1.96991 1
gene 1 2 19 1.98472 0 28 1.98472 1
gene 1 19 8 -2.43183 0 29 -2.43183 1
gene 1 7 19 -1.95107 0 32 -1.95107 1
gene 3 1 19 -0.0983513 0 41 -0.0983513 0
gene 2 1 31 1.29107 0 64 1.29107 1
gene 2 31 19 0.760178 0 65 0.760178 1
genomeend 56

/* Organism #57 Fitness: 28 Error: 0 */
genomestart 57
trait 1 0.285269 0.196814 0 0 0 0 0 0 
trait 2 0.2 0 0 0 0 0 0 0 
trait 3 0.3 0 0 0 0 0 0 0 
node 1 3 1 1
node 2 3 1 1
node 3 2 1 1
node 4 1 1 1
node 5 2 1 1
node 6 3 1 1
node 7 2 1 3
node 8 1 0 2
node 19 1 0 0
node 31 1 0 0
gene 2 1 8 0.213705 0 1 0.213705 1
gene 1 2 8 0.910935 0 2 0.910935 1
gene 1 3 8 -1.46808 0 3 -1.46808 1
gene 2 4 8 -1.57168 0 4 -1.57168 1
gene 1 5 8 3.54382 0 5 3.54382 1
gene 3 6 8 1.64819 0 6 1.64819 1
gene 2 7 8 0.201284 0 7 0.201284 1
gene 1 2 19 -1.00025 0 28 -1.00025 1
gene 1 19 8 1.80042 0 29 1.80042 1
gene 1 7 19 2.27992 0 32 2.27992 1
gene 2 1 19 -1.78891 0 41 -1.78891 0
gene 2 1 31 0.104258 0 64 0.104258 1
gene 2 31 19 1.31387 0 65 1.31387 1
genomeend 57

/* Organism #58 Fitness: 5 Error: 0 */
genomestart 58
trait 1 0.470537 0.393627 0 0 0 0 0 0 
trait 2 0.2 0 0 0 0 0 0 0 
trait 3 0.3 0 0 0.353678 0 0 0 0 
node 1 3 1 1
node 2 3 1 1
node 3 2 1 1
node 4 1 1 1
node 5 2 1 1
node 6 3 1 1
node 7 2 1 3
node 8 1 0 2
node 19 1 0 0
node 31 1 0 0
gene 2 1 8 1.21544 0 1 1.21544 1
gene 1 2 8 -0.33839 0 2 -0.33839 1
gene 1 3 8 -2.93153 0 3 -2.93153 1
gene 2 4 8 1.02382 0 4 1.02382 1
gene 1 5 8 4.10596 0 5 4.10596 1
gene 3 6 8 -0.371166 0 6 -0.371166 1
gene 2 7 8 -1.4078 0 7 -1.4078 1
gene 1 2 19 -0.584802 0 28 -0.584802 1
gene 1 19 8 -0.656172 0 29 -0.656172 1
gene 1 7 19 -0.751494 0 32 -0.751494 1
gene 3 1 19 -2.8382 0 41 -2.8382 0
gene 2 1 31 1.06039 0 64 1.06039 1
gene 2 31 19 -0.67631 0 65 -0.67631 1
genomeend 58

/* Organism #59 Fitness: 83 Error: 0 */
genomestart 59
trait 1 0.238952 0.14761 0 0 0 0 0 0 
trait 2 0.2 0 0 0 0 0 0 0 
trait 3 0.3 0 0 0 0 0 0 0 
node 1 3 1 1
node 2 3 1 1
node 3 2 1 1
node 4 1 1 1
node 5 2 1 1
node 6 3 1 1
node 7 2 1 3
node 8 1 0 2
node 19 1 0 0
node 31 1 0 0
gene 2 1 8 -2.43141 0 1 -2.43141 1
gene 1 2 8 0.41545 0 2 0.41545 1
gene 1 3 8 -2.66402 0 3 -2.66402 1
gene 2 4 8 -0.858693 0 4 -0.858693 1
gene 1 5 8 2.20968 0 5 2.20968 1
gene 3 6 8 1.21664 0 6 1.21664 1
gene 2 7 8 0.257904 0 7 0.257904 1
gene 1 2 19 2.63817 0 28 2.63817 1
gene 1 19 8 -0.147833 0 29 -0.147833 1
gene 1 7 19 0.114611 0 32 0.114611 1
gene 2 1 19 -0.969738 0 41 -0.969738 0
gene 2 1 31 -1.1262 0 64 -1.1262 1
gene 2 31 19 -0.678262 0 65 -0.678262 1
genomeend 59

/* Organism #60 Fitness: 122 Error: 0 */
genomestart 60
trait 1 0.470537 0.393627 0 0 0 0 0 0 
trait 2 0.2 0 0 0 0 0 0 0 
trait 3 0.3 0 0 0 0 0 0 0 
node 1 3 1 1
node 2 3 1 1
node 3 2 1 1
node 4 1 1 1
node 5 2 1 1
node 6 3 1 1
node 7 2 1 3
node 8 1 0 2
node 19 1 0 0
node 31 1 0 0
gene 2 1 8 0.269254 0 1 0.269254 1
gene 1 2 8 0.710833 0 2 0.710833 1
gene 1 3 8 -2.35029 0 3 -2.35029 1
gene 2 4 8 -1.1491 0 4 -1.1491 1
gene 1 5 8 2.04619 0 5 2.04619 1
gene 3 6 8 1.15471 0 6 1.15471 1
gene 2 7 8 0.0930652 0 7 0.0930652 1
gene 1 2 19 0.0522542 0 28 -0.447746 1
gene 1 19 8 -0.951536 0 29 -1.01157 1
gene 1 7 19 0.101184 0 32 0.101184 1
gene 3 1 19 -1.45073 0 41 -1.45073 0
gene 2 1 31 -0.791483 0 64 -1.29148 1
gene 2 31 19 -0.67631 0 65 -0.431937 1
genomeend 60

/* Organism #61 Fitness: 6 Error: 0 */
genomestart 61
trait 1 0.377903 0.29522 0 0 0 0 0 0 
trait 2 0.2 0 0 0 0 0 0 0 
trait 3 0.3 0 0 0 0 0 0 0 
node 1 3 1 1
node 2 3 1 1
node 3 2 1 1
node 4 1 1 1
node 5 2 1 1
node 6 3 1 1
node 7 2 1 3
node 8 1 0 2
node 19 1 0 0
node 31 1 0 0
gene 2 1 8 2.23037 0 1 2.23037 1
gene 1 2 8 -1.39011 0 2 -1.39011 1
gene 1 3 8 -2.42608 0 3 -2.42608 1
gene 2 4 8 -1.8875 0 4 -1.8875 1
gene 1 5 8 0.0421067 0 5 0.0421067 1
gene 3 6 8 0.306855 0 6 0.306855 1
gene 2 7 8 2.16814 0 7 2.16814 1
gene 1 2 19 -0.591168 0 28 -0.591168 1
gene 1 19 8 -2.44033 0 29 -2.44033 1
gene 1 7 19 -1.54573 0 32 -1.54573 1
gene 2 1 19 -0.212834 0 41 -0.212834 0
gene 2 1 31 -1.39104 0 64 -1.39104 1
gene 2 31 19 -0.340154 0 65 -0.340154 1
genomeend 61

/* Organism #62 Fitness: 26 Error: 0 */
genomestart 62
trait 1 0.377903 0.29522 0 0 0 0 0 0 
trait 2 0.2 0 0 0 0 0 0 0 
trait 3 0.973775 0 0 0.426859 0 0.583291 0 0 
node 1 3 1 1
node 2 3 1 1
node 3 2 1 1
node 4 1 1 1
node 5 2 1 1
node 6 3 1 1
node 7 2 1 3
node 8 1 0 2
node 19 1 0 0
node 31 1 0 0
gene 2 1 8 -1.06613 0 1 -1.06613 1
gene 1 2 8 0.25654 0 2 0.25654 1
gene 1 3 8 -2.06648 0 3 -2.06648 1
gene 2 4 8 1.17066 0 4 1.17066 1
gene 1 5 8 2.39962 0 5 2.39962 1
gene 3 6 8 0.966771 0 6 0.966771 1
gene 2 7 8 2.55048 0 7 2.55048 1
gene 1 2 19 0.113508 0 28 0.113508 1
gene 1 19 8 -0.415734 0 29 -0.415734 1
gene 1 7 19 -0.676781 0 32 -0.676781 1
gene 2 1 19 -2.83944 0 41 -2.83944 0
gene 2 1 31 -0.269406 0 64 -0.269406 1
gene 2 31 19 -0.67631 0 65 -0.67631 1
genomeend 62

/* Organism #63 Fitness: 44 Error: 0 */
genomestart 63
trait 1 0.470537 0.393627 0 0 0 0 0 0 
trait 2 0.2 0 0 0 0 0 0 0 
trait 3 0.3 0 0 0 0 0 0 0 
node 1 3 1 1
node 2 3 1 1
node 3 2 1 1
node 4 1 1 1
node 5 2 1 1
node 6 3 1 1
node 7 2 1 3
node 8 1 0 2
node 19 1 0 0
node 31 1 0 0
gene 2 1 8 0.940961 0 1 0.940961 1
gene 1 2 8 0.285377 0 2 0.285377 1
gene 1 3 8 -2.27146 0 3 -2.27146 1
gene 2 4 8 -0.450128 0 4 -0.450128 1
gene 1 5 8 1.27653 0 5 1.27653 1
gene 3 6 8 3.1223 0 6 3.1223 1
gene 2 7 8 -0.117939 0 7 -0.117939 1
gene 1 2 19 0.0522542 0 28 0.0522542 1
gene 1 19 8 0.123473 0 29 0.123473 1
gene 1 7 19 1.48941 0 32 1.48941 1
gene 3 1 19 -3.65046 0 41 -3.65046 0
gene 2 1 31 -2.18698 0 64 -2.18698 1
gene 2 31 19 -0.993946 0 65 -0.993946 1
genomeend 63

/* Organism #64 Fitness: 26 Error: 0 */
genomestart 64
trait 1 0.470537 0.393627 0 0 0 0 0 0 
trait 2 0.267466 0 0 0.349714 0 0 0 0 
trait 3 0.3 0 0 0 0 0 0 0 
node 1 3 1 1
node 2 3 1 1
node 3 2 1 1
node 4 1 1 1
node 5 2 1 1
node 6 3 1 1
node 7 2 1 3
node 8 1 0 2
node 19 1 0 0
node 31 1 0 0
gene 2 1 8 -0.933854 0 1 -0.933854 1
gene 1 2 8 -0.00251879 0 2 -0.00251879 1
gene 1 3 8 -1.44375 0 3 -1.44375 1
gene 2 4 8 0.596599 0 4 0.596599 1
gene 1 5 8 1.88189 0 5 1.88189 1
gene 3 6 8 0.828385 0 6 0.828385 1
gene 2 7 8 1.97267 0 7 1.97267 1
gene 1 2 19 1.47439 0 28 1.47439 1
gene 1 19 8 1.16475 0 29 1.16475 1
gene 1 7 19 -0.350361 0 32 -0.350361 1
gene 3 1 19 -0.28581 0 41 -0.28581 0
gene 2 1 31 -0.791483 0 64 -0.791483 1
gene 2 31 19 -0.67631 0 65 -0.67631 1
genomeend 64

/* Organism #65 Fitness: 5 Error: 0 */
genomestart 65
trait 1 0.192634 0.0984068 0 0 0 0 0 0 
trait 2 0 0 0.243575 0.424192 0.967427 0 0 0 
trait 3 0.3 0 0 0 0 0 0 0 
node 1 3 1 1
node 2 3 1 1
node 3 2 1 1
node 4 1 1 1
node 5 2 1 1
node 6 3 1 1
node 7 2 1 3
node 8 1 0 2
node 19 1 0 0
node 31 1 0 0
gene 2 1 8 -2.95919 0 1 -2.95919 1
gene 1 2 8 -2.6853 0 2 -2.6853 0
gene 1 3 8 -1.53693 0 3 -1.53693 1
gene 2 4 8 1.68225 0 4 1.68225 1
gene 1 5 8 1.62718 0 5 1.62718 1
gene 3 6 8 -1.64298 0 6 -1.64298 1
gene 2 7 8 1.81946 0 7 1.81946 1
gene 1 2 19 3.51951 0 28 3.51951 1
gene 1 19 8 -0.13142 0 29 -0.13142 1
gene 1 7 19 0.121325 0 32 0.121325 1
gene 2 1 19 1.13678 0 41 1.13678 0
gene 2 1 31 2.43509 0 64 2.43509 1
gene 2 31 19 0.642013 0 65 0.642013 1
gene 1 5 31 -1.80647 0 80 -1.80647 1
gene 3 3 31 -1.26337 0 101 -1.26337 1
genomeend 65

/* Species #8 : (Size 6) (AF 42.5) (Age 7)  */


/* Organism #66 Fitness: 67 Error: 0 */
genomestart 66
trait 1 0.0875 0 0 0.00917042 0 0.0744408 0.0948746 0 
trait 2 0.2 0 0 0 0 0 0 0 
trait 3 0.3 0 0 0 0 0 0 0 
node 1 3 1 1
node 2 3 1 1
node 3 2 1 1
node 4 1 1 1
node 5 2 1 1
node 6 3 1 1
node 7 2 1 3
node 8 1 0 2
node 19 1 0 0
node 23 1 0 0
node 32 1 0 0
gene 2 1 8 -0.581938 0 1 -0.581938 1
gene 1 2 8 0.372347 0 2 0.372347 1
gene 1 3 8 -0.794673 0 3 -0.794673 0
gene 2 4 8 -2.19177 0 4 -2.19177 1
gene 1 5 8 5.13729 0 5 5.13729 1
gene 3 6 8 3.17209 0 6 3.17209 1
gene 2 7 8 -0.396071 0 7 -0.396071 1
gene 1 2 19 3.19293 0 28 3.19293 1
gene 1 19 8 -2.22941 0 29 -2.22941 1
gene 1 3 23 0.752707 0 37 0.752707 1
gene 1 23 8 -0.698181 0 38 -0.698181 1
gene 3 6 32 1 0 66 0 1
gene 3 32 8 3.17209 0 67 0 1
gene 3 1 23 -0.67551 0 76 0 1
gene 2 3 32 -0.219304 0 116 -0.219304 1
genomeend 66

/* Organism #67 Fitness: 33 Error: 0 */
genomestart 67
trait 1 0.0875 0 0 0.00917042 0 0.0744408 0.0948746 0 
trait 2 0.2 0 0 0 0 0 0 0 
trait 3 0.3 0 0 0 0 0 0 0 
node 1 3 1 1
node 2 3 1 1
node 3 2 1 1
node 4 1 1 1
node 5 2 1 1
node 6 3 1 1
node 7 2 1 3
node 8 1 0 2
node 19 1 0 0
node 23 1 0 0
node 32 1 0 0
gene 2 1 8 -1.34144 0 1 -1.34144 1
gene 1 2 8 -1.58165 0 2 -1.58165 1
gene 1 3 8 -1.22641 0 3 -1.22641 0
gene 2 4 8 -2.46369 0 4 -2.46369 1
gene 1 5 8 4.00762 0 5 4.00762 1
gene 3 6 8 4.28155 0 6 4.28155 1
gene 2 7 8 1.78482 0 7 1.78482 1
gene 1 2 19 1.22004 0 28 1.22004 1
gene 1 19 8 -2.22941 0 29 -2.22941 1
gene 1 3 23 -1.72163 0 37 -1.72163 1
gene 1 23 8 -0.276991 0 38 -0.276991 1
gene 3 6 32 1.73811 0 66 1.73811 1
gene 3 32 8 1.94878 0 67 1.94878 1
gene 3 1 23 1.04523 0 76 1.04523 1
gene 2 3 32 2.16136 0 116 2.16136 1
genomeend 67

/* Organism #68 Fitness: 31 Error: 0 */
genomestart 68
trait 1 0.0875 0 0 0.00917042 0 0.0744408 0.0948746 0 
trait 2 0.2 0 0 0 0 0 0 0 
trait 3 0.3 0 0 0 0 0 0 0 
node 1 3 1 1
node 2 3 1 1
node 3 2 1 1
node 4 1 1 1
node 5 2 1 1
node 6 3 1 1
node 7 2 1 3
node 8 1 0 2
node 19 1 0 0
node 23 1 0 0
node 32 1 0 0
gene 2 1 8 1.56429 0 1 1.56429 1
gene 1 2 8 1.37385 0 2 1.37385 1
gene 1 3 8 -0.178391 0 3 -0.178391 0
gene 2 4 8 -0.00671351 0 4 -0.00671351 1
gene 1 5 8 2.65704 0 5 2.65704 1
gene 3 6 8 3.71943 0 6 3.71943 1
gene 2 7 8 -2.64018 0 7 -2.64018 1
gene 1 2 19 3.14259 0 28 3.14259 1
gene 1 19 8 -0.0374525 0 29 -0.0374525 1
gene 1 3 23 1.99731 0 37 1.99731 1
gene 1 23 8 0.685221 0 38 0.685221 1
gene 3 6 32 1.49654 0 66 1.49654 1
gene 3 32 8 5.20295 0 67 5.20295 1
gene 3 1 23 -1.4788 0 76 -1.4788 1
gene 2 3 32 -1.74381 0 116 -1.74381 1
genomeend 68

/* Organism #69 Fitness: 67 Error: 0 */
genomestart 69
trait 1 0.0875 0 0 0.00917042 0 0.0744408 0.0948746 0 
trait 2 0.2 0 0 0 0 0 0 0 
trait 3 0.3 0 0 0 0 0 0 0 
node 1 3 1 1
node 2 3 1 1
node 3 2 1 1
node 4 1 1 1
node 5 2 1 1
node 6 3 1 1
node 7 2 1 3
node 8 1 0 2
node 19 1 0 0
node 23 1 0 0
node 32 1 0 0
gene 2 1 8 -0.581938 0 1 -0.581938 1
gene 1 2 8 0.372347 0 2 0.372347 1
gene 1 3 8 -0.794673 0 3 -0.794673 0
gene 2 4 8 -2.19177 0 4 -2.19177 1
gene 1 5 8 5.13729 0 5 5.13729 1
gene 3 6 8 3.17209 0 6 3.17209 1
gene 2 7 8 -0.396071 0 7 -0.396071 1
gene 1 2 19 3.19293 0 28 3.19293 1
gene 1 19 8 -2.22941 0 29 -2.22941 1
gene 1 3 23 0.752707 0 37 0.752707 1
gene 1 23 8 -0.698181 0 38 -0.698181 1
gene 3 6 32 1 0 66 0 1
gene 3 32 8 3.17209 0 67 0 1
gene 3 1 23 -0.67551 0 76 0 1
gene 2 3 32 -0.219304 0 116 -0.219304 1
genomeend 69

/* Organism #70 Fitness: 27 Error: 0 */
genomestart 70
trait 1 0.0875 0 0 0.00917042 0 0.0744408 0.0948746 0 
trait 2 0.2 0 0 0 0 0 0 0 
trait 3 0.3 0 0 0 0 0 0 0 
node 1 3 1 1
node 2 3 1 1
node 3 2 1 1
node 4 1 1 1
node 5 2 1 1
node 6 3 1 1
node 7 2 1 3
node 8 1 0 2
node 19 1 0 0
node 23 1 0 0
node 32 1 0 0
gene 2 1 8 0.513125 0 1 0.513125 1
gene 1 2 8 2.42821 0 2 2.42821 1
gene 1 3 8 -0.0492437 0 3 -0.0492437 0
gene 2 4 8 0.229582 0 4 0.229582 1
gene 1 5 8 5.92728 0 5 5.92728 1
gene 3 6 8 2.68536 0 6 2.68536 1
gene 2 7 8 -0.51937 0 7 -0.51937 1
gene 1 2 19 5.22485 0 28 5.22485 1
gene 1 19 8 2.3156 0 29 2.3156 1
gene 1 3 23 1.63835 0 37 1.63835 1
gene 1 23 8 -0.206202 0 38 -0.206202 1
gene 3 6 32 1 0 66 1 1
gene 3 32 8 5.30543 0 67 5.30543 1
gene 3 1 23 -1.54556 0 76 -1.54556 1
gene 2 3 32 0.232371 0 116 0.232371 1
genomeend 70

/* Organism #71 Fitness: 30 Error: 0 */
genomestart 71
trait 1 0.0875 0 0 0.00917042 0 0.0744408 0.0948746 0 
trait 2 0.2 0 0 0 0 0 0 0 
trait 3 0.3 0 0 0 0 0 0 0 
node 1 3 1 1
node 2 3 1 1
node 3 2 1 1
node 4 1 1 1
node 5 2 1 1
node 6 3 1 1
node 7 2 1 3
node 8 1 0 2
node 19 1 0 0
node 23 1 0 0
node 32 1 0 0
gene 2 1 8 -1.68955 0 1 -1.68955 1
gene 1 2 8 1.13329 0 2 1.13329 1
gene 1 3 8 -1.43023 0 3 -1.43023 0
gene 2 4 8 -0.293799 0 4 -0.293799 1
gene 1 5 8 6.94214 0 5 6.94214 1
gene 3 6 8 3.90088 0 6 3.90088 1
gene 2 7 8 1.99926 0 7 1.99926 1
gene 1 2 19 3.82641 0 28 3.82641 1
gene 1 19 8 -4.44795 0 29 -4.44795 1
gene 1 3 23 1.71866 0 37 1.71866 1
gene 1 23 8 0.832555 0 38 0.832555 1
gene 3 6 32 0.993681 0 66 0.993681 1
gene 3 32 8 2.01636 0 67 2.01636 1
gene 3 1 23 0.0246423 0 76 0.0246423 1
gene 2 3 32 -0.342021 0 116 -0.342021 1
genomeend 71

/* Species #9 : (Size 12) (AF 50.8333) (Age 7)  */


/* Organism #72 Fitness: 94 Error: 0 */
genomestart 72
trait 1 0.0875 0 0 0.00917042 0 0.0744408 0.0948746 0 
trait 2 0.2 0 0 0 0 0 0 0 
trait 3 0.3 0 0 0 0 0 0 0 
node 1 3 1 1
node 2 3 1 1
node 3 2 1 1
node 4 1 1 1
node 5 2 1 1
node 6 3 1 1
node 7 2 1 3
node 8 1 0 2
node 19 1 0 0
node 23 1 0 0
node 37 1 0 0
gene 2 1 8 2.04847 0 1 2.04847 1
gene 1 2 8 -4.30213 0 2 -4.30213 0
gene 1 3 8 -0.226742 0 3 -0.226742 1
gene 2 4 8 -3.36002 0 4 -3.36002 1
gene 1 5 8 6.59209 0 5 6.59209 1
gene 3 6 8 3.18459 0 6 3.18459 1
gene 2 7 8 3.85854 0 7 3.85854 1
gene 1 2 19 3.33352 0 28 3.33352 1
gene 2 19 8 -3.88898 0 29 -3.88898 0
gene 1 3 23 -1.27832 0 37 -1.27832 1
gene 1 23 8 0.821309 0 38 0.821309 1
gene 1 7 23 -1.85343 0 69 -1.85343 1
gene 1 19 37 1.32102 0 83 1.32102 1
gene 1 37 8 -3.34969 0 84 -3.34969 1
genomeend 72

/* Organism #73 Fitness: 47 Error: 0 */
genomestart 73
trait 1 0.108392 0.250286 0.432754 0.00917042 0 0.0372204 0.0948746 0 
trait 2 0.2 0 0 0 0 0 0 0 
trait 3 0.3 0 0 0 0 0 0 0 
node 1 3 1 1
node 2 3 1 1
node 3 2 1 1
node 4 1 1 1
node 5 2 1 1
node 6 3 1 1
node 7 2 1 3
node 8 1 0 2
node 19 1 0 0
node 23 1 0 0
node 37 1 0 0
gene 2 1 8 2.04847 0 1 2.04847 1
gene 1 2 8 -4.30213 0 2 -4.30213 0
gene 1 3 8 -0.226742 0 3 -0.226742 1
gene 2 4 8 -3.36002 0 4 -3.36002 1
gene 1 5 8 6.59209 0 5 6.59209 1
gene 3 6 8 3.28287 0 6 3.28287 1
gene 2 7 8 5.07337 0 7 5.07337 1
gene 1 2 19 5.16443 0 28 5.16443 1
gene 2 19 8 -3.88898 0 29 -3.88898 0
gene 1 3 23 2.51867 0 37 2.51867 1
gene 1 23 8 0.821309 0 38 0.821309 1
gene 2 7 23 -1.47729 0 69 -1.47729 1
gene 1 19 37 0.653057 0 83 0.653057 1
gene 1 37 8 -3.46224 0 84 -3.46224 1
genomeend 73

/* Organism #74 Fitness: 88 Error: 0 */
genomestart 74
trait 1 0.108392 0.250286 0.432754 0.00917042 0 0.0372204 0.0948746 0 
trait 2 0.2 0 0 0 0 0 0 0 
trait 3 0.3 0 0 0 0 0 0 0 
node 1 3 1 1
node 2 3 1 1
node 3 2 1 1
node 4 1 1 1
node 5 2 1 1
node 6 3 1 1
node 7 2 1 3
node 8 1 0 2
node 19 1 0 0
node 23 1 0 0
node 37 1 0 0
gene 2 1 8 2.04847 0 1 2.04847 1
gene 1 2 8 -0.829585 0 2 -0.829585 1
gene 1 3 8 -1.30796 0 3 -1.30796 1
gene 2 4 8 -3.69695 0 4 -3.69695 1
gene 1 5 8 7.03711 0 5 7.03711 1
gene 3 6 8 3.23373 0 6 3.23373 1
gene 2 7 8 4.46596 0 7 4.46596 1
gene 1 2 19 4.24897 0 28 4.24897 1
gene 1 19 8 -3.36094 0 29 -3.36094 0
gene 1 3 23 0.620178 0 37 0.620178 1
gene 1 23 8 -0.237448 0 38 -0.237448 1
gene 1 7 23 -1.66536 0 69 -1.66536 1
gene 1 19 37 0.98704 0 83 0.98704 1
gene 1 37 8 -3.40597 0 84 -3.40597 1
genomeend 74

/* Organism #75 Fitness: 38 Error: 0 */
genomestart 75
trait 1 0.0875 0 0 0.00917042 0 0.0744408 0.0948746 0 
trait 2 0.2 0 0 0 0 0 0 0 
trait 3 0.3 0 0 0 0 0 0 0 
node 1 3 1 1
node 2 3 1 1
node 3 2 1 1
node 4 1 1 1
node 5 2 1 1
node 6 3 1 1
node 7 2 1 3
node 8 1 0 2
node 19 1 0 0
node 23 1 0 0
node 37 1 0 0
gene 2 1 8 -0.827564 0 1 -0.827564 1
gene 1 2 8 0.47788 0 2 0.47788 0
gene 1 3 8 -1.64456 0 3 -1.64456 1
gene 2 4 8 -2.07469 0 4 -2.07469 1
gene 1 5 8 5.92085 0 5 5.92085 1
gene 3 6 8 1.55096 0 6 1.55096 1
gene 2 7 8 0.256337 0 7 0.256337 1
gene 1 2 19 0.83333 0 28 0.83333 1
gene 1 19 8 -3.01546 0 29 -3.01546 0
gene 1 3 23 2.89256 0 37 2.89256 1
gene 1 23 8 1.35393 0 38 1.35393 1
gene 1 7 23 -0.293235 0 69 -0.293235 1
gene 1 19 37 -0.770403 0 83 -0.770403 1
gene 1 37 8 -3.5168 0 84 -3.5168 1
gene 1 5 19 -0.348245 0 97 -0.348245 1
genomeend 75

/* Organism #76 Fitness: 32 Error: 0 */
genomestart 76
trait 1 0.0875 0 0 0.00917042 0 0.0744408 0.0948746 0 
trait 2 0.2 0 0 0 0 0 0 0 
trait 3 0.3 0 0 0 0 0 0 0 
node 1 3 1 1
node 2 3 1 1
node 3 2 1 1
node 4 1 1 1
node 5 2 1 1
node 6 3 1 1
node 7 2 1 3
node 8 1 0 2
node 19 1 0 0
node 23 1 0 0
node 37 1 0 0
gene 2 1 8 -0.462655 0 1 -0.462655 1
gene 1 2 8 0.0442372 0 2 0.0442372 0
gene 1 3 8 -0.166724 0 3 -0.166724 1
gene 2 4 8 -8 0 4 -8 1
gene 1 5 8 8 0 5 8 1
gene 3 6 8 3.97451 0 6 3.97451 1
gene 2 7 8 -0.256986 0 7 -0.256986 1
gene 1 2 19 -0.0594469 0 28 -0.0594469 1
gene 1 19 8 0.152181 0 29 0.152181 0
gene 1 3 23 2.3733 0 37 2.3733 1
gene 1 23 8 1.9838 0 38 1.9838 1
gene 1 7 23 -3.31242 0 69 -3.31242 1
gene 1 19 37 2.83296 0 83 2.83296 1
gene 1 37 8 -6.00192 0 84 -6.00192 1
gene 1 5 19 0.763368 0 97 0.763368 1
genomeend 76

/* Organism #77 Fitness: 26 Error: 0 */
genomestart 77
trait 1 0.0875 0 0 0.00917042 0 0.0744408 0.0948746 0 
trait 2 0.2 0 0 0 0 0 0 0 
trait 3 0.3 0 0 0 0 0 0 0 
node 1 3 1 1
node 2 3 1 1
node 3 2 1 1
node 4 1 1 1
node 5 2 1 1
node 6 3 1 1
node 7 2 1 3
node 8 1 0 2
node 19 1 0 0
node 23 1 0 0
node 37 1 0 0
gene 2 1 8 2.58864 0 1 2.58864 1
gene 1 2 8 -2.44831 0 2 -2.44831 0
gene 1 3 8 1.91004 0 3 1.91004 1
gene 2 4 8 -5.02175 0 4 -5.02175 1
gene 1 5 8 -0.268554 0 5 -0.268554 1
gene 3 6 8 3.34523 0 6 3.34523 1
gene 2 7 8 6.22366 0 7 6.22366 1
gene 1 2 19 2.54001 0 28 2.54001 1
gene 2 19 8 -1.88991 0 29 -1.88991 0
gene 1 3 23 -1.79921 0 37 -1.79921 1
gene 1 23 8 -0.924779 0 38 -0.924779 1
gene 1 7 23 -0.779937 0 69 -0.779937 1
gene 1 19 37 0.387955 0 83 0.387955 1
gene 1 37 8 -3.34969 0 84 -3.34969 1
genomeend 77

/* Organism #78 Fitness: 27 Error: 0 */
genomestart 78
trait 1 0.129285 0.500572 0.865508 0.00917042 0 0 0.0948746 0 
trait 2 0.2 0 0 0 0 0 0 0 
trait 3 0.3 0 0 0 0 0 0 0 
node 1 3 1 1
node 2 3 1 1
node 3 2 1 1
node 4 1 1 1
node 5 2 1 1
node 6 3 1 1
node 7 2 1 3
node 8 1 0 2
node 19 1 0 0
node 23 1 0 0
node 37 1 0 0
gene 2 1 8 -1.53922 0 1 -1.53922 1
gene 1 2 8 4.94999 0 2 4.94999 0
gene 1 3 8 1.4845 0 3 1.4845 1
gene 2 4 8 -2.83173 0 4 -2.83173 1
gene 1 5 8 0.273624 0 5 0.273624 1
gene 3 6 8 4.53801 0 6 4.53801 1
gene 2 7 8 3.67499 0 7 3.67499 1
gene 1 2 19 6.9746 0 28 6.9746 1
gene 1 19 8 -5.21551 0 29 -5.21551 0
gene 1 3 23 2.83883 0 37 2.83883 1
gene 1 23 8 0.255002 0 38 0.255002 1
gene 2 7 23 0.804042 0 69 0.804042 1
gene 1 19 37 0.653057 0 83 0.653057 1
gene 1 37 8 -1.93279 0 84 -1.93279 1
genomeend 78

/* Organism #79 Fitness: 49 Error: 0 */
genomestart 79
trait 1 0.0875 0 0 0.00917042 0 0.0744408 0.0948746 0 
trait 2 0.2 0 0 0 0 0 0 0 
trait 3 0.3 0 0 0 0 0 0 0 
node 1 3 1 1
node 2 3 1 1
node 3 2 1 1
node 4 1 1 1
node 5 2 1 1
node 6 3 1 1
node 7 2 1 3
node 8 1 0 2
node 19 1 0 0
node 23 1 0 0
node 37 1 0 0
gene 2 1 8 -5.76944 0 1 -5.76944 1
gene 1 2 8 0.883663 0 2 0.883663 0
gene 1 3 8 -0.462698 0 3 -0.462698 1
gene 2 4 8 -5.75837 0 4 -5.75837 1
gene 1 5 8 4.99804 0 5 4.99804 1
gene 3 6 8 3.25386 0 6 3.25386 1
gene 2 7 8 2.22218 0 7 2.22218 1
gene 1 2 19 3.33352 0 28 3.33352 1
gene 1 19 8 -1.09038 0 29 -1.09038 0
gene 1 3 23 0.256238 0 37 0.256238 1
gene 1 23 8 -1.54551 0 38 -1.54551 1
gene 1 7 23 -1.00004 0 69 -1.00004 1
gene 1 19 37 1.06849 0 83 1.06849 1
gene 1 37 8 -3.26456 0 84 -3.26456 1
gene 3 1 19 -0.893766 0 130 -0.893766 1
genomeend 79

/* Organism #80 Fitness: 35 Error: 0 */
genomestart 80
trait 1 0.0875 0 0 0.00917042 0 0.0744408 0.0948746 0 
trait 2 0.2 0 0 0 0 0 0 0 
trait 3 0.3 0 0 0 0 0 0 0 
node 1 3 1 1
node 2 3 1 1
node 3 2 1 1
node 4 1 1 1
node 5 2 1 1
node 6 3 1 1
node 7 2 1 3
node 8 1 0 2
node 19 1 0 0
node 23 1 0 0
node 37 1 0 0
gene 2 1 8 -0.699324 0 1 -0.699324 1
gene 1 2 8 2.25724 0 2 2.25724 0
gene 1 3 8 -0.794819 0 3 -0.794819 1
gene 2 4 8 -3.9567 0 4 -3.9567 1
gene 1 5 8 2.4018 0 5 2.4018 1
gene 3 6 8 4.1581 0 6 4.1581 1
gene 2 7 8 1.29847 0 7 1.29847 1
gene 1 2 19 0.235 0 28 0.235 1
gene 1 19 8 -2.78091 0 29 -2.78091 0
gene 1 3 23 1.8818 0 37 1.8818 1
gene 1 23 8 -2.32877 0 38 -2.32877 1
gene 1 7 23 -0.805809 0 69 -0.805809 1
gene 1 19 37 1.06849 0 83 1.06849 1
gene 1 37 8 -3.74376 0 84 -3.74376 1
gene 1 5 19 -1.55798 0 97 -1.55798 1
genomeend 80

/* Organism #81 Fitness: 54 Error: 0 */
genomestart 81
trait 1 0.129285 0.500572 0.865508 0.00917042 0 0 0.0948746 0 
trait 2 0.2 0 0 0 0 0 0 0 
trait 3 0.3 0 0 0 0 0 0 0 
node 1 3 1 1
node 2 3 1 1
node 3 2 1 1
node 4 1 1 1
node 5 2 1 1
node 6 3 1 1
node 7 2 1 3
node 8 1 0 2
node 19 1 0 0
node 23 1 0 0
node 37 1 0 0
gene 2 1 8 0.512679 0 1 0.512679 1
gene 1 2 8 3.19518 0 2 3.19518 0
gene 1 3 8 -2.02963 0 3 -2.02963 1
gene 2 4 8 -5.46087 0 4 -5.46087 1
gene 1 5 8 8 0 5 8 1
gene 3 6 8 4.18932 0 6 4.18932 1
gene 2 7 8 5.27219 0 7 5.27219 1
gene 1 2 19 4.76901 0 28 4.76901 1
gene 1 19 8 -1.31718 0 29 -1.31718 0
gene 1 3 23 -0.240418 0 37 -0.240418 1
gene 1 23 8 -1.95184 0 38 -1.95184 1
gene 2 7 23 -2.07822 0 69 -2.07822 1
gene 1 19 37 0.317606 0 83 0.317606 1
gene 1 37 8 -3.19805 0 84 -3.19805 1
genomeend 81

/* Organism #82 Fitness: 86 Error: 0 */
genomestart 82
trait 1 0.0875 0 0 0.00917042 0 0.0744408 0.0948746 0 
trait 2 0.2 0 0 0 0 0 0 0 
trait 3 0.3 0 0 0 0 0 0 0 
node 1 3 1 1
node 2 3 1 1
node 3 2 1 1
node 4 1 1 1
node 5 2 1 1
node 6 3 1 1
node 7 2 1 3
node 8 1 0 2
node 19 1 0 0
node 23 1 0 0
node 37 1 0 0
gene 2 1 8 0.0657434 0 1 0.0657434 1
gene 1 2 8 -1.37539 0 2 -1.37539 0
gene 1 3 8 -1.17903 0 3 -1.17903 1
gene 2 4 8 -6.3643 0 4 -6.3643 1
gene 1 5 8 7.342 0 5 7.342 1
gene 3 6 8 2.40316 0 6 2.40316 1
gene 2 7 8 4.15438 0 7 4.15438 1
gene 1 2 19 1.86405 0 28 1.86405 1
gene 1 19 8 -3.32735 0 29 -3.32735 0
gene 1 3 23 2.19041 0 37 2.19041 1
gene 1 23 8 1.87426 0 38 1.87426 1
gene 1 7 23 -2.55766 0 69 -2.55766 1
gene 1 19 37 2.34401 0 83 2.34401 1
gene 1 37 8 -3.5168 0 84 -3.5168 1
gene 1 5 19 -0.595393 0 97 -0.595393 1
genomeend 82

/* Organism #83 Fitness: 34 Error: 0 */
genomestart 83
trait 1 0.0875 0 0 0.00917042 0 0.0744408 0.0948746 0 
trait 2 0 0 0 0 0 0 0.633475 0 
trait 3 0.3 0 0 0 0 0 0 0 
node 1 3 1 1
node 2 3 1 1
node 3 2 1 1
node 4 1 1 1
node 5 2 1 1
node 6 3 1 1
node 7 2 1 3
node 8 1 0 2
node 19 1 0 0
node 23 1 0 0
node 37 1 0 0
gene 2 1 8 -4.44802 0 1 -4.44802 1
gene 1 2 8 -1.28818 0 2 -1.28818 0
gene 1 3 8 1.33892 0 3 1.33892 1
gene 2 4 8 -3.704 0 4 -3.704 1
gene 1 5 8 6.42661 0 5 6.42661 1
gene 3 6 8 1.09276 0 6 1.09276 1
gene 2 7 8 1.63314 0 7 1.63314 1
gene 1 2 19 1.45221 0 28 1.45221 1
gene 1 19 8 -0.785789 0 29 -0.785789 0
gene 1 3 23 2.70826 0 37 2.70826 1
gene 1 23 8 0.841962 0 38 0.841962 1
gene 1 7 23 -1.24248 0 69 -1.24248 1
gene 1 19 37 -0.984669 0 83 -0.984669 1
gene 1 37 8 -3.5838 0 84 -3.5838 1
gene 3 1 19 -1.05305 0 130 -1.05305 1
genomeend 83

/* Species #10 : (Size 5) (AF 30) (Age 6)  */


/* Organism #84 Fitness: 27 Error: 0 */
genomestart 84
trait 1 0.1 0 0 0 0 0 0 0 
trait 2 0.2 0 0 0 0 0 0 0 
trait 3 0.3 0 0 0 0 0 0 0 
node 1 3 1 1
node 2 3 1 1
node 3 2 1 1
node 4 1 1 1
node 5 2 1 1
node 6 3 1 1
node 7 2 1 3
node 8 1 0 2
node 19 1 0 0
node 34 1 0 0
gene 2 1 8 -1.60857 0 1 -1.60857 1
gene 1 2 8 -1.4907 0 2 -1.4907 1
gene 1 3 8 -1.19341 0 3 -1.19341 1
gene 2 4 8 1.65852 0 4 1.65852 1
gene 1 5 8 0.771954 0 5 0.771954 0
gene 3 6 8 2.78 0 6 2.78 1
gene 2 7 8 -0.421334 0 7 -0.421334 1
gene 1 2 19 1.5861 0 28 1.5861 1
gene 1 19 8 -1.09481 0 29 -1.09481 1
gene 1 7 19 3.62595 0 32 3.62595 1
gene 3 3 19 -2.9615 0 52 -2.9615 1
gene 1 5 34 1.92542 0 72 1.92542 1
gene 1 34 8 1.39097 0 73 1.39097 1
genomeend 84

/* Organism #85 Fitness: 10 Error: 0 */
genomestart 85
trait 1 0.648282 0 0 0 0 0.317138 0 0 
trait 2 0.2 0 0 0 0 0 0 0 
trait 3 0.3 0 0 0 0 0 0 0 
node 1 3 1 1
node 2 3 1 1
node 3 2 1 1
node 4 1 1 1
node 5 2 1 1
node 6 3 1 1
node 7 2 1 3
node 8 1 0 2
node 19 1 0 0
node 34 1 0 0
gene 2 1 8 0.876735 0 1 0.876735 1
gene 1 2 8 0.241938 0 2 0.241938 1
gene 1 3 8 -3.6722 0 3 -3.6722 1
gene 2 4 8 2.027 0 4 2.027 1
gene 1 5 8 0.00950306 0 5 0.00950306 0
gene 3 6 8 1.05464 0 6 1.05464 1
gene 2 7 8 -0.710853 0 7 -0.710853 1
gene 1 2 19 1.51789 0 28 1.51789 1
gene 1 19 8 -1.52014 0 29 -1.52014 1
gene 1 7 19 3.09066 0 32 3.09066 1
gene 3 3 19 -2.57929 0 52 -2.57929 1
gene 1 5 34 -1.78715 0 72 -1.78715 1
gene 1 34 8 3.38074 0 73 3.38074 1
genomeend 85

/* Organism #86 Fitness: 23 Error: 0 */
genomestart 86
trait 1 0.1 0 0 0 0 0 0 0 
trait 2 0.2 0 0 0 0 0 0 0 
trait 3 0.3 0 0 0 0 0 0 0 
node 1 3 1 1
node 2 3 1 1
node 3 2 1 1
node 4 1 1 1
node 5 2 1 1
node 6 3 1 1
node 7 2 1 3
node 8 1 0 2
node 19 1 0 0
node 34 1 0 0
gene 2 1 8 -0.343793 0 1 -0.343793 1
gene 1 2 8 0.790374 0 2 0.790374 1
gene 1 3 8 -2.45619 0 3 -2.45619 1
gene 2 4 8 -0.261903 0 4 -0.261903 1
gene 1 5 8 4.23343 0 5 4.23343 0
gene 3 6 8 2.85265 0 6 2.85265 1
gene 2 7 8 -0.279668 0 7 -0.279668 1
gene 1 2 19 4.12516 0 28 4.12516 1
gene 1 19 8 -2.93345 0 29 -2.93345 1
gene 1 7 19 0.530985 0 32 0.530985 1
gene 3 3 19 -1.41323 0 52 -1.41323 1
gene 1 5 34 0.626059 0 72 0.626059 1
gene 1 34 8 1.39097 0 73 1.39097 1
genomeend 86

/* Organism #87 Fitness: 38 Error: 0 */
genomestart 87
trait 1 0.1 0 0 0 0 0 0 0 
trait 2 0.2 0 0 0 0 0 0 0 
trait 3 0.3 0 0 0 0 0 0 0 
node 1 3 1 1
node 2 3 1 1
node 3 2 1 1
node 4 1 1 1
node 5 2 1 1
node 6 3 1 1
node 7 2 1 3
node 8 1 0 2
node 19 1 0 0
node 34 1 0 0
gene 2 1 8 -1.46219 0 1 -1.46219 1
gene 1 2 8 -0.533341 0 2 -0.533341 1
gene 1 3 8 -1.94471 0 3 -1.94471 1
gene 2 4 8 -0.41491 0 4 -0.41491 1
gene 1 5 8 0.902237 0 5 0.902237 0
gene 3 6 8 0.883714 0 6 0.883714 1
gene 2 7 8 0.571807 0 7 0.571807 1
gene 1 2 19 2.13212 0 28 1.63212 1
gene 1 19 8 -0.591383 0 29 -0.651416 1
gene 1 7 19 1.28728 0 32 1.28728 1
gene 3 3 19 -0.734057 0 52 -0.734057 1
gene 1 5 34 1.92542 0 72 1.42542 1
gene 1 34 8 1.39097 0 73 0.676004 1
genomeend 87

/* Organism #88 Fitness: 52 Error: 0 */
genomestart 88
trait 1 0.1 0 0 0 0 0 0 0 
trait 2 0.2 0 0 0 0 0 0 0 
trait 3 0.3 0 0 0 0 0 0 0 
node 1 3 1 1
node 2 3 1 1
node 3 2 1 1
node 4 1 1 1
node 5 2 1 1
node 6 3 1 1
node 7 2 1 3
node 8 1 0 2
node 19 1 0 0
node 34 1 0 0
gene 2 1 8 2.3189 0 1 2.3189 1
gene 1 2 8 0.660542 0 2 0.660542 1
gene 1 3 8 -2.58448 0 3 -2.58448 1
gene 2 4 8 2.96008 0 4 2.96008 1
gene 1 5 8 2.94415 0 5 2.94415 0
gene 3 6 8 1.18954 0 6 1.18954 1
gene 2 7 8 -2.57531 0 7 -2.57531 1
gene 3 2 19 2.39582 0 28 2.39582 1
gene 1 19 8 0.536843 0 29 0.536843 1
gene 1 7 19 -0.392553 0 32 -0.392553 1
gene 3 3 19 1.88747 0 52 1.88747 1
gene 1 5 34 0.626059 0 72 0.626059 1
gene 1 34 8 2.61305 0 73 2.61305 1
genomeend 88

/* Species #11 : (Size 6) (AF 25) (Age 3)  */


/* Organism #89 Fitness: 31 Error: 0 */
genomestart 89
trait 1 0.1 0 0 0 0 0 0 0 
trait 2 0.2 0 0 0 0 0 0 0 
trait 3 0.3 0 0 0 0 0 0 0 
node 1 3 1 1
node 2 3 1 1
node 3 2 1 1
node 4 1 1 1
node 5 2 1 1
node 6 3 1 1
node 7 2 1 3
node 8 1 0 2
node 19 1 0 0
node 31 1 0 0
node 48 1 0 0
gene 2 1 8 0.37147 0 1 0.37147 1
gene 1 2 8 1.55813 0 2 1.55813 0
gene 1 3 8 -3.74694 0 3 -3.74694 1
gene 2 4 8 0.5257 0 4 0.5257 1
gene 1 5 8 0.355096 0 5 0.355096 0
gene 3 6 8 3.11016 0 6 3.11016 1
gene 2 7 8 1.67746 0 7 1.67746 1
gene 1 2 19 0.0679756 0 28 0.0679756 1
gene 1 19 8 -1.65635 0 29 -1.65635 1
gene 1 7 19 1.84611 0 32 1.84611 1
gene 2 1 19 0.350111 0 41 0.350111 0
gene 2 1 31 2.15505 0 64 2.15505 1
gene 2 31 19 0.0598134 0 65 0.0598134 1
gene 1 5 31 -3.2406 0 80 -3.2406 1
gene 3 3 31 1.02635 0 101 1.02635 1
gene 1 5 48 1 0 114 1 1
gene 1 48 8 2.42494 0 115 2.42494 1
genomeend 89

/* Organism #90 Fitness: 5 Error: 0 */
genomestart 90
trait 1 0.1 0 0 0 0 0 0 0 
trait 2 0.2 0 0 0 0 0 0 0 
trait 3 0.3 0 0 0 0 0 0 0 
node 1 3 1 1
node 2 3 1 1
node 3 2 1 1
node 4 1 1 1
node 5 2 1 1
node 6 3 1 1
node 7 2 1 3
node 8 1 0 2
node 19 1 0 0
node 31 1 0 0
node 48 1 0 0
gene 2 1 8 -0.951675 0 1 -0.951675 1
gene 1 2 8 0.253382 0 2 0.253382 0
gene 1 3 8 0.897101 0 3 0.897101 1
gene 2 4 8 -1.33788 0 4 -1.33788 1
gene 1 5 8 2.11899 0 5 2.11899 0
gene 3 6 8 -0.849036 0 6 -0.849036 1
gene 2 7 8 -1.42321 0 7 -1.42321 1
gene 1 2 19 -2.1811 0 28 -2.1811 1
gene 1 19 8 -1.63842 0 29 -1.63842 1
gene 1 7 19 2.60142 0 32 2.60142 1
gene 2 1 19 -1.99456 0 41 -1.99456 0
gene 2 1 31 0.665536 0 64 0.665536 1
gene 1 31 19 -2.42733 0 65 -2.42733 1
gene 1 5 31 -0.139382 0 80 -0.139382 1
gene 3 3 31 -0.489128 0 101 -0.489128 1
gene 1 5 48 1.15328 0 114 1.15328 1
gene 1 48 8 -0.260835 0 115 -0.260835 1
genomeend 90

/* Organism #91 Fitness: 44 Error: 0 */
genomestart 91
trait 1 0.1 0 0 0 0 0 0 0 
trait 2 0.2 0 0 0 0 0 0 0 
trait 3 0.3 0 0 0 0 0 0 0 
node 1 3 1 1
node 2 3 1 1
node 3 2 1 1
node 4 1 1 1
node 5 2 1 1
node 6 3 1 1
node 7 2 1 3
node 8 1 0 2
node 19 1 0 0
node 31 1 0 0
node 48 1 0 0
gene 2 1 8 0.3421 0 1 0.3421 1
gene 1 2 8 0.13992 0 2 0.13992 0
gene 1 3 8 -0.0159849 0 3 -0.0159849 1
gene 2 4 8 0.166995 0 4 0.166995 1
gene 1 5 8 3.92731 0 5 3.92731 0
gene 3 6 8 3.70817 0 6 3.70817 1
gene 2 7 8 -0.407286 0 7 -0.407286 1
gene 1 2 19 -0.0382501 0 28 -0.0382501 1
gene 1 19 8 0.859982 0 29 0.859982 1
gene 1 7 19 -2.0617 0 32 -2.0617 1
gene 2 1 19 0.162272 0 41 0.162272 0
gene 2 1 31 -0.870692 0 64 -0.870692 1
gene 2 31 19 0.29426 0 65 0.29426 1
gene 1 5 31 -2.58096 0 80 -2.58096 1
gene 3 3 31 -0.807019 0 101 -0.807019 1
gene 1 5 48 2.26625 0 114 2.26625 1
gene 1 48 8 2.79377 0 115 2.79377 1
genomeend 91

/* Organism #92 Fitness: 26 Error: 0 */
genomestart 92
trait 1 0.1 0 0 0 0 0 0 0 
trait 2 0.2 0 0 0 0 0 0 0 
trait 3 0.3 0 0 0 0 0 0 0 
node 1 3 1 1
node 2 3 1 1
node 3 2 1 1
node 4 1 1 1
node 5 2 1 1
node 6 3 1 1
node 7 2 1 3
node 8 1 0 2
node 19 1 0 0
node 31 1 0 0
node 48 1 0 0
gene 2 1 8 1.3882 0 1 1.3882 1
gene 1 2 8 0.674832 0 2 0.674832 0
gene 1 3 8 -2.84895 0 3 -2.84895 1
gene 2 4 8 -0.602664 0 4 -0.602664 1
gene 1 5 8 0.957814 0 5 0.957814 0
gene 3 6 8 2.98851 0 6 2.98851 1
gene 2 7 8 1.60649 0 7 1.60649 1
gene 1 2 19 1.55057 0 28 1.55057 1
gene 1 19 8 -2.65836 0 29 -2.65836 1
gene 1 7 19 -0.398018 0 32 -0.398018 1
gene 2 1 19 1.37597 0 41 1.37597 0
gene 2 1 31 0.403478 0 64 0.403478 1
gene 2 31 19 -1.0954 0 65 -1.0954 1
gene 1 5 31 -4.13799 0 80 -4.13799 1
gene 3 3 31 -0.968353 0 101 -0.968353 1
gene 1 5 48 1 0 114 1 1
gene 1 48 8 2.42494 0 115 2.42494 1
genomeend 92

/* Organism #93 Fitness: 14 Error: 0 */
genomestart 93
trait 1 0.1 0 0 0 0 0 0 0 
trait 2 0.2 0 0 0 0 0 0 0 
trait 3 0.3 0 0 0 0 0 0 0 
node 1 3 1 1
node 2 3 1 1
node 3 2 1 1
node 4 1 1 1
node 5 2 1 1
node 6 3 1 1
node 7 2 1 3
node 8 1 0 2
node 19 1 0 0
node 31 1 0 0
node 48 1 0 0
gene 2 1 8 -0.581938 0 1 -0.581938 1
gene 1 2 8 1.17771 0 2 1.17771 0
gene 1 3 8 -0.208224 0 3 -0.208224 1
gene 2 4 8 1.47055 0 4 1.47055 1
gene 1 5 8 2.02134 0 5 2.02134 0
gene 3 6 8 1.90513 0 6 1.90513 1
gene 2 7 8 0.754113 0 7 0.754113 1
gene 1 2 19 0.146591 0 28 0.146591 1
gene 1 19 8 1.87622 0 29 1.87622 1
gene 1 7 19 -1.18477 0 32 -1.18477 1
gene 2 1 19 -0.756346 0 41 -0.756346 0
gene 2 1 31 1 0 64 1 1
gene 2 31 19 1.40898 0 65 1.40898 1
gene 1 5 31 0.87295 0 80 0.87295 1
gene 3 3 31 1.94644 0 101 1.94644 1
gene 1 5 48 0.820189 0 114 0.820189 1
gene 1 48 8 1.42993 0 115 1.42993 1
genomeend 93

/* Organism #94 Fitness: 30 Error: 0 */
genomestart 94
trait 1 0.1 0 0 0 0 0 0 0 
trait 2 0.2 0 0 0 0 0 0 0 
trait 3 0.3 0 0 0 0 0 0 0 
node 1 3 1 1
node 2 3 1 1
node 3 2 1 1
node 4 1 1 1
node 5 2 1 1
node 6 3 1 1
node 7 2 1 3
node 8 1 0 2
node 19 1 0 0
node 31 1 0 0
node 48 1 0 0
gene 2 1 8 -0.581938 0 1 -0.581938 1
gene 1 2 8 0.120067 0 2 0.120067 0
gene 1 3 8 -1.47632 0 3 -1.47632 1
gene 2 4 8 -0.568287 0 4 -0.568287 1
gene 1 5 8 1.42993 0 5 1.42993 0
gene 3 6 8 1.27857 0 6 1.27857 1
gene 2 7 8 0.0930652 0 7 0.0930652 1
gene 1 2 19 1 0 28 0 1
gene 1 19 8 0.120067 0 29 0 1
gene 1 7 19 0.128038 0 32 0.128038 1
gene 2 1 19 -0.488745 0 41 -0.488745 0
gene 2 1 31 1 0 64 0 1
gene 2 31 19 -0.488745 0 65 0 1
gene 1 5 31 -0.80952 0 80 0 1
gene 3 3 31 -0.489128 0 101 -0.489128 1
gene 1 5 48 1 0 114 0 1
gene 1 48 8 1.42993 0 115 0 1
genomeend 94

/* Species #12 : (Size 27) (AF 36.0741) (Age 2)  */


/* Organism #95 Fitness: 110 Error: 0 */
genomestart 95
trait 1 0.1 0 0 0 0 0 0 0 
trait 2 0.110389 0 0 0 0 0 0 0 
trait 3 0.3 0 0 0 0 0 0 0 
node 1 3 1 1
node 2 3 1 1
node 3 2 1 1
node 4 3 1 1
node 5 2 1 1
node 6 3 1 1
node 7 2 1 3
node 8 1 0 2
node 19 1 0 0
node 50 1 0 0
gene 2 1 8 -0.0395128 0 1 -0.0395128 1
gene 1 2 8 0.120067 0 2 0.120067 0
gene 1 3 8 -1.47632 0 3 -1.47632 1
gene 2 4 8 -0.568287 0 4 -0.568287 1
gene 1 5 8 1.42993 0 5 1.42993 1
gene 3 6 8 0.848007 0 6 0.848007 1
gene 2 7 8 -1.97351 0 7 -1.97351 1
gene 1 2 19 2.66006 0 28 2.66006 0
gene 1 19 8 1.08552 0 29 1.08552 1
gene 1 7 19 0.814594 0 32 0.814594 1
gene 1 5 19 0.854985 0 97 0.854985 1
gene 1 2 50 1 0 121 0 1
gene 1 50 19 2.66006 0 122 0 1
genomeend 95

/* Organism #96 Fitness: 35 Error: 0 */
genomestart 96
trait 1 0.1 0 0 0 0 0 0 0 
trait 2 0.110389 0 0 0 0 0 0 0 
trait 3 0.3 0 0 0 0 0 0 0 
node 1 3 1 1
node 2 3 1 1
node 3 2 1 1
node 4 3 1 1
node 5 2 1 1
node 6 3 1 1
node 7 2 1 3
node 8 1 0 2
node 19 1 0 0
node 50 1 0 0
gene 2 1 8 -0.217869 0 1 -0.217869 1
gene 1 2 8 2.22978 0 2 2.22978 0
gene 1 3 8 -0.0774317 0 3 -0.0774317 1
gene 2 4 8 -2.91131 0 4 -2.91131 1
gene 1 5 8 1.69815 0 5 1.69815 1
gene 3 6 8 1.84007 0 6 1.84007 1
gene 2 7 8 -0.730563 0 7 -0.730563 1
gene 1 2 19 1.3249 0 28 1.3249 0
gene 1 19 8 -1.34035 0 29 -1.34035 1
gene 1 7 19 -1.36459 0 32 -1.36459 1
gene 1 5 19 3.06795 0 97 3.06795 1
gene 1 2 50 0.889492 0 121 0.889492 1
gene 1 50 19 0.225771 0 122 0.225771 1
genomeend 96

/* Organism #97 Fitness: 111 Error: 0 */
genomestart 97
trait 1 0.1 0 0 0 0 0 0 0 
trait 2 0.110389 0 0 0 0 0 0 0 
trait 3 0.3 0 0 0 0 0 0 0 
node 1 3 1 1
node 2 3 1 1
node 3 2 1 1
node 4 3 1 1
node 5 2 1 1
node 6 3 1 1
node 7 2 1 3
node 8 1 0 2
node 19 1 0 0
node 50 1 0 0
gene 2 1 8 -0.0395128 0 1 -0.0395128 1
gene 1 2 8 0.120067 0 2 0.120067 0
gene 1 3 8 -1.47632 0 3 -1.47632 1
gene 2 4 8 -0.568287 0 4 -0.568287 1
gene 1 5 8 1.42993 0 5 1.42993 1
gene 3 6 8 0.848007 0 6 0.848007 1
gene 2 7 8 -1.97351 0 7 -1.97351 1
gene 1 2 19 2.66006 0 28 2.66006 0
gene 1 19 8 1.08552 0 29 1.08552 1
gene 1 7 19 0.814594 0 32 0.814594 1
gene 1 5 19 0.854985 0 97 0.854985 1
gene 1 2 50 1 0 121 0 1
gene 1 50 19 2.66006 0 122 0 1
gene 2 7 50 -0.330986 0 138 -0.330986 1
genomeend 97

/* Organism #98 Fitness: 37 Error: 0 */
genomestart 98
trait 1 0.1 0 0 0 0 0 0 0 
trait 2 0.110389 0 0 0 0 0 0 0 
trait 3 0.3 0 0 0 0 0 0 0 
node 1 3 1 1
node 2 3 1 1
node 3 2 1 1
node 4 3 1 1
node 5 2 1 1
node 6 3 1 1
node 7 2 1 3
node 8 1 0 2
node 19 1 0 0
node 50 1 0 0
gene 2 1 8 -0.647988 0 1 -0.647988 1
gene 1 2 8 1.74815 0 2 1.74815 0
gene 1 3 8 -1.47632 0 3 -1.47632 1
gene 2 4 8 -1.87639 0 4 -1.87639 1
gene 1 5 8 1.42993 0 5 1.42993 1
gene 3 6 8 1.55566 0 6 1.55566 1
gene 2 7 8 -3.29391 0 7 -3.29391 1
gene 1 2 19 3.42838 0 28 3.42838 0
gene 1 19 8 1.22762 0 29 1.22762 1
gene 1 7 19 -0.880474 0 32 -0.880474 1
gene 1 5 19 1.31599 0 97 1.31599 1
gene 1 2 50 -0.837448 0 121 -0.837448 1
gene 1 50 19 0.648177 0 122 0.648177 1
genomeend 98

/* Organism #99 Fitness: 35 Error: 0 */
genomestart 99
trait 1 0.1 0 0 0 0 0 0 0 
trait 2 0.110389 0 0 0 0 0 0 0 
trait 3 0.3 0 0 0 0 0 0 0 
node 1 3 1 1
node 2 3 1 1
node 3 2 1 1
node 4 3 1 1
node 5 2 1 1
node 6 3 1 1
node 7 2 1 3
node 8 1 0 2
node 19 1 0 0
node 50 1 0 0
gene 2 1 8 -0.153397 0 1 -0.153397 1
gene 1 2 8 -2.03471 0 2 -2.03471 0
gene 1 3 8 -2.12321 0 3 -2.12321 1
gene 2 4 8 0.721938 0 4 0.721938 1
gene 1 5 8 2.49565 0 5 2.49565 1
gene 3 6 8 3.3173 0 6 3.3173 1
gene 2 7 8 -1.97351 0 7 -1.97351 1
gene 1 2 19 -2.17771 0 28 -2.17771 0
gene 1 19 8 0.273815 0 29 0.273815 1
gene 1 7 19 2.39218 0 32 2.39218 1
gene 1 5 19 -0.846771 0 97 -0.846771 1
gene 1 2 50 1.09425 0 121 1.09425 1
gene 1 50 19 1.53121 0 122 1.53121 1
genomeend 99

/* Organism #100 Fitness: 7 Error: 0 */
genomestart 100
trait 1 0.1 0 0 0 0 0 0 0 
trait 2 0.110389 0 0 0 0 0 0 0 
trait 3 0.3 0 0 0 0 0 0 0 
node 1 3 1 1
node 2 3 1 1
node 3 2 1 1
node 4 3 1 1
node 5 2 1 1
node 6 3 1 1
node 7 2 1 3
node 8 1 0 2
node 19 1 0 0
node 50 1 0 0
gene 2 1 8 -0.0257497 0 1 -0.0257497 1
gene 1 2 8 1.88923 0 2 1.88923 0
gene 1 3 8 -3.3532 0 3 -3.3532 1
gene 2 4 8 1.37051 0 4 1.37051 1
gene 1 5 8 2.70153 0 5 2.70153 1
gene 3 6 8 0.290204 0 6 0.290204 1
gene 2 7 8 0.507045 0 7 0.507045 1
gene 1 2 19 0.649908 0 28 0.649908 0
gene 1 19 8 2.78344 0 29 2.78344 1
gene 1 7 19 2.4246 0 32 2.4246 1
gene 1 5 19 3.03351 0 97 3.03351 1
gene 1 2 50 -0.617327 0 121 -0.617327 1
gene 1 50 19 -0.745489 0 122 -0.745489 1
genomeend 100

/* Organism #101 Fitness: 110 Error: 0 */
genomestart 101
trait 1 0.1 0 0 0 0 0 0 0 
trait 2 0.110389 0 0 0 0 0 0 0 
trait 3 0.3 0 0 0 0 0 0 0 
node 1 3 1 1
node 2 3 1 1
node 3 2 1 1
node 4 3 1 1
node 5 2 1 1
node 6 3 1 1
node 7 2 1 3
node 8 1 0 2
node 19 1 0 0
node 50 1 0 0
gene 2 1 8 -0.0395128 0 1 -0.0395128 1
gene 1 2 8 0.120067 0 2 0.120067 0
gene 1 3 8 -1.47632 0 3 -1.47632 1
gene 2 4 8 -0.568287 0 4 -0.568287 1
gene 1 5 8 1.42993 0 5 1.42993 1
gene 3 6 8 0.848007 0 6 0.848007 1
gene 2 7 8 -1.97351 0 7 -1.97351 1
gene 1 2 19 2.66006 0 28 2.66006 0
gene 1 19 8 1.08552 0 29 1.08552 1
gene 1 7 19 0.814594 0 32 0.814594 1
gene 1 5 19 0.854985 0 97 0.854985 1
gene 1 2 50 1 0 121 0 1
gene 1 50 19 2.66006 0 122 0 1
genomeend 101

/* Organism #102 Fitness: 32 Error: 0 */
genomestart 102
trait 1 0.1 0 0 0 0 0 0 0 
trait 2 0.110389 0 0 0 0 0 0 0 
trait 3 0.3 0 0 0 0 0 0 0 
node 1 3 1 1
node 2 3 1 1
node 3 2 1 1
node 4 3 1 1
node 5 2 1 1
node 6 3 1 1
node 7 2 1 3
node 8 1 0 2
node 19 1 0 0
node 50 1 0 0
gene 2 1 8 1.19966 0 1 1.19966 1
gene 1 2 8 1.51799 0 2 1.51799 0
gene 1 3 8 -1.65462 0 3 -1.65462 1
gene 2 4 8 -2.22157 0 4 -2.22157 1
gene 1 5 8 2.616 0 5 2.616 1
gene 3 6 8 1.05357 0 6 1.05357 1
gene 2 7 8 -2.08349 0 7 -2.08349 1
gene 1 2 19 0.21698 0 28 0.21698 0
gene 1 19 8 -0.936369 0 29 -0.936369 1
gene 1 7 19 -1.47929 0 32 -1.47929 1
gene 1 5 19 -1.87972 0 97 -1.87972 1
gene 1 2 50 0.172106 0 121 0.172106 1
gene 1 50 19 4.44122 0 122 4.44122 1
genomeend 102

/* Organism #103 Fitness: 110 Error: 0 */
genomestart 103
trait 1 0.1 0 0 0 0 0 0 0 
trait 2 0.110389 0 0 0 0 0 0 0 
trait 3 0.3 0 0 0 0 0 0 0 
node 1 3 1 1
node 2 3 1 1
node 3 2 1 1
node 4 3 1 1
node 5 2 1 1
node 6 3 1 1
node 7 2 1 3
node 8 1 0 2
node 19 1 0 0
node 50 1 0 0
gene 2 1 8 -0.0395128 0 1 -0.0395128 1
gene 1 2 8 0.120067 0 2 0.120067 0
gene 1 3 8 -1.47632 0 3 -1.47632 1
gene 2 4 8 -0.568287 0 4 -0.568287 1
gene 1 5 8 1.42993 0 5 1.42993 1
gene 3 6 8 0.848007 0 6 0.848007 1
gene 2 7 8 -1.97351 0 7 -1.97351 1
gene 1 2 19 2.66006 0 28 2.66006 0
gene 1 19 8 1.08552 0 29 1.08552 1
gene 1 7 19 0.814594 0 32 0.814594 1
gene 1 5 19 0.854985 0 97 0.854985 1
gene 1 2 50 1 0 121 0 1
gene 1 50 19 2.66006 0 122 0 1
gene 1 6 19 0.941842 0 139 0.941842 1
genomeend 103

/* Organism #104 Fitness: 110 Error: 0 */
genomestart 104
trait 1 0.1 0 0 0 0 0 0 0 
trait 2 0.110389 0 0 0 0 0 0 0 
trait 3 0.3 0 0 0 0 0 0 0 
node 1 3 1 1
node 2 3 1 1
node 3 2 1 1
node 4 3 1 1
node 5 2 1 1
node 6 3 1 1
node 7 2 1 3
node 8 1 0 2
node 19 1 0 0
node 50 1 0 0
gene 2 1 8 -0.0395128 0 1 -0.0395128 1
gene 1 2 8 0.120067 0 2 0.120067 0
gene 1 3 8 -1.47632 0 3 -1.47632 1
gene 2 4 8 -0.568287 0 4 -0.568287 1
gene 1 5 8 1.42993 0 5 1.42993 1
gene 3 6 8 0.848007 0 6 0.848007 1
gene 2 7 8 -1.97351 0 7 -1.97351 1
gene 1 2 19 2.66006 0 28 2.66006 0
gene 1 19 8 1.08552 0 29 1.08552 1
gene 1 7 19 0.814594 0 32 0.814594 1
gene 1 5 19 0.854985 0 97 0.854985 1
gene 1 2 50 1 0 121 0 1
gene 1 50 19 2.66006 0 122 0 1
gene 2 4 19 -0.586344 0 135 0 1
genomeend 104

/* Organism #105 Fitness: 17 Error: 0 */
genomestart 105
trait 1 0.1 0 0 0 0 0 0 0 
trait 2 0.110389 0 0 0 0 0 0 0 
trait 3 0.3 0 0 0 0 0 0 0 
node 1 3 1 1
node 2 3 1 1
node 3 2 1 1
node 4 3 1 1
node 5 2 1 1
node 6 3 1 1
node 7 2 1 3
node 8 1 0 2
node 19 1 0 0
node 50 1 0 0
gene 2 1 8 -2.42753 0 1 -2.42753 1
gene 1 2 8 0.804956 0 2 0.804956 0
gene 1 3 8 -3.43155 0 3 -3.43155 1
gene 2 4 8 0.731266 0 4 0.731266 1
gene 1 5 8 1.01995 0 5 1.01995 1
gene 3 6 8 1.38111 0 6 1.38111 1
gene 2 7 8 -0.736078 0 7 -0.736078 1
gene 1 2 19 1.51102 0 28 1.51102 0
gene 1 19 8 -0.57046 0 29 -0.57046 1
gene 1 7 19 1.9497 0 32 1.9497 1
gene 1 5 19 3.15797 0 97 3.15797 1
gene 1 2 50 1 0 121 1 1
gene 1 50 19 -0.0752979 0 122 -0.0752979 1
genomeend 105

/* Organism #106 Fitness: 29 Error: 0 */
genomestart 106
trait 1 0.1 0 0 0 0 0 0 0 
trait 2 0.110389 0 0 0 0 0 0 0 
trait 3 0.3 0 0 0 0 0 0 0 
node 1 3 1 1
node 2 3 1 1
node 3 2 1 1
node 4 3 1 1
node 5 2 1 1
node 6 3 1 1
node 7 2 1 3
node 8 1 0 2
node 19 1 0 0
node 50 1 0 0
gene 2 1 8 1.87466 0 1 1.87466 1
gene 1 2 8 1.15071 0 2 1.15071 0
gene 1 3 8 -2.34784 0 3 -2.34784 1
gene 2 4 8 -0.615215 0 4 -0.615215 1
gene 1 5 8 3.56631 0 5 3.56631 1
gene 3 6 8 1.08945 0 6 1.08945 1
gene 2 7 8 -3.22999 0 7 -3.22999 1
gene 1 2 19 0.903269 0 28 0.903269 0
gene 1 19 8 -1.04655 0 29 -1.04655 1
gene 1 7 19 0.16501 0 32 0.16501 1
gene 1 5 19 1.17112 0 97 1.17112 1
gene 1 2 50 -0.0197331 0 121 -0.0197331 1
gene 1 50 19 0.739806 0 122 0.739806 1
genomeend 106

/* Organism #107 Fitness: 29 Error: 0 */
genomestart 107
trait 1 0.1 0 0 0 0 0 0 0 
trait 2 0.110389 0 0 0 0 0 0 0 
trait 3 0.3 0 0 0 0 0 0 0 
node 1 3 1 1
node 2 3 1 1
node 3 2 1 1
node 4 3 1 1
node 5 2 1 1
node 6 3 1 1
node 7 2 1 3
node 8 1 0 2
node 19 1 0 0
node 50 1 0 0
gene 2 1 8 -1.10602 0 1 -1.10602 1
gene 1 2 8 0.850008 0 2 0.850008 0
gene 1 3 8 -1.34415 0 3 -1.34415 1
gene 2 4 8 -2.98836 0 4 -2.98836 1
gene 1 5 8 2.38513 0 5 2.38513 1
gene 3 6 8 0.892813 0 6 0.892813 1
gene 2 7 8 -1.22035 0 7 -1.22035 1
gene 1 2 19 4.12691 0 28 4.12691 0
gene 1 19 8 2.49702 0 29 2.49702 1
gene 1 7 19 3.1206 0 32 3.1206 1
gene 1 5 19 1.06046 0 97 1.06046 1
gene 1 2 50 1 0 121 1 1
gene 1 50 19 0.300302 0 122 0.300302 1
genomeend 107

/* Organism #108 Fitness: 9 Error: 0 */
genomestart 108
trait 1 0.1 0 0 0 0 0 0 0 
trait 2 0.110389 0 0 0 0 0 0 0 
trait 3 0.3 0 0 0 0 0 0 0 
node 1 3 1 1
node 2 3 1 1
node 3 2 1 1
node 4 3 1 1
node 5 2 1 1
node 6 3 1 1
node 7 2 1 3
node 8 1 0 2
node 19 1 0 0
node 50 1 0 0
gene 2 1 8 1.02369 0 1 1.02369 1
gene 1 2 8 -2.47471 0 2 -2.47471 0
gene 1 3 8 2.11615 0 3 2.11615 1
gene 2 4 8 0.63712 0 4 0.63712 1
gene 1 5 8 2.28368 0 5 2.28368 1
gene 3 6 8 -0.437756 0 6 -0.437756 1
gene 2 7 8 -1.80053 0 7 -1.80053 1
gene 1 2 19 -1.04035 0 28 -1.04035 0
gene 1 19 8 1.08552 0 29 1.08552 1
gene 1 7 19 -1.04415 0 32 -1.04415 1
gene 1 5 19 1.03832 0 97 1.03832 1
gene 1 2 50 2.04128 0 121 2.04128 1
gene 1 50 19 4.91252 0 122 4.91252 1
genomeend 108

/* Organism #109 Fitness: 5 Error: 0 */
genomestart 109
trait 1 0.1 0 0 0 0 0 0 0 
trait 2 0.110389 0 0 0 0 0 0 0 
trait 3 0.3 0 0 0 0 0 0 0 
node 1 3 1 1
node 2 3 1 1
node 3 2 1 1
node 4 3 1 1
node 5 2 1 1
node 6 3 1 1
node 7 2 1 3
node 8 1 0 2
node 19 1 0 0
node 50 1 0 0
gene 2 1 8 0.455381 0 1 0.455381 1
gene 1 2 8 0.615972 0 2 0.615972 0
gene 1 3 8 0.878328 0 3 0.878328 1
gene 2 4 8 -0.568287 0 4 -0.568287 1
gene 1 5 8 2.50919 0 5 2.50919 1
gene 3 6 8 0.0162799 0 6 0.0162799 1
gene 2 7 8 -2.21593 0 7 -2.21593 1
gene 1 2 19 2.2227 0 28 2.2227 0
gene 1 19 8 -0.621533 0 29 -0.621533 1
gene 2 7 19 0.942822 0 32 0.942822 1
gene 1 5 19 -1.67963 0 97 -1.67963 1
gene 1 2 50 0.606995 0 121 0.606995 1
gene 1 50 19 0.521261 0 122 0.521261 1
genomeend 109

/* Organism #110 Fitness: 11 Error: 0 */
genomestart 110
trait 1 0.1 0 0 0 0 0 0 0 
trait 2 0.110389 0 0 0 0 0 0 0 
trait 3 0.3 0 0 0 0 0 0 0 
node 1 3 1 1
node 2 3 1 1
node 3 2 1 1
node 4 3 1 1
node 5 2 1 1
node 6 3 1 1
node 7 2 1 3
node 8 1 0 2
node 19 1 0 0
node 50 1 0 0
gene 2 1 8 -2.44701 0 1 -2.44701 1
gene 1 2 8 -0.908302 0 2 -0.908302 0
gene 1 3 8 -2.04935 0 3 -2.04935 1
gene 2 4 8 -2.32583 0 4 -2.32583 1
gene 1 5 8 1.79796 0 5 1.79796 1
gene 3 6 8 -0.276132 0 6 -0.276132 1
gene 2 7 8 -1.82147 0 7 -1.82147 1
gene 1 2 19 2.89354 0 28 2.89354 0
gene 1 19 8 2.26136 0 29 2.26136 1
gene 1 7 19 0.394053 0 32 0.394053 1
gene 1 5 19 3.15535 0 97 3.15535 1
gene 1 2 50 2.55791 0 121 2.55791 1
gene 1 50 19 5.00032 0 122 5.00032 1
genomeend 110

/* Organism #111 Fitness: 5 Error: 0 */
genomestart 111
trait 1 0.1 0 0 0 0 0 0 0 
trait 2 0.110389 0 0 0 0 0 0 0 
trait 3 0.3 0 0 0 0 0 0 0 
node 1 3 1 1
node 2 3 1 1
node 3 2 1 1
node 4 3 1 1
node 5 2 1 1
node 6 3 1 1
node 7 2 1 3
node 8 1 0 2
node 19 1 0 0
node 50 1 0 0
gene 2 1 8 -0.0573339 0 1 -0.0573339 1
gene 1 2 8 1.31373 0 2 1.31373 0
gene 1 3 8 -2.37419 0 3 -2.37419 1
gene 2 4 8 -1.75867 0 4 -1.75867 1
gene 1 5 8 1.88563 0 5 1.88563 1
gene 3 6 8 -1.53395 0 6 -1.53395 1
gene 2 7 8 -2.17624 0 7 -2.17624 1
gene 1 2 19 1.0906 0 28 1.0906 0
gene 1 19 8 2.2722 0 29 2.2722 1
gene 1 7 19 0.452903 0 32 0.452903 1
gene 1 5 19 3.12517 0 97 3.12517 1
gene 1 2 50 -0.819662 0 121 -0.819662 1
gene 1 50 19 2.53596 0 122 2.53596 1
genomeend 111

/* Organism #112 Fitness: 31 Error: 0 */
genomestart 112
trait 1 0.1 0 0 0 0 0 0 0 
trait 2 0.110389 0 0 0 0 0 0 0 
trait 3 0.3 0 0 0 0 0 0 0 
node 1 3 1 1
node 2 3 1 1
node 3 2 1 1
node 4 3 1 1
node 5 2 1 1
node 6 3 1 1
node 7 2 1 3
node 8 1 0 2
node 19 1 0 0
node 50 1 0 0
gene 2 1 8 2.13535 0 1 2.13535 1
gene 1 2 8 1.25109 0 2 1.25109 0
gene 1 3 8 -0.923319 0 3 -0.923319 1
gene 2 4 8 1.21941 0 4 1.21941 1
gene 1 5 8 2.15333 0 5 2.15333 1
gene 3 6 8 2.22999 0 6 2.22999 1
gene 2 7 8 -3.40029 0 7 -3.40029 1
gene 1 2 19 2.98857 0 28 2.98857 0
gene 1 19 8 2.58699 0 29 2.58699 1
gene 1 7 19 2.84475 0 32 2.84475 1
gene 1 5 19 -0.642879 0 97 -0.642879 1
gene 1 2 50 1.78556 0 121 1.78556 1
gene 1 50 19 2.66006 0 122 2.66006 1
genomeend 112

/* Organism #113 Fitness: 5 Error: 0 */
genomestart 113
trait 1 0.1 0 0 0 0 0 0 0 
trait 2 0.110389 0 0 0 0 0 0 0 
trait 3 0.3 0 0 0 0 0 0 0 
node 1 3 1 1
node 2 3 1 1
node 3 2 1 1
node 4 3 1 1
node 5 2 1 1
node 6 3 1 1
node 7 2 1 3
node 8 1 0 2
node 19 1 0 0
node 50 1 0 0
gene 2 1 8 1.04022 0 1 1.04022 1
gene 1 2 8 -0.184184 0 2 -0.184184 0
gene 1 3 8 -1.83116 0 3 -1.83116 1
gene 2 4 8 -2.46449 0 4 -2.46449 1
gene 1 5 8 0.671831 0 5 0.671831 1
gene 3 6 8 0.156225 0 6 0.156225 1
gene 2 7 8 -1.80241 0 7 -1.80241 1
gene 1 2 19 1.95484 0 28 1.95484 0
gene 1 19 8 0.932573 0 29 0.932573 1
gene 1 7 19 2.08184 0 32 2.08184 1
gene 1 5 19 1.26463 0 97 1.26463 1
gene 1 2 50 3.30585 0 121 3.30585 1
gene 1 50 19 2.66006 0 122 2.66006 1
genomeend 113

/* Organism #114 Fitness: 20 Error: 0 */
genomestart 114
trait 1 0.1 0 0 0 0 0 0 0 
trait 2 0.110389 0 0 0 0 0 0 0 
trait 3 0.3 0 0 0 0 0 0 0 
node 1 3 1 1
node 2 3 1 1
node 3 2 1 1
node 4 3 1 1
node 5 2 1 1
node 6 3 1 1
node 7 2 1 3
node 8 1 0 2
node 19 1 0 0
node 50 1 0 0
gene 2 1 8 -0.942918 0 1 -0.942918 1
gene 1 2 8 -0.802386 0 2 -0.802386 0
gene 1 3 8 -0.21231 0 3 -0.21231 1
gene 2 4 8 1.20673 0 4 1.20673 1
gene 1 5 8 2.69177 0 5 2.69177 1
gene 3 6 8 2.95263 0 6 2.95263 1
gene 2 7 8 -2.83946 0 7 -2.83946 1
gene 1 2 19 0.321839 0 28 0.321839 0
gene 1 19 8 -1.04381 0 29 -1.04381 1
gene 1 7 19 -0.00393504 0 32 -0.00393504 1
gene 1 5 19 1.06977 0 97 1.06977 1
gene 1 2 50 -0.9898 0 121 -0.9898 1
gene 1 50 19 2.66006 0 122 2.66006 1
genomeend 114

/* Organism #115 Fitness: 17 Error: 0 */
genomestart 115
trait 1 0.1 0 0 0 0 0 0 0 
trait 2 0.110389 0 0 0 0 0 0 0 
trait 3 0.3 0 0 0 0 0 0 0 
node 1 3 1 1
node 2 3 1 1
node 3 2 1 1
node 4 3 1 1
node 5 2 1 1
node 6 3 1 1
node 7 2 1 3
node 8 1 0 2
node 19 1 0 0
node 50 1 0 0
gene 2 1 8 -0.574815 0 1 -0.574815 1
gene 1 2 8 -1.98474 0 2 -1.98474 0
gene 1 3 8 0.186549 0 3 0.186549 1
gene 2 4 8 0.708378 0 4 0.708378 1
gene 1 5 8 0.554539 0 5 0.554539 1
gene 3 6 8 3.11978 0 6 3.11978 1
gene 2 7 8 -2.29909 0 7 -2.29909 1
gene 1 2 19 1.28529 0 28 1.28529 0
gene 1 19 8 -0.611286 0 29 -0.611286 1
gene 1 7 19 -0.155584 0 32 -0.155584 1
gene 1 5 19 3.15268 0 97 3.15268 1
gene 1 2 50 2.07436 0 121 2.07436 1
gene 1 50 19 2.66006 0 122 2.66006 1
genomeend 115

/* Organism #116 Fitness: 5 Error: 0 */
genomestart 116
trait 1 0.1 0 0 0 0 0 0 0 
trait 2 0.110389 0 0 0 0 0 0 0 
trait 3 0.3 0 0 0.589361 0 0 0 0 
node 1 3 1 1
node 2 3 1 1
node 3 2 1 1
node 4 3 1 1
node 5 2 1 1
node 6 3 1 1
node 7 2 1 3
node 8 1 0 2
node 19 1 0 0
node 50 1 0 0
gene 2 1 8 0.629207 0 1 0.629207 1
gene 1 2 8 1.28354 0 2 1.28354 0
gene 1 3 8 -1.24877 0 3 -1.24877 1
gene 2 4 8 -1.99608 0 4 -1.99608 1
gene 1 5 8 3.3219 0 5 3.3219 1
gene 3 6 8 -0.917129 0 6 -0.917129 1
gene 2 7 8 -1.67835 0 7 -1.67835 1
gene 1 2 19 4.66623 0 28 4.66623 0
gene 1 19 8 0.612248 0 29 0.612248 1
gene 1 7 19 -0.814218 0 32 -0.814218 1
gene 1 5 19 1.14173 0 97 1.14173 1
gene 1 2 50 2.71454 0 121 2.71454 1
gene 1 50 19 1.19584 0 122 1.19584 1
genomeend 116

/* Organism #117 Fitness: 7 Error: 0 */
genomestart 117
trait 1 0.1 0 0 0 0 0 0 0 
trait 2 0.110389 0 0 0 0 0 0 0 
trait 3 0.3 0 0 0 0 0 0 0 
node 1 3 1 1
node 2 3 1 1
node 3 2 1 1
node 4 3 1 1
node 5 2 1 1
node 6 3 1 1
node 7 2 1 3
node 8 1 0 2
node 19 1 0 0
node 50 1 0 0
gene 2 1 8 1.28455 0 1 1.28455 1
gene 1 2 8 -0.802273 0 2 -0.802273 0
gene 1 3 8 -2.438 0 3 -2.438 1
gene 2 4 8 -2.65666 0 4 -2.65666 1
gene 1 5 8 2.85604 0 5 2.85604 1
gene 3 6 8 -0.66249 0 6 -0.66249 1
gene 2 7 8 -0.643031 0 7 -0.643031 1
gene 1 2 19 4.37625 0 28 4.37625 0
gene 1 19 8 2.53922 0 29 2.53922 1
gene 1 7 19 1.42568 0 32 1.42568 1
gene 1 5 19 3.34685 0 97 3.34685 1
gene 1 2 50 3.08024 0 121 3.08024 1
gene 1 50 19 -0.575125 0 122 -0.575125 1
genomeend 117

/* Organism #118 Fitness: 8 Error: 0 */
genomestart 118
trait 1 0.1 0 0 0 0 0 0 0 
trait 2 0.110389 0 0 0 0 0 0 0 
trait 3 0.3 0 0 0 0 0 0 0 
node 1 3 1 1
node 2 3 1 1
node 3 2 1 1
node 4 3 1 1
node 5 2 1 1
node 6 3 1 1
node 7 2 1 3
node 8 1 0 2
node 19 1 0 0
node 50 1 0 0
gene 2 1 8 2.08434 0 1 2.08434 1
gene 1 2 8 0.799511 0 2 0.799511 0
gene 1 3 8 -0.915046 0 3 -0.915046 1
gene 2 4 8 -1.64499 0 4 -1.64499 1
gene 1 5 8 -0.859483 0 5 -0.859483 1
gene 3 6 8 0.67549 0 6 0.67549 1
gene 2 7 8 -1.02768 0 7 -1.02768 1
gene 1 2 19 2.74766 0 28 2.74766 0
gene 1 19 8 2.26268 0 29 2.26268 1
gene 3 7 19 1.00975 0 32 1.00975 1
gene 1 5 19 -0.186967 0 97 -0.186967 1
gene 1 2 50 3.11866 0 121 3.11866 1
gene 1 50 19 1.18756 0 122 1.18756 1
genomeend 118

/* Organism #119 Fitness: 19 Error: 0 */
genomestart 119
trait 1 0.1 0 0 0 0 0 0 0 
trait 2 0.110389 0 0 0 0 0 0 0 
trait 3 0.3 0 0 0 0 0 0 0 
node 1 3 1 1
node 2 3 1 1
node 3 2 1 1
node 4 3 1 1
node 5 2 1 1
node 6 3 1 1
node 7 2 1 3
node 8 1 0 2
node 19 1 0 0
node 50 1 0 0
gene 2 1 8 0.421685 0 1 0.421685 1
gene 1 2 8 0.966864 0 2 0.966864 0
gene 1 3 8 -3.20004 0 3 -3.20004 1
gene 2 4 8 1.36819 0 4 1.36819 1
gene 1 5 8 -0.86625 0 5 -0.86625 1
gene 3 6 8 2.40369 0 6 2.40369 1
gene 2 7 8 -1.45694 0 7 -1.45694 1
gene 1 2 19 1.67657 0 28 1.67657 0
gene 1 19 8 2.95595 0 29 2.95595 1
gene 1 7 19 2.75786 0 32 2.75786 1
gene 1 5 19 1.20724 0 97 1.20724 1
gene 1 2 50 -1.28873 0 121 -1.28873 1
gene 1 50 19 1.82027 0 122 1.82027 1
genomeend 119

/* Organism #120 Fitness: 7 Error: 0 */
genomestart 120
trait 1 0.1 0 0 0 0 0 0 0 
trait 2 0.110389 0 0 0 0 0 0 0 
trait 3 0.3 0 0 0 0 0 0 0 
node 1 3 1 1
node 2 3 1 1
node 3 2 1 1
node 4 3 1 1
node 5 2 1 1
node 6 3 1 1
node 7 2 1 3
node 8 1 0 2
node 19 1 0 0
node 50 1 0 0
gene 2 1 8 1.41006 0 1 1.41006 1
gene 1 2 8 0.940075 0 2 0.940075 0
gene 1 3 8 -0.439083 0 3 -0.439083 1
gene 2 4 8 -1.98583 0 4 -1.98583 1
gene 1 5 8 -0.502863 0 5 -0.502863 1
gene 3 6 8 0.436137 0 6 0.436137 1
gene 2 7 8 -2.09056 0 7 -2.09056 1
gene 1 2 19 2.08458 0 28 2.08458 0
gene 1 19 8 3.5095 0 29 3.5095 1
gene 1 7 19 2.24526 0 32 2.24526 1
gene 1 5 19 1.40501 0 97 1.40501 1
gene 1 2 50 1 0 121 1 1
gene 1 50 19 1.07949 0 122 1.07949 1
genomeend 120

/* Organism #121 Fitness: 53 Error: 0 */
genomestart 121
trait 1 0.1 0 0 0 0 0 0 0 
trait 2 0.110389 0 0 0 0 0 0 0 
trait 3 0.3 0 0 0 0 0 0 0 
node 1 3 1 1
node 2 3 1 1
node 3 2 1 1
node 4 3 1 1
node 5 2 1 1
node 6 3 1 1
node 7 2 1 3
node 8 1 0 2
node 19 1 0 0
node 50 1 0 0
gene 2 1 8 1.77593 0 1 1.77593 1
gene 1 2 8 1.7448 0 2 1.7448 0
gene 1 3 8 -0.657835 0 3 -0.657835 1
gene 2 4 8 -2.64645 0 4 -2.64645 1
gene 1 5 8 2.73 0 5 2.73 1
gene 3 6 8 2.39336 0 6 2.39336 1
gene 2 7 8 -1.28428 0 7 -1.28428 1
gene 1 2 19 1.77013 0 28 1.77013 0
gene 1 19 8 0.109551 0 29 0.109551 1
gene 1 7 19 1.01367 0 32 1.01367 1
gene 1 5 19 -0.241642 0 97 -0.241642 1
gene 1 2 50 1 0 121 1 1
gene 1 50 19 1.22397 0 122 1.22397 1
genomeend 121

/* Species #13 : (Size 6) (AF 37.5) (Age 2)  */


/* Organism #122 Fitness: 32 Error: 0 */
genomestart 122
trait 1 0.084375 0 0 0.011463 0.0163967 0.0993312 0.118593 0 
trait 2 0.17986 0 0 0 0 0 0 0 
trait 3 0.3 0 0 0.049705 0.090594 0 0 0 
node 1 3 1 1
node 2 1 1 1
node 3 2 1 1
node 4 1 1 1
node 5 1 1 1
node 6 1 1 1
node 7 1 1 3
node 8 3 0 2
node 24 1 0 0
gene 2 1 8 -3.60186 0 1 -3.60186 0
gene 2 2 8 1.28984 0 2 1.28984 1
gene 3 3 8 -3.25399 0 3 -3.25399 1
gene 3 4 8 1.25284 0 4 1.25284 1
gene 3 5 8 5.99229 0 5 5.99229 1
gene 3 6 8 3.76316 0 6 3.76316 1
gene 2 7 8 0.604666 0 7 0.604666 1
gene 2 1 24 2.91529 0 39 2.91529 1
gene 2 24 8 1.53086 0 40 1.53086 1
gene 1 2 24 -1.4139 0 60 -1.4139 1
gene 1 4 24 2.31893 0 100 2.31893 1
genomeend 122

/* Organism #123 Fitness: 31 Error: 0 */
genomestart 123
trait 1 0.084375 0 0 0.011463 0.0163967 0.0993312 0.118593 0 
trait 2 0.17986 0 0 0 0 0 0 0 
trait 3 0.3 0 0 0.049705 0.090594 0 0 0 
node 1 3 1 1
node 2 1 1 1
node 3 2 1 1
node 4 1 1 1
node 5 1 1 1
node 6 1 1 1
node 7 1 1 3
node 8 3 0 2
node 24 1 0 0
node 55 1 0 0
gene 2 1 8 -3.60186 0 1 -3.60186 0
gene 2 2 8 1.28984 0 2 1.28984 1
gene 3 3 8 -3.25399 0 3 -3.25399 1
gene 3 4 8 1.25284 0 4 1.25284 1
gene 3 5 8 5.99229 0 5 5.99229 1
gene 3 6 8 3.76316 0 6 3.76316 1
gene 2 7 8 0.604666 0 7 0.604666 1
gene 2 1 24 2.91529 0 39 2.91529 1
gene 2 24 8 1.53086 0 40 1.53086 0
gene 1 2 24 -1.4139 0 60 -1.4139 1
gene 1 4 24 2.31893 0 100 2.31893 1
gene 2 24 55 1 0 140 0 1
gene 2 55 8 1.53086 0 141 0 1
genomeend 123

/* Organism #124 Fitness: 49 Error: 0 */
genomestart 124
trait 1 0.084375 0 0 0.011463 0.0163967 0.0993312 0.118593 0 
trait 2 0.17986 0 0 0 0 0 0 0 
trait 3 0.3 0 0 0.049705 0.090594 0 0 0 
node 1 3 1 1
node 2 1 1 1
node 3 2 1 1
node 4 1 1 1
node 5 1 1 1
node 6 1 1 1
node 7 1 1 3
node 8 3 0 2
node 24 1 0 0
gene 2 1 8 -2.30441 0 1 -2.30441 0
gene 2 2 8 -0.252277 0 2 -0.252277 1
gene 3 3 8 -1.07384 0 3 -1.07384 1
gene 3 4 8 1.69547 0 4 1.69547 1
gene 3 5 8 5.65319 0 5 5.65319 1
gene 3 6 8 6.25397 0 6 6.25397 1
gene 2 7 8 -1.72658 0 7 -1.72658 1
gene 2 1 24 1.2882 0 39 1.2882 1
gene 2 24 8 0.283698 0 40 0.283698 1
gene 1 2 24 -1.4139 0 60 -1.4139 1
gene 1 4 24 2.31893 0 100 2.31893 1
genomeend 124

/* Organism #125 Fitness: 40 Error: 0 */
genomestart 125
trait 1 0.084375 0 0 0.011463 0.0163967 0.0993312 0.118593 0 
trait 2 0.17986 0 0 0 0 0 0 0 
trait 3 0.3 0 0 0.049705 0.090594 0 0 0 
node 1 3 1 1
node 2 1 1 1
node 3 2 1 1
node 4 1 1 1
node 5 1 1 1
node 6 1 1 1
node 7 1 1 3
node 8 3 0 2
node 24 1 0 0
gene 2 1 8 -4.24467 0 1 -4.24467 0
gene 2 2 8 3.63381 0 2 3.63381 1
gene 3 3 8 -2.60124 0 3 -2.60124 1
gene 3 4 8 0.306676 0 4 0.306676 1
gene 3 5 8 6.27058 0 5 6.27058 1
gene 3 6 8 4.29057 0 6 4.29057 1
gene 2 7 8 0.257528 0 7 0.257528 1
gene 2 1 24 4.11537 0 39 4.11537 1
gene 2 24 8 1.58009 0 40 1.58009 1
gene 1 2 24 -3.8071 0 60 -3.8071 1
gene 1 4 24 3.23185 0 100 3.23185 1
genomeend 125

/* Organism #126 Fitness: 46 Error: 0 */
genomestart 126
trait 1 0.084375 0 0 0.011463 0.0163967 0.0993312 0.118593 0 
trait 2 0.17986 0 0 0 0 0 0 0 
trait 3 0.3 0 0 0.049705 0.090594 0 0 0 
node 1 3 1 1
node 2 2 1 1
node 3 2 1 1
node 4 1 1 1
node 5 1 1 1
node 6 1 1 1
node 7 1 1 3
node 8 3 0 2
node 24 1 0 0
gene 2 1 8 -5.38327 0 1 -5.38327 0
gene 2 2 8 1.28984 0 2 1.28984 1
gene 3 3 8 -2.58054 0 3 -2.58054 1
gene 3 4 8 -0.72268 0 4 -0.72268 1
gene 3 5 8 6.60817 0 5 6.60817 1
gene 3 6 8 2.23435 0 6 2.23435 1
gene 2 7 8 -1.60395 0 7 -1.60395 1
gene 2 1 24 -0.444606 0 39 -0.444606 1
gene 2 24 8 1.45888 0 40 1.45888 1
gene 1 2 24 -0.397265 0 60 -0.397265 1
gene 1 4 24 -0.0175075 0 100 -0.0175075 1
genomeend 126

/* Organism #127 Fitness: 27 Error: 0 */
genomestart 127
trait 1 0.084375 0 0 0.011463 0.0163967 0.0993312 0.118593 0 
trait 2 0.17986 0 0 0 0 0 0 0 
trait 3 0.3 0 0 0.049705 0.090594 0 0 0 
node 1 3 1 1
node 2 1 1 1
node 3 2 1 1
node 4 1 1 1
node 5 1 1 1
node 6 1 1 1
node 7 1 1 3
node 8 3 0 2
node 24 1 0 0
gene 2 1 8 -2.08017 0 1 -2.08017 0
gene 2 2 8 0.000146064 0 2 0.000146064 1
gene 3 3 8 -3.86721 0 3 -3.86721 1
gene 3 4 8 2.39541 0 4 2.39541 1
gene 3 5 8 7.87427 0 5 7.87427 1
gene 3 6 8 4.62199 0 6 4.62199 1
gene 2 7 8 2.22176 0 7 2.22176 1
gene 2 1 24 1.27678 0 39 1.27678 1
gene 2 24 8 3.86423 0 40 3.86423 1
gene 1 2 24 -0.162997 0 60 -0.162997 1
gene 1 4 24 3.10325 0 100 3.10325 1
genomeend 127

/* Species #14 : (Size 7) (AF 13) (Age 2)  */


/* Organism #128 Fitness: 29 Error: 0 */
genomestart 128
trait 1 0.0875 0 0 0.00917042 0 0.0744408 0.0948746 0 
trait 2 0.2 0 0 0 0 0 0 0 
trait 3 0.3 0 0 0 0 0 0 0 
node 1 3 1 1
node 2 3 1 1
node 3 2 1 1
node 4 1 1 1
node 5 2 1 1
node 6 2 1 1
node 7 2 1 3
node 8 1 0 2
node 19 1 0 0
node 23 1 0 0
node 32 1 0 0
gene 2 1 8 -1.06599 0 1 -1.06599 1
gene 1 2 8 -1.8681 0 2 -1.8681 1
gene 1 3 8 -1.79184 0 3 -1.79184 1
gene 2 4 8 -3.66963 0 4 -3.66963 1
gene 1 5 8 5.69565 0 5 5.69565 1
gene 3 6 8 3.05819 0 6 3.05819 0
gene 2 7 8 0.439304 0 7 0.439304 1
gene 1 2 19 3.78054 0 28 3.78054 1
gene 1 19 8 -0.961657 0 29 -0.961657 1
gene 1 3 23 -1.65263 0 37 -1.65263 1
gene 1 23 8 -2.68739 0 38 -2.68739 1
gene 3 6 32 1.36734 0 66 1.36734 1
gene 3 32 8 2.39136 0 67 2.39136 1
gene 3 1 23 0.206058 0 76 0.206058 1
gene 1 1 32 -0.0141408 0 117 -0.0141408 1
gene 3 19 23 -0.595362 0 127 -0.595362 1
genomeend 128

/* Organism #129 Fitness: 5 Error: 0 */
genomestart 129
trait 1 0.0875 0 0 0.00917042 0 0.0744408 0.0948746 0 
trait 2 0.2 0 0 0 0 0 0 0 
trait 3 0.3 0 0 0 0 0 0 0 
node 1 3 1 1
node 2 3 1 1
node 3 2 1 1
node 4 1 1 1
node 5 2 1 1
node 6 2 1 1
node 7 2 1 3
node 8 1 0 2
node 19 1 0 0
node 23 1 0 0
node 32 1 0 0
gene 2 1 8 -1.06599 0 1 -1.06599 1
gene 1 2 8 0.293248 0 2 0.293248 1
gene 1 3 8 -3.02025 0 3 -3.02025 1
gene 2 4 8 -0.361499 0 4 -0.361499 1
gene 1 5 8 3.92946 0 5 3.92946 1
gene 3 6 8 2.26226 0 6 2.26226 0
gene 2 7 8 2.34514 0 7 2.34514 1
gene 1 2 19 1.97511 0 28 1.97511 1
gene 1 19 8 1.35659 0 29 1.35659 1
gene 1 3 23 -3.12626 0 37 -3.12626 1
gene 1 23 8 -2.69838 0 38 -2.69838 1
gene 3 6 32 3.27452 0 66 3.27452 1
gene 3 32 8 2.81183 0 67 2.81183 1
gene 3 1 23 0.206058 0 76 0.206058 1
gene 1 1 32 0.543281 0 117 0.543281 1
gene 3 19 23 -0.595362 0 127 -0.595362 1
genomeend 129

/* Organism #130 Fitness: 15 Error: 0 */
genomestart 130
trait 1 0.0875 0 0 0.00917042 0 0.0744408 0.0948746 0 
trait 2 0.2 0 0 0 0 0 0 0 
trait 3 0.3 0 0 0 0 0 0 0 
node 1 3 1 1
node 2 3 1 1
node 3 2 1 1
node 4 1 1 1
node 5 2 1 1
node 6 2 1 1
node 7 2 1 3
node 8 1 0 2
node 19 1 0 0
node 23 1 0 0
node 32 1 0 0
gene 2 1 8 -0.694569 0 1 -0.694569 1
gene 1 2 8 -0.071897 0 2 -0.071897 1
gene 1 3 8 -1.40951 0 3 -1.40951 1
gene 2 4 8 -3.8665 0 4 -3.8665 1
gene 1 5 8 5.32274 0 5 5.32274 1
gene 3 6 8 0.743063 0 6 0.743063 0
gene 2 7 8 -0.0532726 0 7 -0.0532726 1
gene 1 2 19 3.78054 0 28 3.78054 1
gene 1 19 8 0.185016 0 29 0.185016 1
gene 1 3 23 -2.41434 0 37 -2.41434 1
gene 1 23 8 0.155628 0 38 0.155628 1
gene 3 6 32 0.959426 0 66 0.959426 1
gene 3 32 8 -0.0673738 0 67 -0.0673738 1
gene 3 1 23 0.147305 0 76 0.147305 1
gene 1 1 32 -0.813639 0 117 -0.813639 1
gene 3 19 23 -2.00911 0 127 -2.00911 1
genomeend 130

/* Organism #131 Fitness: 7 Error: 0 */
genomestart 131
trait 1 0.0875 0 0 0.00917042 0 0.0744408 0.0948746 0 
trait 2 0.2 0 0 0 0 0 0 0 
trait 3 0.3 0 0 0 0 0 0 0 
node 1 3 1 1
node 2 3 1 1
node 3 2 1 1
node 4 1 1 1
node 5 2 1 1
node 6 2 1 1
node 7 2 1 3
node 8 1 0 2
node 19 1 0 0
node 23 1 0 0
node 32 1 0 0
gene 2 1 8 0.419621 0 1 0.419621 1
gene 1 2 8 -1.8681 0 2 -1.8681 1
gene 1 3 8 -1.01355 0 3 -1.01355 1
gene 2 4 8 -5.01059 0 4 -5.01059 1
gene 1 5 8 5.69565 0 5 5.69565 1
gene 3 6 8 2.79578 0 6 2.79578 0
gene 2 7 8 0.974704 0 7 0.974704 1
gene 1 2 19 5.52082 0 28 5.52082 1
gene 1 19 8 -3.16477 0 29 -3.16477 1
gene 1 3 23 -0.340021 0 37 -0.340021 1
gene 1 23 8 -2.35094 0 38 -2.35094 1
gene 3 6 32 -0.648579 0 66 -0.648579 1
gene 3 32 8 3.99465 0 67 3.99465 1
gene 3 1 23 1.25804 0 76 1.25804 1
gene 1 1 32 -0.0141408 0 117 -0.0141408 1
gene 3 19 23 -1.66165 0 127 -1.66165 1
genomeend 131

/* Organism #132 Fitness: 5 Error: 0 */
genomestart 132
trait 1 0.0875 0 0 0.00917042 0 0.0744408 0.0948746 0 
trait 2 0.2 0 0 0 0 0 0 0 
trait 3 0.3 0 0 0 0 0 0 0 
node 1 3 1 1
node 2 3 1 1
node 3 2 1 1
node 4 1 1 1
node 5 2 1 1
node 6 2 1 1
node 7 1 1 3
node 8 1 0 2
node 19 1 0 0
node 23 1 0 0
node 32 1 0 0
gene 2 1 8 0.798379 0 1 0.798379 1
gene 1 2 8 1.38029 0 2 1.38029 1
gene 1 3 8 -1.30826 0 3 -1.30826 1
gene 2 4 8 -1.74162 0 4 -1.74162 1
gene 1 5 8 0.30172 0 5 0.30172 1
gene 3 6 8 -1.96337 0 6 -1.96337 0
