
/* Species #1 : (Size 15) (AF 57.9333) (Age 10)  */


/* Organism #0 Fitness: 320 Error: 0 */
genomestart 0
trait 1 0.1 0 0 0 0 0 0 0 
trait 2 0.2 0 0 0 0 0 0 0 
trait 3 0.3 0 0 0 0 0 0 0 
node 1 3 1 1
node 2 3 1 1
node 3 1 1 1
node 4 2 1 1
node 5 3 1 1
node 6 2 1 1
node 7 3 1 3
node 8 2 0 2
gene 1 1 8 0.106909 0 1 0.106909 1
gene 3 2 8 -0.271304 0 2 -0.271304 1
gene 1 3 8 -2.73612 0 3 -2.73612 1
gene 3 4 8 -2.04163 0 4 -2.04163 1
gene 2 5 8 1.58456 0 5 1.58456 1
gene 1 6 8 0.865191 0 6 0.865191 1
gene 1 7 8 -0.168206 0 7 -0.168206 1
genomeend 0

/* Organism #1 Fitness: 28 Error: 0 */
genomestart 1
trait 1 0.0867188 0 0 0.00974357 0.0136639 0.0843268 0.100804 0 
trait 2 0.187499 0 0 0 0 0 0 0 
trait 3 0.3 0 0 0.0414208 0.075495 0 0 0 
node 1 3 1 1
node 2 1 1 1
node 3 2 1 1
node 4 1 1 1
node 5 1 1 1
node 6 1 1 1
node 7 1 1 3
node 8 3 0 2
node 24 1 0 0
gene 1 1 8 -1.7449 0 1 -1.7449 1
gene 2 2 8 0.475426 0 2 0.475426 1
gene 1 3 8 0.192011 0 3 0.192011 1
gene 2 4 8 1.4899 0 4 1.4899 1
gene 3 5 8 4.84662 0 5 4.84662 1
gene 3 6 8 0.870186 0 6 0.870186 1
gene 2 7 8 1.72152 0 7 1.72152 1
gene 2 1 24 0.634292 0 39 0.634292 1
gene 2 24 8 0.437452 0 40 0.437452 1
genomeend 1

/* Organism #2 Fitness: 48 Error: 0 */
genomestart 2
trait 1 0.208066 0 0.0264806 0.206173 0.0136639 0.105263 0.133417 0 
trait 2 0.184548 0 0 0 0 0 0 0 
trait 3 0.3 0 0 0.0414208 0.075495 0 0 0 
node 1 3 1 1
node 2 3 1 1
node 3 2 1 1
node 4 1 1 1
node 5 2 1 1
node 6 3 1 1
node 7 3 1 3
node 8 1 0 2
gene 2 1 8 -0.443318 0 1 -0.443318 1
gene 1 2 8 0.390138 0 2 0.390138 1
gene 1 3 8 -1.71281 0 3 -1.71281 1
gene 3 4 8 -4.43268 0 4 -4.43268 1
gene 3 5 8 3.93951 0 5 3.93951 1
gene 3 6 8 5.04393 0 6 5.04393 1
gene 2 7 8 -1.36695 0 7 -1.36695 1
genomeend 2

/* Organism #3 Fitness: 58 Error: 0 */
genomestart 3
trait 1 0 0.764199 0.0264806 0.842907 0.0136639 0 0.106734 0 
trait 2 0.186457 0 0 0 0 0 0 0 
trait 3 0.3 0 0 0.0414208 0.075495 0 0 0 
node 1 3 1 1
node 2 1 1 1
node 3 2 1 1
node 4 1 1 1
node 5 1 1 1
node 6 1 1 1
node 7 1 1 3
node 8 3 0 2
gene 2 1 8 2.7814 0 1 2.7814 1
gene 2 2 8 -0.365913 0 2 -0.365913 1
gene 1 3 8 -1.83423 0 3 -1.83423 1
gene 3 4 8 1.31824 0 4 1.31824 1
gene 3 5 8 5.60673 0 5 5.60673 1
gene 3 6 8 2.11324 0 6 2.11324 1
gene 1 7 8 -1.35834 0 7 -1.35834 1
genomeend 3

/* Organism #4 Fitness: 5 Error: 0 */
genomestart 4
trait 1 0.272451 0 0.0397209 0.301666 0.0136639 0.0936319 0.121558 0 
trait 2 0.191318 0 0 0 0 0 0 0 
trait 3 0.3 0 0 0.0414208 0.075495 0 0 0 
node 1 3 1 1
node 2 3 1 1
node 3 2 1 1
node 4 1 1 1
node 5 2 1 1
node 6 3 1 1
node 7 3 1 3
node 8 1 0 2
gene 2 1 8 1.281 0 1 1.281 1
gene 1 2 8 -0.0770025 0 2 -0.0770025 1
gene 1 3 8 2.15055 0 3 2.15055 1
gene 3 4 8 -2.40175 0 4 -2.40175 1
gene 3 5 8 4.2547 0 5 4.2547 1
gene 3 6 8 -0.921746 0 6 -0.921746 1
gene 2 7 8 0.110067 0 7 0.110067 1
genomeend 4

/* Organism #5 Fitness: 30 Error: 0 */
genomestart 5
trait 1 0.338789 0 0.0529612 0.395725 0.0109311 0.0693225 0.0948746 0 
trait 2 0.193054 0 0 0 0 0 0 0 
trait 3 0.3 0 0 0.0331366 0.060396 0 0 0 
node 1 3 1 1
node 2 1 1 1
node 3 1 1 1
node 4 2 1 1
node 5 3 1 1
node 6 2 1 1
node 7 3 1 3
node 8 2 0 2
gene 2 1 8 1.4373 0 1 1.4373 1
gene 3 2 8 0.0274942 0 2 0.0274942 1
gene 1 3 8 0.52947 0 3 0.52947 1
gene 3 4 8 -0.418926 0 4 -0.418926 1
gene 1 5 8 3.88671 0 5 3.88671 1
gene 3 6 8 0.498532 0 6 0.498532 1
gene 1 7 8 1.26608 0 7 1.26608 1
genomeend 5

/* Organism #6 Fitness: 75 Error: 0 */
genomestart 6
trait 1 0.156572 0 0.0132403 0.101224 0.00819836 0.0380342 0.0474373 0 
trait 2 0.196701 0 0 0 0 0 0 0 
trait 3 0.3 0 0 0.0248525 0.045297 0 0 0 
node 1 3 1 1
node 2 3 1 1
node 3 2 1 1
node 4 1 1 1
node 5 2 1 1
node 6 3 1 1
node 7 3 1 3
node 8 1 0 2
gene 1 1 8 -1.97982 0 1 -1.97982 1
gene 2 2 8 1.54466 0 2 1.54466 1
gene 1 3 8 -2.73612 0 3 -2.73612 1
gene 3 4 8 -2.04163 0 4 -2.04163 1
gene 3 5 8 4.57813 0 5 4.57813 1
gene 3 6 8 2.92411 0 6 2.92411 1
gene 2 7 8 -0.239373 0 7 -0.239373 1
genomeend 6

/* Organism #7 Fitness: 17 Error: 0 */
genomestart 7
trait 1 0.149541 0 0.0132403 0.106382 0.0109311 0.0809539 0.100804 0 
trait 2 0.187326 0 0 0 0 0 0 0 
trait 3 0.3 0 0 0.0331366 0.060396 0 0 0 
node 1 3 1 1
node 2 3 1 1
node 3 2 1 1
node 4 1 1 1
node 5 2 1 1
node 6 3 1 1
node 7 2 1 3
node 8 2 0 2
gene 1 1 8 2.45872 0 1 2.45872 1
gene 2 2 8 1.32041 0 2 1.32041 1
gene 1 3 8 -3.44074 0 3 -3.44074 1
gene 3 4 8 -3.69623 0 4 -3.69623 1
gene 3 5 8 3.07026 0 5 3.07026 1
gene 3 6 8 0.452193 0 6 0.452193 1
gene 2 7 8 -0.321092 0 7 -0.321092 1
genomeend 7

/* Organism #8 Fitness: 5 Error: 0 */
genomestart 8
trait 1 0.208066 0 0.0264806 0.206173 0.0136639 0.105263 0.133417 0 
trait 2 0.184548 0 0 0 0 0 0 0 
trait 3 0.3 0 0 0.0414208 0.075495 0 0 0 
node 1 3 1 1
node 2 3 1 1
node 3 2 1 1
node 4 1 1 1
node 5 2 1 1
node 6 3 1 1
node 7 2 1 3
node 8 2 0 2
gene 2 1 8 0.743524 0 1 0.743524 1
gene 2 2 8 -0.925546 0 2 -0.925546 1
gene 1 3 8 -4.07935 0 3 -4.07935 1
gene 3 4 8 -3.58711 0 4 -3.58711 1
gene 3 5 8 0.211005 0 5 0.211005 1
gene 3 6 8 -0.287949 0 6 -0.287949 1
gene 2 7 8 -0.543514 0 7 -0.543514 1
genomeend 8

/* Organism #9 Fitness: 66 Error: 0 */
genomestart 9
trait 1 0.147588 0 0.0132403 0.107815 0.0136639 0.0936319 0.115628 0 
trait 2 0.19236 0 0 0 0 0 0 0 
trait 3 0.3 0 0 0.0414208 0.075495 0 0 0 
node 1 3 1 1
node 2 3 1 1
node 3 2 1 1
node 4 1 1 1
node 5 2 1 1
node 6 3 1 1
node 7 3 1 3
node 8 1 0 2
gene 1 1 8 -4.4709 0 1 -4.4709 1
gene 2 2 8 2.84088 0 2 2.84088 1
gene 1 3 8 -4.61748 0 3 -4.61748 1
gene 2 4 8 -0.733337 0 4 -0.733337 1
gene 3 5 8 5.00678 0 5 5.00678 1
gene 1 6 8 1.58433 0 6 1.58433 1
gene 2 7 8 0.49 0 7 0.49 1
genomeend 9

/* Organism #10 Fitness: 54 Error: 0 */
genomestart 10
trait 1 0.153057 0 0.0132403 0.103803 0.00819836 0.0589707 0.0741208 0 
trait 2 0.194791 0 0 0 0 0 0 0 
trait 3 0.3 0 0 0.0248525 0.045297 0 0 0 
node 1 3 1 1
node 2 3 1 1
node 3 3 1 1
node 4 1 1 1
node 5 2 1 1
node 6 3 1 1
node 7 3 1 3
node 8 1 0 2
gene 2 1 8 0.568367 0 1 0.568367 1
gene 3 2 8 0.216582 0 2 0.216582 1
gene 1 3 8 -2.29126 0 3 -2.29126 1
gene 3 4 8 -1.62121 0 4 -1.62121 1
gene 3 5 8 2.0954 0 5 2.0954 1
gene 3 6 8 1.89465 0 6 1.89465 1
gene 2 7 8 -0.0622545 0 7 -0.0622545 1
genomeend 10

/* Organism #11 Fitness: 36 Error: 0 */
genomestart 11
trait 1 0.213926 0 0.0264806 0.201875 0.0109311 0.0693225 0.088945 0 
trait 2 0.194096 0 0 0 0 0 0 0 
trait 3 0.3 0 0.0188537 0.0331366 0 0 0 0 
node 1 3 1 1
node 2 3 1 1
node 3 2 1 1
node 4 1 1 1
node 5 2 1 1
node 6 3 1 1
node 7 3 1 3
node 8 1 0 2
gene 1 1 8 -0.668585 0 1 -0.668585 1
gene 2 2 8 3.65805 0 2 3.65805 1
gene 1 3 8 -1.70528 0 3 -1.70528 1
gene 3 4 8 -2.0407 0 4 -2.0407 1
gene 1 5 8 0.422599 0 5 0.422599 1
gene 3 6 8 2.61951 0 6 2.61951 1
gene 1 7 8 -1.25019 0 7 -1.25019 1
genomeend 11

/* Organism #12 Fitness: 74 Error: 0 */
genomestart 12
trait 1 0.338789 0 0.0529612 0.395725 0.0109311 0.0693225 0.0948746 0 
trait 2 0.193054 0 0 0 0 0 0 0 
trait 3 0.3 0 0 0.0331366 0.060396 0 0 0 
node 1 3 1 1
node 2 3 1 1
node 3 1 1 1
node 4 2 1 1
node 5 3 1 1
node 6 2 1 1
node 7 3 1 3
node 8 2 0 2
gene 2 1 8 0.0269888 0 1 0.0269888 1
gene 3 2 8 -0.96781 0 2 -0.96781 1
gene 1 3 8 0.403897 0 3 0.403897 1
gene 3 4 8 -2.73065 0 4 -2.73065 1
gene 1 5 8 2.54604 0 5 2.54604 1
gene 3 6 8 1.0846 0 6 1.0846 1
gene 1 7 8 -0.726686 0 7 -0.726686 1
genomeend 12

/* Organism #13 Fitness: 47 Error: 0 */
genomestart 13
trait 1 0.147588 0 0.0132403 0.107815 0.0136639 0.0936319 0.115628 0 
trait 2 0.19236 0 0 0 0 0 0 0 
trait 3 0.3 0 0 0.0414208 0.075495 0 0 0 
node 1 3 1 1
node 2 3 1 1
node 3 2 1 1
node 4 1 1 1
node 5 2 1 1
node 6 3 1 1
node 7 3 1 3
node 8 1 0 2
gene 2 1 8 1.02983 0 1 1.02983 1
gene 2 2 8 1.32041 0 2 1.32041 1
gene 1 3 8 -1.8464 0 3 -1.8464 1
gene 3 4 8 -1.20079 0 4 -1.20079 1
gene 2 5 8 0.605414 0 5 0.605414 1
gene 3 6 8 2.92411 0 6 2.92411 1
gene 2 7 8 0.0436966 0 7 0.0436966 1
genomeend 13

/* Organism #14 Fitness: 6 Error: 0 */
genomestart 14
trait 1 0.342695 0 0.0529612 0.392859 0.00546557 0.0439663 0.0652263 0 
trait 2 0.182985 0 0 0 0 0 0 0 
trait 3 0.3 0 0 0.0165683 0.030198 0 0 0 
node 1 3 1 1
node 2 3 1 1
node 3 1 1 1
node 4 2 1 1
node 5 3 1 1
node 6 2 1 1
node 7 3 1 3
node 8 2 0 2
gene 1 1 8 1.44815 0 1 1.44815 1
gene 3 2 8 0.517727 0 2 0.517727 1
gene 1 3 8 -0.637973 0 3 -0.637973 1
gene 3 4 8 0.386239 0 4 0.386239 1
gene 1 5 8 2.38863 0 5 2.38863 1
gene 3 6 8 -0.358698 0 6 -0.358698 1
gene 1 7 8 -0.099481 0 7 -0.099481 1
genomeend 14

/* Species #2 : (Size 13) (AF 37) (Age 5)  */


/* Organism #15 Fitness: 125 Error: 0 */
genomestart 15
trait 1 0.1 0 0 0 0 0 0 0 
trait 2 0.2 0 0 0 0 0 0 0 
trait 3 0.3 0 0 0 0 0 0 0 
node 1 3 1 1
node 2 3 1 1
node 3 2 1 1
node 4 1 1 1
node 5 2 1 1
node 6 3 1 1
node 7 2 1 3
node 8 1 0 2
node 19 1 0 0
gene 2 1 8 -0.0395128 0 1 -0.0395128 1
gene 1 2 8 0.120067 0 2 0.120067 0
gene 1 3 8 -1.47632 0 3 -1.47632 1
gene 2 4 8 -0.568287 0 4 -0.568287 1
gene 1 5 8 1.42993 0 5 1.42993 1
gene 3 6 8 0.848007 0 6 0.848007 1
gene 2 7 8 -1.97351 0 7 -1.97351 1
gene 1 2 19 2.66006 0 28 2.66006 1
gene 1 19 8 1.08552 0 29 1.08552 1
gene 1 7 19 0.814594 0 32 0.814594 1
genomeend 15

/* Organism #16 Fitness: 32 Error: 0 */
genomestart 16
trait 1 0.1 0 0 0 0 0 0 0 
trait 2 0.2 0 0 0 0 0 0 0 
trait 3 0.3 0 0 0 0 0 0 0 
node 1 3 1 1
node 2 3 1 1
node 3 2 1 1
node 4 1 1 1
node 5 2 1 1
node 6 3 1 1
node 7 2 1 3
node 8 1 0 2
node 19 1 0 0
gene 2 1 8 -2.83593 0 1 -2.83593 1
gene 1 2 8 0.159821 0 2 0.159821 0
gene 1 3 8 -2.37512 0 3 -2.37512 1
gene 2 4 8 0.695813 0 4 0.695813 1
gene 1 5 8 1.35264 0 5 1.35264 1
gene 3 6 8 3.3575 0 6 3.3575 1
gene 2 7 8 0.330307 0 7 0.330307 1
gene 1 2 19 1.35562 0 28 1.35562 1
gene 1 19 8 0.120067 0 29 0.120067 1
gene 1 7 19 -0.729779 0 32 -0.729779 1
gene 2 3 19 -0.111314 0 42 -0.111314 1
genomeend 16

/* Organism #17 Fitness: 23 Error: 0 */
genomestart 17
trait 1 0.1 0 0 0 0 0 0 0 
trait 2 0.2 0 0 0 0 0 0 0 
trait 3 0.3 0 0 0 0 0 0 0 
node 1 3 1 1
node 2 3 1 1
node 3 2 1 1
node 4 1 1 1
node 5 2 1 1
node 6 3 1 1
node 7 2 1 3
node 8 1 0 2
node 19 1 0 0
gene 2 1 8 0.624378 0 1 0.624378 1
gene 1 2 8 0.923018 0 2 0.923018 0
gene 1 3 8 -1.90215 0 3 -1.90215 1
gene 2 4 8 0.663012 0 4 0.663012 1
gene 1 5 8 0.102136 0 5 0.102136 1
gene 3 6 8 3.04973 0 6 3.04973 1
gene 2 7 8 -1.87544 0 7 -1.87544 1
gene 1 2 19 2.20561 0 28 2.20561 1
gene 1 19 8 0.961587 0 29 0.961587 1
gene 1 7 19 0.301279 0 32 0.301279 1
gene 2 3 19 -0.111314 0 42 -0.111314 1
genomeend 17

/* Organism #18 Fitness: 8 Error: 0 */
genomestart 18
trait 1 0.1 0 0 0 0 0 0 0 
trait 2 0.2 0 0 0 0 0 0 0 
trait 3 0.3 0 0 0 0 0 0 0 
node 1 3 1 1
node 2 3 1 1
node 3 2 1 1
node 4 1 1 1
node 5 2 1 1
node 6 3 1 1
node 7 1 1 3
node 8 1 0 2
node 19 1 0 0
gene 2 1 8 1.76585 0 1 1.76585 1
gene 1 2 8 1.15548 0 2 1.15548 0
gene 1 3 8 -1.59789 0 3 -1.59789 1
gene 2 4 8 -3.15935 0 4 -3.15935 1
gene 1 5 8 -0.0865317 0 5 -0.0865317 1
gene 3 6 8 0.414943 0 6 0.414943 1
gene 2 7 8 0.0200704 0 7 0.0200704 1
gene 1 2 19 2.27987 0 28 2.27987 1
gene 1 19 8 1.9801 0 29 1.9801 1
gene 1 7 19 -0.329576 0 32 -0.329576 1
genomeend 18

/* Organism #19 Fitness: 5 Error: 0 */
genomestart 19
trait 1 0.740432 0.954932 0.941746 0 0 0 0 0.996569 
trait 2 0.2 0 0 0 0 0 0 0 
trait 3 0.3 0 0 0 0 0 0 0 
node 1 3 1 1
node 2 3 1 1
node 3 2 1 1
node 4 1 1 1
node 5 2 1 1
node 6 3 1 1
node 7 2 1 3
node 8 1 0 2
node 19 1 0 0
gene 2 1 8 -2.52405 0 1 -2.52405 1
gene 1 2 8 2.423 0 2 2.423 0
gene 1 3 8 0.165985 0 3 0.165985 1
gene 2 4 8 -2.49491 0 4 -2.49491 1
gene 1 5 8 1.97098 0 5 1.97098 1
gene 3 6 8 -1.85831 0 6 -1.85831 1
gene 2 7 8 1.80574 0 7 1.80574 1
gene 1 2 19 -1.2325 0 28 -1.2325 1
gene 1 19 8 -1.31705 0 29 -1.31705 1
gene 1 7 19 0.79281 0 32 0.79281 1
gene 2 1 19 -1.27296 0 41 -1.27296 1
genomeend 19

/* Organism #20 Fitness: 7 Error: 0 */
genomestart 20
trait 1 0.1 0 0 0 0 0 0 0 
trait 2 0.2 0 0 0 0 0 0 0 
trait 3 0.3 0 0 0 0 0 0 0 
node 1 3 1 1
node 2 3 1 1
node 3 2 1 1
node 4 1 1 1
node 5 2 1 1
node 6 3 1 1
node 7 2 1 3
node 8 1 0 2
node 19 1 0 0
gene 2 1 8 -0.279236 0 1 -0.279236 1
gene 1 2 8 4.03684 0 2 4.03684 0
gene 1 3 8 -0.236731 0 3 -0.236731 1
gene 2 4 8 -4.35161 0 4 -4.35161 1
gene 1 5 8 3.75126 0 5 3.75126 1
gene 3 6 8 0.0383257 0 6 0.0383257 1
gene 2 7 8 0.659511 0 7 0.659511 1
gene 1 2 19 0.0503323 0 28 0.0503323 1
gene 1 19 8 -1.55865 0 29 -1.55865 1
gene 1 7 19 0.79281 0 32 0.79281 1
gene 2 1 19 1.15006 0 41 1.15006 1
genomeend 20

/* Organism #21 Fitness: 29 Error: 0 */
genomestart 21
trait 1 0.1 0 0 0 0 0 0 0 
trait 2 0.2 0 0 0 0 0 0 0 
trait 3 0.3 0 0 0 0 0 0 0 
node 1 3 1 1
node 2 3 1 1
node 3 2 1 1
node 4 1 1 1
node 5 2 1 1
node 6 3 1 1
node 7 2 1 3
node 8 1 0 2
node 19 1 0 0
gene 2 1 8 1.18892 0 1 1.18892 1
gene 1 2 8 0.359274 0 2 0.359274 0
gene 1 3 8 -3.6504 0 3 -3.6504 1
gene 2 4 8 -0.568287 0 4 -0.568287 1
gene 1 5 8 0.329494 0 5 0.329494 1
gene 3 6 8 1.05348 0 6 1.05348 1
gene 2 7 8 -0.7507 0 7 -0.7507 1
gene 1 2 19 0.451614 0 28 0.451614 1
gene 1 19 8 0.120067 0 29 0.120067 1
gene 1 7 19 1.72529 0 32 1.72529 1
gene 2 1 19 -1.05122 0 41 -1.05122 1
genomeend 21

/* Organism #22 Fitness: 34 Error: 0 */
genomestart 22
trait 1 0.1 0 0 0 0 0 0 0 
trait 2 0.2 0 0 0 0 0 0 0 
trait 3 0.3 0 0 0 0 0 0 0 
node 1 3 1 1
node 2 3 1 1
node 3 2 1 1
node 4 1 1 1
node 5 2 1 1
node 6 3 1 1
node 7 2 1 3
node 8 1 0 2
node 19 1 0 0
gene 2 1 8 -2.17408 0 1 -2.17408 1
gene 1 2 8 -1.07479 0 2 -1.07479 0
gene 1 3 8 -0.294459 0 3 -0.294459 1
gene 2 4 8 0.274666 0 4 0.274666 1
gene 1 5 8 1.22007 0 5 1.22007 1
gene 3 6 8 1.08094 0 6 1.08094 1
gene 2 7 8 0.177073 0 7 0.177073 1
gene 1 2 19 4.80173 0 28 4.80173 1
gene 1 19 8 0.120067 0 29 0.120067 1
gene 1 7 19 0.124267 0 32 0.124267 1
genomeend 22

/* Organism #23 Fitness: 24 Error: 0 */
genomestart 23
trait 1 0.1 0 0 0 0 0 0 0 
trait 2 0.2 0 0 0 0 0 0 0 
trait 3 0.3 0 0 0 0 0 0 0 
node 1 3 1 1
node 2 3 1 1
node 3 2 1 1
node 4 1 1 1
node 5 2 1 1
node 6 3 1 1
node 7 2 1 3
node 8 1 0 2
node 19 1 0 0
gene 2 1 8 2.55953 0 1 2.55953 1
gene 1 2 8 2.31284 0 2 2.31284 0
gene 1 3 8 0.22979 0 3 0.22979 1
gene 2 4 8 -1.5175 0 4 -1.5175 1
gene 1 5 8 0.718027 0 5 0.718027 1
gene 3 6 8 1.83716 0 6 1.83716 1
gene 2 7 8 2.06158 0 7 2.06158 1
gene 1 2 19 4.26352 0 28 4.26352 1
gene 1 19 8 2.21594 0 29 2.21594 1
gene 1 7 19 -0.893868 0 32 -0.893868 1
gene 3 3 19 -0.628658 0 52 -0.628658 1
genomeend 23

/* Organism #24 Fitness: 47 Error: 0 */
genomestart 24
trait 1 0.1 0 0 0 0 0 0 0 
trait 2 0.2 0 0 0 0 0 0 0 
trait 3 0.3 0 0 0 0 0 0 0 
node 1 3 1 1
node 2 3 1 1
node 3 2 1 1
node 4 1 1 1
node 5 2 1 1
node 6 3 1 1
node 7 2 1 3
node 8 1 0 2
node 19 1 0 0
gene 2 1 8 -1.39092 0 1 -1.39092 1
gene 1 2 8 -1.85531 0 2 -1.85531 0
gene 1 3 8 -2.88695 0 3 -2.88695 1
gene 2 4 8 -2.9967 0 4 -2.9967 1
gene 1 5 8 3.09837 0 5 3.09837 1
gene 3 6 8 0.975486 0 6 0.975486 1
gene 2 7 8 -0.221936 0 7 -0.221936 1
gene 1 2 19 2.62968 0 28 2.62968 1
gene 1 19 8 1.15703 0 29 1.15703 1
gene 1 7 19 1.32693 0 32 1.32693 1
gene 3 3 19 -0.628658 0 52 -0.628658 1
genomeend 24

/* Organism #25 Fitness: 24 Error: 0 */
genomestart 25
trait 1 0.1 0 0 0 0 0 0 0 
trait 2 0.2 0 0 0 0 0 0 0 
trait 3 0.3 0 0 0 0 0 0 0 
node 1 3 1 1
node 2 3 1 1
node 3 2 1 1
node 4 1 1 1
node 5 2 1 1
node 6 3 1 1
node 7 2 1 3
node 8 1 0 2
node 19 1 0 0
gene 2 1 8 0.801469 0 1 0.801469 1
gene 1 2 8 0.120067 0 2 0.120067 1
gene 1 3 8 -1.47632 0 3 -1.47632 1
gene 2 4 8 1.90356 0 4 1.90356 1
gene 1 5 8 1.14113 0 5 1.14113 1
gene 3 6 8 2.96644 0 6 2.96644 1
gene 2 7 8 2.09063 0 7 2.09063 1
gene 1 2 19 -1.45922 0 28 -1.45922 1
gene 1 19 8 -2.24763 0 29 -2.24763 1
gene 1 7 19 -0.142194 0 32 -0.142194 1
gene 3 3 19 -1.4685 0 52 -1.4685 1
genomeend 25

/* Organism #26 Fitness: 109 Error: 0 */
genomestart 26
trait 1 0.1 0 0 0 0 0 0 0 
trait 2 0.2 0 0 0 0 0 0 0 
trait 3 0.3 0 0 0 0 0 0 0 
node 1 3 1 1
node 2 3 1 1
node 3 2 1 1
node 4 1 1 1
node 5 2 1 1
node 6 3 1 1
node 7 2 1 3
node 8 1 0 2
node 19 1 0 0
gene 2 1 8 -0.310725 0 1 -0.310725 1
gene 1 2 8 0.120067 0 2 0.120067 0
gene 1 3 8 -1.47632 0 3 -1.47632 1
gene 2 4 8 -0.568287 0 4 -0.568287 1
gene 1 5 8 1.42993 0 5 1.42993 1
gene 3 6 8 1.06329 0 6 1.06329 1
gene 2 7 8 -0.94022 0 7 -0.94022 1
gene 1 2 19 2.66006 0 28 2.66006 1
gene 1 19 8 0.602795 0 29 0.542761 1
gene 1 7 19 0.814594 0 32 0.814594 1
genomeend 26

/* Organism #27 Fitness: 14 Error: 0 */
genomestart 27
trait 1 0.1 0 0 0 0 0 0 0 
trait 2 0.2 0 0 0 0 0 0 0 
trait 3 0.3 0 0 0 0 0 0 0 
node 1 3 1 1
node 2 3 1 1
node 3 2 1 1
node 4 1 1 1
node 5 2 1 1
node 6 3 1 1
node 7 2 1 3
node 8 1 0 2
node 19 1 0 0
gene 2 1 8 -0.0395128 0 1 -0.0395128 1
gene 1 2 8 -1.8487 0 2 -1.8487 0
gene 1 3 8 0.372691 0 3 0.372691 1
gene 2 4 8 1.69947 0 4 1.69947 1
gene 1 5 8 -0.953743 0 5 -0.953743 1
gene 3 6 8 0.518289 0 6 0.518289 1
gene 2 7 8 0.310298 0 7 0.310298 1
gene 1 2 19 -1.07464 0 28 -1.07464 1
gene 1 19 8 -1.21209 0 29 -1.21209 1
gene 1 7 19 -1.41198 0 32 -1.41198 1
genomeend 27

/* Species #3 : (Size 11) (AF 34.5455) (Age 5)  */


/* Organism #28 Fitness: 64 Error: 0 */
genomestart 28
trait 1 0.0875 0 0 0.00917042 0 0.0744408 0.0948746 0 
trait 2 0.2 0 0 0 0 0 0 0 
trait 3 0.3 0 0 0 0 0 0 0 
node 1 3 1 1
node 2 3 1 1
node 3 2 1 1
node 4 1 1 1
node 5 2 1 1
node 6 3 1 1
node 7 2 1 3
node 8 1 0 2
node 19 1 0 0
node 23 1 0 0
node 26 1 0 0
gene 2 1 8 -0.581938 0 1 -0.581938 1
gene 1 2 8 0.120067 0 2 0.120067 0
gene 1 3 8 -1.47632 0 3 -1.47632 0
gene 2 4 8 -0.568287 0 4 -0.568287 1
gene 1 5 8 1.42993 0 5 1.42993 0
gene 3 6 8 1.26588 0 6 1.26588 1
gene 2 7 8 0.0930652 0 7 0.0930652 1
gene 1 2 19 1 0 28 0 1
gene 1 19 8 0.120067 0 29 0 1
gene 1 3 23 1 0 37 0 1
gene 1 23 8 -1.47632 0 38 0 1
gene 1 5 26 1 0 47 0 1
gene 1 26 8 1.42993 0 48 0 1
genomeend 28

/* Organism #29 Fitness: 54 Error: 0 */
genomestart 29
trait 1 0.0875 0 0 0.00917042 0 0.0744408 0.0948746 0 
trait 2 0.2 0 0 0 0 0 0 0 
trait 3 0.3 0 0 0 0 0 0 0 
node 1 3 1 1
node 2 3 1 1
node 3 2 1 1
node 4 1 1 1
node 5 2 1 1
node 6 3 1 1
node 7 2 1 3
node 8 1 0 2
node 19 1 0 0
node 23 1 0 0
gene 2 1 8 -1.0244 0 1 -1.0244 1
gene 1 2 8 0.222138 0 2 0.222138 0
gene 1 3 8 -1.5566 0 3 -1.5566 1
gene 2 4 8 -1.89985 0 4 -1.89985 1
gene 1 5 8 3.06225 0 5 3.06225 1
gene 3 6 8 2.63849 0 6 2.63849 1
gene 2 7 8 2.49677 0 7 2.49677 1
gene 1 2 19 2.55412 0 28 2.55412 1
gene 1 19 8 -2.41692 0 29 -2.41692 1
gene 1 3 23 0.319369 0 37 0.319369 1
gene 1 23 8 -0.66412 0 38 -0.66412 1
genomeend 29

/* Organism #30 Fitness: 14 Error: 0 */
genomestart 30
trait 1 0.0875 0 0 0.00917042 0 0.0744408 0.0948746 0 
trait 2 0.2 0 0 0 0 0 0 0 
trait 3 0.3 0 0 0 0 0 0 0 
node 1 3 1 1
node 2 3 1 1
node 3 2 1 1
node 4 1 1 1
node 5 2 1 1
node 6 3 1 1
node 7 2 1 3
node 8 1 0 2
node 19 1 0 0
node 23 1 0 0
node 26 1 0 0
gene 2 1 8 -0.317144 0 1 -0.317144 1
gene 1 2 8 -1.11087 0 2 -1.11087 0
gene 1 3 8 -0.668251 0 3 -0.668251 0
gene 2 4 8 0.720706 0 4 0.720706 1
gene 1 5 8 1.64672 0 5 1.64672 0
gene 3 6 8 1.52525 0 6 1.52525 1
gene 2 7 8 0.393083 0 7 0.393083 1
gene 1 2 19 3.26482 0 28 3.26482 1
gene 1 19 8 -4.1502 0 29 -4.1502 1
gene 1 3 23 2.80247 0 37 2.80247 1
gene 1 23 8 -0.995514 0 38 -0.995514 1
gene 1 5 26 2.44165 0 47 2.44165 1
gene 1 26 8 1.10542 0 48 1.10542 1
genomeend 30

/* Organism #31 Fitness: 47 Error: 0 */
genomestart 31
trait 1 0.0875 0 0 0.00917042 0 0.0744408 0.0948746 0 
trait 2 0.2 0 0 0 0 0 0 0 
trait 3 0.3 0 0.502823 0 0 0.586883 0 0 
node 1 3 1 1
node 2 3 1 1
node 3 2 1 1
node 4 1 1 1
node 5 2 1 1
node 6 3 1 1
node 7 2 1 3
node 8 1 0 2
node 19 1 0 0
node 23 1 0 0
gene 2 1 8 -0.0332316 0 1 -0.0332316 1
gene 1 2 8 -1.05858 0 2 -1.05858 0
gene 1 3 8 -2.13572 0 3 -2.13572 0
gene 2 4 8 -3.05529 0 4 -3.05529 1
gene 1 5 8 1.38633 0 5 1.38633 0
gene 3 6 8 3.14521 0 6 3.14521 1
gene 2 7 8 0.345387 0 7 0.345387 1
gene 1 2 19 3.19728 0 28 3.19728 1
gene 1 19 8 2.03373 0 29 2.03373 1
gene 1 3 23 -1.66107 0 37 -1.66107 1
gene 1 23 8 -2.0918 0 38 -2.0918 1
genomeend 31

/* Organism #32 Fitness: 31 Error: 0 */
genomestart 32
trait 1 0.0875 0 0 0.00917042 0 0.0744408 0.0948746 0 
trait 2 0.2 0 0 0 0 0 0 0 
trait 3 0.3 0 0 0 0 0 0 0 
node 1 3 1 1
node 2 1 1 1
node 3 2 1 1
node 4 1 1 1
node 5 2 1 1
node 6 3 1 1
node 7 2 1 3
node 8 1 0 2
node 19 1 0 0
node 23 1 0 0
gene 2 1 8 -5.01223 0 1 -5.01223 1
gene 1 2 8 3.98745 0 2 3.98745 0
gene 1 3 8 -1.94596 0 3 -1.94596 1
gene 2 4 8 -3.47472 0 4 -3.47472 1
gene 1 5 8 4.19515 0 5 4.19515 1
gene 3 6 8 3.7693 0 6 3.7693 1
gene 2 7 8 4.36771 0 7 4.36771 1
gene 1 2 19 0.194706 0 28 0.194706 1
gene 1 19 8 -0.480967 0 29 -0.480967 1
gene 1 3 23 -0.502181 0 37 -0.502181 1
gene 1 23 8 -1.72983 0 38 -1.72983 1
genomeend 32

/* Organism #33 Fitness: 5 Error: 0 */
genomestart 33
trait 1 0.0875 0 0 0.00917042 0 0.0744408 0.0948746 0 
trait 2 0.2 0 0 0 0 0 0 0 
trait 3 0.3 0 0 0 0 0 0 0 
node 1 3 1 1
node 2 3 1 1
node 3 2 1 1
node 4 1 1 1
node 5 2 1 1
node 6 3 1 1
node 7 2 1 3
node 8 1 0 2
node 19 1 0 0
node 23 1 0 0
node 26 1 0 0
gene 2 1 8 -2.29914 0 1 -2.29914 1
gene 1 2 8 0.890813 0 2 0.890813 1
gene 1 3 8 0.947303 0 3 0.947303 0
gene 2 4 8 -0.502827 0 4 -0.502827 1
gene 1 5 8 1.58304 0 5 1.58304 0
gene 3 6 8 0.516413 0 6 0.516413 1
gene 2 7 8 -0.677831 0 7 -0.677831 1
gene 1 2 19 2.3489 0 28 2.3489 1
gene 1 19 8 -1.42688 0 29 -1.42688 1
gene 1 3 23 3.41173 0 37 3.41173 1
gene 1 23 8 -3.47992 0 38 -3.47992 1
gene 1 5 26 2.40872 0 47 2.40872 1
gene 1 26 8 0.938556 0 48 0.938556 1
genomeend 33

/* Organism #34 Fitness: 38 Error: 0 */
genomestart 34
trait 1 0.0875 0 0 0.00917042 0 0.0744408 0.0948746 0 
trait 2 0.2 0 0 0 0 0 0 0 
trait 3 0.3 0 0 0 0 0 0 0 
node 1 3 1 1
node 2 3 1 1
node 3 2 1 1
node 4 1 1 1
node 5 2 1 1
node 6 3 1 1
node 7 2 1 3
node 8 1 0 2
node 19 1 0 0
node 23 1 0 0
gene 2 1 8 -1.0244 0 1 -1.0244 1
gene 1 2 8 0.222138 0 2 0.222138 0
gene 1 3 8 -1.5566 0 3 -1.5566 0
gene 2 4 8 -1.89985 0 4 -1.89985 1
gene 1 5 8 3.06225 0 5 3.06225 1
gene 3 6 8 2.63849 0 6 2.63849 1
gene 2 7 8 2.49677 0 7 2.49677 1
gene 1 2 19 2.55412 0 28 2.55412 1
gene 1 19 8 -2.41692 0 29 -2.41692 1
gene 1 3 23 0.319369 0 37 0.319369 1
gene 1 23 8 -0.66412 0 38 -0.66412 1
genomeend 34

/* Organism #35 Fitness: 5 Error: 0 */
genomestart 35
trait 1 0.0875 0 0 0.00917042 0 0.0744408 0.0948746 0 
trait 2 0.2 0 0 0 0 0 0 0 
trait 3 0.3 0 0 0 0 0 0 0 
node 1 3 1 1
node 2 3 1 1
node 3 2 1 1
node 4 1 1 1
node 5 2 1 1
node 6 3 1 1
node 7 2 1 3
node 8 1 0 2
node 19 1 0 0
node 23 1 0 0
node 26 1 0 0
node 35 1 0 0
gene 2 1 8 1.16982 0 1 1.16982 1
gene 1 2 8 0.120067 0 2 0.120067 0
gene 1 3 8 -2.46564 0 3 -2.46564 0
gene 2 4 8 0.676158 0 4 0.676158 1
gene 1 5 8 1.42993 0 5 1.42993 0
gene 3 6 8 1.26588 0 6 1.26588 0
gene 2 7 8 1.9712 0 7 1.9712 1
gene 1 2 19 3.08542 0 28 3.08542 1
gene 1 19 8 0.120067 0 29 0 1
gene 1 3 23 0.752707 0 37 0.752707 1
gene 1 23 8 0.401585 0 38 0.401585 1
gene 1 5 26 1 0 47 0 1
gene 1 26 8 1.42993 0 48 0 1
gene 3 6 35 1 0 74 0 1
gene 3 35 8 1.26588 0 75 0 1
genomeend 35

/* Organism #36 Fitness: 39 Error: 0 */
genomestart 36
trait 1 0.0875 0 0 0.00917042 0 0.0744408 0.0948746 0 
trait 2 0.2 0 0 0 0 0 0 0 
trait 3 0.3 0 0 0 0 0 0 0 
node 1 3 1 1
node 2 3 1 1
node 3 2 1 1
node 4 1 1 1
node 5 2 1 1
node 6 3 1 1
node 7 2 1 3
node 8 1 0 2
node 19 1 0 0
node 23 1 0 0
gene 2 1 8 -1.49271 0 1 -1.49271 1
gene 1 2 8 0.46425 0 2 0.46425 0
gene 1 3 8 5.37605 0 3 5.37605 1
gene 2 4 8 0.365207 0 4 0.365207 1
gene 1 5 8 4.22327 0 5 4.22327 1
gene 3 6 8 0.851082 0 6 0.851082 1
gene 2 7 8 4.32763 0 7 4.32763 1
gene 1 2 19 1.36561 0 28 1.36561 1
gene 1 19 8 -5.3813 0 29 -5.3813 1
gene 1 3 23 0.0201837 0 37 0.0201837 1
gene 1 23 8 -2.39091 0 38 -2.39091 1
genomeend 36

/* Organism #37 Fitness: 9 Error: 0 */
genomestart 37
trait 1 0.0875 0 0 0.00917042 0 0.0744408 0.0948746 0 
trait 2 0.2 0 0 0 0 0 0 0 
trait 3 0.3 0 0 0 0 0 0 0 
node 1 3 1 1
node 2 3 1 1
node 3 2 1 1
node 4 1 1 1
node 5 2 1 1
node 6 3 1 1
node 7 2 1 3
node 8 1 0 2
node 19 1 0 0
node 23 1 0 0
gene 2 1 8 -1.89373 0 1 -1.89373 1
gene 1 2 8 -3.55876 0 2 -3.55876 0
gene 1 3 8 5.05518 0 3 5.05518 1
gene 2 4 8 -0.774225 0 4 -0.774225 1
gene 1 5 8 4.80512 0 5 4.80512 1
gene 3 6 8 0.406858 0 6 0.406858 1
gene 2 7 8 -0.186477 0 7 -0.186477 1
gene 1 2 19 0.582237 0 28 0.582237 1
gene 1 19 8 -5.50074 0 29 -5.50074 1
gene 1 3 23 -0.939383 0 37 -0.939383 1
gene 1 23 8 -1.22715 0 38 -1.22715 1
genomeend 37

/* Organism #38 Fitness: 74 Error: 0 */
genomestart 38
trait 1 0.0875 0 0 0.00917042 0 0.0744408 0.0948746 0 
trait 2 0.2 0 0 0 0 0 0 0 
trait 3 0.3 0 0 0 0 0 0 0 
node 1 3 1 1
node 2 3 1 1
node 3 2 1 1
node 4 1 1 1
node 5 2 1 1
node 6 3 1 1
node 7 2 1 3
node 8 1 0 2
node 19 1 0 0
node 23 1 0 0
gene 2 1 8 -0.909556 0 1 -0.909556 1
gene 1 2 8 0.352542 0 2 0.352542 0
gene 1 3 8 0.762388 0 3 0.762388 0
gene 2 4 8 -0.810507 0 4 -0.810507 1
gene 1 5 8 5.21556 0 5 5.21556 1
gene 3 6 8 2.89841 0 6 2.89841 1
gene 2 7 8 0.82028 0 7 0.82028 1
gene 1 2 19 2.47413 0 28 2.47413 1
gene 1 19 8 -1.81636 0 29 -1.81636 1
gene 1 3 23 0.0750285 0 37 0.0750285 1
gene 1 23 8 -1.21158 0 38 -1.21158 1
genomeend 38

/* Species #4 : (Size 32) (AF 33) (Age 3)  */


/* Organism #39 Fitness: 36 Error: 0 */
genomestart 39
trait 1 0.0875 0 0 0.00917042 0 0.0744408 0.0948746 0 
trait 2 0.2 0 0 0 0 0 0 0 
trait 3 0.3 0 0 0 0 0 0 0 
node 1 3 1 1
node 2 3 1 1
node 3 2 1 1
node 4 1 1 1
node 5 2 1 1
node 6 3 1 1
node 7 2 1 3
node 8 1 0 2
node 19 1 0 0
node 23 1 0 0
gene 2 1 8 -4.21788 0 1 -4.21788 1
gene 1 2 8 -2.75758 0 2 -2.75758 0
gene 1 3 8 0.398075 0 3 0.398075 1
gene 3 4 8 -2.88992 0 4 -2.88992 1
gene 1 5 8 6.70857 0 5 6.70857 1
gene 3 6 8 6.42319 0 6 6.42319 1
gene 2 7 8 2.05522 0 7 2.05522 1
gene 1 2 19 1.97804 0 28 1.97804 1
gene 1 19 8 -6.16883 0 29 -6.16883 1
gene 1 3 23 2.94056 0 37 2.94056 1
gene 1 23 8 2.93867 0 38 2.93867 1
genomeend 39

/* Organism #40 Fitness: 73 Error: 0 */
genomestart 40
trait 1 0.0875 0 0 0.00917042 0 0.0744408 0.0948746 0 
trait 2 0.2 0 0 0 0 0 0 0 
trait 3 0.3 0 0 0 0 0 0 0 
node 1 3 1 1
node 2 3 1 1
node 3 2 1 1
node 4 1 1 1
node 5 2 1 1
node 6 3 1 1
node 7 2 1 3
node 8 1 0 2
node 19 1 0 0
node 23 1 0 0
gene 2 1 8 -2.35348 0 1 -2.35348 1
gene 1 2 8 -1.75003 0 2 -1.75003 0
gene 1 3 8 3.97437 0 3 3.97437 1
gene 2 4 8 -1.47273 0 4 -1.47273 1
gene 1 5 8 6.50297 0 5 6.50297 1
gene 3 6 8 2.62474 0 6 2.62474 1
gene 2 7 8 2.03663 0 7 2.03663 1
gene 1 2 19 1.75533 0 28 1.75533 1
gene 1 19 8 -4.47274 0 29 -4.47274 1
gene 1 3 23 -0.60265 0 37 -0.60265 1
gene 1 23 8 -2.35777 0 38 -2.35777 1
genomeend 40

/* Organism #41 Fitness: 10 Error: 0 */
genomestart 41
trait 1 0.0875 0 0 0.00917042 0 0.0744408 0.0948746 0 
trait 2 0.2 0 0 0 0 0 0 0 
trait 3 0 0 0 0 0.0317329 0.961535 0 0.921484 
node 1 3 1 1
node 2 3 1 1
node 3 2 1 1
node 4 1 1 1
node 5 2 1 1
node 6 3 1 1
node 7 2 1 3
node 8 1 0 2
node 19 1 0 0
node 23 1 0 0
gene 2 1 8 -1.75712 0 1 -1.75712 1
gene 1 2 8 -2.52223 0 2 -2.52223 0
gene 1 3 8 4.87489 0 3 4.87489 1
gene 2 4 8 -1.60416 0 4 -1.60416 1
gene 1 5 8 6.22897 0 5 6.22897 1
gene 3 6 8 -0.701912 0 6 -0.701912 1
gene 2 7 8 2.03663 0 7 2.03663 1
gene 1 2 19 1.75533 0 28 1.75533 1
gene 1 19 8 -4.62875 0 29 -4.62875 1
gene 1 3 23 -2.93862 0 37 -2.93862 1
gene 1 23 8 -0.0180848 0 38 -0.0180848 1
genomeend 41

/* Organism #42 Fitness: 33 Error: 0 */
genomestart 42
trait 1 0.0875 0 0 0.00917042 0 0.0744408 0.0948746 0 
trait 2 0.2 0 0 0 0 0 0 0 
trait 3 0.3 0 0 0 0 0 0 0 
node 1 3 1 1
node 2 3 1 1
node 3 2 1 1
node 4 1 1 1
node 5 2 1 1
node 6 3 1 1
node 7 2 1 3
node 8 1 0 2
node 19 1 0 0
node 23 1 0 0
gene 2 1 8 -3.27074 0 1 -3.27074 1
gene 1 2 8 -3.96788 0 2 -3.96788 0
gene 1 3 8 2.52633 0 3 2.52633 1
gene 3 4 8 -4.96016 0 4 -4.96016 1
gene 1 5 8 5.50598 0 5 5.50598 1
gene 3 6 8 4.33565 0 6 4.33565 1
gene 2 7 8 3.19921 0 7 3.19921 1
gene 1 2 19 1.917 0 28 1.917 1
gene 1 19 8 -3.93478 0 29 -3.93478 1
gene 1 3 23 -0.944355 0 37 -0.944355 1
gene 1 23 8 2.05507 0 38 2.05507 1
genomeend 42

/* Organism #43 Fitness: 55 Error: 0 */
genomestart 43
trait 1 0.0875 0 0 0.00917042 0 0.0744408 0.0948746 0 
trait 2 0.2 0 0 0 0 0 0 0 
trait 3 0.3 0 0 0 0 0 0 0 
node 1 3 1 1
node 2 3 1 1
node 3 2 1 1
node 4 1 1 1
node 5 2 1 1
node 6 3 1 1
node 7 2 1 3
node 8 1 0 2
node 19 1 0 0
node 23 1 0 0
gene 2 1 8 2.43258 0 1 2.43258 1
gene 1 2 8 4.34841 0 2 4.34841 0
gene 1 3 8 -5.67127 0 3 -5.67127 0
gene 2 4 8 -0.477266 0 4 -0.477266 1
gene 1 5 8 6.95321 0 5 6.95321 1
gene 3 6 8 4.23491 0 6 4.23491 1
gene 2 7 8 0.256864 0 7 0.256864 1
gene 1 2 19 6.27148 0 28 6.27148 1
gene 1 19 8 -0.993347 0 29 -0.993347 1
gene 1 3 23 -2.23997 0 37 -2.23997 1
gene 1 23 8 -0.918137 0 38 -0.918137 1
gene 2 1 23 0.592043 0 57 0.592043 1
genomeend 43

/* Organism #44 Fitness: 10 Error: 0 */
genomestart 44
trait 1 0.0875 0 0 0.00917042 0 0.0744408 0.0948746 0 
trait 2 0.2 0 0 0 0 0 0 0 
trait 3 0.3 0 0 0 0 0 0 0 
node 1 3 1 1
node 2 3 1 1
node 3 2 1 1
node 4 1 1 1
node 5 2 1 1
node 6 3 1 1
node 7 2 1 3
node 8 1 0 2
node 19 1 0 0
node 23 1 0 0
gene 2 1 8 -1.56971 0 1 -1.56971 1
gene 1 2 8 -0.463978 0 2 -0.463978 1
gene 1 3 8 -1.367 0 3 -1.367 0
gene 2 4 8 -1.61906 0 4 -1.61906 1
gene 1 5 8 3.41282 0 5 3.41282 1
gene 3 6 8 1.67665 0 6 1.67665 1
gene 2 7 8 -0.76373 0 7 -0.76373 1
gene 1 2 19 0.636959 0 28 0.636959 1
gene 1 19 8 -4.40943 0 29 -4.40943 1
gene 1 3 23 2.07924 0 37 2.07924 1
gene 1 23 8 -2.84413 0 38 -2.84413 1
gene 2 1 23 -2.34908 0 57 -2.34908 1
genomeend 44

/* Organism #45 Fitness: 20 Error: 0 */
genomestart 45
trait 1 0.0875 0 0 0.00917042 0 0.0744408 0.0948746 0 
trait 2 0.2 0 0 0 0 0 0 0 
trait 3 0.3 0 0 0 0 0 0 0 
node 1 3 1 1
node 2 3 1 1
node 3 2 1 1
node 4 1 1 1
node 5 2 1 1
node 6 3 1 1
node 7 2 1 3
node 8 1 0 2
node 19 1 0 0
node 23 1 0 0
gene 2 1 8 -4.6395 0 1 -4.6395 1
gene 1 2 8 -3.97448 0 2 -3.97448 0
gene 1 3 8 -1.98589 0 3 -1.98589 1
gene 2 4 8 -0.553401 0 4 -0.553401 1
gene 1 5 8 6.08695 0 5 6.08695 1
gene 3 6 8 6.42319 0 6 6.42319 1
gene 2 7 8 -0.113348 0 7 -0.113348 1
gene 1 2 19 3.74041 0 28 3.74041 1
gene 1 19 8 -4.12621 0 29 -4.12621 1
gene 1 3 23 1.74433 0 37 1.74433 1
gene 1 23 8 -4.5377 0 38 -4.5377 1
genomeend 45

/* Organism #46 Fitness: 49 Error: 0 */
genomestart 46
trait 1 0.0875 0 0 0.00917042 0 0.0744408 0.0948746 0 
trait 2 0.2 0 0 0 0 0 0 0 
trait 3 0.3 0 0 0 0 0 0 0 
node 1 3 1 1
node 2 3 1 1
node 3 2 1 1
node 4 1 1 1
node 5 2 1 1
node 6 3 1 1
node 7 2 1 3
node 8 1 0 2
node 19 1 0 0
node 23 1 0 0
gene 2 1 8 2.5327 0 1 2.5327 1
gene 1 2 8 2.30271 0 2 2.30271 0
gene 1 3 8 -3.00372 0 3 -3.00372 0
gene 2 4 8 -1.24643 0 4 -1.24643 1
gene 1 5 8 3.92814 0 5 3.92814 1
gene 3 6 8 2.71727 0 6 2.71727 1
gene 2 7 8 -0.396071 0 7 -0.396071 1
gene 1 2 19 3.19293 0 28 3.19293 1
gene 1 19 8 0.840016 0 29 0.840016 1
gene 1 3 23 -0.903968 0 37 -0.903968 1
gene 1 23 8 -0.807653 0 38 -0.807653 1
gene 2 1 23 -1.71745 0 57 -1.71745 1
genomeend 46

/* Organism #47 Fitness: 66 Error: 0 */
genomestart 47
trait 1 0.0875 0 0 0.00917042 0 0.0744408 0.0948746 0 
trait 2 0.2 0 0 0 0 0 0 0 
trait 3 0.952166 0 0 0 0 0 0 0 
node 1 3 1 1
node 2 3 1 1
node 3 2 1 1
node 4 1 1 1
node 5 2 1 1
node 6 3 1 1
node 7 2 1 3
node 8 1 0 2
node 19 1 0 0
node 23 1 0 0
gene 2 1 8 0.767077 0 1 0.767077 1
gene 1 2 8 2.84672 0 2 2.84672 0
gene 1 3 8 -0.263256 0 3 -0.263256 1
gene 2 4 8 -3.36643 0 4 -3.36643 1
gene 1 5 8 1.12444 0 5 1.12444 1
gene 3 6 8 3.18938 0 6 3.18938 1
gene 2 7 8 1.60276 0 7 1.60276 1
gene 1 2 19 -1.76845 0 28 -1.76845 1
gene 1 19 8 -2.5749 0 29 -2.5749 1
gene 1 3 23 -1.71783 0 37 -1.71783 1
gene 1 23 8 0.785611 0 38 0.785611 1
gene 2 1 23 0.634891 0 57 0.634891 1
genomeend 47

/* Organism #48 Fitness: 36 Error: 0 */
genomestart 48
trait 1 0.0875 0 0 0.00917042 0 0.0744408 0.0948746 0 
trait 2 0.2 0 0 0 0 0 0 0 
trait 3 0.3 0 0 0 0 0 0 0 
node 1 3 1 1
node 2 3 1 1
node 3 2 1 1
node 4 1 1 1
node 5 2 1 1
node 6 3 1 1
node 7 2 1 3
node 8 1 0 2
node 19 1 0 0
node 23 1 0 0
gene 2 1 8 -4.21788 0 1 -4.21788 1
gene 1 2 8 -2.75758 0 2 -2.75758 0
gene 1 3 8 0.398075 0 3 0.398075 1
gene 3 4 8 -2.88992 0 4 -2.88992 1
gene 1 5 8 6.70857 0 5 6.70857 1
gene 3 6 8 6.42319 0 6 6.42319 1
gene 2 7 8 2.05522 0 7 2.05522 1
gene 1 2 19 1.97804 0 28 1.97804 1
gene 1 19 8 -6.16883 0 29 -6.16883 1
gene 1 3 23 2.94056 0 37 2.94056 1
gene 1 23 8 2.93867 0 38 2.93867 1
gene 3 1 23 -0.67551 0 76 -0.67551 1
genomeend 48

/* Organism #49 Fitness: 28 Error: 0 */
genomestart 49
trait 1 0.0875 0 0 0.00917042 0 0.0744408 0.0948746 0 
trait 2 0.2 0 0 0 0 0 0 0 
trait 3 0.3 0 0 0 0 0 0 0 
node 1 3 1 1
node 2 3 1 1
node 3 2 1 1
node 4 1 1 1
node 5 2 1 1
node 6 3 1 1
node 7 2 1 3
node 8 1 0 2
node 19 1 0 0
node 23 1 0 0
gene 2 1 8 2.5327 0 1 2.5327 1
gene 1 2 8 -2.75758 0 2 -2.75758 0
gene 1 3 8 -0.76281 0 3 -0.76281 0
gene 2 4 8 -1.24643 0 4 -1.24643 1
gene 1 5 8 6.70857 0 5 6.70857 1
gene 3 6 8 2.71727 0 6 2.71727 1
gene 2 7 8 -0.396071 0 7 -0.396071 1
gene 1 2 19 4.22634 0 28 4.22634 1
gene 1 19 8 0.840016 0 29 0.840016 1
gene 1 3 23 2.94056 0 37 2.94056 1
gene 1 23 8 2.93867 0 38 2.93867 1
gene 2 1 23 -1.71745 0 57 -1.71745 1
genomeend 49

/* Organism #50 Fitness: 39 Error: 0 */
genomestart 50
trait 1 0.0875 0 0 0.00917042 0 0.0744408 0.0948746 0 
trait 2 0.2 0 0 0 0 0 0 0 
trait 3 0.3 0 0 0 0 0 0 0 
node 1 3 1 1
node 2 3 1 1
node 3 2 1 1
node 4 1 1 1
node 5 2 1 1
node 6 3 1 1
node 7 2 1 3
node 8 1 0 2
node 19 1 0 0
node 23 1 0 0
node 32 1 0 0
gene 2 1 8 -0.581938 0 1 -0.581938 1
gene 1 2 8 0.372347 0 2 0.372347 0
gene 1 3 8 -0.794673 0 3 -0.794673 0
gene 2 4 8 -2.19177 0 4 -2.19177 1
gene 1 5 8 5.13729 0 5 5.13729 1
gene 3 6 8 3.17209 0 6 3.17209 0
gene 2 7 8 -0.396071 0 7 -0.396071 1
gene 1 2 19 3.19293 0 28 3.19293 1
gene 1 19 8 -2.22941 0 29 -2.22941 1
gene 1 3 23 0.752707 0 37 0.752707 1
gene 1 23 8 -0.698181 0 38 -0.698181 1
gene 3 6 32 1 0 66 0 1
gene 3 32 8 3.17209 0 67 0 1
genomeend 50

/* Organism #51 Fitness: 5 Error: 0 */
genomestart 51
trait 1 0.0875 0 0 0.00917042 0 0.0744408 0.0948746 0 
trait 2 0.2 0 0 0 0 0 0 0 
trait 3 0.3 0 0 0 0 0 0 0 
node 1 3 1 1
node 2 3 1 1
node 3 2 1 1
node 4 1 1 1
node 5 2 1 1
node 6 3 1 1
node 7 2 1 3
node 8 1 0 2
node 19 1 0 0
node 23 1 0 0
node 32 1 0 0
gene 2 1 8 -2.91788 0 1 -2.91788 1
gene 1 2 8 0.53037 0 2 0.53037 0
gene 1 3 8 -2.26179 0 3 -2.26179 0
gene 2 4 8 -2.78409 0 4 -2.78409 1
gene 1 5 8 3.50536 0 5 3.50536 1
gene 3 6 8 -2.31452 0 6 -2.31452 0
gene 2 7 8 -2.45534 0 7 -2.45534 1
gene 1 2 19 0.847887 0 28 0.847887 1
gene 1 19 8 -4.43575 0 29 -4.43575 1
gene 1 3 23 1.38232 0 37 1.38232 1
gene 1 23 8 -2.89823 0 38 -2.89823 1
gene 3 6 32 1 0 66 1 1
gene 3 32 8 2.49565 0 67 2.49565 1
genomeend 51

/* Organism #52 Fitness: 35 Error: 0 */
genomestart 52
trait 1 0.0875 0 0 0.00917042 0 0.0744408 0.0948746 0 
trait 2 0.2 0 0 0 0 0 0 0 
trait 3 0.3 0 0 0 0 0 0 0 
node 1 3 1 1
node 2 3 1 1
node 3 2 1 1
node 4 1 1 1
node 5 2 1 1
node 6 3 1 1
node 7 2 1 3
node 8 1 0 2
node 19 1 0 0
node 23 1 0 0
node 32 1 0 0
gene 2 1 8 0.88465 0 1 0.88465 1
gene 1 2 8 2.10741 0 2 2.10741 0
gene 1 3 8 -1.20894 0 3 -1.20894 0
gene 2 4 8 -3.16618 0 4 -3.16618 1
gene 1 5 8 6.13561 0 5 6.13561 1
gene 3 6 8 4.96098 0 6 4.96098 0
gene 2 7 8 -0.653824 0 7 -0.653824 1
gene 1 2 19 1.07967 0 28 1.07967 1
gene 1 19 8 -2.09449 0 29 -2.09449 1
gene 1 3 23 0.142319 0 37 0.142319 1
gene 1 23 8 0.441858 0 38 0.441858 1
gene 3 6 32 3.11444 0 66 3.11444 1
gene 3 32 8 3.17209 0 67 3.17209 1
genomeend 52

/* Organism #53 Fitness: 39 Error: 0 */
genomestart 53
trait 1 0.0875 0 0 0.00917042 0 0.0744408 0.0948746 0 
trait 2 0.2 0 0 0 0 0 0 0 
trait 3 0.3 0 0 0 0 0 0 0 
node 1 3 1 1
node 2 3 1 1
node 3 2 1 1
node 4 1 1 1
node 5 2 1 1
node 6 3 1 1
node 7 2 1 3
node 8 1 0 2
node 19 1 0 0
node 23 1 0 0
node 32 1 0 0
gene 2 1 8 -0.581938 0 1 -0.581938 1
gene 1 2 8 0.372347 0 2 0.372347 0
gene 1 3 8 -0.794673 0 3 -0.794673 0
gene 2 4 8 -2.19177 0 4 -2.19177 1
gene 1 5 8 5.13729 0 5 5.13729 1
gene 3 6 8 3.17209 0 6 3.17209 0
gene 2 7 8 -0.396071 0 7 -0.396071 1
gene 1 2 19 3.19293 0 28 3.19293 1
gene 1 19 8 -2.22941 0 29 -2.22941 1
gene 1 3 23 0.752707 0 37 0.752707 1
gene 1 23 8 -0.698181 0 38 -0.698181 1
gene 3 6 32 1 0 66 0 1
gene 3 32 8 3.17209 0 67 0 1
genomeend 53

/* Organism #54 Fitness: 35 Error: 0 */
genomestart 54
trait 1 0.0875 0 0 0.00917042 0 0.0744408 0.0948746 0 
trait 2 0.2 0 0 0 0 0 0 0 
trait 3 0.3 0 0 0 0 0 0 0 
node 1 3 1 1
node 2 3 1 1
node 3 2 1 1
node 4 1 1 1
node 5 2 1 1
node 6 3 1 1
node 7 2 1 3
node 8 1 0 2
node 19 1 0 0
node 23 1 0 0
node 32 1 0 0
gene 2 1 8 -2.46261 0 1 -2.46261 1
gene 1 2 8 0.374834 0 2 0.374834 0
gene 1 3 8 0.808219 0 3 0.808219 0
gene 2 4 8 -0.331567 0 4 -0.331567 1
gene 1 5 8 2.99226 0 5 2.99226 1
gene 3 6 8 2.06219 0 6 2.06219 0
gene 2 7 8 -0.866199 0 7 -0.866199 1
gene 1 2 19 1.11643 0 28 1.11643 1
gene 1 19 8 -0.951227 0 29 -0.951227 1
gene 1 3 23 -1.68137 0 37 -1.68137 1
gene 1 23 8 -0.90317 0 38 -0.90317 1
gene 3 6 32 3.06519 0 66 3.06519 1
gene 3 32 8 0.822363 0 67 0.822363 1
genomeend 54

/* Organism #55 Fitness: 30 Error: 0 */
genomestart 55
trait 1 0.0875 0 0 0.00917042 0 0.0744408 0.0948746 0 
trait 2 0.2 0 0 0 0 0 0 0 
trait 3 0.3 0 0 0 0 0 0 0 
node 1 3 1 1
node 2 3 1 1
node 3 2 1 1
node 4 1 1 1
node 5 2 1 1
node 6 3 1 1
node 7 2 1 3
node 8 1 0 2
node 19 1 0 0
node 23 1 0 0
node 32 1 0 0
gene 2 1 8 -0.119952 0 1 -0.119952 1
gene 1 2 8 -1.74017 0 2 -1.74017 0
gene 1 3 8 0.520837 0 3 0.520837 0
gene 2 4 8 -1.68681 0 4 -1.68681 1
gene 1 5 8 2.80815 0 5 2.80815 1
gene 3 6 8 1.1566 0 6 1.1566 0
gene 2 7 8 -1.74293 0 7 -1.74293 1
gene 1 2 19 4.54125 0 28 4.54125 1
gene 1 19 8 -3.13284 0 29 -3.13284 1
gene 1 3 23 2.99338 0 37 2.99338 1
gene 1 23 8 -0.0437566 0 38 -0.0437566 1
gene 3 6 32 1.52535 0 66 1.52535 1
gene 3 32 8 3.63418 0 67 3.63418 1
genomeend 55

/* Organism #56 Fitness: 6 Error: 0 */
genomestart 56
trait 1 0.0875 0 0 0.00917042 0 0.0744408 0.0948746 0 
trait 2 0.2 0 0 0 0 0 0 0 
trait 3 0.3 0 0 0 0 0 0 0 
node 1 3 1 1
node 2 3 1 1
node 3 2 1 1
node 4 1 1 1
node 5 2 1 1
node 6 3 1 1
node 7 2 1 3
node 8 1 0 2
node 19 1 0 0
node 23 1 0 0
node 32 1 0 0
gene 2 1 8 0.534631 0 1 0.534631 1
gene 1 2 8 2.47668 0 2 2.47668 0
gene 1 3 8 -1.96298 0 3 -1.96298 0
gene 2 4 8 0.211445 0 4 0.211445 1
gene 1 5 8 5.13729 0 5 5.13729 1
gene 3 6 8 3.1349 0 6 3.1349 0
gene 2 7 8 -1.89116 0 7 -1.89116 1
gene 1 2 19 4.15089 0 28 4.15089 1
gene 1 19 8 -1.97945 0 29 -1.97945 1
gene 1 3 23 -0.804739 0 37 -0.804739 1
gene 1 23 8 -2.40998 0 38 -2.40998 1
gene 3 6 32 -0.714463 0 66 -0.714463 1
gene 3 32 8 2.55153 0 67 2.55153 1
genomeend 56

/* Organism #57 Fitness: 32 Error: 0 */
genomestart 57
trait 1 0.0875 0 0 0.00917042 0 0.0744408 0.0948746 0 
trait 2 0.2 0 0 0 0 0 0 0 
trait 3 0.3 0 0 0 0 0 0 0 
node 1 3 1 1
node 2 3 1 1
node 3 2 1 1
node 4 1 1 1
node 5 2 1 1
node 6 3 1 1
node 7 2 1 3
node 8 1 0 2
node 19 1 0 0
node 23 1 0 0
node 32 1 0 0
gene 2 1 8 -0.581938 0 1 -0.581938 1
gene 1 2 8 -2.05139 0 2 -2.05139 0
gene 1 3 8 -2.87411 0 3 -2.87411 0
gene 2 4 8 -1.64748 0 4 -1.64748 1
gene 1 5 8 4.84891 0 5 4.84891 1
gene 3 6 8 3.17209 0 6 3.17209 0
gene 2 7 8 -0.849629 0 7 -0.849629 1
gene 1 2 19 1.95019 0 28 1.95019 1
gene 1 19 8 -4.07726 0 29 -4.07726 1
gene 1 3 23 -0.860495 0 37 -0.860495 1
gene 1 23 8 -0.118898 0 38 -0.118898 1
gene 3 6 32 1.65106 0 66 1.65106 1
gene 3 32 8 2.67088 0 67 2.67088 1
genomeend 57

/* Organism #58 Fitness: 39 Error: 0 */
genomestart 58
trait 1 0.0875 0 0 0.00917042 0 0.0744408 0.0948746 0 
trait 2 0.2 0 0 0 0 0 0 0 
trait 3 0.3 0 0 0 0 0 0 0 
node 1 3 1 1
node 2 3 1 1
node 3 2 1 1
node 4 1 1 1
node 5 2 1 1
node 6 3 1 1
node 7 2 1 3
node 8 1 0 2
node 19 1 0 0
node 23 1 0 0
node 32 1 0 0
gene 2 1 8 -0.581938 0 1 -0.581938 1
gene 1 2 8 0.372347 0 2 0.372347 0
gene 1 3 8 -0.794673 0 3 -0.794673 0
gene 2 4 8 -2.19177 0 4 -2.19177 1
gene 1 5 8 5.13729 0 5 5.13729 1
gene 3 6 8 3.17209 0 6 3.17209 0
gene 2 7 8 -0.396071 0 7 -0.396071 1
gene 1 2 19 3.19293 0 28 3.19293 1
gene 1 19 8 -2.22941 0 29 -2.22941 1
gene 1 3 23 0.752707 0 37 0.752707 1
gene 1 23 8 -0.698181 0 38 -0.698181 1
gene 3 6 32 1 0 66 0 1
gene 3 32 8 3.17209 0 67 0 1
genomeend 58

/* Organism #59 Fitness: 32 Error: 0 */
genomestart 59
trait 1 0.0875 0 0 0.00917042 0 0.0744408 0.0948746 0 
trait 2 0.2 0 0 0 0 0 0 0 
trait 3 0.3 0 0 0 0 0 0 0 
node 1 3 1 1
node 2 3 1 1
node 3 2 1 1
node 4 1 1 1
node 5 2 1 1
node 6 3 1 1
node 7 2 1 3
node 8 1 0 2
node 19 1 0 0
node 23 1 0 0
node 32 1 0 0
gene 2 1 8 0.363594 0 1 0.363594 1
gene 1 2 8 -1.26764 0 2 -1.26764 0
gene 1 3 8 1.63598 0 3 1.63598 0
gene 2 4 8 -3.20211 0 4 -3.20211 1
gene 1 5 8 6.44479 0 5 6.44479 1
gene 3 6 8 4.55971 0 6 4.55971 0
gene 2 7 8 -2.40431 0 7 -2.40431 1
gene 1 2 19 1.67312 0 28 1.67312 1
gene 1 19 8 -0.520901 0 29 -0.520901 1
gene 1 3 23 0.170597 0 37 0.170597 1
gene 1 23 8 -0.0944457 0 38 -0.0944457 1
gene 3 6 32 1.61407 0 66 1.61407 1
gene 3 32 8 5.55743 0 67 5.55743 1
genomeend 59

/* Organism #60 Fitness: 39 Error: 0 */
genomestart 60
trait 1 0.0875 0 0 0.00917042 0 0.0744408 0.0948746 0 
trait 2 0.2 0 0 0 0 0 0 0 
trait 3 0.3 0 0 0 0 0 0 0 
node 1 3 1 1
node 2 3 1 1
node 3 2 1 1
node 4 1 1 1
node 5 2 1 1
node 6 3 1 1
node 7 2 1 3
node 8 1 0 2
node 19 1 0 0
node 23 1 0 0
gene 2 1 8 -3.21861 0 1 -3.21861 1
gene 1 2 8 -1.0123 0 2 -1.0123 0
gene 1 3 8 2.46618 0 3 2.46618 1
gene 2 4 8 -3.83787 0 4 -3.83787 1
gene 1 5 8 6.82835 0 5 6.82835 1
gene 3 6 8 3.51133 0 6 3.51133 1
gene 2 7 8 4.07537 0 7 4.07537 1
gene 1 2 19 1.01246 0 28 1.01246 1
gene 1 19 8 -2.10782 0 29 -2.10782 1
gene 1 3 23 1.75974 0 37 1.75974 1
gene 1 23 8 -0.698181 0 38 -0.698181 1
gene 1 7 23 -0.407632 0 69 -0.407632 1
genomeend 60

/* Organism #61 Fitness: 33 Error: 0 */
genomestart 61
trait 1 0.0875 0 0 0.00917042 0 0.0744408 0.0948746 0 
trait 2 0.2 0 0 0 0 0 0 0 
trait 3 0.3 0 0 0 0 0 0 0 
node 1 3 1 1
node 2 3 1 1
node 3 2 1 1
node 4 1 1 1
node 5 2 1 1
node 6 3 1 1
node 7 2 1 3
node 8 1 0 2
node 19 1 0 0
node 23 1 0 0
gene 2 1 8 -3.58452 0 1 -3.58452 1
gene 1 2 8 -1.27215 0 2 -1.27215 0
gene 1 3 8 1.36624 0 3 1.36624 1
gene 1 4 8 -1.69264 0 4 -1.69264 1
gene 1 5 8 7.99708 0 5 7.99708 1
gene 3 6 8 5.64527 0 6 5.64527 1
gene 2 7 8 3.83919 0 7 3.83919 1
gene 1 2 19 2.40808 0 28 2.40808 1
gene 1 19 8 -1.21638 0 29 -1.21638 1
gene 1 3 23 -0.474183 0 37 -0.474183 1
gene 1 23 8 -0.833865 0 38 -0.833865 1
gene 1 7 23 -0.407632 0 69 -0.407632 1
genomeend 61

/* Organism #62 Fitness: 27 Error: 0 */
genomestart 62
trait 1 0.0875 0 0 0.00917042 0 0.0744408 0.0948746 0 
trait 2 0.2 0 0 0 0 0 0 0 
trait 3 0.3 0 0 0 0 0 0 0 
node 1 3 1 1
node 2 3 1 1
node 3 2 1 1
node 4 1 1 1
node 5 2 1 1
node 6 3 1 1
node 7 2 1 3
node 8 1 0 2
node 19 1 0 0
node 23 1 0 0
gene 2 1 8 -4.52438 0 1 -4.52438 1
gene 1 2 8 -0.468811 0 2 -0.468811 0
gene 1 3 8 2.7436 0 3 2.7436 1
gene 2 4 8 -2.72659 0 4 -2.72659 1
gene 1 5 8 2.15916 0 5 2.15916 1
gene 3 6 8 0.806386 0 6 0.806386 1
gene 2 7 8 4.95573 0 7 4.95573 1
gene 1 2 19 1.60073 0 28 1.60073 1
gene 1 19 8 -0.145552 0 29 -0.145552 1
gene 1 3 23 0.585298 0 37 0.585298 1
gene 1 23 8 -1.61522 0 38 -1.61522 1
gene 1 7 23 1.55106 0 69 1.55106 1
genomeend 62

/* Organism #63 Fitness: 31 Error: 0 */
genomestart 63
trait 1 0.0875 0 0 0.00917042 0 0.0744408 0.0948746 0 
trait 2 0.2 0 0 0 0 0 0 0 
trait 3 0.3 0 0 0 0 0 0 0 
node 1 3 1 1
node 2 3 1 1
node 3 2 1 1
node 4 1 1 1
node 5 2 1 1
node 6 3 1 1
node 7 2 1 3
node 8 1 0 2
node 19 1 0 0
node 23 1 0 0
gene 2 1 8 -3.69848 0 1 -3.69848 1
gene 1 2 8 0.172081 0 2 0.172081 0
gene 1 3 8 2.6273 0 3 2.6273 1
gene 2 4 8 -5.6901 0 4 -5.6901 1
gene 1 5 8 4.35588 0 5 4.35588 1
gene 3 6 8 5.50312 0 6 5.50312 1
gene 2 7 8 2.9002 0 7 2.9002 1
gene 1 2 19 0.226403 0 28 0.226403 1
gene 1 19 8 -1.64458 0 29 -1.64458 1
gene 1 3 23 2.24188 0 37 2.24188 1
gene 1 23 8 -0.698181 0 38 -0.698181 1
gene 1 7 23 -2.22425 0 69 -2.22425 1
genomeend 63

/* Organism #64 Fitness: 25 Error: 0 */
genomestart 64
trait 1 0.0875 0 0 0.00917042 0 0.0744408 0.0948746 0 
trait 2 0.2 0 0 0 0 0 0 0 
trait 3 0.3 0 0 0 0 0 0 0 
node 1 3 1 1
node 2 3 1 1
node 3 2 1 1
node 4 1 1 1
node 5 2 1 1
node 6 3 1 1
node 7 2 1 3
node 8 1 0 2
node 19 1 0 0
node 23 1 0 0
gene 2 1 8 -3.21861 0 1 -3.21861 1
gene 1 2 8 -0.411255 0 2 -0.411255 0
gene 1 3 8 -1.86697 0 3 -1.86697 1
gene 2 4 8 -5.48105 0 4 -5.48105 1
gene 1 5 8 6.82835 0 5 6.82835 1
gene 3 6 8 0.870033 0 6 0.870033 1
gene 2 7 8 3.79991 0 7 3.79991 1
gene 1 2 19 -0.245436 0 28 -0.245436 1
gene 1 19 8 -0.270132 0 29 -0.270132 1
gene 1 3 23 -0.175217 0 37 -0.175217 1
gene 1 23 8 -1.25547 0 38 -1.25547 1
gene 1 7 23 -2.27444 0 69 -2.27444 1
genomeend 64

/* Organism #65 Fitness: 32 Error: 0 */
genomestart 65
trait 1 0.0875 0 0 0.00917042 0 0.0744408 0.0948746 0 
trait 2 0.2 0 0 0 0 0 0 0 
trait 3 0.3 0 0 0 0 0 0 0 
node 1 3 1 1
node 2 3 1 1
node 3 2 1 1
node 4 2 1 1
node 5 2 1 1
node 6 3 1 1
node 7 2 1 3
node 8 1 0 2
node 19 1 0 0
node 23 1 0 0
gene 2 1 8 -2.6093 0 1 -2.6093 1
gene 1 2 8 -1.60486 0 2 -1.60486 0
gene 1 3 8 3.04436 0 3 3.04436 1
gene 2 4 8 -3.73067 0 4 -3.73067 1
gene 1 5 8 5.11398 0 5 5.11398 1
gene 3 6 8 3.85967 0 6 3.85967 1
gene 2 7 8 3.15423 0 7 3.15423 1
gene 1 2 19 1.63895 0 28 1.63895 1
gene 1 19 8 -4.22684 0 29 -4.22684 1
gene 1 3 23 3.19108 0 37 3.19108 1
gene 1 23 8 1.31134 0 38 1.31134 1
gene 1 7 23 0.935537 0 69 0.935537 1
genomeend 65

/* Organism #66 Fitness: 17 Error: 0 */
genomestart 66
trait 1 0.0875 0 0 0.00917042 0 0.0744408 0.0948746 0 
trait 2 0.2 0 0 0 0 0 0 0 
trait 3 0.3 0 0 0 0 0 0 0 
node 1 3 1 1
node 2 3 1 1
node 3 2 1 1
node 4 1 1 1
node 5 2 1 1
node 6 3 1 1
node 7 2 1 3
node 8 1 0 2
node 19 1 0 0
node 23 1 0 0
gene 2 1 8 -0.329505 0 1 -0.329505 1
gene 1 2 8 -1.9683 0 2 -1.9683 0
gene 1 3 8 4.65799 0 3 4.65799 1
gene 2 4 8 -1.53824 0 4 -1.53824 1
gene 1 5 8 1.72684 0 5 1.72684 1
gene 3 6 8 2.55148 0 6 2.55148 1
gene 2 7 8 4.07537 0 7 4.07537 1
gene 1 2 19 0.362533 0 28 0.362533 1
gene 1 19 8 0.171065 0 29 0.171065 1
gene 1 3 23 1.75974 0 37 1.75974 1
gene 1 23 8 -0.341339 0 38 -0.341339 1
gene 1 7 23 -1.01139 0 69 -1.01139 1
genomeend 66

/* Organism #67 Fitness: 32 Error: 0 */
genomestart 67
trait 1 0.0875 0 0 0.00917042 0 0.0744408 0 0 
trait 2 0.2 0 0 0 0 0 0 0 
trait 3 0.3 0 0 0 0 0 0 0 
node 1 3 1 1
node 2 3 1 1
node 3 2 1 1
node 4 1 1 1
node 5 2 1 1
node 6 3 1 1
node 7 2 1 3
node 8 1 0 2
node 19 1 0 0
node 23 1 0 0
gene 2 1 8 -4.1661 0 1 -4.1661 1
gene 1 2 8 -2.7841 0 2 -2.7841 0
gene 1 3 8 0.757981 0 3 0.757981 1
gene 2 4 8 -0.375736 0 4 -0.375736 1
gene 1 5 8 -0.485983 0 5 -0.485983 1
gene 3 6 8 4.83758 0 6 4.83758 1
gene 2 7 8 1.93799 0 7 1.93799 1
gene 1 2 19 1.55008 0 28 1.55008 1
gene 1 19 8 -2.96739 0 29 -2.96739 1
gene 1 3 23 -0.363575 0 37 -0.363575 1
gene 1 23 8 1.77691 0 38 1.77691 1
gene 1 7 23 0.0236279 0 69 0.0236279 1
genomeend 67

/* Organism #68 Fitness: 37 Error: 0 */
genomestart 68
trait 1 0.0875 0 0 0.00917042 0 0.0744408 0.0948746 0 
trait 2 0.2 0 0 0 0 0 0 0 
trait 3 0.3 0 0 0 0 0 0 0 
node 1 3 1 1
node 2 3 1 1
node 3 2 1 1
node 4 1 1 1
node 5 2 1 1
node 6 3 1 1
node 7 2 1 3
node 8 1 0 2
node 19 1 0 0
node 23 1 0 0
gene 2 1 8 -2.70086 0 1 -2.70086 1
gene 1 2 8 -3.1346 0 2 -3.1346 0
gene 1 3 8 0.517207 0 3 0.517207 1
gene 2 4 8 -4.27632 0 4 -4.27632 1
gene 1 5 8 7.67251 0 5 7.67251 1
gene 3 6 8 4.88192 0 6 4.88192 1
gene 2 7 8 3.63191 0 7 3.63191 1
gene 1 2 19 -1.11531 0 28 -1.11531 1
gene 1 19 8 -2.76648 0 29 -2.76648 1
gene 1 3 23 1.06288 0 37 1.06288 1
gene 1 23 8 -0.698181 0 38 -0.698181 1
gene 1 7 23 -2.42665 0 69 -2.42665 1
genomeend 68

/* Organism #69 Fitness: 30 Error: 0 */
genomestart 69
trait 1 0.0875 0 0 0.00917042 0 0.0744408 0.0948746 0 
trait 2 0.2 0 0 0 0 0 0 0 
trait 3 0.3 0 0 0 0 0 0 0 
node 1 3 1 1
node 2 3 1 1
node 3 2 1 1
node 4 1 1 1
node 5 2 1 1
node 6 3 1 1
node 7 2 1 3
node 8 1 0 2
node 19 1 0 0
node 23 1 0 0
gene 2 1 8 -3.11761 0 1 -3.11761 1
gene 1 2 8 -1.10963 0 2 -1.10963 0
gene 1 3 8 4.45364 0 3 4.45364 1
gene 2 4 8 -2.96043 0 4 -2.96043 1
gene 1 5 8 4.76024 0 5 4.76024 1
gene 3 6 8 4.3821 0 6 4.3821 1
gene 2 7 8 2.8056 0 7 2.8056 1
gene 1 2 19 1.10836 0 28 1.10836 1
gene 1 19 8 -1.67192 0 29 -1.67192 1
gene 1 3 23 -0.0536473 0 37 -0.0536473 1
gene 1 23 8 0.602668 0 38 0.602668 1
gene 1 7 23 -0.407632 0 69 -0.407632 1
genomeend 69

/* Organism #70 Fitness: 45 Error: 0 */
genomestart 70
trait 1 0.0875 0 0 0.00917042 0 0.0744408 0.0948746 0 
trait 2 0.2 0 0 0 0 0 0 0 
trait 3 0.3 0 0 0 0 0 0 0 
node 1 3 1 1
node 2 3 1 1
node 3 2 1 1
node 4 1 1 1
node 5 2 1 1
node 6 3 1 1
node 7 2 1 3
node 8 1 0 2
node 19 1 0 0
node 23 1 0 0
gene 2 1 8 -3.21861 0 1 -3.21861 1
gene 1 2 8 -1.0123 0 2 -1.0123 0
gene 1 3 8 2.46618 0 3 2.46618 1
gene 2 4 8 -3.83787 0 4 -3.83787 1
gene 1 5 8 6.82835 0 5 6.82835 1
gene 3 6 8 3.51133 0 6 3.51133 1
gene 2 7 8 4.07537 0 7 4.07537 1
gene 1 2 19 1.01246 0 28 1.01246 1
gene 1 19 8 -2.10782 0 29 -2.10782 1
gene 1 3 23 1.75974 0 37 1.75974 1
gene 1 23 8 -0.698181 0 38 -0.698181 1
gene 1 7 23 -0.407632 0 69 -0.407632 1
gene 1 23 19 0.82201 0 85 0.82201 1
genomeend 70

/* Species #5 : (Size 30) (AF 43.5667) (Age 2)  */


/* Organism #71 Fitness: 87 Error: 0 */
genomestart 71
trait 1 0.084375 0 0 0.011463 0.0163967 0.0993312 0.118593 0 
trait 2 0.17986 0 0 0 0 0 0 0 
trait 3 0.3 0 0 0.049705 0.090594 0 0 0 
node 1 3 1 1
node 2 1 1 1
node 3 2 1 1
node 4 1 1 1
node 5 1 1 1
node 6 1 1 1
node 7 1 1 3
node 8 3 0 2
node 24 1 0 0
gene 1 1 8 -1.97982 0 1 -1.97982 0
gene 2 2 8 1.54466 0 2 1.54466 1
gene 3 3 8 -3.57608 0 3 -3.57608 1
gene 3 4 8 -0.159383 0 4 -0.159383 1
gene 3 5 8 4.57813 0 5 4.57813 1
gene 3 6 8 0.870186 0 6 0.870186 1
gene 2 7 8 -0.239373 0 7 -0.239373 1
gene 2 1 24 1 0 39 0 1
gene 2 24 8 -0.800939 0 40 0 1
gene 1 2 24 -0.526975 0 60 -0.526975 1
genomeend 71

/* Organism #72 Fitness: 78 Error: 0 */
genomestart 72
trait 1 0.084375 0 0 0.011463 0.0163967 0.0993312 0.118593 0 
trait 2 0.17986 0 0 0 0 0 0 0 
trait 3 0.3 0 0 0.049705 0.090594 0 0 0 
node 1 3 1 1
node 2 1 1 1
node 3 2 1 1
node 4 1 1 1
node 5 1 1 1
node 6 1 1 1
node 7 1 1 3
node 8 3 0 2
node 24 1 0 0
gene 1 1 8 -1.97982 0 1 -1.97982 0
gene 2 2 8 1.54466 0 2 1.54466 1
gene 3 3 8 -3.57608 0 3 -3.57608 1
gene 3 4 8 -0.159383 0 4 -0.159383 1
gene 3 5 8 4.57813 0 5 4.57813 1
gene 3 6 8 0.870186 0 6 0.870186 1
gene 2 7 8 -0.239373 0 7 -0.239373 1
gene 2 1 24 1 0 39 0 1
gene 2 24 8 -0.800939 0 40 0 1
gene 1 2 24 -0.526975 0 60 -0.526975 1
gene 3 7 24 -0.729849 0 77 -0.729849 1
genomeend 72

/* Organism #73 Fitness: 5 Error: 0 */
genomestart 73
trait 1 0.084375 0 0 0.011463 0.0163967 0.0993312 0.118593 0 
trait 2 0.17986 0 0 0 0 0 0 0 
trait 3 0.3 0 0 0.049705 0.090594 0 0 0 
node 1 3 1 1
node 2 1 1 1
node 3 2 1 1
node 4 1 1 1
node 5 1 1 1
node 6 1 1 1
node 7 1 1 3
node 8 3 0 2
node 24 1 0 0
gene 1 1 8 -3.83068 0 1 -3.83068 0
gene 2 2 8 1.54466 0 2 1.54466 1
gene 3 3 8 -5.6565 0 3 -5.6565 1
gene 3 4 8 2.03581 0 4 2.03581 1
gene 3 5 8 1.17929 0 5 1.17929 1
gene 3 6 8 -1.16132 0 6 -1.16132 1
gene 2 7 8 1.09963 0 7 1.09963 1
gene 2 1 24 1.8523 0 39 1.8523 1
gene 2 24 8 -1.29371 0 40 -1.29371 1
gene 1 2 24 -0.249459 0 60 -0.249459 1
genomeend 73

/* Organism #74 Fitness: 28 Error: 0 */
genomestart 74
trait 1 0.084375 0 0 0.011463 0.0163967 0.0993312 0.118593 0 
trait 2 0.17986 0 0 0 0 0 0 0 
trait 3 0.3 0 0 0.049705 0.090594 0 0 0 
node 1 3 1 1
node 2 1 1 1
node 3 2 1 1
node 4 1 1 1
node 5 1 1 1
node 6 1 1 1
node 7 1 1 3
node 8 3 0 2
node 24 1 0 0
gene 1 1 8 -0.0618764 0 1 -0.0618764 0
gene 2 2 8 -0.740709 0 2 -0.740709 1
gene 3 3 8 -5.66813 0 3 -5.66813 1
gene 3 4 8 -1.70439 0 4 -1.70439 1
gene 3 5 8 4.57813 0 5 4.57813 1
gene 3 6 8 1.39972 0 6 1.39972 1
gene 2 7 8 -1.99211 0 7 -1.99211 1
gene 2 1 24 3.32681 0 39 3.32681 1
gene 2 24 8 -3.01391 0 40 -3.01391 1
gene 1 2 24 1.15257 0 60 1.15257 1
genomeend 74

/* Organism #75 Fitness: 87 Error: 0 */
genomestart 75
trait 1 0.084375 0 0 0.011463 0.0163967 0.0993312 0.118593 0 
trait 2 0.17986 0 0 0 0 0 0 0 
trait 3 0.3 0 0 0.049705 0.090594 0 0 0 
node 1 3 1 1
node 2 1 1 1
node 3 2 1 1
node 4 1 1 1
node 5 1 1 1
node 6 1 1 1
node 7 1 1 3
node 8 3 0 2
node 24 1 0 0
gene 1 1 8 -1.97982 0 1 -1.97982 0
gene 2 2 8 1.54466 0 2 1.54466 1
gene 3 3 8 -3.57608 0 3 -3.57608 1
gene 3 4 8 -0.159383 0 4 -0.159383 1
gene 3 5 8 4.57813 0 5 4.57813 1
gene 3 6 8 0.870186 0 6 0.870186 1
gene 2 7 8 -0.239373 0 7 -0.239373 1
gene 2 1 24 1 0 39 0 1
gene 2 24 8 -0.800939 0 40 0 1
gene 1 2 24 -0.526975 0 60 -0.526975 1
genomeend 75

/* Organism #76 Fitness: 5 Error: 0 */
genomestart 76
trait 1 0.084375 0 0 0.011463 0.0163967 0.0993312 0.118593 0 
trait 2 0.17986 0 0 0 0 0 0 0 
trait 3 0.3 0 0 0.049705 0.090594 0 0 0 
node 1 3 1 1
node 2 1 1 1
node 3 2 1 1
node 4 1 1 1
node 5 1 1 1
node 6 1 1 1
node 7 1 1 3
node 8 3 0 2
node 24 1 0 0
gene 1 1 8 -1.45249 0 1 -1.45249 0
gene 2 2 8 1.82968 0 2 1.82968 1
gene 3 3 8 -6.04882 0 3 -6.04882 1
gene 3 4 8 1.28413 0 4 1.28413 1
gene 3 5 8 4.19324 0 5 4.19324 1
gene 3 6 8 -1.50779 0 6 -1.50779 1
gene 2 7 8 -1.22161 0 7 -1.22161 1
gene 2 1 24 1.7126 0 39 1.7126 1
gene 2 24 8 1.26858 0 40 1.26858 1
gene 1 2 24 -2.88151 0 60 -2.88151 1
genomeend 76

/* Organism #77 Fitness: 95 Error: 0 */
genomestart 77
trait 1 0.084375 0 0 0.011463 0.0163967 0.0993312 0.118593 0 
trait 2 0 0 0 0.693148 0 0 0 0 
trait 3 0.3 0 0 0.049705 0.090594 0 0 0 
node 1 3 1 1
node 2 1 1 1
node 3 2 1 1
node 4 1 1 1
node 5 1 1 1
node 6 1 1 1
node 7 1 1 3
node 8 3 0 2
node 24 1 0 0
gene 1 1 8 0.412587 0 1 0.412587 0
gene 2 2 8 3.91971 0 2 3.91971 1
gene 3 3 8 -2.58332 0 3 -2.58332 1
gene 3 4 8 2.2494 0 4 2.2494 1
gene 3 5 8 5.99246 0 5 5.99246 1
gene 3 6 8 2.07621 0 6 2.07621 1
gene 2 7 8 0.446234 0 7 0.446234 1
gene 2 1 24 -1.06589 0 39 -1.06589 1
gene 2 24 8 -2.46186 0 40 -2.46186 1
gene 1 2 24 -0.526975 0 60 -0.526975 1
genomeend 77

/* Organism #78 Fitness: 38 Error: 0 */
genomestart 78
trait 1 0.084375 0 0 0.011463 0.0163967 0.0993312 0.118593 0 
trait 2 0.17986 0 0 0 0 0 0 0 
trait 3 0.3 0 0 0.049705 0.090594 0 0 0 
node 1 3 1 1
node 2 1 1 1
node 3 2 1 1
node 4 1 1 1
node 5 1 1 1
node 6 1 1 1
node 7 1 1 3
node 8 3 0 2
node 24 1 0 0
gene 1 1 8 -0.155923 0 1 -0.155923 0
gene 2 2 8 3.7471 0 2 3.7471 1
gene 3 3 8 -5.27615 0 3 -5.27615 1
gene 3 4 8 -1.91952 0 4 -1.91952 1
gene 3 5 8 5.5578 0 5 5.5578 1
gene 3 6 8 3.09746 0 6 3.09746 1
gene 2 7 8 2.01768 0 7 2.01768 1
gene 2 1 24 2.10776 0 39 2.10776 1
gene 2 24 8 0.31336 0 40 0.31336 1
gene 1 2 24 0.289763 0 60 0.289763 1
genomeend 78

/* Organism #79 Fitness: 5 Error: 0 */
genomestart 79
trait 1 0.084375 0 0 0.011463 0.0163967 0.0993312 0.118593 0 
trait 2 0.17986 0 0 0 0 0 0 0 
trait 3 0.3 0 0 0.049705 0.090594 0 0 0 
node 1 3 1 1
node 2 1 1 1
node 3 2 1 1
node 4 1 1 1
node 5 1 1 1
node 6 1 1 1
node 7 1 1 3
node 8 3 0 2
node 24 1 0 0
gene 1 1 8 0.232542 0 1 0.232542 0
gene 2 2 8 -0.0548515 0 2 -0.0548515 1
gene 3 3 8 -1.26417 0 3 -1.26417 1
gene 3 4 8 2.03729 0 4 2.03729 1
gene 3 5 8 4.57813 0 5 4.57813 1
gene 3 6 8 -0.873167 0 6 -0.873167 1
gene 2 7 8 -1.88619 0 7 -1.88619 1
gene 2 1 24 0.750354 0 39 0.750354 1
gene 2 24 8 0.191527 0 40 0.191527 1
gene 1 2 24 -1.92576 0 60 -1.92576 1
genomeend 79

/* Organism #80 Fitness: 87 Error: 0 */
genomestart 80
trait 1 0.084375 0 0 0.011463 0.0163967 0.0993312 0.118593 0 
trait 2 0.17986 0 0 0 0 0 0 0 
trait 3 0.3 0 0 0.049705 0.090594 0 0 0 
node 1 3 1 1
node 2 1 1 1
node 3 2 1 1
node 4 1 1 1
node 5 3 1 1
node 6 1 1 1
node 7 1 1 3
node 8 3 0 2
node 24 1 0 0
gene 1 1 8 -1.97982 0 1 -1.97982 0
gene 2 2 8 1.54466 0 2 1.54466 1
gene 3 3 8 -3.57608 0 3 -3.57608 1
gene 3 4 8 -0.159383 0 4 -0.159383 1
gene 3 5 8 4.57813 0 5 4.57813 1
gene 3 6 8 0.870186 0 6 0.870186 1
gene 2 7 8 -0.239373 0 7 -0.239373 1
gene 2 1 24 1 0 39 0 1
gene 2 24 8 -0.800939 0 40 0 1
gene 1 2 24 -0.526975 0 60 -0.526975 1
genomeend 80

/* Organism #81 Fitness: 5 Error: 0 */
genomestart 81
trait 1 0.084375 0 0 0.011463 0.0163967 0.0993312 0.118593 0 
trait 2 0.17986 0 0 0 0 0 0 0 
trait 3 0.3 0 0 0.049705 0.090594 0 0 0 
node 1 3 1 1
node 2 1 1 1
node 3 2 1 1
node 4 1 1 1
node 5 1 1 1
node 6 1 1 1
node 7 1 1 3
node 8 3 0 2
node 24 1 0 0
gene 1 1 8 -4.4748 0 1 -4.4748 0
gene 1 2 8 -0.243978 0 2 -0.243978 1
gene 3 3 8 -5.42305 0 3 -5.42305 1
gene 3 4 8 -1.39805 0 4 -1.39805 1
gene 3 5 8 4.57813 0 5 4.57813 1
gene 3 6 8 -1.51337 0 6 -1.51337 1
gene 2 7 8 -0.239373 0 7 -0.239373 1
gene 2 1 24 1 0 39 1 1
gene 2 24 8 1.49235 0 40 1.49235 1
gene 1 2 24 0.428969 0 60 0.428969 1
genomeend 81

/* Organism #82 Fitness: 100 Error: 0 */
genomestart 82
trait 1 0.084375 0 0 0.011463 0.0163967 0.0993312 0.118593 0 
trait 2 0.17986 0 0 0 0 0 0 0 
trait 3 0.3 0 0 0.049705 0.090594 0 0 0 
node 1 3 1 1
node 2 1 1 1
node 3 2 1 1
node 4 1 1 1
node 5 1 1 1
node 6 1 1 1
node 7 1 1 3
node 8 3 0 2
node 24 1 0 0
gene 1 1 8 -3.03224 0 1 -3.03224 0
gene 2 2 8 2.69485 0 2 2.69485 1
gene 3 3 8 -4.30987 0 3 -4.30987 1
gene 3 4 8 -0.910329 0 4 -0.910329 1
gene 3 5 8 3.47448 0 5 3.47448 1
gene 3 6 8 2.26024 0 6 2.26024 1
gene 2 7 8 0.0416623 0 7 0.0416623 1
gene 2 1 24 2.667 0 39 2.667 1
gene 2 24 8 -0.00399245 0 40 -0.00399245 1
gene 1 2 24 -2.30083 0 60 -2.30083 1
genomeend 82

/* Organism #83 Fitness: 69 Error: 0 */
genomestart 83
trait 1 0.084375 0 0 0.011463 0.0163967 0.0993312 0.118593 0 
trait 2 0.17986 0 0 0 0 0 0 0 
trait 3 0.3 0 0 0.049705 0.090594 0 0 0 
node 1 3 1 1
node 2 1 1 1
node 3 2 1 1
node 4 1 1 1
node 5 1 1 1
node 6 1 1 1
node 7 1 1 3
node 8 3 0 2
node 24 1 0 0
gene 1 1 8 -4.38484 0 1 -4.38484 0
gene 2 2 8 1.67939 0 2 1.67939 1
gene 3 3 8 -4.24396 0 3 -4.24396 1
gene 3 4 8 -1.83694 0 4 -1.83694 1
gene 3 5 8 6.73171 0 5 6.73171 1
gene 3 6 8 2.31756 0 6 2.31756 1
gene 2 7 8 0.0247967 0 7 0.0247967 1
gene 2 1 24 0.747295 0 39 0.747295 1
gene 2 24 8 -1.36163 0 40 -1.36163 1
gene 1 2 24 0.695424 0 60 0.695424 1
genomeend 83

/* Organism #84 Fitness: 7 Error: 0 */
genomestart 84
trait 1 0.084375 0 0 0.011463 0.0163967 0.0993312 0.118593 0 
trait 2 0.17986 0 0 0 0 0 0 0 
trait 3 0.3 0 0 0.049705 0.090594 0 0 0 
node 1 3 1 1
node 2 1 1 1
node 3 2 1 1
node 4 1 1 1
node 5 1 1 1
node 6 1 1 1
node 7 1 1 3
node 8 3 0 2
node 24 1 0 0
gene 1 1 8 0.0498623 0 1 0.0498623 0
gene 2 2 8 -0.273 0 2 -0.273 1
gene 3 3 8 -5.07441 0 3 -5.07441 1
gene 3 4 8 -0.198175 0 4 -0.198175 1
gene 3 5 8 6.14289 0 5 6.14289 1
gene 3 6 8 -1.61585 0 6 -1.61585 1
gene 2 7 8 1.82331 0 7 1.82331 1
gene 2 1 24 0.829116 0 39 0.829116 1
gene 2 24 8 -2.93061 0 40 -2.93061 1
gene 1 2 24 -1.97431 0 60 -1.97431 1
genomeend 84

/* Organism #85 Fitness: 60 Error: 0 */
genomestart 85
trait 1 0.084375 0 0 0.011463 0.0163967 0.0993312 0.118593 0 
trait 2 0.17986 0 0 0 0 0 0 0 
trait 3 0.3 0 0 0.049705 0.090594 0 0 0 
node 1 3 1 1
node 2 1 1 1
node 3 2 1 1
node 4 1 1 1
node 5 1 1 1
node 6 1 1 1
node 7 1 1 3
node 8 3 0 2
node 24 1 0 0
gene 1 1 8 -2.33846 0 1 -2.33846 0
gene 2 2 8 1.68155 0 2 1.68155 1
gene 3 3 8 -1.75635 0 3 -1.75635 1
gene 3 4 8 -0.703008 0 4 -0.703008 1
gene 3 5 8 5.87864 0 5 5.87864 1
gene 3 6 8 1.50504 0 6 1.50504 1
gene 2 7 8 0.379945 0 7 0.379945 1
gene 2 1 24 0.710276 0 39 0.710276 1
gene 2 24 8 -1.11604 0 40 -1.11604 1
gene 1 2 24 -0.978965 0 60 -0.978965 1
genomeend 85

/* Organism #86 Fitness: 38 Error: 0 */
genomestart 86
trait 1 0.084375 0 0 0.011463 0.0163967 0.0993312 0.118593 0 
trait 2 0.17986 0 0 0 0 0 0 0 
trait 3 0.3 0 0 0.049705 0.090594 0 0 0 
node 1 3 1 1
node 2 1 1 1
node 3 2 1 1
node 4 1 1 1
node 5 1 1 1
node 6 1 1 1
node 7 1 1 3
node 8 3 0 2
node 24 1 0 0
gene 1 1 8 -1.9437 0 1 -1.9437 0
gene 2 2 8 2.96204 0 2 2.96204 1
gene 3 3 8 -5.61278 0 3 -5.61278 1
gene 3 4 8 0.119988 0 4 0.119988 1
gene 3 5 8 0.175324 0 5 0.175324 1
gene 3 6 8 2.30227 0 6 2.30227 1
gene 2 7 8 0.87297 0 7 0.87297 1
gene 2 1 24 0.887669 0 39 0.887669 1
gene 2 24 8 0.000677127 0 40 0.000677127 1
gene 1 2 24 -0.515173 0 60 -0.515173 1
genomeend 86

/* Organism #87 Fitness: 37 Error: 0 */
genomestart 87
trait 1 0.084375 0 0 0.011463 0.0163967 0.0993312 0.118593 0 
trait 2 0.17986 0 0 0 0 0 0 0 
trait 3 0.3 0 0 0.049705 0.090594 0 0 0 
node 1 3 1 1
node 2 1 1 1
node 3 2 1 1
node 4 1 1 1
node 5 1 1 1
node 6 1 1 1
node 7 1 1 3
node 8 3 0 2
node 24 1 0 0
gene 1 1 8 -1.27152 0 1 -1.27152 0
gene 2 2 8 0.858129 0 2 0.858129 1
gene 3 3 8 -2.35787 0 3 -2.35787 1
gene 3 4 8 -0.315151 0 4 -0.315151 1
gene 3 5 8 4.35351 0 5 4.35351 1
gene 3 6 8 1.55039 0 6 1.55039 1
gene 2 7 8 -1.03319 0 7 -1.03319 1
gene 2 1 24 1.46201 0 39 1.46201 1
gene 2 24 8 -2.8775 0 40 -2.8775 1
gene 1 2 24 -0.790059 0 60 -0.790059 1
genomeend 87

/* Organism #88 Fitness: 39 Error: 0 */
genomestart 88
trait 1 0.084375 0 0 0.011463 0.0163967 0.0993312 0.118593 0 
trait 2 0.17986 0 0 0 0 0 0 0 
trait 3 0.3 0 0 0.049705 0.090594 0 0 0 
node 1 3 1 1
node 2 1 1 1
node 3 2 1 1
node 4 1 1 1
node 5 1 1 1
node 6 1 1 1
node 7 1 1 3
node 8 3 0 2
node 24 1 0 0
gene 1 1 8 -3.02241 0 1 -3.02241 0
gene 2 2 8 2.53051 0 2 2.53051 1
gene 3 3 8 -1.34724 0 3 -1.34724 1
gene 3 4 8 -0.0509602 0 4 -0.0509602 1
gene 3 5 8 6.70565 0 5 6.70565 1
gene 3 6 8 3.26079 0 6 3.26079 1
gene 2 7 8 1.71318 0 7 1.71318 1
gene 2 1 24 -0.925716 0 39 -0.925716 1
gene 2 24 8 -0.111695 0 40 -0.111695 1
gene 1 2 24 -2.54927 0 60 -2.54927 1
genomeend 88

/* Organism #89 Fitness: 32 Error: 0 */
genomestart 89
trait 1 0.084375 0 0 0.011463 0.967762 0.0993312 0 0 
trait 2 0.17986 0 0 0 0 0 0 0 
trait 3 0.3 0 0 0.049705 0.090594 0 0 0 
node 1 3 1 1
node 2 1 1 1
node 3 2 1 1
node 4 1 1 1
node 5 1 1 1
node 6 1 1 1
node 7 1 1 3
node 8 3 0 2
node 24 1 0 0
gene 1 1 8 -0.0521601 0 1 -0.0521601 0
gene 2 2 8 4.03601 0 2 4.03601 1
gene 3 3 8 -1.14695 0 3 -1.14695 1
gene 3 4 8 -2.49421 0 4 -2.49421 1
gene 3 5 8 5.99415 0 5 5.99415 1
gene 3 6 8 0.756819 0 6 0.756819 1
gene 2 7 8 1.11175 0 7 1.11175 1
gene 2 1 24 1.0533 0 39 1.0533 1
gene 2 24 8 1.29659 0 40 1.29659 1
gene 1 2 24 -2.61586 0 60 -2.61586 1
genomeend 89

/* Organism #90 Fitness: 44 Error: 0 */
genomestart 90
trait 1 0.084375 0 0 0.011463 0.0163967 0.0993312 0.118593 0 
trait 2 0.17986 0 0 0 0 0 0 0 
trait 3 0.3 0 0 0.049705 0.090594 0 0 0 
node 1 3 1 1
node 2 1 1 1
node 3 2 1 1
node 4 1 1 1
node 5 1 1 1
node 6 1 1 1
node 7 1 1 3
node 8 3 0 2
node 24 1 0 0
gene 1 1 8 -3.74022 0 1 -3.74022 0
gene 2 2 8 1.74771 0 2 1.74771 1
gene 3 3 8 -4.13323 0 3 -4.13323 1
gene 3 4 8 1.36709 0 4 1.36709 1
gene 3 5 8 5.76176 0 5 5.76176 1
gene 3 6 8 2.90717 0 6 2.90717 1
gene 2 7 8 -2.49593 0 7 -2.49593 1
gene 2 1 24 -0.487655 0 39 -0.487655 1
gene 2 24 8 0.65988 0 40 0.65988 1
gene 1 2 24 -2.19085 0 60 -2.19085 1
genomeend 90

/* Organism #91 Fitness: 43 Error: 0 */
genomestart 91
trait 1 0.084375 0 0 0.011463 0.0163967 0.0993312 0.118593 0 
trait 2 0.17986 0 0 0 0 0 0 0 
trait 3 0.3 0 0 0.049705 0.090594 0 0 0 
node 1 3 1 1
node 2 1 1 1
node 3 2 1 1
node 4 1 1 1
node 5 1 1 1
node 6 1 1 1
node 7 1 1 3
node 8 3 0 2
node 24 1 0 0
gene 1 1 8 -3.37704 0 1 -3.37704 0
gene 2 2 8 1.40834 0 2 1.40834 1
gene 3 3 8 -4.41372 0 3 -4.41372 1
gene 3 4 8 1.51725 0 4 1.51725 1
gene 3 5 8 4.58879 0 5 4.58879 1
gene 3 6 8 2.68086 0 6 2.68086 1
gene 2 7 8 0.219461 0 7 0.219461 1
gene 2 1 24 1.51282 0 39 1.51282 1
gene 2 24 8 -1.50271 0 40 -1.50271 1
gene 1 2 24 -0.526975 0 60 -0.526975 1
genomeend 91

/* Organism #92 Fitness: 56 Error: 0 */
genomestart 92
trait 1 0.084375 0 0 0.011463 0.0163967 0.0993312 0.118593 0 
trait 2 0.17986 0 0 0 0 0 0 0 
trait 3 0.3 0 0 0.049705 0.090594 0 0 0 
node 1 3 1 1
node 2 1 1 1
node 3 2 1 1
node 4 1 1 1
node 5 1 1 1
node 6 1 1 1
node 7 1 1 3
node 8 3 0 2
node 24 1 0 0
gene 1 1 8 -0.208024 0 1 -0.208024 0
gene 2 2 8 -0.176313 0 2 -0.176313 1
gene 3 3 8 -3.59306 0 3 -3.59306 1
gene 3 4 8 -0.0602425 0 4 -0.0602425 1
gene 3 5 8 4.3283 0 5 4.3283 1
gene 3 6 8 1.69186 0 6 1.69186 1
gene 2 7 8 -0.945162 0 7 -0.945162 1
gene 2 1 24 -0.0453949 0 39 -0.0453949 1
gene 2 24 8 0.446574 0 40 0.446574 1
gene 1 2 24 -0.0584909 0 60 -0.0584909 1
genomeend 92

/* Organism #93 Fitness: 36 Error: 0 */
genomestart 93
trait 1 0.084375 0 0 0.011463 0.0163967 0.0993312 0.118593 0 
trait 2 0.17986 0 0 0 0 0 0 0 
trait 3 0.3 0 0 0.049705 0.090594 0 0 0 
node 1 3 1 1
node 2 1 1 1
node 3 2 1 1
node 4 1 1 1
node 5 1 1 1
node 6 1 1 1
node 7 1 1 3
node 8 3 0 2
node 24 1 0 0
gene 1 1 8 -0.206246 0 1 -0.206246 0
gene 2 2 8 1.75941 0 2 1.75941 1
gene 3 3 8 -5.49892 0 3 -5.49892 1
gene 3 4 8 1.7729 0 4 1.7729 1
gene 3 5 8 4.25107 0 5 4.25107 1
gene 3 6 8 1.97437 0 6 1.97437 1
gene 2 7 8 0.361309 0 7 0.361309 1
gene 2 1 24 3.20567 0 39 3.20567 1
gene 2 24 8 -3.12516 0 40 -3.12516 1
gene 1 2 24 -0.526975 0 60 -0.526975 1
genomeend 93

/* Organism #94 Fitness: 57 Error: 0 */
genomestart 94
trait 1 0.084375 0 0 0.011463 0.0163967 0.0993312 0.118593 0 
trait 2 0.17986 0 0 0 0 0 0 0 
trait 3 0.3 0 0 0.049705 0.090594 0 0 0 
node 1 3 1 1
node 2 1 1 1
node 3 2 1 1
node 4 1 1 1
node 5 1 1 1
node 6 1 1 1
node 7 1 1 3
node 8 3 0 2
node 24 1 0 0
gene 1 1 8 -0.469878 0 1 -0.469878 0
gene 2 2 8 1.54466 0 2 1.54466 1
gene 3 3 8 -2.24485 0 3 -2.24485 1
gene 3 4 8 -1.38303 0 4 -1.38303 1
gene 3 5 8 0.572899 0 5 0.572899 1
gene 3 6 8 0.870186 0 6 0.870186 1
gene 2 7 8 0.889104 0 7 0.889104 1
gene 2 1 24 1.97493 0 39 1.97493 1
gene 2 24 8 -0.684123 0 40 -0.684123 1
gene 1 2 24 -0.136213 0 60 -0.136213 1
genomeend 94

/* Organism #95 Fitness: 38 Error: 0 */
genomestart 95
trait 1 0.084375 0 0 0.011463 0.0163967 0.0993312 0.118593 0 
trait 2 0.17986 0.652678 0 0 0.656353 0.295225 0 0.717898 
trait 3 0.3 0 0 0.049705 0.090594 0 0 0 
node 1 3 1 1
node 2 1 1 1
node 3 2 1 1
node 4 1 1 1
node 5 1 1 1
node 6 1 1 1
node 7 1 1 3
node 8 3 0 2
node 24 1 0 0
gene 1 1 8 -4.28214 0 1 -4.28214 0
gene 2 2 8 3.12131 0 2 3.12131 1
gene 3 3 8 -2.73734 0 3 -2.73734 1
gene 3 4 8 0.0150301 0 4 0.0150301 1
gene 3 5 8 3.55503 0 5 3.55503 1
gene 3 6 8 1.10577 0 6 1.10577 1
gene 2 7 8 0.246655 0 7 0.246655 1
gene 2 1 24 0.015283 0 39 0.015283 1
gene 2 24 8 1.02561 0 40 1.02561 1
gene 1 2 24 -0.526975 0 60 -0.526975 1
genomeend 95

/* Organism #96 Fitness: 5 Error: 0 */
genomestart 96
trait 1 0.084375 0 0 0.011463 0.0163967 0.0993312 0.118593 0 
trait 2 0.17986 0 0 0 0 0 0 0 
trait 3 0.3 0 0 0.049705 0.090594 0 0 0 
node 1 3 1 1
node 2 1 1 1
node 3 2 1 1
node 4 1 1 1
node 5 1 1 1
node 6 1 1 1
node 7 1 1 3
node 8 3 0 2
node 24 1 0 0
gene 1 1 8 -0.975221 0 1 -0.975221 0
gene 2 2 8 -1.86942 0 2 -1.86942 1
gene 3 3 8 -2.43883 0 3 -2.43883 1
gene 3 4 8 0.279581 0 4 0.279581 1
gene 3 5 8 1.75892 0 5 1.75892 1
gene 3 6 8 -2.37361 0 6 -2.37361 1
gene 2 7 8 2.1605 0 7 2.1605 1
gene 2 1 24 2.22846 0 39 2.22846 1
gene 2 24 8 0.33276 0 40 0.33276 1
gene 1 2 24 -0.526975 0 60 -0.526975 1
genomeend 96

/* Organism #97 Fitness: 87 Error: 0 */
genomestart 97
trait 1 0.084375 0 0 0.011463 0.0163967 0.0993312 0.118593 0 
trait 2 0.17986 0 0 0 0 0 0 0 
trait 3 0.3 0 0 0.049705 0.090594 0 0 0 
node 1 3 1 1
node 2 1 1 1
node 3 2 1 1
node 4 1 1 1
node 5 1 1 1
node 6 1 1 1
node 7 1 1 3
node 8 3 0 2
node 24 1 0 0
gene 1 1 8 -1.97982 0 1 -1.97982 0
gene 2 2 8 1.54466 0 2 1.54466 1
gene 3 3 8 -3.57608 0 3 -3.57608 1
gene 3 4 8 -0.159383 0 4 -0.159383 1
gene 3 5 8 4.57813 0 5 4.57813 1
gene 3 6 8 0.870186 0 6 0.870186 1
gene 2 7 8 -0.239373 0 7 -0.239373 1
gene 2 1 24 1 0 39 0 1
gene 2 24 8 -0.800939 0 40 0 1
gene 1 2 24 -0.526975 0 60 -0.526975 1
genomeend 97

/* Organism #98 Fitness: 9 Error: 0 */
genomestart 98
trait 1 0.084375 0 0 0.011463 0.0163967 0.0993312 0.118593 0 
trait 2 0.17986 0 0 0 0 0 0 0 
trait 3 0.3 0 0 0.049705 0.090594 0 0 0 
node 1 3 1 1
node 2 1 1 1
node 3 2 1 1
node 4 1 1 1
node 5 1 1 1
node 6 1 1 1
node 7 1 1 3
node 8 3 0 2
node 24 1 0 0
gene 1 1 8 -2.98432 0 1 -2.98432 0
gene 2 2 8 1.90875 0 2 1.90875 1
gene 3 3 8 -1.49161 0 3 -1.49161 1
gene 3 4 8 0.605395 0 4 0.605395 1
gene 3 5 8 -1.31451 0 5 -1.31451 1
gene 3 6 8 0.870186 0 6 0.870186 1
gene 2 7 8 -0.00878133 0 7 -0.00878133 1
gene 2 1 24 1.41703 0 39 1.41703 1
gene 2 24 8 -1.27802 0 40 -1.27802 1
gene 1 2 24 -0.0899645 0 60 -0.0899645 1
genomeend 98

/* Organism #99 Fitness: 25 Error: 0 */
genomestart 99
trait 1 0.084375 0 0 0.011463 0.0163967 0.0993312 0.118593 0 
trait 2 0.17986 0 0 0 0 0 0 0 
trait 3 0.3 0 0 0.049705 0.090594 0 0 0 
node 1 3 1 1
node 2 1 1 1
node 3 3 1 1
node 4 1 1 1
node 5 1 1 1
node 6 1 1 1
node 7 1 1 3
node 8 3 0 2
node 24 1 0 0
gene 1 1 8 -1.79692 0 1 -1.79692 0
gene 2 2 8 1.30625 0 2 1.30625 1
gene 3 3 8 -5.63808 0 3 -5.63808 1
gene 3 4 8 1.58523 0 4 1.58523 1
gene 2 5 8 6.65212 0 5 6.65212 1
gene 3 6 8 -0.132696 0 6 -0.132696 1
gene 2 7 8 0.368427 0 7 0.368427 1
gene 2 1 24 0.464248 0 39 0.464248 1
gene 2 24 8 0.76259 0 40 0.76259 1
gene 1 2 24 -2.32891 0 60 -2.32891 1
genomeend 99

/* Organism #100 Fitness: 5 Error: 0 */
genomestart 100
trait 1 0.084375 0 0.133756 0.011463 0.0163967 0.0993312 0.118593 0 
trait 2 0.17986 0 0 0 0 0 0 0 
trait 3 0.3 0 0 0.049705 0.090594 0 0 0 
node 1 3 1 1
node 2 1 1 1
node 3 2 1 1
node 4 1 1 1
node 5 1 1 1
node 6 1 1 1
node 7 1 1 3
node 8 3 0 2
node 24 1 0 0
gene 1 1 8 -4.08491 0 1 -4.08491 0
gene 2 2 8 -0.737223 0 2 -0.737223 1
gene 3 3 8 -3.77595 0 3 -3.77595 1
gene 3 4 8 0.970113 0 4 0.970113 1
gene 3 5 8 -0.984967 0 5 -0.984967 1
gene 3 6 8 -0.369826 0 6 -0.369826 1
gene 2 7 8 -0.311538 0 7 -0.311538 1
gene 2 1 24 1 0 39 1 1
gene 2 24 8 0.213151 0 40 0.213151 1
gene 1 2 24 1.24625 0 60 1.24625 1
genomeend 100

/* Species #6 : (Size 17) (AF 25.9412) (Age 2)  */


/* Organism #101 Fitness: 50 Error: 0 */
genomestart 101
trait 1 0.1 0 0 0 0 0 0 0 
trait 2 0.2 0 0 0 0 0 0 0 
trait 3 0.3 0 0 0 0 0 0 0 
node 1 3 1 1
node 2 3 1 1
node 3 2 1 1
node 4 1 1 1
node 5 2 1 1
node 6 3 1 1
node 7 2 1 3
node 8 1 0 2
node 19 1 0 0
gene 2 1 8 -0.581938 0 1 -0.581938 1
gene 1 2 8 0.120067 0 2 0.120067 0
gene 1 3 8 -1.47632 0 3 -1.47632 1
gene 2 4 8 -2.20185 0 4 -2.20185 1
gene 1 5 8 1.42993 0 5 1.42993 1
gene 3 6 8 1.52887 0 6 1.52887 1
gene 2 7 8 -0.518176 0 7 -0.518176 1
gene 1 2 19 2.79937 0 28 2.79937 1
gene 1 19 8 0.120067 0 29 0 1
gene 1 7 19 1.1831 0 32 1.1831 1
gene 2 5 19 -0.00822457 0 43 0 1
gene 1 6 19 -0.318902 0 55 -0.318902 1
gene 2 3 19 0.532313 0 63 0.532313 1
genomeend 101

/* Organism #102 Fitness: 38 Error: 0 */
genomestart 102
trait 1 0.1 0 0 0 0 0 0 0 
trait 2 0.2 0 0 0 0 0 0 0 
trait 3 0.3 0 0 0 0 0 0 0 
node 1 3 1 1
node 2 3 1 1
node 3 2 1 1
node 4 1 1 1
node 5 2 1 1
node 6 3 1 1
node 7 2 1 3
node 8 1 0 2
node 19 1 0 0
gene 2 1 8 -1.85303 0 1 -1.85303 1
gene 1 2 8 0.819167 0 2 0.819167 0
gene 1 3 8 -0.954326 0 3 -0.954326 1
gene 2 4 8 -0.648318 0 4 -0.648318 1
gene 2 5 8 0.786429 0 5 0.786429 1
gene 3 6 8 1.66965 0 6 1.66965 1
gene 2 7 8 -1.93534 0 7 -1.93534 1
gene 1 2 19 2.13424 0 28 2.13424 1
gene 1 19 8 0.683554 0 29 0.683554 1
gene 1 7 19 1.79022 0 32 1.79022 1
gene 2 5 19 2.09311 0 43 2.09311 1
gene 1 6 19 -0.318902 0 55 -0.318902 1
gene 2 3 19 0.0519099 0 63 0.0519099 1
genomeend 102

/* Organism #103 Fitness: 12 Error: 0 */
genomestart 103
trait 1 0.1 0 0 0 0 0 0 0 
trait 2 0.2 0 0 0 0 0 0 0 
trait 3 0.3 0 0 0 0 0 0 0 
node 1 3 1 1
node 2 3 1 1
node 3 2 1 1
node 4 1 1 1
node 5 2 1 1
node 6 3 1 1
node 7 2 1 3
node 8 1 0 2
node 19 1 0 0
gene 2 1 8 -1.81485 0 1 -1.81485 1
gene 1 2 8 -2.31071 0 2 -2.31071 0
gene 1 3 8 -1.26322 0 3 -1.26322 1
gene 2 4 8 -1.24317 0 4 -1.24317 1
gene 1 5 8 -0.813806 0 5 -0.813806 1
gene 3 6 8 1.33636 0 6 1.33636 1
gene 2 7 8 -0.331562 0 7 -0.331562 1
gene 1 2 19 4.83506 0 28 4.83506 1
gene 1 19 8 -1.21026 0 29 -1.21026 1
gene 1 7 19 1.58822 0 32 1.58822 1
gene 2 5 19 0.275516 0 43 0.275516 1
gene 1 6 19 -1.24243 0 55 -1.24243 1
gene 2 3 19 0.532313 0 63 0.532313 1
genomeend 103

/* Organism #104 Fitness: 6 Error: 0 */
genomestart 104
trait 1 0.1 0 0 0 0 0 0 0 
trait 2 0.2 0 0 0 0 0 0 0 
trait 3 0.3 0 0 0 0 0 0 0 
node 1 3 1 1
node 2 3 1 1
node 3 2 1 1
node 4 1 1 1
node 5 2 1 1
node 6 3 1 1
node 7 2 1 3
node 8 1 0 2
node 19 1 0 0
gene 2 1 8 1.88591 0 1 1.88591 1
gene 1 2 8 1.29817 0 2 1.29817 0
gene 1 3 8 -1.41705 0 3 -1.41705 1
gene 2 4 8 -1.94584 0 4 -1.94584 1
gene 1 5 8 2.91964 0 5 2.91964 1
gene 3 6 8 -0.886368 0 6 -0.886368 1
gene 2 7 8 0.0663242 0 7 0.0663242 1
gene 1 2 19 4.69443 0 28 4.69443 1
gene 1 19 8 0.896011 0 29 0.896011 1
gene 1 7 19 0.609758 0 32 0.609758 1
gene 2 5 19 -2.41466 0 43 -2.41466 1
gene 1 6 19 -0.00812754 0 55 -0.00812754 1
gene 2 3 19 -2.43569 0 63 -2.43569 1
genomeend 104

/* Organism #105 Fitness: 5 Error: 0 */
genomestart 105
trait 1 0.1 0 0 0 0 0 0 0 
trait 2 0.2 0 0 0 0 0 0 0 
trait 3 0.3 0 0 0 0 0 0 0 
node 1 3 1 1
node 2 3 1 1
node 3 2 1 1
node 4 1 1 1
node 5 2 1 1
node 6 3 1 1
node 7 2 1 3
node 8 1 0 2
node 19 1 0 0
gene 2 1 8 -0.581938 0 1 -0.581938 1
gene 1 2 8 1.87443 0 2 1.87443 0
gene 1 3 8 -2.4988 0 3 -2.4988 1
gene 2 4 8 -1.97776 0 4 -1.97776 1
gene 1 5 8 -0.463614 0 5 -0.463614 1
gene 3 6 8 -0.832307 0 6 -0.832307 1
gene 2 7 8 -0.130099 0 7 -0.130099 1
gene 1 2 19 1.62838 0 28 1.62838 1
gene 1 19 8 1.06368 0 29 1.06368 1
gene 1 7 19 1.81457 0 32 1.81457 1
gene 2 5 19 0.895602 0 43 0.895602 1
gene 1 6 19 0.252343 0 55 0.252343 1
gene 2 3 19 0.532313 0 63 0.532313 1
genomeend 105

/* Organism #106 Fitness: 5 Error: 0 */
genomestart 106
trait 1 0.1 0 0 0 0 0 0 0 
trait 2 0.2 0 0 0 0 0 0 0 
trait 3 0.3 0 0 0 0 0 0 0 
node 1 3 1 1
node 2 3 1 1
node 3 2 1 1
node 4 1 1 1
node 5 2 1 1
node 6 3 1 1
node 7 2 1 3
node 8 1 0 2
node 19 1 0 0
gene 2 1 8 -0.833041 0 1 -0.833041 1
gene 1 2 8 -2.02899 0 2 -2.02899 0
gene 1 3 8 -2.61612 0 3 -2.61612 1
gene 2 4 8 -1.25557 0 4 -1.25557 1
gene 1 5 8 0.598228 0 5 0.598228 1
gene 3 6 8 -0.595731 0 6 -0.595731 1
gene 2 7 8 -0.518176 0 7 -0.518176 1
gene 1 2 19 0.35298 0 28 0.35298 1
gene 1 19 8 2.23295 0 29 2.23295 1
gene 1 7 19 -1.64054 0 32 -1.64054 1
gene 2 5 19 1.55628 0 43 1.55628 1
gene 1 6 19 -0.318902 0 55 -0.318902 1
gene 2 3 19 2.70567 0 63 2.70567 1
genomeend 106

/* Organism #107 Fitness: 50 Error: 0 */
genomestart 107
trait 1 0.1 0 0 0 0 0 0 0 
trait 2 0.2 0 0 0 0 0 0 0 
trait 3 0.3 0 0 0 0 0 0 0 
node 1 3 1 1
node 2 3 1 1
node 3 2 1 1
node 4 1 1 1
node 5 2 1 1
node 6 3 1 1
node 7 2 1 3
node 8 1 0 2
node 19 3 0 0
gene 2 1 8 -0.581938 0 1 -0.581938 1
gene 1 2 8 0.120067 0 2 0.120067 0
gene 1 3 8 -1.47632 0 3 -1.47632 1
gene 2 4 8 -2.20185 0 4 -2.20185 1
gene 1 5 8 1.42993 0 5 1.42993 1
gene 3 6 8 1.52887 0 6 1.52887 1
gene 2 7 8 -0.518176 0 7 -0.518176 1
gene 1 2 19 2.79937 0 28 2.79937 1
gene 1 19 8 0.120067 0 29 0 1
gene 1 7 19 1.1831 0 32 1.1831 1
gene 2 5 19 -0.00822457 0 43 0 1
gene 1 6 19 -0.318902 0 55 -0.318902 1
gene 2 3 19 0.532313 0 63 0.532313 1
genomeend 107

/* Organism #108 Fitness: 50 Error: 0 */
genomestart 108
trait 1 0.1 0 0 0 0 0 0 0 
trait 2 0.2 0 0 0 0 0 0 0 
trait 3 0.3 0 0 0 0 0 0 0 
node 1 3 1 1
node 2 3 1 1
node 3 2 1 1
node 4 1 1 1
node 5 2 1 1
node 6 3 1 1
node 7 2 1 3
node 8 1 0 2
node 19 1 0 0
gene 2 1 8 -0.581938 0 1 -0.581938 1
gene 1 2 8 0.120067 0 2 0.120067 0
gene 1 3 8 -1.47632 0 3 -1.47632 1
gene 2 4 8 -2.20185 0 4 -2.20185 1
gene 1 5 8 1.42993 0 5 1.42993 1
gene 3 6 8 1.52887 0 6 1.52887 1
gene 2 7 8 -0.518176 0 7 -0.518176 1
gene 1 2 19 2.79937 0 28 2.79937 1
gene 1 19 8 0.120067 0 29 0 1
gene 1 7 19 1.1831 0 32 1.1831 1
gene 2 5 19 -0.00822457 0 43 0 1
gene 1 6 19 -0.318902 0 55 -0.318902 1
gene 2 3 19 0.532313 0 63 0.532313 1
genomeend 108

/* Organism #109 Fitness: 5 Error: 0 */
genomestart 109
trait 1 0.1 0 0 0 0 0 0 0 
trait 2 0.2 0 0 0 0 0 0 0 
trait 3 0.3 0 0 0 0 0 0 0 
node 1 3 1 1
node 2 3 1 1
node 3 2 1 1
node 4 1 1 1
node 5 2 1 1
node 6 3 1 1
node 7 2 1 3
node 8 1 0 2
node 19 1 0 0
gene 2 1 8 1.64082 0 1 1.64082 1
gene 1 2 8 2.35641 0 2 2.35641 0
gene 1 3 8 0.447053 0 3 0.447053 1
gene 2 4 8 -1.5568 0 4 -1.5568 1
gene 1 5 8 -0.803104 0 5 -0.803104 1
gene 3 6 8 -1.68995 0 6 -1.68995 1
gene 2 7 8 -2.15126 0 7 -2.15126 1
gene 1 2 19 4.5186 0 28 4.5186 1
gene 1 19 8 1.59881 0 29 1.59881 1
gene 1 7 19 -1.07341 0 32 -1.07341 1
gene 2 5 19 -0.00822457 0 43 -0.00822457 1
gene 1 6 19 1.78317 0 55 1.78317 1
gene 2 3 19 0.856746 0 63 0.856746 1
genomeend 109

/* Organism #110 Fitness: 50 Error: 0 */
genomestart 110
trait 1 0.1 0 0 0.0409799 0 0 0 0 
trait 2 0.2 0 0 0 0 0 0 0 
trait 3 0.3 0 0 0 0 0 0 0 
node 1 3 1 1
node 2 3 1 1
node 3 2 1 1
node 4 1 1 1
node 5 2 1 1
node 6 3 1 1
node 7 2 1 3
node 8 1 0 2
node 19 1 0 0
gene 2 1 8 -0.581938 0 1 -0.581938 1
gene 1 2 8 0.120067 0 2 0.120067 0
gene 1 3 8 -1.47632 0 3 -1.47632 1
gene 2 4 8 -2.20185 0 4 -2.20185 1
gene 1 5 8 1.42993 0 5 1.42993 1
gene 3 6 8 1.52887 0 6 1.52887 1
gene 2 7 8 -0.518176 0 7 -0.518176 1
gene 1 2 19 2.79937 0 28 2.79937 1
gene 1 19 8 0.120067 0 29 0 1
gene 1 7 19 1.1831 0 32 1.1831 1
gene 2 5 19 -0.00822457 0 43 0 1
gene 1 6 19 -0.318902 0 55 -0.318902 1
gene 2 3 19 0.532313 0 63 0.532313 1
genomeend 110

/* Organism #111 Fitness: 5 Error: 0 */
genomestart 111
trait 1 0.1 0 0 0 0 0 0 0 
trait 2 0.2 0 0 0 0 0 0 0 
trait 3 0.3 0 0 0 0 0 0 0 
node 1 3 1 1
node 2 3 1 1
node 3 2 1 1
node 4 1 1 1
node 5 2 1 1
node 6 3 1 1
node 7 2 1 3
node 8 1 0 2
node 19 1 0 0
gene 2 1 8 -0.638369 0 1 -0.638369 1
gene 1 2 8 1.91663 0 2 1.91663 0
gene 1 3 8 -1.07781 0 3 -1.07781 1
gene 2 4 8 -0.500965 0 4 -0.500965 1
gene 1 5 8 -0.228237 0 5 -0.228237 1
gene 3 6 8 -2.44511 0 6 -2.44511 1
gene 2 7 8 -2.89206 0 7 -2.89206 1
gene 1 2 19 5.04491 0 28 5.04491 1
gene 1 19 8 1.29133 0 29 1.29133 1
gene 1 7 19 2.82706 0 32 2.82706 1
gene 2 5 19 1.87919 0 43 1.87919 1
gene 1 6 19 -2.57813 0 55 -2.57813 1
gene 2 3 19 -0.0229124 0 63 -0.0229124 1
genomeend 111

/* Organism #112 Fitness: 5 Error: 0 */
genomestart 112
trait 1 0.1 0 0 0 0 0 0 0 
trait 2 0.2 0 0 0 0 0 0 0 
trait 3 0.3 0 0 0 0 0 0 0 
node 1 3 1 1
node 2 3 1 1
node 3 2 1 1
node 4 1 1 1
node 5 2 1 1
node 6 3 1 1
node 7 2 1 3
node 8 1 0 2
node 19 1 0 0
gene 2 1 8 1.91464 0 1 1.91464 1
gene 1 2 8 -1.94229 0 2 -1.94229 0
gene 1 3 8 0.938241 0 3 0.938241 1
gene 2 4 8 -0.676058 0 4 -0.676058 1
gene 1 5 8 0.521751 0 5 0.521751 1
gene 3 6 8 -0.46277 0 6 -0.46277 1
gene 2 7 8 -1.79304 0 7 -1.79304 1
gene 1 2 19 0.559864 0 28 0.559864 1
gene 1 19 8 -1.50644 0 29 -1.50644 1
gene 1 7 19 3.43693 0 32 3.43693 1
gene 2 5 19 -0.512469 0 43 -0.512469 1
gene 1 6 19 2.03004 0 55 2.03004 1
gene 2 3 19 1.78505 0 63 1.78505 1
genomeend 112

/* Organism #113 Fitness: 52 Error: 0 */
genomestart 113
trait 1 0.1 0 0 0 0 0 0 0 
trait 2 0.2 0 0 0 0 0 0 0 
trait 3 0.3 0 0 0 0 0 0 0 
node 1 3 1 1
node 2 3 1 1
node 3 2 1 1
node 4 1 1 1
node 5 2 1 1
node 6 3 1 1
node 7 2 1 3
node 8 1 0 2
node 19 1 0 0
node 36 1 0 0
gene 2 1 8 -0.581938 0 1 -0.581938 1
gene 1 2 8 0.120067 0 2 0.120067 0
gene 1 3 8 -1.47632 0 3 -1.47632 1
gene 2 4 8 -2.20185 0 4 -2.20185 1
gene 1 5 8 1.42993 0 5 1.42993 1
gene 3 6 8 1.52887 0 6 1.52887 1
gene 2 7 8 -0.518176 0 7 -0.518176 1
gene 1 2 19 2.79937 0 28 2.79937 1
gene 1 19 8 0.120067 0 29 0 1
gene 1 7 19 1.1831 0 32 1.1831 1
gene 2 5 19 -0.00822457 0 43 0 0
gene 1 6 19 -0.318902 0 55 -0.318902 1
gene 2 3 19 0.532313 0 63 0.532313 1
gene 2 5 36 1 0 78 0 1
gene 2 36 19 -0.00822457 0 79 0 1
genomeend 113

/* Organism #114 Fitness: 23 Error: 0 */
genomestart 114
trait 1 0.1 0 0 0 0 0 0 0 
trait 2 0.2 0 0 0 0 0 0 0 
trait 3 0.3 0 0 0 0 0 0 0 
node 1 3 1 1
node 2 3 1 1
node 3 2 1 1
node 4 1 1 1
node 5 2 1 1
node 6 3 1 1
node 7 2 1 3
node 8 1 0 2
node 19 1 0 0
gene 2 1 8 -0.0970767 0 1 -0.0970767 1
gene 1 2 8 -0.259972 0 2 -0.259972 0
gene 1 3 8 -0.868945 0 3 -0.868945 1
gene 2 4 8 1.71081 0 4 1.71081 1
gene 1 5 8 2.39078 0 5 2.39078 1
gene 3 6 8 2.71305 0 6 2.71305 1
gene 2 7 8 -2.67615 0 7 -2.67615 1
gene 1 2 19 4.90417 0 28 4.90417 1
gene 1 19 8 -1.67106 0 29 -1.67106 1
gene 1 7 19 1.1831 0 32 1.1831 1
gene 2 5 19 -1.10908 0 43 -1.10908 1
gene 1 6 19 -1.53196 0 55 -1.53196 1
gene 2 3 19 -1.28897 0 63 -1.28897 1
genomeend 114

/* Organism #115 Fitness: 29 Error: 0 */
genomestart 115
trait 1 0.1 0 0 0 0 0 0 0 
trait 2 0.2 0 0 0 0 0 0 0 
trait 3 0.3 0 0 0 0 0 0 0 
node 1 3 1 1
node 2 3 1 1
node 3 2 1 1
node 4 1 1 1
node 5 2 1 1
node 6 3 1 1
node 7 2 1 3
node 8 1 0 2
node 19 1 0 0
gene 2 1 8 -0.673096 0 1 -0.673096 1
gene 1 2 8 2.01177 0 2 2.01177 0
gene 1 3 8 -3.05472 0 3 -3.05472 1
gene 2 4 8 -3.81088 0 4 -3.81088 1
gene 1 5 8 -0.818737 0 5 -0.818737 1
gene 3 6 8 3.12799 0 6 3.12799 1
gene 2 7 8 -2.54131 0 7 -2.54131 1
gene 1 2 19 0.629506 0 28 0.629506 1
gene 1 19 8 0.306965 0 29 0.306965 1
gene 1 7 19 -0.390905 0 32 -0.390905 1
gene 2 5 19 1.90522 0 43 1.90522 1
gene 1 6 19 0.703577 0 55 0.703577 1
gene 2 3 19 1.25106 0 63 1.25106 1
genomeend 115

/* Organism #116 Fitness: 22 Error: 0 */
genomestart 116
trait 1 0.1 0 0 0 0 0 0 0 
trait 2 0.2 0 0 0 0 0 0 0 
trait 3 0.3 0 0 0 0 0 0 0 
node 1 3 1 1
node 2 3 1 1
node 3 2 1 1
node 4 1 1 1
node 5 2 1 1
node 6 3 1 1
node 7 2 1 3
node 8 1 0 2
node 19 1 0 0
gene 2 1 8 1.24131 0 1 1.24131 1
gene 1 2 8 -1.89008 0 2 -1.89008 0
gene 1 3 8 -3.06507 0 3 -3.06507 1
gene 2 4 8 -0.429244 0 4 -0.429244 1
gene 1 5 8 0.259139 0 5 0.259139 1
gene 3 6 8 2.52523 0 6 2.52523 1
gene 2 7 8 -0.570599 0 7 -0.570599 1
gene 1 2 19 4.65243 0 28 4.65243 1
gene 1 19 8 -0.574228 0 29 -0.574228 1
gene 1 7 19 1.1831 0 32 1.1831 1
gene 2 5 19 -1.79493 0 43 -1.79493 1
gene 1 6 19 -2.24778 0 55 -2.24778 1
gene 2 3 19 -0.486069 0 63 -0.486069 1
genomeend 116

/* Organism #117 Fitness: 34 Error: 0 */
genomestart 117
trait 1 0.1 0 0 0 0 0 0 0 
trait 2 0.2 0 0 0 0 0 0 0 
trait 3 0.3 0 0 0 0 0 0 0 
node 1 3 1 1
node 2 3 1 1
node 3 2 1 1
node 4 1 1 1
node 5 2 1 1
node 6 3 1 1
node 7 2 1 3
node 8 1 0 2
node 19 1 0 0
gene 2 1 8 0.154188 0 1 0.154188 1
gene 1 2 8 0.0721155 0 2 0.0721155 0
gene 1 3 8 -1.71079 0 3 -1.71079 1
gene 2 4 8 -0.849497 0 4 -0.849497 1
gene 1 5 8 0.774759 0 5 0.774759 1
gene 3 6 8 2.80924 0 6 2.80924 1
gene 2 7 8 0.178185 0 7 0.178185 1
gene 1 2 19 3.37804 0 28 3.37804 1
gene 1 19 8 -0.878207 0 29 -0.878207 1
gene 1 7 19 -0.0246465 0 32 -0.0246465 1
gene 2 5 19 -1.01779 0 43 -1.01779 1
gene 1 6 19 2.36192 0 55 2.36192 1
gene 2 3 19 -0.29934 0 63 -0.29934 1
genomeend 117

/* Species #7 : (Size 27) (AF 47.1852) (Age 2)  */


/* Organism #118 Fitness: 81 Error: 0 */
genomestart 118
trait 1 0.1 0 0 0 0 0 0 0 
trait 2 0.2 0 0 0 0 0 0 0 
trait 3 0.3 0 0 0 0 0 0 0 
node 1 3 1 1
node 2 3 1 1
node 3 2 1 1
node 4 1 1 1
node 5 2 1 1
node 6 3 1 1
node 7 2 1 3
node 8 1 0 2
node 19 1 0 0
node 31 1 0 0
gene 2 1 8 -0.581938 0 1 -0.581938 1
gene 1 2 8 0.120067 0 2 0.120067 0
gene 1 3 8 -1.47632 0 3 -1.47632 1
gene 2 4 8 -0.568287 0 4 -0.568287 1
gene 1 5 8 1.42993 0 5 1.42993 1
gene 3 6 8 1.27857 0 6 1.27857 1
gene 2 7 8 0.0930652 0 7 0.0930652 1
gene 1 2 19 1 0 28 0 1
gene 1 19 8 0.120067 0 29 0 1
gene 1 7 19 0.128038 0 32 0.128038 1
gene 2 1 19 -0.488745 0 41 -0.488745 0
gene 2 1 31 1 0 64 0 1
gene 2 31 19 -0.488745 0 65 0 1
genomeend 118

/* Organism #119 Fitness: 30 Error: 0 */
genomestart 119
trait 1 0.1 0 0 0 0 0 0 0 
trait 2 0.2 0 0 0 0 0 0 0 
trait 3 0.3 0 0 0 0 0 0 0 
node 1 3 1 1
node 2 3 1 1
node 3 2 1 1
node 4 1 1 1
node 5 2 1 1
node 6 3 1 1
node 7 2 1 3
node 8 1 0 2
node 19 1 0 0
node 31 1 0 0
gene 2 1 8 1.6209 0 1 1.6209 1
gene 1 2 8 2.07607 0 2 2.07607 0
gene 1 3 8 -3.91645 0 3 -3.91645 1
gene 2 4 8 -2.53049 0 4 -2.53049 1
gene 1 5 8 2.44542 0 5 2.44542 1
gene 3 6 8 2.40874 0 6 2.40874 1
gene 2 7 8 2.26391 0 7 2.26391 1
gene 1 2 19 -1.10886 0 28 -1.10886 1
gene 1 19 8 -1.81786 0 29 -1.81786 1
gene 1 7 19 0.280565 0 32 0.280565 1
gene 2 1 19 -0.0867122 0 41 -0.0867122 0
gene 2 1 31 -2.36424 0 64 -2.36424 1
gene 2 31 19 -1.91051 0 65 -1.91051 1
genomeend 119

/* Organism #120 Fitness: 5 Error: 0 */
genomestart 120
trait 1 0.1 0 0 0 0 0 0 0 
trait 2 0 0.426679 0 0 0 0 0.471645 0.956456 
trait 3 0.3 0 0 0 0 0 0 0 
node 1 3 1 1
node 2 3 1 1
node 3 2 1 1
node 4 1 1 1
node 5 2 1 1
node 6 3 1 1
node 7 2 1 3
node 8 1 0 2
node 19 1 0 0
node 31 1 0 0
gene 2 1 8 -2.40163 0 1 -2.40163 1
gene 1 2 8 -1.5641 0 2 -1.5641 0
gene 1 3 8 0.105032 0 3 0.105032 1
gene 2 4 8 -3.06153 0 4 -3.06153 1
gene 1 5 8 1.63972 0 5 1.63972 1
gene 3 6 8 -0.819779 0 6 -0.819779 1
gene 2 7 8 -0.565993 0 7 -0.565993 1
gene 1 2 19 2.36346 0 28 2.36346 1
gene 1 19 8 -1.33527 0 29 -1.33527 1
gene 1 7 19 1.31142 0 32 1.31142 1
gene 2 1 19 -0.870824 0 41 -0.870824 0
gene 2 1 31 0.375318 0 64 0.375318 1
gene 2 31 19 -2.3132 0 65 -2.3132 1
genomeend 120

/* Organism #121 Fitness: 37 Error: 0 */
genomestart 121
trait 1 0.1 0 0 0 0 0 0 0 
trait 2 0.2 0 0 0 0 0 0 0 
trait 3 0.3 0 0 0 0 0 0 0 
node 1 3 1 1
node 2 3 1 1
node 3 2 1 1
node 4 1 1 1
node 5 2 1 1
node 6 3 1 1
node 7 2 1 3
node 8 1 0 2
node 19 1 0 0
node 31 1 0 0
gene 2 1 8 -2.23902 0 1 -2.23902 1
gene 1 2 8 0.290376 0 2 0.290376 0
gene 1 3 8 0.900886 0 3 0.900886 1
gene 2 4 8 1.38911 0 4 1.38911 1
gene 1 5 8 3.11039 0 5 3.11039 1
gene 3 6 8 2.93217 0 6 2.93217 1
gene 2 7 8 -1.89932 0 7 -1.89932 1
gene 1 2 19 0.311925 0 28 0.311925 1
gene 1 19 8 1.04997 0 29 1.04997 1
gene 1 7 19 -2.15674 0 32 -2.15674 1
gene 2 1 19 -1.38132 0 41 -1.38132 0
gene 2 1 31 1 0 64 1 1
gene 2 31 19 -1.35313 0 65 -1.35313 1
genomeend 121

/* Organism #122 Fitness: 81 Error: 0 */
genomestart 122
trait 1 0.1 0 0 0 0 0 0 0 
trait 2 0.2 0 0 0 0 0 0 0 
trait 3 0.3 0 0 0 0 0 0 0 
node 1 3 1 1
node 2 3 1 1
node 3 2 1 1
node 4 1 1 1
node 5 2 1 1
node 6 3 1 1
node 7 2 1 3
node 8 1 0 2
node 19 1 0 0
node 31 1 0 0
gene 2 1 8 -0.581938 0 1 -0.581938 1
gene 1 2 8 0.120067 0 2 0.120067 0
gene 1 3 8 -1.47632 0 3 -1.47632 1
gene 2 4 8 -0.568287 0 4 -0.568287 1
gene 1 5 8 1.42993 0 5 1.42993 1
gene 3 6 8 1.27857 0 6 1.27857 1
gene 2 7 8 0.0930652 0 7 0.0930652 1
gene 1 2 19 1 0 28 0 1
gene 1 19 8 0.120067 0 29 0 1
gene 1 7 19 0.128038 0 32 0.128038 1
gene 2 1 19 -0.488745 0 41 -0.488745 0
gene 2 1 31 1 0 64 0 1
gene 2 31 19 -0.488745 0 65 0 1
genomeend 122

/* Organism #123 Fitness: 26 Error: 0 */
genomestart 123
trait 1 0.1 0 0 0 0 0 0 0 
trait 2 0.2 0 0 0 0 0 0 0 
trait 3 0.3 0 0 0 0 0 0 0 
node 1 3 1 1
node 2 3 1 1
node 3 2 1 1
node 4 1 1 1
node 5 2 1 1
node 6 3 1 1
node 7 2 1 3
node 8 1 0 2
node 19 1 0 0
node 31 1 0 0
gene 2 1 8 -1.40681 0 1 -1.40681 1
gene 1 2 8 0.120067 0 2 0.120067 0
gene 1 3 8 0.370314 0 3 0.370314 1
gene 2 4 8 -0.451374 0 4 -0.451374 1
gene 1 5 8 1.47072 0 5 1.47072 1
gene 3 6 8 2.22138 0 6 2.22138 1
gene 2 7 8 0.929944 0 7 0.929944 1
gene 1 2 19 -1.60034 0 28 -1.60034 1
gene 1 19 8 0.913767 0 29 0.913767 1
gene 1 7 19 -1.08728 0 32 -1.08728 1
gene 2 1 19 0.602186 0 41 0.602186 0
gene 2 1 31 -1.29659 0 64 -1.29659 1
gene 2 31 19 1.57152 0 65 1.57152 1
genomeend 123

/* Organism #124 Fitness: 27 Error: 0 */
genomestart 124
trait 1 0.1 0 0 0 0 0 0 0 
trait 2 0.2 0 0 0 0 0 0 0 
trait 3 0.3 0 0 0 0 0 0 0 
node 1 3 1 1
node 2 3 1 1
node 3 2 1 1
node 4 1 1 1
node 5 2 1 1
node 6 3 1 1
node 7 2 1 3
node 8 1 0 2
node 19 1 0 0
node 31 1 0 0
gene 2 1 8 1.38121 0 1 1.38121 1
gene 1 2 8 2.35337 0 2 2.35337 0
gene 1 3 8 -0.863761 0 3 -0.863761 1
gene 2 4 8 -2.58164 0 4 -2.58164 1
gene 1 5 8 2.20956 0 5 2.20956 1
gene 3 6 8 2.48627 0 6 2.48627 1
gene 2 7 8 1.74571 0 7 1.74571 1
gene 1 2 19 1.22496 0 28 1.22496 1
gene 1 19 8 2.1686 0 29 2.1686 1
gene 1 7 19 -1.54089 0 32 -1.54089 1
gene 2 1 19 -1.06748 0 41 -1.06748 0
gene 2 1 31 -0.0920859 0 64 -0.0920859 1
gene 2 31 19 1.22843 0 65 1.22843 1
genomeend 124

/* Organism #125 Fitness: 5 Error: 0 */
genomestart 125
trait 1 0.1 0 0 0 0 0 0 0 
trait 2 0.2 0 0 0 0 0 0 0 
trait 3 0.3 0 0 0 0 0 0 0 
node 1 3 1 1
node 2 3 1 1
node 3 2 1 1
node 4 1 1 1
node 5 2 1 1
node 6 3 1 1
node 7 2 1 3
node 8 1 0 2
node 19 1 0 0
node 31 1 0 0
gene 2 1 8 -0.138542 0 1 -0.138542 1
gene 1 2 8 1.7744 0 2 1.7744 0
gene 1 3 8 -2.25193 0 3 -2.25193 1
gene 2 4 8 1.68957 0 4 1.68957 1
gene 1 5 8 3.41804 0 5 3.41804 1
gene 3 6 8 -0.612139 0 6 -0.612139 1
gene 2 7 8 -0.615533 0 7 -0.615533 1
gene 1 2 19 -0.761804 0 28 -0.761804 1
gene 1 19 8 0.643357 0 29 0.643357 1
gene 1 7 19 -0.721806 0 32 -0.721806 1
gene 2 1 19 -1.19573 0 41 -1.19573 0
gene 2 1 31 0.535161 0 64 0.535161 1
gene 2 31 19 -2.51177 0 65 -2.51177 1
genomeend 125

/* Organism #126 Fitness: 81 Error: 0 */
genomestart 126
trait 1 0.1 0 0 0 0 0 0 0 
trait 2 0.2 0 0 0 0 0 0 0 
trait 3 0.3 0 0 0 0 0 0 0 
node 1 3 1 1
node 2 3 1 1
node 3 2 1 1
node 4 1 1 1
node 5 2 1 1
node 6 3 1 1
node 7 2 1 3
node 8 1 0 2
node 19 1 0 0
node 31 1 0 0
gene 2 1 8 -0.581938 0 1 -0.581938 1
gene 1 2 8 0.120067 0 2 0.120067 0
gene 1 3 8 -1.47632 0 3 -1.47632 1
gene 2 4 8 -0.568287 0 4 -0.568287 1
gene 1 5 8 1.42993 0 5 1.42993 1
gene 3 6 8 1.27857 0 6 1.27857 1
gene 2 7 8 0.0930652 0 7 0.0930652 1
gene 1 2 19 1 0 28 0 1
gene 1 19 8 0.120067 0 29 0 1
gene 1 7 19 0.128038 0 32 0.128038 1
gene 2 1 19 -0.488745 0 41 -0.488745 0
gene 2 1 31 1 0 64 0 1
gene 2 31 19 -0.488745 0 65 0 1
genomeend 126

/* Organism #127 Fitness: 5 Error: 0 */
genomestart 127
trait 1 0.1 0 0 0 0 0 0 0 
trait 2 0.2 0 0 0 0 0 0 0 
trait 3 0.3 0 0 0 0 0 0 0 
node 1 3 1 1
node 2 3 1 1
node 3 3 1 1
node 4 1 1 1
node 5 2 1 1
node 6 3 1 1
node 7 2 1 3
node 8 1 0 2
node 19 1 0 0
node 31 1 0 0
gene 2 1 8 1.7155 0 1 1.7155 1
gene 3 2 8 0.304651 0 2 0.304651 0
gene 1 3 8 -0.797636 0 3 -0.797636 1
gene 2 4 8 1.55538 0 4 1.55538 1
gene 1 5 8 0.398757 0 5 0.398757 1
gene 3 6 8 -1.06857 0 6 -1.06857 1
gene 2 7 8 -2.33362 0 7 -2.33362 1
gene 1 2 19 3.20796 0 28 3.20796 1
gene 1 19 8 2.21103 0 29 2.21103 1
gene 1 7 19 -2.03176 0 32 -2.03176 1
gene 2 1 19 -0.72766 0 41 -0.72766 0
gene 2 1 31 2.36258 0 64 2.36258 1
gene 2 31 19 0.429077 0 65 0.429077 1
genomeend 127

/* Organism #128 Fitness: 19 Error: 0 */
genomestart 128
trait 1 0.1 0 0 0 0 0 0 0 
trait 2 0.2 0 0 0 0 0 0 0 
trait 3 0.3 0.288337 0 0 0 0 0 0 
node 1 3 1 1
node 2 3 1 1
node 3 2 1 1
node 4 1 1 1
node 5 2 1 1
node 6 3 1 1
node 7 2 1 3
node 8 1 0 2
node 19 1 0 0
node 31 1 0 0
gene 2 1 8 1.78267 0 1 1.78267 1
gene 1 2 8 1.26299 0 2 1.26299 0
gene 1 3 8 -2.13522 0 3 -2.13522 1
gene 2 4 8 1.312 0 4 1.312 1
gene 1 5 8 0.456207 0 5 0.456207 1
gene 3 6 8 1.9365 0 6 1.9365 1
gene 2 7 8 0.00810796 0 7 0.00810796 1
gene 1 2 19 3.48496 0 28 3.48496 1
gene 1 19 8 -1.81642 0 29 -1.81642 1
gene 1 7 19 0.0644033 0 32 0.0644033 1
gene 2 1 19 1.51603 0 41 1.51603 0
gene 2 1 31 -0.385064 0 64 -0.385064 1
gene 2 31 19 -0.488745 0 65 -0.488745 1
genomeend 128

/* Organism #129 Fitness: 29 Error: 0 */
genomestart 129
trait 1 0.1 0 0 0 0 0 0 0 
trait 2 0.2 0 0 0 0 0 0 0 
trait 3 0.3 0 0 0 0 0 0 0 
node 1 3 1 1
node 2 3 1 1
node 3 2 1 1
node 4 1 1 1
node 5 2 1 1
node 6 3 1 1
node 7 2 1 3
node 8 1 0 2
node 19 1 0 0
node 31 1 0 0
gene 2 1 8 1.23355 0 1 1.23355 1
gene 1 2 8 -0.288547 0 2 -0.288547 0
gene 1 3 8 -3.00399 0 3 -3.00399 1
gene 2 4 8 1.36739 0 4 1.36739 1
gene 1 5 8 3.50594 0 5 3.50594 1
gene 3 6 8 2.12335 0 6 2.12335 1
gene 2 7 8 0.697487 0 7 0.697487 1
gene 1 2 19 -0.95029 0 28 -0.95029 1
gene 1 19 8 0.85118 0 29 0.85118 1
gene 1 7 19 2.32874 0 32 2.32874 1
gene 2 1 19 -0.382968 0 41 -0.382968 0
gene 2 1 31 -1.04145 0 64 -1.04145 1
gene 2 31 19 1.76941 0 65 1.76941 1
genomeend 129

/* Organism #130 Fitness: 51 Error: 0 */
genomestart 130
trait 1 0.1 0 0 0 0 0 0 0 
trait 2 0.2 0 0 0 0 0 0 0 
trait 3 0.3 0 0 0 0 0 0 0 
node 1 3 1 1
node 2 3 1 1
node 3 2 1 1
node 4 1 1 1
node 5 2 1 1
node 6 3 1 1
node 7 2 1 3
node 8 1 0 2
node 19 1 0 0
node 31 1 0 0
gene 2 1 8 -1.16491 0 1 -1.16491 1
gene 1 2 8 0.120067 0 2 0.120067 0
gene 1 3 8 -3.93013 0 3 -3.93013 1
gene 2 4 8 -0.0668166 0 4 -0.0668166 1
gene 1 5 8 3.89178 0 5 3.89178 1
gene 3 6 8 2.21999 0 6 2.21999 1
gene 2 7 8 -1.46108 0 7 -1.46108 1
gene 1 2 19 0.143464 0 28 0.143464 1
gene 1 19 8 1.97971 0 29 1.97971 1
gene 1 7 19 1.50894 0 32 1.50894 1
gene 2 1 19 -0.136288 0 41 -0.136288 0
gene 2 1 31 1.58978 0 64 1.58978 1
gene 2 31 19 -1.91169 0 65 -1.91169 1
genomeend 130

/* Organism #131 Fitness: 81 Error: 0 */
genomestart 131
trait 1 0.1 0 0 0 0 0 0 0 
trait 2 0.2 0 0 0 0 0 0 0 
trait 3 0.3 0 0 0 0 0 0 0 
node 1 3 1 1
node 2 3 1 1
node 3 2 1 1
node 4 1 1 1
node 5 2 1 1
node 6 3 1 1
node 7 2 1 3
node 8 1 0 2
node 19 1 0 0
node 31 1 0 0
gene 2 1 8 -0.581938 0 1 -0.581938 1
gene 1 2 8 0.120067 0 2 0.120067 0
gene 1 3 8 -1.47632 0 3 -1.47632 1
gene 2 4 8 -0.568287 0 4 -0.568287 1
gene 1 5 8 1.42993 0 5 1.42993 1
gene 3 6 8 1.27857 0 6 1.27857 1
gene 2 7 8 0.0930652 0 7 0.0930652 1
gene 1 2 19 1 0 28 0 1
gene 1 19 8 0.120067 0 29 0 1
gene 1 7 19 0.128038 0 32 0.128038 1
gene 2 1 19 -0.488745 0 41 -0.488745 0
gene 2 1 31 1 0 64 0 1
gene 2 31 19 -0.488745 0 65 0 1
genomeend 131

/* Organism #132 Fitness: 84 Error: 0 */
genomestart 132
trait 1 0.1 0 0 0 0 0 0 0 
trait 2 0.2 0 0 0 0 0 0 0 
trait 3 0.3 0 0 0 0 0 0 0 
node 1 3 1 1
node 2 3 1 1
node 3 2 1 1
node 4 1 1 1
node 5 2 1 1
node 6 3 1 1
node 7 2 1 3
node 8 1 0 2
node 19 1 0 0
node 31 1 0 0
gene 2 1 8 -0.581938 0 1 -0.581938 1
gene 1 2 8 0.120067 0 2 0.120067 0
gene 1 3 8 -1.47632 0 3 -1.47632 1
gene 2 4 8 -0.568287 0 4 -0.568287 1
gene 1 5 8 1.42993 0 5 1.42993 1
gene 3 6 8 1.27857 0 6 1.27857 1
gene 2 7 8 0.0930652 0 7 0.0930652 1
gene 1 2 19 1 0 28 0 1
gene 1 19 8 0.120067 0 29 0 1
gene 1 7 19 0.128038 0 32 0.128038 1
gene 2 1 19 -0.488745 0 41 -0.488745 0
gene 2 1 31 1 0 64 0 1
gene 2 31 19 -0.488745 0 65 0 1
gene 1 5 31 -0.80952 0 80 -0.80952 1
genomeend 132

/* Organism #133 Fitness: 82 Error: 0 */
genomestart 133
trait 1 0.1 0 0 0 0 0 0 0 
trait 2 0.2 0 0 0 0 0 0 0 
trait 3 0.3 0 0 0 0 0 0 0 
node 1 3 1 1
node 2 3 1 1
node 3 2 1 1
node 4 1 1 1
node 5 2 1 1
node 6 3 1 1
node 7 2 1 3
node 8 1 0 2
node 19 1 0 0
node 31 1 0 0
gene 2 1 8 -0.581938 0 1 -0.581938 1
gene 1 2 8 0.120067 0 2 0.120067 0
gene 1 3 8 -1.47632 0 3 -1.47632 1
gene 2 4 8 -0.568287 0 4 -0.568287 1
gene 1 5 8 1.42993 0 5 1.42993 1
gene 3 6 8 1.27857 0 6 1.27857 1
gene 2 7 8 0.0930652 0 7 0.0930652 1
gene 1 2 19 1 0 28 0 1
gene 1 19 8 0.120067 0 29 0 1
gene 1 7 19 0.128038 0 32 0.128038 1
gene 2 1 19 -0.488745 0 41 -0.488745 0
gene 2 1 31 1 0 64 0 1
gene 2 31 19 -0.488745 0 65 0 1
gene 3 4 19 0.527253 0 81 0.527253 1
genomeend 133

/* Organism #134 Fitness: 98 Error: 0 */
genomestart 134
trait 1 0.841075 0.787254 0 0 0 0 0 0 
trait 2 0.2 0 0 0 0 0 0 0 
trait 3 0.3 0 0 0 0 0 0 0 
node 1 3 1 1
node 2 3 1 1
node 3 2 1 1
node 4 1 1 1
node 5 2 1 1
node 6 3 1 1
node 7 2 1 3
node 8 1 0 2
node 19 1 0 0
node 31 1 0 0
gene 2 1 8 0.0297802 0 1 0.0297802 1
gene 1 2 8 2.46087 0 2 2.46087 0
gene 1 3 8 -1.69349 0 3 -1.69349 1
gene 2 4 8 -1.72991 0 4 -1.72991 1
gene 1 5 8 1.42993 0 5 1.42993 1
gene 3 6 8 1.16061 0 6 1.16061 1
gene 2 7 8 0.0930652 0 7 0.0930652 1
gene 1 2 19 -0.895492 0 28 -0.895492 1
gene 1 19 8 -2.02314 0 29 -2.02314 1
gene 1 7 19 -0.325818 0 32 -0.325818 1
gene 3 1 19 0.281213 0 41 0.281213 0
gene 2 1 31 -0.0881797 0 64 -0.0881797 1
gene 2 31 19 -0.750466 0 65 -0.750466 1
genomeend 134

/* Organism #135 Fitness: 76 Error: 0 */
genomestart 135
trait 1 0.1 0 0 0 0 0 0 0 
trait 2 0.2 0 0 0 0 0 0 0 
trait 3 0.3 0 0 0 0 0 0 0 
node 1 3 1 1
node 2 3 1 1
node 3 2 1 1
node 4 1 1 1
node 5 2 1 1
node 6 3 1 1
node 7 2 1 3
node 8 1 0 2
node 19 1 0 0
node 31 1 0 0
gene 2 1 8 -0.581938 0 1 -0.581938 1
gene 1 2 8 0.120067 0 2 0.120067 0
gene 1 3 8 -1.47632 0 3 -1.47632 1
gene 2 4 8 -0.568287 0 4 -0.568287 1
gene 1 5 8 1.42993 0 5 1.42993 1
gene 3 6 8 1.27857 0 6 1.27857 1
gene 2 7 8 0.0930652 0 7 0.0930652 1
gene 1 2 19 1 0 28 0 1
gene 1 19 8 0.120067 0 29 0 1
gene 1 7 19 0.128038 0 32 0.128038 1
gene 2 1 19 -0.488745 0 41 -0.488745 0
gene 2 1 31 1 0 64 0 1
gene 2 31 19 -0.488745 0 65 0 1
gene 1 5 19 -0.685104 0 82 -0.685104 1
genomeend 135

/* Organism #136 Fitness: 6 Error: 0 */
genomestart 136
trait 1 0.1 0 0 0 0 0 0 0 
trait 2 0.2 0 0 0 0 0 0 0 
trait 3 0.3 0 0 0 0 0 0 0 
node 1 3 1 1
node 2 3 1 1
node 3 2 1 1
node 4 1 1 1
node 5 2 1 1
node 6 3 1 1
node 7 2 1 3
node 8 1 0 2
node 19 1 0 0
node 31 1 0 0
gene 2 1 8 -2.55721 0 1 -2.55721 1
gene 1 2 8 -2.34384 0 2 -2.34384 0
gene 1 3 8 -3.16527 0 3 -3.16527 1
gene 2 4 8 1.16736 0 4 1.16736 1
gene 1 5 8 3.84156 0 5 3.84156 1
gene 3 6 8 -1.13356 0 6 -1.13356 1
gene 2 7 8 0.55574 0 7 0.55574 1
gene 1 2 19 -1.1894 0 28 -1.1894 1
gene 1 19 8 2.19438 0 29 2.19438 1
gene 1 7 19 1.20057 0 32 1.20057 1
gene 2 1 19 -0.106848 0 41 -0.106848 0
gene 2 1 31 1 0 64 1 1
gene 2 31 19 -0.488745 0 65 -0.488745 1
genomeend 136

/* Organism #137 Fitness: 44 Error: 0 */
genomestart 137
trait 1 0.1 0 0 0 0 0 0 0 
trait 2 0.2 0 0 0 0 0 0 0 
trait 3 0.3 0 0 0 0 0 0 0 
node 1 3 1 1
node 2 3 1 1
node 3 2 1 1
node 4 1 1 1
node 5 2 1 1
node 6 3 1 1
node 7 2 1 3
node 8 1 0 2
node 19 1 0 0
node 31 1 0 0
gene 2 1 8 1.79061 0 1 1.79061 1
gene 1 2 8 -1.77591 0 2 -1.77591 0
gene 1 3 8 -3.63272 0 3 -3.63272 1
gene 2 4 8 1.91951 0 4 1.91951 1
gene 1 5 8 1.65063 0 5 1.65063 1
gene 3 6 8 3.43974 0 6 3.43974 1
gene 2 7 8 1.33282 0 7 1.33282 1
gene 1 2 19 0.546313 0 28 0.546313 1
gene 1 19 8 -0.355603 0 29 -0.355603 1
gene 1 7 19 2.56083 0 32 2.56083 1
gene 2 1 19 0.0967411 0 41 0.0967411 0
gene 2 1 31 1 0 64 1 1
gene 2 31 19 -0.488745 0 65 -0.488745 1
genomeend 137

/* Organism #138 Fitness: 65 Error: 0 */
genomestart 138
trait 1 0.1 0 0 0 0 0 0 0 
trait 2 0.2 0 0 0 0 0 0 0 
trait 3 0.3 0 0 0 0 0 0 0 
node 1 3 1 1
node 2 3 1 1
node 3 2 1 1
node 4 1 1 1
node 5 2 1 1
node 6 3 1 1
node 7 2 1 3
node 8 1 0 2
node 19 1 0 0
node 31 1 0 0
gene 2 1 8 -2.25991 0 1 -2.25991 1
gene 1 2 8 1.15086 0 2 1.15086 0
gene 1 3 8 -2.68421 0 3 -2.68421 1
gene 2 4 8 -1.41513 0 4 -1.41513 1
gene 1 5 8 2.60526 0 5 2.60526 1
gene 3 6 8 2.6042 0 6 2.6042 1
gene 2 7 8 0.289629 0 7 0.289629 1
gene 1 2 19 -0.582519 0 28 -0.582519 1
gene 1 19 8 -2.18907 0 29 -2.18907 1
gene 1 7 19 -1.74225 0 32 -1.74225 1
gene 2 1 19 -1.31981 0 41 -1.31981 0
gene 2 1 31 1 0 64 1 1
gene 2 31 19 0.247048 0 65 0.247048 1
genomeend 138

/* Organism #139 Fitness: 7 Error: 0 */
genomestart 139
trait 1 0.1 0 0 0 0 0 0 0 
trait 2 0.2 0 0 0 0 0 0 0 
trait 3 0.3 0 0 0 0 0 0 0 
node 1 3 1 1
node 2 3 1 1
node 3 2 1 1
node 4 1 1 1
node 5 2 1 1
node 6 3 1 1
node 7 2 1 3
node 8 1 0 2
node 19 1 0 0
node 31 1 0 0
gene 2 1 8 1.34484 0 1 1.34484 1
gene 1 2 8 1.27404 0 2 1.27404 0
gene 1 3 8 1.99391 0 3 1.99391 1
gene 2 4 8 0.763586 0 4 0.763586 1
gene 1 5 8 -2.25335 0 5 -2.25335 1
gene 3 6 8 0.946944 0 6 0.946944 1
gene 2 7 8 2.17829 0 7 2.17829 1
gene 1 2 19 -0.341273 0 28 -0.341273 1
gene 1 19 8 2.13101 0 29 2.13101 1
gene 1 7 19 -0.117117 0 32 -0.117117 1
gene 2 1 19 -0.0618911 0 41 -0.0618911 0
gene 2 1 31 1.63912 0 64 1.63912 1
gene 2 31 19 -2.67085 0 65 -2.67085 1
genomeend 139

/* Organism #140 Fitness: 81 Error: 0 */
genomestart 140
trait 1 0.1 0 0 0 0 0 0 0 
trait 2 0.941642 0 0.245251 0 0 0.588339 0 0.992472 
trait 3 0.3 0 0 0 0 0 0 0 
node 1 3 1 1
node 2 3 1 1
node 3 2 1 1
node 4 1 1 1
node 5 2 1 1
node 6 3 1 1
node 7 2 1 3
node 8 1 0 2
node 19 1 0 0
node 31 1 0 0
gene 2 1 8 -0.581938 0 1 -0.581938 1
gene 1 2 8 0.120067 0 2 0.120067 0
gene 1 3 8 -1.47632 0 3 -1.47632 1
gene 2 4 8 -0.568287 0 4 -0.568287 1
gene 1 5 8 1.42993 0 5 1.42993 1
gene 3 6 8 1.27857 0 6 1.27857 1
gene 2 7 8 0.0930652 0 7 0.0930652 1
gene 1 2 19 1 0 28 0 1
gene 1 19 8 0.120067 0 29 0 1
gene 1 7 19 0.128038 0 32 0.128038 1
gene 2 1 19 -0.488745 0 41 -0.488745 0
gene 2 1 31 1 0 64 0 1
gene 2 31 19 -0.488745 0 65 0 1
genomeend 140

/* Organism #141 Fitness: 6 Error: 0 */
genomestart 141
trait 1 0.1 0 0 0 0 0 0 0 
trait 2 0.2 0 0 0 0 0 0 0 
trait 3 0.3 0 0 0 0 0 0 0 
node 1 3 1 1
node 2 3 1 1
node 3 2 1 1
node 4 1 1 1
node 5 2 1 1
node 6 3 1 1
node 7 2 1 3
node 8 1 0 2
node 19 1 0 0
node 31 1 0 0
gene 2 1 8 1.77921 0 1 1.77921 1
gene 1 2 8 1.42774 0 2 1.42774 0
gene 1 3 8 -1.42556 0 3 -1.42556 1
gene 2 4 8 -2.0899 0 4 -2.0899 1
gene 1 5 8 -0.204796 0 5 -0.204796 1
gene 3 6 8 0.603647 0 6 0.603647 1
gene 2 7 8 -1.91211 0 7 -1.91211 1
gene 1 2 19 -0.92664 0 28 -0.92664 1
gene 3 19 8 -1.01943 0 29 -1.01943 1
gene 1 7 19 -1.52528 0 32 -1.52528 1
gene 2 1 19 2.47256 0 41 2.47256 0
gene 2 1 31 1.03118 0 64 1.03118 1
gene 2 31 19 0.218302 0 65 0.218302 1
genomeend 141

/* Organism #142 Fitness: 84 Error: 0 */
genomestart 142
trait 1 0.1 0 0 0 0 0 0 0 
trait 2 0.2 0 0 0 0 0 0 0 
trait 3 0.3 0 0 0 0 0 0 0 
node 1 3 1 1
node 2 3 1 1
node 3 2 1 1
node 4 1 1 1
node 5 2 1 1
node 6 3 1 1
node 7 2 1 3
node 8 1 0 2
node 19 1 0 0
node 31 1 0 0
gene 2 1 8 -0.581938 0 1 -0.581938 1
gene 1 2 8 0.120067 0 2 0.120067 0
gene 1 3 8 -1.47632 0 3 -1.47632 1
gene 2 4 8 -0.568287 0 4 -0.568287 1
gene 1 5 8 1.42993 0 5 1.42993 1
gene 3 6 8 1.27857 0 6 1.27857 1
gene 2 7 8 0.0930652 0 7 0.0930652 1
gene 1 2 19 1 0 28 0 1
gene 1 19 8 0.120067 0 29 0 1
gene 1 7 19 0.128038 0 32 0.128038 1
gene 2 1 19 -0.488745 0 41 -0.488745 0
