
/* Species #2 : (Size 20) (AF 340.8) (Age 23)  */


/* Organism #0 Fitness: 1248 Error: 0 */
genomestart 0
trait 1 0.1 0 0 0 0 0 0 0 
trait 2 0.2 0 0 0 0 0 0 0 
trait 3 0.3 0 0 0 0 0 0 0 
node 1 3 1 1
node 2 3 1 1
node 3 2 1 1
node 4 3 1 1
node 5 2 1 1
node 6 3 1 1
node 7 2 1 3
node 8 1 0 2
node 19 1 0 0
node 68 1 0 0
gene 2 1 8 -0.850823 0 1 -0.850823 1
gene 1 2 8 0.120067 0 2 0.120067 0
gene 1 3 8 -2.18163 0 3 -2.18163 1
gene 2 4 8 -1.78249 0 4 -1.78249 1
gene 1 5 8 1.42993 0 5 1.42993 1
gene 3 6 8 0.848007 0 6 0.848007 1
gene 2 7 8 -1.74937 0 7 -1.74937 1
gene 1 2 19 2.66006 0 28 2.66006 0
gene 1 19 8 0.879911 0 29 0.849894 0
gene 1 7 19 1.07076 0 32 1.07076 1
gene 1 19 68 1 0 195 0 1
gene 1 68 8 0.879911 0 196 0 1
gene 3 4 19 -0.19593 0 261 -0.19593 1
gene 1 3 68 -0.980486 0 280 -0.980486 1
genomeend 0

/* Organism #1 Fitness: 1248 Error: 0 */
genomestart 1
trait 1 0.1 0 0 0 0 0 0 0 
trait 2 0.2 0 0 0 0 0 0 0 
trait 3 0.3 0 0 0 0 0 0 0 
node 1 3 1 1
node 2 3 1 1
node 3 2 1 1
node 4 3 1 1
node 5 2 1 1
node 6 3 1 1
node 7 2 1 3
node 8 1 0 2
node 19 1 0 0
node 68 1 0 0
gene 2 1 8 -0.850823 0 1 -0.850823 1
gene 1 2 8 0.120067 0 2 0.120067 0
gene 1 3 8 -2.18163 0 3 -2.18163 1
gene 2 4 8 -1.78249 0 4 -1.78249 1
gene 1 5 8 1.42993 0 5 1.42993 1
gene 3 6 8 0.848007 0 6 0.848007 1
gene 2 7 8 -1.74937 0 7 -1.74937 1
gene 1 2 19 2.66006 0 28 2.66006 0
gene 1 19 8 0.879911 0 29 0.849894 0
gene 1 7 19 1.07076 0 32 1.07076 1
gene 1 19 68 1 0 195 0 1
gene 1 68 8 0.879911 0 196 0 1
gene 3 4 19 -0.19593 0 261 -0.19593 1
gene 1 3 68 -0.980486 0 280 -0.980486 1
genomeend 1

/* Organism #2 Fitness: 32 Error: 0 */
genomestart 2
trait 1 0.1 0 0 0 0 0 0 0 
trait 2 0.2 0 0 0 0 0 0 0 
trait 3 0.3 0 0 0 0 0 0 0 
node 1 3 1 1
node 2 3 1 1
node 3 2 1 1
node 4 3 1 1
node 5 2 1 1
node 6 3 1 1
node 7 2 1 3
node 8 1 0 2
node 19 1 0 0
node 68 1 0 0
gene 2 1 8 -0.0353503 0 1 -0.0353503 1
gene 1 2 8 0.0827903 0 2 0.0827903 0
gene 1 3 8 -1.18153 0 3 -1.18153 1
gene 2 4 8 -1.04654 0 4 -1.04654 1
gene 1 5 8 1.72956 0 5 1.72956 1
gene 3 6 8 1.43736 0 6 1.43736 1
gene 2 7 8 -4.04232 0 7 -4.04232 1
gene 1 2 19 4.70408 0 28 4.70408 0
gene 1 19 8 -0.421684 0 29 -0.421684 0
gene 1 7 19 0.299402 0 32 0.299402 1
gene 1 19 68 2.2077 0 195 2.2077 1
gene 1 68 8 3.00381 0 196 3.00381 1
genomeend 2

/* Organism #3 Fitness: 22 Error: 0 */
genomestart 3
trait 1 0.1 0 0 0 0 0 0 0 
trait 2 0.2 0 0 0 0 0 0 0 
trait 3 0.3 0 0.771782 0 0 0 0.574303 0 
node 1 3 1 1
node 2 3 1 1
node 3 2 1 1
node 4 3 1 1
node 5 2 1 1
node 6 3 1 1
node 7 2 1 3
node 8 1 0 2
node 19 1 0 0
node 68 1 0 0
gene 2 1 8 -3.32741 0 1 -3.32741 1
gene 1 2 8 0.274167 0 2 0.274167 0
gene 1 3 8 0.192517 0 3 0.192517 1
gene 2 4 8 0.68813 0 4 0.68813 1
gene 1 5 8 0.159335 0 5 0.159335 1
gene 3 6 8 1.53394 0 6 1.53394 1
gene 2 7 8 -1.72034 0 7 -1.72034 1
gene 1 2 19 5.07177 0 28 5.07177 0
gene 1 19 8 -0.467558 0 29 -0.467558 0
gene 1 7 19 0.932572 0 32 0.932572 1
gene 1 19 68 -0.298342 0 195 -0.298342 1
gene 1 68 8 0.885029 0 196 0.885029 1
gene 3 4 19 1.30799 0 261 1.30799 1
gene 1 3 68 1.33387 0 280 1.33387 1
genomeend 3

/* Organism #4 Fitness: 15 Error: 0 */
genomestart 4
trait 1 0.1 0 0 0 0 0 0 0 
trait 2 0.2 0 0 0 0 0 0 0 
trait 3 0.3 0 0 0 0 0 0 0 
node 1 3 1 1
node 2 3 1 1
node 3 2 1 1
node 4 3 1 1
node 5 2 1 1
node 6 3 1 1
node 7 2 1 3
node 8 1 0 2
node 19 1 0 0
node 68 1 0 0
gene 2 1 8 -0.850823 0 1 -0.850823 1
gene 1 2 8 1.3169 0 2 1.3169 0
gene 1 3 8 -2.18163 0 3 -2.18163 1
gene 2 4 8 -1.78249 0 4 -1.78249 1
gene 1 5 8 -0.551175 0 5 -0.551175 1
gene 3 6 8 2.30474 0 6 2.30474 1
gene 2 7 8 0.550426 0 7 0.550426 1
gene 1 2 19 0.914713 0 28 0.914713 0
gene 1 19 8 1.19285 0 29 1.19285 0
gene 1 7 19 3.31097 0 32 3.31097 1
gene 1 19 68 1 0 195 1 1
gene 1 68 8 -1.38572 0 196 -1.38572 1
gene 3 4 19 1.38466 0 261 1.38466 1
gene 1 3 68 0.802017 0 280 0.802017 1
genomeend 4

/* Organism #5 Fitness: 5 Error: 0 */
genomestart 5
trait 1 0.1 0 0 0 0 0 0 0 
trait 2 0.2 0 0 0 0 0 0 0 
trait 3 0.3 0 0 0 0 0 0 0 
node 1 3 1 1
node 2 3 1 1
node 3 2 1 1
node 4 3 1 1
node 5 2 1 1
node 6 3 1 1
node 7 2 1 3
node 8 1 0 2
node 19 1 0 0
node 68 1 0 0
gene 2 1 8 -1.24183 0 1 -1.24183 1
gene 1 2 8 -0.23725 0 2 -0.23725 0
gene 1 3 8 -0.356336 0 3 -0.356336 1
gene 2 4 8 -0.556936 0 4 -0.556936 1
gene 1 5 8 2.53158 0 5 2.53158 1
gene 3 6 8 -1.19156 0 6 -1.19156 1
gene 2 7 8 -3.39053 0 7 -3.39053 1
gene 1 2 19 1.3029 0 28 1.3029 0
gene 1 19 8 2.3844 0 29 2.3844 0
gene 1 7 19 -0.431307 0 32 -0.431307 1
gene 1 19 68 -0.0483023 0 195 -0.0483023 1
gene 1 68 8 2.45419 0 196 2.45419 1
gene 3 4 19 -2.23265 0 261 -2.23265 1
gene 1 3 68 0.486066 0 280 0.486066 1
genomeend 5

/* Organism #6 Fitness: 778 Error: 0 */
genomestart 6
trait 1 0.1 0 0 0 0 0 0 0 
trait 2 0.2 0 0 0 0 0 0 0 
trait 3 0.3 0 0 0 0 0 0 0 
node 1 3 1 1
node 2 3 1 1
node 3 2 1 1
node 4 3 1 1
node 5 2 1 1
node 6 3 1 1
node 7 2 1 3
node 8 1 0 2
node 19 1 0 0
node 68 1 0 0
gene 2 1 8 -0.850823 0 1 -0.850823 1
gene 1 2 8 0.120067 0 2 0.120067 0
gene 1 3 8 -2.18163 0 3 -2.18163 1
gene 2 4 8 -1.78249 0 4 -1.78249 1
gene 1 5 8 1.42993 0 5 1.42993 1
gene 3 6 8 0.848007 0 6 0.848007 1
gene 2 7 8 -1.52524 0 7 -1.52524 1
gene 1 2 19 2.66006 0 28 2.66006 0
gene 1 19 8 0.879911 0 29 0.849894 0
gene 1 7 19 1.07076 0 32 1.07076 1
gene 1 19 68 1 0 195 0 1
gene 1 68 8 0.879911 0 196 0 1
genomeend 6

/* Organism #7 Fitness: 5 Error: 0 */
genomestart 7
trait 1 0.1 0 0 0 0 0 0 0 
trait 2 0.2 0 0 0 0 0 0 0 
trait 3 0.3 0 0 0 0 0 0 0 
node 1 3 1 1
node 2 3 1 1
node 3 2 1 1
node 4 3 1 1
node 5 2 1 1
node 6 3 1 1
node 7 2 1 3
node 8 1 0 2
node 19 1 0 0
node 68 1 0 0
gene 2 1 8 -2.28626 0 1 -2.28626 1
gene 1 2 8 -0.0260386 0 2 -0.0260386 0
gene 1 3 8 -2.90859 0 3 -2.90859 1
gene 2 4 8 0.259574 0 4 0.259574 1
gene 1 5 8 -0.786268 0 5 -0.786268 1
gene 3 6 8 -0.901238 0 6 -0.901238 1
gene 2 7 8 -3.60496 0 7 -3.60496 1
gene 1 2 19 2.52383 0 28 2.52383 0
gene 1 19 8 1.6546 0 29 1.6546 0
gene 1 7 19 0.720405 0 32 0.720405 1
gene 1 19 68 0.532746 0 195 0.532746 1
gene 1 68 8 -0.940996 0 196 -0.940996 1
gene 3 4 19 1.34118 0 261 1.34118 1
gene 1 3 68 -1.26156 0 280 -1.26156 1
genomeend 7

/* Organism #8 Fitness: 807 Error: 0 */
genomestart 8
trait 1 0.1 0 0 0 0 0 0 0 
trait 2 0.2 0 0 0 0 0 0 0 
trait 3 0.3 0 0 0 0 0 0 0 
node 1 3 1 1
node 2 3 1 1
node 3 2 1 1
node 4 3 1 1
node 5 2 1 1
node 6 3 1 1
node 7 2 1 3
node 8 1 0 2
node 19 1 0 0
node 68 1 0 0
gene 2 1 8 -0.850823 0 1 -0.850823 1
gene 1 2 8 0.120067 0 2 0.120067 0
gene 1 3 8 -2.18163 0 3 -2.18163 1
gene 2 4 8 -1.78249 0 4 -1.78249 1
gene 1 5 8 1.42993 0 5 1.42993 1
gene 3 6 8 0.848007 0 6 0.848007 1
gene 2 7 8 -1.52524 0 7 -1.52524 1
gene 1 2 19 2.66006 0 28 2.66006 0
gene 1 19 8 0.879911 0 29 0.849894 0
gene 1 7 19 1.07076 0 32 1.07076 1
gene 1 19 68 1 0 195 0 1
gene 1 68 8 0.879911 0 196 0 1
gene 3 4 19 -0.19593 0 261 -0.19593 1
gene 1 3 68 -0.980486 0 280 -0.980486 1
gene 1 5 19 -0.123902 0 311 -0.123902 1
genomeend 8

/* Organism #9 Fitness: 1247 Error: 0 */
genomestart 9
trait 1 0.1 0 0 0 0 0 0 0 
trait 2 0.2 0 0 0 0 0 0 0 
trait 3 0.3 0 0 0 0 0 0 0 
node 1 3 1 1
node 2 3 1 1
node 3 2 1 1
node 4 3 1 1
node 5 2 1 1
node 6 3 1 1
node 7 2 1 3
node 8 1 0 2
node 19 1 0 0
node 68 1 0 0
gene 2 1 8 -0.850823 0 1 -0.850823 1
gene 1 2 8 0.120067 0 2 0.120067 0
gene 1 3 8 -2.18163 0 3 -2.18163 1
gene 2 4 8 -1.78249 0 4 -1.78249 1
gene 1 5 8 1.42993 0 5 1.42993 1
gene 3 6 8 0.848007 0 6 0.848007 1
gene 2 7 8 -1.74937 0 7 -1.74937 1
gene 1 2 19 2.66006 0 28 2.66006 0
gene 1 19 8 0.879911 0 29 0.849894 0
gene 1 7 19 1.07076 0 32 1.07076 1
gene 1 19 68 1.00839 0 195 0.258388 1
gene 1 68 8 0.879911 0 196 0 1
gene 3 4 19 -0.19593 0 261 -0.19593 1
gene 1 3 68 -0.980486 0 280 -0.980486 1
genomeend 9

/* Organism #10 Fitness: 6 Error: 0 */
genomestart 10
trait 1 0.1 0 0 0 0 0 0 0 
trait 2 0.2 0 0 0 0 0 0 0 
trait 3 0.3 0 0 0 0 0 0 0 
node 1 3 1 1
node 2 3 1 1
node 3 2 1 1
node 4 3 1 1
node 5 2 1 1
node 6 3 1 1
node 7 2 1 3
node 8 1 0 2
node 19 1 0 0
node 68 1 0 0
gene 2 1 8 0.810831 0 1 0.810831 1
gene 1 2 8 0.106448 0 2 0.106448 0
gene 1 3 8 -2.18163 0 3 -2.18163 1
gene 2 4 8 -3.66211 0 4 -3.66211 1
gene 1 5 8 2.57151 0 5 2.57151 1
gene 3 6 8 -1.31121 0 6 -1.31121 1
gene 2 7 8 0.542506 0 7 0.542506 1
gene 1 2 19 0.386809 0 28 0.386809 1
gene 1 19 8 3.29763 0 29 3.29763 0
gene 1 7 19 2.49582 0 32 2.49582 1
gene 1 19 68 1.26545 0 195 1.26545 1
gene 1 68 8 -0.261188 0 196 -0.261188 1
gene 3 4 19 0.114917 0 261 0.114917 1
gene 1 3 68 0.14228 0 280 0.14228 1
genomeend 10

/* Organism #11 Fitness: 72 Error: 0 */
genomestart 11
trait 1 0.1 0 0 0 0 0 0 0 
trait 2 0.2 0 0 0 0 0 0 0 
trait 3 0.3 0 0 0 0 0 0 0 
node 1 3 1 1
node 2 3 1 1
node 3 2 1 1
node 4 3 1 1
node 5 2 1 1
node 6 3 1 1
node 7 2 1 3
node 8 1 0 2
node 19 1 0 0
node 68 1 0 0
gene 2 1 8 -1.2907 0 1 -1.2907 1
gene 1 2 8 1.12464 0 2 1.12464 0
gene 1 3 8 -4.18509 0 3 -4.18509 1
gene 2 4 8 -2.95853 0 4 -2.95853 1
gene 1 5 8 3.39222 0 5 3.39222 1
gene 3 6 8 0.669685 0 6 0.669685 1
gene 2 7 8 -1.85531 0 7 -1.85531 1
gene 1 2 19 4.15004 0 28 4.15004 0
gene 1 19 8 1.83283 0 29 1.83283 0
gene 1 7 19 1.82193 0 32 1.82193 1
gene 1 19 68 0.181663 0 195 0.181663 1
gene 1 68 8 3.00381 0 196 3.00381 1
genomeend 11

/* Organism #12 Fitness: 29 Error: 0 */
genomestart 12
trait 1 0.1 0 0 0 0 0 0 0 
trait 2 0.2 0 0 0 0 0 0 0 
trait 3 0.3 0 0 0 0 0 0 0 
node 1 3 1 1
node 2 3 1 1
node 3 2 1 1
node 4 3 1 1
node 5 2 1 1
node 6 3 1 1
node 7 2 1 3
node 8 1 0 2
node 19 1 0 0
node 68 1 0 0
gene 2 1 8 -3.24464 0 1 -3.24464 1
gene 1 2 8 1.7392 0 2 1.7392 0
gene 1 3 8 -0.455111 0 3 -0.455111 1
gene 2 4 8 -3.43247 0 4 -3.43247 1
gene 1 5 8 -0.683682 0 5 -0.683682 1
gene 3 6 8 2.5122 0 6 2.5122 1
gene 2 7 8 -1.54242 0 7 -1.54242 1
gene 1 2 19 3.21285 0 28 3.21285 0
gene 1 19 8 1.75461 0 29 1.75461 1
gene 1 7 19 -0.611862 0 32 -0.611862 1
gene 1 19 68 3.21732 0 195 3.21732 1
gene 1 68 8 2.22767 0 196 2.22767 1
gene 3 4 19 0.765446 0 261 0.765446 1
gene 1 3 68 -2.44256 0 280 -2.44256 1
genomeend 12

/* Organism #13 Fitness: 36 Error: 0 */
genomestart 13
trait 1 0.1 0 0 0 0 0 0 0 
trait 2 0.2 0 0 0 0 0 0 0 
trait 3 0.3 0 0 0 0 0 0 0 
node 1 3 1 1
node 2 3 1 1
node 3 2 1 1
node 4 3 1 1
node 5 2 1 1
node 6 3 1 1
node 7 2 1 3
node 8 1 0 2
node 19 1 0 0
node 68 1 0 0
gene 2 1 8 -0.850823 0 1 -0.850823 1
gene 1 2 8 -0.420574 0 2 -0.420574 0
gene 1 3 8 -1.86318 0 3 -1.86318 1
gene 2 4 8 -1.78249 0 4 -1.78249 1
gene 1 5 8 2.0717 0 5 2.0717 1
gene 3 6 8 2.65975 0 6 2.65975 1
gene 2 7 8 -1.86144 0 7 -1.86144 1
gene 1 2 19 2.66006 0 28 2.66006 0
gene 1 19 8 0.879911 0 29 0.849894 0
gene 1 7 19 1.07076 0 32 1.07076 1
gene 1 19 68 -1.07149 0 195 -1.07149 1
gene 1 68 8 0.879911 0 196 0 1
genomeend 13

/* Organism #14 Fitness: 38 Error: 0 */
genomestart 14
trait 1 0.1 0 0 0 0 0 0 0 
trait 2 0.2 0 0 0 0 0 0 0 
trait 3 0.3 0 0 0 0 0 0 0 
node 1 3 1 1
node 2 3 1 1
node 3 2 1 1
node 4 3 1 1
node 5 2 1 1
node 6 3 1 1
node 7 2 1 3
node 8 1 0 2
node 19 1 0 0
node 68 1 0 0
gene 2 1 8 1.07381 0 1 1.07381 1
gene 1 2 8 0.120067 0 2 0.120067 0
gene 1 3 8 -3.61883 0 3 -3.61883 1
gene 2 4 8 -0.736899 0 4 -0.736899 1
gene 1 5 8 2.47295 0 5 2.47295 1
gene 3 6 8 2.07269 0 6 2.07269 1
gene 2 7 8 -2.13797 0 7 -2.13797 1
gene 1 2 19 2.66006 0 28 2.66006 0
gene 1 19 8 0.809034 0 29 0.809034 0
gene 1 7 19 -0.619382 0 32 -0.619382 1
gene 1 19 68 -1.86925 0 195 -1.86925 1
gene 1 68 8 2.83586 0 196 2.83586 1
gene 3 4 19 -0.19593 0 261 -0.19593 1
gene 1 3 68 0.217878 0 280 0.217878 1
genomeend 14

/* Organism #15 Fitness: 5 Error: 0 */
genomestart 15
trait 1 0.1 0 0 0 0 0 0 0 
trait 2 0.2 0 0 0 0 0 0 0 
trait 3 0.3 0 0 0 0 0 0 0 
node 1 3 1 1
node 2 3 1 1
node 3 2 1 1
node 4 3 1 1
node 5 2 1 1
node 6 3 1 1
node 7 2 1 3
node 8 2 0 2
node 19 1 0 0
node 68 1 0 0
gene 2 1 8 -0.68648 0 1 -0.68648 1
gene 1 2 8 -0.503105 0 2 -0.503105 0
gene 1 3 8 -1.15403 0 3 -1.15403 1
gene 2 4 8 -3.99401 0 4 -3.99401 1
gene 1 5 8 1.6554 0 5 1.6554 1
gene 3 6 8 -0.260411 0 6 -0.260411 1
gene 2 7 8 -1.83241 0 7 -1.83241 1
gene 1 2 19 4.41341 0 28 4.41341 0
gene 1 19 8 2.23511 0 29 2.23511 0
gene 1 7 19 3.26413 0 32 3.26413 1
gene 1 19 68 0.0328923 0 195 0.0328923 1
gene 1 68 8 -1.14064 0 196 -1.14064 1
gene 3 4 19 2.05008 0 261 2.05008 1
gene 1 3 68 0.443903 0 280 0.443903 1
genomeend 15

/* Organism #16 Fitness: 40 Error: 0 */
genomestart 16
trait 1 0.1 0 0 0 0 0 0 0 
trait 2 0.2 0 0 0 0 0 0 0 
trait 3 0.3 0 0 0 0 0 0 0 
node 1 3 1 1
node 2 3 1 1
node 3 2 1 1
node 4 3 1 1
node 5 2 1 1
node 6 3 1 1
node 7 2 1 3
node 8 2 0 2
node 19 1 0 0
node 68 1 0 0
gene 2 1 8 -0.145664 0 1 -0.145664 1
gene 1 2 8 0.765977 0 2 0.765977 0
gene 1 3 8 -1.23401 0 3 -1.23401 1
gene 2 4 8 -0.344978 0 4 -0.344978 1
gene 1 5 8 2.9745 0 5 2.9745 1
gene 3 6 8 0.267057 0 6 0.267057 1
gene 2 7 8 -1.75358 0 7 -1.75358 1
gene 1 2 19 3.40169 0 28 3.40169 0
gene 1 19 8 3.03507 0 29 3.03507 0
gene 1 7 19 0.326354 0 32 0.326354 1
gene 1 19 68 -0.82785 0 195 -0.82785 1
gene 1 68 8 0.485224 0 196 0.485224 1
gene 3 4 19 1.36964 0 261 1.36964 1
gene 1 3 68 -0.980486 0 280 -0.980486 1
genomeend 16

/* Organism #17 Fitness: 1135 Error: 0 */
genomestart 17
trait 1 0.1 0 0 0 0 0 0 0 
trait 2 0.2 0 0 0 0 0 0 0 
trait 3 0.3 0 0 0 0 0 0 0 
node 1 3 1 1
node 2 3 1 1
node 3 2 1 1
node 4 3 1 1
node 5 2 1 1
node 6 3 1 1
node 7 2 1 3
node 8 1 0 2
node 19 1 0 0
node 68 1 0 0
gene 2 1 8 -0.850823 0 1 -0.850823 1
gene 1 2 8 0.120067 0 2 0.120067 0
gene 1 3 8 -2.18163 0 3 -2.18163 1
gene 2 4 8 -1.78249 0 4 -1.78249 1
gene 1 5 8 1.42993 0 5 1.42993 1
gene 3 6 8 0.848007 0 6 0.848007 1
gene 2 7 8 -1.63731 0 7 -1.63731 1
gene 1 2 19 2.66006 0 28 2.66006 0
gene 1 19 8 0.879911 0 29 0.849894 0
gene 1 7 19 1.07076 0 32 1.07076 1
gene 1 19 68 1 0 195 0 1
gene 1 68 8 0.879911 0 196 0 1
gene 3 4 19 -0.19593 0 261 -0.19593 1
gene 1 3 68 -0.980486 0 280 -0.980486 1
gene 3 1 68 -0.0593694 0 312 -0.0593694 1
genomeend 17

/* Organism #18 Fitness: 31 Error: 0 */
genomestart 18
trait 1 0.1 0 0 0 0 0 0 0 
trait 2 0.2 0 0 0 0 0 0 0 
trait 3 0.3 0 0 0 0 0 0 0 
node 1 3 1 1
node 2 3 1 1
node 3 2 1 1
node 4 3 1 1
node 5 2 1 1
node 6 3 1 1
node 7 2 1 3
node 8 1 0 2
node 19 1 0 0
node 68 1 0 0
gene 2 1 8 0.0708711 0 1 0.0708711 1
gene 1 2 8 -0.416038 0 2 -0.416038 0
gene 1 3 8 -1.86042 0 3 -1.86042 1
gene 2 4 8 -0.731665 0 4 -0.731665 1
gene 1 5 8 2.6913 0 5 2.6913 1
gene 3 6 8 2.40924 0 6 2.40924 1
gene 2 7 8 1.20797 0 7 1.20797 1
gene 1 2 19 4.84194 0 28 4.84194 0
gene 1 19 8 -0.944623 0 29 -0.944623 0
gene 1 7 19 1.07076 0 32 1.07076 1
gene 1 19 68 -0.642507 0 195 -0.642507 1
gene 1 68 8 1.48133 0 196 1.48133 1
gene 3 4 19 -0.328464 0 261 -0.328464 1
gene 1 3 68 0.0563176 0 280 0.0563176 1
genomeend 18

/* Organism #19 Fitness: 17 Error: 0 */
genomestart 19
trait 1 0.1 0 0 0 0 0 0 0 
trait 2 0.2 0 0 0 0 0 0 0 
trait 3 0.3 0 0 0 0 0 0 0 
node 1 3 1 1
node 2 3 1 1
node 3 2 1 1
node 4 3 1 1
node 5 2 1 1
node 6 3 1 1
node 7 2 1 3
node 8 2 0 2
node 19 1 0 0
node 68 1 0 0
gene 2 1 8 -0.3296 0 1 -0.3296 1
gene 1 2 8 2.16303 0 2 2.16303 0
gene 1 3 8 -2.32554 0 3 -2.32554 1
gene 2 4 8 1.05171 0 4 1.05171 1
gene 1 5 8 -0.652034 0 5 -0.652034 1
gene 3 6 8 2.69246 0 6 2.69246 1
gene 2 7 8 0.847807 0 7 0.847807 1
gene 1 2 19 4.15149 0 28 4.15149 0
gene 1 19 8 1.75548 0 29 1.75548 0
gene 1 7 19 -0.615701 0 32 -0.615701 1
gene 1 19 68 -2.18893 0 195 -2.18893 1
gene 1 68 8 2.88556 0 196 2.88556 1
gene 3 4 19 -1.77446 0 261 -1.77446 1
gene 1 3 68 1.05573 0 280 1.05573 1
genomeend 19

/* Species #3 : (Size 4) (AF 23) (Age 23)  */


/* Organism #20 Fitness: 39 Error: 0 */
genomestart 20
trait 1 0.0875 0 0 0.00917042 0 0.0744408 0.0948746 0 
trait 2 0.2 0 0 0 0 0 0 0 
trait 3 0.3 0.0444631 0.00394923 0.0179918 0 0 0 0 
node 1 3 1 1
node 2 3 1 1
node 3 1 1 1
node 4 1 1 1
node 5 3 1 1
node 6 2 1 1
node 7 2 1 3
node 8 1 0 2
node 19 3 0 0
node 23 1 0 0
gene 2 1 8 0.834629 0 1 0.834629 1
gene 1 2 8 -1.05293 0 2 -1.05293 1
gene 1 3 8 2.55393 0 3 2.55393 0
gene 2 4 8 -0.775941 0 4 -0.775941 1
gene 1 5 8 6.67669 0 5 6.67669 1
gene 3 6 8 2.13566 0 6 2.13566 1
gene 2 7 8 3.47437 0 7 3.47437 1
gene 1 2 19 -5.57231 0 28 -5.57231 1
gene 1 19 8 -8 0 29 -8 1
gene 1 3 23 -0.375005 0 37 -0.375005 1
gene 1 23 8 3.97089 0 38 3.97089 1
genomeend 20

/* Organism #21 Fitness: 42 Error: 0 */
genomestart 21
trait 1 0.0875 0 0 0.00917042 0 0.0744408 0.0948746 0 
trait 2 0.2 0 0 0 0 0 0 0 
trait 3 0.3 0.0444631 0.00394923 0.0179918 0 0 0 0 
node 1 3 1 1
node 2 3 1 1
node 3 1 1 1
node 4 1 1 1
node 5 3 1 1
node 6 3 1 1
node 7 2 1 3
node 8 1 0 2
node 19 3 0 0
node 23 1 0 0
gene 2 1 8 2.31258 0 1 2.31258 1
gene 1 2 8 0.120564 0 2 0.120564 1
gene 1 3 8 0.922239 0 3 0.922239 0
gene 2 4 8 0.0778727 0 4 0.0778727 1
gene 1 5 8 8 0 5 8 1
gene 3 6 8 1.72332 0 6 1.72332 1
gene 2 7 8 3.12016 0 7 3.12016 1
gene 1 2 19 -0.634688 0 28 -0.634688 1
gene 1 19 8 -8 0 29 -8 1
gene 1 3 23 1.44646 0 37 1.44646 1
gene 1 23 8 2.51312 0 38 2.51312 1
genomeend 21

/* Organism #22 Fitness: 6 Error: 0 */
genomestart 22
trait 1 0.0875 0 0 0.00917042 0 0.0744408 0.0948746 0 
trait 2 0.2 0 0 0 0 0 0 0 
trait 3 0.3 0.0444631 0.00394923 0.0179918 0 0 0 0 
node 1 3 1 1
node 2 3 1 1
node 3 1 1 1
node 4 1 1 1
node 5 3 1 1
node 6 3 1 1
node 7 2 1 3
node 8 1 0 2
node 19 3 0 0
node 23 1 0 0
gene 2 1 8 -0.894689 0 1 -0.894689 1
gene 1 2 8 0.493603 0 2 0.493603 1
gene 1 3 8 2.42247 0 3 2.42247 0
gene 2 4 8 -3.03173 0 4 -3.03173 1
gene 1 5 8 8 0 5 8 1
gene 3 6 8 -1.28916 0 6 -1.28916 1
gene 2 7 8 0.0833843 0 7 0.0833843 1
gene 1 2 19 -3.39602 0 28 -3.39602 1
gene 1 19 8 -2.17049 0 29 -2.17049 1
gene 1 3 23 -0.278569 0 37 -0.278569 1
gene 1 23 8 -0.306845 0 38 -0.306845 1
genomeend 22

/* Organism #23 Fitness: 5 Error: 0 */
genomestart 23
trait 1 0.0875 0 0 0.00917042 0 0.0744408 0.0948746 0 
trait 2 0.2 0 0 0 0 0 0 0 
trait 3 0.3 0.0444631 0.00394923 0.0179918 0 0 0 0 
node 1 3 1 1
node 2 3 1 1
node 3 1 1 1
node 4 1 1 1
node 5 3 1 1
node 6 3 1 1
node 7 2 1 3
node 8 1 0 2
node 19 3 0 0
node 23 1 0 0
gene 2 1 8 1.0053 0 1 1.0053 1
gene 1 2 8 -0.716047 0 2 -0.716047 1
gene 1 3 8 3.50841 0 3 3.50841 1
gene 2 4 8 -2.45766 0 4 -2.45766 1
gene 1 5 8 8 0 5 8 1
gene 3 6 8 -1.13295 0 6 -1.13295 1
gene 2 7 8 3.44173 0 7 3.44173 1
gene 1 2 19 -2.06539 0 28 -2.06539 1
gene 1 19 8 -8 0 29 -8 1
gene 1 3 23 -0.375005 0 37 -0.375005 1
gene 1 23 8 3.46395 0 38 3.46395 1
genomeend 23

/* Species #6 : (Size 14) (AF 43.3571) (Age 20)  */


/* Organism #24 Fitness: 297 Error: 0 */
genomestart 24
trait 1 0.1 0 0 0.0128062 0 0 0 0 
trait 2 0.2 0 0 0 0 0 0 0 
trait 3 0.3 0 0 0 0 0 0 0 
node 1 3 1 1
node 2 3 1 1
node 3 2 1 1
node 4 1 1 1
node 5 2 1 1
node 6 3 1 1
node 7 2 1 3
node 8 1 0 2
node 19 1 0 0
node 36 1 0 0
node 51 1 0 0
node 65 1 0 0
node 70 1 0 0
node 87 1 0 0
gene 2 1 8 -0.424523 0 1 -0.424523 1
gene 1 2 8 3.00213 0 2 3.00213 0
gene 1 3 8 -0.532844 0 3 -0.532844 1
gene 2 4 8 -5.6527 0 4 -5.6527 1
gene 1 5 8 1.97892 0 5 1.97892 1
gene 3 6 8 1.88946 0 6 1.88946 1
gene 2 7 8 -0.893596 0 7 -0.893596 1
gene 1 2 19 2.90232 0 28 2.90232 0
gene 1 19 8 0.374197 0 29 0.374197 1
gene 1 7 19 1.45825 0 32 1.45825 1
gene 2 5 19 3.0357 0 43 3.0357 0
gene 1 6 19 1.93683 0 55 1.93683 0
gene 2 3 19 0.779385 0 63 0.779385 0
gene 2 5 36 1.31503 0 78 1.31503 1
gene 2 36 19 -2.39637 0 79 -2.39637 1
gene 2 3 51 1 0 125 0 1
gene 2 51 19 0.779385 0 126 0 1
gene 1 2 65 1 0 181 0.5 1
gene 1 65 19 0.994533 0 182 -0.456628 1
gene 1 6 70 1 0 200 0 1
gene 1 70 19 0.593 0 201 -0.375413 0
gene 1 70 87 1 0 248 0 1
gene 1 87 19 0.593 0 249 0 1
genomeend 24

/* Organism #25 Fitness: 5 Error: 0 */
genomestart 25
trait 1 0.1 0 0 0.0128062 0 0 0 0 
trait 2 0.2 0 0 0 0 0 0 0 
trait 3 0.3 0 0 0 0 0 0 0 
node 1 3 1 1
node 2 3 1 1
node 3 2 1 1
node 4 1 1 1
node 5 2 1 1
node 6 3 1 1
node 7 2 1 3
node 8 1 0 2
node 19 1 0 0
node 36 1 0 0
node 51 1 0 0
node 65 1 0 0
node 70 1 0 0
node 87 1 0 0
gene 2 1 8 1.12422 0 1 1.12422 1
gene 1 2 8 2.55765 0 2 2.55765 0
gene 1 3 8 -1.65452 0 3 -1.65452 1
gene 2 4 8 -6.29832 0 4 -6.29832 1
gene 1 5 8 3.67032 0 5 3.67032 1
gene 3 6 8 -0.195269 0 6 -0.195269 1
gene 2 7 8 -0.622498 0 7 -0.622498 1
gene 1 2 19 0.313941 0 28 0.313941 0
gene 1 19 8 0.374197 0 29 0.374197 1
gene 1 7 19 2.19067 0 32 2.19067 1
gene 2 5 19 0.374031 0 43 0.374031 0
gene 1 6 19 1.76582 0 55 1.76582 0
gene 2 3 19 1.17549 0 63 1.17549 0
gene 2 5 36 1.39565 0 78 1.39565 1
gene 2 36 19 -3.12533 0 79 -3.12533 1
gene 2 3 51 0.527418 0 125 0.527418 1
gene 2 51 19 -0.194306 0 126 -0.194306 1
gene 1 2 65 1.61417 0 181 1.61417 1
gene 1 65 19 -1.66157 0 182 -1.66157 1
gene 1 6 70 -0.281579 0 200 -0.281579 1
gene 1 70 19 -1.82844 0 201 -1.82844 0
gene 1 70 87 -0.513762 0 248 -0.513762 1
gene 1 87 19 -1.17847 0 249 -1.17847 1
genomeend 25

/* Organism #26 Fitness: 36 Error: 0 */
genomestart 26
trait 1 0.1 0 0 0.0128062 0 0 0 0 
trait 2 0.2 0 0 0 0 0 0 0 
trait 3 0.3 0 0 0 0 0 0 0 
node 1 3 1 1
node 2 3 1 1
node 3 2 1 1
node 4 1 1 1
node 5 2 1 1
node 6 3 1 1
node 7 2 1 3
node 8 1 0 2
node 19 1 0 0
node 36 1 0 0
node 51 1 0 0
node 65 1 0 0
node 70 1 0 0
node 87 1 0 0
gene 2 1 8 0.859892 0 1 0.859892 1
gene 1 2 8 5.41622 0 2 5.41622 0
gene 1 3 8 0.840098 0 3 0.840098 1
gene 2 4 8 -3.48776 0 4 -3.48776 1
gene 1 5 8 3.23815 0 5 3.23815 1
gene 3 6 8 4.27776 0 6 4.27776 1
gene 2 7 8 -0.518015 0 7 -0.518015 1
gene 1 2 19 2.95797 0 28 2.95797 0
gene 1 19 8 0.0782046 0 29 0.0782046 1
gene 1 7 19 3.70139 0 32 3.70139 1
gene 2 5 19 3.60851 0 43 3.60851 0
gene 1 6 19 4.13361 0 55 4.13361 0
gene 2 3 19 0.902504 0 63 0.902504 0
gene 2 5 36 0.33634 0 78 0.33634 1
gene 2 36 19 -0.301611 0 79 -0.301611 1
gene 2 3 51 -1.21522 0 125 -1.21522 1
gene 2 51 19 0.817262 0 126 0.817262 1
gene 1 2 65 0.764416 0 181 0.764416 1
gene 1 65 19 -0.103445 0 182 -0.103445 1
gene 1 6 70 1 0 200 1 1
gene 1 70 19 0.593 0 201 0.593 0
gene 1 70 87 1 0 248 1 1
gene 1 87 19 0.593 0 249 0.593 1
genomeend 26

/* Organism #27 Fitness: 5 Error: 0 */
genomestart 27
trait 1 0.1 0 0 0.0128062 0 0 0 0 
trait 2 0.2 0 0 0 0 0 0 0 
trait 3 0.3 0 0 0 0 0 0 0 
node 1 3 1 1
node 2 3 1 1
node 3 2 1 1
node 4 1 1 1
node 5 2 1 1
node 6 3 1 1
node 7 2 1 3
node 8 1 0 2
node 19 1 0 0
node 36 1 0 0
node 51 1 0 0
node 65 1 0 0
node 70 1 0 0
node 87 1 0 0
gene 2 1 8 -2.01437 0 1 -2.01437 1
gene 1 2 8 0.515169 0 2 0.515169 0
gene 1 3 8 -2.28562 0 3 -2.28562 1
gene 2 4 8 -7.44378 0 4 -7.44378 1
gene 1 5 8 3.93141 0 5 3.93141 1
gene 3 6 8 -0.235867 0 6 -0.235867 1
gene 2 7 8 1.5774 0 7 1.5774 1
gene 1 2 19 3.03245 0 28 3.03245 0
gene 1 19 8 -0.00448408 0 29 -0.00448408 1
gene 1 7 19 -0.931804 0 32 -0.931804 1
gene 2 5 19 5.53262 0 43 5.53262 0
gene 1 6 19 0.568158 0 55 0.568158 0
gene 2 3 19 1.3384 0 63 1.3384 0
gene 2 5 36 -0.787846 0 78 -0.787846 1
gene 2 36 19 -0.278239 0 79 -0.278239 1
gene 2 3 51 1.66513 0 125 1.66513 1
gene 2 51 19 0.653421 0 126 0.653421 1
gene 1 2 65 1.0954 0 181 1.0954 1
gene 1 65 19 0.770694 0 182 0.770694 1
gene 1 6 70 -0.501751 0 200 -0.501751 1
gene 1 70 19 2.22123 0 201 2.22123 0
gene 1 70 87 -0.838864 0 248 -0.838864 1
gene 1 87 19 3.03504 0 249 3.03504 1
genomeend 27

/* Organism #28 Fitness: 62 Error: 0 */
genomestart 28
trait 1 0.1 0 0 0.0128062 0 0 0 0 
trait 2 0.2 0 0 0 0 0 0 0 
trait 3 0.3 0 0 0 0 0 0 0 
node 1 3 1 1
node 2 3 1 1
node 3 2 1 1
node 4 1 1 1
node 5 2 1 1
node 6 3 1 1
node 7 2 1 3
node 8 1 0 2
node 19 1 0 0
node 36 1 0 0
node 51 1 0 0
node 65 1 0 0
node 70 1 0 0
node 87 1 0 0
gene 2 1 8 1.20665 0 1 1.20665 1
gene 1 2 8 3.65539 0 2 3.65539 0
gene 1 3 8 -2.13448 0 3 -2.13448 1
gene 2 4 8 -3.97447 0 4 -3.97447 1
gene 1 5 8 2.07261 0 5 2.07261 1
gene 3 6 8 0.951196 0 6 0.951196 1
gene 2 7 8 -2.68618 0 7 -2.68618 1
gene 1 2 19 3.89444 0 28 3.89444 0
gene 1 19 8 0.374197 0 29 0.374197 1
gene 1 7 19 0.80658 0 32 0.80658 1
gene 2 5 19 5.39934 0 43 5.39934 0
gene 1 6 19 3.68469 0 55 3.68469 0
gene 2 3 19 0.560112 0 63 0.560112 0
gene 2 5 36 1.58833 0 78 1.58833 1
gene 2 36 19 -1.22905 0 79 -1.22905 1
gene 2 3 51 2.31609 0 125 2.31609 1
gene 2 51 19 0.779385 0 126 0.779385 1
gene 1 2 65 2.19808 0 181 2.19808 1
gene 1 65 19 3.13299 0 182 3.13299 1
gene 1 6 70 2.32571 0 200 2.32571 1
gene 1 70 19 0.282191 0 201 0.282191 0
gene 1 70 87 3.16151 0 248 3.16151 1
gene 1 87 19 -0.873796 0 249 -0.873796 1
genomeend 28

/* Organism #29 Fitness: 9 Error: 0 */
genomestart 29
trait 1 0.1 0 0 0.0128062 0 0 0 0 
trait 2 0.2 0 0 0 0 0 0 0 
trait 3 0.3 0 0 0 0 0 0 0 
node 1 3 1 1
node 2 3 1 1
node 3 2 1 1
node 4 1 1 1
node 5 2 1 1
node 6 3 1 1
node 7 2 1 3
node 8 1 0 2
node 19 1 0 0
node 36 1 0 0
node 51 1 0 0
node 65 1 0 0
node 70 1 0 0
node 87 1 0 0
gene 2 1 8 -2.8559 0 1 -2.8559 1
gene 1 2 8 1.44903 0 2 1.44903 0
gene 1 3 8 1.10152 0 3 1.10152 1
gene 2 4 8 -3.72024 0 4 -3.72024 1
gene 1 5 8 3.44525 0 5 3.44525 1
gene 3 6 8 0.0555192 0 6 0.0555192 1
gene 2 7 8 -1.25 0 7 -1.25 1
gene 1 2 19 3.02107 0 28 3.02107 1
gene 1 19 8 1.37702 0 29 1.37702 1
gene 1 7 19 2.44293 0 32 2.44293 1
gene 2 5 19 2.45199 0 43 2.45199 0
gene 1 6 19 4.11215 0 55 4.11215 0
gene 2 3 19 0.779385 0 63 0.779385 0
gene 2 5 36 3.35659 0 78 3.35659 1
gene 2 36 19 -3.80245 0 79 -3.80245 1
gene 2 3 51 2.39826 0 125 2.39826 1
gene 2 51 19 -0.641282 0 126 -0.641282 1
gene 1 2 65 0.345952 0 181 0.345952 1
gene 1 65 19 -0.731816 0 182 -0.731816 1
gene 1 6 70 1 0 200 1 1
gene 1 70 19 -0.944622 0 201 -0.944622 0
gene 1 70 87 2.01397 0 248 2.01397 1
gene 1 87 19 0.293188 0 249 0.293188 1
genomeend 29

/* Organism #30 Fitness: 35 Error: 0 */
genomestart 30
trait 1 0.1 0 0 0.0128062 0 0 0 0 
trait 2 0.368369 0 0 0.71476 0.0608143 0 0 0.257732 
trait 3 0.3 0 0 0 0 0 0 0 
node 1 3 1 1
node 2 3 1 1
node 3 2 1 1
node 4 1 1 1
node 5 2 1 1
node 6 3 1 1
node 7 2 1 3
node 8 1 0 2
node 19 1 0 0
node 36 1 0 0
node 51 1 0 0
node 65 1 0 0
node 70 1 0 0
node 87 1 0 0
gene 2 1 8 1.85694 0 1 1.85694 1
gene 1 2 8 2.30428 0 2 2.30428 0
gene 1 3 8 1.51075 0 3 1.51075 1
gene 2 4 8 -4.76296 0 4 -4.76296 1
gene 1 5 8 1.24731 0 5 1.24731 1
gene 3 6 8 1.88946 0 6 1.88946 1
gene 2 7 8 -0.207346 0 7 -0.207346 1
gene 1 2 19 0.58848 0 28 0.58848 0
gene 1 19 8 0.398447 0 29 0.398447 1
gene 1 7 19 0.14869 0 32 0.14869 1
gene 2 5 19 1.81018 0 43 1.81018 0
gene 1 6 19 -0.547885 0 55 -0.547885 0
gene 2 3 19 1.34446 0 63 1.34446 0
gene 2 5 36 -1.56636 0 78 -1.56636 1
gene 2 36 19 -0.0675154 0 79 -0.0675154 1
gene 2 3 51 2.43623 0 125 2.43623 1
gene 2 51 19 0.200166 0 126 0.200166 1
gene 1 2 65 1.74414 0 181 1.74414 1
gene 1 65 19 1.67323 0 182 1.67323 1
gene 1 6 70 -0.652975 0 200 -0.652975 1
gene 1 70 19 1.98926 0 201 1.98926 0
gene 1 70 87 0.875929 0 248 0.875929 1
gene 1 87 19 1.02939 0 249 1.02939 1
genomeend 30

/* Organism #31 Fitness: 28 Error: 0 */
genomestart 31
trait 1 0.1 0 0 0.0128062 0 0 0 0 
trait 2 0.2 0 0 0 0 0 0 0 
trait 3 0.3 0 0 0 0 0 0 0 
node 1 3 1 1
node 2 3 1 1
node 3 2 1 1
node 4 1 1 1
node 5 2 1 1
node 6 3 1 1
node 7 2 1 3
node 8 1 0 2
node 19 1 0 0
node 36 1 0 0
node 51 1 0 0
node 65 1 0 0
node 70 1 0 0
node 87 1 0 0
gene 2 1 8 -0.062458 0 1 -0.062458 1
gene 1 2 8 3.00213 0 2 3.00213 0
gene 1 3 8 -2.18822 0 3 -2.18822 1
gene 2 4 8 1.92299 0 4 1.92299 1
gene 1 5 8 2.36219 0 5 2.36219 1
gene 3 6 8 0.561191 0 6 0.561191 1
gene 2 7 8 -1.23194 0 7 -1.23194 1
gene 1 2 19 1.98755 0 28 1.98755 0
gene 1 19 8 1.69425 0 29 1.69425 1
gene 1 7 19 2.11982 0 32 2.11982 1
gene 2 5 19 3.23895 0 43 3.23895 0
gene 1 6 19 -0.489065 0 55 -0.489065 0
gene 2 3 19 0.779385 0 63 0.779385 0
gene 2 5 36 -0.256029 0 78 -0.256029 1
gene 2 36 19 -2.39637 0 79 -2.39637 1
gene 2 3 51 3.22264 0 125 3.22264 1
gene 2 51 19 -1.01746 0 126 -1.01746 1
gene 1 2 65 1 0 181 1 1
gene 1 65 19 -0.0579639 0 182 -0.0579639 1
gene 1 6 70 0.00216708 0 200 0.00216708 1
gene 1 70 19 1.34346 0 201 1.34346 0
gene 1 70 87 1.3829 0 248 1.3829 1
gene 1 87 19 2.68962 0 249 2.68962 1
genomeend 31

/* Organism #32 Fitness: 5 Error: 0 */
genomestart 32
trait 1 0.1 0 0 0.0128062 0 0 0 0 
trait 2 0.2 0 0 0 0 0 0 0 
trait 3 0.3 0 0 0 0 0 0 0 
node 1 3 1 1
node 2 3 1 1
node 3 2 1 1
node 4 1 1 1
node 5 2 1 1
node 6 3 1 1
node 7 2 1 3
node 8 1 0 2
node 19 1 0 0
node 36 1 0 0
node 51 1 0 0
node 65 1 0 0
node 70 1 0 0
node 87 1 0 0
gene 2 1 8 1.96848 0 1 1.96848 1
gene 1 2 8 2.86806 0 2 2.86806 0
gene 1 3 8 -2.06023 0 3 -2.06023 1
gene 2 4 8 -5.23627 0 4 -5.23627 1
gene 1 5 8 -0.353302 0 5 -0.353302 1
gene 3 6 8 -0.604538 0 6 -0.604538 1
gene 2 7 8 -1.43759 0 7 -1.43759 1
gene 1 2 19 1.39463 0 28 1.39463 0
gene 1 19 8 2.11307 0 29 2.11307 1
gene 1 7 19 1.45825 0 32 1.45825 1
gene 2 5 19 3.22257 0 43 3.22257 0
gene 1 6 19 -0.500675 0 55 -0.500675 0
gene 2 3 19 2.54942 0 63 2.54942 0
gene 2 5 36 1.79124 0 78 1.79124 1
gene 2 36 19 -1.05953 0 79 -1.05953 1
gene 2 3 51 2.08634 0 125 2.08634 1
gene 2 51 19 0.249257 0 126 0.249257 1
gene 1 2 65 -0.058491 0 181 -0.058491 1
gene 1 65 19 0.994533 0 182 0.994533 1
gene 1 6 70 -1.6174 0 200 -1.6174 1
gene 1 70 19 -1.20447 0 201 -1.20447 0
gene 1 70 87 1.11683 0 248 1.11683 1
gene 1 87 19 0.593 0 249 0.593 1
genomeend 32

/* Organism #33 Fitness: 5 Error: 0 */
genomestart 33
trait 1 0.1 0.389517 0 0 0.921238 0 0.189041 0.713977 
trait 2 0.2 0 0 0 0 0 0 0 
trait 3 0.3 0 0 0 0 0 0 0 
node 1 3 1 1
node 2 3 1 1
node 3 2 1 1
node 4 1 1 1
node 5 2 1 1
node 6 3 1 1
node 7 2 1 3
node 8 1 0 2
node 19 1 0 0
node 36 1 0 0
node 51 1 0 0
node 65 1 0 0
node 70 1 0 0
node 87 1 0 0
gene 2 1 8 -2.22269 0 1 -2.22269 1
gene 1 2 8 4.98815 0 2 4.98815 0
gene 1 3 8 -0.0284296 0 3 -0.0284296 1
gene 2 4 8 -6.07612 0 4 -6.07612 1
gene 1 5 8 3.23129 0 5 3.23129 1
gene 3 6 8 0.444618 0 6 0.444618 1
gene 2 7 8 -1.7166 0 7 -1.7166 1
gene 1 2 19 0.422279 0 28 0.422279 0
gene 1 19 8 -1.6612 0 29 -1.6612 1
gene 1 7 19 2.50914 0 32 2.50914 1
gene 2 5 19 4.78969 0 43 4.78969 0
gene 1 6 19 1.64648 0 55 1.64648 0
gene 2 3 19 0.437501 0 63 0.437501 0
gene 2 5 36 -0.845498 0 78 -0.845498 1
gene 2 36 19 -2.8095 0 79 -2.8095 1
gene 2 3 51 2.22646 0 125 2.22646 1
gene 2 51 19 3.01305 0 126 3.01305 1
gene 1 2 65 1.43371 0 181 1.43371 1
gene 1 65 19 -0.0944248 0 182 -0.0944248 1
gene 1 6 70 -0.379301 0 200 -0.379301 1
gene 1 70 19 0.593 0 201 0.593 0
gene 1 70 87 1.65112 0 248 1.65112 1
gene 1 87 19 1.89108 0 249 1.89108 1
genomeend 33

/* Organism #34 Fitness: 7 Error: 0 */
genomestart 34
trait 1 0.1 0 0 0.0128062 0 0 0 0 
trait 2 0.2 0 0 0 0 0 0 0 
trait 3 0.3 0 0 0 0 0 0 0 
node 1 3 1 1
node 2 3 1 1
node 3 2 1 1
node 4 1 1 1
node 5 2 1 1
node 6 3 1 1
node 7 2 1 3
node 8 1 0 2
node 19 1 0 0
node 36 1 0 0
node 51 1 0 0
node 65 1 0 0
node 70 1 0 0
node 87 1 0 0
gene 2 1 8 -0.599482 0 1 -0.599482 1
gene 1 2 8 1.32316 0 2 1.32316 0
gene 1 3 8 0.18585 0 3 0.18585 1
gene 2 4 8 -4.87647 0 4 -4.87647 1
gene 1 5 8 0.0529266 0 5 0.0529266 1
gene 3 6 8 -0.22259 0 6 -0.22259 1
gene 2 7 8 -0.470716 0 7 -0.470716 1
gene 1 2 19 4.95912 0 28 4.95912 0
gene 1 19 8 2.82485 0 29 2.82485 1
gene 1 7 19 0.0711481 0 32 0.0711481 1
gene 2 5 19 2.50922 0 43 2.50922 0
gene 1 6 19 -0.340109 0 55 -0.340109 0
gene 2 3 19 2.35518 0 63 2.35518 0
gene 2 5 36 3.62746 0 78 3.62746 1
gene 2 36 19 -1.52132 0 79 -1.52132 1
gene 2 3 51 0.117407 0 125 0.117407 1
gene 2 51 19 -0.907208 0 126 -0.907208 1
gene 1 2 65 2.18551 0 181 2.18551 1
gene 1 65 19 -0.323411 0 182 -0.323411 1
gene 1 6 70 -0.0948794 0 200 -0.0948794 1
gene 1 70 19 0.890808 0 201 0.890808 0
gene 1 70 87 1 0 248 1 1
gene 1 87 19 0.593 0 249 0.593 1
genomeend 34

/* Organism #35 Fitness: 83 Error: 0 */
genomestart 35
trait 1 0.1 0 0 0.0128062 0 0 0 0 
trait 2 0.2 0 0 0 0 0 0 0 
trait 3 0.3 0 0 0 0 0 0 0 
node 1 3 1 1
node 2 3 1 1
node 3 2 1 1
node 4 1 1 1
node 5 2 1 1
node 6 3 1 1
node 7 2 1 3
node 8 1 0 2
node 19 1 0 0
node 36 1 0 0
node 51 1 0 0
node 65 1 0 0
node 70 1 0 0
node 87 1 0 0
gene 2 1 8 -0.424523 0 1 -0.424523 1
gene 1 2 8 4.77767 0 2 4.77767 0
gene 1 3 8 0.2773 0 3 0.2773 1
gene 2 4 8 -5.79525 0 4 -5.79525 1
gene 1 5 8 1.75815 0 5 1.75815 1
gene 3 6 8 0.868487 0 6 0.868487 1
gene 2 7 8 -1.35434 0 7 -1.35434 1
gene 1 2 19 4.83171 0 28 4.83171 0
gene 1 19 8 0.43803 0 29 0.43803 1
gene 1 7 19 -0.727592 0 32 -0.727592 1
gene 2 5 19 1.55211 0 43 1.55211 0
gene 1 6 19 3.85485 0 55 3.85485 0
gene 2 3 19 0.824998 0 63 0.824998 0
gene 2 5 36 -0.34027 0 78 -0.34027 1
gene 2 36 19 -1.59858 0 79 -1.59858 1
gene 2 3 51 1.33618 0 125 1.33618 1
gene 2 51 19 -1.5895 0 126 -1.5895 1
gene 1 2 65 -0.117009 0 181 -0.117009 1
gene 1 65 19 1.09741 0 182 1.09741 1
gene 1 6 70 -1.03541 0 200 -1.03541 1
gene 1 70 19 1.19722 0 201 1.19722 0
gene 1 70 87 1.55042 0 248 1.55042 1
gene 1 87 19 0.593 0 249 0.593 1
genomeend 35

/* Organism #36 Fitness: 5 Error: 0 */
genomestart 36
trait 1 0.1 0 0 0.0128062 0 0 0 0 
trait 2 0.2 0 0 0 0 0 0 0 
trait 3 0.3 0 0 0 0 0 0 0 
node 1 3 1 1
node 2 3 1 1
node 3 2 1 1
node 4 1 1 1
node 5 2 1 1
node 6 3 1 1
node 7 2 1 3
node 8 1 0 2
node 19 1 0 0
node 36 1 0 0
node 51 1 0 0
node 65 1 0 0
node 70 1 0 0
node 87 1 0 0
gene 2 1 8 -0.424523 0 1 -0.424523 1
gene 1 2 8 2.49369 0 2 2.49369 0
gene 1 3 8 0.906358 0 3 0.906358 1
gene 2 4 8 -6.71989 0 4 -6.71989 1
gene 1 5 8 3.2245 0 5 3.2245 1
gene 3 6 8 -0.46368 0 6 -0.46368 1
gene 2 7 8 0.55224 0 7 0.55224 1
gene 1 2 19 4.70426 0 28 4.70426 0
gene 1 19 8 0.422415 0 29 0.422415 1
gene 1 7 19 2.38304 0 32 2.38304 1
gene 2 5 19 1.59291 0 43 1.59291 0
gene 1 6 19 0.568352 0 55 0.568352 0
gene 2 3 19 0.993692 0 63 0.993692 0
gene 2 5 36 0.360805 0 78 0.360805 1
gene 2 36 19 -1.78748 0 79 -1.78748 1
gene 2 3 51 3.1713 0 125 3.1713 1
gene 2 51 19 0.362378 0 126 0.362378 1
gene 1 2 65 1 0 181 1 1
gene 1 65 19 0.994533 0 182 0.994533 1
gene 1 6 70 -0.35752 0 200 -0.35752 1
gene 1 70 19 0.593 0 201 0.593 0
gene 1 70 87 -0.280597 0 248 -0.280597 1
gene 1 87 19 1.16874 0 249 1.16874 1
genomeend 36

/* Organism #37 Fitness: 25 Error: 0 */
genomestart 37
trait 1 0.1 0 0 0.0128062 0 0 0 0 
trait 2 0.2 0 0 0 0 0 0 0 
trait 3 0.3 0 0 0 0 0 0 0 
node 1 3 1 1
node 2 3 1 1
node 3 2 1 1
node 4 1 1 1
node 5 2 1 1
node 6 3 1 1
node 7 2 1 3
node 8 1 0 2
node 19 1 0 0
node 36 1 0 0
node 51 1 0 0
node 65 1 0 0
node 70 1 0 0
node 87 1 0 0
gene 2 1 8 -0.424523 0 1 -0.424523 1
gene 1 2 8 3.00213 0 2 3.00213 0
gene 1 3 8 -0.773667 0 3 -0.773667 1
gene 2 4 8 -4.17643 0 4 -4.17643 1
gene 1 5 8 0.25687 0 5 0.25687 1
gene 3 6 8 1.05685 0 6 1.05685 1
gene 2 7 8 -0.893596 0 7 -0.893596 1
gene 1 2 19 2.21483 0 28 2.21483 0
gene 1 19 8 1.23784 0 29 1.23784 1
gene 1 7 19 -0.659738 0 32 -0.659738 1
gene 2 5 19 -0.801839 0 43 -0.801839 0
gene 1 6 19 0.831735 0 55 0.831735 0
gene 2 3 19 2.14216 0 63 2.14216 0
gene 2 5 36 1.08448 0 78 1.08448 1
gene 2 36 19 -2.87352 0 79 -2.87352 1
gene 2 3 51 1.37975 0 125 1.37975 1
gene 2 51 19 0.779385 0 126 0.779385 1
gene 1 2 65 2.5857 0 181 2.5857 1
gene 1 65 19 1.6963 0 182 1.6963 1
gene 1 6 70 -0.385235 0 200 -0.385235 1
gene 1 70 19 -1.37124 0 201 -1.37124 0
gene 1 70 87 -0.0688589 0 248 -0.0688589 1
gene 1 87 19 1.47036 0 249 1.47036 1
genomeend 37

/* Species #7 : (Size 2) (AF 29) (Age 20)  */


/* Organism #38 Fitness: 31 Error: 0 */
genomestart 38
trait 1 0.354744 0.270619 0 0 0 0 0 0 
trait 2 0.2 0 0 0 0 0 0 0 
trait 3 0.3 0 0 0 0 0 0.70779 0 
node 1 3 1 1
node 2 3 1 1
node 3 2 1 1
node 4 1 1 1
node 5 2 1 1
node 6 3 1 1
node 7 2 1 3
node 8 1 0 2
node 19 1 0 0
node 31 1 0 0
gene 2 1 8 -5.20364 0 1 -5.20364 1
gene 1 2 8 -2.39446 0 2 -2.39446 1
gene 1 3 8 -0.211844 0 3 -0.211844 1
gene 2 4 8 -2.13116 0 4 -2.13116 1
gene 1 5 8 5.70988 0 5 5.70988 1
gene 3 6 8 2.88492 0 6 2.88492 1
gene 2 7 8 1.21318 0 7 1.21318 1
gene 1 2 19 0.482795 0 28 0.482795 1
gene 1 19 8 -1.31601 0 29 -1.31601 1
gene 1 7 19 -1.23374 0 32 -1.23374 1
gene 2 1 19 -3.87293 0 41 -3.87293 0
gene 2 1 31 0.0149249 0 64 0.0149249 1
gene 2 31 19 -0.734975 0 65 -0.734975 1
gene 3 3 31 -1.74025 0 263 -1.74025 1
gene 1 2 31 0.0502863 0 288 0.0502863 1
genomeend 38

/* Organism #39 Fitness: 27 Error: 0 */
genomestart 39
trait 1 0.354744 0.270619 0 0 0 0 0 0 
trait 2 0.2 0 0 0 0 0 0 0 
trait 3 0.3 0 0 0 0 0 0 0 
node 1 3 1 1
node 2 3 1 1
node 3 2 1 1
node 4 1 1 1
node 5 2 1 1
node 6 3 1 1
node 7 2 1 3
node 8 1 0 2
node 19 1 0 0
node 31 1 0 0
gene 2 1 8 -4.97962 0 1 -4.97962 1
gene 1 2 8 0.0313031 0 2 0.0313031 1
gene 1 3 8 0.329332 0 3 0.329332 1
gene 2 4 8 -0.0316723 0 4 -0.0316723 1
gene 1 5 8 3.57817 0 5 3.57817 1
gene 3 6 8 1.81308 0 6 1.81308 1
gene 2 7 8 2.84265 0 7 2.84265 1
gene 1 2 19 -0.424271 0 28 -0.424271 1
gene 1 19 8 0.936257 0 29 0.936257 1
gene 1 7 19 -0.996671 0 32 -0.996671 1
gene 2 1 19 -3.8677 0 41 -3.8677 0
gene 2 1 31 0.0334504 0 64 0.0334504 1
gene 2 31 19 -1.52303 0 65 -1.52303 1
gene 3 3 31 0.219159 0 263 0.219159 1
gene 1 2 31 1.76491 0 288 1.76491 1
genomeend 39

/* Species #8 : (Size 3) (AF 32) (Age 20)  */


/* Organism #40 Fitness: 36 Error: 0 */
genomestart 40
trait 1 0.0875 0 0 0.00917042 0 0.0744408 0.0948746 0 
trait 2 0.2 0 0 0 0 0 0 0 
trait 3 0.3 0 0 0 0 0 0 0 
node 1 3 1 1
node 2 1 1 1
node 3 2 1 1
node 4 1 1 1
node 5 2 1 1
node 6 3 1 1
node 7 2 1 3
node 8 1 0 2
node 19 1 0 0
node 23 1 0 0
node 32 1 0 0
gene 2 1 8 2.27503 0 1 2.27503 1
gene 1 2 8 -0.458407 0 2 -0.458407 1
gene 1 3 8 0.577086 0 3 0.577086 1
gene 2 4 8 -3.76388 0 4 -3.76388 1
gene 1 5 8 4.70752 0 5 4.70752 1
gene 3 6 8 2.79425 0 6 2.79425 1
gene 2 7 8 -0.568701 0 7 -0.568701 1
gene 1 2 19 7.09181 0 28 7.09181 1
gene 1 19 8 1.39762 0 29 1.39762 1
gene 1 3 23 0.382083 0 37 0.382083 1
gene 1 23 8 -0.25255 0 38 -0.25255 1
gene 3 6 32 0.93921 0 66 0.93921 1
gene 3 32 8 3.26178 0 67 3.26178 1
gene 3 1 23 -0.167777 0 76 -0.167777 1
gene 2 3 32 -4.51372 0 116 -4.51372 1
genomeend 40

/* Organism #41 Fitness: 38 Error: 0 */
genomestart 41
trait 1 0.0875 0 0 0.00917042 0 0.0744408 0.0948746 0 
trait 2 0.2 0 0 0 0 0 0 0 
trait 3 0.3 0 0 0 0 0 0 0 
node 1 3 1 1
node 2 1 1 1
node 3 2 1 1
node 4 1 1 1
node 5 2 1 1
node 6 3 1 1
node 7 2 1 3
node 8 1 0 2
node 19 1 0 0
node 23 1 0 0
node 32 1 0 0
gene 2 1 8 -2.93468 0 1 -2.93468 1
gene 1 2 8 0.0497993 0 2 0.0497993 1
gene 1 3 8 -2.02783 0 3 -2.02783 1
gene 2 4 8 -4.07718 0 4 -4.07718 1
gene 1 5 8 6.13198 0 5 6.13198 1
gene 3 6 8 3.08703 0 6 3.08703 1
gene 2 7 8 -4.10061 0 7 -4.10061 1
gene 1 2 19 5.99711 0 28 5.99711 1
gene 1 19 8 -0.845879 0 29 -0.845879 1
gene 1 3 23 -0.454145 0 37 -0.454145 1
gene 1 23 8 -0.609322 0 38 -0.609322 1
gene 3 6 32 -2.34246 0 66 -2.34246 1
gene 3 32 8 0.20485 0 67 0.20485 1
gene 3 1 23 -1.57952 0 76 -1.57952 1
gene 2 3 32 -3.59286 0 116 -3.59286 1
genomeend 41

/* Organism #42 Fitness: 22 Error: 0 */
genomestart 42
trait 1 0.0875 0 0 0.00917042 0 0.0744408 0.0948746 0 
trait 2 0.2 0 0 0 0 0 0 0 
trait 3 0.3 0 0 0 0 0 0 0 
node 1 3 1 1
node 2 1 1 1
node 3 2 1 1
node 4 1 1 1
node 5 2 1 1
node 6 3 1 1
node 7 2 1 3
node 8 1 0 2
node 19 1 0 0
node 23 1 0 0
node 32 1 0 0
gene 2 1 8 -1.71085 0 1 -1.71085 1
gene 1 2 8 -2.50691 0 2 -2.50691 1
gene 1 3 8 0.652411 0 3 0.652411 1
gene 2 4 8 -2.39918 0 4 -2.39918 1
gene 1 5 8 2.4629 0 5 2.4629 1
gene 3 6 8 1.26368 0 6 1.26368 1
gene 2 7 8 -1.02928 0 7 -1.02928 1
gene 1 2 19 7.76604 0 28 7.76604 1
gene 1 19 8 -0.464128 0 29 -0.464128 1
gene 1 3 23 -0.605393 0 37 -0.605393 1
gene 1 23 8 2.92776 0 38 2.92776 1
gene 3 6 32 1.40543 0 66 1.40543 1
gene 3 32 8 4.78847 0 67 4.78847 1
gene 3 1 23 -1.57952 0 76 -1.57952 1
gene 2 3 32 -0.469268 0 116 -0.469268 1
genomeend 42

/* Species #9 : (Size 17) (AF 99.1176) (Age 20)  */


/* Organism #43 Fitness: 398 Error: 0 */
genomestart 43
trait 1 0.0875 0 0 0.00917042 0 0.0744408 0.0948746 0 
trait 2 0.2 0 0 0 0 0 0 0 
trait 3 0 0.110288 0 0.68069 0 0 0 0.763251 
node 1 3 1 1
node 2 3 1 1
node 3 2 1 1
node 4 1 1 1
node 5 2 1 1
node 6 3 1 1
node 7 2 1 3
node 8 1 0 2
node 19 1 0 0
node 23 1 0 0
node 37 1 0 0
node 61 1 0 0
gene 2 1 8 0.103004 0 1 0.103004 1
gene 1 2 8 -1.74255 0 2 -1.74255 0
gene 1 3 8 -2.05171 0 3 -2.05171 1
gene 2 4 8 -7.78773 0 4 -7.78773 1
gene 1 5 8 3.81054 0 5 3.81054 1
gene 3 6 8 3.30234 0 6 3.30234 1
gene 2 7 8 5.02604 0 7 5.02604 1
gene 1 2 19 0.822242 0 28 0.822242 1
gene 2 19 8 -2.35601 0 29 -2.35601 0
gene 1 3 23 -1.16673 0 37 -1.16673 1
gene 1 23 8 0.973763 0 38 0.973763 1
gene 1 7 23 -0.76399 0 69 -0.76399 1
gene 1 19 37 1.22071 0 83 1.22071 1
gene 1 37 8 -3.03726 0 84 -3.03726 1
gene 1 3 61 1.97716 0 161 1.97716 1
gene 1 61 23 -3.56509 0 162 -3.56509 1
genomeend 43

/* Organism #44 Fitness: 12 Error: 0 */
genomestart 44
trait 1 0 0 0 0.670761 0 0.0744408 0.168272 0.401765 
trait 2 0.2 0 0 0 0 0 0 0 
trait 3 0 0.110288 0 0.68069 0 0 0 0.763251 
node 1 1 1 1
node 2 3 1 1
node 3 2 1 1
node 4 1 1 1
node 5 2 1 1
node 6 3 1 1
node 7 2 1 3
node 8 1 0 2
node 19 1 0 0
node 23 1 0 0
node 37 1 0 0
node 61 1 0 0
gene 2 1 8 -2.15709 0 1 -2.15709 1
gene 1 2 8 -2.10977 0 2 -2.10977 0
gene 1 3 8 -3.65965 0 3 -3.65965 1
gene 2 4 8 -8 0 4 -8 1
gene 1 5 8 5.03696 0 5 5.03696 1
gene 3 6 8 0.998287 0 6 0.998287 1
gene 2 7 8 6.69202 0 7 6.69202 1
gene 1 2 19 2.04403 0 28 2.04403 1
gene 2 19 8 -3.2873 0 29 -3.2873 0
gene 1 3 23 -3.63443 0 37 -3.63443 0
gene 1 23 8 1.17079 0 38 1.17079 1
gene 1 7 23 -2.57811 0 69 -2.57811 1
gene 1 19 37 0.591991 0 83 0.591991 1
gene 1 37 8 -3.03726 0 84 -3.03726 1
gene 1 3 61 2.07214 0 161 2.07214 1
gene 1 61 23 -5.47753 0 162 -5.47753 1
genomeend 44

/* Organism #45 Fitness: 40 Error: 0 */
genomestart 45
trait 1 0.0875 0 0 0.00917042 0 0.0744408 0.0948746 0 
trait 2 0.2 0 0 0 0 0 0 0 
trait 3 0 0.110288 0 0.68069 0 0 0 0.763251 
node 1 3 1 1
node 2 3 1 1
node 3 2 1 1
node 4 1 1 1
node 5 2 1 1
node 6 3 1 1
node 7 2 1 3
node 8 1 0 2
node 19 1 0 0
node 23 1 0 0
node 37 1 0 0
node 61 1 0 0
gene 2 1 8 -0.56756 0 1 -0.56756 1
gene 1 2 8 1.28022 0 2 1.28022 0
gene 1 3 8 0.192935 0 3 0.192935 1
gene 2 4 8 -1.17952 0 4 -1.17952 1
gene 1 5 8 5.43476 0 5 5.43476 1
gene 3 6 8 4.53724 0 6 4.53724 1
gene 2 7 8 0.553333 0 7 0.553333 1
gene 1 2 19 0.822242 0 28 0.822242 1
gene 2 19 8 -2.95843 0 29 -2.95843 0
gene 1 3 23 0.654972 0 37 0.654972 0
gene 1 23 8 -1.3085 0 38 -1.3085 1
gene 1 7 23 -0.133529 0 69 -0.133529 1
gene 1 19 37 0.654683 0 83 0.654683 1
gene 1 37 8 -3.03726 0 84 -3.03726 1
gene 1 3 61 -0.150182 0 161 -0.150182 1
gene 1 61 23 -0.719364 0 162 -0.719364 1
genomeend 45

/* Organism #46 Fitness: 315 Error: 0 */
genomestart 46
trait 1 0.0875 0 0 0.00917042 0 0.0744408 0.0948746 0 
trait 2 0.2 0 0 0 0 0 0 0 
trait 3 0 0.110288 0 0.68069 0 0 0 0.763251 
node 1 3 1 1
node 2 3 1 1
node 3 2 1 1
node 4 1 1 1
node 5 2 1 1
node 6 3 1 1
node 7 2 1 3
node 8 1 0 2
node 19 1 0 0
node 23 1 0 0
node 37 1 0 0
node 61 1 0 0
node 106 1 0 0
gene 2 1 8 0.103004 0 1 0.103004 1
gene 1 2 8 -1.74255 0 2 -1.74255 0
gene 1 3 8 -2.05171 0 3 -2.05171 1
gene 2 4 8 -8 0 4 -8 1
gene 1 5 8 3.81054 0 5 3.81054 1
gene 3 6 8 3.30234 0 6 3.30234 1
gene 2 7 8 5.02604 0 7 5.02604 1
gene 1 2 19 0.822242 0 28 0.822242 1
gene 2 19 8 -1.54789 0 29 -1.54789 0
gene 1 3 23 -1.16673 0 37 -1.16673 0
gene 1 23 8 0.973763 0 38 0.973763 1
gene 1 7 23 -0.76399 0 69 -0.76399 1
gene 1 19 37 1.22071 0 83 1.22071 1
gene 1 37 8 -3.03726 0 84 -3.03726 1
gene 1 3 61 1.97716 0 161 1.97716 0
gene 1 61 23 -3.56509 0 162 -3.56509 1
gene 1 3 106 1 0 313 0 1
gene 1 106 61 1.97716 0 314 0 1
genomeend 46

/* Organism #47 Fitness: 6 Error: 0 */
genomestart 47
trait 1 0.0875 0 0 0.00917042 0 0.0744408 0.0948746 0 
trait 2 0.2 0 0 0 0 0 0 0 
trait 3 0 0.110288 0 0.68069 0 0 0 0.763251 
node 1 3 1 1
node 2 3 1 1
node 3 2 1 1
node 4 1 1 1
node 5 2 1 1
node 6 3 1 1
node 7 2 1 3
node 8 1 0 2
node 19 1 0 0
node 23 1 0 0
node 37 1 0 0
node 61 1 0 0
gene 2 1 8 -0.335062 0 1 -0.335062 1
gene 1 2 8 -0.105222 0 2 -0.105222 0
gene 1 3 8 -3.10818 0 3 -3.10818 1
gene 2 4 8 -8 0 4 -8 1
gene 1 5 8 6.27469 0 5 6.27469 1
gene 3 6 8 1.16948 0 6 1.16948 1
gene 2 7 8 7.44089 0 7 7.44089 1
gene 1 2 19 -0.799493 0 28 -0.799493 1
gene 2 19 8 -3.41902 0 29 -3.41902 0
gene 1 3 23 0.0487688 0 37 0.0487688 0
gene 1 23 8 2.76639 0 38 2.76639 1
gene 1 7 23 -2.56678 0 69 -2.56678 1
gene 1 19 37 -1.22283 0 83 -1.22283 1
gene 1 37 8 -3.03726 0 84 -3.03726 1
gene 1 3 61 1.97716 0 161 1.97716 1
gene 1 61 23 -6.00164 0 162 -6.00164 1
genomeend 47

/* Organism #48 Fitness: 135 Error: 0 */
genomestart 48
trait 1 0.0875 0 0 0.00917042 0 0.0744408 0.0948746 0 
trait 2 0.2 0 0 0 0 0 0 0 
trait 3 0 0.110288 0 0.68069 0 0 0 0.763251 
node 1 3 1 1
node 2 3 1 1
node 3 2 1 1
node 4 1 1 1
node 5 2 1 1
node 6 3 1 1
node 7 2 1 3
node 8 1 0 2
node 19 1 0 0
node 23 1 0 0
node 37 1 0 0
node 61 1 0 0
gene 2 1 8 -2.11368 0 1 -2.11368 1
gene 1 2 8 -0.444437 0 2 -0.444437 0
gene 1 3 8 -4.36935 0 3 -4.36935 1
gene 2 4 8 -8 0 4 -8 1
gene 1 5 8 3.33329 0 5 3.33329 1
gene 3 6 8 1.57195 0 6 1.57195 1
gene 2 7 8 6.87315 0 7 6.87315 1
gene 1 2 19 0.721079 0 28 0.721079 1
gene 2 19 8 -3.15607 0 29 -3.15607 0
gene 1 3 23 0.88734 0 37 0.88734 0
gene 1 23 8 -1.28614 0 38 -1.28614 1
gene 1 7 23 -3.00448 0 69 -3.00448 1
gene 1 19 37 2.18406 0 83 2.18406 1
gene 1 37 8 -3.03726 0 84 -3.03726 1
gene 1 3 61 1.05429 0 161 1.05429 1
gene 1 61 23 1.73441 0 162 1.73441 1
genomeend 48

/* Organism #49 Fitness: 27 Error: 0 */
genomestart 49
trait 1 0.0875 0 0 0.00917042 0 0.0744408 0.0948746 0 
trait 2 0.2 0 0 0 0 0 0 0 
trait 3 0 0.110288 0 0.68069 0 0 0 0.763251 
node 1 3 1 1
node 2 3 1 1
node 3 2 1 1
node 4 1 1 1
node 5 2 1 1
node 6 3 1 1
node 7 2 1 3
node 8 1 0 2
node 19 1 0 0
node 23 1 0 0
node 37 1 0 0
node 61 1 0 0
gene 2 1 8 -1.43453 0 1 -1.43453 1
gene 1 2 8 -0.395851 0 2 -0.395851 1
gene 1 3 8 -2.0886 0 3 -2.0886 1
gene 2 4 8 1.74159 0 4 1.74159 1
gene 1 5 8 3.42979 0 5 3.42979 1
gene 3 6 8 1.3874 0 6 1.3874 1
gene 2 7 8 4.25797 0 7 4.25797 1
gene 1 2 19 -0.735563 0 28 -0.735563 1
gene 2 19 8 -1.95195 0 29 -1.95195 1
gene 1 3 23 0.343611 0 37 0.343611 0
gene 1 23 8 2.04435 0 38 2.04435 1
gene 1 7 23 -1.41465 0 69 -1.41465 1
gene 1 19 37 -1.00343 0 83 -1.00343 1
gene 1 37 8 -3.03726 0 84 -3.03726 1
gene 1 3 61 1.80517 0 161 1.80517 1
gene 1 61 23 -1.95398 0 162 -1.95398 1
genomeend 49

/* Organism #50 Fitness: 377 Error: 0 */
genomestart 50
trait 1 0.0875 0 0 0.00917042 0 0.0744408 0.0948746 0 
trait 2 0.2 0 0 0 0 0 0 0 
trait 3 0 0.110288 0 0.68069 0 0 0 0.763251 
node 1 3 1 1
node 2 3 1 1
node 3 2 1 1
node 4 1 1 1
node 5 2 1 1
node 6 3 1 1
node 7 2 1 3
node 8 1 0 2
node 19 1 0 0
node 23 1 0 0
node 37 1 0 0
node 61 1 0 0
gene 2 1 8 0.103004 0 1 0.103004 1
gene 1 2 8 -1.74255 0 2 -1.74255 0
gene 1 3 8 -2.05171 0 3 -2.05171 1
gene 2 4 8 -7.57546 0 4 -7.57546 1
gene 1 5 8 3.81054 0 5 3.81054 1
gene 3 6 8 3.30234 0 6 3.30234 1
gene 2 7 8 5.02604 0 7 5.02604 1
gene 1 2 19 0.822242 0 28 0.822242 1
gene 2 19 8 -1.54789 0 29 -1.54789 0
gene 1 3 23 -1.16673 0 37 -1.16673 0
gene 1 23 8 0.973763 0 38 0.973763 1
gene 1 7 23 -0.76399 0 69 -0.76399 1
gene 1 19 37 1.22071 0 83 1.22071 1
gene 1 37 8 -3.03726 0 84 -3.03726 1
gene 1 3 61 1.97716 0 161 1.97716 1
gene 1 61 23 -3.56509 0 162 -3.56509 1
genomeend 50

/* Organism #51 Fitness: 59 Error: 0 */
genomestart 51
trait 1 0.0875 0 0 0.00917042 0 0.0744408 0.0948746 0 
trait 2 0.2 0 0 0 0 0 0 0 
trait 3 0 0.110288 0 0.68069 0 0 0 0.763251 
node 1 3 1 1
node 2 3 1 1
node 3 2 1 1
node 4 1 1 1
node 5 2 1 1
node 6 3 1 1
node 7 2 1 3
node 8 1 0 2
node 19 1 0 0
node 23 1 0 0
node 37 1 0 0
node 61 1 0 0
gene 2 1 8 -1.20192 0 1 -1.20192 1
gene 1 2 8 -0.826315 0 2 -0.826315 0
gene 1 3 8 -1.77026 0 3 -1.77026 1
gene 2 4 8 -8 0 4 -8 1
gene 1 5 8 2.21994 0 5 2.21994 1
gene 3 6 8 5.54946 0 6 5.54946 1
gene 2 7 8 3.30089 0 7 3.30089 1
gene 1 2 19 1.08112 0 28 1.08112 1
gene 2 19 8 -4.82143 0 29 -4.82143 0
gene 1 3 23 -2.17218 0 37 -2.17218 0
gene 1 23 8 1.83788 0 38 1.83788 1
gene 1 7 23 1.4517 0 69 1.4517 1
gene 1 19 37 2.76866 0 83 2.76866 1
gene 1 37 8 -1.29508 0 84 -1.29508 1
gene 1 3 61 1.97716 0 161 1.97716 1
gene 1 61 23 -3.56509 0 162 -3.56509 1
genomeend 51

/* Organism #52 Fitness: 21 Error: 0 */
genomestart 52
trait 1 0.0875 0 0 0.00917042 0 0.0744408 0.0948746 0 
trait 2 0.2 0 0 0 0 0 0 0 
trait 3 0 0.110288 0 0.68069 0 0 0 0.763251 
node 1 3 1 1
node 2 3 1 1
node 3 2 1 1
node 4 1 1 1
node 5 2 1 1
node 6 3 1 1
node 7 2 1 3
node 8 1 0 2
node 19 1 0 0
node 23 1 0 0
node 37 1 0 0
node 61 1 0 0
gene 2 1 8 0.103004 0 1 0.103004 1
gene 1 2 8 -4.11231 0 2 -4.11231 0
gene 1 3 8 -4.25794 0 3 -4.25794 1
gene 2 4 8 -0.0445468 0 4 -0.0445468 1
gene 1 5 8 0.0985563 0 5 0.0985563 1
gene 3 6 8 4.7612 0 6 4.7612 1
gene 2 7 8 5.02604 0 7 5.02604 1
gene 1 2 19 0.403588 0 28 0.403588 1
gene 2 19 8 -2.70196 0 29 -2.70196 0
gene 1 3 23 -2.4121 0 37 -2.4121 0
gene 1 23 8 0.292828 0 38 0.292828 1
gene 1 7 23 1.25664 0 69 1.25664 1
gene 1 19 37 -2.36924 0 83 -2.36924 1
gene 1 37 8 -0.0909038 0 84 -0.0909038 1
gene 1 3 61 1.76627 0 161 1.76627 1
gene 1 61 23 -5.05301 0 162 -5.05301 1
genomeend 52

/* Organism #53 Fitness: 27 Error: 0 */
genomestart 53
trait 1 0.0875 0 0 0.00917042 0 0.0744408 0.0948746 0 
trait 2 0.2 0 0 0 0 0 0 0 
trait 3 0 0.110288 0 0.68069 0 0 0 0.763251 
node 1 3 1 1
node 2 3 1 1
node 3 2 1 1
node 4 1 1 1
node 5 2 1 1
node 6 3 1 1
node 7 2 1 3
node 8 1 0 2
node 19 1 0 0
node 23 1 0 0
node 37 1 0 0
node 61 1 0 0
gene 2 1 8 -0.011003 0 1 -0.011003 1
gene 1 2 8 -2.17949 0 2 -2.17949 0
gene 1 3 8 -2.34366 0 3 -2.34366 1
gene 2 4 8 -5.58053 0 4 -5.58053 1
gene 1 5 8 2.06658 0 5 2.06658 1
gene 3 6 8 4.973 0 6 4.973 1
gene 2 7 8 6.00788 0 7 6.00788 1
gene 1 2 19 1.91126 0 28 1.91126 1
gene 2 19 8 -2.97357 0 29 -2.97357 0
gene 1 3 23 1.00364 0 37 1.00364 0
gene 1 23 8 2.32922 0 38 2.32922 1
gene 1 7 23 -1.80123 0 69 -1.80123 1
gene 1 19 37 -1.1641 0 83 -1.1641 1
gene 1 37 8 -3.03726 0 84 -3.03726 1
gene 1 3 61 -0.0402215 0 161 -0.0402215 1
gene 1 61 23 -3.56509 0 162 -3.56509 1
genomeend 53

/* Organism #54 Fitness: 17 Error: 0 */
genomestart 54
trait 1 0.0875 0 0 0.00917042 0 0.0744408 0.0948746 0 
trait 2 0.2 0 0 0 0 0 0 0 
trait 3 0 0.110288 0 0.68069 0 0 0 0.763251 
node 1 3 1 1
node 2 3 1 1
node 3 2 1 1
node 4 1 1 1
node 5 2 1 1
node 6 3 1 1
node 7 2 1 3
node 8 1 0 2
node 19 1 0 0
node 23 1 0 0
node 37 1 0 0
node 61 1 0 0
gene 2 1 8 0.103004 0 1 0.103004 1
gene 1 2 8 -0.876173 0 2 -0.876173 0
gene 1 3 8 0.278452 0 3 0.278452 1
gene 2 4 8 2.04967 0 4 2.04967 1
gene 1 5 8 -1.14142 0 5 -1.14142 1
gene 3 6 8 3.30234 0 6 3.30234 1
gene 2 7 8 2.75024 0 7 2.75024 1
gene 3 2 19 1.31316 0 28 1.31316 1
gene 2 19 8 -2.65147 0 29 -2.65147 0
gene 1 3 23 -2.82184 0 37 -2.82184 0
gene 1 23 8 2.14045 0 38 2.14045 1
gene 1 7 23 1.56062 0 69 1.56062 1
gene 1 19 37 0.769073 0 83 0.769073 1
gene 1 37 8 -0.987982 0 84 -0.987982 1
gene 1 3 61 3.34478 0 161 3.34478 1
gene 1 61 23 -2.425 0 162 -2.425 1
genomeend 54

/* Organism #55 Fitness: 47 Error: 0 */
genomestart 55
trait 1 0.0875 0 0 0.00917042 0 0.0744408 0.0948746 0 
trait 2 0.2 0 0 0 0 0 0 0 
trait 3 0 0.110288 0 0.68069 0 0 0 0.763251 
node 1 3 1 1
node 2 3 1 1
node 3 2 1 1
node 4 1 1 1
node 5 2 1 1
node 6 3 1 1
node 7 2 1 3
node 8 1 0 2
node 19 1 0 0
node 23 1 0 0
node 37 1 0 0
node 61 1 0 0
gene 2 1 8 -2.01265 0 1 -2.01265 1
gene 1 2 8 -1.74255 0 2 -1.74255 0
gene 1 3 8 -4.12796 0 3 -4.12796 1
gene 2 4 8 -6.08733 0 4 -6.08733 1
gene 1 5 8 3.81054 0 5 3.81054 1
gene 3 6 8 3.36701 0 6 3.36701 1
gene 2 7 8 -1.14445 0 7 -1.14445 1
gene 1 2 19 0.822242 0 28 0.822242 1
gene 2 19 8 -2.64886 0 29 -2.64886 0
gene 1 3 23 -2.85032 0 37 -2.85032 0
gene 1 23 8 3.46317 0 38 3.46317 1
gene 1 7 23 -2.92089 0 69 -2.92089 1
gene 1 19 37 -0.939768 0 83 -0.939768 1
gene 1 37 8 1.83053 0 84 1.83053 1
gene 1 3 61 1.97716 0 161 1.97716 1
gene 1 61 23 -1.87127 0 162 -1.87127 1
genomeend 55

/* Organism #56 Fitness: 82 Error: 0 */
genomestart 56
trait 1 0.0875 0 0 0.00917042 0 0.0744408 0.0948746 0 
trait 2 0.2 0 0 0 0 0 0 0 
trait 3 0 0.110288 0 0.68069 0 0 0 0.763251 
node 1 3 1 1
node 2 3 1 1
node 3 2 1 1
node 4 1 1 1
node 5 2 1 1
node 6 3 1 1
node 7 2 1 3
node 8 1 0 2
node 19 1 0 0
node 23 1 0 0
node 37 1 0 0
node 61 1 0 0
gene 2 1 8 -0.246821 0 1 -0.246821 1
gene 1 2 8 -0.578843 0 2 -0.578843 0
gene 1 3 8 -3.90168 0 3 -3.90168 1
gene 2 4 8 -6.84881 0 4 -6.84881 1
gene 1 5 8 4.55021 0 5 4.55021 1
gene 3 6 8 1.36926 0 6 1.36926 1
gene 2 7 8 3.2832 0 7 3.2832 1
gene 1 2 19 1.00944 0 28 1.00944 1
gene 2 19 8 -3.12495 0 29 -3.12495 0
gene 1 3 23 -1.37964 0 37 -1.37964 0
gene 1 23 8 0.81159 0 38 0.81159 1
gene 1 7 23 -2.95478 0 69 -2.95478 1
gene 1 19 37 1.07162 0 83 1.07162 1
gene 1 37 8 -0.955099 0 84 -0.955099 1
gene 1 3 61 1.97716 0 161 1.97716 1
gene 1 61 23 -5.2505 0 162 -5.2505 1
genomeend 56

/* Organism #57 Fitness: 5 Error: 0 */
genomestart 57
trait 1 0.0875 0 0 0.00917042 0 0.0744408 0.0948746 0 
trait 2 0.2 0 0 0 0 0 0 0 
trait 3 0 0 0.376714 0.585905 0 0 0 0.763251 
node 1 3 1 1
node 2 3 1 1
node 3 2 1 1
node 4 1 1 1
node 5 2 1 1
node 6 3 1 1
node 7 2 1 3
node 8 1 0 2
node 19 1 0 0
node 23 1 0 0
node 37 1 0 0
node 61 1 0 0
gene 2 1 8 -1.6311 0 1 -1.6311 1
gene 1 2 8 -1.0406 0 2 -1.0406 0
gene 1 3 8 -2.18099 0 3 -2.18099 1
gene 2 4 8 -7.52577 0 4 -7.52577 1
gene 1 5 8 2.63713 0 5 2.63713 1
gene 3 6 8 -0.656007 0 6 -0.656007 1
gene 2 7 8 -2.10324 0 7 -2.10324 1
gene 1 2 19 0.822242 0 28 0.822242 1
gene 2 19 8 -3.72184 0 29 -3.72184 0
gene 1 3 23 -2.93925 0 37 -2.93925 0
gene 1 23 8 -0.0888969 0 38 -0.0888969 1
gene 1 7 23 -2.22167 0 69 -2.22167 1
gene 1 19 37 -0.67492 0 83 -0.67492 1
gene 1 37 8 -3.11756 0 84 -3.11756 1
gene 1 3 61 1.97716 0 161 1.97716 1
gene 1 61 23 -5.69979 0 162 -5.69979 1
genomeend 57

/* Organism #58 Fitness: 5 Error: 0 */
genomestart 58
trait 1 0.0875 0 0 0.00917042 0 0.0744408 0.0948746 0 
trait 2 0.2 0 0 0 0 0 0 0 
trait 3 0 0.110288 0 0.68069 0 0 0 0.763251 
node 1 3 1 1
node 2 3 1 1
node 3 2 1 1
node 4 1 1 1
node 5 2 1 1
node 6 3 1 1
node 7 2 1 3
node 8 1 0 2
node 19 1 0 0
node 23 1 0 0
node 37 1 0 0
node 61 1 0 0
gene 2 1 8 -0.432791 0 1 -0.432791 1
gene 1 2 8 -2.8009 0 2 -2.8009 0
gene 1 3 8 -2.28285 0 3 -2.28285 1
gene 2 4 8 -6.65109 0 4 -6.65109 1
gene 1 5 8 3.66429 0 5 3.66429 1
gene 3 6 8 -0.32926 0 6 -0.32926 1
gene 2 7 8 5.02604 0 7 5.02604 1
gene 1 2 19 -1.61054 0 28 -1.61054 1
gene 2 19 8 -2.10308 0 29 -2.10308 0
gene 1 3 23 2.35709 0 37 2.35709 1
gene 1 23 8 2.20753 0 38 2.20753 1
gene 1 7 23 -0.564645 0 69 -0.564645 1
gene 1 19 37 0.598111 0 83 0.598111 1
gene 1 37 8 -0.441471 0 84 -0.441471 1
gene 1 3 61 2.31781 0 161 2.31781 1
gene 1 61 23 -4.08545 0 162 -4.08545 1
genomeend 58

/* Organism #59 Fitness: 112 Error: 0 */
genomestart 59
trait 1 0.0875 0 0 0.00917042 0 0.0744408 0.0948746 0 
trait 2 0.2 0 0 0 0 0 0 0 
trait 3 0 0.110288 0 0.68069 0 0 0 0.763251 
node 1 3 1 1
node 2 3 1 1
node 3 2 1 1
node 4 1 1 1
node 5 2 1 1
node 6 3 1 1
node 7 2 1 3
node 8 1 0 2
node 19 1 0 0
node 23 1 0 0
node 37 1 0 0
node 61 1 0 0
gene 2 1 8 -2.23565 0 1 -2.23565 1
gene 1 2 8 -1.00511 0 2 -1.00511 0
gene 1 3 8 -3.92672 0 3 -3.92672 1
gene 2 4 8 -8 0 4 -8 1
gene 1 5 8 5.48727 0 5 5.48727 1
gene 3 6 8 1.74611 0 6 1.74611 1
gene 2 7 8 5.2806 0 7 5.2806 1
gene 1 2 19 0.0147534 0 28 0.0147534 1
gene 2 19 8 -5.45086 0 29 -5.45086 0
gene 1 3 23 -1.69477 0 37 -1.69477 0
gene 1 23 8 0.256287 0 38 0.256287 1
gene 1 7 23 0.553156 0 69 0.553156 1
gene 1 19 37 2.42012 0 83 2.42012 1
gene 1 37 8 -3.03726 0 84 -3.03726 1
gene 1 3 61 1.97716 0 161 1.97716 1
gene 1 61 23 2.39826 0 162 2.39826 1
genomeend 59

/* Species #10 : (Size 2) (AF 19.5) (Age 19)  */


/* Organism #60 Fitness: 23 Error: 0 */
genomestart 60
trait 1 0.1 0 0 0 0 0 0 0 
trait 2 0.2 0 0 0 0 0 0 0 
trait 3 0.3 0 0 0 0 0 0 0 
node 1 3 1 1
node 2 3 1 1
node 3 2 1 1
node 4 1 1 1
node 5 2 1 1
node 6 3 1 1
node 7 2 1 3
node 8 1 0 2
node 19 1 0 0
node 34 1 0 0
node 66 1 0 0
node 98 1 0 0
gene 2 1 8 0.0740014 0 1 0.0740014 1
gene 1 2 8 -3.47144 0 2 -3.47144 1
gene 1 3 8 -4.1693 0 3 -4.1693 1
gene 2 4 8 -1.26393 0 4 -1.26393 1
gene 1 5 8 -0.861993 0 5 -0.861993 0
gene 3 6 8 5.77114 0 6 5.77114 1
gene 2 7 8 -1.92737 0 7 -1.92737 1
gene 3 2 19 3.29606 0 28 3.29606 1
gene 1 19 8 -0.803787 0 29 -0.803787 1
gene 1 7 19 1.81996 0 32 1.81996 1
gene 3 3 19 0.643514 0 52 0.643514 1
gene 1 5 34 2.98019 0 72 2.98019 0
gene 1 34 8 -1.4035 0 73 -1.4035 1
gene 1 34 66 -0.0458263 0 185 -0.0458263 1
gene 1 66 8 1.50953 0 186 1.50953 1
gene 1 5 98 1 0 284 1 1
gene 1 98 34 -1.80629 0 285 -1.80629 1
genomeend 60

/* Organism #61 Fitness: 16 Error: 0 */
genomestart 61
trait 1 0.1 0 0 0 0 0 0 0 
trait 2 0.2 0 0 0 0 0 0 0 
trait 3 0.3 0 0 0 0 0 0 0 
node 1 3 1 1
node 2 3 1 1
node 3 2 1 1
node 4 1 1 1
node 5 2 1 1
node 6 3 1 1
node 7 2 1 3
node 8 1 0 2
node 19 1 0 0
node 34 1 0 0
node 66 1 0 0
node 98 1 0 0
gene 2 1 8 -2.02207 0 1 -2.02207 1
gene 1 2 8 -1.5072 0 2 -1.5072 1
gene 1 3 8 -3.47565 0 3 -3.47565 1
gene 2 4 8 0.0645202 0 4 0.0645202 1
gene 1 5 8 -0.910243 0 5 -0.910243 0
gene 3 6 8 8 0 6 8 1
gene 2 7 8 -0.973948 0 7 -0.973948 1
gene 3 2 19 1.40237 0 28 1.40237 1
gene 1 19 8 -0.0945759 0 29 -0.0945759 1
gene 1 7 19 -0.129443 0 32 -0.129443 1
gene 3 3 19 -1.38884 0 52 -1.38884 1
gene 1 5 34 0.0197415 0 72 0.0197415 0
gene 1 34 8 -3.11836 0 73 -3.11836 1
gene 1 34 66 -3.22086 0 185 -3.22086 1
gene 1 66 8 0.978667 0 186 0.978667 1
gene 1 5 98 2.31381 0 284 2.31381 1
gene 1 98 34 0.524053 0 285 0.524053 1
genomeend 61

/* Species #11 : (Size 4) (AF 41) (Age 16)  */


/* Organism #62 Fitness: 37 Error: 0 */
genomestart 62
trait 1 0.1 0 0 0 0 0 0 0 
trait 2 0.2 0 0 0 0 0 0 0 
trait 3 0.130012 0 0 0 0 0 0 0 
node 1 3 1 1
node 2 3 1 1
node 3 2 1 1
node 4 3 1 1
node 5 2 1 1
node 6 3 1 1
node 7 2 1 3
node 8 1 0 2
node 19 1 0 0
node 31 1 0 0
node 48 1 0 0
gene 2 1 8 3.9938 0 1 3.9938 1
gene 1 2 8 3.87248 0 2 3.87248 1
gene 1 3 8 1.13355 0 3 1.13355 1
gene 2 4 8 0.973172 0 4 0.973172 1
gene 1 5 8 5.14343 0 5 5.14343 1
gene 3 6 8 5.89309 0 6 5.89309 1
gene 2 7 8 -4.05123 0 7 -4.05123 1
gene 1 2 19 1.59278 0 28 1.59278 1
gene 1 19 8 1.99709 0 29 1.99709 1
gene 1 7 19 0.18039 0 32 0.18039 1
gene 2 1 19 -1.92048 0 41 -1.92048 1
gene 2 1 31 1.5674 0 64 1.5674 1
gene 2 31 19 2.46433 0 65 2.46433 1
gene 1 5 31 -7.74792 0 80 -7.74792 1
gene 3 3 31 -2.41369 0 101 -2.41369 1
gene 1 5 48 3.69141 0 114 3.69141 1
gene 1 48 8 -2.54913 0 115 -2.54913 1
genomeend 62

/* Organism #63 Fitness: 42 Error: 0 */
genomestart 63
trait 1 0.1 0 0 0 0 0 0 0 
trait 2 0.2 0 0 0 0 0 0 0 
trait 3 0.130012 0 0 0 0 0 0 0 
node 1 3 1 1
node 2 3 1 1
node 3 2 1 1
node 4 3 1 1
node 5 2 1 1
node 6 3 1 1
node 7 2 1 3
node 8 1 0 2
node 19 1 0 0
node 31 1 0 0
node 48 1 0 0
gene 2 1 8 5.49646 0 1 5.49646 1
gene 1 2 8 6.28847 0 2 6.28847 1
gene 1 3 8 -0.70103 0 3 -0.70103 1
gene 2 4 8 1.13417 0 4 1.13417 1
gene 1 5 8 2.97455 0 5 2.97455 1
gene 3 6 8 4.65346 0 6 4.65346 1
gene 2 7 8 -2.08192 0 7 -2.08192 1
gene 1 2 19 8 0 28 8 1
gene 1 19 8 0.0954592 0 29 0.0954592 1
gene 1 7 19 0.901042 0 32 0.901042 1
gene 2 1 19 -1.62355 0 41 -1.62355 1
gene 2 1 31 2.85547 0 64 2.85547 1
gene 2 31 19 0.716525 0 65 0.716525 1
gene 1 5 31 -7.08343 0 80 -7.08343 1
gene 3 3 31 -0.597236 0 101 -0.597236 1
gene 1 5 48 1.90918 0 114 1.90918 1
gene 1 48 8 -0.266711 0 115 -0.266711 1
gene 2 7 48 0.669521 0 315 0.669521 1
genomeend 63

/* Organism #64 Fitness: 57 Error: 0 */
genomestart 64
trait 1 0.1 0 0 0 0 0 0 0 
trait 2 0.2 0 0 0 0 0 0 0 
trait 3 0.130012 0 0 0 0 0 0 0 
node 1 3 1 1
node 2 3 1 1
node 3 2 1 1
node 4 3 1 1
node 5 2 1 1
node 6 3 1 1
node 7 2 1 3
node 8 1 0 2
node 19 1 0 0
node 31 1 0 0
node 48 1 0 0
gene 2 1 8 5.58866 0 1 5.58866 1
gene 1 2 8 6.43735 0 2 6.43735 1
gene 1 3 8 -2.62488 0 3 -2.62488 1
gene 2 4 8 1.59848 0 4 1.59848 1
gene 1 5 8 1.75819 0 5 1.75819 1
gene 3 6 8 2.4461 0 6 2.4461 1
gene 2 7 8 -3.25934 0 7 -3.25934 1
gene 1 2 19 7.71911 0 28 7.71911 1
gene 1 19 8 1.62458 0 29 1.62458 1
gene 1 7 19 -0.29123 0 32 -0.29123 1
gene 2 1 19 -3.92072 0 41 -3.92072 1
gene 2 1 31 4.48701 0 64 4.48701 1
gene 2 31 19 0.9829 0 65 0.9829 1
gene 1 5 31 -8 0 80 -8 1
gene 3 3 31 -2.41216 0 101 -2.41216 1
gene 1 5 48 2.12529 0 114 2.12529 1
gene 1 48 8 0.266622 0 115 0.266622 1
genomeend 64

/* Organism #65 Fitness: 28 Error: 0 */
genomestart 65
trait 1 0.1 0 0 0 0 0 0 0 
trait 2 0.2 0 0 0 0 0 0 0 
trait 3 0.130012 0 0 0 0 0 0 0 
node 1 3 1 1
node 2 3 1 1
node 3 2 1 1
node 4 3 1 1
node 5 2 1 1
node 6 3 1 1
node 7 2 1 3
node 8 1 0 2
node 19 1 0 0
node 31 1 0 0
node 48 1 0 0
gene 2 1 8 7.9313 0 1 7.9313 1
gene 1 2 8 6.28847 0 2 6.28847 1
gene 1 3 8 -0.70103 0 3 -0.70103 1
gene 2 4 8 3.37924 0 4 3.37924 1
gene 1 5 8 2.18671 0 5 2.18671 1
gene 3 6 8 6.76495 0 6 6.76495 1
gene 2 7 8 -3.39017 0 7 -3.39017 1
gene 1 2 19 8 0 28 8 1
gene 1 19 8 -1.70254 0 29 -1.70254 1
gene 1 7 19 -0.865205 0 32 -0.865205 1
gene 2 1 19 0.372417 0 41 0.372417 1
gene 2 1 31 1.5808 0 64 1.5808 1
gene 2 31 19 1.01934 0 65 1.01934 1
gene 1 5 31 -7.08343 0 80 -7.08343 1
gene 3 3 31 -0.206934 0 101 -0.206934 1
gene 1 5 48 -1.49797 0 114 -1.49797 1
gene 1 48 8 0.372259 0 115 0.372259 1
genomeend 65

/* Species #12 : (Size 5) (AF 29.8) (Age 15)  */


/* Organism #66 Fitness: 52 Error: 0 */
genomestart 66
trait 1 0.830189 0.0886475 0.831189 0 0 0 0 0 
trait 2 0.190751 0 0 0 0 0 0 0 
trait 3 0.3 0 0 0 0 0 0 0 
node 1 3 1 1
node 2 3 1 1
node 3 2 1 1
node 4 3 1 1
node 5 2 1 1
node 6 3 1 1
node 7 2 1 3
node 8 1 0 2
node 19 1 0 0
node 50 1 0 0
gene 2 1 8 -0.33182 0 1 -0.33182 1
gene 1 2 8 4.8241 0 2 4.8241 1
gene 1 3 8 -3.07781 0 3 -3.07781 1
gene 3 4 8 1.34013 0 4 1.34013 1
gene 1 5 8 -1.5398 0 5 -1.5398 1
gene 3 6 8 2.84732 0 6 2.84732 1
gene 2 7 8 0.441949 0 7 0.441949 1
gene 1 2 19 -0.969398 0 28 -0.969398 1
gene 1 19 8 0.429869 0 29 0.429869 1
gene 1 7 19 -4.0229 0 32 -4.0229 1
gene 1 5 19 3.17102 0 97 3.17102 1
gene 1 2 50 1.51544 0 121 1.51544 1
gene 1 50 19 -0.0926196 0 122 -0.0926196 1
genomeend 66

/* Organism #67 Fitness: 5 Error: 0 */
genomestart 67
trait 1 0.830189 0.0886475 0.831189 0 0 0 0 0 
trait 2 0.190751 0 0 0 0 0 0 0 
trait 3 0.3 0 0 0 0 0 0 0 
node 1 3 1 1
node 2 3 1 1
node 3 2 1 1
node 4 3 1 1
node 5 2 1 1
node 6 3 1 1
node 7 2 1 3
node 8 1 0 2
node 19 1 0 0
node 50 1 0 0
gene 2 1 8 -1.36941 0 1 -1.36941 1
gene 1 2 8 3.80604 0 2 3.80604 1
gene 1 3 8 -0.966874 0 3 -0.966874 1
gene 3 4 8 0.332079 0 4 0.332079 1
gene 1 5 8 3.92557 0 5 3.92557 1
gene 3 6 8 -2.10782 0 6 -2.10782 1
gene 2 7 8 -2.96615 0 7 -2.96615 1
gene 1 2 19 1.76213 0 28 1.76213 1
gene 1 19 8 5.63445 0 29 5.63445 1
gene 1 7 19 -1.58929 0 32 -1.58929 1
gene 1 5 19 0.557997 0 97 0.557997 1
gene 1 2 50 -1.00077 0 121 -1.00077 1
gene 1 50 19 1.49239 0 122 1.49239 1
genomeend 67

/* Organism #68 Fitness: 5 Error: 0 */
genomestart 68
trait 1 0.830189 0.0886475 0.831189 0 0 0 0 0 
trait 2 0.190751 0 0 0 0 0 0 0 
trait 3 0.3 0 0 0 0 0 0 0 
node 1 3 1 1
node 2 3 1 1
node 3 2 1 1
node 4 3 1 1
node 5 2 1 1
node 6 3 1 1
node 7 2 1 3
node 8 1 0 2
node 19 1 0 0
node 50 1 0 0
gene 2 1 8 0.480181 0 1 0.480181 1
gene 1 2 8 3.26237 0 2 3.26237 1
gene 1 3 8 -2.20143 0 3 -2.20143 1
gene 3 4 8 3.64651 0 4 3.64651 1
gene 1 5 8 -2.32144 0 5 -2.32144 1
gene 3 6 8 -0.0722116 0 6 -0.0722116 1
gene 2 7 8 -1.27813 0 7 -1.27813 1
gene 2 2 19 1.61904 0 28 1.61904 1
gene 1 19 8 3.48223 0 29 3.48223 1
gene 1 7 19 -2.31448 0 32 -2.31448 1
gene 1 5 19 0.459929 0 97 0.459929 1
gene 1 2 50 0.366319 0 121 0.366319 1
gene 1 50 19 -2.27817 0 122 -2.27817 1
genomeend 68

/* Organism #69 Fitness: 48 Error: 0 */
genomestart 69
trait 1 0.830189 0.0886475 0.831189 0 0 0 0 0 
trait 2 0.190751 0 0 0 0 0 0 0 
trait 3 0.3 0 0 0 0 0 0 0 
node 1 3 1 1
node 2 3 1 1
node 3 2 1 1
node 4 3 1 1
node 5 2 1 1
node 6 3 1 1
node 7 2 1 3
node 8 1 0 2
node 19 1 0 0
node 50 1 0 0
gene 2 1 8 -1.93459 0 1 -1.93459 1
gene 1 2 8 1.60696 0 2 1.60696 1
gene 1 3 8 -5.20991 0 3 -5.20991 1
gene 3 4 8 0.729748 0 4 0.729748 1
gene 1 5 8 5.37406 0 5 5.37406 1
gene 3 6 8 3.20247 0 6 3.20247 1
gene 2 7 8 -1.39127 0 7 -1.39127 1
gene 1 2 19 2.55972 0 28 2.55972 1
gene 1 19 8 1.593 0 29 1.593 1
gene 1 7 19 -1.32453 0 32 -1.32453 1
gene 1 5 19 -0.463502 0 97 -0.463502 1
gene 1 2 50 -0.0176435 0 121 -0.0176435 1
gene 1 50 19 -0.512376 0 122 -0.512376 1
genomeend 69

/* Organism #70 Fitness: 39 Error: 0 */
genomestart 70
trait 1 0.830189 0.0886475 0.831189 0 0 0 0 0 
trait 2 0.190751 0 0 0 0 0 0 0 
trait 3 0.3 0 0 0 0 0 0 0 
node 1 3 1 1
node 2 3 1 1
node 3 2 1 1
node 4 3 1 1
node 5 2 1 1
node 6 3 1 1
node 7 2 1 3
node 8 1 0 2
node 19 1 0 0
node 50 1 0 0
gene 2 1 8 -0.154345 0 1 -0.154345 1
gene 1 2 8 5.95424 0 2 5.95424 1
gene 1 3 8 -1.74478 0 3 -1.74478 1
gene 3 4 8 0.860189 0 4 0.860189 1
gene 1 5 8 6.41515 0 5 6.41515 1
gene 3 6 8 6.01634 0 6 6.01634 1
gene 2 7 8 -0.489967 0 7 -0.489967 1
gene 1 2 19 4.59504 0 28 4.59504 1
gene 1 19 8 0.719225 0 29 0.719225 1
gene 1 7 19 -2.86605 0 32 -2.86605 1
gene 1 5 19 0.758981 0 97 0.758981 1
gene 1 2 50 2.00768 0 121 2.00768 1
gene 1 50 19 -0.166441 0 122 -0.166441 1
genomeend 70

/* Species #13 : (Size 3) (AF 49) (Age 15)  */


/* Organism #71 Fitness: 67 Error: 0 */
genomestart 71
trait 1 0.084375 0 0 0.011463 0.0163967 0.0993312 0.118593 0 
trait 2 0.17986 0 0 0 0 0 0 0 
trait 3 0.3 0 0 0.049705 0.090594 0 0 0 
node 1 3 1 1
node 2 1 1 1
node 3 2 1 1
node 4 1 1 1
node 5 1 1 1
node 6 1 1 1
node 7 1 1 3
node 8 3 0 2
node 24 1 0 0
gene 2 1 8 -4.17306 0 1 -4.17306 1
gene 2 2 8 1.87461 0 2 1.87461 1
gene 3 3 8 -3.93393 0 3 -3.93393 1
gene 3 4 8 4.81718 0 4 4.81718 1
gene 3 5 8 5.92599 0 5 5.92599 1
gene 3 6 8 3.92147 0 6 3.92147 1
gene 2 7 8 -3.94488 0 7 -3.94488 1
gene 2 1 24 -0.685031 0 39 -0.685031 1
gene 2 24 8 3.00125 0 40 3.00125 1
gene 1 2 24 1.50823 0 60 1.50823 1
gene 1 4 24 0.512897 0 100 0.512897 1
genomeend 71

/* Organism #72 Fitness: 38 Error: 0 */
genomestart 72
trait 1 0.084375 0 0 0.011463 0.0163967 0.0993312 0.118593 0 
trait 2 0.17986 0 0 0 0 0 0 0 
trait 3 0.3 0 0 0.049705 0.090594 0 0 0 
node 1 3 1 1
node 2 1 1 1
node 3 2 1 1
node 4 1 1 1
node 5 1 1 1
node 6 1 1 1
node 7 1 1 3
node 8 1 0 2
node 24 1 0 0
gene 2 1 8 2.39128 0 1 2.39128 1
gene 2 2 8 3.5184 0 2 3.5184 1
gene 3 3 8 -0.995214 0 3 -0.995214 1
gene 3 4 8 4.38857 0 4 4.38857 1
gene 3 5 8 4.61511 0 5 4.61511 1
gene 3 6 8 6.26128 0 6 6.26128 1
gene 2 7 8 -3.60586 0 7 -3.60586 1
gene 2 1 24 0.262432 0 39 0.262432 1
gene 2 24 8 0.013358 0 40 0.013358 1
gene 1 2 24 -1.69841 0 60 -1.69841 1
gene 1 4 24 0.410796 0 100 0.410796 1
genomeend 72

/* Organism #73 Fitness: 42 Error: 0 */
genomestart 73
trait 1 0.084375 0 0 0.011463 0.0163967 0.0993312 0.118593 0 
trait 2 0.17986 0 0 0 0 0 0 0 
trait 3 0.3 0 0 0.049705 0.090594 0 0 0 
node 1 3 1 1
node 2 1 1 1
node 3 2 1 1
node 4 1 1 1
node 5 1 1 1
node 6 1 1 1
node 7 1 1 3
node 8 1 0 2
node 24 1 0 0
gene 2 1 8 -2.28472 0 1 -2.28472 1
gene 2 2 8 4.42218 0 2 4.42218 1
gene 3 3 8 -0.45501 0 3 -0.45501 1
gene 3 4 8 2.90437 0 4 2.90437 1
gene 3 5 8 6.35655 0 5 6.35655 1
gene 3 6 8 8 0 6 8 1
gene 2 7 8 -0.541264 0 7 -0.541264 1
gene 2 1 24 -0.432305 0 39 -0.432305 1
gene 2 24 8 0.536143 0 40 0.536143 1
gene 1 2 24 0.951698 0 60 0.951698 1
gene 1 4 24 1.53644 0 100 1.53644 1
genomeend 73

/* Species #15 : (Size 2) (AF 12.5) (Age 15)  */


/* Organism #74 Fitness: 11 Error: 0 */
genomestart 74
trait 1 0.0875 0 0 0.00917042 0 0.0744408 0.0948746 0 
trait 2 0.38799 0.149688 0 0.667406 0 0.495571 0 0.830423 
trait 3 0.3 0.0425809 0 0.222456 0 0 0 0 
node 1 3 1 1
node 2 3 1 1
node 3 1 1 1
node 4 1 1 1
node 5 2 1 1
node 6 2 1 1
node 7 3 1 3
node 8 3 0 2
node 19 1 0 0
node 23 1 0 0
node 32 1 0 0
node 52 1 0 0
gene 2 1 8 -2.60056 0 1 -2.60056 1
gene 1 2 8 -4.70029 0 2 -4.70029 0
gene 1 3 8 -1.48514 0 3 -1.48514 0
gene 2 4 8 -0.101078 0 4 -0.101078 1
gene 1 5 8 1.79812 0 5 1.79812 1
gene 3 6 8 0.695004 0 6 0.695004 0
gene 2 7 8 5.25232 0 7 5.25232 1
gene 1 2 19 5.13743 0 28 5.13743 1
gene 1 19 8 -5.94598 0 29 -5.94598 1
gene 1 3 23 2.05967 0 37 2.05967 0
gene 1 23 8 0.281384 0 38 0.281384 1
gene 3 6 32 2.52534 0 66 2.52534 1
gene 3 32 8 3.55775 0 67 3.55775 1
gene 3 1 23 1.84184 0 76 1.84184 1
gene 1 3 52 -0.344454 0 128 -0.344454 1
gene 1 52 23 -0.941164 0 129 -0.941164 1
genomeend 74

/* Organism #75 Fitness: 14 Error: 0 */
genomestart 75
trait 1 0.0875 0 0 0.00917042 0 0.0744408 0.0948746 0 
trait 2 0.38799 0.149688 0 0.667406 0 0.495571 0 0.830423 
trait 3 0.3 0.0425809 0 0.222456 0 0 0 0 
node 1 3 1 1
node 2 3 1 1
node 3 1 1 1
node 4 1 1 1
node 5 2 1 1
node 6 2 1 1
node 7 2 1 3
node 8 3 0 2
node 19 2 0 0
node 23 1 0 0
node 32 1 0 0
node 52 1 0 0
gene 2 1 8 0.283663 0 1 0.283663 1
gene 1 2 8 -1.19581 0 2 -1.19581 0
gene 1 3 8 0.463854 0 3 0.463854 0
gene 2 4 8 0.452618 0 4 0.452618 1
gene 1 5 8 8 0 5 8 1
gene 3 6 8 4.60751 0 6 4.60751 0
gene 2 7 8 2.63352 0 7 2.63352 1
gene 1 2 19 5.1029 0 28 5.1029 1
gene 1 19 8 -5.15185 0 29 -5.15185 1
gene 1 3 23 -0.0359686 0 37 -0.0359686 0
gene 1 23 8 -1.53957 0 38 -1.53957 1
gene 3 6 32 3.12645 0 66 3.12645 1
gene 3 32 8 -0.629902 0 67 -0.629902 1
gene 3 1 23 4.75616 0 76 4.75616 1
gene 1 3 52 0.560186 0 128 0.560186 1
gene 1 52 23 0.35383 0 129 0.35383 1
genomeend 75

/* Species #16 : (Size 9) (AF 44.1111) (Age 14)  */


/* Organism #76 Fitness: 203 Error: 0 */
genomestart 76
trait 1 0.084375 0 0 0.011463 0.0163967 0.0993312 0.118593 0 
trait 2 0.17986 0 0 0 0 0 0 0 
trait 3 0.3 0 0 0.049705 0.090594 0 0 0 
node 1 3 1 1
node 2 1 1 1
node 3 2 1 1
node 4 1 1 1
node 5 1 1 1
node 6 1 1 1
node 7 1 1 3
node 8 3 0 2
node 24 1 0 0
gene 1 1 8 -1.76508 0 1 -1.76508 1
gene 2 2 8 1.83221 0 2 1.83221 1
gene 3 3 8 -3.93269 0 3 -3.93269 1
gene 3 4 8 -1.43761 0 4 -1.43761 1
gene 3 5 8 5.52291 0 5 5.52291 1
gene 3 6 8 1.29495 0 6 1.29495 1
gene 2 7 8 0.447718 0 7 0.447718 1
gene 2 1 24 1.31843 0 39 0.943431 1
gene 2 24 8 -0.819698 0 40 -0.519346 1
gene 1 2 24 -1.40703 0 60 -1.40703 1
gene 2 5 24 -0.917591 0 92 -0.917591 1
gene 2 7 24 0.594029 0 123 0.594029 1
gene 3 6 24 0.769071 0 136 0.769071 1
gene 2 4 24 0.849194 0 153 0.849194 1
genomeend 76

/* Organism #77 Fitness: 31 Error: 0 */
genomestart 77
trait 1 0.084375 0 0 0.011463 0.0163967 0.0993312 0.118593 0 
trait 2 0.17986 0 0 0 0 0 0 0 
trait 3 0.3 0 0 0.049705 0.090594 0 0 0 
node 1 3 1 1
node 2 1 1 1
node 3 2 1 1
node 4 1 1 1
node 5 1 1 1
node 6 1 1 1
node 7 1 1 3
node 8 3 0 2
node 24 1 0 0
gene 1 1 8 -1.77924 0 1 -1.77924 1
gene 2 2 8 1.40594 0 2 1.40594 1
gene 3 3 8 -4.75119 0 3 -4.75119 1
gene 3 4 8 0.481892 0 4 0.481892 1
gene 3 5 8 6.1894 0 5 6.1894 1
gene 3 6 8 0.374126 0 6 0.374126 1
gene 2 7 8 2.32741 0 7 2.32741 1
gene 2 1 24 -0.675585 0 39 -0.675585 1
gene 2 24 8 0.604541 0 40 0.604541 1
gene 1 2 24 -1.40703 0 60 -1.40703 1
gene 2 5 24 -0.917591 0 92 -0.917591 1
gene 2 7 24 0.981699 0 123 0.981699 1
gene 3 6 24 -0.0190445 0 136 -0.0190445 1
gene 2 4 24 0.111889 0 153 0.111889 1
genomeend 77

/* Organism #78 Fitness: 6 Error: 0 */
genomestart 78
trait 1 0.084375 0 0 0.011463 0.0163967 0.0993312 0.118593 0 
trait 2 0.17986 0 0 0 0 0 0 0 
trait 3 0.3 0 0 0.049705 0.090594 0 0 0 
node 1 3 1 1
node 2 1 1 1
node 3 2 1 1
node 4 1 1 1
node 5 1 1 1
node 6 1 1 1
node 7 1 1 3
node 8 3 0 2
node 24 1 0 0
gene 1 1 8 -0.512988 0 1 -0.512988 1
gene 2 2 8 1.83221 0 2 1.83221 1
gene 3 3 8 -1.47589 0 3 -1.47589 1
gene 3 4 8 -1.64925 0 4 -1.64925 1
gene 3 5 8 5.18718 0 5 5.18718 1
gene 3 6 8 -0.446444 0 6 -0.446444 1
gene 2 7 8 0.654867 0 7 0.654867 1
gene 2 1 24 -1.37727 0 39 -1.37727 1
gene 2 24 8 -1.84878 0 40 -1.84878 1
gene 1 2 24 1.46901 0 60 1.46901 1
gene 2 5 24 -2.93842 0 92 -2.93842 1
gene 2 7 24 -1.64316 0 123 -1.64316 1
gene 3 6 24 0.365225 0 136 0.365225 1
gene 2 4 24 0.687243 0 153 0.687243 1
genomeend 78

/* Organism #79 Fitness: 15 Error: 0 */
genomestart 79
trait 1 0.084375 0 0 0.011463 0.0163967 0.0993312 0.118593 0 
trait 2 0.17986 0 0 0 0 0 0 0 
trait 3 0.3 0 0 0.049705 0.090594 0 0 0 
node 1 3 1 1
node 2 1 1 1
node 3 2 1 1
node 4 1 1 1
node 5 1 1 1
node 6 1 1 1
node 7 1 1 3
node 8 3 0 2
node 24 1 0 0
gene 1 1 8 -0.44651 0 1 -0.44651 1
gene 2 2 8 4.32583 0 2 4.32583 1
gene 3 3 8 -6.05818 0 3 -6.05818 1
gene 3 4 8 -1.07083 0 4 -1.07083 1
gene 3 5 8 5.67891 0 5 5.67891 1
gene 3 6 8 0.724692 0 6 0.724692 1
gene 2 7 8 1.49508 0 7 1.49508 1
gene 2 1 24 3.63846 0 39 3.63846 1
gene 2 24 8 -2.216 0 40 -2.216 1
gene 1 2 24 0.0862722 0 60 0.0862722 1
gene 2 5 24 -1.36588 0 92 -1.36588 1
gene 2 7 24 -0.00454878 0 123 -0.00454878 1
gene 3 6 24 0.0144933 0 136 0.0144933 1
gene 2 4 24 3.31797 0 153 3.31797 1
genomeend 79

/* Organism #80 Fitness: 13 Error: 0 */
genomestart 80
trait 1 0.084375 0 0 0.011463 0.0163967 0.0993312 0.118593 0 
trait 2 0.0700895 0 0 0 0.657512 0 0 0 
trait 3 0.3 0 0 0.049705 0.090594 0 0 0 
node 1 3 1 1
node 2 1 1 1
node 3 2 1 1
node 4 1 1 1
node 5 1 1 1
node 6 1 1 1
node 7 1 1 3
node 8 3 0 2
node 24 1 0 0
gene 1 1 8 -0.480615 0 1 -0.480615 1
gene 2 2 8 0.395432 0 2 0.395432 1
gene 3 3 8 -4.96485 0 3 -4.96485 1
gene 3 4 8 -2.44179 0 4 -2.44179 1
gene 3 5 8 4.48366 0 5 4.48366 1
gene 3 6 8 -0.218352 0 6 -0.218352 1
gene 2 7 8 0.765066 0 7 0.765066 1
gene 2 1 24 1.83522 0 39 1.83522 1
gene 2 24 8 0.435901 0 40 0.435901 1
gene 1 2 24 -1.62563 0 60 -1.62563 1
gene 2 5 24 -0.137147 0 92 -0.137147 1
gene 2 7 24 1.59019 0 123 1.59019 1
gene 3 6 24 2.80448 0 136 2.80448 1
gene 2 4 24 -0.364522 0 153 -0.364522 1
genomeend 80

/* Organism #81 Fitness: 50 Error: 0 */
genomestart 81
trait 1 0.084375 0 0 0.011463 0.0163967 0.0993312 0.118593 0 
trait 2 0.17986 0 0 0 0 0 0 0 
trait 3 0.3 0 0 0.049705 0.090594 0 0 0 
node 1 3 1 1
node 2 1 1 1
node 3 2 1 1
node 4 1 1 1
node 5 1 1 1
node 6 1 1 1
node 7 1 1 3
node 8 3 0 2
node 24 1 0 0
gene 1 1 8 -1.25065 0 1 -1.25065 1
gene 2 2 8 2.08995 0 2 2.08995 1
gene 3 3 8 -4.76084 0 3 -4.76084 1
gene 3 4 8 1.05509 0 4 1.05509 1
gene 3 5 8 3.53573 0 5 3.53573 1
gene 3 6 8 2.73281 0 6 2.73281 1
gene 2 7 8 -0.821697 0 7 -0.821697 1
gene 2 1 24 -0.592219 0 39 -0.592219 1
gene 2 24 8 0.214535 0 40 0.214535 1
gene 1 2 24 -0.0439265 0 60 -0.0439265 1
gene 2 5 24 -1.00964 0 92 -1.00964 1
gene 2 7 24 1.68698 0 123 1.68698 1
gene 3 6 24 0.580131 0 136 0.580131 1
gene 2 4 24 -0.649906 0 153 -0.649906 1
genomeend 81

/* Organism #82 Fitness: 38 Error: 0 */
genomestart 82
trait 1 0.084375 0 0 0.011463 0.0163967 0.0993312 0.118593 0 
trait 2 0.17986 0 0 0 0 0 0 0 
trait 3 0.641069 0.853822 0 0 0.090594 0 0 0 
node 1 3 1 1
node 2 3 1 1
node 3 2 1 1
node 4 1 1 1
node 5 1 1 1
node 6 1 1 1
node 7 1 1 3
node 8 3 0 2
node 24 1 0 0
gene 1 1 8 -2.35172 0 1 -2.35172 1
gene 2 2 8 3.85284 0 2 3.85284 1
gene 3 3 8 -4.306 0 3 -4.306 1
gene 3 4 8 -1.42975 0 4 -1.42975 1
gene 3 5 8 3.32919 0 5 3.32919 1
gene 3 6 8 1.10041 0 6 1.10041 1
gene 2 7 8 2.35885 0 7 2.35885 1
gene 2 1 24 0.100115 0 39 0.100115 1
gene 2 24 8 0.30488 0 40 0.30488 1
gene 1 2 24 -1.40703 0 60 -1.40703 1
gene 2 5 24 -0.800694 0 92 -0.800694 1
gene 2 7 24 0.594029 0 123 0.594029 1
gene 3 6 24 -1.60137 0 136 -1.60137 1
gene 2 4 24 -2.10848 0 153 -2.10848 1
genomeend 82

/* Organism #83 Fitness: 5 Error: 0 */
genomestart 83
trait 1 0.084375 0 0 0.011463 0.0163967 0.0993312 0.118593 0 
trait 2 0.17986 0 0 0 0 0 0 0 
trait 3 0.3 0 0 0.049705 0.090594 0 0 0 
node 1 3 1 1
node 2 1 1 1
node 3 2 1 1
node 4 1 1 1
node 5 1 1 1
node 6 1 1 1
node 7 1 1 3
node 8 3 0 2
node 24 1 0 0
gene 1 1 8 -3.86436 0 1 -3.86436 1
gene 2 2 8 0.505635 0 2 0.505635 1
gene 3 3 8 -4.45606 0 3 -4.45606 1
gene 3 4 8 -0.309859 0 4 -0.309859 1
gene 3 5 8 5.52291 0 5 5.52291 1
gene 3 6 8 -0.456138 0 6 -0.456138 1
gene 2 7 8 -1.80955 0 7 -1.80955 1
gene 2 1 24 -1.13874 0 39 -1.13874 1
gene 2 24 8 -1.1713 0 40 -1.1713 1
gene 1 2 24 -1.24986 0 60 -1.24986 1
gene 2 5 24 -0.0628576 0 92 -0.0628576 1
gene 2 7 24 1.68715 0 123 1.68715 1
gene 3 6 24 -1.0301 0 136 -1.0301 1
gene 2 4 24 0.849194 0 153 0.849194 1
genomeend 83

/* Organism #84 Fitness: 36 Error: 0 */
genomestart 84
trait 1 0.084375 0 0 0.011463 0.0163967 0.0993312 0.118593 0 
trait 2 0.17986 0 0 0 0 0 0 0 
trait 3 0.3 0 0 0.049705 0.090594 0 0 0 
node 1 3 1 1
node 2 1 1 1
node 3 2 1 1
node 4 1 1 1
node 5 1 1 1
node 6 1 1 1
node 7 1 1 3
node 8 3 0 2
node 24 1 0 0
gene 1 1 8 -4.00197 0 1 -4.00197 1
gene 2 2 8 2.50723 0 2 2.50723 1
gene 3 3 8 -3.89037 0 3 -3.89037 1
gene 3 4 8 -2.29963 0 4 -2.29963 1
gene 3 5 8 6.52117 0 5 6.52117 1
gene 3 6 8 1.43264 0 6 1.43264 1
gene 2 7 8 2.05572 0 7 2.05572 1
gene 2 1 24 3.28377 0 39 3.28377 1
gene 2 24 8 0.92267 0 40 0.92267 1
gene 1 2 24 -0.416815 0 60 -0.416815 1
gene 2 5 24 1.54783 0 92 1.54783 1
gene 2 7 24 2.06834 0 123 2.06834 1
gene 3 6 24 3.24164 0 136 3.24164 1
gene 2 4 24 3.33228 0 153 3.33228 1
genomeend 84

/* Species #17 : (Size 3) (AF 40.3333) (Age 14)  */


/* Organism #85 Fitness: 31 Error: 0 */
genomestart 85
trait 1 0.1 0 0 0.0153675 0 0 0 0 
trait 2 0.91351 0 0 0 0.321441 0 0 0.403945 
trait 3 0.3 0 0 0 0 0 0 0 
node 1 3 1 1
node 2 3 1 1
node 3 2 1 1
node 4 1 1 1
node 5 2 1 1
node 6 3 1 1
node 7 2 1 3
node 8 1 0 2
node 19 1 0 0
node 36 1 0 0
node 47 1 0 0
node 74 1 0 0
gene 2 1 8 2.48343 0 1 2.48343 1
gene 1 2 8 0.222739 0 2 0.222739 0
gene 1 3 8 5.58758 0 3 5.58758 1
gene 2 4 8 -0.528483 0 4 -0.528483 1
gene 1 5 8 -0.211151 0 5 -0.211151 1
gene 3 6 8 8 0 6 8 1
gene 2 7 8 -0.427366 0 7 -0.427366 1
gene 1 2 19 -5.62032 0 28 -5.62032 1
gene 1 19 8 -1.36278 0 29 -1.36278 1
gene 1 7 19 4.95637 0 32 4.95637 1
gene 2 5 19 1.99324 0 43 1.99324 0
gene 1 6 19 -3.71061 0 55 -3.71061 1
gene 2 3 19 3.78215 0 63 3.78215 1
gene 2 5 36 -0.906082 0 78 -0.906082 1
gene 2 36 19 2.60152 0 79 2.60152 0
gene 2 36 47 -2.11208 0 111 -2.11208 0
gene 2 47 19 -1.5046 0 112 -1.5046 1
gene 2 36 74 0.295485 0 213 0.295485 1
gene 2 74 47 0.489896 0 214 0.489896 1
gene 1 1 47 -0.517785 0 296 -0.517785 1
genomeend 85

/* Organism #86 Fitness: 35 Error: 0 */
genomestart 86
trait 1 0.1 0 0 0.0153675 0 0 0 0 
trait 2 0.91351 0 0 0 0.321441 0.598981 0 0.403945 
trait 3 0.3 0 0 0 0 0 0 0 
node 1 3 1 1
node 2 3 1 1
node 3 2 1 1
node 4 1 1 1
node 5 2 1 1
node 6 3 1 1
node 7 2 1 3
node 8 1 0 2
node 19 1 0 0
node 36 1 0 0
node 47 1 0 0
node 74 1 0 0
gene 2 1 8 -1.13692 0 1 -1.13692 1
gene 1 2 8 -0.608577 0 2 -0.608577 0
gene 1 3 8 5.74703 0 3 5.74703 1
gene 2 4 8 -2.95405 0 4 -2.95405 1
gene 1 5 8 1.16631 0 5 1.16631 1
gene 3 6 8 8 0 6 8 1
gene 2 7 8 -2.00436 0 7 -2.00436 1
gene 1 2 19 -5.18258 0 28 -5.18258 1
gene 1 19 8 -2.49944 0 29 -2.49944 1
gene 1 7 19 2.10364 0 32 2.10364 1
gene 2 5 19 2.20329 0 43 2.20329 0
gene 1 6 19 -0.172011 0 55 -0.172011 1
gene 2 3 19 4.205 0 63 4.205 1
gene 2 5 36 -3.8082 0 78 -3.8082 1
gene 2 36 19 4.21908 0 79 4.21908 0
gene 2 36 47 -1.89522 0 111 -1.89522 0
gene 2 47 19 2.47227 0 112 2.47227 1
gene 2 36 74 2.094 0 213 2.094 1
gene 2 74 47 -0.0634415 0 214 -0.0634415 1
gene 1 1 47 -0.504946 0 296 -0.504946 1
genomeend 86

/* Organism #87 Fitness: 55 Error: 0 */
genomestart 87
trait 1 0.1 0 0 0.0153675 0 0 0 0 
trait 2 0.91351 0 0 0 0.321441 0 0 0.403945 
trait 3 0.3 0 0 0 0 0 0 0 
node 1 3 1 1
node 2 3 1 1
node 3 2 1 1
node 4 1 1 1
node 5 2 1 1
node 6 3 1 1
node 7 2 1 3
node 8 1 0 2
node 19 1 0 0
node 36 1 0 0
node 47 1 0 0
node 74 1 0 0
gene 2 1 8 -0.244625 0 1 -0.244625 1
gene 1 2 8 -3.44952 0 2 -3.44952 0
gene 1 3 8 5.50353 0 3 5.50353 1
gene 2 4 8 -2.41625 0 4 -2.41625 1
gene 1 5 8 0.90135 0 5 0.90135 1
gene 3 6 8 7.39946 0 6 7.39946 1
gene 2 7 8 -0.0590367 0 7 -0.0590367 1
gene 1 2 19 -7.13552 0 28 -7.13552 1
gene 1 19 8 -1.31954 0 29 -1.31954 1
gene 1 7 19 5.54385 0 32 5.54385 1
gene 2 5 19 3.64196 0 43 3.64196 0
gene 1 6 19 -0.545272 0 55 -0.545272 1
gene 2 3 19 5.02938 0 63 5.02938 1
gene 2 5 36 0.203388 0 78 0.203388 1
gene 2 36 19 3.0992 0 79 3.0992 0
gene 2 36 47 -1.38989 0 111 -1.38989 0
gene 2 47 19 -1.7122 0 112 -1.7122 1
gene 2 36 74 -1.40944 0 213 -1.40944 1
gene 2 74 47 -0.347422 0 214 -0.347422 1
gene 1 1 47 1.0408 0 296 1.0408 1
genomeend 87

/* Species #18 : (Size 2) (AF 45) (Age 13)  */


/* Organism #88 Fitness: 28 Error: 0 */
genomestart 88
trait 1 0.1 0 0 0 0 0 0 0 
trait 2 0.2 0 0 0 0 0 0 0 
trait 3 0.3 0 0 0 0 0 0 0 
node 1 3 1 1
node 2 3 1 1
node 3 2 1 1
node 4 3 1 1
node 5 1 1 1
node 6 3 1 1
node 7 2 1 3
node 8 1 0 2
node 19 1 0 0
node 59 1 0 0
gene 2 1 8 -1.43435 0 1 -1.43435 1
gene 1 2 8 -2.19605 0 2 -2.19605 0
gene 1 3 8 1.52547 0 3 1.52547 1
gene 2 4 8 -2.588 0 4 -2.588 1
gene 1 5 8 2.62539 0 5 2.62539 1
gene 3 6 8 4.54198 0 6 4.54198 1
gene 2 7 8 0.937753 0 7 0.937753 1
gene 1 2 19 0.84525 0 28 0.84525 0
gene 1 19 8 3.16838 0 29 3.16838 1
gene 1 7 19 -3.19574 0 32 -3.19574 1
gene 1 5 19 0.0560631 0 97 0.0560631 1
gene 1 2 59 0.0912551 0 148 0.0912551 1
gene 1 59 19 -2.23664 0 149 -2.23664 1
genomeend 88

/* Organism #89 Fitness: 62 Error: 0 */
genomestart 89
trait 1 0.1 0 0 0 0 0 0 0 
trait 2 0.2 0 0 0 0 0 0 0 
trait 3 0.3 0 0 0 0 0 0 0 
node 1 3 1 1
node 2 3 1 1
node 3 2 1 1
node 4 3 1 1
node 5 1 1 1
node 6 3 1 1
node 7 2 1 3
node 8 1 0 2
node 19 1 0 0
node 59 1 0 0
gene 2 1 8 -3.50567 0 1 -3.50567 1
gene 1 2 8 -1.61111 0 2 -1.61111 0
gene 1 3 8 2.69365 0 3 2.69365 1
gene 2 4 8 -3.048 0 4 -3.048 1
gene 1 5 8 1.85269 0 5 1.85269 1
gene 3 6 8 3.95666 0 6 3.95666 1
gene 2 7 8 -0.675419 0 7 -0.675419 1
gene 1 2 19 -1.06139 0 28 -1.06139 0
gene 1 19 8 -2.43298 0 29 -2.43298 1
gene 1 7 19 -1.88249 0 32 -1.88249 1
gene 1 5 19 -1.38325 0 97 -1.38325 1
gene 1 2 59 2.27891 0 148 2.27891 1
gene 1 59 19 0.0995168 0 149 0.0995168 1
genomeend 89

/* Species #19 : (Size 9) (AF 83.1111) (Age 13)  */


/* Organism #90 Fitness: 148 Error: 0 */
genomestart 90
trait 1 0.1 0 0 0.0153675 0 0 0 0 
trait 2 0.2 0 0 0 0 0 0 0 
trait 3 0.3 0 0 0 0 0 0 0 
node 1 3 1 1
node 2 3 1 1
node 3 2 1 1
node 4 1 1 1
node 5 2 1 1
node 6 3 1 1
node 7 2 1 3
node 8 1 0 2
node 19 1 0 0
node 36 2 0 0
gene 2 1 8 -0.927719 0 1 -0.927719 1
gene 1 2 8 2.82173 0 2 2.82173 1
gene 1 3 8 -3.39827 0 3 -3.39827 1
gene 2 4 8 -4.54144 0 4 -4.54144 1
gene 1 5 8 3.3775 0 5 3.3775 1
gene 3 6 8 4.21933 0 6 4.21933 1
gene 2 7 8 -0.137551 0 7 -0.137551 1
gene 1 2 19 5.76097 0 28 5.76097 1
gene 1 19 8 0.136779 0 29 0.136779 1
gene 1 7 19 -0.164506 0 32 -0.164506 1
gene 2 5 19 -0.11031 0 43 -0.11031 0
gene 1 6 19 4.74509 0 55 4.74509 1
gene 2 3 19 3.14745 0 63 3.14745 1
gene 2 5 36 -1.33925 0 78 -1.33925 1
gene 2 36 19 -4.41933 0 79 -4.41933 1
gene 3 4 36 0.511864 0 150 0 1
gene 2 6 36 -0.221505 0 297 -0.221505 1
genomeend 90

/* Organism #91 Fitness: 35 Error: 0 */
genomestart 91
trait 1 0.1 0 0 0.0153675 0 0 0 0 
trait 2 0.2 0 0 0 0 0 0 0 
trait 3 0.3 0 0 0 0 0 0 0 
node 1 3 1 1
node 2 3 1 1
node 3 2 1 1
node 4 1 1 1
node 5 2 1 1
node 6 3 1 1
node 7 2 1 3
node 8 1 0 2
node 19 1 0 0
node 36 2 0 0
node 107 1 0 0
gene 2 1 8 -0.927719 0 1 -0.927719 1
gene 1 2 8 2.82173 0 2 2.82173 1
gene 1 3 8 -3.39827 0 3 -3.39827 1
gene 2 4 8 -4.54144 0 4 -4.54144 0
gene 1 5 8 3.3775 0 5 3.3775 1
gene 3 6 8 4.21933 0 6 4.21933 1
gene 2 7 8 -0.137551 0 7 -0.137551 1
gene 1 2 19 5.76097 0 28 5.76097 1
gene 1 19 8 0.136779 0 29 0.136779 1
gene 1 7 19 -0.164506 0 32 -0.164506 1
gene 2 5 19 -0.11031 0 43 -0.11031 0
gene 1 6 19 4.74509 0 55 4.74509 1
gene 2 3 19 3.14745 0 63 3.14745 1
gene 2 5 36 -1.33925 0 78 -1.33925 1
gene 2 36 19 -4.41933 0 79 -4.41933 1
gene 3 4 36 0.511864 0 150 0 1
gene 2 6 36 -0.221505 0 297 -0.221505 1
gene 2 4 107 1 0 316 0 1
gene 2 107 8 -4.54144 0 317 0 1
genomeend 91

/* Organism #92 Fitness: 88 Error: 0 */
genomestart 92
trait 1 0.1 0 0 0.0153675 0 0 0 0 
trait 2 0.2 0 0 0 0 0 0 0 
trait 3 0.3 0 0 0 0 0 0 0 
node 1 3 1 1
node 2 3 1 1
node 3 2 1 1
node 4 1 1 1
node 5 2 1 1
node 6 3 1 1
node 7 2 1 3
node 8 1 0 2
node 19 1 0 0
node 36 2 0 0
gene 2 1 8 -0.574555 0 1 -0.574555 1
gene 1 2 8 2.82173 0 2 2.82173 1
gene 1 3 8 -3.69493 0 3 -3.69493 1
gene 2 4 8 -6.06108 0 4 -6.06108 1
gene 1 5 8 4.79072 0 5 4.79072 1
gene 3 6 8 2.13605 0 6 2.13605 1
gene 2 7 8 -0.137551 0 7 -0.137551 1
gene 1 2 19 3.70209 0 28 3.70209 1
gene 1 19 8 1.22086 0 29 1.22086 1
gene 1 7 19 -0.148068 0 32 -0.148068 1
gene 2 5 19 -0.11031 0 43 -0.11031 0
gene 1 6 19 -2.07091 0 55 -2.07091 1
gene 2 3 19 3.92795 0 63 3.92795 1
gene 2 5 36 -1.33925 0 78 -1.33925 1
gene 2 36 19 -4.45092 0 79 -4.45092 1
gene 3 4 36 -1.21106 0 150 -1.21106 1
gene 2 6 36 -1.95667 0 297 -1.95667 1
genomeend 92

/* Organism #93 Fitness: 30 Error: 0 */
genomestart 93
trait 1 0.1 0 0 0.0153675 0 0 0 0 
trait 2 0.2 0 0 0 0 0 0 0 
trait 3 0.3 0 0 0 0 0 0 0 
node 1 3 1 1
node 2 3 1 1
node 3 2 1 1
node 4 1 1 1
node 5 2 1 1
node 6 3 1 1
node 7 2 1 3
node 8 1 0 2
node 19 1 0 0
node 36 2 0 0
gene 2 1 8 -1.43198 0 1 -1.43198 1
gene 1 2 8 2.82173 0 2 2.82173 1
gene 1 3 8 -2.47342 0 3 -2.47342 1
gene 2 4 8 -6.12157 0 4 -6.12157 1
gene 1 5 8 1.42608 0 5 1.42608 1
gene 3 6 8 4.89422 0 6 4.89422 1
gene 2 7 8 1.78725 0 7 1.78725 1
gene 1 2 19 -1.94628 0 28 -1.94628 1
gene 1 19 8 0.264987 0 29 0.264987 1
gene 1 7 19 -1.11998 0 32 -1.11998 1
gene 2 5 19 0.513554 0 43 0.513554 0
gene 1 6 19 -0.0992364 0 55 -0.0992364 1
gene 2 3 19 0.98013 0 63 0.98013 1
gene 2 5 36 -0.560318 0 78 -0.560318 1
gene 2 36 19 -2.83464 0 79 -2.83464 1
gene 3 4 36 1.54553 0 150 1.54553 1
gene 2 6 36 0.56984 0 297 0.56984 1
genomeend 93

/* Organism #94 Fitness: 48 Error: 0 */
genomestart 94
trait 1 0.1 0 0 0.0153675 0 0 0 0 
trait 2 0.2 0 0 0 0 0 0 0 
trait 3 0.3 0 0 0 0 0 0 0 
node 1 3 1 1
node 2 3 1 1
node 3 2 1 1
node 4 1 1 1
node 5 2 1 1
node 6 3 1 1
node 7 2 1 3
node 8 1 0 2
node 19 1 0 0
node 36 2 0 0
gene 2 1 8 -2.09727 0 1 -2.09727 1
gene 1 2 8 1.28613 0 2 1.28613 1
gene 1 3 8 -1.32724 0 3 -1.32724 1
gene 2 4 8 -2.40519 0 4 -2.40519 1
gene 1 5 8 1.50112 0 5 1.50112 1
gene 3 6 8 6.46028 0 6 6.46028 1
gene 2 7 8 0.517534 0 7 0.517534 1
gene 1 2 19 4.65081 0 28 4.65081 1
gene 1 19 8 -0.0890205 0 29 -0.0890205 1
gene 1 7 19 1.93815 0 32 1.93815 1
gene 2 5 19 2.23546 0 43 2.23546 0
gene 1 6 19 6.30052 0 55 6.30052 1
gene 2 3 19 4.7556 0 63 4.7556 1
gene 2 5 36 0.361599 0 78 0.361599 1
gene 2 36 19 -2.35594 0 79 -2.35594 1
gene 3 4 36 2.00224 0 150 2.00224 1
gene 2 6 36 -2.61727 0 297 -2.61727 1
genomeend 94

/* Organism #95 Fitness: 148 Error: 0 */
genomestart 95
trait 1 0.1 0 0 0.0153675 0 0 0 0 
trait 2 0.2 0 0 0 0 0 0 0 
trait 3 0.3 0 0 0 0 0 0 0 
node 1 3 1 1
node 2 3 1 1
node 3 2 1 1
node 4 1 1 1
node 5 2 1 1
node 6 3 1 1
node 7 2 1 3
node 8 1 0 2
node 19 1 0 0
node 36 2 0 0
gene 2 1 8 -0.927719 0 1 -0.927719 1
gene 1 2 8 2.82173 0 2 2.82173 1
gene 1 3 8 -3.39827 0 3 -3.39827 1
gene 2 4 8 -4.54144 0 4 -4.54144 1
gene 1 5 8 3.3775 0 5 3.3775 1
gene 3 6 8 4.21933 0 6 4.21933 1
gene 2 7 8 -0.137551 0 7 -0.137551 1
gene 1 2 19 5.76097 0 28 5.76097 1
gene 1 19 8 0.136779 0 29 0.136779 1
gene 1 7 19 -0.164506 0 32 -0.164506 1
gene 2 5 19 -0.11031 0 43 -0.11031 0
gene 1 6 19 4.74509 0 55 4.74509 1
gene 2 3 19 3.14745 0 63 3.14745 1
gene 2 5 36 -1.33925 0 78 -1.33925 1
gene 2 36 19 -4.41933 0 79 -4.41933 1
gene 3 4 36 0.511864 0 150 0 1
gene 2 6 36 -0.221505 0 297 -0.221505 1
genomeend 95

/* Organism #96 Fitness: 57 Error: 0 */
genomestart 96
trait 1 0.1 0 0 0.0153675 0 0 0 0 
trait 2 0.2 0 0 0 0 0 0 0 
trait 3 0.3 0 0 0 0 0 0 0 
node 1 3 1 1
node 2 3 1 1
node 3 2 1 1
node 4 1 1 1
node 5 2 1 1
node 6 3 1 1
node 7 2 1 3
node 8 1 0 2
node 19 1 0 0
node 36 2 0 0
gene 2 1 8 -2.84844 0 1 -2.84844 1
gene 1 2 8 4.72795 0 2 4.72795 1
gene 1 3 8 -2.89587 0 3 -2.89587 1
gene 3 4 8 -5.35345 0 4 -5.35345 1
gene 1 5 8 1.85435 0 5 1.85435 1
gene 3 6 8 3.33114 0 6 3.33114 1
gene 2 7 8 -0.818484 0 7 -0.818484 1
gene 1 2 19 7.52246 0 28 7.52246 1
gene 1 19 8 1.61767 0 29 1.61767 1
gene 1 7 19 -0.313079 0 32 -0.313079 1
gene 2 5 19 -0.464067 0 43 -0.464067 0
gene 1 6 19 6.24861 0 55 6.24861 1
gene 2 3 19 1.47586 0 63 1.47586 1
gene 2 5 36 0.661297 0 78 0.661297 1
gene 2 36 19 0.181482 0 79 0.181482 1
gene 3 4 36 0.511864 0 150 0.511864 1
gene 2 6 36 -0.181175 0 297 -0.181175 1
genomeend 96

/* Organism #97 Fitness: 38 Error: 0 */
genomestart 97
trait 1 0.1 0 0 0.0153675 0 0 0 0 
trait 2 0.2 0 0 0 0 0 0 0 
trait 3 0.3 0 0 0 0 0 0 0 
node 1 3 1 1
node 2 3 1 1
node 3 2 1 1
node 4 1 1 1
node 5 2 1 1
node 6 3 1 1
node 7 2 1 3
node 8 1 0 2
node 19 1 0 0
node 36 2 0 0
gene 2 1 8 -0.0345779 0 1 -0.0345779 1
gene 1 2 8 4.05548 0 2 4.05548 1
gene 1 3 8 -1.02239 0 3 -1.02239 1
gene 2 4 8 -3.80829 0 4 -3.80829 1
gene 1 5 8 2.89474 0 5 2.89474 1
gene 3 6 8 3.63157 0 6 3.63157 1
gene 2 7 8 -1.37829 0 7 -1.37829 1
gene 1 2 19 8 0 28 8 1
gene 1 19 8 -1.20392 0 29 -1.20392 1
gene 1 7 19 1.86083 0 32 1.86083 1
gene 2 5 19 -2.2869 0 43 -2.2869 0
gene 1 6 19 6.91202 0 55 6.91202 1
gene 2 3 19 1.46261 0 63 1.46261 1
gene 2 5 36 -3.64273 0 78 -3.64273 1
gene 2 36 19 -5.46354 0 79 -5.46354 1
gene 3 4 36 2.07185 0 150 2.07185 1
gene 2 6 36 0.132826 0 297 0.132826 1
genomeend 97

/* Organism #98 Fitness: 156 Error: 0 */
genomestart 98
trait 1 0.1 0 0 0.0153675 0 0 0 0 
trait 2 0.2 0 0 0 0 0 0 0 
trait 3 0.3 0 0 0 0 0 0 0 
node 1 3 1 1
node 2 3 1 1
node 3 2 1 1
node 4 1 1 1
node 5 2 1 1
node 6 3 1 1
node 7 2 1 3
node 8 1 0 2
node 19 1 0 0
node 36 2 0 0
gene 2 1 8 1.43465 0 1 1.43465 1
gene 1 2 8 -0.0120625 0 2 -0.0120625 1
gene 1 3 8 -3.39827 0 3 -3.39827 1
gene 2 4 8 -5.63731 0 4 -5.63731 1
gene 1 5 8 3.30565 0 5 3.30565 1
gene 3 6 8 2.78343 0 6 2.78343 1
gene 2 7 8 -1.21867 0 7 -1.21867 1
gene 1 2 19 4.18869 0 28 4.18869 1
gene 1 19 8 0.670641 0 29 0.670641 1
gene 1 7 19 1.50753 0 32 1.50753 1
gene 2 5 19 -0.830269 0 43 -0.830269 0
gene 1 6 19 2.27356 0 55 2.27356 1
gene 2 3 19 3.14745 0 63 3.14745 1
gene 2 5 36 0.51725 0 78 0.51725 1
gene 2 36 19 -6.91428 0 79 -6.91428 1
gene 3 4 36 -2.19338 0 150 -2.19338 1
gene 2 6 36 2.02463 0 297 2.02463 1
genomeend 98

/* Species #21 : (Size 16) (AF 6365.81) (Age 12)  */


/* Organism #99 Fitness: 535 Error: 0 */
genomestart 99
trait 1 0.084375 0 0 0.011463 0.0163967 0.0993312 0.118593 0 
trait 2 0.17986 0 0 0 0 0 0 0 
trait 3 0.3 0 0 0.049705 0.090594 0 0 0 
node 1 3 1 1
node 2 1 1 1
node 3 2 1 1
node 4 1 1 1
node 5 1 1 1
node 6 1 1 1
node 7 1 1 3
node 8 3 0 2
node 24 1 0 0
node 62 1 0 0
gene 1 1 8 0.342371 0 1 0.342371 0
gene 2 2 8 -1.41491 0 2 -1.41491 1
gene 3 3 8 -2.1261 0 3 -2.1261 1
gene 3 4 8 -5.45522 0 4 -5.45522 1
gene 3 5 8 2.00096 0 5 2.00096 1
gene 3 6 8 1.00047 0 6 1.00047 1
gene 2 7 8 0.443449 0 7 0.443449 1
gene 2 1 24 1.99815 0 39 1.99815 1
gene 2 24 8 -1.92609 0 40 -1.92609 0
gene 1 2 24 -3.50525 0 60 -3.50525 1
gene 2 5 24 0.831202 0 92 0.831202 1
gene 2 7 24 -1.99437 0 123 -1.99437 1
gene 3 6 24 0.848769 0 136 0.848769 1
gene 2 24 62 2.92434 0 168 2.92434 1
gene 2 62 8 -0.114951 0 169 -0.114951 1
genomeend 99

/* Organism #100 Fitness: 128 Error: 0 */
genomestart 100
trait 1 0.084375 0 0 0.011463 0.0163967 0.0993312 0.118593 0 
trait 2 0.17986 0 0 0 0 0 0 0 
trait 3 0.3 0 0 0.049705 0.090594 0 0 0 
node 1 3 1 1
node 2 1 1 1
node 3 2 1 1
node 4 1 1 1
node 5 1 1 1
node 6 1 1 1
node 7 2 1 3
node 8 3 0 2
node 24 1 0 0
node 62 1 0 0
gene 1 1 8 0.463104 0 1 0.463104 0
gene 2 2 8 -0.0992273 0 2 -0.0992273 1
gene 3 3 8 -6.23084 0 3 -6.23084 1
gene 3 4 8 -0.93321 0 4 -0.93321 1
gene 3 5 8 4.19426 0 5 4.19426 1
gene 3 6 8 1.40286 0 6 1.40286 1
gene 2 7 8 0.307168 0 7 0.307168 1
gene 2 1 24 1.63111 0 39 1.63111 1
gene 2 24 8 1.40442 0 40 1.40442 0
gene 1 2 24 -0.73346 0 60 -0.73346 1
gene 2 5 24 -1.63462 0 92 -1.63462 1
gene 2 7 24 1.78307 0 123 1.78307 1
gene 3 6 24 -2.07324 0 136 -2.07324 1
gene 2 24 62 -0.146961 0 168 -0.146961 1
gene 2 62 8 -0.566253 0 169 -0.566253 1
gene 1 2 62 -1.60463 0 298 -1.60463 1
genomeend 100

/* Organism #101 Fitness: 206 Error: 0 */
genomestart 101
trait 1 0.084375 0 0 0.011463 0.0163967 0.0993312 0.118593 0 
trait 2 0.17986 0 0 0 0 0 0 0 
trait 3 0.3 0 0 0.049705 0.090594 0 0 0 
node 1 3 1 1
node 2 1 1 1
node 3 2 1 1
node 4 1 1 1
node 5 1 1 1
node 6 1 1 1
node 7 1 1 3
node 8 3 0 2
node 24 1 0 0
node 62 1 0 0
gene 1 1 8 -1.46982 0 1 -1.46982 0
gene 2 2 8 -1.73544 0 2 -1.73544 1
gene 3 3 8 -3.15564 0 3 -3.15564 1
gene 3 4 8 -5.64956 0 4 -5.64956 1
gene 3 5 8 3.57803 0 5 3.57803 1
gene 3 6 8 1.38042 0 6 1.38042 1
gene 2 7 8 2.21979 0 7 2.21979 1
gene 2 1 24 1.49148 0 39 1.49148 1
gene 2 24 8 0.122533 0 40 0.122533 0
gene 1 2 24 -0.467527 0 60 -0.467527 1
gene 2 5 24 -0.367724 0 92 -0.367724 1
gene 2 7 24 -1.59855 0 123 -1.59855 1
gene 3 6 24 1.59611 0 136 1.59611 1
gene 2 24 62 1.75938 0 168 1.75938 1
gene 2 62 8 -1.40636 0 169 -1.40636 1
gene 2 1 62 0.459184 0 309 0.459184 1
genomeend 101

/* Organism #102 Fitness: 6 Error: 0 */
genomestart 102
trait 1 0.084375 0 0 0.011463 0.0163967 0.0993312 0.118593 0 
trait 2 0.17986 0 0 0 0 0 0 0 
trait 3 0.3 0 0 0.049705 0.090594 0 0 0 
node 1 3 1 1
node 2 1 1 1
node 3 2 1 1
node 4 1 1 1
node 5 1 1 1
node 6 1 1 1
node 7 1 1 3
node 8 3 0 2
node 24 1 0 0
node 62 1 0 0
gene 1 1 8 0.0234507 0 1 0.0234507 0
gene 2 2 8 -0.823111 0 2 -0.823111 1
gene 3 3 8 -5.20629 0 3 -5.20629 1
gene 3 4 8 -4.46751 0 4 -4.46751 1
gene 3 5 8 -1.29418 0 5 -1.29418 1
gene 3 6 8 1.00047 0 6 1.00047 1
gene 2 7 8 0.974684 0 7 0.974684 1
gene 2 1 24 2.01332 0 39 2.01332 1
gene 2 24 8 -2.18714 0 40 -2.18714 0
gene 1 2 24 1.72433 0 60 1.72433 1
gene 2 5 24 2.46427 0 92 2.46427 1
gene 2 7 24 0.0415123 0 123 0.0415123 1
gene 3 6 24 1.57713 0 136 1.57713 1
gene 2 24 62 0.561474 0 168 0.561474 1
gene 2 62 8 -1.17842 0 169 -1.17842 1
genomeend 102

/* Organism #103 Fitness: 63 Error: 0 */
genomestart 103
trait 1 0.084375 0 0 0.011463 0.0163967 0.0993312 0.118593 0 
trait 2 0.17986 0 0 0 0 0 0 0 
trait 3 0.891474 0 0.575497 0.049705 0.090594 0.759186 0 0.710645 
node 1 3 1 1
node 2 1 1 1
node 3 2 1 1
node 4 1 1 1
node 5 1 1 1
node 6 1 1 1
node 7 1 1 3
node 8 3 0 2
node 24 1 0 0
node 62 1 0 0
gene 1 1 8 -0.411893 0 1 -0.411893 0
gene 2 2 8 0.219568 0 2 0.219568 1
gene 3 3 8 -5.09703 0 3 -5.09703 1
gene 3 4 8 -5.24315 0 4 -5.24315 1
gene 3 5 8 2.59656 0 5 2.59656 1
gene 3 6 8 1.6414 0 6 1.6414 1
gene 2 7 8 2.0778 0 7 2.0778 1
gene 2 1 24 1.28108 0 39 1.28108 1
gene 2 24 8 -0.229031 0 40 -0.229031 0
gene 1 2 24 1.42723 0 60 1.42723 1
gene 2 5 24 0.451232 0 92 0.451232 1
gene 2 7 24 0.863225 0 123 0.863225 1
gene 3 6 24 1.39394 0 136 1.39394 1
gene 2 24 62 1.92371 0 168 1.92371 1
gene 2 62 8 -2.34324 0 169 -2.34324 1
gene 2 1 62 -0.587631 0 309 -0.587631 1
genomeend 103

/* Organism #104 Fitness: 5 Error: 0 */
genomestart 104
trait 1 0.084375 0 0 0.011463 0.0163967 0.0993312 0.118593 0 
trait 2 0.17986 0 0 0 0 0 0 0 
trait 3 0.3 0 0 0.049705 0.090594 0 0 0 
node 1 3 1 1
node 2 1 1 1
node 3 2 1 1
node 4 1 1 1
node 5 1 1 1
node 6 1 1 1
node 7 1 1 3
node 8 2 0 2
node 24 1 0 0
node 62 1 0 0
gene 1 1 8 -3.10954 0 1 -3.10954 0
gene 2 2 8 -0.794775 0 2 -0.794775 1
gene 3 3 8 -5.84795 0 3 -5.84795 1
gene 3 4 8 2.23009 0 4 2.23009 1
gene 3 5 8 0.344864 0 5 0.344864 1
gene 3 6 8 -0.490406 0 6 -0.490406 1
gene 2 7 8 -1.10449 0 7 -1.10449 1
gene 2 1 24 0.821114 0 39 0.821114 1
gene 2 24 8 0.081939 0 40 0.081939 0
gene 1 2 24 -0.064838 0 60 -0.064838 1
gene 2 5 24 0.712093 0 92 0.712093 1
gene 2 7 24 1.3106 0 123 1.3106 1
gene 3 6 24 -1.05048 0 136 -1.05048 1
gene 2 24 62 2.61484 0 168 2.61484 1
gene 2 62 8 0.407536 0 169 0.407536 1
gene 1 2 62 -1.84485 0 298 -1.84485 1
genomeend 104

/* Organism #105 Fitness: 43 Error: 0 */
genomestart 105
trait 1 0.084375 0 0 0.011463 0.0163967 0.0993312 0.118593 0 
trait 2 0.17986 0 0 0 0 0 0 0 
trait 3 0.3 0 0 0.049705 0.090594 0 0 0 
node 1 3 1 1
node 2 1 1 1
node 3 2 1 1
node 4 1 1 1
node 5 1 1 1
node 6 1 1 1
node 7 1 1 3
node 8 3 0 2
node 24 1 0 0
node 62 1 0 0
gene 1 1 8 -1.60062 0 1 -1.60062 1
gene 2 2 8 -0.942648 0 2 -0.942648 1
gene 3 3 8 -4.36309 0 3 -4.36309 1
gene 3 4 8 -3.00699 0 4 -3.00699 1
gene 3 5 8 3.11627 0 5 3.11627 1
gene 3 6 8 1.15181 0 6 1.15181 1
gene 2 7 8 0.00749858 0 7 0.00749858 1
gene 2 1 24 4.86781 0 39 4.86781 1
gene 2 24 8 1.32627 0 40 1.32627 0
gene 1 2 24 -3.19476 0 60 -3.19476 1
gene 2 5 24 -1.43767 0 92 -1.43767 1
gene 2 7 24 0.862261 0 123 0.862261 1
gene 3 6 24 0.265468 0 136 0.265468 1
gene 2 24 62 1.69893 0 168 1.69893 1
gene 2 62 8 -1.24901 0 169 -1.24901 1
gene 2 1 62 0.459184 0 309 0.459184 1
genomeend 105

/* Organism #106 Fitness: 56 Error: 0 */
genomestart 106
trait 1 0.084375 0 0 0.011463 0.0163967 0.0993312 0.118593 0 
trait 2 0.17986 0 0 0 0 0 0 0 
trait 3 0.3 0 0 0.049705 0.090594 0 0 0 
node 1 3 1 1
node 2 1 1 1
node 3 2 1 1
node 4 1 1 1
node 5 1 1 1
node 6 1 1 1
node 7 1 1 3
node 8 3 0 2
node 24 1 0 0
node 62 1 0 0
gene 1 1 8 -0.518791 0 1 -0.518791 0
gene 2 2 8 0.926456 0 2 0.926456 1
gene 3 3 8 -1.3093 0 3 -1.3093 1
gene 3 4 8 1.13492 0 4 1.13492 1
gene 3 5 8 2.07466 0 5 2.07466 1
gene 3 6 8 1.12097 0 6 1.12097 1
gene 2 7 8 0.178536 0 7 0.178536 1
gene 2 1 24 2.51278 0 39 2.51278 1
gene 2 24 8 -0.139344 0 40 -0.139344 0
gene 1 2 24 -2.37111 0 60 -2.37111 1
gene 2 5 24 -3.30757 0 92 -3.30757 1
gene 2 7 24 1.7025 0 123 1.7025 1
gene 3 6 24 -1.01825 0 136 -1.01825 1
gene 2 24 62 2.63351 0 168 2.63351 1
gene 2 62 8 -0.129735 0 169 -0.129735 1
gene 1 2 62 0.0929299 0 298 0.0929299 1
genomeend 106

/* Organism #107 Fitness: 5 Error: 0 */
genomestart 107
trait 1 0.084375 0 0 0.011463 0.0163967 0.0993312 0.118593 0 
trait 2 0.17986 0 0 0 0 0 0 0 
trait 3 0.3 0 0 0.049705 0.090594 0 0 0 
node 1 3 1 1
node 2 1 1 1
node 3 2 1 1
node 4 1 1 1
node 5 1 1 1
node 6 1 1 1
node 7 1 1 3
node 8 3 0 2
node 24 1 0 0
node 62 1 0 0
gene 1 1 8 -1.3249 0 1 -1.3249 0
gene 2 2 8 0.356653 0 2 0.356653 1
gene 3 3 8 0.0577348 0 3 0.0577348 1
gene 3 4 8 -1.2664 0 4 -1.2664 1
gene 3 5 8 1.17848 0 5 1.17848 1
gene 3 6 8 -0.166882 0 6 -0.166882 1
gene 2 7 8 -1.51435 0 7 -1.51435 1
gene 2 1 24 1.22432 0 39 1.22432 1
gene 2 24 8 -0.229031 0 40 -0.229031 0
gene 1 2 24 -1.88016 0 60 -1.88016 1
gene 2 5 24 -0.511314 0 92 -0.511314 1
gene 2 7 24 3.18911 0 123 3.18911 1
gene 3 6 24 -0.372966 0 136 -0.372966 1
gene 2 24 62 -0.928402 0 168 -0.928402 1
gene 2 62 8 -0.164355 0 169 -0.164355 1
gene 2 1 62 -0.455231 0 309 -0.455231 1
genomeend 107

/* Organism #108 Fitness: 29 Error: 0 */
genomestart 108
trait 1 0.084375 0 0 0.011463 0.0163967 0.0993312 0.118593 0 
trait 2 0.17986 0 0 0 0 0 0 0 
trait 3 0.3 0 0 0.049705 0.090594 0 0 0 
node 1 3 1 1
node 2 1 1 1
node 3 2 1 1
node 4 1 1 1
node 5 1 1 1
node 6 1 1 1
node 7 1 1 3
node 8 3 0 2
node 24 1 0 0
node 62 1 0 0
gene 1 1 8 -1.42581 0 1 -1.42581 0
gene 2 2 8 -0.229487 0 2 -0.229487 1
gene 3 3 8 -0.281473 0 3 -0.281473 1
gene 3 4 8 -3.807 0 4 -3.807 1
gene 3 5 8 2.09646 0 5 2.09646 1
gene 3 6 8 1.95938 0 6 1.95938 1
gene 2 7 8 0.223639 0 7 0.223639 1
gene 2 1 24 2.52517 0 39 2.52517 1
gene 2 24 8 -2.31071 0 40 -2.31071 0
gene 1 2 24 -2.59623 0 60 -2.59623 1
gene 2 5 24 -1.62169 0 92 -1.62169 1
gene 2 7 24 -1.65512 0 123 -1.65512 1
gene 3 6 24 1.36059 0 136 1.36059 1
gene 2 24 62 2.2705 0 168 2.2705 1
gene 2 62 8 1.36424 0 169 1.36424 1
genomeend 108

/* Organism #109 Fitness: 5 Error: 0 */
genomestart 109
trait 1 0.084375 0 0 0.011463 0.0163967 0.0993312 0.118593 0 
trait 2 0.17986 0 0 0 0 0 0 0 
trait 3 0.3 0 0 0.049705 0.090594 0 0 0 
node 1 3 1 1
node 2 1 1 1
node 3 2 1 1
node 4 1 1 1
node 5 1 1 1
node 6 1 1 1
node 7 1 1 3
node 8 3 0 2
node 24 1 0 0
node 62 1 0 0
gene 1 1 8 -0.0420502 0 1 -0.0420502 0
gene 2 2 8 -3.34045 0 2 -3.34045 1
gene 3 3 8 -4.04047 0 3 -4.04047 1
gene 3 4 8 -0.893569 0 4 -0.893569 1
gene 3 5 8 3.13928 0 5 3.13928 1
gene 3 6 8 -2.45629 0 6 -2.45629 1
gene 2 7 8 -1.82637 0 7 -1.82637 1
gene 2 1 24 4.74309 0 39 4.74309 1
gene 2 24 8 1.96777 0 40 1.96777 0
gene 1 2 24 -1.65313 0 60 -1.65313 1
gene 2 5 24 0.211775 0 92 0.211775 1
gene 2 7 24 0.351256 0 123 0.351256 1
gene 3 6 24 -1.74205 0 136 -1.74205 1
gene 2 24 62 2.88073 0 168 2.88073 1
gene 2 62 8 -1.51373 0 169 -1.51373 1
gene 2 1 62 0.459184 0 309 0.459184 1
genomeend 109

/* Organism #110 Fitness: 5 Error: 0 */
genomestart 110
trait 1 0.084375 0 0 0.011463 0.0163967 0.0993312 0.118593 0 
trait 2 0.17986 0 0 0 0 0 0 0 
trait 3 0.3 0 0 0.049705 0.090594 0 0 0 
node 1 3 1 1
node 2 1 1 1
node 3 2 1 1
node 4 1 1 1
node 5 1 1 1
node 6 1 1 1
node 7 1 1 3
node 8 3 0 2
node 24 1 0 0
node 62 1 0 0
gene 1 1 8 1.16209 0 1 1.16209 0
gene 2 2 8 -3.00804 0 2 -3.00804 1
gene 3 3 8 -2.33902 0 3 -2.33902 1
gene 3 4 8 -2.59734 0 4 -2.59734 1
gene 3 5 8 2.11856 0 5 2.11856 1
gene 3 6 8 -0.590803 0 6 -0.590803 1
gene 2 7 8 -1.61837 0 7 -1.61837 1
gene 2 1 24 4.57626 0 39 4.57626 1
gene 2 24 8 -1.06031 0 40 -1.06031 0
gene 1 2 24 -4.16865 0 60 -4.16865 1
gene 2 5 24 -1.22167 0 92 -1.22167 1
gene 2 7 24 -0.761455 0 123 -0.761455 1
gene 3 6 24 2.01986 0 136 2.01986 1
gene 2 24 62 2.35319 0 168 2.35319 1
gene 2 62 8 1.85457 0 169 1.85457 1
genomeend 110

/* Organism #111 Fitness: 343 Error: 0 */
genomestart 111
trait 1 0.084375 0 0 0.011463 0.0163967 0.0993312 0.118593 0 
