
/* Species #2 : (Size 21) (AF 73.8571) (Age 15)  */


/* Organism #0 Fitness: 485 Error: 0 */
genomestart 0
trait 1 0.1 0 0 0 0 0 0 0 
trait 2 0.2 0 0 0 0 0 0 0 
trait 3 0.3 0 0 0 0 0 0 0 
node 1 3 1 1
node 2 3 1 1
node 3 2 1 1
node 4 3 1 1
node 5 2 1 1
node 6 3 1 1
node 7 2 1 3
node 8 1 0 2
node 19 1 0 0
node 68 1 0 0
gene 2 1 8 -0.850823 0 1 -0.850823 1
gene 1 2 8 0.120067 0 2 0.120067 0
gene 1 3 8 -2.18163 0 3 -2.18163 1
gene 2 4 8 -1.78249 0 4 -1.78249 1
gene 1 5 8 1.42993 0 5 1.42993 1
gene 3 6 8 0.848007 0 6 0.848007 1
gene 2 7 8 -1.97351 0 7 -1.97351 1
gene 1 2 19 2.66006 0 28 2.66006 0
gene 1 19 8 0.879911 0 29 0.849894 0
gene 1 7 19 1.07076 0 32 1.07076 1
gene 1 19 68 1 0 195 0 1
gene 1 68 8 0.879911 0 196 0 1
genomeend 0

/* Organism #1 Fitness: 34 Error: 0 */
genomestart 1
trait 1 0.1 0 0 0 0 0 0 0 
trait 2 0.2 0 0 0 0 0 0 0 
trait 3 0.3 0 0 0 0 0 0 0 
node 1 3 1 1
node 2 3 1 1
node 3 2 1 1
node 4 3 1 1
node 5 2 1 1
node 6 3 1 1
node 7 2 1 3
node 8 1 0 2
node 19 1 0 0
node 68 1 0 0
gene 2 1 8 -1.18844 0 1 -1.18844 1
gene 1 2 8 -0.100346 0 2 -0.100346 0
gene 1 3 8 -0.253287 0 3 -0.253287 1
gene 2 4 8 -2.88266 0 4 -2.88266 1
gene 1 5 8 -0.692942 0 5 -0.692942 1
gene 3 6 8 2.55539 0 6 2.55539 1
gene 2 7 8 -2.51018 0 7 -2.51018 1
gene 1 2 19 0.794396 0 28 0.794396 0
gene 1 19 8 -1.05603 0 29 -1.05603 0
gene 1 7 19 0.647567 0 32 0.647567 1
gene 1 19 68 3.35154 0 195 3.35154 1
gene 1 68 8 0.879911 0 196 0.879911 1
genomeend 1

/* Organism #2 Fitness: 5 Error: 0 */
genomestart 2
trait 1 0.1 0 0 0 0 0 0 0 
trait 2 0.2 0 0 0 0 0 0 0 
trait 3 0.3 0 0 0 0 0 0 0 
node 1 3 1 1
node 2 3 1 1
node 3 2 1 1
node 4 3 1 1
node 5 2 1 1
node 6 3 1 1
node 7 2 1 3
node 8 1 0 2
node 19 1 0 0
gene 2 1 8 -0.451824 0 1 -0.451824 1
gene 1 2 8 2.38473 0 2 2.38473 0
gene 1 3 8 -4.14957 0 3 -4.14957 1
gene 2 4 8 0.239173 0 4 0.239173 1
gene 1 5 8 -0.0752348 0 5 -0.0752348 1
gene 3 6 8 -0.729873 0 6 -0.729873 1
gene 2 7 8 -3.6542 0 7 -3.6542 1
gene 1 2 19 0.561242 0 28 0.561242 0
gene 1 19 8 0.879911 0 29 0.879911 1
gene 1 7 19 -0.57248 0 32 -0.57248 1
genomeend 2

/* Organism #3 Fitness: 5 Error: 0 */
genomestart 3
trait 1 0.1 0 0 0 0 0 0 0 
trait 2 0.2 0 0 0 0 0 0 0 
trait 3 0.3 0 0 0 0 0 0 0 
node 1 3 1 1
node 2 3 1 1
node 3 2 1 1
node 4 3 1 1
node 5 2 1 1
node 6 3 1 1
node 7 2 1 3
node 8 1 0 2
node 19 1 0 0
node 68 1 0 0
gene 2 1 8 1.31083 0 1 1.31083 1
gene 1 2 8 -0.851109 0 2 -0.851109 0
gene 1 3 8 -1.49431 0 3 -1.49431 1
gene 2 4 8 -3.46595 0 4 -3.46595 1
gene 1 5 8 1.41907 0 5 1.41907 1
gene 3 6 8 -0.45209 0 6 -0.45209 1
gene 2 7 8 -0.00686333 0 7 -0.00686333 1
gene 1 2 19 1.21142 0 28 1.21142 0
gene 1 19 8 0.2174 0 29 0.2174 0
gene 1 7 19 -0.504728 0 32 -0.504728 1
gene 1 19 68 3.26282 0 195 3.26282 1
gene 1 68 8 0.144722 0 196 0.144722 1
genomeend 3

/* Organism #4 Fitness: 50 Error: 0 */
genomestart 4
trait 1 0.1 0 0 0 0 0 0 0 
trait 2 0.2 0 0 0 0 0 0 0 
trait 3 0.3 0 0 0 0 0 0 0 
node 1 3 1 1
node 2 3 1 1
node 3 3 1 1
node 4 3 1 1
node 5 2 1 1
node 6 3 1 1
node 7 2 1 3
node 8 1 0 2
node 19 1 0 0
node 68 1 0 0
gene 2 1 8 1.0532 0 1 1.0532 1
gene 1 2 8 -2.30674 0 2 -2.30674 0
gene 1 3 8 -0.609555 0 3 -0.609555 1
gene 2 4 8 0.330778 0 4 0.330778 1
gene 1 5 8 0.37485 0 5 0.37485 1
gene 3 6 8 1.31018 0 6 1.31018 1
gene 2 7 8 -1.07698 0 7 -1.07698 1
gene 1 2 19 4.16237 0 28 4.16237 0
gene 1 19 8 -0.765669 0 29 -0.765669 0
gene 1 7 19 3.03223 0 32 3.03223 1
gene 1 19 68 1.03355 0 195 1.03355 1
gene 1 68 8 0.879911 0 196 0.879911 1
genomeend 4

/* Organism #5 Fitness: 30 Error: 0 */
genomestart 5
trait 1 0.1 0 0 0 0 0 0 0 
trait 2 0.2 0 0 0 0 0 0 0 
trait 3 0.3 0 0 0 0 0 0 0 
node 1 3 1 1
node 2 3 1 1
node 3 2 1 1
node 4 3 1 1
node 5 2 1 1
node 6 3 1 1
node 7 2 1 3
node 8 1 0 2
node 19 1 0 0
gene 2 1 8 1.00991 0 1 1.00991 1
gene 1 2 8 0.605473 0 2 0.605473 0
gene 1 3 8 -3.60393 0 3 -3.60393 1
gene 2 4 8 0.679792 0 4 0.679792 1
gene 1 5 8 3.68379 0 5 3.68379 1
gene 3 6 8 2.50538 0 6 2.50538 1
gene 2 7 8 -1.28019 0 7 -1.28019 1
gene 1 2 19 2.35693 0 28 2.35693 0
gene 1 19 8 2.96247 0 29 2.96247 1
gene 1 7 19 1.13873 0 32 1.13873 1
genomeend 5

/* Organism #6 Fitness: 13 Error: 0 */
genomestart 6
trait 1 0.1 0 0 0 0 0 0 0 
trait 2 0.2 0 0 0 0 0 0 0 
trait 3 0.3 0 0 0 0 0 0 0 
node 1 3 1 1
node 2 3 1 1
node 3 2 1 1
node 4 3 1 1
node 5 2 1 1
node 6 3 1 1
node 7 2 1 3
node 8 1 0 2
node 19 1 0 0
gene 2 1 8 -2.42247 0 1 -2.42247 1
gene 1 2 8 -0.116828 0 2 -0.116828 0
gene 1 3 8 -2.28661 0 3 -2.28661 1
gene 2 4 8 -2.01549 0 4 -2.01549 1
gene 1 5 8 1.80465 0 5 1.80465 1
gene 3 6 8 2.14024 0 6 2.14024 1
gene 2 7 8 -4.40754 0 7 -4.40754 1
gene 1 2 19 3.77548 0 28 3.77548 0
gene 1 19 8 -1.43635 0 29 -1.43635 1
gene 1 7 19 -0.0531609 0 32 -0.0531609 1
genomeend 6

/* Organism #7 Fitness: 6 Error: 0 */
genomestart 7
trait 1 0.1 0 0 0 0 0 0 0 
trait 2 0.2 0 0 0 0 0 0 0 
trait 3 0.3 0 0 0 0 0 0 0 
node 1 3 1 1
node 2 3 1 1
node 3 2 1 1
node 4 3 1 1
node 5 2 1 1
node 6 3 1 1
node 7 2 1 3
node 8 1 0 2
node 19 1 0 0
node 68 1 0 0
gene 2 1 8 0.786443 0 1 0.786443 1
gene 1 2 8 0.255732 0 2 0.255732 0
gene 1 3 8 -0.936366 0 3 -0.936366 1
gene 2 4 8 -3.40491 0 4 -3.40491 1
gene 1 5 8 -0.466728 0 5 -0.466728 1
gene 3 6 8 1.52835 0 6 1.52835 1
gene 2 7 8 -4.07089 0 7 -4.07089 1
gene 1 2 19 2.66006 0 28 2.66006 0
gene 1 19 8 3.22349 0 29 3.22349 0
gene 1 7 19 0.539376 0 32 0.539376 1
gene 1 19 68 3.20871 0 195 3.20871 1
gene 1 68 8 -1.28654 0 196 -1.28654 1
genomeend 7

/* Organism #8 Fitness: 42 Error: 0 */
genomestart 8
trait 1 0.1 0 0 0 0 0 0 0 
trait 2 0.2 0 0 0 0 0 0 0 
trait 3 0.3 0 0 0 0 0 0 0 
node 1 3 1 1
node 2 3 1 1
node 3 2 1 1
node 4 3 1 1
node 5 2 1 1
node 6 3 1 1
node 7 2 1 3
node 8 1 0 2
node 19 1 0 0
node 68 1 0 0
gene 2 1 8 -3.21766 0 1 -3.21766 1
gene 1 2 8 1.57252 0 2 1.57252 0
gene 1 3 8 -3.69246 0 3 -3.69246 1
gene 2 4 8 -1.68161 0 4 -1.68161 1
gene 1 5 8 3.26137 0 5 3.26137 1
gene 3 6 8 0.588014 0 6 0.588014 1
gene 2 7 8 -2.15762 0 7 -2.15762 1
gene 1 2 19 0.98735 0 28 0.98735 1
gene 1 19 8 2.74729 0 29 2.74729 0
gene 1 7 19 1.00246 0 32 1.00246 1
gene 1 19 68 -0.579129 0 195 -0.579129 1
gene 1 68 8 0.586817 0 196 0.586817 1
genomeend 8

/* Organism #9 Fitness: 5 Error: 0 */
genomestart 9
trait 1 0.1 0 0 0 0 0 0 0 
trait 2 0.2 0 0 0 0 0 0 0 
trait 3 0.3 0 0 0 0 0 0 0 
node 1 3 1 1
node 2 3 1 1
node 3 2 1 1
node 4 3 1 1
node 5 2 1 1
node 6 3 1 1
node 7 2 1 3
node 8 1 0 2
node 19 1 0 0
gene 2 1 8 -0.497674 0 1 -0.497674 1
gene 1 2 8 -0.961168 0 2 -0.961168 0
gene 1 3 8 -1.12137 0 3 -1.12137 1
gene 2 4 8 -1.12811 0 4 -1.12811 1
gene 1 5 8 3.03022 0 5 3.03022 1
gene 3 6 8 -1.44237 0 6 -1.44237 1
gene 2 7 8 -1.97351 0 7 -1.97351 1
gene 1 2 19 0.699242 0 28 0.699242 1
gene 1 19 8 2.13185 0 29 2.13185 1
gene 1 7 19 0.5315 0 32 0.5315 1
genomeend 9

/* Organism #10 Fitness: 13 Error: 0 */
genomestart 10
trait 1 0.1 0 0 0 0 0 0 0 
trait 2 0.2 0 0 0 0 0 0 0 
trait 3 0.3 0 0 0 0 0 0 0 
node 1 3 1 1
node 2 3 1 1
node 3 2 1 1
node 4 3 1 1
node 5 2 1 1
node 6 3 1 1
node 7 2 1 3
node 8 1 0 2
node 19 1 0 0
gene 2 1 8 -0.749074 0 1 -0.749074 1
gene 1 2 8 0.120067 0 2 0.120067 0
gene 1 3 8 -3.65588 0 3 -3.65588 1
gene 2 4 8 -1.58977 0 4 -1.58977 1
gene 1 5 8 -1.50002 0 5 -1.50002 1
gene 3 6 8 1.59608 0 6 1.59608 1
gene 2 7 8 -2.30797 0 7 -2.30797 1
gene 1 2 19 0.418531 0 28 0.418531 0
gene 1 19 8 2.34368 0 29 2.34368 1
gene 1 7 19 0.00149703 0 32 0.00149703 1
genomeend 10

/* Organism #11 Fitness: 53 Error: 0 */
genomestart 11
trait 1 0.1 0 0 0 0 0 0 0 
trait 2 0.2 0 0 0 0 0 0 0 
trait 3 0.3 0 0 0 0 0 0 0 
node 1 3 1 1
node 2 3 1 1
node 3 2 1 1
node 4 3 1 1
node 5 2 1 1
node 6 3 1 1
node 7 2 1 3
node 8 1 0 2
node 19 1 0 0
node 68 1 0 0
gene 2 1 8 -2.24733 0 1 -2.24733 1
gene 1 2 8 -0.137508 0 2 -0.137508 0
gene 1 3 8 -3.11396 0 3 -3.11396 1
gene 2 4 8 0.595656 0 4 0.595656 1
gene 1 5 8 2.47353 0 5 2.47353 1
gene 3 6 8 1.87367 0 6 1.87367 1
gene 2 7 8 -1.36194 0 7 -1.36194 1
gene 1 2 19 1.37035 0 28 1.37035 0
gene 1 19 8 3.28976 0 29 3.28976 0
gene 1 7 19 1.21215 0 32 1.21215 1
gene 1 19 68 1 0 195 1 1
gene 1 68 8 0.879911 0 196 0.879911 1
genomeend 11

/* Organism #12 Fitness: 5 Error: 0 */
genomestart 12
trait 1 0.1 0 0 0 0 0 0 0 
trait 2 0.2 0 0 0 0 0 0 0 
trait 3 0.3 0 0 0 0 0 0 0 
node 1 3 1 1
node 2 3 1 1
node 3 2 1 1
node 4 3 1 1
node 5 2 1 1
node 6 3 1 1
node 7 2 1 3
node 8 1 0 2
node 19 1 0 0
node 68 1 0 0
gene 2 1 8 -1.89152 0 1 -1.89152 1
gene 1 2 8 1.67279 0 2 1.67279 0
gene 1 3 8 -0.593032 0 3 -0.593032 1
gene 2 4 8 -2.93314 0 4 -2.93314 1
gene 1 5 8 2.40525 0 5 2.40525 1
gene 3 6 8 -0.113455 0 6 -0.113455 1
gene 2 7 8 -1.12622 0 7 -1.12622 1
gene 1 2 19 0.44212 0 28 0.44212 0
gene 1 19 8 -0.607962 0 29 -0.607962 0
gene 1 7 19 2.0413 0 32 2.0413 1
gene 1 19 68 -0.0591428 0 195 -0.0591428 1
gene 1 68 8 1.6501 0 196 1.6501 1
genomeend 12

/* Organism #13 Fitness: 214 Error: 0 */
genomestart 13
trait 1 0.1 0 0 0 0 0 0 0 
trait 2 0.2 0 0 0 0 0 0 0 
trait 3 0.3 0 0 0 0 0 0 0 
node 1 3 1 1
node 2 3 1 1
node 3 2 1 1
node 4 3 1 1
node 5 2 1 1
node 6 3 1 1
node 7 2 1 3
node 8 1 0 2
node 19 1 0 0
node 68 1 0 0
gene 2 1 8 -0.438555 0 1 -0.438555 1
gene 1 2 8 1.04255 0 2 1.04255 0
gene 1 3 8 -4.53884 0 3 -4.53884 1
gene 2 4 8 -3.61158 0 4 -3.61158 1
gene 1 5 8 2.86844 0 5 2.86844 1
gene 3 6 8 1.43286 0 6 1.43286 1
gene 2 7 8 -1.1167 0 7 -1.1167 1
gene 1 2 19 4.74792 0 28 4.74792 0
gene 1 19 8 1.861 0 29 1.861 0
gene 1 7 19 3.32371 0 32 3.32371 1
gene 1 19 68 3.11016 0 195 3.11016 1
gene 1 68 8 0.366208 0 196 0.366208 1
genomeend 13

/* Organism #14 Fitness: 10 Error: 0 */
genomestart 14
trait 1 0.1 0 0 0 0 0 0 0 
trait 2 0.2 0 0 0 0 0 0 0 
trait 3 0.3 0 0 0 0 0 0 0 
node 1 3 1 1
node 2 3 1 1
node 3 2 1 1
node 4 3 1 1
node 5 2 1 1
node 6 3 1 1
node 7 2 1 3
node 8 1 0 2
node 19 1 0 0
node 68 1 0 0
gene 2 1 8 -1.71332 0 1 -1.71332 1
gene 1 2 8 2.39204 0 2 2.39204 0
gene 1 3 8 1.47255 0 3 1.47255 1
gene 2 4 8 -0.233405 0 4 -0.233405 1
gene 1 5 8 -0.657142 0 5 -0.657142 1
gene 3 6 8 0.848007 0 6 0.848007 1
gene 2 7 8 -3.32647 0 7 -3.32647 1
gene 1 2 19 2.66006 0 28 2.66006 0
gene 1 19 8 0.879911 0 29 0.879911 1
gene 1 7 19 1.07076 0 32 1.07076 1
gene 1 19 68 2.71814 0 195 2.71814 1
gene 1 68 8 2.52341 0 196 2.52341 1
genomeend 14

/* Organism #15 Fitness: 21 Error: 0 */
genomestart 15
trait 1 0.1 0 0 0 0 0 0 0 
trait 2 0.2 0 0 0 0 0 0 0 
trait 3 0.3 0 0 0 0 0 0 0 
node 1 3 1 1
node 2 3 1 1
node 3 2 1 1
node 4 3 1 1
node 5 2 1 1
node 6 3 1 1
node 7 2 1 3
node 8 1 0 2
node 19 1 0 0
node 68 1 0 0
gene 2 1 8 -0.640691 0 1 -0.640691 1
gene 1 2 8 -0.847599 0 2 -0.847599 0
gene 1 3 8 -1.03097 0 3 -1.03097 1
gene 2 4 8 -0.6093 0 4 -0.6093 1
gene 1 5 8 2.08072 0 5 2.08072 1
gene 3 6 8 3.30074 0 6 3.30074 1
gene 2 7 8 -2.13351 0 7 -2.13351 1
gene 1 2 19 1.35482 0 28 1.35482 0
gene 1 19 8 0.849747 0 29 0.849747 0
gene 1 7 19 -0.324482 0 32 -0.324482 1
gene 1 19 68 0.954092 0 195 0.954092 1
gene 1 68 8 -1.33931 0 196 -1.33931 1
genomeend 15

/* Organism #16 Fitness: 5 Error: 0 */
genomestart 16
trait 1 0.1 0 0 0 0 0 0 0 
trait 2 0.2 0 0 0 0 0 0 0 
trait 3 0.3 0 0 0 0 0 0 0 
node 1 3 1 1
node 2 3 1 1
node 3 2 1 1
node 4 3 1 1
node 5 2 1 1
node 6 3 1 1
node 7 2 1 3
node 8 1 0 2
node 19 1 0 0
gene 2 1 8 0.839313 0 1 0.839313 1
gene 1 2 8 1.45881 0 2 1.45881 0
gene 1 3 8 -1.16901 0 3 -1.16901 1
gene 2 4 8 -0.617999 0 4 -0.617999 1
gene 1 5 8 -0.733516 0 5 -0.733516 1
gene 3 6 8 0.445072 0 6 0.445072 1
gene 2 7 8 -3.7675 0 7 -3.7675 1
gene 1 2 19 4.95534 0 28 4.95534 0
gene 1 19 8 -0.757607 0 29 -0.757607 1
gene 1 7 19 1.07076 0 32 1.07076 1
genomeend 16

/* Organism #17 Fitness: 44 Error: 0 */
genomestart 17
trait 1 0.1 0 0 0 0 0 0 0 
trait 2 0.2 0 0 0 0 0 0 0 
trait 3 0.3 0 0 0 0 0 0 0 
node 1 3 1 1
node 2 3 1 1
node 3 2 1 1
node 4 3 1 1
node 5 2 1 1
node 6 3 1 1
node 7 2 1 3
node 8 1 0 2
node 19 1 0 0
node 68 1 0 0
gene 2 1 8 -2.35282 0 1 -2.35282 1
gene 1 2 8 -0.447379 0 2 -0.447379 0
gene 1 3 8 -0.797383 0 3 -0.797383 1
gene 2 4 8 -3.99693 0 4 -3.99693 1
gene 1 5 8 2.57514 0 5 2.57514 1
gene 3 6 8 2.9151 0 6 2.9151 1
gene 2 7 8 0.309471 0 7 0.309471 1
gene 1 2 19 4.69875 0 28 4.69875 0
gene 1 19 8 1.19731 0 29 1.19731 0
gene 1 7 19 1.07076 0 32 1.07076 1
gene 1 19 68 0.8874 0 195 0.8874 1
gene 1 68 8 -1.06555 0 196 -1.06555 1
genomeend 17

/* Organism #18 Fitness: 485 Error: 0 */
genomestart 18
trait 1 0.1 0 0 0 0 0 0 0 
trait 2 0.2 0 0 0 0 0 0 0 
trait 3 0.3 0 0 0 0 0 0 0 
node 1 3 1 1
node 2 3 1 1
node 3 2 1 1
node 4 3 1 1
node 5 2 1 1
node 6 3 1 1
node 7 2 1 3
node 8 1 0 2
node 19 1 0 0
node 68 1 0 0
gene 2 1 8 -0.850823 0 1 -0.850823 1
gene 1 2 8 0.120067 0 2 0.120067 0
gene 1 3 8 -2.18163 0 3 -2.18163 1
gene 2 4 8 -1.78249 0 4 -1.78249 1
gene 1 5 8 1.42993 0 5 1.42993 1
gene 3 6 8 0.848007 0 6 0.848007 1
gene 2 7 8 -1.97351 0 7 -1.97351 1
gene 1 2 19 2.66006 0 28 2.66006 0
gene 1 19 8 0.879911 0 29 0.849894 0
gene 1 7 19 1.07076 0 32 1.07076 1
gene 1 19 68 1 0 195 0 1
gene 1 68 8 0.879911 0 196 0 1
gene 2 4 19 0.300878 0 210 0.300878 1
genomeend 18

/* Organism #19 Fitness: 5 Error: 0 */
genomestart 19
trait 1 0.1 0 0 0 0 0 0 0 
trait 2 0.2 0 0 0 0 0 0 0 
trait 3 0.3 0 0 0 0 0 0 0 
node 1 3 1 1
node 2 3 1 1
node 3 2 1 1
node 4 3 1 1
node 5 2 1 1
node 6 3 1 1
node 7 2 1 3
node 8 1 0 2
node 19 1 0 0
gene 2 1 8 1.38891 0 1 1.38891 1
gene 1 2 8 0.551167 0 2 0.551167 0
gene 1 3 8 -2.22237 0 3 -2.22237 1
gene 2 4 8 -2.23025 0 4 -2.23025 1
gene 1 5 8 0.860721 0 5 0.860721 1
gene 3 6 8 -0.987873 0 6 -0.987873 1
gene 2 7 8 -2.14315 0 7 -2.14315 1
gene 1 2 19 1.87368 0 28 1.87368 0
gene 1 19 8 0.879911 0 29 0.879911 1
gene 1 7 19 2.4854 0 32 2.4854 1
genomeend 19

/* Organism #20 Fitness: 21 Error: 0 */
genomestart 20
trait 1 0.1 0 0 0 0 0 0 0 
trait 2 0.2 0 0 0 0 0 0 0 
trait 3 0.3 0 0 0 0 0 0 0 
node 1 3 1 1
node 2 3 1 1
node 3 2 1 1
node 4 3 1 1
node 5 2 1 1
node 6 3 1 1
node 7 2 1 3
node 8 1 0 2
node 19 1 0 0
node 68 1 0 0
gene 2 1 8 0.514285 0 1 0.514285 1
gene 1 2 8 -1.1433 0 2 -1.1433 0
gene 1 3 8 0.105129 0 3 0.105129 1
gene 2 4 8 -0.756593 0 4 -0.756593 1
gene 1 5 8 -0.3596 0 5 -0.3596 1
gene 3 6 8 2.84822 0 6 2.84822 1
gene 2 7 8 -0.913899 0 7 -0.913899 1
gene 1 2 19 1.50791 0 28 1.50791 0
gene 1 19 8 3.26723 0 29 3.26723 0
gene 1 7 19 -0.807462 0 32 -0.807462 1
gene 1 19 68 -1.17536 0 195 -1.17536 1
gene 1 68 8 -1.61247 0 196 -1.61247 1
genomeend 20

/* Species #3 : (Size 7) (AF 38.7143) (Age 15)  */


/* Organism #21 Fitness: 96 Error: 0 */
genomestart 21
trait 1 0.0875 0 0 0.00917042 0 0.0744408 0.0948746 0 
trait 2 0.2 0 0 0 0 0 0 0 
trait 3 0.3 0 0 0 0 0 0 0 
node 1 3 1 1
node 2 3 1 1
node 3 2 1 1
node 4 1 1 1
node 5 2 1 1
node 6 3 1 1
node 7 2 1 3
node 8 1 0 2
node 19 3 0 0
node 23 1 0 0
gene 2 1 8 -4.02499 0 1 -4.02499 1
gene 1 2 8 1.13118 0 2 1.13118 0
gene 1 3 8 3.28648 0 3 3.28648 0
gene 2 4 8 -1.06949 0 4 -1.06949 1
gene 1 5 8 7.85566 0 5 7.85566 1
gene 3 6 8 1.23548 0 6 1.23548 1
gene 2 7 8 0.657017 0 7 0.657017 1
gene 1 2 19 -0.0511573 0 28 -0.0511573 1
gene 1 19 8 -2.49564 0 29 -2.49564 1
gene 1 3 23 -1.4853 0 37 -1.4853 1
gene 1 23 8 -2.21915 0 38 -2.21915 1
genomeend 21

/* Organism #22 Fitness: 14 Error: 0 */
genomestart 22
trait 1 0.0875 0 0 0.00917042 0 0.0744408 0.0948746 0 
trait 2 0.2 0 0 0 0 0 0 0 
trait 3 0.3 0 0 0 0 0 0 0 
node 1 3 1 1
node 2 3 1 1
node 3 2 1 1
node 4 1 1 1
node 5 2 1 1
node 6 3 1 1
node 7 2 1 3
node 8 1 0 2
node 19 3 0 0
node 23 1 0 0
gene 2 1 8 -4.21479 0 1 -4.21479 1
gene 1 2 8 -1.31185 0 2 -1.31185 0
gene 1 3 8 1.47104 0 3 1.47104 0
gene 2 4 8 1.58288 0 4 1.58288 1
gene 1 5 8 -1.86967 0 5 -1.86967 1
gene 3 6 8 2.25706 0 6 2.25706 1
gene 2 7 8 -0.659758 0 7 -0.659758 1
gene 1 2 19 -1.44989 0 28 -1.44989 1
gene 1 19 8 -2.50223 0 29 -2.50223 1
gene 1 3 23 -1.4853 0 37 -1.4853 1
gene 1 23 8 -0.301589 0 38 -0.301589 1
genomeend 22

/* Organism #23 Fitness: 52 Error: 0 */
genomestart 23
trait 1 0.0875 0 0 0.00917042 0 0.0744408 0.0948746 0 
trait 2 0.2 0 0 0 0 0 0 0 
trait 3 0.3 0.355705 0.0315938 0.143934 0 0 0 0 
node 1 3 1 1
node 2 3 1 1
node 3 2 1 1
node 4 1 1 1
node 5 3 1 1
node 6 3 1 1
node 7 2 1 3
node 8 1 0 2
node 19 3 0 0
node 23 1 0 0
gene 2 1 8 -3.33399 0 1 -3.33399 1
gene 1 2 8 0.32369 0 2 0.32369 0
gene 1 3 8 3.83188 0 3 3.83188 0
gene 2 4 8 -0.442875 0 4 -0.442875 1
gene 1 5 8 4.93651 0 5 4.93651 1
gene 3 6 8 0.724081 0 6 0.724081 1
gene 2 7 8 0.492917 0 7 0.492917 1
gene 1 2 19 -1.08679 0 28 -1.08679 1
gene 1 19 8 -1.48001 0 29 -1.48001 1
gene 1 3 23 -1.3895 0 37 -1.3895 1
gene 1 23 8 -3.43148 0 38 -3.43148 1
genomeend 23

/* Organism #24 Fitness: 6 Error: 0 */
genomestart 24
trait 1 0.0875 0 0 0.00917042 0 0.0744408 0.0948746 0 
trait 2 0.2 0 0 0 0 0 0 0 
trait 3 0.3 0.355705 0.0315938 0.143934 0 0 0 0 
node 1 3 1 1
node 2 3 1 1
node 3 2 1 1
node 4 1 1 1
node 5 2 1 1
node 6 3 1 1
node 7 2 1 3
node 8 1 0 2
node 19 3 0 0
node 23 1 0 0
gene 2 1 8 -4.89909 0 1 -4.89909 1
gene 1 2 8 2.85242 0 2 2.85242 0
gene 1 3 8 0.917865 0 3 0.917865 0
gene 2 4 8 -1.39603 0 4 -1.39603 1
gene 1 5 8 4.51232 0 5 4.51232 1
gene 3 6 8 -1.32205 0 6 -1.32205 1
gene 2 7 8 -0.037098 0 7 -0.037098 1
gene 1 2 19 -0.190254 0 28 -0.190254 1
gene 1 19 8 -0.155583 0 29 -0.155583 1
gene 1 3 23 -2.76182 0 37 -2.76182 1
gene 1 23 8 -0.255287 0 38 -0.255287 1
genomeend 24

/* Organism #25 Fitness: 20 Error: 0 */
genomestart 25
trait 1 0.0875 0 0 0.00917042 0 0.0744408 0.0948746 0 
trait 2 0.2 0 0 0 0 0 0 0 
trait 3 0.3 0.355705 0.0315938 0.143934 0 0 0 0 
node 1 3 1 1
node 2 3 1 1
node 3 2 1 1
node 4 1 1 1
node 5 2 1 1
node 6 3 1 1
node 7 2 1 3
node 8 1 0 2
node 19 3 0 0
node 23 1 0 0
gene 2 1 8 -3.37793 0 1 -3.37793 1
gene 1 2 8 1.64533 0 2 1.64533 0
gene 1 3 8 1.99917 0 3 1.99917 0
gene 2 4 8 0.236417 0 4 0.236417 1
gene 1 5 8 2.28025 0 5 2.28025 1
gene 3 6 8 1.72813 0 6 1.72813 1
gene 2 7 8 0.345006 0 7 0.345006 1
gene 1 2 19 0.618301 0 28 0.618301 1
gene 1 19 8 -3.69373 0 29 -3.69373 1
gene 1 3 23 -2.20396 0 37 -2.20396 1
gene 1 23 8 -1.95015 0 38 -1.95015 1
genomeend 25

/* Organism #26 Fitness: 38 Error: 0 */
genomestart 26
trait 1 0.0875 0 0 0.00917042 0 0.0744408 0.0948746 0 
trait 2 0.2 0 0 0 0 0 0 0 
trait 3 0.3 0 0 0 0 0 0 0 
node 1 3 1 1
node 2 3 1 1
node 3 2 1 1
node 4 1 1 1
node 5 2 1 1
node 6 3 1 1
node 7 2 1 3
node 8 1 0 2
node 19 3 0 0
node 23 1 0 0
gene 2 1 8 -5.29695 0 1 -5.29695 1
gene 1 2 8 3.44724 0 2 3.44724 0
gene 1 3 8 -1.9098 0 3 -1.9098 1
gene 2 4 8 1.05932 0 4 1.05932 1
gene 1 5 8 8 0 5 8 1
gene 3 6 8 2.90684 0 6 2.90684 1
gene 2 7 8 0.248579 0 7 0.248579 1
gene 1 2 19 2.14944 0 28 2.14944 1
gene 1 19 8 -4.82591 0 29 -4.82591 1
gene 1 3 23 -0.75193 0 37 -0.75193 1
gene 1 23 8 0.0676969 0 38 0.0676969 1
genomeend 26

/* Organism #27 Fitness: 45 Error: 0 */
genomestart 27
trait 1 0.0875 0 0 0.00917042 0 0.0744408 0.0948746 0 
trait 2 0.2 0 0 0 0 0 0 0 
trait 3 0.3 0 0 0 0 0 0 0 
node 1 3 1 1
node 2 3 1 1
node 3 2 1 1
node 4 1 1 1
node 5 2 1 1
node 6 3 1 1
node 7 2 1 3
node 8 1 0 2
node 19 3 0 0
node 23 1 0 0
gene 2 1 8 -5.59268 0 1 -5.59268 1
gene 1 2 8 -1.02191 0 2 -1.02191 0
gene 1 3 8 2.39201 0 3 2.39201 0
gene 2 4 8 -0.341014 0 4 -0.341014 1
gene 1 5 8 5.37063 0 5 5.37063 1
gene 3 6 8 2.49295 0 6 2.49295 1
gene 2 7 8 -1.48217 0 7 -1.48217 1
gene 1 2 19 1.74022 0 28 1.74022 1
gene 1 19 8 -0.115531 0 29 -0.115531 1
gene 1 3 23 -1.4853 0 37 -1.4853 1
gene 1 23 8 -1.3869 0 38 -1.3869 1
genomeend 27

/* Species #5 : (Size 9) (AF 67.1111) (Age 12)  */


/* Organism #28 Fitness: 136 Error: 0 */
genomestart 28
trait 1 0.084375 0 0 0.011463 0.0163967 0.0993312 0.118593 0 
trait 2 0.17986 0 0 0 0 0 0 0 
trait 3 0.3 0 0 0.049705 0.090594 0 0 0 
node 1 3 1 1
node 2 1 1 1
node 3 2 1 1
node 4 1 1 1
node 5 1 1 1
node 6 1 1 1
node 7 1 1 3
node 8 3 0 2
node 24 1 0 0
gene 1 1 8 -2.24292 0 1 -2.24292 0
gene 2 2 8 1.83221 0 2 1.83221 1
gene 3 3 8 -3.75953 0 3 -3.75953 1
gene 3 4 8 -0.34712 0 4 -0.34712 1
gene 3 5 8 4.30222 0 5 4.30222 1
gene 3 6 8 1.2177 0 6 1.2177 1
gene 2 7 8 -0.169114 0 7 -0.169114 1
gene 2 1 24 1.41675 0 39 0.66675 1
gene 2 24 8 -0.601703 0 40 -0.000998112 1
gene 1 2 24 -0.97044 0 60 -0.97044 1
gene 2 5 24 -0.917591 0 92 -0.917591 1
gene 3 4 24 0.715967 0 110 0 1
genomeend 28

/* Organism #29 Fitness: 44 Error: 0 */
genomestart 29
trait 1 0.084375 0 0 0.011463 0.0163967 0.0993312 0.118593 0 
trait 2 0.17986 0 0 0 0 0 0 0 
trait 3 0.3 0 0 0.049705 0.090594 0 0 0 
node 1 3 1 1
node 2 3 1 1
node 3 2 1 1
node 4 1 1 1
node 5 1 1 1
node 6 1 1 1
node 7 1 1 3
node 8 3 0 2
node 24 1 0 0
gene 1 1 8 -0.389443 0 1 -0.389443 0
gene 2 2 8 6.00058 0 2 6.00058 1
gene 3 3 8 -2.59241 0 3 -2.59241 1
gene 3 4 8 1.25018 0 4 1.25018 1
gene 3 5 8 2.09127 0 5 2.09127 1
gene 3 6 8 0.944306 0 6 0.944306 1
gene 2 7 8 2.07951 0 7 2.07951 1
gene 2 1 24 -0.553 0 39 -0.553 1
gene 2 24 8 -1.372 0 40 -1.372 1
gene 1 2 24 0.280725 0 60 0.280725 1
gene 2 5 24 -0.628999 0 92 -0.628999 1
gene 3 4 24 2.8314 0 110 2.8314 1
genomeend 29

/* Organism #30 Fitness: 86 Error: 0 */
genomestart 30
trait 1 0.084375 0 0 0.011463 0.0163967 0.0993312 0.118593 0 
trait 2 0.17986 0 0 0 0 0 0 0 
trait 3 0.3 0 0 0.049705 0.090594 0 0 0 
node 1 3 1 1
node 2 1 1 1
node 3 2 1 1
node 4 1 1 1
node 5 1 1 1
node 6 1 1 1
node 7 1 1 3
node 8 3 0 2
node 24 1 0 0
gene 1 1 8 -2.24292 0 1 -2.24292 0
gene 2 2 8 1.83221 0 2 1.83221 1
gene 3 3 8 -2.86293 0 3 -2.86293 1
gene 3 4 8 -0.34712 0 4 -0.34712 1
gene 3 5 8 2.70209 0 5 2.70209 1
gene 3 6 8 1.30582 0 6 1.30582 1
gene 2 7 8 2.07951 0 7 2.07951 1
gene 2 1 24 -0.00164076 0 39 -0.00164076 1
gene 2 24 8 -2.44716 0 40 -2.44716 1
gene 1 2 24 -0.97044 0 60 -0.97044 1
gene 2 5 24 0.725662 0 92 0.725662 1
gene 3 4 24 0.715967 0 110 0 1
genomeend 30

/* Organism #31 Fitness: 40 Error: 0 */
genomestart 31
trait 1 0.084375 0 0 0.011463 0.0163967 0.0993312 0.118593 0 
trait 2 0.17986 0 0 0 0 0 0 0 
trait 3 0.3 0 0 0.049705 0.090594 0 0 0 
node 1 3 1 1
node 2 1 1 1
node 3 2 1 1
node 4 1 1 1
node 5 1 1 1
node 6 1 1 1
node 7 1 1 3
node 8 3 0 2
node 24 1 0 0
gene 1 1 8 -0.762994 0 1 -0.762994 0
gene 2 2 8 3.32181 0 2 3.32181 1
gene 3 3 8 -1.07622 0 3 -1.07622 1
gene 3 4 8 -1.76983 0 4 -1.76983 1
gene 3 5 8 5.54809 0 5 5.54809 1
gene 3 6 8 1.48232 0 6 1.48232 1
gene 2 7 8 3.16593 0 7 3.16593 1
gene 2 1 24 2.88814 0 39 2.88814 1
gene 2 24 8 -2.31797 0 40 -2.31797 1
gene 1 2 24 -0.933915 0 60 -0.933915 1
gene 2 5 24 -1.09757 0 92 -1.09757 1
gene 3 4 24 0.711776 0 110 0.711776 1
genomeend 31

/* Organism #32 Fitness: 49 Error: 0 */
genomestart 32
trait 1 0.084375 0 0 0.011463 0.0163967 0.0993312 0.118593 0 
trait 2 0.17986 0 0 0 0 0 0 0 
trait 3 0.3 0 0 0.049705 0.090594 0 0 0 
node 1 3 1 1
node 2 1 1 1
node 3 2 1 1
node 4 1 1 1
node 5 1 1 1
node 6 1 1 1
node 7 1 1 3
node 8 3 0 2
node 24 1 0 0
gene 1 1 8 -1.72538 0 1 -1.72538 0
gene 2 2 8 3.13663 0 2 3.13663 1
gene 3 3 8 -1.96298 0 3 -1.96298 1
gene 3 4 8 2.014 0 4 2.014 1
gene 3 5 8 4.73266 0 5 4.73266 1
gene 3 6 8 2.44174 0 6 2.44174 1
gene 2 7 8 0.701414 0 7 0.701414 1
gene 2 1 24 -1.93907 0 39 -1.93907 1
gene 2 24 8 -3.45688 0 40 -3.45688 1
gene 1 2 24 1.35862 0 60 1.35862 1
gene 2 5 24 -0.146169 0 92 -0.146169 1
gene 3 4 24 -0.727069 0 110 -0.727069 1
genomeend 32

/* Organism #33 Fitness: 101 Error: 0 */
genomestart 33
trait 1 0.084375 0 0 0.011463 0.0163967 0.0993312 0.118593 0 
trait 2 0.17986 0 0 0 0 0 0 0 
trait 3 0.3 0 0 0.049705 0.090594 0 0 0 
node 1 3 1 1
node 2 1 1 1
node 3 2 1 1
node 4 1 1 1
node 5 1 1 1
node 6 1 1 1
node 7 1 1 3
node 8 3 0 2
node 24 1 0 0
gene 1 1 8 -0.248141 0 1 -0.248141 0
gene 2 2 8 3.58526 0 2 3.58526 1
gene 3 3 8 -2.86293 0 3 -2.86293 1
gene 3 4 8 -0.633015 0 4 -0.633015 1
gene 3 5 8 2.70209 0 5 2.70209 1
gene 3 6 8 1.30582 0 6 1.30582 1
gene 2 7 8 2.07951 0 7 2.07951 1
gene 2 1 24 -0.00164076 0 39 -0.00164076 1
gene 2 24 8 -2.44716 0 40 -2.44716 1
gene 1 2 24 1.35862 0 60 1.35862 1
gene 2 5 24 0.725662 0 92 0.725662 1
gene 3 4 24 0.711776 0 110 0.711776 1
genomeend 33

/* Organism #34 Fitness: 108 Error: 0 */
genomestart 34
trait 1 0.084375 0 0 0.011463 0.0163967 0.0993312 0.118593 0 
trait 2 0.17986 0 0 0 0 0 0 0 
trait 3 0.3 0 0 0.049705 0.090594 0 0 0 
node 1 3 1 1
node 2 1 1 1
node 3 2 1 1
node 4 1 1 1
node 5 1 1 1
node 6 1 1 1
node 7 1 1 3
node 8 3 0 2
node 24 1 0 0
gene 1 1 8 -1.24553 0 1 -1.24553 0
gene 2 2 8 2.70873 0 2 2.70873 1
gene 3 3 8 -3.31123 0 3 -3.31123 1
gene 3 4 8 -0.490067 0 4 -0.490067 1
gene 3 5 8 3.50215 0 5 3.50215 1
gene 3 6 8 1.26176 0 6 1.26176 1
gene 2 7 8 0.955201 0 7 0.955201 1
gene 2 1 24 0.707555 0 39 0.332555 1
gene 2 24 8 -1.52443 0 40 -1.22408 1
gene 1 2 24 0.194093 0 60 0.194093 1
gene 2 5 24 -0.0959646 0 92 -0.0959646 1
gene 3 4 24 0.713871 0 110 0.355888 1
genomeend 34

/* Organism #35 Fitness: 5 Error: 0 */
genomestart 35
trait 1 0.084375 0 0 0.011463 0.0163967 0.0993312 0.118593 0 
trait 2 0.17986 0 0 0 0 0 0 0 
trait 3 0.3 0 0 0.049705 0.090594 0 0 0 
node 1 3 1 1
node 2 1 1 1
node 3 2 1 1
node 4 1 1 1
node 5 1 1 1
node 6 1 1 1
node 7 1 1 3
node 8 3 0 2
node 24 1 0 0
gene 1 1 8 0.927572 0 1 0.927572 0
gene 2 2 8 1.52246 0 2 1.52246 1
gene 2 3 8 -4.56155 0 3 -4.56155 1
gene 3 4 8 -2.28167 0 4 -2.28167 1
gene 3 5 8 4.12917 0 5 4.12917 1
gene 3 6 8 -1.44796 0 6 -1.44796 1
gene 2 7 8 3.71892 0 7 3.71892 1
gene 2 1 24 -1.46007 0 39 -1.46007 1
gene 2 24 8 -3.95169 0 40 -3.95169 1
gene 1 2 24 1.24548 0 60 1.24548 1
gene 2 5 24 -1.36738 0 92 -1.36738 1
gene 3 4 24 -0.755256 0 110 -0.755256 1
genomeend 35

/* Organism #36 Fitness: 35 Error: 0 */
genomestart 36
trait 1 0.084375 0 0 0.011463 0.0163967 0.0993312 0.118593 0 
trait 2 0.17986 0 0 0 0 0 0 0 
trait 3 0.3 0 0 0.049705 0.090594 0 0 0 
node 1 3 1 1
node 2 1 1 1
node 3 2 1 1
node 4 1 1 1
node 5 1 1 1
node 6 1 1 1
node 7 1 1 3
node 8 3 0 2
node 24 1 0 0
gene 1 1 8 -2.21831 0 1 -2.21831 0
gene 2 2 8 -0.737258 0 2 -0.737258 1
gene 3 3 8 -2.86293 0 3 -2.86293 1
gene 3 4 8 -0.912956 0 4 -0.912956 1
gene 3 5 8 3.23933 0 5 3.23933 1
gene 3 6 8 3.27608 0 6 3.27608 1
gene 2 7 8 2.54559 0 7 2.54559 1
gene 2 1 24 0.658871 0 39 0.658871 1
gene 2 24 8 -2.45076 0 40 -2.45076 1
gene 1 2 24 2.1324 0 60 2.1324 1
gene 2 5 24 0.491905 0 92 0.491905 1
gene 3 4 24 2.56122 0 110 2.56122 1
genomeend 36

/* Species #6 : (Size 10) (AF 57.3) (Age 12)  */


/* Organism #37 Fitness: 208 Error: 0 */
genomestart 37
trait 1 0.1 0 0 0.0128062 0 0 0 0 
trait 2 0.2 0 0 0 0 0 0 0 
trait 3 0.3 0 0 0 0 0 0 0 
node 1 3 1 1
node 2 3 1 1
node 3 2 1 1
node 4 1 1 1
node 5 2 1 1
node 6 3 1 1
node 7 2 1 3
node 8 1 0 2
node 19 1 0 0
node 36 1 0 0
node 51 1 0 0
node 65 1 0 0
node 70 1 0 0
gene 2 1 8 -0.424523 0 1 -0.424523 1
gene 1 2 8 3.00213 0 2 3.00213 0
gene 1 3 8 -1.25377 0 3 -1.25377 1
gene 2 4 8 -4.468 0 4 -4.468 1
gene 1 5 8 1.97892 0 5 1.97892 1
gene 3 6 8 1.88946 0 6 1.88946 1
gene 2 7 8 -0.893596 0 7 -0.893596 1
gene 1 2 19 2.90232 0 28 2.90232 0
gene 1 19 8 0.374197 0 29 0.374197 1
gene 1 7 19 0.536421 0 32 0.536421 1
gene 2 5 19 2.52338 0 43 2.52338 0
gene 1 6 19 1.93683 0 55 1.93683 0
gene 2 3 19 0.779385 0 63 0.779385 0
gene 2 5 36 1.31503 0 78 1.31503 1
gene 2 36 19 -1.67879 0 79 -1.67879 1
gene 2 3 51 1 0 125 0 1
gene 2 51 19 0.779385 0 126 0 1
gene 1 2 65 1 0 181 0 1
gene 1 65 19 2.90232 0 182 0 1
gene 1 6 70 1 0 200 0 1
gene 1 70 19 1.93683 0 201 0 1
genomeend 37

/* Organism #38 Fitness: 31 Error: 0 */
genomestart 38
trait 1 0.1 0 0 0.0128062 0 0 0 0 
trait 2 0.2 0 0 0 0 0 0 0 
trait 3 0.3 0 0 0 0 0 0 0 
node 1 3 1 1
node 2 3 1 1
node 3 2 1 1
node 4 1 1 1
node 5 2 1 1
node 6 3 1 1
node 7 2 1 3
node 8 1 0 2
node 19 1 0 0
node 36 1 0 0
node 51 1 0 0
node 65 1 0 0
gene 2 1 8 -2.552 0 1 -2.552 1
gene 1 2 8 3.00213 0 2 3.00213 0
gene 1 3 8 0.107749 0 3 0.107749 1
gene 2 4 8 -4.468 0 4 -4.468 1
gene 1 5 8 1.48587 0 5 1.48587 1
gene 3 6 8 3.97488 0 6 3.97488 1
gene 2 7 8 0.922221 0 7 0.922221 1
gene 1 2 19 4.13306 0 28 4.13306 0
gene 1 19 8 0.374197 0 29 0.374197 1
gene 1 7 19 0.0915325 0 32 0.0915325 1
gene 2 5 19 3.56423 0 43 3.56423 0
gene 1 6 19 1.93683 0 55 1.93683 1
gene 2 3 19 -0.546047 0 63 -0.546047 0
gene 2 5 36 0.763451 0 78 0.763451 1
gene 2 36 19 -1.12728 0 79 -1.12728 1
gene 2 3 51 -1.04334 0 125 -1.04334 1
gene 2 51 19 -0.105229 0 126 -0.105229 1
gene 1 2 65 -0.392924 0 181 -0.392924 1
gene 1 65 19 4.29273 0 182 4.29273 1
genomeend 38

/* Organism #39 Fitness: 58 Error: 0 */
genomestart 39
trait 1 0.1 0 0 0.0128062 0 0 0 0 
trait 2 0.2 0 0 0 0 0 0 0 
trait 3 0.3 0 0 0 0 0 0 0 
node 1 3 1 1
node 2 3 1 1
node 3 2 1 1
node 4 1 1 1
node 5 2 1 1
node 6 3 1 1
node 7 2 1 3
node 8 1 0 2
node 19 1 0 0
node 36 1 0 0
node 51 1 0 0
node 65 1 0 0
node 70 1 0 0
gene 2 1 8 -2.21261 0 1 -2.21261 1
gene 1 2 8 3.73649 0 2 3.73649 0
gene 1 3 8 0.744304 0 3 0.744304 1
gene 2 4 8 -2.77011 0 4 -2.77011 1
gene 1 5 8 3.92457 0 5 3.92457 1
gene 3 6 8 0.446728 0 6 0.446728 1
gene 2 7 8 -0.994722 0 7 -0.994722 1
gene 1 2 19 2.35481 0 28 2.35481 0
gene 1 19 8 -0.391448 0 29 -0.391448 1
gene 1 7 19 -0.181002 0 32 -0.181002 1
gene 2 5 19 2.95088 0 43 2.95088 0
gene 1 6 19 3.4321 0 55 3.4321 0
gene 2 3 19 -0.945519 0 63 -0.945519 0
gene 2 5 36 1.08991 0 78 1.08991 1
gene 2 36 19 -0.801016 0 79 -0.801016 1
gene 2 3 51 -1.34764 0 125 -1.34764 1
gene 2 51 19 1.39265 0 126 1.39265 1
gene 1 2 65 2.33069 0 181 2.33069 1
gene 1 65 19 1.35613 0 182 1.35613 1
gene 1 6 70 0.572937 0 200 0.572937 1
gene 1 70 19 1.06548 0 201 1.06548 1
genomeend 39

/* Organism #40 Fitness: 5 Error: 0 */
genomestart 40
trait 1 0.1 0 0 0.0128062 0 0 0 0 
trait 2 0.2 0 0 0 0 0 0 0 
trait 3 0.3 0 0 0 0 0 0 0 
node 1 3 1 1
node 2 3 1 1
node 3 2 1 1
node 4 1 1 1
node 5 2 1 1
node 6 3 1 1
node 7 2 1 3
node 8 1 0 2
node 19 1 0 0
node 36 1 0 0
node 51 1 0 0
node 65 1 0 0
gene 2 1 8 0.265173 0 1 0.265173 1
gene 1 2 8 4.86082 0 2 4.86082 0
gene 1 3 8 -2.48791 0 3 -2.48791 1
gene 2 4 8 -4.32968 0 4 -4.32968 1
gene 1 5 8 0.944942 0 5 0.944942 1
gene 3 6 8 0.273329 0 6 0.273329 1
gene 2 7 8 -3.26034 0 7 -3.26034 1
gene 1 2 19 4.71569 0 28 4.71569 0
gene 1 19 8 -1.39532 0 29 -1.39532 1
gene 1 7 19 -1.85172 0 32 -1.85172 1
gene 2 5 19 3.55298 0 43 3.55298 0
gene 1 6 19 0.221029 0 55 0.221029 1
gene 2 3 19 0.232022 0 63 0.232022 0
gene 2 5 36 0.120252 0 78 0.120252 1
gene 2 36 19 -3.42421 0 79 -3.42421 1
gene 2 3 51 1.22379 0 125 1.22379 1
gene 2 51 19 -1.9933 0 126 -1.9933 1
gene 1 2 65 0.621513 0 181 0.621513 1
gene 1 65 19 5.34143 0 182 5.34143 1
genomeend 40

/* Organism #41 Fitness: 5 Error: 0 */
genomestart 41
trait 1 0.1 0 0 0.0128062 0 0 0 0 
trait 2 0.2 0 0 0 0 0 0 0 
trait 3 0.3 0 0 0 0 0 0 0 
node 1 3 1 1
node 2 3 1 1
node 3 2 1 1
node 4 1 1 1
node 5 2 1 1
node 6 3 1 1
node 7 2 1 3
node 8 1 0 2
node 19 1 0 0
node 36 1 0 0
node 51 1 0 0
node 65 1 0 0
gene 2 1 8 1.44983 0 1 1.44983 1
gene 1 2 8 3.33068 0 2 3.33068 0
gene 1 3 8 -0.698836 0 3 -0.698836 1
gene 2 4 8 -3.98698 0 4 -3.98698 1
gene 1 5 8 -0.630887 0 5 -0.630887 1
gene 3 6 8 -0.274057 0 6 -0.274057 1
gene 2 7 8 -0.354856 0 7 -0.354856 1
gene 1 2 19 3.64485 0 28 3.64485 0
gene 1 19 8 -2.06439 0 29 -2.06439 1
gene 1 7 19 0.536421 0 32 0.536421 1
gene 2 5 19 1.8187 0 43 1.8187 0
gene 1 6 19 0.532343 0 55 0.532343 1
gene 2 3 19 0.21623 0 63 0.21623 0
gene 2 5 36 2.70037 0 78 2.70037 1
gene 2 36 19 -0.708211 0 79 -0.708211 1
gene 2 3 51 0.966177 0 125 0.966177 1
gene 2 51 19 1.72233 0 126 1.72233 1
gene 1 2 65 0.788178 0 181 0.788178 1
gene 1 65 19 0.189327 0 182 0.189327 1
genomeend 41

/* Organism #42 Fitness: 16 Error: 0 */
genomestart 42
trait 1 0.134424 0 0 0.0128062 0.739474 0 0 0.839433 
trait 2 0.2 0 0 0 0 0 0 0 
trait 3 0.3 0 0 0 0 0 0 0 
node 1 3 1 1
node 2 3 1 1
node 3 2 1 1
node 4 1 1 1
node 5 2 1 1
node 6 3 1 1
node 7 2 1 3
node 8 1 0 2
node 19 1 0 0
node 36 1 0 0
node 51 1 0 0
node 65 1 0 0
gene 2 1 8 -0.00672544 0 1 -0.00672544 1
gene 1 2 8 3.52278 0 2 3.52278 0
gene 1 3 8 -0.376489 0 3 -0.376489 1
gene 2 4 8 -2.5294 0 4 -2.5294 1
gene 1 5 8 3.88332 0 5 3.88332 1
gene 3 6 8 -0.196964 0 6 -0.196964 1
gene 2 7 8 -2.04738 0 7 -2.04738 1
gene 1 2 19 4.09406 0 28 4.09406 0
gene 1 19 8 1.6377 0 29 1.6377 1
gene 1 7 19 -2.27822 0 32 -2.27822 1
gene 2 5 19 -1.58112 0 43 -1.58112 0
gene 1 6 19 3.01017 0 55 3.01017 1
gene 2 3 19 2.27909 0 63 2.27909 0
gene 2 5 36 2.18402 0 78 2.18402 1
gene 2 36 19 1.23864 0 79 1.23864 1
gene 2 3 51 1 0 125 1 1
gene 2 51 19 3.17045 0 126 3.17045 1
gene 1 2 65 -1.43646 0 181 -1.43646 1
gene 1 65 19 4.13962 0 182 4.13962 1
genomeend 42

/* Organism #43 Fitness: 33 Error: 0 */
genomestart 43
trait 1 0.1 0 0 0.0128062 0 0 0 0 
trait 2 0.2 0 0 0 0 0 0 0 
trait 3 0.729197 0 0.0203524 0.332719 0.090929 0 0 0 
node 1 3 1 1
node 2 3 1 1
node 3 2 1 1
node 4 1 1 1
node 5 2 1 1
node 6 3 1 1
node 7 2 1 3
node 8 1 0 2
node 19 1 0 0
node 36 1 0 0
node 51 1 0 0
node 65 1 0 0
gene 2 1 8 -1.63776 0 1 -1.63776 1
gene 1 2 8 3.89749 0 2 3.89749 0
gene 1 3 8 1.029 0 3 1.029 1
gene 2 4 8 -6.59607 0 4 -6.59607 1
gene 1 5 8 -0.257172 0 5 -0.257172 1
gene 3 6 8 2.90233 0 6 2.90233 1
gene 2 7 8 -0.588164 0 7 -0.588164 1
gene 1 2 19 5.39456 0 28 5.39456 0
gene 1 19 8 1.7611 0 29 1.7611 1
gene 1 7 19 2.5829 0 32 2.5829 1
gene 2 5 19 1.09752 0 43 1.09752 0
gene 1 6 19 1.74425 0 55 1.74425 1
gene 2 3 19 -0.920277 0 63 -0.920277 0
gene 2 5 36 1.57544 0 78 1.57544 1
gene 2 36 19 -0.829672 0 79 -0.829672 1
gene 1 3 51 0.240498 0 125 0.240498 1
gene 2 51 19 -1.36702 0 126 -1.36702 1
gene 1 2 65 1.92868 0 181 1.92868 1
gene 1 65 19 2.90232 0 182 2.90232 1
genomeend 43

/* Organism #44 Fitness: 22 Error: 0 */
genomestart 44
trait 1 0.1 0 0 0.0128062 0 0 0 0 
trait 2 0.2 0 0 0 0 0 0 0 
trait 3 0.3 0 0 0 0 0 0 0 
node 1 3 1 1
node 2 3 1 1
node 3 2 1 1
node 4 1 1 1
node 5 2 1 1
node 6 3 1 1
node 7 2 1 3
node 8 1 0 2
node 19 1 0 0
node 36 1 0 0
node 51 1 0 0
node 65 1 0 0
gene 2 1 8 1.84118 0 1 1.84118 1
gene 1 2 8 3.20196 0 2 3.20196 1
gene 1 3 8 0.0529254 0 3 0.0529254 1
gene 2 4 8 -2.12618 0 4 -2.12618 1
gene 1 5 8 1.93163 0 5 1.93163 1
gene 3 6 8 1.88946 0 6 1.88946 1
gene 2 7 8 2.16272 0 7 2.16272 1
gene 1 2 19 0.610646 0 28 0.610646 0
gene 1 19 8 1.94221 0 29 1.94221 1
gene 1 7 19 2.0581 0 32 2.0581 1
gene 2 5 19 -0.885787 0 43 -0.885787 0
gene 1 6 19 0.707995 0 55 0.707995 1
gene 2 3 19 1.15438 0 63 1.15438 0
gene 2 5 36 0.942133 0 78 0.942133 1
gene 2 36 19 -1.3257 0 79 -1.3257 1
gene 2 3 51 1 0 125 1 1
gene 2 51 19 2.71691 0 126 2.71691 1
gene 1 2 65 1.33196 0 181 1.33196 1
gene 1 65 19 0.74241 0 182 0.74241 1
genomeend 44

/* Organism #45 Fitness: 110 Error: 0 */
genomestart 45
trait 1 0.1 0 0 0.0128062 0 0 0 0 
trait 2 0.2 0 0 0 0 0 0 0 
trait 3 0.3 0 0 0 0 0 0 0 
node 1 1 1 1
node 2 3 1 1
node 3 2 1 1
node 4 1 1 1
node 5 2 1 1
node 6 3 1 1
node 7 2 1 3
node 8 1 0 2
node 19 1 0 0
node 36 1 0 0
node 51 1 0 0
node 65 1 0 0
gene 2 1 8 -1.27774 0 1 -1.27774 1
gene 1 2 8 3.26068 0 2 3.26068 0
gene 1 3 8 -0.500331 0 3 -0.500331 1
gene 2 4 8 -2.74043 0 4 -2.74043 1
gene 1 5 8 3.19779 0 5 3.19779 1
gene 3 6 8 0.873626 0 6 0.873626 1
gene 2 7 8 -0.535385 0 7 -0.535385 1
gene 1 2 19 3.47667 0 28 3.47667 0
gene 1 19 8 -0.186791 0 29 -0.186791 1
gene 1 7 19 0.290891 0 32 0.290891 1
gene 2 5 19 4.48433 0 43 4.48433 0
gene 1 6 19 1.54185 0 55 1.54185 1
gene 2 3 19 -1.51745 0 63 -1.51745 0
gene 2 5 36 3.62445 0 78 3.62445 1
gene 2 36 19 -2.15857 0 79 -2.15857 1
gene 2 3 51 3.05657 0 125 3.05657 1
gene 2 51 19 0.11756 0 126 0.11756 1
gene 1 2 65 -0.937101 0 181 -0.937101 1
gene 1 65 19 3.94844 0 182 3.94844 1
genomeend 45

/* Organism #46 Fitness: 85 Error: 0 */
genomestart 46
trait 1 0.1 0 0 0.0128062 0 0 0 0 
trait 2 0.2 0 0 0 0 0 0 0 
trait 3 0.3 0 0 0 0 0 0 0 
node 1 1 1 1
node 2 3 1 1
node 3 2 1 1
node 4 1 1 1
node 5 2 1 1
node 6 3 1 1
node 7 2 1 3
node 8 1 0 2
node 19 1 0 0
node 36 1 0 0
node 51 1 0 0
node 65 1 0 0
gene 2 1 8 -1.30229 0 1 -1.30229 1
gene 1 2 8 1.34298 0 2 1.34298 0
gene 1 3 8 -3.34005 0 3 -3.34005 1
gene 2 4 8 -2.73739 0 4 -2.73739 1
gene 1 5 8 2.91044 0 5 2.91044 1
gene 3 6 8 1.63947 0 6 1.63947 1
gene 2 7 8 -0.388037 0 7 -0.388037 1
gene 1 2 19 4.70957 0 28 4.70957 0
gene 1 19 8 0.865276 0 29 0.865276 1
gene 1 7 19 -1.41561 0 32 -1.41561 1
gene 2 5 19 -0.303952 0 43 -0.303952 0
gene 1 6 19 2.65797 0 55 2.65797 1
gene 2 3 19 -0.0505705 0 63 -0.0505705 0
gene 2 5 36 1.11014 0 78 1.11014 1
gene 2 36 19 -1.56296 0 79 -1.56296 1
gene 2 3 51 0.671262 0 125 0.671262 1
gene 2 51 19 1.14197 0 126 1.14197 1
gene 1 2 65 0.912652 0 181 0.912652 1
gene 1 65 19 1.56839 0 182 1.56839 1
genomeend 46

/* Species #7 : (Size 9) (AF 42.6667) (Age 12)  */


/* Organism #47 Fitness: 159 Error: 0 */
genomestart 47
trait 1 0.354744 0.270619 0 0 0 0 0 0 
trait 2 0.2 0 0 0 0 0 0 0 
trait 3 0.3 0 0 0 0 0 0 0 
node 1 3 1 1
node 2 3 1 1
node 3 2 1 1
node 4 1 1 1
node 5 2 1 1
node 6 3 1 1
node 7 2 1 3
node 8 1 0 2
node 19 1 0 0
node 31 1 0 0
gene 2 1 8 -2.43141 0 1 -2.43141 1
gene 1 2 8 0.710833 0 2 0.710833 1
gene 1 3 8 -2.35029 0 3 -2.35029 1
gene 2 4 8 -1.1491 0 4 -1.1491 1
gene 1 5 8 2.20968 0 5 2.20968 1
gene 3 6 8 1.21664 0 6 1.21664 1
gene 2 7 8 0.0930652 0 7 0.0930652 1
gene 1 2 19 0.0522542 0 28 -0.447746 1
gene 1 19 8 -0.147833 0 29 -0.147833 1
gene 1 7 19 0.114611 0 32 0.114611 1
gene 2 1 19 -0.969738 0 41 -0.969738 0
gene 2 1 31 -0.791483 0 64 -1.29148 1
gene 2 31 19 -0.67631 0 65 -0.431937 1
genomeend 47

/* Organism #48 Fitness: 5 Error: 0 */
genomestart 48
trait 1 0.354744 0.270619 0 0 0 0 0 0 
trait 2 0.2 0 0 0 0 0 0 0 
trait 3 0.3 0 0 0 0 0 0 0 
node 1 3 1 1
node 2 3 1 1
node 3 2 1 1
node 4 1 1 1
node 5 2 1 1
node 6 3 1 1
node 7 2 1 3
node 8 1 0 2
node 19 1 0 0
node 31 1 0 0
gene 2 1 8 -1.29137 0 1 -1.29137 1
gene 1 2 8 0.710833 0 2 0.710833 1
gene 1 3 8 -1.10182 0 3 -1.10182 1
gene 2 4 8 2.062 0 4 2.062 1
gene 1 5 8 2.6759 0 5 2.6759 1
gene 3 6 8 -0.607058 0 6 -0.607058 1
gene 2 7 8 -1.12872 0 7 -1.12872 1
gene 1 2 19 0.0522542 0 28 0.0522542 1
gene 1 19 8 0.115544 0 29 0.115544 1
gene 1 7 19 2.33984 0 32 2.33984 1
gene 2 1 19 -0.692827 0 41 -0.692827 0
gene 2 1 31 0.700582 0 64 0.700582 1
gene 2 31 19 1.66501 0 65 1.66501 1
genomeend 48

/* Organism #49 Fitness: 36 Error: 0 */
genomestart 49
trait 1 0.361982 0.278307 0 0 0 0 0 0 
trait 2 0.2 0 0 0 0 0 0 0 
trait 3 0.3 0 0 0 0 0 0 0 
node 1 3 1 1
node 2 3 1 1
node 3 2 1 1
node 4 1 1 1
node 5 2 1 1
node 6 3 1 1
node 7 2 1 3
node 8 1 0 2
node 19 1 0 0
node 31 1 0 0
gene 2 1 8 -4.62721 0 1 -4.62721 1
gene 1 2 8 0.710833 0 2 0.710833 1
gene 1 3 8 -3.64566 0 3 -3.64566 1
gene 2 4 8 1.19964 0 4 1.19964 1
gene 1 5 8 3.09386 0 5 3.09386 1
gene 3 6 8 1.10663 0 6 1.10663 1
gene 2 7 8 -0.587293 0 7 -0.587293 1
gene 1 2 19 -2.43074 0 28 -2.43074 1
gene 1 19 8 1.15953 0 29 1.15953 1
gene 1 7 19 1.22847 0 32 1.22847 1
gene 2 1 19 0.897668 0 41 0.897668 0
gene 2 1 31 -2.59777 0 64 -2.59777 1
gene 2 31 19 -0.352139 0 65 -0.352139 1
genomeend 49

/* Organism #50 Fitness: 29 Error: 0 */
genomestart 50
trait 1 0.354744 0.270619 0 0 0 0 0 0 
trait 2 0.2 0 0 0 0 0 0 0 
trait 3 0.3 0 0 0 0 0 0 0 
node 1 3 1 1
node 2 3 1 1
node 3 2 1 1
node 4 1 1 1
node 5 2 1 1
node 6 3 1 1
node 7 2 1 3
node 8 1 0 2
node 19 1 0 0
node 31 1 0 0
gene 2 1 8 -2.17138 0 1 -2.17138 1
gene 1 2 8 -0.120076 0 2 -0.120076 1
gene 1 3 8 -2.35029 0 3 -2.35029 1
gene 2 4 8 -2.46127 0 4 -2.46127 1
gene 1 5 8 2.82813 0 5 2.82813 1
gene 3 6 8 2.18724 0 6 2.18724 1
gene 2 7 8 1.64867 0 7 1.64867 1
gene 1 2 19 0.660114 0 28 0.660114 1
gene 1 19 8 0.541167 0 29 0.541167 1
gene 1 7 19 2.14295 0 32 2.14295 1
gene 2 1 19 -0.0409038 0 41 -0.0409038 0
gene 2 1 31 -0.791483 0 64 -0.791483 1
gene 2 31 19 0.932362 0 65 0.932362 1
genomeend 50

/* Organism #51 Fitness: 30 Error: 0 */
genomestart 51
trait 1 0.354744 0.270619 0 0 0 0 0 0 
trait 2 0.2 0 0 0 0 0 0 0 
trait 3 0.3 0 0 0 0 0 0 0 
node 1 2 1 1
node 2 3 1 1
node 3 2 1 1
node 4 1 1 1
node 5 2 1 1
node 6 3 1 1
node 7 2 1 3
node 8 1 0 2
node 19 1 0 0
node 31 1 0 0
gene 2 1 8 -2.43141 0 1 -2.43141 1
gene 1 2 8 2.44558 0 2 2.44558 1
gene 1 3 8 -2.67801 0 3 -2.67801 1
gene 2 4 8 -2.16948 0 4 -2.16948 1
gene 1 5 8 1.50083 0 5 1.50083 1
gene 3 6 8 2.56443 0 6 2.56443 1
gene 2 7 8 -0.982933 0 7 -0.982933 1
gene 1 2 19 0.394381 0 28 0.394381 1
gene 1 19 8 -2.38444 0 29 -2.38444 1
gene 1 7 19 0.263247 0 32 0.263247 1
gene 2 1 19 0.688227 0 41 0.688227 0
gene 2 1 31 -1.52217 0 64 -1.52217 1
gene 2 31 19 0.0417622 0 65 0.0417622 1
genomeend 51

/* Organism #52 Fitness: 44 Error: 0 */
genomestart 52
trait 1 0.354744 0.270619 0 0 0 0 0 0 
trait 2 0.2 0 0 0 0 0 0 0 
trait 3 0.3 0 0 0 0 0 0 0 
node 1 3 1 1
node 2 3 1 1
node 3 2 1 1
node 4 1 1 1
node 5 2 1 1
node 6 3 1 1
node 7 2 1 3
node 8 1 0 2
node 19 1 0 0
node 31 1 0 0
gene 2 1 8 -0.0964817 0 1 -0.0964817 1
gene 1 2 8 1.30118 0 2 1.30118 1
gene 1 3 8 -1.19323 0 3 -1.19323 1
gene 2 4 8 0.0312879 0 4 0.0312879 1
gene 1 5 8 0.0509049 0 5 0.0509049 1
gene 3 6 8 2.06801 0 6 2.06801 1
gene 1 7 8 -0.804824 0 7 -0.804824 1
gene 1 2 19 -0.222853 0 28 -0.222853 1
gene 1 19 8 0.493874 0 29 0.493874 1
gene 1 7 19 1.24763 0 32 1.24763 1
gene 2 1 19 -2.21333 0 41 -2.21333 0
gene 2 1 31 1.6325 0 64 1.6325 1
gene 2 31 19 0.431098 0 65 0.431098 1
genomeend 52

/* Organism #53 Fitness: 23 Error: 0 */
genomestart 53
trait 1 0.354744 0.270619 0 0 0 0 0 0 
trait 2 0.2 0 0 0 0 0 0 0 
trait 3 0.3 0 0 0 0 0 0 0 
node 1 3 1 1
node 2 3 1 1
node 3 2 1 1
node 4 1 1 1
node 5 2 1 1
node 6 3 1 1
node 7 2 1 3
node 8 1 0 2
node 19 1 0 0
node 31 1 0 0
gene 2 1 8 -2.68717 0 1 -2.68717 1
gene 1 2 8 2.14221 0 2 2.14221 1
gene 1 3 8 -3.92966 0 3 -3.92966 1
gene 2 4 8 -1.83276 0 4 -1.83276 1
gene 1 5 8 0.228055 0 5 0.228055 1
gene 3 6 8 1.21664 0 6 1.21664 1
gene 2 7 8 -1.18975 0 7 -1.18975 1
gene 1 2 19 0.0522542 0 28 0.0522542 1
gene 1 19 8 -0.0287099 0 29 -0.0287099 1
gene 1 7 19 1.4646 0 32 1.4646 1
gene 2 1 19 0.791251 0 41 0.791251 0
gene 2 1 31 0.713911 0 64 0.713911 1
gene 2 31 19 -0.67631 0 65 -0.67631 1
genomeend 53

/* Organism #54 Fitness: 21 Error: 0 */
genomestart 54
trait 1 0.354744 0.270619 0.443548 0 0 0 0 0 
trait 2 0.2 0 0 0 0 0 0 0 
trait 3 0.3 0 0 0 0 0 0 0 
node 1 3 1 1
node 2 3 1 1
node 3 2 1 1
node 4 1 1 1
node 5 2 1 1
node 6 3 1 1
node 7 2 1 3
node 8 1 0 2
node 19 1 0 0
node 31 1 0 0
gene 2 1 8 -2.43827 0 1 -2.43827 1
gene 1 2 8 1.33031 0 2 1.33031 1
gene 1 3 8 -2.13982 0 3 -2.13982 1
gene 2 4 8 0.497461 0 4 0.497461 1
gene 1 5 8 1.80617 0 5 1.80617 1
gene 3 6 8 0.789637 0 6 0.789637 1
gene 2 7 8 0.810916 0 7 0.810916 1
gene 1 2 19 0.544927 0 28 0.544927 1
gene 1 19 8 1.93847 0 29 1.93847 1
gene 1 7 19 1.33039 0 32 1.33039 1
gene 2 1 19 -2.58113 0 41 -2.58113 0
gene 2 1 31 -0.0335306 0 64 -0.0335306 1
gene 2 31 19 0.946322 0 65 0.946322 1
genomeend 54

/* Organism #55 Fitness: 37 Error: 0 */
genomestart 55
trait 1 0.354744 0.270619 0 0 0 0 0 0 
trait 2 0.2 0 0 0 0 0 0 0 
trait 3 0.3 0 0 0 0 0 0 0 
node 1 3 1 1
node 2 3 1 1
node 3 2 1 1
node 4 1 1 1
node 5 2 1 1
node 6 3 1 1
node 7 2 1 3
node 8 1 0 2
node 19 1 0 0
node 31 1 0 0
gene 2 1 8 -3.61865 0 1 -3.61865 1
gene 1 2 8 1.64012 0 2 1.64012 1
gene 1 3 8 -1.08609 0 3 -1.08609 1
gene 2 4 8 -0.92077 0 4 -0.92077 1
gene 1 5 8 0.942708 0 5 0.942708 1
gene 3 6 8 2.4783 0 6 2.4783 1
gene 2 7 8 -1.77295 0 7 -1.77295 1
gene 1 2 19 0.541053 0 28 0.541053 1
gene 1 19 8 1.28764 0 29 1.28764 1
gene 1 7 19 -1.61923 0 32 -1.61923 1
gene 2 1 19 -2.54471 0 41 -2.54471 0
gene 2 1 31 -0.791483 0 64 -0.791483 1
gene 2 31 19 1.01458 0 65 1.01458 1
genomeend 55

/* Species #8 : (Size 8) (AF 55.375) (Age 12)  */


/* Organism #56 Fitness: 112 Error: 0 */
genomestart 56
trait 1 0.0875 0 0 0.00917042 0 0.0744408 0.0948746 0 
trait 2 0.2 0 0 0 0 0 0 0 
trait 3 0.3 0 0 0 0 0 0 0 
node 1 3 1 1
node 2 3 1 1
node 3 2 1 1
node 4 1 1 1
node 5 2 1 1
node 6 3 1 1
node 7 2 1 3
node 8 1 0 2
node 19 1 0 0
node 23 1 0 0
node 32 1 0 0
gene 2 1 8 -2.38566 0 1 -2.38566 1
gene 1 2 8 0.452497 0 2 0.452497 1
gene 1 3 8 -2.12328 0 3 -2.12328 1
gene 2 4 8 -3.10798 0 4 -3.10798 1
gene 1 5 8 4.40768 0 5 4.40768 1
gene 3 6 8 1.63539 0 6 1.63539 1
gene 2 7 8 -0.556888 0 7 -0.556888 1
gene 1 2 19 4.93753 0 28 4.93753 1
gene 1 19 8 -0.778261 0 29 -0.778261 1
gene 1 3 23 1.08823 0 37 1.08823 1
gene 1 23 8 -1.16808 0 38 -1.16808 1
gene 3 6 32 -0.898948 0 66 -0.898948 1
gene 3 32 8 4.27877 0 67 4.27877 1
gene 3 1 23 -0.836805 0 76 -0.836805 1
gene 2 3 32 -0.872773 0 116 -0.872773 1
genomeend 56

/* Organism #57 Fitness: 5 Error: 0 */
genomestart 57
trait 1 0.0875 0 0 0.00917042 0 0.0744408 0.0948746 0 
trait 2 0.570655 0 0.676627 0 0 0 0.0125673 0 
trait 3 0.3 0 0 0 0 0 0 0 
node 1 3 1 1
node 2 3 1 1
node 3 2 1 1
node 4 1 1 1
node 5 2 1 1
node 6 3 1 1
node 7 2 1 3
node 8 1 0 2
node 19 1 0 0
node 23 1 0 0
node 32 1 0 0
gene 2 1 8 -1.30243 0 1 -1.30243 1
gene 1 2 8 -1.03596 0 2 -1.03596 1
gene 1 3 8 0.170921 0 3 0.170921 1
gene 2 4 8 -1.72628 0 4 -1.72628 1
gene 1 5 8 3.09443 0 5 3.09443 1
gene 3 6 8 -0.484024 0 6 -0.484024 1
gene 2 7 8 -2.70962 0 7 -2.70962 1
gene 1 2 19 2.59643 0 28 2.59643 1
gene 1 19 8 -0.489881 0 29 -0.489881 1
gene 1 3 23 0.834114 0 37 0.834114 1
gene 1 23 8 -3.62126 0 38 -3.62126 1
gene 3 6 32 0.735479 0 66 0.735479 1
gene 3 32 8 2.13407 0 67 2.13407 1
gene 3 1 23 -1.76411 0 76 -1.76411 1
gene 2 3 32 -0.872773 0 116 -0.872773 1
gene 2 5 32 -0.533567 0 202 -0.533567 1
genomeend 57

/* Organism #58 Fitness: 38 Error: 0 */
genomestart 58
trait 1 0.0875 0 0 0.00917042 0 0.0744408 0.0948746 0 
trait 2 0.2 0 0 0 0 0 0 0 
trait 3 0.3 0 0 0 0 0 0 0 
node 1 3 1 1
node 2 3 1 1
node 3 2 1 1
node 4 1 1 1
node 5 2 1 1
node 6 3 1 1
node 7 2 1 3
node 8 1 0 2
node 19 1 0 0
node 23 1 0 0
node 32 1 0 0
gene 2 1 8 -0.499444 0 1 -0.499444 1
gene 1 2 8 0.721085 0 2 0.721085 1
gene 1 3 8 -0.853974 0 3 -0.853974 1
gene 2 4 8 -2.36106 0 4 -2.36106 1
gene 1 5 8 4.40768 0 5 4.40768 1
gene 3 6 8 1.63539 0 6 1.63539 1
gene 2 7 8 -0.417094 0 7 -0.417094 1
gene 1 2 19 -0.726574 0 28 -0.726574 1
gene 1 19 8 -2.56706 0 29 -2.56706 1
gene 1 3 23 0.605148 0 37 0.605148 1
gene 1 23 8 0.801727 0 38 0.801727 1
gene 3 6 32 2.36854 0 66 2.36854 1
gene 3 32 8 3.08515 0 67 3.08515 1
gene 3 1 23 -0.836805 0 76 -0.836805 1
gene 2 3 32 1.52449 0 116 1.52449 1
genomeend 58

/* Organism #59 Fitness: 23 Error: 0 */
genomestart 59
trait 1 0.0875 0 0 0.00917042 0 0.0744408 0.0948746 0 
trait 2 0.2 0 0 0 0 0 0 0 
trait 3 0.3 0 0 0 0 0 0 0 
node 1 3 1 1
node 2 3 1 1
node 3 2 1 1
node 4 1 1 1
node 5 2 1 1
node 6 3 1 1
node 7 2 1 3
node 8 1 0 2
node 19 1 0 0
node 23 1 0 0
node 32 1 0 0
gene 2 1 8 -0.238515 0 1 -0.238515 1
gene 1 2 8 -1.7722 0 2 -1.7722 1
gene 1 3 8 -2.12328 0 3 -2.12328 1
gene 2 4 8 -4.80175 0 4 -4.80175 1
gene 1 5 8 2.89614 0 5 2.89614 1
gene 3 6 8 2.97224 0 6 2.97224 1
gene 2 7 8 0.425883 0 7 0.425883 1
gene 1 2 19 4.93753 0 28 4.93753 1
gene 1 19 8 1.51498 0 29 1.51498 1
gene 1 3 23 2.11072 0 37 2.11072 1
gene 1 23 8 0.70583 0 38 0.70583 1
gene 3 6 32 1.17689 0 66 1.17689 1
gene 3 32 8 5.67873 0 67 5.67873 1
gene 3 1 23 -2.29342 0 76 -2.29342 1
gene 2 3 32 -1.97882 0 116 -1.97882 1
gene 2 5 32 -0.627198 0 202 -0.627198 1
genomeend 59

/* Organism #60 Fitness: 28 Error: 0 */
genomestart 60
trait 1 0.0875 0 0 0.00917042 0 0.0744408 0.0948746 0 
trait 2 0.2 0 0 0 0 0 0 0 
trait 3 0.3 0 0 0 0 0 0 0 
node 1 3 1 1
node 2 3 1 1
node 3 2 1 1
node 4 1 1 1
node 5 2 1 1
node 6 3 1 1
node 7 2 1 3
node 8 1 0 2
node 19 1 0 0
node 23 1 0 0
node 32 1 0 0
gene 2 1 8 -3.08583 0 1 -3.08583 1
gene 1 2 8 -0.802813 0 2 -0.802813 1
gene 1 3 8 -0.8526 0 3 -0.8526 1
gene 2 4 8 -4.18356 0 4 -4.18356 1
gene 1 5 8 3.22334 0 5 3.22334 1
gene 3 6 8 0.673499 0 6 0.673499 1
gene 2 7 8 1.53057 0 7 1.53057 1
gene 1 2 19 2.78454 0 28 2.78454 1
gene 1 19 8 -2.41743 0 29 -2.41743 1
gene 1 3 23 -0.158415 0 37 -0.158415 1
gene 1 23 8 -2.64736 0 38 -2.64736 1
gene 3 6 32 -0.146588 0 66 -0.146588 1
gene 3 32 8 6.22979 0 67 6.22979 1
gene 3 1 23 -0.423881 0 76 -0.423881 1
gene 2 3 32 -1.04814 0 116 -1.04814 1
genomeend 60

/* Organism #61 Fitness: 72 Error: 0 */
genomestart 61
trait 1 0.0875 0 0 0.00917042 0 0.0744408 0.0948746 0 
trait 2 0.2 0 0 0 0 0 0 0 
trait 3 0.3 0 0 0 0 0 0 0 
node 1 3 1 1
node 2 3 1 1
node 3 2 1 1
node 4 1 1 1
node 5 2 1 1
node 6 3 1 1
node 7 2 1 3
node 8 1 0 2
node 19 1 0 0
node 23 1 0 0
node 32 1 0 0
node 73 1 0 0
gene 2 1 8 -2.38566 0 1 -2.38566 1
gene 1 2 8 0.452497 0 2 0.452497 1
gene 1 3 8 -2.12328 0 3 -2.12328 1
gene 2 4 8 -3.10798 0 4 -3.10798 1
gene 1 5 8 4.40768 0 5 4.40768 1
gene 3 6 8 1.63539 0 6 1.63539 1
gene 2 7 8 -0.556888 0 7 -0.556888 1
gene 1 2 19 4.93753 0 28 4.93753 1
gene 1 19 8 -0.778261 0 29 -0.778261 1
gene 1 3 23 1.08823 0 37 1.08823 1
gene 1 23 8 -1.16808 0 38 -1.16808 1
gene 3 6 32 -0.898948 0 66 -0.898948 1
gene 3 32 8 4.27877 0 67 4.27877 1
gene 3 1 23 -0.836805 0 76 -0.836805 0
gene 2 3 32 -0.872773 0 116 -0.872773 1
gene 3 1 73 1 0 211 0 1
gene 3 73 23 -0.836805 0 212 0 1
genomeend 61

/* Organism #62 Fitness: 53 Error: 0 */
genomestart 62
trait 1 0.0875 0 0 0.00917042 0 0.0744408 0.0948746 0 
trait 2 0.2 0 0 0 0 0 0 0 
trait 3 0.3 0 0 0 0 0 0 0 
node 1 3 1 1
node 2 3 1 1
node 3 2 1 1
node 4 1 1 1
node 5 2 1 1
node 6 3 1 1
node 7 2 1 3
node 8 1 0 2
node 19 1 0 0
node 23 1 0 0
node 32 1 0 0
gene 2 1 8 -2.35342 0 1 -2.35342 1
gene 1 2 8 1.89397 0 2 1.89397 1
gene 1 3 8 -3.83511 0 3 -3.83511 1
gene 2 4 8 -0.508969 0 4 -0.508969 1
gene 1 5 8 6.26865 0 5 6.26865 1
gene 3 6 8 2.06909 0 6 2.06909 1
gene 2 7 8 -1.99368 0 7 -1.99368 1
gene 1 2 19 2.6888 0 28 2.6888 1
gene 1 19 8 -0.778261 0 29 -0.778261 1
gene 1 3 23 -0.0324962 0 37 -0.0324962 1
gene 1 23 8 1.1583 0 38 1.1583 1
gene 3 6 32 -1.8801 0 66 -1.8801 1
gene 3 32 8 -0.83168 0 67 -0.83168 1
gene 3 1 23 1.05849 0 76 1.05849 1
gene 2 3 32 2.08503 0 116 2.08503 1
genomeend 62

/* Organism #63 Fitness: 112 Error: 0 */
genomestart 63
trait 1 0.0875 0 0 0.00917042 0 0.0744408 0.0948746 0 
trait 2 0.2 0 0 0 0 0 0 0 
trait 3 0.3 0 0 0 0 0 0 0 
node 1 3 1 1
node 2 3 1 1
node 3 2 1 1
node 4 1 1 1
node 5 2 1 1
node 6 3 1 1
node 7 2 1 3
node 8 1 0 2
node 19 1 0 0
node 23 1 0 0
node 32 1 0 0
gene 2 1 8 -2.38566 0 1 -2.38566 1
gene 1 2 8 0.452497 0 2 0.452497 1
gene 1 3 8 -2.12328 0 3 -2.12328 1
gene 2 4 8 -3.10798 0 4 -3.10798 1
gene 1 5 8 4.40768 0 5 4.40768 1
gene 3 6 8 1.63539 0 6 1.63539 1
gene 2 7 8 -0.556888 0 7 -0.556888 1
gene 1 2 19 4.93753 0 28 4.93753 1
gene 1 19 8 -0.778261 0 29 -0.778261 1
gene 1 3 23 1.08823 0 37 1.08823 1
gene 1 23 8 -1.16808 0 38 -1.16808 1
gene 3 6 32 -0.898948 0 66 -0.898948 1
gene 3 32 8 4.27877 0 67 4.27877 1
gene 3 1 23 -0.836805 0 76 -0.836805 1
gene 2 3 32 -0.872773 0 116 -0.872773 1
genomeend 63

/* Species #9 : (Size 9) (AF 57.2222) (Age 12)  */


/* Organism #64 Fitness: 126 Error: 0 */
genomestart 64
trait 1 0.0875 0 0 0.00917042 0 0.0744408 0.0948746 0 
trait 2 0.2 0 0 0 0 0 0 0 
trait 3 0 0.110288 0 0.68069 0 0 0 0.763251 
node 1 3 1 1
node 2 3 1 1
node 3 2 1 1
node 4 1 1 1
node 5 2 1 1
node 6 3 1 1
node 7 2 1 3
node 8 1 0 2
node 19 1 0 0
node 23 1 0 0
node 37 1 0 0
node 61 1 0 0
gene 2 1 8 1.71191 0 1 1.71191 1
gene 1 2 8 -1.92408 0 2 -1.92408 0
gene 1 3 8 -1.3839 0 3 -1.3839 1
gene 2 4 8 -8 0 4 -8 1
gene 1 5 8 5.95976 0 5 5.95976 1
gene 3 6 8 2.53083 0 6 2.53083 1
gene 2 7 8 5.02604 0 7 5.02604 1
gene 1 2 19 1.33645 0 28 1.33645 1
gene 2 19 8 -1.54789 0 29 -1.54789 0
gene 1 3 23 -3.64119 0 37 -3.64119 0
gene 1 23 8 0.973763 0 38 0.973763 1
gene 1 7 23 -0.404142 0 69 -0.404142 1
gene 1 19 37 1.00744 0 83 1.00744 1
gene 1 37 8 -3.5168 0 84 -3.5168 1
gene 1 3 61 1.6289 0 161 1.6289 1
gene 1 61 23 -1.19435 0 162 -1.19435 1
genomeend 64

/* Organism #65 Fitness: 57 Error: 0 */
genomestart 65
trait 1 0.0875 0 0 0.00917042 0 0.0744408 0.0948746 0 
trait 2 0.2 0 0 0 0 0 0 0 
trait 3 0.3 0 0 0.176949 0 0 0 0 
node 1 3 1 1
node 2 3 1 1
node 3 2 1 1
node 4 1 1 1
node 5 2 1 1
node 6 3 1 1
node 7 2 1 3
node 8 1 0 2
node 19 1 0 0
node 23 1 0 0
node 37 1 0 0
node 61 1 0 0
gene 2 1 8 1.15359 0 1 1.15359 1
gene 1 2 8 -1.89785 0 2 -1.89785 0
gene 1 3 8 0.534448 0 3 0.534448 1
gene 2 4 8 -6.30956 0 4 -6.30956 1
gene 1 5 8 7.42245 0 5 7.42245 1
gene 3 6 8 2.99108 0 6 2.99108 1
gene 2 7 8 4.15438 0 7 4.15438 1
gene 1 2 19 3.31973 0 28 3.31973 1
gene 2 19 8 -3.88898 0 29 -3.88898 0
gene 1 3 23 -2.96295 0 37 -2.96295 0
gene 1 23 8 3.19945 0 38 3.19945 1
gene 1 7 23 -3.26291 0 69 -3.26291 1
gene 1 19 37 3.48268 0 83 3.48268 1
gene 1 37 8 -3.07441 0 84 -3.07441 1
gene 1 3 61 -0.885139 0 161 -0.885139 1
gene 1 61 23 0.789841 0 162 0.789841 1
genomeend 65

/* Organism #66 Fitness: 51 Error: 0 */
genomestart 66
trait 1 0.0875 0 0 0.00917042 0 0.0744408 0.0948746 0 
trait 2 0.2 0 0 0 0 0 0 0 
trait 3 0.3 0 0 0 0 0 0 0 
node 1 3 1 1
node 2 3 1 1
node 3 2 1 1
node 4 1 1 1
node 5 2 1 1
node 6 3 1 1
node 7 2 1 3
node 8 1 0 2
node 19 1 0 0
node 23 1 0 0
node 37 1 0 0
node 61 1 0 0
gene 2 1 8 -0.292905 0 1 -0.292905 1
gene 1 2 8 -1.91192 0 2 -1.91192 0
gene 1 3 8 -1.45209 0 3 -1.45209 1
gene 2 4 8 -6.74726 0 4 -6.74726 1
gene 1 5 8 8 0 5 8 1
gene 3 6 8 2.391 0 6 2.391 1
gene 2 7 8 2.24914 0 7 2.24914 1
gene 1 2 19 3.71423 0 28 3.71423 1
gene 2 19 8 -4.56874 0 29 -4.56874 0
gene 1 3 23 -3.26918 0 37 -3.26918 0
gene 1 23 8 2.89186 0 38 2.89186 1
gene 1 7 23 -4.20104 0 69 -4.20104 1
gene 1 19 37 0.987387 0 83 0.987387 1
gene 1 37 8 -1.12723 0 84 -1.12723 1
gene 1 3 61 1 0 161 1 1
gene 1 61 23 -1.27832 0 162 -1.27832 1
genomeend 66

/* Organism #67 Fitness: 47 Error: 0 */
genomestart 67
trait 1 0.0875 0 0 0.00917042 0 0.0744408 0.0948746 0 
trait 2 0.2 0 0 0 0 0 0 0 
trait 3 0.3 0 0 0 0 0 0 0 
node 1 3 1 1
node 2 3 1 1
node 3 2 1 1
node 4 1 1 1
node 5 2 1 1
node 6 3 1 1
node 7 2 1 3
node 8 1 0 2
node 19 1 0 0
node 23 1 0 0
node 37 1 0 0
node 61 1 0 0
gene 2 1 8 2.25299 0 1 2.25299 1
gene 1 2 8 -1.90185 0 2 -1.90185 0
gene 1 3 8 -1.29586 0 3 -1.29586 1
gene 2 4 8 -5.49859 0 4 -5.49859 1
gene 1 5 8 5.17171 0 5 5.17171 1
gene 3 6 8 2.2068 0 6 2.2068 1
gene 2 7 8 4.3712 0 7 4.3712 1
gene 1 2 19 1.52529 0 28 1.52529 1
gene 2 19 8 -4.71414 0 29 -4.71414 0
gene 1 3 23 -0.320316 0 37 -0.320316 0
gene 1 23 8 1.43578 0 38 1.43578 1
gene 1 7 23 0.0631999 0 69 0.0631999 1
gene 1 19 37 1.57283 0 83 1.57283 1
gene 1 37 8 -4.66283 0 84 -4.66283 1
gene 1 3 61 0.459371 0 161 0.459371 1
gene 1 61 23 -1.10253 0 162 -1.10253 1
genomeend 67

/* Organism #68 Fitness: 67 Error: 0 */
genomestart 68
trait 1 0.0875 0 0 0.00917042 0 0.0744408 0.0948746 0 
trait 2 0.2 0 0 0 0 0 0 0 
trait 3 0 0.110288 0 0.68069 0 0 0 0.763251 
node 1 3 1 1
node 2 3 1 1
node 3 2 1 1
node 4 1 1 1
node 5 2 1 1
node 6 3 1 1
node 7 2 1 3
node 8 1 0 2
node 19 3 0 0
node 23 1 0 0
node 37 1 0 0
node 61 1 0 0
gene 2 1 8 3.12563 0 1 3.12563 1
gene 1 2 8 0.465507 0 2 0.465507 0
gene 1 3 8 -1.14922 0 3 -1.14922 1
gene 2 4 8 -7.37051 0 4 -7.37051 1
gene 1 5 8 5.57469 0 5 5.57469 1
gene 3 6 8 3.50968 0 6 3.50968 1
gene 2 7 8 5.05725 0 7 5.05725 1
gene 1 2 19 -1.10862 0 28 -1.10862 1
gene 2 19 8 -1.92225 0 29 -1.92225 0
gene 1 3 23 -2.11813 0 37 -2.11813 0
gene 1 23 8 2.41897 0 38 2.41897 1
gene 1 7 23 0.0873286 0 69 0.0873286 1
gene 1 19 37 0.720887 0 83 0.720887 1
gene 1 37 8 -3.5168 0 84 -3.5168 1
gene 1 3 61 1.6289 0 161 1.6289 1
gene 1 61 23 -1.19435 0 162 -1.19435 1
genomeend 68

/* Organism #69 Fitness: 86 Error: 0 */
genomestart 69
trait 1 0.0875 0 0 0.00917042 0 0.0744408 0.0948746 0 
trait 2 0.2 0 0 0 0 0 0 0 
trait 3 0.3 0 0 0 0 0 0 0 
node 1 3 1 1
node 2 3 1 1
node 3 2 1 1
node 4 1 1 1
node 5 2 1 1
node 6 3 1 1
node 7 2 1 3
node 8 1 0 2
node 19 1 0 0
node 23 1 0 0
node 37 1 0 0
node 61 1 0 0
gene 2 1 8 2.04847 0 1 2.04847 1
gene 1 2 8 -4.30213 0 2 -4.30213 0
gene 1 3 8 -0.226742 0 3 -0.226742 1
gene 2 4 8 -6.3643 0 4 -6.3643 1
gene 1 5 8 7.342 0 5 7.342 1
gene 3 6 8 3.18459 0 6 3.18459 1
gene 2 7 8 4.15438 0 7 4.15438 1
gene 1 2 19 1.86405 0 28 1.86405 1
gene 2 19 8 -3.88898 0 29 -3.88898 0
gene 1 3 23 -1.27832 0 37 -1.27832 0
gene 1 23 8 1.87426 0 38 1.87426 1
gene 1 7 23 -2.20555 0 69 -2.20555 1
gene 1 19 37 1.32102 0 83 1.32102 1
gene 1 37 8 -3.43324 0 84 -3.43324 1
gene 1 3 61 1 0 161 0 1
gene 1 61 23 -1.27832 0 162 0 1
genomeend 69

/* Organism #70 Fitness: 36 Error: 0 */
genomestart 70
trait 1 0.0875 0 0 0.00917042 0 0.0744408 0.0948746 0 
trait 2 0.2 0 0 0 0 0 0 0 
trait 3 0.3 0 0 0 0 0 0 0 
node 1 3 1 1
node 2 3 1 1
node 3 2 1 1
node 4 1 1 1
node 5 2 1 1
node 6 3 1 1
node 7 2 1 3
node 8 1 0 2
node 19 1 0 0
node 23 1 0 0
node 37 1 0 0
node 61 1 0 0
gene 2 1 8 0.587218 0 1 0.587218 1
gene 1 2 8 -3.83516 0 2 -3.83516 0
gene 1 3 8 2.13277 0 3 2.13277 1
gene 2 4 8 -7.20384 0 4 -7.20384 1
gene 1 5 8 6.329 0 5 6.329 1
gene 3 6 8 2.07314 0 6 2.07314 1
gene 2 7 8 -1.71582 0 7 -1.71582 1
gene 1 2 19 0.925796 0 28 0.925796 1
gene 2 19 8 -5.52001 0 29 -5.52001 0
gene 1 3 23 -0.867236 0 37 -0.867236 0
gene 1 23 8 3.28759 0 38 3.28759 1
gene 1 7 23 -2.85341 0 69 -2.85341 1
gene 1 19 37 3.29504 0 83 3.29504 1
gene 1 37 8 -3.5168 0 84 -3.5168 1
gene 1 3 61 -0.997344 0 161 -0.997344 1
gene 1 61 23 -3.7731 0 162 -3.7731 1
genomeend 70

/* Organism #71 Fitness: 34 Error: 0 */
genomestart 71
trait 1 0.0875 0 0 0.00917042 0 0.0744408 0.0948746 0 
trait 2 0.2 0 0 0 0 0 0 0 
trait 3 0.15 0.0551442 0 0.340345 0 0 0 0.381626 
node 1 3 1 1
node 2 3 1 1
node 3 2 1 1
node 4 1 1 1
node 5 2 1 1
node 6 3 1 1
node 7 2 1 3
node 8 1 0 2
node 19 1 0 0
node 23 1 0 0
node 37 1 0 0
node 61 1 0 0
gene 2 1 8 4.18874 0 1 4.18874 1
gene 1 2 8 -1.90817 0 2 -1.90817 1
gene 1 3 8 1.62159 0 3 1.62159 1
gene 2 4 8 -5.75899 0 4 -5.75899 1
gene 1 5 8 4.23966 0 5 4.23966 1
gene 3 6 8 2.17726 0 6 2.17726 1
gene 2 7 8 5.3547 0 7 5.3547 1
gene 1 2 19 1.6032 0 28 1.6032 1
gene 2 19 8 -1.92305 0 29 -1.92305 0
gene 1 3 23 -4.35269 0 37 -4.35269 1
gene 1 23 8 3.06037 0 38 3.06037 1
gene 1 7 23 -0.446453 0 69 -0.446453 1
gene 1 19 37 0.15455 0 83 0.15455 1
gene 1 37 8 -3.47502 0 84 -3.47502 1
gene 1 3 61 1.51266 0 161 1.51266 1
gene 1 61 23 -1.23633 0 162 -1.23633 1
genomeend 71

/* Organism #72 Fitness: 11 Error: 0 */
genomestart 72
trait 1 0.0875 0 0 0.00917042 0 0.0744408 0.0948746 0 
trait 2 0.2 0 0 0 0 0 0 0 
trait 3 0.15 0.0551442 0 0.340345 0 0 0 0.381626 
node 1 3 1 1
node 2 3 1 1
node 3 2 1 1
node 4 1 1 1
node 5 2 1 1
node 6 3 1 1
node 7 2 1 3
node 8 1 0 2
node 19 1 0 0
node 23 1 0 0
node 37 1 0 0
node 61 1 0 0
gene 2 1 8 3.18755 0 1 3.18755 1
gene 1 2 8 -2.32045 0 2 -2.32045 0
gene 1 3 8 -1.31077 0 3 -1.31077 1
gene 2 4 8 -6.96835 0 4 -6.96835 1
gene 1 5 8 8 0 5 8 1
gene 3 6 8 0.800549 0 6 0.800549 1
gene 2 7 8 6.14065 0 7 6.14065 1
gene 1 2 19 -0.57277 0 28 -0.57277 1
gene 2 19 8 -1.98745 0 29 -1.98745 0
gene 1 3 23 -4.21282 0 37 -4.21282 0
gene 1 23 8 3.17324 0 38 3.17324 1
gene 1 7 23 -2.62452 0 69 -2.62452 1
gene 1 19 37 3.61514 0 83 3.61514 1
gene 1 37 8 -3.5168 0 84 -3.5168 1
gene 1 3 61 -1.18326 0 161 -1.18326 1
gene 1 61 23 -3.29946 0 162 -3.29946 1
genomeend 72

/* Species #10 : (Size 2) (AF 18) (Age 11)  */


/* Organism #73 Fitness: 22 Error: 0 */
genomestart 73
trait 1 0.1 0 0 0 0 0 0 0 
trait 2 0.2 0 0 0 0 0 0 0 
trait 3 0.3 0 0 0 0 0 0 0 
node 1 3 1 1
node 2 3 1 1
node 3 2 1 1
node 4 1 1 1
node 5 2 1 1
node 6 3 1 1
node 7 2 1 3
node 8 1 0 2
node 19 1 0 0
node 34 1 0 0
node 66 1 0 0
gene 2 1 8 0.442984 0 1 0.442984 1
gene 1 2 8 -1.09547 0 2 -1.09547 1
gene 1 3 8 -2.72924 0 3 -2.72924 1
gene 2 4 8 1.73322 0 4 1.73322 1
gene 1 5 8 2.01246 0 5 2.01246 0
gene 3 6 8 3.21965 0 6 3.21965 1
gene 2 7 8 -1.72064 0 7 -1.72064 1
gene 3 2 19 -0.377972 0 28 -0.377972 1
gene 1 19 8 0.70547 0 29 0.70547 1
gene 1 7 19 2.44187 0 32 2.44187 1
gene 3 3 19 -2.3202 0 52 -2.3202 1
gene 1 5 34 -1.47328 0 72 -1.47328 1
gene 1 34 8 1.47292 0 73 1.47292 0
gene 1 34 66 0.59899 0 185 0.59899 1
gene 1 66 8 2.46715 0 186 2.46715 1
genomeend 73

/* Organism #74 Fitness: 14 Error: 0 */
genomestart 74
trait 1 0.1 0 0 0 0 0 0 0 
trait 2 0.2 0 0 0 0 0 0 0 
trait 3 0.3 0 0 0 0 0 0 0 
node 1 3 1 1
node 2 3 1 1
node 3 2 1 1
node 4 1 1 1
node 5 2 1 1
node 6 3 1 1
node 7 1 1 3
node 8 1 0 2
node 19 1 0 0
node 34 1 0 0
gene 2 1 8 -1.03398 0 1 -1.03398 1
gene 1 2 8 -0.132534 0 2 -0.132534 1
gene 1 3 8 -1.51606 0 3 -1.51606 1
gene 2 4 8 0.482913 0 4 0.482913 1
gene 1 5 8 1.21375 0 5 1.21375 0
gene 3 6 8 1.95075 0 6 1.95075 1
gene 2 7 8 -2.28543 0 7 -2.28543 1
gene 3 2 19 3.50411 0 28 3.50411 1
gene 1 19 8 -0.289537 0 29 -0.289537 1
gene 1 7 19 0.197234 0 32 0.197234 1
gene 3 3 19 -3.59742 0 52 -3.59742 1
gene 1 5 34 -0.247093 0 72 -0.247093 1
gene 1 34 8 3.41724 0 73 3.41724 0
genomeend 74

/* Species #11 : (Size 7) (AF 42.5714) (Age 8)  */


/* Organism #75 Fitness: 73 Error: 0 */
genomestart 75
trait 1 0.1 0 0 0 0 0 0 0 
trait 2 0.2 0 0 0 0 0 0 0 
trait 3 0.3 0 0 0 0 0 0 0 
node 1 3 1 1
node 2 3 1 1
node 3 2 1 1
node 4 3 1 1
node 5 2 1 1
node 6 3 1 1
node 7 2 1 3
node 8 1 0 2
node 19 1 0 0
node 31 1 0 0
node 48 1 0 0
gene 2 1 8 -0.299744 0 1 -0.299744 1
gene 1 2 8 4.2805 0 2 4.2805 1
gene 1 3 8 0.232999 0 3 0.232999 1
gene 2 4 8 -0.959974 0 4 -0.959974 1
gene 1 5 8 4.78969 0 5 4.78969 1
gene 3 6 8 1.73699 0 6 1.73699 1
gene 2 7 8 -2.88102 0 7 -2.88102 1
gene 1 2 19 1.95978 0 28 1.95978 1
gene 1 19 8 -0.27807 0 29 -0.27807 1
gene 1 7 19 -0.242157 0 32 -0.242157 1
gene 2 1 19 1.90375 0 41 1.90375 0
gene 2 1 31 3.12291 0 64 3.12291 1
gene 2 31 19 -0.172313 0 65 -0.172313 1
gene 1 5 31 -2.32308 0 80 -2.32308 1
gene 3 3 31 -0.491868 0 101 -0.491868 1
gene 1 5 48 1.54054 0 114 1.54054 1
gene 1 48 8 0.50972 0 115 0.50972 1
genomeend 75

/* Organism #76 Fitness: 42 Error: 0 */
genomestart 76
trait 1 0.1 0 0 0 0 0 0 0 
trait 2 0.2 0 0 0 0 0 0 0 
trait 3 0.3 0 0 0 0 0 0 0 
node 1 3 1 1
node 2 3 1 1
node 3 2 1 1
node 4 3 1 1
node 5 2 1 1
node 6 3 1 1
node 7 2 1 3
node 8 1 0 2
node 19 1 0 0
node 31 1 0 0
node 48 1 0 0
gene 2 1 8 -1.34645 0 1 -1.34645 1
gene 1 2 8 5.08764 0 2 5.08764 1
gene 1 3 8 2.66364 0 3 2.66364 1
gene 2 4 8 0.82208 0 4 0.82208 1
gene 1 5 8 2.51498 0 5 2.51498 1
gene 3 6 8 3.73247 0 6 3.73247 1
gene 2 7 8 -4.4303 0 7 -4.4303 1
gene 1 2 19 1.53671 0 28 1.53671 1
gene 1 19 8 -1.07843 0 29 -1.07843 1
gene 1 7 19 0.780474 0 32 0.780474 1
gene 2 1 19 2.48098 0 41 2.48098 0
gene 2 1 31 1.91812 0 64 1.91812 1
gene 2 31 19 -1.27541 0 65 -1.27541 1
gene 1 5 31 -2.64689 0 80 -2.64689 1
gene 3 3 31 -0.491868 0 101 -0.491868 1
gene 1 5 48 -0.57682 0 114 -0.57682 1
gene 1 48 8 2.77662 0 115 2.77662 1
genomeend 76

/* Organism #77 Fitness: 52 Error: 0 */
genomestart 77
trait 1 0.1 0 0 0 0 0 0 0 
trait 2 0.2 0 0 0 0 0 0 0 
trait 3 0.3 0 0 0 0 0 0 0 
node 1 3 1 1
node 2 3 1 1
node 3 2 1 1
node 4 3 1 1
node 5 2 1 1
node 6 3 1 1
node 7 2 1 3
node 8 1 0 2
node 19 1 0 0
node 31 1 0 0
node 48 1 0 0
gene 2 1 8 1.69391 0 1 1.69391 1
gene 1 2 8 4.06257 0 2 4.06257 1
gene 1 3 8 0.738342 0 3 0.738342 1
gene 2 4 8 -1.33724 0 4 -1.33724 1
gene 1 5 8 2.29019 0 5 2.29019 1
gene 3 6 8 3.75275 0 6 3.75275 1
gene 2 7 8 -1.58698 0 7 -1.58698 1
gene 1 2 19 1.20084 0 28 1.20084 1
gene 1 19 8 0.014517 0 29 0.014517 1
gene 1 7 19 -1.46409 0 32 -1.46409 1
gene 2 1 19 0.867622 0 41 0.867622 0
gene 2 1 31 4.6615 0 64 4.6615 1
gene 2 31 19 0.682712 0 65 0.682712 1
gene 1 5 31 -4.50261 0 80 -4.50261 1
gene 3 3 31 -0.491868 0 101 -0.491868 1
gene 1 5 48 0.745194 0 114 0.745194 1
gene 1 48 8 0.0813033 0 115 0.0813033 1
genomeend 77

/* Organism #78 Fitness: 50 Error: 0 */
genomestart 78
trait 1 0.1 0 0 0 0 0 0 0 
trait 2 0.2 0 0 0 0 0 0 0 
trait 3 0.3 0 0 0 0 0 0 0 
node 1 3 1 1
node 2 3 1 1
node 3 2 1 1
node 4 3 1 1
node 5 2 1 1
node 6 3 1 1
node 7 2 1 3
node 8 1 0 2
node 19 1 0 0
node 31 1 0 0
node 48 1 0 0
node 72 1 0 0
gene 2 1 8 -0.0451019 0 1 -0.0451019 1
gene 1 2 8 2.27691 0 2 2.27691 1
gene 1 3 8 0.316466 0 3 0.316466 1
gene 2 4 8 -0.931526 0 4 -0.931526 1
gene 1 5 8 6.05275 0 5 6.05275 1
gene 3 6 8 1.89615 0 6 1.89615 1
gene 2 7 8 -3.75692 0 7 -3.75692 1
gene 1 2 19 2.32944 0 28 2.32944 1
gene 1 19 8 -1.6989 0 29 -1.6989 1
gene 1 7 19 -1.57548 0 32 -1.57548 1
gene 2 1 19 2.60569 0 41 2.60569 0
gene 2 1 31 3.12291 0 64 3.12291 1
gene 2 31 19 -0.172313 0 65 -0.172313 0
gene 1 5 31 -2.32308 0 80 -2.32308 1
gene 3 3 31 -1.12919 0 101 -1.12919 1
gene 1 5 48 1.91567 0 114 1.91567 1
gene 1 48 8 0.373459 0 115 0.373459 1
gene 2 31 72 1 0 206 0 1
gene 2 72 19 -0.172313 0 207 0 1
genomeend 78

/* Organism #79 Fitness: 6 Error: 0 */
genomestart 79
trait 1 0.1 0 0 0 0 0 0 0 
trait 2 0.2 0 0 0 0 0 0 0 
trait 3 0.3 0 0 0 0 0 0 0 
node 1 3 1 1
node 2 3 1 1
node 3 2 1 1
node 4 3 1 1
node 5 2 1 1
node 6 3 1 1
node 7 2 1 3
node 8 1 0 2
node 19 1 0 0
node 31 1 0 0
node 48 1 0 0
gene 2 1 8 -2.1132 0 1 -2.1132 1
gene 1 2 8 0.892391 0 2 0.892391 1
gene 1 3 8 2.72738 0 3 2.72738 1
gene 2 4 8 0.856315 0 4 0.856315 1
gene 1 5 8 3.68372 0 5 3.68372 1
gene 3 6 8 -0.301748 0 6 -0.301748 1
gene 2 7 8 -5.40565 0 7 -5.40565 1
gene 1 2 19 3.12445 0 28 3.12445 1
gene 1 19 8 0.698783 0 29 0.698783 1
gene 1 7 19 -2.24742 0 32 -2.24742 1
gene 2 1 19 1.74421 0 41 1.74421 0
gene 2 1 31 5.29583 0 64 5.29583 1
gene 2 31 19 1.50657 0 65 1.50657 0
gene 1 5 31 -1.19742 0 80 -1.19742 1
gene 3 3 31 0.712343 0 101 0.712343 1
gene 1 5 48 2.09567 0 114 2.09567 1
gene 1 48 8 2.03407 0 115 2.03407 1
genomeend 79

/* Organism #80 Fitness: 5 Error: 0 */
genomestart 80
trait 1 0.1 0 0 0 0 0 0 0 
trait 2 0.2 0 0 0 0 0 0 0 
trait 3 0.3 0 0 0 0 0 0 0 
node 1 3 1 1
node 2 3 1 1
node 3 2 1 1
node 4 3 1 1
node 5 2 1 1
node 6 3 1 1
node 7 2 1 3
node 8 1 0 2
node 19 1 0 0
node 31 1 0 0
node 48 1 0 0
gene 2 1 8 -0.172423 0 1 -0.172423 1
gene 1 2 8 3.15791 0 2 3.15791 1
gene 1 3 8 -1.50071 0 3 -1.50071 1
gene 2 4 8 0.193719 0 4 0.193719 1
gene 1 5 8 -2.34602 0 5 -2.34602 1
gene 3 6 8 -0.0495347 0 6 -0.0495347 1
gene 2 7 8 -5.3796 0 7 -5.3796 1
gene 1 2 19 2.29131 0 28 2.29131 1
gene 1 19 8 -1.03855 0 29 -1.03855 1
gene 1 7 19 -1.46936 0 32 -1.46936 1
gene 2 1 19 2.25472 0 41 2.25472 0
gene 2 1 31 -0.415591 0 64 -0.415591 1
gene 2 31 19 -2.65775 0 65 -2.65775 0
gene 1 5 31 -0.0849194 0 80 -0.0849194 1
gene 3 3 31 -1.92196 0 101 -1.92196 1
gene 1 5 48 3.15091 0 114 3.15091 1
gene 1 48 8 -0.740664 0 115 -0.740664 1
genomeend 80

/* Organism #81 Fitness: 70 Error: 0 */
genomestart 81
trait 1 0.1 0 0 0 0 0 0 0 
trait 2 0.2 0 0 0 0 0 0 0 
trait 3 0.3 0 0 0 0 0 0 0 
node 1 3 1 1
node 2 3 1 1
node 3 2 1 1
node 4 3 1 1
node 5 2 1 1
node 6 3 1 1
node 7 2 1 3
node 8 1 0 2
node 19 1 0 0
node 31 1 0 0
node 48 1 0 0
gene 2 1 8 -0.172423 0 1 -0.172423 1
gene 1 2 8 2.23271 0 2 2.23271 1
gene 1 3 8 0.274732 0 3 0.274732 1
gene 2 4 8 0.122356 0 4 0.122356 1
gene 1 5 8 2.92123 0 5 2.92123 1
gene 3 6 8 0.891734 0 6 0.891734 1
gene 2 7 8 -3.31897 0 7 -3.31897 1
gene 1 2 19 0.978542 0 28 0.978542 1
gene 1 19 8 -0.93115 0 29 -0.93115 1
gene 1 7 19 0.498102 0 32 0.498102 1
gene 2 1 19 3.7645 0 41 3.7645 0
gene 2 1 31 4.43027 0 64 4.43027 1
gene 2 31 19 -1.84484 0 65 -1.84484 0
gene 1 5 31 -1.72275 0 80 -1.72275 1
gene 3 3 31 1.53875 0 101 1.53875 1
gene 1 5 48 0.317399 0 114 0.317399 1
gene 1 48 8 2.91063 0 115 2.91063 1
genomeend 81

/* Species #12 : (Size 4) (AF 49.25) (Age 7)  */


/* Organism #82 Fitness: 45 Error: 0 */
genomestart 82
trait 1 0.1 0 0 0 0 0 0 0 
trait 2 0.110389 0 0 0 0 0 0 0 
trait 3 0.3 0 0 0 0 0 0 0 
node 1 3 1 1
node 2 3 1 1
node 3 2 1 1
node 4 3 1 1
node 5 2 1 1
node 6 3 1 1
node 7 2 1 3
node 8 1 0 2
node 19 1 0 0
node 50 1 0 0
gene 2 1 8 0.226311 0 1 0.226311 1
gene 1 2 8 -0.706069 0 2 -0.706069 0
gene 1 3 8 -2.82009 0 3 -2.82009 1
gene 2 4 8 -2.32858 0 4 -2.32858 1
gene 1 5 8 3.2565 0 5 3.2565 1
gene 3 6 8 2.86501 0 6 2.86501 1
gene 2 7 8 -1.36881 0 7 -1.36881 1
gene 1 2 19 2.66334 0 28 2.66334 0
gene 1 19 8 1.27845 0 29 1.27845 1
gene 1 7 19 -1.02021 0 32 -1.02021 1
gene 1 5 19 1.26672 0 97 1.26672 1
gene 1 2 50 1.63609 0 121 1.63609 1
gene 1 50 19 1.68269 0 122 1.68269 1
genomeend 82

/* Organism #83 Fitness: 84 Error: 0 */
genomestart 83
trait 1 0.1 0 0 0 0 0 0 0 
trait 2 0.110389 0 0 0 0 0 0 0 
trait 3 0.3 0 0 0 0 0 0 0 
node 1 3 1 1
node 2 3 1 1
node 3 2 1 1
node 4 3 1 1
node 5 2 1 1
node 6 3 1 1
node 7 2 1 3
node 8 1 0 2
node 19 1 0 0
node 50 1 0 0
gene 2 1 8 0.681678 0 1 0.681678 1
gene 1 2 8 0.286141 0 2 0.286141 1
gene 1 3 8 -3.95746 0 3 -3.95746 1
gene 3 4 8 -1.46412 0 4 -1.46412 1
gene 1 5 8 4.60226 0 5 4.60226 1
gene 3 6 8 4.50106 0 6 4.50106 1
gene 2 7 8 -1.83408 0 7 -1.83408 1
gene 1 2 19 2.75416 0 28 2.75416 1
gene 1 19 8 2.27257 0 29 2.27257 1
gene 1 7 19 -2.3669 0 32 -2.3669 1
gene 1 5 19 2.88657 0 97 2.88657 1
gene 1 2 50 -0.848223 0 121 -0.848223 1
gene 1 50 19 1.68269 0 122 1.68269 1
genomeend 83

/* Organism #84 Fitness: 27 Error: 0 */
genomestart 84
trait 1 0.1 0 0 0 0 0 0 0 
trait 2 0.110389 0 0 0 0 0 0 0 
trait 3 0.3 0 0 0 0 0 0 0 
node 1 3 1 1
node 2 3 1 1
node 3 2 1 1
node 4 3 1 1
node 5 2 1 1
node 6 3 1 1
node 7 2 1 3
node 8 1 0 2
node 19 1 0 0
node 50 1 0 0
gene 2 1 8 2.62786 0 1 2.62786 1
gene 1 2 8 -2.25988 0 2 -2.25988 0
gene 1 3 8 -0.857922 0 3 -0.857922 1
gene 2 4 8 -0.101852 0 4 -0.101852 1
gene 1 5 8 1.44583 0 5 1.44583 1
gene 3 6 8 2.89079 0 6 2.89079 1
gene 2 7 8 -5.26238 0 7 -5.26238 1
gene 3 2 19 2.45737 0 28 2.45737 1
gene 1 19 8 1.59839 0 29 1.59839 1
gene 1 7 19 0.158086 0 32 0.158086 1
gene 1 5 19 1.57343 0 97 1.57343 1
gene 1 2 50 1 0 121 1 1
gene 1 50 19 2.23946 0 122 2.23946 1
genomeend 84

/* Organism #85 Fitness: 41 Error: 0 */
genomestart 85
trait 1 0.1 0 0 0 0 0 0 0 
trait 2 0.110389 0 0 0 0 0 0 0 
trait 3 0.3 0 0 0 0 0 0 0 
node 1 3 1 1
node 2 3 1 1
node 3 2 1 1
node 4 3 1 1
node 5 2 1 1
node 6 3 1 1
node 7 2 1 3
node 8 1 0 2
node 19 1 0 0
node 50 1 0 0
gene 2 1 8 -1.64169 0 1 -1.64169 1
gene 1 2 8 -0.222512 0 2 -0.222512 0
gene 1 3 8 -3.94572 0 3 -3.94572 1
gene 2 4 8 -4.81493 0 4 -4.81493 1
gene 1 5 8 4.36503 0 5 4.36503 1
gene 3 6 8 4.26555 0 6 4.26555 1
gene 2 7 8 -0.552265 0 7 -0.552265 1
gene 1 2 19 4.0784 0 28 4.0784 0
gene 1 19 8 -1.1474 0 29 -1.1474 1
gene 1 7 19 -2.84135 0 32 -2.84135 1
gene 3 5 19 2.25833 0 97 2.25833 1
gene 1 2 50 1.63609 0 121 1.63609 1
gene 1 50 19 2.19276 0 122 2.19276 1
genomeend 85

/* Species #13 : (Size 6) (AF 41.3333) (Age 7)  */


/* Organism #86 Fitness: 86 Error: 0 */
genomestart 86
trait 1 0.084375 0 0 0.011463 0.0163967 0.0993312 0.118593 0 
trait 2 0.17986 0 0 0 0 0 0 0 
trait 3 0.3 0 0 0.049705 0.090594 0 0 0 
node 1 3 1 1
node 2 1 1 1
node 3 2 1 1
node 4 1 1 1
node 5 1 1 1
node 6 1 1 1
node 7 1 1 3
node 8 3 0 2
node 24 1 0 0
gene 2 1 8 -2.03337 0 1 -2.03337 1
gene 2 2 8 0.631564 0 2 0.631564 1
gene 3 3 8 -0.936667 0 3 -0.936667 1
gene 3 4 8 2.39341 0 4 2.39341 1
gene 3 5 8 6.57992 0 5 6.57992 1
gene 3 6 8 5.48976 0 6 5.48976 1
gene 2 7 8 -2.48539 0 7 -2.48539 1
gene 2 1 24 2.28038 0 39 2.28038 1
gene 2 24 8 0.478525 0 40 0.478525 1
gene 1 2 24 -0.335235 0 60 -0.335235 1
gene 1 4 24 1.15992 0 100 1.15992 1
genomeend 86

/* Organism #87 Fitness: 41 Error: 0 */
genomestart 87
trait 1 0.084375 0 0 0.011463 0.0163967 0.0993312 0.118593 0 
trait 2 0.17986 0 0 0 0 0 0 0 
trait 3 0.3 0 0 0.049705 0.090594 0 0 0 
node 1 3 1 1
node 2 1 1 1
node 3 2 1 1
node 4 1 1 1
node 5 1 1 1
node 6 1 1 1
node 7 1 1 3
node 8 3 0 2
node 24 1 0 0
gene 2 1 8 -4.52371 0 1 -4.52371 1
gene 2 2 8 2.80045 0 2 2.80045 1
gene 3 3 8 -0.936667 0 3 -0.936667 1
gene 3 4 8 3.49575 0 4 3.49575 1
gene 3 5 8 6.57992 0 5 6.57992 1
gene 3 6 8 5.48976 0 6 5.48976 1
gene 2 7 8 -4.67337 0 7 -4.67337 1
gene 2 1 24 3.98239 0 39 3.98239 1
gene 2 24 8 0.478525 0 40 0.478525 1
gene 1 2 24 -1.84275 0 60 -1.84275 1
gene 1 4 24 1.15992 0 100 1.15992 1
genomeend 87

/* Organism #88 Fitness: 5 Error: 0 */
genomestart 88
trait 1 0.084375 0 0 0.011463 0.0163967 0.0993312 0.118593 0 
trait 2 0.17986 0 0 0 0 0 0 0 
trait 3 0.3 0 0 0.049705 0.090594 0 0 0 
node 1 3 1 1
node 2 1 1 1
node 3 2 1 1
node 4 1 1 1
node 5 1 1 1
node 6 1 1 1
node 7 1 1 3
node 8 3 0 2
node 24 1 0 0
gene 2 1 8 1.20334 0 1 1.20334 1
gene 2 2 8 1.99272 0 2 1.99272 1
gene 3 3 8 -2.23325 0 3 -2.23325 1
gene 3 4 8 3.99895 0 4 3.99895 1
gene 3 5 8 4.09893 0 5 4.09893 1
gene 3 6 8 -2.28175 0 6 -2.28175 1
gene 2 7 8 -4.29326 0 7 -4.29326 1
gene 2 1 24 -0.676615 0 39 -0.676615 1
gene 2 24 8 2.14452 0 40 2.14452 1
gene 1 2 24 -0.335235 0 60 -0.335235 1
gene 1 4 24 3.69587 0 100 3.69587 1
genomeend 88

/* Organism #89 Fitness: 44 Error: 0 */
genomestart 89
trait 1 0.084375 0 0 0.011463 0.0163967 0.0993312 0.118593 0 
trait 2 0.17986 0 0 0 0 0 0 0 
trait 3 0.3 0 0 0.049705 0.090594 0 0 0 
node 1 3 1 1
node 2 1 1 1
node 3 2 1 1
node 4 1 1 1
node 5 1 1 1
node 6 1 1 1
node 7 1 1 3
node 8 3 0 2
node 24 1 0 0
gene 2 1 8 2.03531 0 1 2.03531 1
gene 2 2 8 3.62932 0 2 3.62932 1
gene 3 3 8 -0.928676 0 3 -0.928676 1
gene 3 4 8 5.76046 0 4 5.76046 1
gene 3 5 8 4.56195 0 5 4.56195 1
gene 3 6 8 5.03018 0 6 5.03018 1
gene 2 7 8 -2.32868 0 7 -2.32868 1
gene 2 1 24 4.89399 0 39 4.89399 1
gene 2 24 8 0.171156 0 40 0.171156 1
gene 1 2 24 -1.84275 0 60 -1.84275 1
gene 1 4 24 4.44369 0 100 4.44369 1
genomeend 89

/* Organism #90 Fitness: 44 Error: 0 */
genomestart 90
trait 1 0.084375 0 0 0.011463 0.0163967 0.0993312 0.118593 0 
trait 2 0.17986 0 0 0 0 0 0 0 
trait 3 0.3 0 0 0.049705 0.090594 0 0 0 
node 1 3 1 1
node 2 1 1 1
node 3 2 1 1
node 4 1 1 1
node 5 1 1 1
node 6 1 1 1
node 7 1 1 3
node 8 3 0 2
node 24 1 0 0
gene 2 1 8 -1.47569 0 1 -1.47569 1
gene 2 2 8 1.01792 0 2 1.01792 1
gene 3 3 8 0.361297 0 3 0.361297 1
gene 3 4 8 0.924289 0 4 0.924289 1
gene 3 5 8 6.03557 0 5 6.03557 1
gene 1 6 8 5.76382 0 6 5.76382 1
gene 2 7 8 -4.62555 0 7 -4.62555 1
gene 2 1 24 -0.12708 0 39 -0.12708 1
gene 2 24 8 0.394039 0 40 0.394039 1
gene 1 2 24 -1.93271 0 60 -1.93271 1
gene 1 4 24 2.13681 0 100 2.13681 1
genomeend 90

/* Organism #91 Fitness: 28 Error: 0 */
genomestart 91
trait 1 0.084375 0 0 0.011463 0.0163967 0.0993312 0.118593 0 
trait 2 0.17986 0 0 0 0 0 0 0 
trait 3 0.3 0 0 0.049705 0.090594 0 0 0 
node 1 3 1 1
node 2 1 1 1
node 3 2 1 1
node 4 1 1 1
node 5 1 1 1
node 6 1 1 1
node 7 1 1 3
node 8 3 0 2
node 24 1 0 0
gene 2 1 8 -3.89278 0 1 -3.89278 1
gene 2 2 8 1.14569 0 2 1.14569 1
gene 3 3 8 1.0298 0 3 1.0298 1
gene 3 4 8 2.20785 0 4 2.20785 1
gene 3 5 8 5.86418 0 5 5.86418 1
gene 3 6 8 6.82083 0 6 6.82083 1
gene 2 7 8 1.67172 0 7 1.67172 1
gene 2 1 24 3.92553 0 39 3.92553 1
gene 2 24 8 1.81436 0 40 1.81436 1
gene 1 2 24 -0.511739 0 60 -0.511739 1
gene 1 4 24 -0.484108 0 100 -0.484108 1
genomeend 91

/* Species #14 : (Size 1) (AF 5) (Age 7)  */


/* Organism #92 Fitness: 5 Error: 0 */
genomestart 92
trait 1 0.0875 0 0 0.00917042 0 0.0744408 0.0948746 0 
trait 2 0.2 0 0 0 0 0 0 0 
trait 3 1 0 0 0 0 0 0 0 
node 1 3 1 1
node 2 3 1 1
node 3 2 1 1
node 4 1 1 1
node 5 2 1 1
node 6 2 1 1
node 7 2 1 3
node 8 1 0 2
node 19 1 0 0
node 23 1 0 0
node 32 1 0 0
gene 2 1 8 -6.11156 0 1 -6.11156 1
gene 1 2 8 -3.67985 0 2 -3.67985 1
gene 1 3 8 -3.32398 0 3 -3.32398 1
gene 2 4 8 -5.74376 0 4 -5.74376 1
gene 1 5 8 2.83063 0 5 2.83063 1
gene 3 6 8 0.0431051 0 6 0.0431051 0
gene 2 7 8 0.213936 0 7 0.213936 1
gene 1 2 19 3.52131 0 28 3.52131 1
gene 1 19 8 -0.358194 0 29 -0.358194 1
gene 1 3 23 2.66943 0 37 2.66943 1
gene 1 23 8 -5.05683 0 38 -5.05683 1
gene 3 6 32 -1.02528 0 66 -1.02528 1
gene 3 32 8 -1.5885 0 67 -1.5885 1
gene 3 1 23 -1.24229 0 76 -1.24229 1
gene 1 1 32 0.622817 0 117 0.622817 1
gene 3 19 23 -0.586509 0 127 -0.586509 1
gene 2 5 32 -0.533567 0 202 0 1
genomeend 92

/* Species #15 : (Size 4) (AF 27.75) (Age 7)  */


/* Organism #93 Fitness: 24 Error: 0 */
genomestart 93
trait 1 0.0875 0 0 0.00917042 0 0.0744408 0.0948746 0 
trait 2 0.38799 0.149688 0 0.667406 0 0.495571 0 0.830423 
trait 3 0.3 0 0 0 0 0 0 0 
node 1 3 1 1
node 2 3 1 1
node 3 2 1 1
node 4 1 1 1
node 5 2 1 1
node 6 2 1 1
node 7 2 1 3
node 8 1 0 2
node 19 1 0 0
node 23 1 0 0
node 32 1 0 0
node 52 1 0 0
gene 2 1 8 -1.51822 0 1 -1.51822 1
gene 1 2 8 2.33817 0 2 2.33817 0
gene 1 3 8 -4.58697 0 3 -4.58697 0
gene 2 4 8 -0.723298 0 4 -0.723298 1
gene 1 5 8 6.1825 0 5 6.1825 1
gene 3 6 8 -0.426859 0 6 -0.426859 0
gene 2 7 8 0.391346 0 7 0.391346 1
gene 1 2 19 4.71302 0 28 4.71302 1
gene 1 19 8 -2.29683 0 29 -2.29683 1
gene 1 3 23 2.71633 0 37 2.71633 0
gene 1 23 8 -1.60451 0 38 -1.60451 1
gene 3 6 32 0.117116 0 66 0.117116 1
gene 3 32 8 0.333277 0 67 0.333277 1
gene 3 1 23 1.51041 0 76 1.51041 1
gene 1 3 52 -0.950478 0 128 -0.950478 1
gene 1 52 23 2.24011 0 129 2.24011 1
genomeend 93

/* Organism #94 Fitness: 31 Error: 0 */
genomestart 94
trait 1 0.0875 0 0 0.00917042 0 0.0744408 0.0948746 0 
trait 2 0.38799 0.149688 0 0.667406 0 0.495571 0 0.830423 
trait 3 0.3 0 0 0 0 0 0 0 
node 1 3 1 1
node 2 3 1 1
node 3 2 1 1
node 4 1 1 1
node 5 2 1 1
node 6 2 1 1
node 7 2 1 3
node 8 1 0 2
node 19 1 0 0
node 23 1 0 0
node 32 1 0 0
node 52 1 0 0
gene 2 1 8 -0.349329 0 1 -0.349329 1
gene 1 2 8 3.06983 0 2 3.06983 0
gene 1 3 8 -4.61184 0 3 -4.61184 0
gene 2 4 8 -2.80291 0 4 -2.80291 1
gene 1 5 8 8 0 5 8 1
gene 3 6 8 0.0583818 0 6 0.0583818 0
gene 2 7 8 1.55647 0 7 1.55647 1
gene 1 2 19 1.66821 0 28 1.66821 1
gene 1 19 8 -3.54223 0 29 -3.54223 1
gene 1 3 23 0.605491 0 37 0.605491 0
gene 1 23 8 -0.606213 0 38 -0.606213 1
gene 3 6 32 3.64202 0 66 3.64202 1
gene 3 32 8 3.59447 0 67 3.59447 1
gene 3 1 23 1.91642 0 76 1.91642 1
gene 1 3 52 -2.8316 0 128 -2.8316 1
gene 1 52 23 4.1345 0 129 4.1345 1
genomeend 94

/* Organism #95 Fitness: 34 Error: 0 */
genomestart 95
trait 1 0.0875 0 0 0.00917042 0 0.0744408 0.0948746 0 
trait 2 0.38799 0.149688 0 0.667406 0 0.495571 0 0.830423 
trait 3 0.3 0 0 0 0 0 0 0 
node 1 3 1 1
node 2 3 1 1
node 3 2 1 1
node 4 1 1 1
node 5 2 1 1
node 6 2 1 1
node 7 2 1 3
node 8 1 0 2
node 19 1 0 0
node 23 1 0 0
node 32 1 0 0
node 52 1 0 0
gene 2 1 8 -0.671269 0 1 -0.671269 1
gene 1 2 8 -1.71262 0 2 -1.71262 0
gene 1 3 8 -4.65155 0 3 -4.65155 0
gene 2 4 8 -0.409961 0 4 -0.409961 1
gene 1 5 8 8 0 5 8 1
gene 3 6 8 1.03124 0 6 1.03124 0
gene 2 7 8 3.31055 0 7 3.31055 1
gene 1 2 19 3.87847 0 28 3.87847 1
gene 1 19 8 -3.87263 0 29 -3.87263 1
gene 1 3 23 0.410037 0 37 0.410037 0
gene 1 23 8 -2.94405 0 38 -2.94405 1
gene 3 6 32 1.41568 0 66 1.41568 1
gene 3 32 8 3.763 0 67 3.763 1
gene 3 1 23 4.23077 0 76 4.23077 1
gene 1 3 52 -0.734873 0 128 -0.734873 1
gene 1 52 23 2.58326 0 129 2.58326 1
genomeend 95

/* Organism #96 Fitness: 22 Error: 0 */
genomestart 96
trait 1 0.788645 0 0.371733 0.487806 0 0.0744408 0.0948746 0 
trait 2 0.38799 0.149688 0 0.667406 0 0.495571 0 0.830423 
trait 3 0.3 0 0 0 0 0 0 0 
node 1 3 1 1
node 2 3 1 1
node 3 2 1 1
node 4 1 1 1
node 5 2 1 1
node 6 2 1 1
node 7 2 1 3
node 8 1 0 2
node 19 1 0 0
node 23 1 0 0
node 32 1 0 0
node 52 1 0 0
gene 2 1 8 1.81345 0 1 1.81345 1
gene 1 2 8 -0.864941 0 2 -0.864941 0
gene 1 3 8 -1.9469 0 3 -1.9469 0
gene 2 4 8 -0.0801763 0 4 -0.0801763 1
gene 1 5 8 5.65984 0 5 5.65984 1
gene 3 6 8 -0.679695 0 6 -0.679695 0
gene 2 7 8 3.33027 0 7 3.33027 1
gene 1 2 19 0.966473 0 28 0.966473 1
gene 1 19 8 -0.107128 0 29 -0.107128 1
gene 1 3 23 2.83304 0 37 2.83304 0
gene 1 23 8 -2.06898 0 38 -2.06898 1
gene 3 6 32 0.794931 0 66 0.794931 1
gene 3 32 8 4.44269 0 67 4.44269 1
gene 3 1 23 3.29802 0 76 3.29802 1
gene 1 3 52 0.204659 0 128 0.204659 1
gene 1 52 23 1.95265 0 129 1.95265 1
genomeend 96

/* Species #16 : (Size 6) (AF 62.1667) (Age 6)  */


/* Organism #97 Fitness: 203 Error: 0 */
genomestart 97
trait 1 0.084375 0 0 0.011463 0.0163967 0.0993312 0.118593 0 
trait 2 0.17986 0 0 0 0 0 0 0 
trait 3 0.3 0 0 0.049705 0.090594 0 0 0 
node 1 3 1 1
node 2 1 1 1
node 3 2 1 1
node 4 1 1 1
node 5 1 1 1
node 6 1 1 1
node 7 1 1 3
node 8 3 0 2
node 24 1 0 0
gene 1 1 8 -1.76508 0 1 -1.76508 1
gene 2 2 8 1.83221 0 2 1.83221 1
gene 3 3 8 -3.93269 0 3 -3.93269 1
gene 3 4 8 -1.43761 0 4 -1.43761 1
gene 3 5 8 5.52291 0 5 5.52291 1
gene 3 6 8 1.29495 0 6 1.29495 1
gene 2 7 8 0.447718 0 7 0.447718 1
gene 2 1 24 1.31843 0 39 0.943431 1
gene 2 24 8 -0.819698 0 40 -0.519346 1
gene 1 2 24 -1.40703 0 60 -1.40703 1
gene 2 5 24 -0.917591 0 92 -0.917591 1
gene 2 7 24 0.594029 0 123 0.594029 1
gene 3 6 24 0.769071 0 136 0.769071 1
gene 2 4 24 0.849194 0 153 0.849194 1
genomeend 97

/* Organism #98 Fitness: 52 Error: 0 */
genomestart 98
trait 1 0.084375 0 0 0.011463 0.0163967 0.0993312 0.118593 0 
trait 2 0.17986 0 0 0 0 0 0 0 
trait 3 0.3 0 0 0.049705 0.090594 0 0 0 
node 1 3 1 1
node 2 1 1 1
node 3 2 1 1
node 4 1 1 1
node 5 1 1 1
node 6 1 1 1
node 7 1 1 3
node 8 3 0 2
node 24 1 0 0
gene 1 1 8 -0.846083 0 1 -0.846083 0
gene 2 2 8 2.7254 0 2 2.7254 1
gene 3 3 8 -4.04419 0 3 -4.04419 1
gene 3 4 8 -2.3453 0 4 -2.3453 1
gene 3 5 8 5.39844 0 5 5.39844 1
gene 3 6 8 2.13734 0 6 2.13734 1
gene 2 7 8 -0.54949 0 7 -0.54949 1
gene 2 1 24 1.31981 0 39 1.13231 1
gene 2 24 8 -1.68147 0 40 -1.53129 1
gene 1 2 24 -1.94815 0 60 -1.94815 1
gene 2 5 24 -1.02565 0 92 -1.02565 1
gene 2 7 24 1.49465 0 123 1.49465 1
gene 3 6 24 -0.307493 0 136 -0.307493 1
gene 2 4 24 0.178525 0 153 0.178525 1
genomeend 98

/* Organism #99 Fitness: 34 Error: 0 */
genomestart 99
trait 1 0.084375 0 0 0.011463 0.0163967 0.0993312 0.118593 0 
trait 2 0.17986 0 0 0 0 0 0 0 
trait 3 0.3 0 0 0.049705 0.090594 0 0 0 
node 1 3 1 1
node 2 1 1 1
node 3 2 1 1
node 4 1 1 1
node 5 1 1 1
node 6 1 1 1
node 7 1 1 3
node 8 3 0 2
node 24 1 0 0
gene 1 1 8 -2.40423 0 1 -2.40423 0
gene 2 2 8 4.03975 0 2 4.03975 1
gene 3 3 8 -4.91747 0 3 -4.91747 1
gene 3 4 8 -2.30458 0 4 -2.30458 1
gene 3 5 8 4.7881 0 5 4.7881 1
gene 3 6 8 2.88298 0 6 2.88298 1
gene 2 7 8 -3.07343 0 7 -3.07343 1
gene 2 1 24 2.74239 0 39 2.74239 1
gene 2 24 8 -3.6251 0 40 -3.6251 1
gene 1 2 24 -3.66549 0 60 -3.66549 1
gene 2 5 24 0.870976 0 92 0.870976 1
gene 2 7 24 0.334609 0 123 0.334609 1
gene 3 6 24 -2.28419 0 136 -2.28419 1
gene 2 4 24 0.964657 0 153 0.964657 1
genomeend 99

/* Organism #100 Fitness: 36 Error: 0 */
genomestart 100
trait 1 0.084375 0 0 0.011463 0.0163967 0.0993312 0.118593 0 
trait 2 0.17986 0 0 0 0 0 0 0 
trait 3 0 0 0 0.361977 0 0 0 0.428237 
node 1 3 1 1
node 2 1 1 1
node 3 2 1 1
node 4 1 1 1
node 5 2 1 1
node 6 1 1 1
node 7 1 1 3
node 8 3 0 2
node 24 1 0 0
gene 1 1 8 -3.95586 0 1 -3.95586 1
gene 2 2 8 1.90266 0 2 1.90266 1
gene 3 3 8 -2.03753 0 3 -2.03753 1
gene 3 4 8 -2.5616 0 4 -2.5616 1
gene 3 5 8 6.26753 0 5 6.26753 1
gene 3 6 8 2.78109 0 6 2.78109 1
gene 2 7 8 0.999887 0 7 0.999887 1
gene 2 1 24 3.31319 0 39 3.31319 1
gene 2 24 8 -0.313597 0 40 -0.313597 1
gene 1 2 24 -3.49222 0 60 -3.49222 1
gene 2 5 24 -2.0483 0 92 -2.0483 1
gene 2 7 24 -0.130001 0 123 -0.130001 1
gene 3 6 24 2.23772 0 136 2.23772 1
gene 2 4 24 0.849194 0 153 0.849194 1
genomeend 100

/* Organism #101 Fitness: 15 Error: 0 */
genomestart 101
trait 1 0.084375 0 0 0.011463 0.0163967 0.0993312 0.118593 0 
trait 2 0.17986 0 0 0 0 0 0 0 
trait 3 0.3 0 0 0.049705 0.090594 0 0 0 
node 1 3 1 1
node 2 1 1 1
node 3 2 1 1
node 4 1 1 1
node 5 1 1 1
node 6 1 1 1
node 7 1 1 3
node 8 3 0 2
node 24 1 0 0
gene 1 1 8 0.187294 0 1 0.187294 1
gene 2 2 8 1.83221 0 2 1.83221 1
gene 3 3 8 -4.45059 0 3 -4.45059 1
gene 3 4 8 -0.652661 0 4 -0.652661 1
gene 3 5 8 -0.619385 0 5 -0.619385 1
gene 3 6 8 3.27857 0 6 3.27857 1
gene 2 7 8 0.447718 0 7 0.447718 1
gene 2 1 24 1.34682 0 39 1.34682 1
gene 2 24 8 -1.89993 0 40 -1.89993 1
gene 1 2 24 0.714988 0 60 0.714988 1
gene 2 5 24 -0.0617421 0 92 -0.0617421 1
gene 2 7 24 2.1673 0 123 2.1673 1
gene 3 6 24 2.31103 0 136 2.31103 1
gene 2 4 24 0.849194 0 153 0.849194 1
genomeend 101

/* Organism #102 Fitness: 33 Error: 0 */
genomestart 102
trait 1 0.084375 0 0 0.011463 0.0163967 0.0993312 0.118593 0 
trait 2 0.17986 0 0 0 0 0 0 0 
trait 3 0.3 0 0 0.049705 0.090594 0 0 0 
node 1 3 1 1
node 2 1 1 1
node 3 2 1 1
node 4 1 1 1
node 5 1 1 1
node 6 1 1 1
node 7 1 1 3
node 8 3 0 2
node 24 1 0 0
gene 1 1 8 0.445436 0 1 0.445436 1
gene 2 2 8 0.472618 0 2 0.472618 1
gene 3 3 8 -2.51333 0 3 -2.51333 1
gene 3 4 8 -1.36711 0 4 -1.36711 1
gene 3 5 8 5.91581 0 5 5.91581 1
gene 3 6 8 2.2946 0 6 2.2946 1
gene 2 7 8 1.44849 0 7 1.44849 1
gene 2 1 24 3.77794 0 39 3.77794 1
gene 2 24 8 -2.98766 0 40 -2.98766 1
gene 1 2 24 -0.056015 0 60 -0.056015 1
gene 2 5 24 -1.29661 0 92 -1.29661 1
gene 2 7 24 0.586838 0 123 0.586838 1
gene 3 6 24 2.41528 0 136 2.41528 1
gene 2 4 24 0.849194 0 153 0.849194 1
genomeend 102

/* Species #17 : (Size 3) (AF 27.3333) (Age 6)  */


/* Organism #103 Fitness: 36 Error: 0 */
genomestart 103
trait 1 0.1 0 0 0.0153675 0 0 0 0 
trait 2 0.2 0 0 0 0 0 0 0 
trait 3 0.3 0 0 0 0 0 0 0 
node 1 3 1 1
node 2 3 1 1
node 3 2 1 1
node 4 1 1 1
node 5 2 1 1
node 6 3 1 1
node 7 2 1 3
node 8 1 0 2
node 19 1 0 0
node 36 1 0 0
node 47 1 0 0
node 74 1 0 0
gene 2 1 8 3.9157 0 1 3.9157 1
gene 1 2 8 -0.228363 0 2 -0.228363 0
gene 1 3 8 5.65695 0 3 5.65695 1
gene 2 4 8 1.55591 0 4 1.55591 1
gene 1 5 8 -1.08572 0 5 -1.08572 1
gene 3 6 8 6.63886 0 6 6.63886 1
gene 2 7 8 -0.208776 0 7 -0.208776 1
gene 1 2 19 -0.909266 0 28 -0.909266 1
gene 1 19 8 -1.55389 0 29 -1.55389 1
gene 1 7 19 -0.131823 0 32 -0.131823 1
gene 2 5 19 3.65452 0 43 3.65452 0
gene 1 6 19 -1.51898 0 55 -1.51898 1
gene 2 3 19 -2.96396 0 63 -2.96396 1
gene 2 5 36 -2.78744 0 78 -2.78744 1
gene 2 36 19 0.821008 0 79 0.821008 0
gene 2 36 47 -1.35673 0 111 -1.35673 0
gene 2 47 19 2.1354 0 112 2.1354 1
gene 2 36 74 1 0 213 0 1
gene 2 74 47 -1.35673 0 214 0 1
genomeend 103

/* Organism #104 Fitness: 19 Error: 0 */
genomestart 104
trait 1 0.1 0 0 0.0153675 0 0 0 0 
trait 2 0.2 0 0 0 0 0 0 0 
trait 3 0.3 0 0 0 0 0 0 0 
node 1 3 1 1
node 2 3 1 1
node 3 2 1 1
node 4 1 1 1
node 5 2 1 1
node 6 3 1 1
node 7 2 1 3
node 8 1 0 2
node 19 1 0 0
node 36 1 0 0
node 47 1 0 0
node 75 1 0 0
gene 2 1 8 3.9157 0 1 3.9157 1
gene 1 2 8 -0.228363 0 2 -0.228363 0
gene 1 3 8 5.65695 0 3 5.65695 1
gene 2 4 8 1.55591 0 4 1.55591 1
gene 1 5 8 -1.08572 0 5 -1.08572 1
gene 3 6 8 6.63886 0 6 6.63886 1
gene 2 7 8 -0.208776 0 7 -0.208776 1
gene 1 2 19 -0.909266 0 28 -0.909266 1
gene 1 19 8 -1.55389 0 29 -1.55389 1
gene 1 7 19 -0.131823 0 32 -0.131823 1
gene 2 5 19 3.65452 0 43 3.65452 0
gene 1 6 19 -1.51898 0 55 -1.51898 0
gene 2 3 19 -2.96396 0 63 -2.96396 1
gene 2 5 36 -2.78744 0 78 -2.78744 1
gene 2 36 19 0.821008 0 79 0.821008 0
gene 2 36 47 -1.35673 0 111 -1.35673 1
gene 2 47 19 2.1354 0 112 2.1354 1
gene 1 6 75 1 0 215 0 1
gene 1 75 19 -1.51898 0 216 0 1
genomeend 104

/* Organism #105 Fitness: 27 Error: 0 */
genomestart 105
trait 1 0.1 0 0 0.0153675 0 0 0 0 
trait 2 0.2 0 0 0 0 0 0 0 
trait 3 0.3 0 0 0 0 0 0 0 
node 1 3 1 1
node 2 3 1 1
node 3 2 1 1
node 4 1 1 1
node 5 2 1 1
node 6 3 1 1
node 7 2 1 3
node 8 1 0 2
node 19 1 0 0
node 36 1 0 0
node 47 1 0 0
gene 2 1 8 1.06378 0 1 1.06378 1
gene 1 2 8 0.842604 0 2 0.842604 0
gene 1 3 8 -0.191753 0 3 -0.191753 1
gene 2 4 8 0.522211 0 4 0.522211 1
gene 1 5 8 1.02286 0 5 1.02286 1
gene 3 6 8 4.47803 0 6 4.47803 1
gene 2 7 8 1.96381 0 7 1.96381 1
gene 1 2 19 0.945093 0 28 0.945093 1
gene 1 19 8 -1.55389 0 29 -1.55389 1
gene 1 7 19 -1.45428 0 32 -1.45428 1
gene 2 5 19 3.08484 0 43 3.08484 0
gene 1 6 19 -0.316261 0 55 -0.316261 1
gene 2 3 19 -2.43618 0 63 -2.43618 1
gene 2 5 36 -1.28381 0 78 -1.28381 1
gene 2 36 19 -1.16325 0 79 -1.16325 0
gene 2 36 47 -1.85241 0 111 -1.85241 1
gene 2 47 19 0.602967 0 112 0.602967 1
genomeend 105

/* Species #18 : (Size 7) (AF 57.5714) (Age 5)  */


/* Organism #106 Fitness: 157 Error: 0 */
genomestart 106
trait 1 0.1 0 0 0 0 0 0 0 
trait 2 0.2 0 0 0 0 0 0 0 
trait 3 0.3 0 0 0 0 0 0 0 
node 1 3 1 1
node 2 3 1 1
node 3 2 1 1
node 4 3 1 1
node 5 1 1 1
node 6 3 1 1
node 7 2 1 3
node 8 1 0 2
node 19 1 0 0
node 59 1 0 0
gene 2 1 8 -2.339 0 1 -2.339 1
gene 1 2 8 0.407331 0 2 0.407331 0
gene 1 3 8 -1.29076 0 3 -1.29076 1
gene 2 4 8 -2.94945 0 4 -2.94945 1
gene 1 5 8 2.75142 0 5 2.75142 1
gene 3 6 8 1.19219 0 6 1.19219 1
gene 2 7 8 -1.45504 0 7 -1.45504 1
gene 1 2 19 1.82422 0 28 1.82422 0
gene 1 19 8 1.08166 0 29 1.08166 1
gene 1 7 19 -2.26011 0 32 -2.26011 1
gene 1 5 19 -0.229207 0 97 -0.229207 1
gene 1 2 59 1 0 148 0 1
gene 1 59 19 1.82422 0 149 0 1
genomeend 106

/* Organism #107 Fitness: 39 Error: 0 */
genomestart 107
trait 1 0.1 0 0 0 0 0 0 0 
trait 2 0.2 0 0 0 0 0 0 0 
trait 3 0.3 0 0 0 0 0 0 0 
node 1 3 1 1
node 2 3 1 1
node 3 2 1 1
node 4 3 1 1
node 5 1 1 1
node 6 3 1 1
node 7 2 1 3
node 8 1 0 2
node 19 1 0 0
node 59 1 0 0
gene 2 1 8 -4.05585 0 1 -4.05585 1
gene 1 2 8 2.52228 0 2 2.52228 0
gene 1 3 8 -4.26916 0 3 -4.26916 1
gene 2 4 8 -3.04729 0 4 -3.04729 1
gene 1 5 8 2.96096 0 5 2.96096 1
gene 3 6 8 2.41259 0 6 2.41259 1
gene 2 7 8 -0.947856 0 7 -0.947856 1
gene 1 2 19 5.22157 0 28 5.22157 1
gene 1 19 8 -2.44561 0 29 -2.44561 1
gene 1 7 19 -2.81886 0 32 -2.81886 1
gene 1 5 19 -0.628346 0 97 -0.628346 1
gene 1 2 59 0.496982 0 148 0.496982 1
gene 1 59 19 0.641856 0 149 0.641856 1
genomeend 107

/* Organism #108 Fitness: 12 Error: 0 */
genomestart 108
trait 1 0.1 0 0 0 0.563045 0 0 0 
trait 2 0.2 0 0 0 0 0 0 0 
trait 3 0.3 0 0 0 0 0 0 0 
node 1 3 1 1
node 2 3 1 1
node 3 2 1 1
node 4 3 1 1
node 5 1 1 1
node 6 3 1 1
node 7 2 1 3
node 8 1 0 2
node 19 1 0 0
node 59 1 0 0
gene 2 1 8 -1.30969 0 1 -1.30969 1
gene 1 2 8 -1.52837 0 2 -1.52837 0
gene 1 3 8 -3.65132 0 3 -3.65132 1
gene 2 4 8 -5.14501 0 4 -5.14501 1
gene 1 5 8 4.74473 0 5 4.74473 1
gene 3 6 8 0.496969 0 6 0.496969 1
gene 2 7 8 1.90458 0 7 1.90458 1
gene 1 2 19 1.83688 0 28 1.83688 0
gene 1 19 8 0.497357 0 29 0.497357 1
gene 1 7 19 -2.21411 0 32 -2.21411 1
gene 1 5 19 -2.58473 0 97 -2.58473 1
gene 1 2 59 -0.822801 0 148 -0.822801 1
gene 1 59 19 0.0801848 0 149 0.0801848 1
genomeend 108

/* Organism #109 Fitness: 6 Error: 0 */
genomestart 109
trait 1 0.1 0 0.928839 0 0 0 0.0489505 0 
trait 2 0.2 0 0 0 0 0 0 0 
trait 3 0.15 0 0 0.363601 0 0 0.0748944 0 
node 1 3 1 1
node 2 3 1 1
node 3 2 1 1
node 4 3 1 1
node 5 1 1 1
node 6 3 1 1
node 7 2 1 3
node 8 1 0 2
node 19 1 0 0
node 59 1 0 0
gene 2 1 8 -4.37428 0 1 -4.37428 1
gene 1 2 8 -2.47794 0 2 -2.47794 0
gene 1 3 8 -1.79342 0 3 -1.79342 1
gene 2 4 8 -4.25819 0 4 -4.25819 1
gene 1 5 8 0.253674 0 5 0.253674 1
gene 3 6 8 0.349375 0 6 0.349375 1
gene 2 7 8 0.134455 0 7 0.134455 1
gene 1 2 19 0.361836 0 28 0.361836 0
gene 2 19 8 1.57137 0 29 1.57137 1
gene 1 7 19 -1.4331 0 32 -1.4331 1
gene 1 5 19 0.830302 0 97 0.830302 1
gene 1 2 59 0.145216 0 148 0.145216 1
gene 1 59 19 -0.568328 0 149 -0.568328 1
genomeend 109

/* Organism #110 Fitness: 37 Error: 0 */
genomestart 110
trait 1 0.1 0 0 0 0 0 0 0 
trait 2 0.2 0 0 0 0 0 0 0 
trait 3 0.3 0 0 0 0 0 0 0 
node 1 3 1 1
node 2 3 1 1
node 3 2 1 1
node 4 3 1 1
node 5 1 1 1
node 6 3 1 1
node 7 2 1 3
node 8 1 0 2
node 19 1 0 0
node 59 1 0 0
gene 2 1 8 -1.13683 0 1 -1.13683 1
gene 1 2 8 -0.655578 0 2 -0.655578 0
gene 1 3 8 -0.925662 0 3 -0.925662 1
gene 2 4 8 -1.70477 0 4 -1.70477 1
gene 1 5 8 -0.196324 0 5 -0.196324 1
gene 3 6 8 3.61096 0 6 3.61096 1
gene 2 7 8 -0.663455 0 7 -0.663455 1
gene 1 2 19 5.10213 0 28 5.10213 0
gene 1 19 8 -1.63484 0 29 -1.63484 1
gene 1 7 19 -3.45933 0 32 -3.45933 1
gene 1 5 19 -1.21929 0 97 -1.21929 1
gene 1 2 59 0.0170392 0 148 0.0170392 1
gene 1 59 19 0.581408 0 149 0.581408 1
genomeend 110

/* Organism #111 Fitness: 49 Error: 0 */
genomestart 111
trait 1 0.1 0 0 0 0 0 0 0 
trait 2 0.2 0 0 0 0 0 0 0 
trait 3 0 0 0 0.727202 0 0 0.149789 0 
node 1 3 1 1
node 2 3 1 1
node 3 2 1 1
node 4 3 1 1
node 5 2 1 1
node 6 3 1 1
node 7 2 1 3
node 8 1 0 2
node 19 1 0 0
node 59 1 0 0
gene 2 1 8 -2.50904 0 1 -2.50904 1
gene 1 2 8 1.4855 0 2 1.4855 0
gene 1 3 8 -3.0477 0 3 -3.0477 1
gene 2 4 8 -2.23117 0 4 -2.23117 1
gene 1 5 8 4.83633 0 5 4.83633 1
gene 3 6 8 3.34031 0 6 3.34031 1
gene 2 7 8 -2.54122 0 7 -2.54122 1
gene 1 2 19 2.1381 0 28 2.1381 0
gene 1 19 8 -0.507253 0 29 -0.507253 1
gene 1 7 19 1.28604 0 32 1.28604 1
gene 1 5 19 2.10552 0 97 2.10552 1
gene 1 2 59 -1.25269 0 148 -1.25269 1
gene 1 59 19 0.699484 0 149 0.699484 1
gene 3 59 8 2.07731 0 190 2.07731 1
genomeend 111

/* Organism #112 Fitness: 103 Error: 0 */
genomestart 112
trait 1 0.1 0 0 0 0 0 0 0 
trait 2 0.2 0 0 0 0 0 0 0 
trait 3 0.3 0 0 0 0 0 0 0 
node 1 3 1 1
node 2 3 1 1
node 3 2 1 1
node 4 3 1 1
node 5 1 1 1
node 6 3 1 1
node 7 2 1 3
node 8 1 0 2
node 19 1 0 0
node 59 1 0 0
node 76 1 0 0
gene 2 1 8 -2.43759 0 1 -2.43759 1
gene 1 2 8 0.460833 0 2 0.460833 0
gene 1 3 8 -1.79342 0 3 -1.79342 1
gene 2 4 8 -5.27535 0 4 -5.27535 1
gene 1 5 8 3.14256 0 5 3.14256 1
gene 3 6 8 3.29082 0 6 3.29082 1
gene 2 7 8 -0.83274 0 7 -0.83274 1
gene 1 2 19 4.03964 0 28 4.03964 1
gene 1 19 8 -0.157736 0 29 -0.157736 1
gene 1 7 19 -2.31456 0 32 -2.31456 1
gene 1 5 19 -2.20938 0 97 -2.20938 1
gene 1 2 59 1.80607 0 148 1.80607 1
gene 1 59 19 -1.45585 0 149 -1.45585 0
gene 1 59 76 1 0 217 0 1
gene 1 76 19 -1.45585 0 218 0 1
genomeend 112

/* Species #19 : (Size 11) (AF 55.7273) (Age 5)  */


/* Organism #113 Fitness: 112 Error: 0 */
genomestart 113
trait 1 0.1 0 0 0.0153675 0 0 0 0 
trait 2 0.2 0 0 0 0 0 0 0 
trait 3 0.3 0 0 0 0 0 0 0 
node 1 3 1 1
node 2 3 1 1
node 3 2 1 1
node 4 1 1 1
node 5 2 1 1
node 6 3 1 1
node 7 2 1 3
node 8 1 0 2
node 19 1 0 0
node 36 2 0 0
gene 2 1 8 -0.927719 0 1 -0.927719 1
gene 1 2 8 2.09226 0 2 2.09226 1
gene 1 3 8 -3.39827 0 3 -3.39827 1
gene 2 4 8 -4.54144 0 4 -4.54144 1
gene 1 5 8 2.84328 0 5 2.84328 1
gene 3 6 8 3.93127 0 6 3.93127 1
gene 2 7 8 -1.31983 0 7 -1.31983 1
gene 1 2 19 5.76097 0 28 5.76097 1
gene 1 19 8 0.614633 0 29 0.614633 1
gene 1 7 19 -2.48989 0 32 -2.48989 1
gene 2 5 19 -0.11031 0 43 -0.11031 0
gene 1 6 19 2.53868 0 55 2.53868 1
gene 2 3 19 3.14745 0 63 3.14745 1
gene 2 5 36 -1.33925 0 78 -1.33925 1
gene 2 36 19 -4.41933 0 79 -4.41933 1
gene 3 4 36 0.511864 0 150 0 1
genomeend 113

/* Organism #114 Fitness: 42 Error: 0 */
genomestart 114
trait 1 0.1 0 0 0.0153675 0 0 0 0 
trait 2 0.2 0 0 0 0 0 0 0 
trait 3 0.3 0 0 0 0 0 0 0 
node 1 3 1 1
node 2 3 1 1
node 3 2 1 1
node 4 1 1 1
node 5 2 1 1
node 6 3 1 1
node 7 2 1 3
node 8 1 0 2
node 19 1 0 0
node 36 2 0 0
gene 3 1 8 -2.41504 0 1 -2.41504 1
gene 1 2 8 -0.610317 0 2 -0.610317 1
gene 1 3 8 -2.93427 0 3 -2.93427 1
gene 2 4 8 -6.61606 0 4 -6.61606 1
gene 1 5 8 2.41777 0 5 2.41777 1
gene 3 6 8 4.7926 0 6 4.7926 1
gene 2 7 8 -0.990858 0 7 -0.990858 1
gene 1 2 19 -0.882794 0 28 -0.882794 1
gene 1 19 8 -0.460082 0 29 -0.460082 1
gene 1 7 19 -2.84543 0 32 -2.84543 1
gene 2 5 19 -1.03272 0 43 -1.03272 0
gene 1 6 19 -1.30311 0 55 -1.30311 1
gene 2 3 19 1.71094 0 63 1.71094 1
gene 2 5 36 1.01207 0 78 1.01207 1
gene 2 36 19 -2.62379 0 79 -2.62379 1
gene 3 4 36 0.319866 0 150 0.319866 1
genomeend 114

/* Organism #115 Fitness: 69 Error: 0 */
genomestart 115
trait 1 0.1 0 0 0.0153675 0 0 0 0 
trait 2 1 0.0558934 0.42258 0 0 0 0 0 
trait 3 0.3 0 0 0 0 0 0 0 
node 1 3 1 1
node 2 3 1 1
node 3 2 1 1
node 4 1 1 1
node 5 2 1 1
node 6 3 1 1
node 7 2 1 3
node 8 1 0 2
node 19 1 0 0
node 36 2 0 0
gene 2 1 8 -0.973798 0 1 -0.973798 1
gene 1 2 8 2.49842 0 2 2.49842 1
gene 1 3 8 -1.49938 0 3 -1.49938 1
gene 2 4 8 -6.30576 0 4 -6.30576 1
gene 1 5 8 1.96571 0 5 1.96571 1
gene 3 6 8 2.64066 0 6 2.64066 1
gene 2 7 8 -3.11473 0 7 -3.11473 1
gene 1 2 19 4.91611 0 28 4.91611 1
gene 1 19 8 2.46573 0 29 2.46573 1
gene 1 7 19 -1.6284 0 32 -1.6284 1
gene 2 5 19 2.17844 0 43 2.17844 0
gene 1 6 19 0.322038 0 55 0.322038 1
gene 2 3 19 1.94863 0 63 1.94863 1
gene 2 5 36 -1.33925 0 78 -1.33925 1
gene 2 36 19 -6.64592 0 79 -6.64592 1
gene 3 4 36 -0.0904586 0 150 -0.0904586 1
genomeend 115

/* Organism #116 Fitness: 36 Error: 0 */
genomestart 116
trait 1 0.1 0 0 0.0153675 0 0 0 0 
trait 2 0.6 0.0279467 0.21129 0 0 0 0 0 
trait 3 0.464273 0 0 0.764753 0 0.599619 0.452416 0 
node 1 3 1 1
node 2 3 1 1
node 3 2 1 1
node 4 1 1 1
node 5 2 1 1
node 6 3 1 1
node 7 2 1 3
node 8 1 0 2
node 19 1 0 0
node 36 1 0 0
gene 2 1 8 -2.83523 0 1 -2.83523 1
gene 1 2 8 2.09226 0 2 2.09226 1
gene 1 3 8 1.92442 0 3 1.92442 1
gene 2 4 8 -0.413342 0 4 -0.413342 1
gene 1 5 8 4.77017 0 5 4.77017 1
gene 3 6 8 2.08554 0 6 2.08554 1
gene 2 7 8 -0.37902 0 7 -0.37902 1
gene 1 2 19 1.32015 0 28 1.32015 1
gene 1 19 8 2.21789 0 29 2.21789 1
gene 1 7 19 -0.0815606 0 32 -0.0815606 1
gene 2 5 19 1.61064 0 43 1.61064 0
gene 1 6 19 1.70958 0 55 1.70958 1
gene 2 3 19 0.303118 0 63 0.303118 1
gene 2 5 36 -0.187815 0 78 -0.187815 1
gene 2 36 19 -4.41933 0 79 -4.41933 1
gene 3 4 36 -0.282525 0 150 -0.282525 1
genomeend 116

/* Organism #117 Fitness: 33 Error: 0 */
genomestart 117
trait 1 0.1 0 0 0.0153675 0 0 0 0 
trait 2 0.6 0.0279467 0.21129 0 0 0 0 0 
trait 3 0.3 0 0 0 0 0 0 0 
node 1 3 1 1
node 2 3 1 1
node 3 2 1 1
node 4 1 1 1
node 5 2 1 1
node 6 3 1 1
node 7 2 1 3
node 8 1 0 2
node 19 1 0 0
node 36 2 0 0
gene 2 1 8 -0.370374 0 1 -0.370374 1
gene 1 2 8 3.37904 0 2 3.37904 1
gene 1 3 8 -5.77435 0 3 -5.77435 1
gene 2 4 8 -5.78816 0 4 -5.78816 1
gene 1 5 8 2.55272 0 5 2.55272 1
gene 3 6 8 6.17544 0 6 6.17544 1
gene 2 7 8 -1.29965 0 7 -1.29965 1
gene 1 2 19 4.96672 0 28 4.96672 1
gene 1 19 8 -1.57482 0 29 -1.57482 1
gene 1 7 19 -0.501975 0 32 -0.501975 1
gene 2 5 19 1.89934 0 43 1.89934 0
gene 1 6 19 1.42669 0 55 1.42669 1
gene 2 3 19 5.28104 0 63 5.28104 1
gene 2 5 36 0.538501 0 78 0.538501 1
gene 2 36 19 -2.74194 0 79 -2.74194 1
gene 3 4 36 -0.0445861 0 150 -0.0445861 1
genomeend 117

/* Organism #118 Fitness: 36 Error: 0 */
genomestart 118
trait 1 0.1 0 0 0.0153675 0 0 0 0 
trait 2 0.2 0 0 0 0 0 0 0 
trait 3 0.3 0 0 0 0 0 0 0 
node 1 3 1 1
node 2 3 1 1
node 3 2 1 1
node 4 1 1 1
node 5 2 1 1
node 6 3 1 1
node 7 2 1 3
node 8 1 0 2
node 19 1 0 0
node 36 2 0 0
gene 2 1 8 -2.37376 0 1 -2.37376 1
gene 1 2 8 1.5091 0 2 1.5091 1
gene 1 3 8 -0.988306 0 3 -0.988306 1
gene 2 4 8 -2.64974 0 4 -2.64974 1
gene 1 5 8 3.69335 0 5 3.69335 1
gene 3 6 8 5.63208 0 6 5.63208 1
gene 2 7 8 -0.0872968 0 7 -0.0872968 1
gene 1 2 19 3.35189 0 28 3.35189 1
gene 1 19 8 -1.28525 0 29 -1.28525 1
gene 1 7 19 -2.14677 0 32 -2.14677 1
gene 2 5 19 0.503192 0 43 0.503192 0
gene 1 6 19 4.2431 0 55 4.2431 1
gene 2 3 19 1.66435 0 63 1.66435 1
gene 2 5 36 0.683903 0 78 0.683903 1
gene 2 36 19 -3.43803 0 79 -3.43803 1
gene 3 4 36 0.511864 0 150 0.511864 1
genomeend 118

/* Organism #119 Fitness: 98 Error: 0 */
genomestart 119
trait 1 0.1 0 0 0.0153675 0 0 0 0 
trait 2 0.2 0 0 0 0 0 0 0 
trait 3 0.3 0 0 0 0 0 0 0 
node 1 3 1 1
node 2 3 1 1
node 3 2 1 1
node 4 1 1 1
node 5 2 1 1
node 6 3 1 1
node 7 2 1 3
node 8 1 0 2
node 19 1 0 0
node 36 2 0 0
gene 2 1 8 -0.624982 0 1 -0.624982 1
gene 1 2 8 2.51491 0 2 2.51491 1
gene 1 3 8 -3.3949 0 3 -3.3949 1
gene 2 4 8 -5.3929 0 4 -5.3929 1
gene 1 5 8 1.52727 0 5 1.52727 1
gene 3 6 8 3.21734 0 6 3.21734 1
gene 2 7 8 -0.673377 0 7 -0.673377 1
gene 1 2 19 3.48052 0 28 3.48052 1
gene 1 19 8 0.812506 0 29 0.812506 1
gene 1 7 19 -2.90958 0 32 -2.90958 1
gene 2 5 19 1.64864 0 43 1.64864 0
gene 1 6 19 3.72552 0 55 3.72552 1
gene 2 3 19 5.31631 0 63 5.31631 1
gene 2 5 36 0.382794 0 78 0.382794 1
gene 2 36 19 -3.72662 0 79 -3.72662 1
gene 3 4 36 1.45359 0 150 1.45359 1
genomeend 119

/* Organism #120 Fitness: 45 Error: 0 */
genomestart 120
trait 1 0.1 0 0 0.0153675 0 0 0 0 
trait 2 1 0.0558934 0.42258 0 0 0 0 0 
trait 3 0.3 0 0 0 0 0 0 0 
node 1 3 1 1
node 2 3 1 1
node 3 2 1 1
node 4 1 1 1
node 5 2 1 1
node 6 3 1 1
node 7 2 1 3
node 8 1 0 2
node 19 1 0 0
node 36 2 0 0
gene 2 1 8 -0.310059 0 1 -0.310059 1
gene 1 2 8 2.75478 0 2 2.75478 1
gene 1 3 8 -2.50333 0 3 -2.50333 1
gene 2 4 8 -6.56036 0 4 -6.56036 1
gene 1 5 8 5.23762 0 5 5.23762 1
gene 3 6 8 3.82775 0 6 3.82775 1
gene 2 7 8 -0.0261467 0 7 -0.0261467 1
gene 1 2 19 6.9786 0 28 6.9786 1
gene 1 19 8 1.62076 0 29 1.62076 1
gene 1 7 19 -3.47502 0 32 -3.47502 1
gene 2 5 19 -0.832808 0 43 -0.832808 1
gene 1 6 19 4.93341 0 55 4.93341 1
gene 2 3 19 3.83903 0 63 3.83903 1
gene 2 5 36 -1.33925 0 78 -1.33925 1
gene 2 36 19 -6.75689 0 79 -6.75689 1
gene 3 4 36 -0.669203 0 150 -0.669203 1
genomeend 120

/* Organism #121 Fitness: 112 Error: 0 */
genomestart 121
trait 1 0.1 0 0 0.0153675 0 0 0 0 
trait 2 0.2 0 0 0 0 0 0 0 
trait 3 0.3 0 0 0 0 0 0 0 
node 1 3 1 1
node 2 3 1 1
node 3 2 1 1
node 4 1 1 1
node 5 2 1 1
node 6 3 1 1
node 7 2 1 3
node 8 1 0 2
node 19 1 0 0
node 36 2 0 0
gene 2 1 8 -0.927719 0 1 -0.927719 1
gene 1 2 8 2.09226 0 2 2.09226 1
gene 1 3 8 -3.39827 0 3 -3.39827 1
gene 2 4 8 -4.54144 0 4 -4.54144 1
gene 1 5 8 2.84328 0 5 2.84328 1
gene 3 6 8 3.93127 0 6 3.93127 1
gene 2 7 8 -1.31983 0 7 -1.31983 1
gene 1 2 19 5.76097 0 28 5.76097 1
gene 1 19 8 0.614633 0 29 0.614633 1
gene 1 7 19 -2.48989 0 32 -2.48989 1
gene 2 5 19 -0.11031 0 43 -0.11031 0
gene 1 6 19 2.53868 0 55 2.53868 1
gene 2 3 19 3.14745 0 63 3.14745 1
gene 2 5 36 -1.33925 0 78 -1.33925 1
gene 2 36 19 -4.41933 0 79 -4.41933 1
gene 3 4 36 0.511864 0 150 0 1
genomeend 121

/* Organism #122 Fitness: 9 Error: 0 */
genomestart 122
trait 1 0.1 0 0 0.0153675 0 0 0 0 
