
/* Species #1 : (Size 150) (AF 39.6067) (Age 5)  */


/* Organism #0 Fitness: 320 Error: 0 */
genomestart 0
trait 1 0.1 0 0 0 0 0 0 0 
trait 2 0.2 0 0 0 0 0 0 0 
trait 3 0.3 0 0 0 0 0 0 0 
node 1 3 1 1
node 2 3 1 1
node 3 1 1 1
node 4 2 1 1
node 5 3 1 1
node 6 2 1 1
node 7 3 1 3
node 8 2 0 2
gene 1 1 8 0.106909 0 1 0.106909 1
gene 3 2 8 -0.271304 0 2 -0.271304 1
gene 1 3 8 -2.73612 0 3 -2.73612 1
gene 3 4 8 -2.04163 0 4 -2.04163 1
gene 2 5 8 1.58456 0 5 1.58456 1
gene 1 6 8 0.865191 0 6 0.865191 1
gene 1 7 8 -0.168206 0 7 -0.168206 1
genomeend 0

/* Organism #1 Fitness: 31 Error: 0 */
genomestart 1
trait 1 0.0875 0 0 0.00917042 0 0.0744408 0.0948746 0 
trait 2 0.2 0 0 0 0 0 0 0 
trait 3 0.3 0 0 0 0 0 0 0 
node 1 1 1 1
node 2 2 1 1
node 3 3 1 1
node 4 1 1 1
node 5 1 1 1
node 6 3 1 1
node 7 2 1 3
node 8 3 0 2
gene 1 1 8 -0.775086 0 1 -0.775086 1
gene 3 2 8 2.54117 0 2 2.54117 1
gene 2 3 8 1.02045 0 3 1.02045 1
gene 2 4 8 -0.760372 0 4 -0.760372 1
gene 2 5 8 3.75191 0 5 3.75191 1
gene 1 6 8 0.873319 0 6 0.873319 1
gene 1 7 8 1.45181 0 7 1.45181 1
genomeend 1

/* Organism #2 Fitness: 5 Error: 0 */
genomestart 2
trait 1 0.1 0 0 0 0 0 0 0 
trait 2 0.1 0 0 0 0 0 0 0 
trait 3 0.3 0 0 0 0 0 0 0 
node 1 2 1 1
node 2 1 1 1
node 3 2 1 1
node 4 2 1 1
node 5 1 1 1
node 6 2 1 1
node 7 1 1 3
node 8 3 0 2
gene 1 1 8 -0.536607 0 1 -0.536607 1
gene 3 2 8 -1.69682 0 2 -1.69682 1
gene 1 3 8 -1.27072 0 3 -1.27072 1
gene 2 4 8 0.11019 0 4 0.11019 1
gene 2 5 8 3.19231 0 5 3.19231 1
gene 3 6 8 -1.35803 0 6 -1.35803 1
gene 2 7 8 -2.18546 0 7 -2.18546 1
genomeend 2

/* Organism #3 Fitness: 60 Error: 0 */
genomestart 3
trait 1 0.1 0 0 0 0 0 0 0 
trait 2 0.2 0 0 0 0 0 0 0 
trait 3 0.3 0 0 0 0 0 0 0 
node 1 3 1 1
node 2 3 1 1
node 3 1 1 1
node 4 2 1 1
node 5 3 1 1
node 6 2 1 1
node 7 3 1 3
node 8 2 0 2
node 16 1 0 0
gene 2 1 8 1.03019 0 1 1.03019 1
gene 1 2 8 3.3067 0 2 3.3067 1
gene 3 3 8 -0.285692 0 3 -0.285692 0
gene 3 4 8 -1.9586 0 4 -1.9586 1
gene 3 5 8 1.75879 0 5 1.75879 1
gene 1 6 8 3.548 0 6 3.548 1
gene 1 7 8 -0.560352 0 7 -0.560352 1
gene 3 3 16 1 0 22 0 1
gene 3 16 8 -0.285692 0 23 0 1
genomeend 3

/* Organism #4 Fitness: 37 Error: 0 */
genomestart 4
trait 1 0.1 0 0 0 0 0 0 0 
trait 2 0.155553 0 0 0 0 0 0 0 
trait 3 0.3 0 0 0 0 0 0 0 
node 1 3 1 1
node 2 3 1 1
node 3 2 1 1
node 4 1 1 1
node 5 2 1 1
node 6 3 1 1
node 7 2 1 3
node 8 1 0 2
gene 3 1 8 -1.42501 0 1 -1.42501 1
gene 2 2 8 0.817732 0 2 0.817732 1
gene 3 3 8 1.03938 0 3 1.03938 1
gene 2 4 8 -2.91557 0 4 -2.91557 1
gene 3 5 8 4.59379 0 5 4.59379 1
gene 3 6 8 1.34913 0 6 1.34913 1
gene 1 7 8 0.515623 0 7 0.515623 1
genomeend 4

/* Organism #5 Fitness: 38 Error: 0 */
genomestart 5
trait 1 0.075 0.843655 0 0 0 0.148882 0.0624399 0.490296 
trait 2 0.205553 0 0 0 0 0 0 0 
trait 3 0.3 0 0 0 0 0 0 0 
node 1 2 1 1
node 2 3 1 1
node 3 3 1 1
node 4 1 1 1
node 5 1 1 1
node 6 2 1 1
node 7 1 1 3
node 8 2 0 2
gene 2 1 8 2.05273 0 1 2.05273 1
gene 3 2 8 2.2196 0 2 2.2196 1
gene 3 3 8 3.38099 0 3 3.38099 1
gene 3 4 8 -0.62295 0 4 -0.62295 1
gene 3 5 8 0.642673 0 5 0.642673 1
gene 1 6 8 0.927458 0 6 0.927458 1
gene 2 7 8 -1.09211 0 7 -1.09211 1
genomeend 5

/* Organism #6 Fitness: 43 Error: 0 */
genomestart 6
trait 1 0.1 0 0 0 0 0 0 0 
trait 2 0.2 0 0 0 0 0 0 0 
trait 3 0.3 0 0 0 0 0 0 0 
node 1 3 1 1
node 2 1 1 1
node 3 2 1 1
node 4 1 1 1
node 5 1 1 1
node 6 1 1 1
node 7 2 1 3
node 8 3 0 2
gene 3 1 8 1.44702 0 1 1.44702 1
gene 3 2 8 2.49338 0 2 2.49338 1
gene 1 3 8 1.88274 0 3 1.88274 1
gene 2 4 8 2.16495 0 4 2.16495 1
gene 2 5 8 0.220749 0 5 0.220749 1
gene 1 6 8 2.03422 0 6 2.03422 1
gene 1 7 8 -0.394327 0 7 -0.394327 1
genomeend 6

/* Organism #7 Fitness: 40 Error: 0 */
genomestart 7
trait 1 0.1 0 0 0 0 0 0 0 
trait 2 0.2 0 0 0 0 0 0 0 
trait 3 0.3 0 0 0 0 0 0 0 
node 1 3 1 1
node 2 1 1 1
node 3 2 1 1
node 4 2 1 1
node 5 1 1 1
node 6 3 1 1
node 7 1 1 3
node 8 3 0 2
node 17 1 0 0
gene 2 1 8 3.15422 0 1 3.15422 1
gene 1 2 8 0.120067 0 2 0.120067 1
gene 1 3 8 -1.47632 0 3 -1.47632 1
gene 2 4 8 -0.568287 0 4 -0.568287 0
gene 3 5 8 1.02465 0 5 1.02465 1
gene 1 6 8 2.90412 0 6 2.90412 1
gene 2 7 8 -0.278775 0 7 -0.278775 1
gene 2 4 17 1 0 24 0 1
gene 2 17 8 -0.568287 0 25 0 1
genomeend 7

/* Organism #8 Fitness: 24 Error: 0 */
genomestart 8
trait 1 0.1 0 0 0 0 0 0 0 
trait 2 0.2 0 0 0 0 0 0 0 
trait 3 0.3 0 0 0 0 0 0 0 
node 1 3 1 1
node 2 3 1 1
node 3 3 1 1
node 4 2 1 1
node 5 2 1 1
node 6 3 1 1
node 7 2 1 3
node 8 3 0 2
gene 3 1 8 -2.73642 0 1 -2.73642 1
gene 2 2 8 0.911804 0 2 0.911804 1
gene 1 3 8 -2.11935 0 3 -2.11935 1
gene 3 4 8 -1.09542 0 4 -1.09542 1
gene 2 5 8 -0.41866 0 5 -0.41866 1
gene 2 6 8 0.724211 0 6 0.724211 1
gene 3 7 8 0.662226 0 7 0.662226 1
genomeend 8

/* Organism #9 Fitness: 43 Error: 0 */
genomestart 9
trait 1 0.1 0 0 0 0 0 0 0 
trait 2 0.205553 0 0 0 0 0 0 0 
trait 3 0.3 0 0 0 0 0 0 0 
node 1 1 1 1
node 2 2 1 1
node 3 3 1 1
node 4 1 1 1
node 5 1 1 1
node 6 3 1 1
node 7 2 1 3
node 8 3 0 2
gene 3 1 8 0.0319192 0 1 0.0319192 1
gene 3 2 8 2.0475 0 2 2.0475 1
gene 1 3 8 1.53705 0 3 1.53705 1
gene 2 4 8 0.244517 0 4 0.244517 1
gene 2 5 8 2.38882 0 5 2.38882 1
gene 1 6 8 2.10112 0 6 2.10112 1
gene 2 7 8 -2.03791 0 7 -2.03791 1
genomeend 9

/* Organism #10 Fitness: 64 Error: 0 */
genomestart 10
trait 1 0 0 0 0.0733633 0 0.595526 0.758997 0 
trait 2 0.2 0 0 0 0 0 0 0 
trait 3 0.3 0 0 0 0 0 0 0 
node 1 3 1 1
node 2 3 1 1
node 3 1 1 1
node 4 3 1 1
node 5 2 1 1
node 6 3 1 1
node 7 2 1 3
node 8 1 0 2
gene 2 1 8 -1.01994 0 1 -1.01994 1
gene 1 2 8 2.10812 0 2 2.10812 1
gene 1 3 8 -0.960635 0 3 -0.960635 1
gene 3 4 8 -1.44563 0 4 -1.44563 1
gene 3 5 8 0.961882 0 5 0.961882 1
gene 2 6 8 2.84989 0 6 2.84989 1
gene 3 7 8 0.605095 0 7 0.605095 1
genomeend 10

/* Organism #11 Fitness: 12 Error: 0 */
genomestart 11
trait 1 0.1 0 0 0 0 0 0 0 
trait 2 0.211105 0 0 0 0 0 0 0 
trait 3 0.3 0 0 0 0 0 0 0 
node 1 2 1 1
node 2 3 1 1
node 3 3 1 1
node 4 1 1 1
node 5 1 1 1
node 6 2 1 1
node 7 1 1 3
node 8 2 0 2
gene 3 1 8 -1.46461 0 1 -1.46461 1
gene 3 2 8 2.19391 0 2 2.19391 1
gene 1 3 8 0.211432 0 3 0.211432 1
gene 3 4 8 0.785643 0 4 0.785643 1
gene 2 5 8 -1.9731 0 5 -1.9731 1
gene 1 6 8 0.97283 0 6 0.97283 1
gene 2 7 8 -0.934763 0 7 -0.934763 1
genomeend 11

/* Organism #12 Fitness: 6 Error: 0 */
genomestart 12
trait 1 0.075 0 0 0.0183408 0 0.148882 0.189749 0 
trait 2 0.205553 0 0 0 0 0 0 0 
trait 3 0.3 0 0 0 0 0 0 0 
node 1 3 1 1
node 2 3 1 1
node 3 1 1 1
node 4 3 1 1
node 5 2 1 1
node 6 3 1 1
node 7 2 1 3
node 8 1 0 2
gene 2 1 8 2.29594 0 1 2.29594 1
gene 3 2 8 2.0846 0 2 2.0846 1
gene 3 3 8 3.16694 0 3 3.16694 1
gene 3 4 8 -2.08291 0 4 -2.08291 1
gene 3 5 8 0.885876 0 5 0.885876 1
gene 1 6 8 -0.983437 0 6 -0.983437 1
gene 2 7 8 -0.659084 0 7 -0.659084 1
genomeend 12

/* Organism #13 Fitness: 34 Error: 0 */
genomestart 13
trait 1 0.1 0 0 0 0 0 0 0 
trait 2 0.2 0 0 0 0 0 0 0 
trait 3 0.3 0 0 0 0 0 0 0 
node 1 3 1 1
node 2 3 1 1
node 3 2 1 1
node 4 1 1 1
node 5 2 1 1
node 6 3 1 1
node 7 2 1 3
node 8 1 0 2
gene 2 1 8 -0.581938 0 1 -0.581938 1
gene 1 2 8 2.15329 0 2 2.15329 1
gene 1 3 8 2.03175 0 3 2.03175 1
gene 2 4 8 -0.401744 0 4 -0.401744 1
gene 1 5 8 1.42993 0 5 1.42993 1
gene 3 6 8 1.27857 0 6 1.27857 1
gene 2 7 8 -0.278775 0 7 -0.278775 1
genomeend 13

/* Organism #14 Fitness: 40 Error: 0 */
genomestart 14
trait 1 0.0875 0 0 0.00917042 0 0.0744408 0.0948746 0 
trait 2 0.2 0 0 0 0 0 0 0 
trait 3 0.3 0 0 0 0 0.0647276 0 0 
node 1 3 1 1
node 2 2 1 1
node 3 2 1 1
node 4 1 1 1
node 5 1 1 1
node 6 1 1 1
node 7 1 1 3
node 8 3 0 2
gene 2 1 8 0.818274 0 1 0.818274 1
gene 3 2 8 1.28942 0 2 1.28942 1
gene 2 3 8 -1.6654 0 3 -1.6654 1
gene 3 4 8 -0.818331 0 4 -0.818331 1
gene 1 5 8 1.7426 0 5 1.7426 1
gene 2 6 8 1.85284 0 6 1.85284 1
gene 1 7 8 0.167132 0 7 0.167132 1
genomeend 14

/* Organism #15 Fitness: 32 Error: 0 */
genomestart 15
trait 1 0.1 0 0 0 0 0 0 0 
trait 2 0.2 0 0 0 0 0 0 0 
trait 3 0.3 0 0 0 0 0 0 0 
node 1 3 1 1
node 2 2 1 1
node 3 2 1 1
node 4 1 1 1
node 5 1 1 1
node 6 1 1 1
node 7 1 1 3
node 8 3 0 2
gene 1 1 8 2.05016 0 1 2.05016 1
gene 3 2 8 -0.0762671 0 2 -0.0762671 1
gene 2 3 8 -1.55343 0 3 -1.55343 1
gene 3 4 8 -0.0356471 0 4 -0.0356471 1
gene 3 5 8 1.02465 0 5 1.02465 1
gene 1 6 8 2.90412 0 6 2.90412 1
gene 1 7 8 0.428474 0 7 0.428474 1
genomeend 15

/* Organism #16 Fitness: 5 Error: 0 */
genomestart 16
trait 1 0.1 0 0 0 0 0 0 0 
trait 2 0.2 0 0 0 0 0 0 0 
trait 3 0.3 0 0 0 0 0 0 0 
node 1 3 1 1
node 2 3 1 1
node 3 1 1 1
node 4 2 1 1
node 5 3 1 1
node 6 2 1 1
node 7 3 1 3
node 8 2 0 2
gene 1 1 8 -1.54762 0 1 -1.54762 1
gene 3 2 8 1.49528 0 2 1.49528 1
gene 1 3 8 -5.02413 0 3 -5.02413 1
gene 3 4 8 -4.10694 0 4 -4.10694 1
gene 2 5 8 3.19063 0 5 3.19063 1
gene 1 6 8 -1.066 0 6 -1.066 1
gene 1 7 8 0.822543 0 7 0.822543 1
genomeend 16

/* Organism #17 Fitness: 5 Error: 0 */
genomestart 17
trait 1 0.05 0 0 0.0366817 0 0.297763 0.379499 0 
trait 2 0.2 0 0 0 0 0 0 0 
trait 3 0.3 0 0 0 0 0 0 0 
node 1 3 1 1
node 2 3 1 1
node 3 1 1 1
node 4 3 1 1
node 5 2 1 1
node 6 3 1 1
node 7 2 1 3
node 8 1 0 2
gene 1 1 8 0.691745 0 1 0.691745 1
gene 3 2 8 1.42137 0 2 1.42137 1
gene 1 3 8 0.279631 0 3 0.279631 1
gene 3 4 8 0.803837 0 4 0.803837 1
gene 3 5 8 -0.360644 0 5 -0.360644 1
gene 1 6 8 -1.43388 0 6 -1.43388 1
gene 2 7 8 -1.15748 0 7 -1.15748 1
genomeend 17

/* Organism #18 Fitness: 75 Error: 0 */
genomestart 18
trait 1 0.1 0 0 0 0 0 0 0 
trait 2 0.2 0 0 0 0 0 0 0 
trait 3 0.3 0 0 0 0 0 0 0 
node 1 3 1 1
node 2 3 1 1
node 3 1 1 1
node 4 2 1 1
node 5 3 1 1
node 6 2 1 1
node 7 3 1 3
node 8 2 0 2
gene 1 1 8 2.04139 0 1 2.04139 1
gene 3 2 8 -2.20855 0 2 -2.20855 1
gene 2 3 8 -0.503554 0 3 -0.503554 1
gene 3 4 8 -2.60277 0 4 -2.60277 1
gene 1 5 8 3.39549 0 5 3.39549 1
gene 3 6 8 3.20545 0 6 3.20545 1
gene 3 7 8 0.38536 0 7 0.38536 1
genomeend 18

/* Organism #19 Fitness: 35 Error: 0 */
genomestart 19
trait 1 0.0875 0 0 0.00917042 0 0.0744408 0.0948746 0 
trait 2 0.2 0 0 0 0 0 0 0 
trait 3 0.3 0 0 0 0 0 0 0 
node 1 3 1 1
node 2 3 1 1
node 3 3 1 1
node 4 2 1 1
node 5 2 1 1
node 6 3 1 1
node 7 2 1 3
node 8 3 0 2
gene 1 1 8 -0.880108 0 1 -0.880108 1
gene 1 2 8 1.3985 0 2 1.3985 1
gene 2 3 8 -1.13601 0 3 -1.13601 1
gene 3 4 8 -1.22553 0 4 -1.22553 1
gene 1 5 8 -1.19814 0 5 -1.19814 1
gene 1 6 8 2.90412 0 6 2.90412 1
gene 2 7 8 -0.375949 0 7 -0.375949 1
genomeend 19

/* Organism #20 Fitness: 36 Error: 0 */
genomestart 20
trait 1 0.1 0 0 0 0.0874491 0.0334943 0 0 
trait 2 0.2 0 0 0 0 0 0 0 
trait 3 0.3 0 0 0.265093 0.483168 0 0 0 
node 1 3 1 1
node 2 3 1 1
node 3 2 1 1
node 4 1 1 1
node 5 2 1 1
node 6 3 1 1
node 7 2 1 3
node 8 1 0 2
gene 1 1 8 -2.06056 0 1 -2.06056 1
gene 2 2 8 -2.07378 0 2 -2.07378 1
gene 2 3 8 -3.73223 0 3 -3.73223 1
gene 3 4 8 1.19204 0 4 1.19204 1
gene 1 5 8 2.72667 0 5 2.72667 1
gene 1 6 8 0.344185 0 6 0.344185 1
gene 3 7 8 -0.56466 0 7 -0.56466 1
genomeend 20

/* Organism #21 Fitness: 47 Error: 0 */
genomestart 21
trait 1 0.1 0 0 0 0 0 0 0 
trait 2 0.211105 0 0 0 0 0 0 0 
trait 3 0.3 0 0 0 0 0 0 0 
node 1 3 1 1
node 2 3 1 1
node 3 2 1 1
node 4 1 1 1
node 5 2 1 1
node 6 3 1 1
node 7 3 1 3
node 8 1 0 2
gene 1 1 8 0.40151 0 1 0.40151 1
gene 2 2 8 2.55642 0 2 2.55642 1
gene 3 3 8 -1.5032 0 3 -1.5032 1
gene 2 4 8 1.56586 0 4 1.56586 1
gene 3 5 8 4.90903 0 5 4.90903 1
gene 3 6 8 3.20681 0 6 3.20681 1
gene 1 7 8 -1.89204 0 7 -1.89204 1
genomeend 21

/* Organism #22 Fitness: 40 Error: 0 */
genomestart 22
trait 1 0.1 0 0 0 0 0 0 0 
trait 2 0.15 0 0 0 0 0 0 0 
trait 3 0.3 0 0 0 0 0 0 0 
node 1 2 1 1
node 2 1 1 1
node 3 2 1 1
node 4 2 1 1
node 5 1 1 1
node 6 2 1 1
node 7 1 1 3
node 8 1 0 2
gene 1 1 8 0.236634 0 1 0.236634 1
gene 3 2 8 -1.34778 0 2 -1.34778 1
gene 1 3 8 -1.0223 0 3 -1.0223 1
gene 3 4 8 -1.00777 0 4 -1.00777 1
gene 2 5 8 3.53998 0 5 3.53998 1
gene 3 6 8 2.48741 0 6 2.48741 1
gene 2 7 8 -2.21221 0 7 -2.21221 1
genomeend 22

/* Organism #23 Fitness: 22 Error: 0 */
genomestart 23
trait 1 0.1 0 0 0 0 0 0 0 
trait 2 0.2 0 0 0 0 0 0 0 
trait 3 0.3 0 0 0 0 0 0 0 
node 1 3 1 1
node 2 1 1 1
node 3 2 1 1
node 4 2 1 1
node 5 1 1 1
node 6 3 1 1
node 7 1 1 3
node 8 3 0 2
node 18 1 0 0
gene 3 1 8 1.15489 0 1 1.15489 1
gene 3 2 8 2.11726 0 2 2.11726 1
gene 3 3 8 0.271515 0 3 0.271515 1
gene 2 4 8 0.683078 0 4 0.683078 1
gene 3 5 8 1.57907 0 5 1.57907 1
gene 1 6 8 2.01381 0 6 2.01381 0
gene 2 7 8 -0.208864 0 7 -0.208864 1
gene 1 6 18 1 0 26 0 1
gene 1 18 8 2.01381 0 27 0 1
genomeend 23

/* Organism #24 Fitness: 5 Error: 0 */
genomestart 24
trait 1 0.0875 0 0 0.00917042 0 0.0744408 0.0948746 0 
trait 2 0.15 0 0 0 0 0 0 0 
trait 3 0.3 0 0 0 0 0.0647276 0 0 
node 1 2 1 1
node 2 1 1 1
node 3 2 1 1
node 4 2 1 1
node 5 1 1 1
node 6 2 1 1
node 7 1 1 3
node 8 3 0 2
gene 1 1 8 2.57518 0 1 2.57518 1
gene 3 2 8 -1.22567 0 2 -1.22567 1
gene 1 3 8 -2.73612 0 3 -2.73612 1
gene 2 4 8 -2.55418 0 4 -2.55418 1
gene 3 5 8 1.05445 0 5 1.05445 1
gene 3 6 8 -1.75767 0 6 -1.75767 1
gene 3 7 8 1.18016 0 7 1.18016 1
genomeend 24

/* Organism #25 Fitness: 28 Error: 0 */
genomestart 25
trait 1 0.1 0 0 0 0 0 0 0 
trait 2 0.15 0 0 0 0 0 0 0 
trait 3 0.3 0 0 0 0 0 0 0 
node 1 3 1 1
node 2 3 1 1
node 3 2 1 1
node 4 1 1 1
node 5 2 1 1
node 6 3 1 1
node 7 2 1 3
node 8 1 0 2
gene 3 1 8 1.72268 0 1 1.72268 1
gene 2 2 8 1.59855 0 2 1.59855 1
gene 2 3 8 1.73151 0 3 1.73151 1
gene 3 4 8 -0.826764 0 4 -0.826764 1
gene 1 5 8 3.41593 0 5 3.41593 1
gene 3 6 8 1.00813 0 6 1.00813 1
gene 3 7 8 1.81414 0 7 1.81414 1
genomeend 25

/* Organism #26 Fitness: 25 Error: 0 */
genomestart 26
trait 1 0.1 0 0 0 0 0 0 0 
trait 2 0.2 0 0 0 0 0 0 0 
trait 3 0.3 0 0 0 0 0 0 0 
node 1 3 1 1
node 2 1 1 1
node 3 2 1 1
node 4 2 1 1
node 5 1 1 1
node 6 3 1 1
node 7 1 1 3
node 8 3 0 2
gene 2 1 8 2.669 0 1 2.669 1
gene 1 2 8 5.04859 0 2 5.04859 1
gene 3 3 8 -1.98307 0 3 -1.98307 1
gene 2 4 8 3.91874 0 4 3.91874 1
gene 3 5 8 0.385288 0 5 0.385288 1
gene 1 6 8 5.62288 0 6 5.62288 1
gene 2 7 8 1.83846 0 7 1.83846 1
genomeend 26

/* Organism #27 Fitness: 56 Error: 0 */
genomestart 27
trait 1 0.1 0 0 0 0 0 0 0 
trait 2 0.2 0 0 0 0 0 0 0 
trait 3 0.3 0 0 0 0 0 0 0 
node 1 3 1 1
node 2 3 1 1
node 3 1 1 1
node 4 2 1 1
node 5 3 1 1
node 6 2 1 1
node 7 3 1 3
node 8 2 0 2
gene 1 1 8 0.812006 0 1 0.812006 1
gene 3 2 8 1.33265 0 2 1.33265 1
gene 1 3 8 -1.20774 0 3 -1.20774 1
gene 3 4 8 -2.00012 0 4 -2.00012 1
gene 3 5 8 1.67167 0 5 1.67167 1
gene 1 6 8 3.06951 0 6 3.06951 1
gene 1 7 8 -0.364279 0 7 -0.364279 1
genomeend 27

/* Organism #28 Fitness: 7 Error: 0 */
genomestart 28
trait 1 0.1 0 0 0 0 0 0 0 
trait 2 0.211105 0 0 0 0 0 0 0 
trait 3 0.3 0 0 0 0 0 0 0 
node 1 2 1 1
node 2 3 1 1
node 3 3 1 1
node 4 1 1 1
node 5 1 1 1
node 6 2 1 1
node 7 1 1 3
node 8 2 0 2
node 18 1 0 0
gene 3 1 8 -0.574403 0 1 -0.574403 1
gene 3 2 8 0.994822 0 2 0.994822 1
gene 3 3 8 1.12522 0 3 1.12522 1
gene 3 4 8 0.330716 0 4 0.330716 1
gene 2 5 8 0.634661 0 5 0.634661 1
gene 1 6 8 3.10902 0 6 3.10902 0
gene 2 7 8 0.0171859 0 7 0.0171859 1
gene 1 6 18 1 0 26 0 1
gene 1 18 8 3.10902 0 27 0 1
genomeend 28

/* Organism #29 Fitness: 5 Error: 0 */
genomestart 29
trait 1 0.05 0 0 0.0366817 0 0.297763 0.379499 0 
trait 2 0.2 0 0 0 0 0 0 0 
trait 3 0.3 0 0 0 0 0 0 0 
node 1 3 1 1
node 2 3 1 1
node 3 1 1 1
node 4 1 1 1
node 5 2 1 1
node 6 3 1 1
node 7 2 1 3
node 8 1 0 2
gene 2 1 8 2.22724 0 1 2.22724 1
gene 1 2 8 1.9944 0 2 1.9944 1
gene 1 3 8 -3.25952 0 3 -3.25952 1
gene 2 4 8 0.277535 0 4 0.277535 1
gene 2 5 8 -0.846293 0 5 -0.846293 1
gene 3 6 8 -1.05384 0 6 -1.05384 1
gene 2 7 8 -0.941554 0 7 -0.941554 1
genomeend 29

/* Organism #30 Fitness: 42 Error: 0 */
genomestart 30
trait 1 0.1 0 0 0 0 0 0 0 
trait 2 0.2 0 0 0 0 0 0 0 
trait 3 0.3 0 0 0 0 0 0 0 
node 1 1 1 1
node 2 2 1 1
node 3 3 1 1
node 4 1 1 1
node 5 1 1 1
node 6 3 1 1
node 7 2 1 3
node 8 3 0 2
gene 1 1 8 -1.54955 0 1 -1.54955 1
gene 2 2 8 -2.42774 0 2 -2.42774 1
gene 3 3 8 -0.494177 0 3 -0.494177 1
gene 2 4 8 -2.52399 0 4 -2.52399 1
gene 2 5 8 2.13348 0 5 2.13348 1
gene 1 6 8 1.09126 0 6 1.09126 1
gene 2 7 8 0.49234 0 7 0.49234 1
genomeend 30

/* Organism #31 Fitness: 7 Error: 0 */
genomestart 31
trait 1 0.1 0 0 0 0 0 0 0 
trait 2 0.205553 0 0 0 0 0 0 0 
trait 3 0.3 0 0 0 0 0 0 0 
node 1 3 1 1
node 2 2 1 1
node 3 2 1 1
node 4 1 1 1
node 5 1 1 1
node 6 1 1 1
node 7 1 1 3
node 8 3 0 2
gene 1 1 8 2.64907 0 1 2.64907 1
gene 2 2 8 -1.81812 0 2 -1.81812 1
gene 2 3 8 -2.65933 0 3 -2.65933 1
gene 2 4 8 -1.17121 0 4 -1.17121 1
gene 1 5 8 1.12355 0 5 1.12355 1
gene 1 6 8 -0.0405405 0 6 -0.0405405 1
gene 1 7 8 1.27374 0 7 1.27374 1
genomeend 31

/* Organism #32 Fitness: 284 Error: 0 */
genomestart 32
trait 1 0.1 0 0 0 0 0 0 0 
trait 2 0.1 0 0 0 0 0 0 0 
trait 3 0.3 0 0 0 0 0 0 0 
node 1 2 1 1
node 2 1 1 1
node 3 2 1 1
node 4 2 1 1
node 5 1 1 1
node 6 2 1 1
node 7 1 1 3
node 8 3 0 2
gene 1 1 8 2.00304 0 1 2.00304 1
gene 3 2 8 -1.62748 0 2 -1.62748 1
gene 1 3 8 -4.61171 0 3 -4.61171 1
gene 3 4 8 -4.06783 0 4 -4.06783 1
gene 2 5 8 2.87178 0 5 2.87178 1
gene 3 6 8 0.929511 0 6 0.929511 1
gene 2 7 8 0.117897 0 7 0.117897 1
genomeend 32

/* Organism #33 Fitness: 93 Error: 0 */
genomestart 33
trait 1 0.0625 0 0 0.0275112 0 0.223322 0.284624 0 
trait 2 0.2 0 0 0 0 0 0 0 
trait 3 0.3 0 0 0 0 0.129455 0 0 
node 1 3 1 1
node 2 3 1 1
node 3 1 1 1
node 4 3 1 1
node 5 2 1 1
node 6 3 1 1
node 7 2 1 3
node 8 1 0 2
gene 2 1 8 0.414695 0 1 0.414695 1
gene 1 2 8 0.608593 0 2 0.608593 1
gene 1 3 8 -2.73612 0 3 -2.73612 1
gene 3 4 8 -0.59961 0 4 -0.59961 1
gene 2 5 8 1.58456 0 5 1.58456 1
gene 2 6 8 0.780784 0 6 0.780784 1
gene 3 7 8 0.468585 0 7 0.468585 1
genomeend 33

/* Organism #34 Fitness: 94 Error: 0 */
genomestart 34
trait 1 0.1 0 0 0 0 0 0 0 
trait 2 0.2 0 0 0 0 0 0 0 
trait 3 0.3 0 0 0 0 0 0 0 
node 1 3 1 1
node 2 3 1 1
node 3 3 1 1
node 4 2 1 1
node 5 2 1 1
node 6 3 1 1
node 7 2 1 3
node 8 3 0 2
gene 3 1 8 1.06394 0 1 1.06394 1
gene 3 2 8 -0.417524 0 2 -0.417524 1
gene 2 3 8 1.04018 0 3 1.04018 1
gene 2 4 8 -2.30708 0 4 -2.30708 1
gene 1 5 8 0.986937 0 5 0.986937 1
gene 3 6 8 0.703969 0 6 0.703969 1
gene 3 7 8 -0.526847 0 7 -0.526847 1
genomeend 34

/* Organism #35 Fitness: 174 Error: 0 */
genomestart 35
trait 1 0.1 0 0 0 0.0874491 0.0334943 0 0 
trait 2 0.15 0 0 0 0 0 0 0 
trait 3 0.3 0 0 0.265093 0.483168 0 0 0 
node 1 3 1 1
node 2 3 1 1
node 3 2 1 1
node 4 1 1 1
node 5 2 1 1
node 6 3 1 1
node 7 2 1 3
node 8 1 0 2
gene 1 1 8 -0.30741 0 1 -0.30741 1
gene 2 2 8 0.366992 0 2 0.366992 1
gene 2 3 8 -1.22295 0 3 -1.22295 1
gene 3 4 8 -1.08546 0 4 -1.08546 1
gene 2 5 8 0.910278 0 5 0.910278 1
gene 3 6 8 0.454255 0 6 0.454255 1
gene 2 7 8 -0.152915 0 7 -0.152915 1
genomeend 35

/* Organism #36 Fitness: 76 Error: 0 */
genomestart 36
trait 1 0.0375 0 0 0.0458521 0 0.372204 0.474373 0 
trait 2 0.2 0 0 0 0 0 0 0 
trait 3 0.3 0 0 0 0 0 0 0 
node 1 3 1 1
node 2 3 1 1
node 3 1 1 1
node 4 3 1 1
node 5 2 1 1
node 6 3 1 1
node 7 2 1 3
node 8 1 0 2
gene 2 1 8 -1.53152 0 1 -1.53152 1
gene 1 2 8 0.988381 0 2 0.988381 1
gene 1 3 8 -1.00857 0 3 -1.00857 1
gene 3 4 8 0.238634 0 4 0.238634 1
gene 3 5 8 2.50621 0 5 2.50621 1
gene 2 6 8 2.84989 0 6 2.84989 1
gene 1 7 8 -0.179266 0 7 -0.179266 1
genomeend 36

/* Organism #37 Fitness: 5 Error: 0 */
genomestart 37
trait 1 0.1 0 0 0 0 0 0 0 
trait 2 0.1 0 0 0 0 0 0 0 
trait 3 0.3 0 0 0 0 0 0 0 
node 1 2 1 1
node 2 1 1 1
node 3 2 1 1
node 4 2 1 1
node 5 1 1 1
node 6 2 1 1
node 7 1 1 3
node 8 1 0 2
gene 3 1 8 -1.60458 0 1 -1.60458 1
gene 3 2 8 -0.576474 0 2 -0.576474 1
gene 1 3 8 0.705927 0 3 0.705927 1
gene 3 4 8 1.1652 0 4 1.1652 1
gene 2 5 8 -0.204175 0 5 -0.204175 1
gene 3 6 8 -0.309972 0 6 -0.309972 1
gene 2 7 8 2.00673 0 7 2.00673 1
genomeend 37

/* Organism #38 Fitness: 5 Error: 0 */
genomestart 38
trait 1 0.1 0 0 0 0.0874491 0.0334943 0 0 
trait 2 0.15 0 0 0 0 0 0 0 
trait 3 0.3 0 0 0.265093 0.483168 0 0 0 
node 1 3 1 1
node 2 3 1 1
node 3 2 1 1
node 4 1 1 1
node 5 2 1 1
node 6 3 1 1
node 7 2 1 3
node 8 1 0 2
gene 3 1 8 -0.808044 0 1 -0.808044 1
gene 2 2 8 2.66203 0 2 2.66203 1
gene 1 3 8 -2.80056 0 3 -2.80056 1
gene 2 4 8 -1.60512 0 4 -1.60512 1
gene 1 5 8 3.05502 0 5 3.05502 1
gene 3 6 8 -1.17771 0 6 -1.17771 1
gene 3 7 8 -2.6493 0 7 -2.6493 1
genomeend 38

/* Organism #39 Fitness: 64 Error: 0 */
genomestart 39
trait 1 0.1 0 0 0 0 0 0 0 
trait 2 0.205553 0 0 0 0 0 0 0 
trait 3 0.3 0 0 0 0 0 0 0 
node 1 3 1 1
node 2 3 1 1
node 3 2 1 1
node 4 1 1 1
node 5 2 1 1
node 6 3 1 1
node 7 3 1 3
node 8 1 0 2
gene 1 1 8 -0.962239 0 1 -0.962239 1
gene 2 2 8 1.25175 0 2 1.25175 1
gene 3 3 8 -1.46535 0 3 -1.46535 1
gene 2 4 8 -0.62729 0 4 -0.62729 1
gene 1 5 8 0.764411 0 5 0.764411 1
gene 1 6 8 0.881622 0 6 0.881622 1
gene 2 7 8 0.274921 0 7 0.274921 1
genomeend 39

/* Organism #40 Fitness: 30 Error: 0 */
genomestart 40
trait 1 0.1 0 0 0 0 0 0 0 
trait 2 0.211105 0 0 0 0 0 0 0 
trait 3 0.3 0 0 0 0 0 0 0 
node 1 3 1 1
node 2 3 1 1
node 3 2 1 1
node 4 1 1 1
node 5 2 1 1
node 6 3 1 1
node 7 3 1 3
node 8 1 0 2
gene 3 1 8 1.14913 0 1 1.14913 1
gene 3 2 8 -0.0236372 0 2 -0.0236372 1
gene 3 3 8 -2.19398 0 3 -2.19398 1
gene 2 4 8 -1.49087 0 4 -1.49087 1
gene 2 5 8 2.7907 0 5 2.7907 1
gene 3 6 8 3.4851 0 6 3.4851 1
gene 2 7 8 1.7657 0 7 1.7657 1
genomeend 40

/* Organism #41 Fitness: 5 Error: 0 */
genomestart 41
trait 1 0.1 0 0 0 0 0 0 0 
trait 2 0.15 0 0 0 0 0 0 0 
trait 3 0.3 0 0 0 0 0 0 0 
node 1 3 1 1
node 2 3 1 1
node 3 2 1 1
node 4 1 1 1
node 5 2 1 1
node 6 3 1 1
node 7 2 1 3
node 8 1 0 2
gene 3 1 8 -0.286177 0 1 -0.286177 1
gene 2 2 8 0.455021 0 2 0.455021 1
gene 1 3 8 -0.620164 0 3 -0.620164 1
gene 2 4 8 0.203216 0 4 0.203216 1
gene 2 5 8 0.325999 0 5 0.325999 1
gene 1 6 8 0.0183487 0 6 0.0183487 1
gene 2 7 8 -0.838531 0 7 -0.838531 1
genomeend 41

/* Organism #42 Fitness: 21 Error: 0 */
genomestart 42
trait 1 0.1 0 0 0 0 0 0 0 
trait 2 0.2 0 0 0 0 0 0 0 
trait 3 0.3 0 0 0 0 0 0 0 
node 1 3 1 1
node 2 1 1 1
node 3 2 1 1
node 4 2 1 1
node 5 1 1 1
node 6 3 1 1
node 7 1 1 3
node 8 3 0 2
gene 3 1 8 -0.825958 0 1 -0.825958 1
gene 3 2 8 0.2411 0 2 0.2411 1
gene 1 3 8 3.72127 0 3 3.72127 1
gene 2 4 8 1.67069 0 4 1.67069 1
gene 2 5 8 1.40102 0 5 1.40102 1
gene 2 6 8 0.352821 0 6 0.352821 1
gene 2 7 8 -2.56642 0 7 -2.56642 1
genomeend 42

/* Organism #43 Fitness: 5 Error: 0 */
genomestart 43
trait 1 0.1 0 0 0 0 0 0 0 
trait 2 0.2 0 0 0 0 0 0 0 
trait 3 0.3 0 0 0 0 0 0 0 
node 1 1 1 1
node 2 2 1 1
node 3 3 1 1
node 4 1 1 1
node 5 1 1 1
node 6 3 1 1
node 7 2 1 3
node 8 3 0 2
gene 3 1 8 0.207075 0 1 0.207075 1
gene 3 2 8 1.45707 0 2 1.45707 1
gene 3 3 8 -1.94675 0 3 -1.94675 1
gene 2 4 8 -1.79246 0 4 -1.79246 1
gene 2 5 8 0.90947 0 5 0.90947 1
gene 2 6 8 -0.802914 0 6 -0.802914 1
gene 3 7 8 -2.05418 0 7 -2.05418 1
genomeend 43

/* Organism #44 Fitness: 27 Error: 0 */
genomestart 44
trait 1 0.1 0 0 0 0 0 0 0 
trait 2 0.15 0 0 0 0 0 0 0 
trait 3 0.3 0 0 0 0 0 0 0 
node 1 3 1 1
node 2 3 1 1
node 3 2 1 1
node 4 1 1 1
node 5 2 1 1
node 6 3 1 1
node 7 2 1 3
node 8 1 0 2
gene 3 1 8 1.64453 0 1 1.64453 1
gene 2 2 8 2.42222 0 2 2.42222 1
gene 2 3 8 1.01404 0 3 1.01404 1
gene 3 4 8 0.370363 0 4 0.370363 1
gene 2 5 8 3.74441 0 5 3.74441 1
gene 1 6 8 0.135312 0 6 0.135312 1
gene 2 7 8 1.29697 0 7 1.29697 1
genomeend 44

/* Organism #45 Fitness: 55 Error: 0 */
genomestart 45
trait 1 0.1 0 0 0 0 0 0 0 
trait 2 0.2 0 0 0 0 0 0 0 
trait 3 0.3 0 0 0 0 0 0 0 
node 1 3 1 1
node 2 1 1 1
node 3 2 1 1
node 4 2 1 1
node 5 1 1 1
node 6 3 1 1
node 7 1 1 3
node 8 3 0 2
gene 1 1 8 -0.162686 0 1 -0.162686 1
gene 1 2 8 2.15329 0 2 2.15329 1
gene 2 3 8 0.581283 0 3 0.581283 1
gene 3 4 8 -2.04163 0 4 -2.04163 1
gene 3 5 8 1.02465 0 5 1.02465 1
gene 3 6 8 0.944607 0 6 0.944607 1
gene 3 7 8 -0.567707 0 7 -0.567707 1
genomeend 45

/* Organism #46 Fitness: 5 Error: 0 */
genomestart 46
trait 1 0.075 0 0 0.0183408 0 0.148882 0.189749 0 
trait 2 0.2 0 0 0 0 0 0 0 
trait 3 0.3 0 0 0 0 0 0 0 
node 1 3 1 1
node 2 3 1 1
node 3 1 1 1
node 4 3 1 1
node 5 2 1 1
node 6 3 1 1
node 7 2 1 3
node 8 1 0 2
gene 2 1 8 -2.40028 0 1 -2.40028 1
gene 1 2 8 0.977376 0 2 0.977376 1
gene 1 3 8 0.213983 0 3 0.213983 1
gene 3 4 8 -2.50211 0 4 -2.50211 1
gene 2 5 8 0.17728 0 5 0.17728 1
gene 2 6 8 -1.91197 0 6 -1.91197 1
gene 1 7 8 -0.653156 0 7 -0.653156 1
genomeend 46

/* Organism #47 Fitness: 72 Error: 0 */
genomestart 47
trait 1 0.0875 0 0 0.00917042 0 0.0744408 0.0948746 0 
trait 2 0.2 0 0 0 0 0 0 0 
trait 3 0.3 0 0 0 0 0 0 0 
node 1 3 1 1
node 2 1 1 1
node 3 2 1 1
node 4 1 1 1
node 5 1 1 1
node 6 1 1 1
node 7 1 1 3
node 8 3 0 2
gene 1 1 8 0.463577 0 1 0.463577 1
gene 1 2 8 0.0418815 0 2 0.0418815 1
gene 1 3 8 2.03175 0 3 2.03175 1
gene 2 4 8 -0.401744 0 4 -0.401744 1
gene 2 5 8 1.07715 0 5 1.07715 1
gene 1 6 8 2.90412 0 6 2.90412 1
gene 2 7 8 -0.278775 0 7 -0.278775 1
genomeend 47

/* Organism #48 Fitness: 30 Error: 0 */
genomestart 48
trait 1 0.1 0 0 0 0 0 0 0 
trait 2 0.205553 0 0 0 0 0 0 0 
trait 3 0.3 0 0 0 0 0 0 0 
node 1 2 1 1
node 2 3 1 1
node 3 3 1 1
node 4 1 1 1
node 5 1 1 1
node 6 2 1 1
node 7 1 1 3
node 8 2 0 2
gene 3 1 8 1.21968 0 1 1.21968 1
gene 3 2 8 1.26178 0 2 1.26178 1
gene 3 3 8 -0.0471288 0 3 -0.0471288 1
gene 3 4 8 -3.03955 0 4 -3.03955 1
gene 2 5 8 -1.42394 0 5 -1.42394 1
gene 1 6 8 1.84248 0 6 1.84248 1
gene 2 7 8 0.0866784 0 7 0.0866784 1
genomeend 48

/* Organism #49 Fitness: 53 Error: 0 */
genomestart 49
trait 1 0.1 0 0 0 0 0 0 0 
trait 2 0.2 0 0 0 0 0 0 0 
trait 3 0.3 0 0 0 0 0 0 0 
node 1 3 1 1
node 2 3 1 1
node 3 1 1 1
node 4 2 1 1
node 5 3 1 1
node 6 2 1 1
node 7 3 1 3
node 8 2 0 2
gene 3 1 8 -0.368544 0 1 -0.368544 1
gene 3 2 8 -0.271304 0 2 -0.271304 1
gene 1 3 8 -0.279128 0 3 -0.279128 1
gene 3 4 8 0.108038 0 4 0.108038 1
gene 2 5 8 1.58456 0 5 1.58456 1
gene 2 6 8 0.955952 0 6 0.955952 1
gene 1 7 8 -0.168206 0 7 -0.168206 1
genomeend 49

/* Organism #50 Fitness: 43 Error: 0 */
genomestart 50
trait 1 0.075 0 0 0.0183408 0 0.148882 0.189749 0 
trait 2 0.2 0 0 0 0 0 0 0 
trait 3 0.3 0 0 0 0 0 0 0 
node 1 3 1 1
node 2 1 1 1
node 3 2 1 1
node 4 1 1 1
node 5 1 1 1
node 6 1 1 1
node 7 1 1 3
node 8 3 0 2
gene 2 1 8 -0.146744 0 1 -0.146744 1
gene 3 2 8 -0.00434019 0 2 -0.00434019 1
gene 1 3 8 1.71248 0 3 1.71248 1
gene 3 4 8 2.36938 0 4 2.36938 1
gene 2 5 8 4.40615 0 5 4.40615 1
gene 1 6 8 0.459484 0 6 0.459484 1
gene 2 7 8 -2.52081 0 7 -2.52081 1
genomeend 50

/* Organism #51 Fitness: 34 Error: 0 */
genomestart 51
trait 1 0.1 0 0 0 0 0 0 0 
trait 2 0.2 0 0 0 0 0 0 0 
trait 3 0.3 0 0 0 0 0 0 0 
node 1 3 1 1
node 2 3 1 1
node 3 3 1 1
node 4 2 1 1
node 5 2 1 1
node 6 3 1 1
node 7 2 1 3
node 8 3 0 2
gene 1 1 8 0.300497 0 1 0.300497 1
gene 3 2 8 0.874905 0 2 0.874905 1
gene 2 3 8 0.580798 0 3 0.580798 1
gene 2 4 8 -0.1812 0 4 -0.1812 1
gene 1 5 8 2.31125 0 5 2.31125 1
gene 1 6 8 1.74567 0 6 1.74567 1
gene 1 7 8 -0.369845 0 7 -0.369845 1
genomeend 51

/* Organism #52 Fitness: 41 Error: 0 */
genomestart 52
trait 1 0.1 0 0 0 0 0 0 0 
trait 2 0.15 0 0 0 0 0 0 0 
trait 3 0.3 0 0 0 0 0 0 0 
node 1 3 1 1
node 2 2 1 1
node 3 2 1 1
node 4 2 1 1
node 5 1 1 1
node 6 3 1 1
node 7 1 1 3
node 8 3 0 2
gene 1 1 8 1.08365 0 1 1.08365 1
gene 3 2 8 0.22693 0 2 0.22693 1
gene 2 3 8 -0.788612 0 3 -0.788612 1
gene 2 4 8 -1.63744 0 4 -1.63744 1
gene 2 5 8 3.72385 0 5 3.72385 1
gene 3 6 8 1.9845 0 6 1.9845 1
gene 2 7 8 -2.5699 0 7 -2.5699 1
genomeend 52

/* Organism #53 Fitness: 24 Error: 0 */
genomestart 53
trait 1 0.075 0 0 0.0183408 0 0.148882 0.189749 0 
trait 2 0.2 0 0 0 0 0 0 0 
trait 3 0.3 0 0 0 0 0 0 0 
node 1 3 1 1
node 2 2 1 1
node 3 2 1 1
node 4 2 1 1
node 5 1 1 1
node 6 3 1 1
node 7 1 1 3
node 8 3 0 2
gene 1 1 8 1.18842 0 1 1.18842 1
gene 1 2 8 2.37766 0 2 2.37766 1
gene 2 3 8 -1.02886 0 3 -1.02886 1
gene 2 4 8 -0.195381 0 4 -0.195381 1
gene 1 5 8 -2.38292 0 5 -2.38292 1
gene 3 6 8 3.09107 0 6 3.09107 1
gene 3 7 8 -0.224681 0 7 -0.224681 1
genomeend 53

/* Organism #54 Fitness: 5 Error: 0 */
genomestart 54
trait 1 0.1 0 0 0 0 0 0 0 
trait 2 0.2 0 0 0 0 0 0 0 
trait 3 0.3 0 0 0 0 0 0 0 
node 1 3 1 1
node 2 3 1 1
node 3 2 1 1
node 4 2 1 1
node 5 2 1 1
node 6 3 1 1
node 7 3 1 3
node 8 1 0 2
gene 1 1 8 1.29111 0 1 1.29111 1
gene 2 2 8 1.5067 0 2 1.5067 1
gene 3 3 8 1.11507 0 3 1.11507 1
gene 3 4 8 0.593638 0 4 0.593638 1
gene 1 5 8 0.923985 0 5 0.923985 1
gene 1 6 8 -1.13723 0 6 -1.13723 1
gene 2 7 8 -1.95143 0 7 -1.95143 1
genomeend 54

/* Organism #55 Fitness: 5 Error: 0 */
genomestart 55
trait 1 0.075 0 0 0.0183408 0 0.148882 0.189749 0 
trait 2 0.15 0 0 0 0 0 0 0 
trait 3 0.3 0 0 0 0 0 0 0 
node 1 3 1 1
node 2 3 1 1
node 3 1 1 1
node 4 3 1 1
node 5 2 1 1
node 6 3 1 1
node 7 2 1 3
node 8 1 0 2
gene 2 1 8 3.04027 0 1 3.04027 1
gene 3 2 8 2.43014 0 2 2.43014 1
gene 1 3 8 -0.656383 0 3 -0.656383 1
gene 3 4 8 -4.19347 0 4 -4.19347 1
gene 3 5 8 3.1527 0 5 3.1527 1
gene 3 6 8 -0.114403 0 6 -0.114403 1
gene 2 7 8 -0.309514 0 7 -0.309514 1
genomeend 55

/* Organism #56 Fitness: 20 Error: 0 */
genomestart 56
trait 1 0.025 0 0 0.0550225 0 0.446645 0.569248 0 
trait 2 0.2 0 0 0 0 0 0 0 
trait 3 0.3 0 0 0 0 0 0 0 
node 1 3 1 1
node 2 3 1 1
node 3 1 1 1
node 4 3 1 1
node 5 2 1 1
node 6 3 1 1
node 7 2 1 3
node 8 1 0 2
gene 2 1 8 -0.582191 0 1 -0.582191 1
gene 1 2 8 0.373595 0 2 0.373595 1
gene 1 3 8 -2.88066 0 3 -2.88066 1
gene 2 4 8 1.90247 0 4 1.90247 1
gene 2 5 8 1.39091 0 5 1.39091 1
gene 3 6 8 0.202945 0 6 0.202945 1
gene 3 7 8 -0.649032 0 7 -0.649032 1
genomeend 56

/* Organism #57 Fitness: 5 Error: 0 */
genomestart 57
trait 1 0.075 0 0 0.0183408 0 0.148882 0.189749 0 
trait 2 0.2 0 0 0 0 0 0 0 
trait 3 0.3 0 0 0 0 0 0 0 
node 1 3 1 1
node 2 3 1 1
node 3 1 1 1
node 4 3 1 1
node 5 2 1 1
node 6 3 1 1
node 7 2 1 3
node 8 1 0 2
gene 1 1 8 -0.342695 0 1 -0.342695 1
gene 1 2 8 -1.06299 0 2 -1.06299 1
gene 1 3 8 -4.24758 0 3 -4.24758 1
gene 3 4 8 -3.52644 0 4 -3.52644 1
gene 3 5 8 1.49874 0 5 1.49874 1
gene 1 6 8 -1.6209 0 6 -1.6209 1
gene 1 7 8 -2.5792 0 7 -2.5792 1
genomeend 57

/* Organism #58 Fitness: 59 Error: 0 */
genomestart 58
trait 1 0.1 0 0 0 0 0 0 0 
trait 2 0.205553 0 0 0 0 0 0 0 
trait 3 0.3 0 0 0 0 0 0 0 
node 1 2 1 1
node 2 3 1 1
node 3 3 1 1
node 4 1 1 1
node 5 1 1 1
node 6 2 1 1
node 7 1 1 3
node 8 2 0 2
gene 3 1 8 -0.574403 0 1 -0.574403 1
gene 1 2 8 2.93661 0 2 2.93661 1
gene 3 3 8 1.12522 0 3 1.12522 1
gene 3 4 8 0.330716 0 4 0.330716 1
gene 2 5 8 0.634661 0 5 0.634661 1
gene 1 6 8 3.10902 0 6 3.10902 1
gene 2 7 8 0.0171859 0 7 0.0171859 1
genomeend 58

/* Organism #59 Fitness: 5 Error: 0 */
genomestart 59
trait 1 0.1 0 0 0 0 0 0 0 
trait 2 0.211105 0 0 0 0 0 0 0 
trait 3 0.3 0 0 0 0 0 0 0 
node 1 2 1 1
node 2 3 1 1
node 3 3 1 1
node 4 1 1 1
node 5 1 1 1
node 6 2 1 1
node 7 1 1 3
node 8 2 0 2
gene 3 1 8 0.685804 0 1 0.685804 1
gene 3 2 8 1.35539 0 2 1.35539 1
gene 3 3 8 3.05737 0 3 3.05737 1
gene 3 4 8 -0.157018 0 4 -0.157018 1
gene 2 5 8 1.77308 0 5 1.77308 1
gene 1 6 8 -0.848089 0 6 -0.848089 1
gene 2 7 8 2.25376 0 7 2.25376 1
genomeend 59

/* Organism #60 Fitness: 48 Error: 0 */
genomestart 60
trait 1 0.075 0 0 0.0183408 0 0.148882 0.189749 0 
trait 2 0.2 0 0 0 0 0 0 0.854007 
trait 3 0.3 0 0 0 0 0 0 0 
node 1 3 1 1
node 2 3 1 1
node 3 1 1 1
node 4 3 1 1
node 5 2 1 1
node 6 3 1 1
node 7 2 1 3
node 8 1 0 2
gene 2 1 8 1.03019 0 1 1.03019 1
gene 1 2 8 3.3067 0 2 3.3067 1
gene 1 3 8 -1.13007 0 3 -1.13007 1
gene 3 4 8 -0.577031 0 4 -0.577031 1
gene 3 5 8 0.993488 0 5 0.993488 1
gene 1 6 8 0.745451 0 6 0.745451 1
gene 2 7 8 0.0156919 0 7 0.0156919 1
genomeend 60

/* Organism #61 Fitness: 25 Error: 0 */
genomestart 61
trait 1 0.05 0 0 0.0366817 0 0.297763 0.379499 0 
trait 2 0.2 0 0 0 0 0 0 0 
trait 3 0.3 0 0 0 0 0.129455 0 0 
node 1 3 1 1
node 2 3 1 1
node 3 1 1 1
node 4 3 1 1
node 5 2 1 1
node 6 3 1 1
node 7 2 1 3
node 8 1 0 2
gene 2 1 8 1.81632 0 1 1.81632 1
gene 1 2 8 0.0512762 0 2 0.0512762 1
gene 1 3 8 2.15955 0 3 2.15955 1
gene 3 4 8 1.35622 0 4 1.35622 1
gene 3 5 8 0.0738266 0 5 0.0738266 1
gene 1 6 8 3.10344 0 6 3.10344 1
gene 3 7 8 -1.42986 0 7 -1.42986 1
genomeend 61

/* Organism #62 Fitness: 6 Error: 0 */
genomestart 62
trait 1 0.1 0 0 0 0 0 0 0 
trait 2 0.15 0 0 0 0 0 0 0 
trait 3 0.3 0 0 0 0 0 0 0 
node 1 2 1 1
node 2 1 1 1
node 3 2 1 1
node 4 2 1 1
node 5 1 1 1
node 6 2 1 1
node 7 1 1 3
node 8 3 0 2
gene 1 1 8 -0.106965 0 1 -0.106965 1
gene 3 2 8 1.36246 0 2 1.36246 1
gene 1 3 8 1.60154 0 3 1.60154 1
gene 3 4 8 0.0426463 0 4 0.0426463 1
gene 2 5 8 1.27701 0 5 1.27701 1
gene 1 6 8 -1.69218 0 6 -1.69218 1
gene 2 7 8 -0.362179 0 7 -0.362179 1
genomeend 62

/* Organism #63 Fitness: 33 Error: 0 */
genomestart 63
trait 1 0.1 0 0 0 0 0 0 0 
trait 2 0.2 0 0 0 0 0 0 0 
trait 3 0.3 0 0 0 0 0 0 0 
node 1 3 1 1
node 2 1 1 1
node 3 2 1 1
node 4 2 1 1
node 5 1 1 1
node 6 3 1 1
node 7 1 1 3
node 8 3 0 2
gene 2 1 8 1.03019 0 1 1.03019 1
gene 2 2 8 1.7956 0 2 1.7956 1
gene 3 3 8 -2.10778 0 3 -2.10778 1
gene 2 4 8 0.330524 0 4 0.330524 1
gene 2 5 8 0.812431 0 5 0.812431 1
gene 1 6 8 3.548 0 6 3.548 1
gene 3 7 8 -2.03413 0 7 -2.03413 1
genomeend 63

/* Organism #64 Fitness: 44 Error: 0 */
genomestart 64
trait 1 0.1 0 0 0 0 0 0 0 
trait 2 0.2 0 0 0 0 0 0 0 
trait 3 0.3 0 0 0 0 0 0 0 
node 1 3 1 1
node 2 3 1 1
node 3 1 1 1
node 4 2 1 1
node 5 3 1 1
node 6 1 1 1
node 7 3 1 3
node 8 2 0 2
gene 1 1 8 0.0200029 0 1 0.0200029 1
gene 1 2 8 3.88239 0 2 3.88239 1
gene 1 3 8 0.961953 0 3 0.961953 1
gene 3 4 8 -0.798882 0 4 -0.798882 1
gene 3 5 8 1.83011 0 5 1.83011 1
gene 1 6 8 4.55342 0 6 4.55342 1
gene 1 7 8 -1.87032 0 7 -1.87032 1
genomeend 64

/* Organism #65 Fitness: 17 Error: 0 */
genomestart 65
trait 1 0.1 0 0 0 0 0 0 0 
trait 2 0.205553 0 0 0 0 0 0 0 
trait 3 0.3 0 0 0 0 0 0 0 
node 1 2 1 1
node 2 3 1 1
node 3 3 1 1
node 4 1 1 1
node 5 1 1 1
node 6 2 1 1
node 7 1 1 3
node 8 2 0 2
gene 1 1 8 0.190893 0 1 0.190893 1
gene 3 2 8 0.876836 0 2 0.876836 1
gene 1 3 8 -0.715789 0 3 -0.715789 1
gene 3 4 8 -2.79289 0 4 -2.79289 1
gene 2 5 8 3.52319 0 5 3.52319 1
gene 1 6 8 0.287427 0 6 0.287427 1
gene 2 7 8 -0.156282 0 7 -0.156282 1
genomeend 65

/* Organism #66 Fitness: 52 Error: 0 */
genomestart 66
trait 1 0.0875 0 0 0.00917042 0 0.0744408 0.0948746 0 
trait 2 0.15 0 0 0 0 0 0 0 
trait 3 0.3 0 0 0 0 0 0 0 
node 1 2 1 1
node 2 1 1 1
node 3 2 1 1
node 4 2 1 1
node 5 1 1 1
node 6 2 1 1
node 7 1 1 3
node 8 1 0 2
gene 1 1 8 -0.0413372 0 1 -0.0413372 1
gene 1 2 8 1.70819 0 2 1.70819 1
gene 1 3 8 -3.10136 0 3 -3.10136 1
gene 3 4 8 -1.94682 0 4 -1.94682 1
gene 2 5 8 3.06429 0 5 3.06429 1
gene 2 6 8 1.07705 0 6 1.07705 1
gene 2 7 8 0.968451 0 7 0.968451 1
genomeend 66

/* Organism #67 Fitness: 65 Error: 0 */
genomestart 67
trait 1 0.1 0 0 0 0 0 0 0 
trait 2 0.15 0 0 0 0 0 0 0 
trait 3 0.3 0 0 0 0 0 0 0 
node 1 3 1 1
node 2 3 1 1
node 3 2 1 1
node 4 1 1 1
node 5 2 1 1
node 6 3 1 1
node 7 2 1 3
node 8 1 0 2
gene 3 1 8 -0.594724 0 1 -0.594724 1
gene 2 2 8 1.10876 0 2 1.10876 1
gene 1 3 8 -0.860882 0 3 -0.860882 1
gene 3 4 8 -0.0584804 0 4 -0.0584804 1
gene 2 5 8 0.943902 0 5 0.943902 1
gene 2 6 8 1.12822 0 6 1.12822 1
gene 2 7 8 -0.25355 0 7 -0.25355 1
genomeend 67

/* Organism #68 Fitness: 38 Error: 0 */
genomestart 68
trait 1 0.075 0 0 0.0183408 0 0.148882 0.189749 0 
trait 2 0.2 0 0 0 0 0 0 0 
trait 3 0.3 0 0 0 0 0.129455 0 0 
node 1 3 1 1
node 2 3 1 1
node 3 1 1 1
node 4 3 1 1
node 5 2 1 1
node 6 3 1 1
node 7 2 1 3
node 8 1 0 2
gene 2 1 8 -0.100821 0 1 -0.100821 1
gene 1 2 8 0.608593 0 2 0.608593 1
gene 2 3 8 1.49908 0 3 1.49908 1
gene 3 4 8 0.0418866 0 4 0.0418866 1
gene 1 5 8 0.983672 0 5 0.983672 1
gene 2 6 8 0.78829 0 6 0.78829 1
gene 3 7 8 -0.485986 0 7 -0.485986 1
genomeend 68

/* Organism #69 Fitness: 66 Error: 0 */
genomestart 69
trait 1 0.1 0 0 0 0 0 0 0 
trait 2 0.2 0 0 0 0 0 0 0 
trait 3 0.3 0 0 0 0 0 0 0 
node 1 3 1 1
node 2 2 1 1
node 3 2 1 1
node 4 1 1 1
node 5 1 1 1
node 6 1 1 1
node 7 1 1 3
node 8 3 0 2
gene 1 1 8 2.05016 0 1 2.05016 1
gene 3 2 8 -0.0762671 0 2 -0.0762671 1
gene 2 3 8 -1.55343 0 3 -1.55343 1
gene 2 4 8 -0.760372 0 4 -0.760372 1
gene 1 5 8 1.27416 0 5 1.27416 1
gene 1 6 8 2.09123 0 6 2.09123 1
gene 1 7 8 0.428474 0 7 0.428474 1
genomeend 69

/* Organism #70 Fitness: 52 Error: 0 */
genomestart 70
trait 1 0.1 0 0 0 0 0 0 0 
trait 2 0.2 0 0 0 0 0 0 0 
trait 3 0.3 0 0 0 0 0 0 0 
node 1 3 1 1
node 2 3 1 1
node 3 2 1 1
node 4 2 1 1
node 5 2 1 1
node 6 3 1 1
node 7 3 1 3
node 8 1 0 2
gene 1 1 8 -0.0428741 0 1 -0.0428741 1
gene 3 2 8 1.71631 0 2 1.71631 1
gene 2 3 8 -2.99614 0 3 -2.99614 1
gene 3 4 8 -2.06184 0 4 -2.06184 1
gene 2 5 8 4.92181 0 5 4.92181 1
gene 1 6 8 2.99503 0 6 2.99503 1
gene 1 7 8 -2.04069 0 7 -2.04069 1
genomeend 70

/* Organism #71 Fitness: 72 Error: 0 */
genomestart 71
trait 1 0.0875 0 0 0.00917042 0 0.0744408 0.0948746 0 
trait 2 0.2 0 0 0 0 0 0 0 
trait 3 0.3 0 0 0 0 0 0 0 
node 1 3 1 1
node 2 3 1 1
node 3 2 1 1
node 4 1 1 1
node 5 2 1 1
node 6 3 1 1
node 7 2 1 3
node 8 1 0 2
gene 2 1 8 -0.165161 0 1 -0.165161 1
gene 1 2 8 0.210056 0 2 0.210056 1
gene 1 3 8 -1.24245 0 3 -1.24245 1
gene 2 4 8 -0.534482 0 4 -0.534482 1
gene 1 5 8 1.19648 0 5 1.19648 1
gene 3 6 8 1.00595 0 6 1.00595 1
gene 1 7 8 -0.0431006 0 7 -0.0431006 1
genomeend 71

/* Organism #72 Fitness: 29 Error: 0 */
genomestart 72
trait 1 0.0625 0 0 0.0275112 0 0.223322 0.284624 0 
trait 2 0.2 0 0 0 0 0 0 0 
trait 3 0.3 0 0 0 0 0 0 0 
node 1 3 1 1
node 2 1 1 1
node 3 2 1 1
node 4 1 1 1
node 5 1 1 1
node 6 1 1 1
node 7 1 1 3
node 8 3 0 2
gene 1 1 8 0.79956 0 1 0.79956 1
gene 1 2 8 -0.315697 0 2 -0.315697 1
gene 2 3 8 -0.581746 0 3 -0.581746 1
gene 3 4 8 0.787205 0 4 0.787205 1
gene 3 5 8 1.67373 0 5 1.67373 1
gene 1 6 8 2.75728 0 6 2.75728 1
gene 2 7 8 -1.59227 0 7 -1.59227 1
genomeend 72

/* Organism #73 Fitness: 5 Error: 0 */
genomestart 73
trait 1 0.0875 0 0 0.00917042 0 0.0744408 0.0948746 0 
trait 2 0.2 0 0 0 0 0 0 0 
trait 3 0.3 0 0 0 0 0 0 0 
node 1 3 1 1
node 2 3 1 1
node 3 1 1 1
node 4 2 1 1
node 5 3 1 1
node 6 2 1 1
node 7 3 1 3
node 8 2 0 2
gene 1 1 8 1.40637 0 1 1.40637 1
gene 1 2 8 0.847422 0 2 0.847422 1
gene 1 3 8 -0.269687 0 3 -0.269687 1
gene 3 4 8 -3.425 0 4 -3.425 1
gene 1 5 8 3.1268 0 5 3.1268 1
gene 3 6 8 -1.13829 0 6 -1.13829 1
gene 1 7 8 -1.0034 0 7 -1.0034 1
genomeend 73

/* Organism #74 Fitness: 20 Error: 0 */
genomestart 74
trait 1 0.1 0 0 0 0 0 0 0 
trait 2 0.15 0 0 0 0 0 0 0 
trait 3 0 0 0 0 0 0 0 0 
node 1 2 1 1
node 2 1 1 1
node 3 2 1 1
node 4 2 1 1
node 5 1 1 1
node 6 2 1 1
node 7 1 1 3
node 8 1 0 2
gene 2 1 8 5.06916 0 1 5.06916 1
gene 3 2 8 0.762384 0 2 0.762384 1
gene 1 3 8 1.40283 0 3 1.40283 1
gene 3 4 8 -0.0583919 0 4 -0.0583919 1
gene 2 5 8 -1.37033 0 5 -1.37033 1
gene 2 6 8 2.75393 0 6 2.75393 1
gene 2 7 8 -1.33249 0 7 -1.33249 1
genomeend 74

/* Organism #75 Fitness: 60 Error: 0 */
genomestart 75
trait 1 0.1 0 0 0 0 0 0 0 
trait 2 0.2 0 0 0 0 0 0 0 
trait 3 0.3 0 0 0 0 0 0 0 
node 1 3 1 1
node 2 1 1 1
node 3 2 1 1
node 4 1 1 1
node 5 1 1 1
node 6 1 1 1
node 7 1 1 3
node 8 3 0 2
gene 1 1 8 0.792439 0 1 0.792439 1
gene 3 2 8 -0.504668 0 2 -0.504668 1
gene 1 3 8 0.31387 0 3 0.31387 1
gene 3 4 8 1.60637 0 4 1.60637 1
gene 2 5 8 3.48382 0 5 3.48382 1
gene 1 6 8 3.63612 0 6 3.63612 1
gene 1 7 8 -0.649701 0 7 -0.649701 1
genomeend 75

/* Organism #76 Fitness: 5 Error: 0 */
genomestart 76
trait 1 0.05 0 0 0.0366817 0 0.297763 0.379499 0 
trait 2 0.205553 0 0 0 0 0 0 0 
trait 3 0.3 0 0 0 0 0 0 0 
node 1 3 1 1
node 2 3 1 1
node 3 1 1 1
node 4 3 1 1
node 5 2 1 1
node 6 3 1 1
node 7 2 1 3
node 8 1 0 2
gene 2 1 8 1.15174 0 1 1.15174 1
gene 2 2 8 3.56023 0 2 3.56023 1
gene 1 3 8 -2.62558 0 3 -2.62558 1
gene 3 4 8 -0.22347 0 4 -0.22347 1
gene 3 5 8 2.86157 0 5 2.86157 1
gene 2 6 8 -0.372738 0 6 -0.372738 1
gene 3 7 8 1.825 0 7 1.825 1
genomeend 76

/* Organism #77 Fitness: 13 Error: 0 */
genomestart 77
trait 1 0.1 0 0 0 0 0 0 0 
trait 2 0.2 0 0 0 0 0 0 0 
trait 3 0.3 0 0 0 0 0 0 0 
node 1 3 1 1
node 2 1 1 1
node 3 2 1 1
node 4 2 1 1
node 5 1 1 1
node 6 3 1 1
node 7 1 1 3
node 8 3 0 2
gene 2 1 8 3.24808 0 1 3.24808 1
gene 1 2 8 2.60337 0 2 2.60337 1
gene 3 3 8 -1.21249 0 3 -1.21249 1
gene 2 4 8 1.86171 0 4 1.86171 1
gene 3 5 8 3.53585 0 5 3.53585 1
gene 1 6 8 -0.22122 0 6 -0.22122 1
gene 2 7 8 0.503471 0 7 0.503471 1
genomeend 77

/* Organism #78 Fitness: 181 Error: 0 */
genomestart 78
trait 1 0.0875 0 0 0.00917042 0 0.0744408 0.0948746 0 
trait 2 0.15 0 0 0 0 0 0 0 
trait 3 0.3 0 0 0 0 0 0 0 
node 1 3 1 1
node 2 3 1 1
node 3 1 1 1
node 4 2 1 1
node 5 3 1 1
node 6 2 1 1
node 7 3 1 3
node 8 2 0 2
gene 2 1 8 0.260802 0 1 0.260802 1
gene 3 2 8 0.177944 0 2 0.177944 1
gene 1 3 8 -2.73612 0 3 -2.73612 1
gene 3 4 8 -1.32062 0 4 -1.32062 1
gene 2 5 8 1.58456 0 5 1.58456 1
gene 3 6 8 0.729643 0 6 0.729643 1
gene 1 7 8 0.0407789 0 7 0.0407789 1
genomeend 78

/* Organism #79 Fitness: 37 Error: 0 */
genomestart 79
trait 1 0.0625 0 0 0.0275112 0 0.223322 0.284624 0 
trait 2 0.2 0 0 0 0 0 0 0 
trait 3 0.3 0 0 0 0 0 0 0 
node 1 3 1 1
node 2 3 1 1
node 3 1 1 1
node 4 3 1 1
node 5 2 1 1
node 6 3 1 1
node 7 2 1 3
node 8 1 0 2
node 16 1 0 0
gene 2 1 8 0.396376 0 1 0.396376 1
gene 2 2 8 0.411707 0 2 0.411707 1
gene 1 3 8 -1.08855 0 3 -1.08855 0
gene 3 4 8 -0.535335 0 4 -0.535335 1
gene 3 5 8 0.917403 0 5 0.917403 1
gene 2 6 8 0.615372 0 6 0.615372 1
gene 1 7 8 0.108582 0 7 0.108582 1
gene 1 3 16 1 0 22 0 1
gene 1 16 8 -1.08855 0 23 0 1
genomeend 79

/* Organism #80 Fitness: 54 Error: 0 */
genomestart 80
trait 1 0.1 0 0 0 0 0 0 0 
trait 2 0.2 0 0 0 0 0 0 0 
trait 3 0.3 0 0 0 0 0 0 0 
node 1 3 1 1
node 2 3 1 1
node 3 3 1 1
node 4 2 1 1
node 5 2 1 1
node 6 3 1 1
node 7 2 1 3
node 8 3 0 2
gene 2 1 8 0.0885363 0 1 0.0885363 1
gene 1 2 8 2.15329 0 2 2.15329 1
gene 1 3 8 2.03175 0 3 2.03175 1
gene 2 4 8 -0.401744 0 4 -0.401744 1
gene 1 5 8 0.990202 0 5 0.990202 1
gene 1 6 8 2.90412 0 6 2.90412 1
gene 2 7 8 -0.278775 0 7 -0.278775 1
genomeend 80

/* Organism #81 Fitness: 5 Error: 0 */
genomestart 81
trait 1 0.1 0 0 0 0 0 0 0 
trait 2 0.2 0 0 0 0 0 0 0 
trait 3 0.3 0 0 0 0 0 0 0 
node 1 3 1 1
node 2 1 1 1
node 3 2 1 1
node 4 1 1 1
node 5 1 1 1
node 6 1 1 1
node 7 1 1 3
node 8 3 0 2
gene 1 1 8 0.270321 0 1 0.270321 1
gene 3 2 8 -0.504668 0 2 -0.504668 1
gene 2 3 8 1.49908 0 3 1.49908 1
gene 3 4 8 1.60637 0 4 1.60637 1
gene 2 5 8 -2.4383 0 5 -2.4383 1
gene 1 6 8 -1.72206 0 6 -1.72206 1
gene 1 7 8 0.175219 0 7 0.175219 1
genomeend 81

/* Organism #82 Fitness: 55 Error: 0 */
genomestart 82
trait 1 0.1 0 0 0 0 0 0 0 
trait 2 0.15 0 0 0 0 0 0 0 
trait 3 0.3 0 0 0 0 0 0 0 
node 1 3 1 1
node 2 3 1 1
node 3 2 1 1
node 4 1 1 1
node 5 2 1 1
node 6 2 1 1
node 7 2 1 3
node 8 1 0 2
gene 2 1 8 -0.573766 0 1 -0.573766 1
gene 2 2 8 0.723491 0 2 0.723491 1
gene 1 3 8 -3.35054 0 3 -3.35054 1
gene 2 4 8 -2.49554 0 4 -2.49554 1
gene 2 5 8 2.85661 0 5 2.85661 1
gene 3 6 8 3.64858 0 6 3.64858 1
gene 2 7 8 -0.257215 0 7 -0.257215 1
genomeend 82

/* Organism #83 Fitness: 5 Error: 0 */
genomestart 83
trait 1 0.1 0 0 0 0 0 0 0 
trait 2 0.15 0 0 0 0 0 0 0 
trait 3 0.3 0 0 0 0 0 0 0 
node 1 1 1 1
node 2 2 1 1
node 3 3 1 1
node 4 1 1 1
node 5 1 1 1
node 6 3 1 1
node 7 2 1 3
node 8 3 0 2
gene 3 1 8 -2.35093 0 1 -2.35093 1
gene 3 2 8 3.79667 0 2 3.79667 1
gene 3 3 8 0.576992 0 3 0.576992 1
gene 2 4 8 0.224407 0 4 0.224407 1
gene 2 5 8 0.634661 0 5 0.634661 1
gene 2 6 8 -0.912356 0 6 -0.912356 1
gene 2 7 8 1.12015 0 7 1.12015 1
genomeend 83

/* Organism #84 Fitness: 83 Error: 0 */
genomestart 84
trait 1 0.05 0 0 0.0366817 0 0.297763 0.379499 0 
trait 2 0.2 0 0 0 0 0 0 0 
trait 3 0.3 0 0 0 0 0.25891 0 0 
node 1 3 1 1
node 2 3 1 1
node 3 1 1 1
node 4 3 1 1
node 5 2 1 1
node 6 3 1 1
node 7 2 1 3
node 8 1 0 2
gene 2 1 8 -0.350224 0 1 -0.350224 1
gene 1 2 8 2.00056 0 2 2.00056 1
gene 1 3 8 -0.820747 0 3 -0.820747 1
gene 3 4 8 0.0418866 0 4 0.0418866 1
gene 3 5 8 1.90346 0 5 1.90346 1
gene 2 6 8 1.89866 0 6 1.89866 1
gene 3 7 8 -0.283215 0 7 -0.283215 1
genomeend 84

/* Organism #85 Fitness: 65 Error: 0 */
genomestart 85
trait 1 0 0 0 0.0183408 0.451626 0.148882 0 0 
trait 2 0.2 0 0 0 0 0 0 0 
trait 3 0.3 0 0 0 0 0.0647276 0 0 
node 1 3 1 1
node 2 1 1 1
node 3 2 1 1
node 4 1 1 1
node 5 1 1 1
node 6 1 1 1
node 7 1 1 3
node 8 3 0 2
gene 1 1 8 0.0229563 0 1 0.0229563 1
gene 1 2 8 1.47734 0 2 1.47734 1
gene 2 3 8 -2.51901 0 3 -2.51901 1
gene 2 4 8 -3.58256 0 4 -3.58256 1
gene 3 5 8 1.98222 0 5 1.98222 1
gene 2 6 8 1.61445 0 6 1.61445 1
gene 3 7 8 1.01565 0 7 1.01565 1
genomeend 85

/* Organism #86 Fitness: 35 Error: 0 */
genomestart 86
trait 1 0.1 0 0 0 0 0 0 0 
trait 2 0.2 0 0 0 0 0 0 0 
trait 3 0.3 0 0 0 0 0 0 0 
node 1 3 1 1
node 2 1 1 1
node 3 1 1 1
node 4 1 1 1
node 5 1 1 1
node 6 1 1 1
node 7 1 1 3
node 8 3 0 2
gene 1 1 8 -0.88311 0 1 -0.88311 1
gene 3 2 8 -1.24177 0 2 -1.24177 1
gene 1 3 8 1.00841 0 3 1.00841 1
gene 3 4 8 1.17544 0 4 1.17544 1
gene 2 5 8 2.97572 0 5 2.97572 1
gene 1 6 8 3.64418 0 6 3.64418 1
gene 1 7 8 -1.56635 0 7 -1.56635 1
genomeend 86

/* Organism #87 Fitness: 28 Error: 0 */
genomestart 87
trait 1 0.0875 0 0 0.00917042 0 0.0744408 0.0948746 0 
trait 2 0.205553 0 0 0 0 0 0 0 
trait 3 0.3 0 0 0 0 0.0647276 0 0 
node 1 2 1 1
node 2 3 1 1
node 3 3 1 1
node 4 1 1 1
node 5 1 1 1
node 6 2 1 1
node 7 1 1 3
node 8 2 0 2
node 19 1 0 0
gene 2 1 8 -0.494009 0 1 -0.494009 1
gene 1 2 8 1.82496 0 2 1.82496 0
gene 3 3 8 -0.326078 0 3 -0.326078 1
gene 3 4 8 -0.63515 0 4 -0.63515 1
gene 2 5 8 1.42285 0 5 1.42285 1
gene 2 6 8 2.36173 0 6 2.36173 1
gene 2 7 8 -0.0385121 0 7 -0.0385121 1
gene 1 2 19 1 0 28 0 1
gene 1 19 8 1.82496 0 29 0 1
genomeend 87

/* Organism #88 Fitness: 33 Error: 0 */
genomestart 88
trait 1 0.1 0 0 0 0 0 0 0 
trait 2 0.211105 0 0 0 0 0 0 0 
trait 3 0.3 0 0 0 0 0 0 0 
node 1 2 1 1
node 2 3 1 1
node 3 3 1 1
node 4 1 1 1
node 5 1 1 1
node 6 2 1 1
node 7 1 1 3
node 8 2 0 2
gene 3 1 8 -0.768321 0 1 -0.768321 1
gene 3 2 8 0.786753 0 2 0.786753 1
gene 3 3 8 0.18133 0 3 0.18133 1
gene 2 4 8 -0.148287 0 4 -0.148287 1
gene 2 5 8 2.11072 0 5 2.11072 1
gene 3 6 8 2.26083 0 6 2.26083 1
gene 1 7 8 -0.296993 0 7 -0.296993 1
genomeend 88

/* Organism #89 Fitness: 33 Error: 0 */
genomestart 89
trait 1 0.0875 0 0 0.00917042 0 0.0744408 0.0948746 0 
trait 2 0.205553 0 0 0 0 0 0 0 
trait 3 0.3 0 0 0 0 0 0 0 
node 1 3 1 1
node 2 1 1 1
node 3 2 1 1
node 4 1 1 1
node 5 1 1 1
node 6 1 1 1
node 7 1 1 3
node 8 3 0 2
gene 1 1 8 2.40381 0 1 2.40381 1
gene 1 2 8 1.0944 0 2 1.0944 1
gene 2 3 8 -1.13021 0 3 -1.13021 1
gene 2 4 8 -1.18197 0 4 -1.18197 1
gene 2 5 8 2.33196 0 5 2.33196 1
gene 1 6 8 1.04832 0 6 1.04832 1
gene 1 7 8 1.30568 0 7 1.30568 1
genomeend 89

/* Organism #90 Fitness: 5 Error: 0 */
genomestart 90
trait 1 0.0625 0 0 0.0275112 0 0.223322 0.284624 0 
trait 2 0.2 0 0 0 0 0 0 0 
trait 3 0.3 0 0 0 0 0 0 0 
node 1 3 1 1
node 2 3 1 1
node 3 1 1 1
node 4 3 1 1
node 5 2 1 1
node 6 3 1 1
node 7 2 1 3
node 8 1 0 2
gene 1 1 8 2.03332 0 1 2.03332 1
gene 1 2 8 -1.90886 0 2 -1.90886 1
gene 1 3 8 -2.32099 0 3 -2.32099 1
gene 3 4 8 -0.658045 0 4 -0.658045 1
gene 2 5 8 1.93396 0 5 1.93396 1
gene 2 6 8 -0.469227 0 6 -0.469227 1
gene 1 7 8 -1.05813 0 7 -1.05813 1
genomeend 90

/* Organism #91 Fitness: 27 Error: 0 */
genomestart 91
trait 1 0.1 0 0 0 0 0 0 0 
trait 2 0.2 0 0 0 0 0 0 0 
trait 3 0.3 0 0 0 0 0 0 0 
node 1 3 1 1
node 2 1 1 1
node 3 2 1 1
node 4 1 1 1
node 5 1 1 1
node 6 1 1 1
node 7 1 1 3
node 8 3 0 2
gene 1 1 8 1.64459 0 1 1.64459 1
gene 3 2 8 -1.1833 0 2 -1.1833 1
gene 1 3 8 -1.72955 0 3 -1.72955 1
gene 3 4 8 -1.25808 0 4 -1.25808 1
gene 2 5 8 1.95185 0 5 1.95185 1
gene 1 6 8 1.17733 0 6 1.17733 1
gene 1 7 8 2.44455 0 7 2.44455 1
genomeend 91

/* Organism #92 Fitness: 12 Error: 0 */
genomestart 92
trait 1 0.1 0 0 0 0 0 0 0 
trait 2 0.2 0 0 0 0 0 0 0 
trait 3 0.3 0 0 0 0 0 0 0 
node 1 3 1 1
node 2 3 1 1
node 3 1 1 1
node 4 2 1 1
node 5 3 1 1
node 6 2 1 1
node 7 3 1 3
node 8 2 0 2
gene 1 1 8 -2.58738 0 1 -2.58738 1
gene 3 2 8 -1.19972 0 2 -1.19972 1
gene 2 3 8 2.39107 0 3 2.39107 1
gene 3 4 8 0.247662 0 4 0.247662 1
gene 1 5 8 -0.595684 0 5 -0.595684 1
gene 3 6 8 0.031005 0 6 0.031005 1
gene 3 7 8 -0.790596 0 7 -0.790596 1
genomeend 92

/* Organism #93 Fitness: 5 Error: 0 */
genomestart 93
trait 1 0.1 0 0 0 0 0 0 0 
trait 2 0.2 0 0 0 0 0 0 0 
trait 3 0.3 0 0 0 0 0 0 0 
node 1 3 1 1
node 2 3 1 1
node 3 3 1 1
node 4 2 1 1
node 5 2 1 1
node 6 3 1 1
node 7 2 1 3
node 8 3 0 2
gene 1 1 8 2.87318 0 1 2.87318 1
gene 3 2 8 -2.42554 0 2 -2.42554 1
gene 2 3 8 2.08587 0 3 2.08587 1
gene 2 4 8 -1.43459 0 4 -1.43459 1
gene 1 5 8 -1.47686 0 5 -1.47686 1
gene 1 6 8 0.00989197 0 6 0.00989197 1
gene 3 7 8 1.22354 0 7 1.22354 1
genomeend 93

/* Organism #94 Fitness: 6 Error: 0 */
genomestart 94
trait 1 0.1 0 0 0 0 0 0 0 
trait 2 0.2 0 0 0 0 0 0 0 
trait 3 0.3 0 0 0 0 0 0 0 
node 1 3 1 1
node 2 3 1 1
node 3 3 1 1
node 4 2 1 1
node 5 2 1 1
node 6 3 1 1
node 7 2 1 3
node 8 3 0 2
gene 1 1 8 -1.54964 0 1 -1.54964 1
gene 3 2 8 0.282967 0 2 0.282967 1
gene 1 3 8 -1.15161 0 3 -1.15161 1
gene 3 4 8 -0.733941 0 4 -0.733941 1
gene 2 5 8 2.94831 0 5 2.94831 1
gene 2 6 8 0.0140743 0 6 0.0140743 1
gene 3 7 8 2.06014 0 7 2.06014 1
genomeend 94

/* Organism #95 Fitness: 31 Error: 0 */
genomestart 95
trait 1 0 0 0.411851 0.432536 0.888463 0.0744408 0.425623 0 
trait 2 0.2 0 0 0 0 0 0 0 
trait 3 0.3 0 0 0 0 0 0 0 
node 1 3 1 1
node 2 1 1 1
node 3 2 1 1
node 4 2 1 1
node 5 1 1 1
node 6 3 1 1
node 7 1 1 3
node 8 3 0 2
gene 2 1 8 0.640905 0 1 0.640905 1
gene 1 2 8 1.80337 0 2 1.80337 1
gene 3 3 8 -0.647133 0 3 -0.647133 1
gene 2 4 8 0.942259 0 4 0.942259 1
gene 3 5 8 1.80133 0 5 1.80133 1
gene 2 6 8 2.14066 0 6 2.14066 1
gene 1 7 8 0.00976048 0 7 0.00976048 1
genomeend 95

/* Organism #96 Fitness: 32 Error: 0 */
genomestart 96
trait 1 0.1 0 0 0 0.0874491 0.0334943 0 0 
trait 2 0.2 0 0 0 0 0 0 0 
trait 3 0.3 0 0 0.265093 0.483168 0 0 0 
node 1 3 1 1
node 2 2 1 1
node 3 2 1 1
node 4 1 1 1
node 5 1 1 1
node 6 1 1 1
node 7 1 1 3
node 8 3 0 2
gene 1 1 8 2.05016 0 1 2.05016 1
gene 2 2 8 0.106792 0 2 0.106792 1
gene 2 3 8 0.290227 0 3 0.290227 1
gene 2 4 8 -0.129293 0 4 -0.129293 1
gene 1 5 8 0.235996 0 5 0.235996 1
gene 1 6 8 2.09123 0 6 2.09123 1
gene 3 7 8 -0.178214 0 7 -0.178214 1
genomeend 96

/* Organism #97 Fitness: 36 Error: 0 */
genomestart 97
trait 1 0.1 0 0 0 0 0 0 0 
trait 2 0.1 0 0 0 0 0 0 0 
trait 3 0.3 0 0 0 0 0 0 0 
node 1 2 1 1
node 2 1 1 1
node 3 2 1 1
node 4 2 1 1
node 5 1 1 1
node 6 2 1 1
node 7 1 1 3
node 8 3 0 2
gene 1 1 8 1.38595 0 1 1.38595 1
gene 3 2 8 2.42677 0 2 2.42677 1
gene 1 3 8 2.34833 0 3 2.34833 1
gene 3 4 8 -2.04163 0 4 -2.04163 1
gene 2 5 8 2.95134 0 5 2.95134 1
gene 3 6 8 0.678501 0 6 0.678501 1
gene 2 7 8 -0.127617 0 7 -0.127617 1
genomeend 97

/* Organism #98 Fitness: 25 Error: 0 */
genomestart 98
trait 1 0.075 0 0 0.0183408 0 0.148882 0.189749 0 
trait 2 0.2 0 0 0 0 0 0 0 
trait 3 0.3 0 0 0 0 0 0 0 
node 1 3 1 1
node 2 3 1 1
node 3 1 1 1
node 4 3 1 1
node 5 2 1 1
node 6 3 1 1
node 7 2 1 3
node 8 1 0 2
gene 2 1 8 0.995365 0 1 0.995365 1
gene 1 2 8 0.357125 0 2 0.357125 1
gene 1 3 8 3.25096 0 3 3.25096 1
gene 2 4 8 3.00171 0 4 3.00171 1
gene 3 5 8 2.58443 0 5 2.58443 1
gene 1 6 8 2.65391 0 6 2.65391 1
gene 2 7 8 -0.246919 0 7 -0.246919 1
genomeend 98

/* Organism #99 Fitness: 38 Error: 0 */
genomestart 99
trait 1 0.1 0 0 0 0 0 0 0 
trait 2 0.2 0 0 0 0 0 0 0 
trait 3 0.3 0 0 0 0 0 0 0 
node 1 3 1 1
node 2 3 1 1
node 3 2 1 1
node 4 2 1 1
node 5 2 1 1
node 6 3 1 1
node 7 3 1 3
node 8 1 0 2
gene 1 1 8 1.1938 0 1 1.1938 1
gene 3 2 8 -0.0590749 0 2 -0.0590749 1
gene 2 3 8 -1.06384 0 3 -1.06384 1
gene 3 4 8 0.0393438 0 4 0.0393438 1
gene 2 5 8 2.05361 0 5 2.05361 1
gene 1 6 8 2.13603 0 6 2.13603 1
gene 1 7 8 -1.24644 0 7 -1.24644 1
genomeend 99

/* Organism #100 Fitness: 6 Error: 0 */
genomestart 100
trait 1 0.025 0 0 0.0550225 0 0.446645 0.569248 0 
trait 2 0.2 0 0 0 0 0 0 0 
trait 3 0.3 0 0 0 0 0.129455 0 0 
node 1 3 1 1
node 2 3 1 1
node 3 1 1 1
node 4 3 1 1
node 5 2 1 1
node 6 3 1 1
node 7 2 1 3
node 8 1 0 2
gene 2 1 8 -1.24846 0 1 -1.24846 1
gene 1 2 8 0.805048 0 2 0.805048 1
gene 1 3 8 -0.981981 0 3 -0.981981 1
gene 3 4 8 -1.83176 0 4 -1.83176 1
gene 3 5 8 2.54122 0 5 2.54122 1
gene 2 6 8 -1.19142 0 6 -1.19142 1
gene 3 7 8 0.468585 0 7 0.468585 1
genomeend 100

/* Organism #101 Fitness: 5 Error: 0 */
genomestart 101
trait 1 0.1 0 0 0 0 0 0 0 
trait 2 0.2 0 0 0 0 0 0 0 
trait 3 0.3 0 0 0 0 0 0 0 
node 1 3 1 1
node 2 3 1 1
node 3 2 1 1
node 4 2 1 1
node 5 2 1 1
node 6 3 1 1
node 7 3 1 3
node 8 1 0 2
gene 1 1 8 2.16041 0 1 2.16041 1
gene 2 2 8 3.08648 0 2 3.08648 1
gene 3 3 8 0.0443637 0 3 0.0443637 1
gene 2 4 8 -1.2168 0 4 -1.2168 1
gene 3 5 8 3.14626 0 5 3.14626 1
gene 1 6 8 -1.83284 0 6 -1.83284 1
gene 1 7 8 1.05828 0 7 1.05828 1
genomeend 101

/* Organism #102 Fitness: 6 Error: 0 */
genomestart 102
trait 1 0.0875 0 0 0.00917042 0.0874491 0.107935 0.0948746 0 
trait 2 0.2 0 0 0 0 0 0 0 
trait 3 0.3 0 0 0.265093 0.483168 0 0 0 
node 1 3 1 1
node 2 3 1 1
node 3 2 1 1
node 4 1 1 1
node 5 2 1 1
node 6 3 1 1
node 7 2 1 3
node 8 1 0 2
gene 2 1 8 -0.235056 0 1 -0.235056 1
gene 3 2 8 1.02193 0 2 1.02193 1
gene 2 3 8 -0.359174 0 3 -0.359174 1
gene 2 4 8 -0.314985 0 4 -0.314985 1
gene 1 5 8 2.22277 0 5 2.22277 1
gene 2 6 8 -0.325045 0 6 -0.325045 1
gene 1 7 8 -0.17874 0 7 -0.17874 1
genomeend 102

/* Organism #103 Fitness: 77 Error: 0 */
genomestart 103
trait 1 0.05 0 0 0.0366817 0 0.297763 0.379499 0 
trait 2 0.2 0 0 0 0 0 0 0 
trait 3 0.3 0 0 0 0 0 0 0 
node 1 3 1 1
node 2 3 1 1
node 3 1 1 1
node 4 3 1 1
node 5 2 1 1
node 6 3 1 1
node 7 2 1 3
node 8 1 0 2
gene 3 1 8 -0.950031 0 1 -0.950031 1
gene 1 2 8 0.95893 0 2 0.95893 1
gene 1 3 8 -0.959635 0 3 -0.959635 1
gene 3 4 8 0.173336 0 4 0.173336 1
gene 2 5 8 1.65932 0 5 1.65932 1
gene 2 6 8 1.90292 0 6 1.90292 1
gene 3 7 8 0.218849 0 7 0.218849 1
genomeend 103

/* Organism #104 Fitness: 6 Error: 0 */
genomestart 104
trait 1 0.1 0 0 0 0 0 0 0 
trait 2 0.205553 0 0 0 0 0 0 0 
trait 3 0.3 0 0 0 0 0 0 0 
node 1 3 1 1
node 2 3 1 1
node 3 2 1 1
node 4 2 1 1
node 5 2 1 1
node 6 3 1 1
node 7 3 1 3
node 8 1 0 2
gene 2 1 8 3.7856 0 1 3.7856 1
gene 3 2 8 -1.35217 0 2 -1.35217 1
gene 1 3 8 -1.35471 0 3 -1.35471 1
gene 3 4 8 -1.83504 0 4 -1.83504 1
gene 1 5 8 2.47434 0 5 2.47434 1
gene 1 6 8 0.0313081 0 6 0.0313081 1
gene 3 7 8 -1.21251 0 7 -1.21251 1
genomeend 104

/* Organism #105 Fitness: 5 Error: 0 */
genomestart 105
trait 1 0.1 0 0 0 0 0 0 0 
trait 2 0.2 0 0 0 0 0 0 0 
trait 3 0.3 0 0 0 0 0 0 0 
node 1 3 1 1
node 2 3 1 1
node 3 2 1 1
node 4 1 1 1
node 5 2 1 1
node 6 3 1 1
node 7 2 1 3
node 8 1 0 2
gene 2 1 8 0.96483 0 1 0.96483 1
gene 1 2 8 2.88322 0 2 2.88322 1
gene 1 3 8 -2.28343 0 3 -2.28343 1
gene 2 4 8 -2.50798 0 4 -2.50798 1
gene 1 5 8 -1.12488 0 5 -1.12488 1
gene 3 6 8 -0.648637 0 6 -0.648637 1
gene 2 7 8 0.0930652 0 7 0.0930652 1
genomeend 105

/* Organism #106 Fitness: 30 Error: 0 */
genomestart 106
trait 1 0.1 0 0 0 0 0 0 0 
trait 2 0.2 0 0 0 0 0 0 0 
trait 3 0.435499 0 0 0 0 0 0 0.28356 
node 1 3 1 1
node 2 3 1 1
node 3 2 1 1
node 4 2 1 1
node 5 2 1 1
node 6 1 1 1
node 7 3 1 3
node 8 1 0 2
gene 1 1 8 2.34333 0 1 2.34333 1
gene 3 2 8 0.628178 0 2 0.628178 1
gene 2 3 8 1.03926 0 3 1.03926 1
gene 3 4 8 2.52578 0 4 2.52578 1
gene 2 5 8 3.30711 0 5 3.30711 1
gene 1 6 8 2.92193 0 6 2.92193 1
gene 1 7 8 -0.476729 0 7 -0.476729 1
genomeend 106

/* Organism #107 Fitness: 62 Error: 0 */
genomestart 107
trait 1 0.075 0 0 0.0183408 0 0.148882 0.189749 0 
trait 2 0.2 0 0 0 0 0 0 0 
trait 3 0.3 0 0 0 0 0 0 0 
node 1 3 1 1
node 2 3 1 1
node 3 2 1 1
node 4 1 1 1
node 5 2 1 1
node 6 3 1 1
node 7 2 1 3
node 8 1 0 2
gene 2 1 8 -0.581938 0 1 -0.581938 1
gene 1 2 8 0.120067 0 2 0.120067 1
gene 1 3 8 -1.94067 0 3 -1.94067 1
gene 2 4 8 -0.568287 0 4 -0.568287 1
gene 1 5 8 1.42993 0 5 1.42993 1
gene 3 6 8 1.26588 0 6 1.26588 1
gene 2 7 8 0.125245 0 7 0.125245 1
genomeend 107

/* Organism #108 Fitness: 26 Error: 0 */
genomestart 108
trait 1 0.075 0 0 0.0183408 0 0.148882 0.189749 0 
trait 2 0.2 0 0 0 0 0 0 0 
trait 3 0.3 0 0 0 0 0 0 0 
node 1 3 1 1
node 2 3 1 1
node 3 1 1 1
node 4 3 1 1
node 5 2 1 1
node 6 3 1 1
node 7 2 1 3
node 8 1 0 2
gene 2 1 8 -1.69398 0 1 -1.69398 1
gene 1 2 8 0.300044 0 2 0.300044 1
gene 1 3 8 0.0275559 0 3 0.0275559 1
gene 2 4 8 -2.2407 0 4 -2.2407 1
gene 2 5 8 -0.642823 0 5 -0.642823 1
gene 2 6 8 3.18355 0 6 3.18355 1
gene 1 7 8 1.42858 0 7 1.42858 1
genomeend 108

/* Organism #109 Fitness: 27 Error: 0 */
genomestart 109
trait 1 0.025 0 0 0.0550225 0 0.446645 0.569248 0 
trait 2 0.2 0 0 0 0 0 0 0 
trait 3 0.3 0 0 0 0 0 0 0 
node 1 3 1 1
node 2 3 1 1
node 3 1 1 1
node 4 3 1 1
node 5 2 1 1
node 6 3 1 1
node 7 2 1 3
node 8 1 0 2
gene 2 1 8 1.7988 0 1 1.7988 1
gene 1 2 8 -0.600915 0 2 -0.600915 1
gene 1 3 8 -1.0838 0 3 -1.0838 1
gene 2 4 8 -2.6468 0 4 -2.6468 1
gene 3 5 8 2.50621 0 5 2.50621 1
gene 3 6 8 1.53109 0 6 1.53109 1
gene 3 7 8 2.96312 0 7 2.96312 1
genomeend 109

/* Organism #110 Fitness: 52 Error: 0 */
genomestart 110
trait 1 0.1 0 0 0 0 0 0 0 
trait 2 0.211105 0 0 0 0 0 0 0 
trait 3 0.3 0 0 0 0 0 0 0 
node 1 3 1 1
node 2 3 1 1
node 3 2 1 1
node 4 1 1 1
node 5 2 1 1
node 6 3 1 1
node 7 3 1 3
node 8 1 0 2
gene 1 1 8 -0.962239 0 1 -0.962239 1
gene 2 2 8 0.578684 0 2 0.578684 1
gene 3 3 8 -0.762558 0 3 -0.762558 1
gene 3 4 8 0.369501 0 4 0.369501 1
gene 3 5 8 2.86157 0 5 2.86157 1
gene 3 6 8 2.96561 0 6 2.96561 1
gene 1 7 8 -0.611172 0 7 -0.611172 1
genomeend 110

/* Organism #111 Fitness: 67 Error: 0 */
genomestart 111
trait 1 0.05 0 0 0.0366817 0 0.297763 0.379499 0 
trait 2 0.2 0 0 0 0 0 0 0 
trait 3 0.3 0 0 0 0 0 0 0 
node 1 3 1 1
node 2 3 1 1
node 3 1 1 1
node 4 3 1 1
node 5 2 1 1
node 6 3 1 1
node 7 2 1 3
node 8 1 0 2
gene 2 1 8 1.04604 0 1 1.04604 1
gene 1 2 8 5.17618 0 2 5.17618 1
gene 3 3 8 -1.08261 0 3 -1.08261 1
gene 2 4 8 0.985342 0 4 0.985342 1
gene 3 5 8 1.21687 0 5 1.21687 1
gene 1 6 8 2.13255 0 6 2.13255 1
gene 2 7 8 -0.795984 0 7 -0.795984 1
genomeend 111

/* Organism #112 Fitness: 50 Error: 0 */
genomestart 112
trait 1 0.1 0 0 0 0 0 0 0 
trait 2 0.15 0 0 0 0 0 0 0 
trait 3 0.3 0 0 0 0 0 0 0 
node 1 3 1 1
node 2 3 1 1
node 3 2 1 1
node 4 2 1 1
node 5 2 1 1
node 6 3 1 1
node 7 3 1 3
node 8 1 0 2
node 17 1 0 0
gene 3 1 8 -1.05233 0 1 -1.05233 1
gene 2 2 8 1.2699 0 2 1.2699 1
gene 3 3 8 -1.45399 0 3 -1.45399 1
gene 3 4 8 -0.404534 0 4 -0.404534 0
gene 1 5 8 0.919891 0 5 0.919891 1
gene 1 6 8 1.09106 0 6 1.09106 1
gene 2 7 8 0.0215405 0 7 0.0215405 1
gene 3 4 17 1 0 24 0 1
gene 3 17 8 -0.404534 0 25 0 1
genomeend 112

/* Organism #113 Fitness: 49 Error: 0 */
genomestart 113
trait 1 0.1 0 0 0 0 0 0 0 
trait 2 0.755091 0 0 0 0 0 0 0 
trait 3 0.3 0 0 0 0 0 0 0 
node 1 3 1 1
node 2 3 1 1
node 3 1 1 1
node 4 2 1 1
node 5 3 1 1
node 6 2 1 1
node 7 3 1 3
node 8 2 0 2
gene 1 1 8 -0.113938 0 1 -0.113938 1
gene 3 2 8 -0.0771628 0 2 -0.0771628 1
gene 1 3 8 -4.98216 0 3 -4.98216 1
gene 3 4 8 3.38053 0 4 3.38053 1
gene 2 5 8 3.61983 0 5 3.61983 1
gene 1 6 8 1.96748 0 6 1.96748 1
gene 1 7 8 0.657149 0 7 0.657149 1
genomeend 113

/* Organism #114 Fitness: 20 Error: 0 */
genomestart 114
trait 1 0.1 0 0 0 0 0 0 0 
trait 2 0.2 0 0 0 0 0 0 0 
trait 3 0.3 0 0 0 0 0 0 0 
node 1 3 1 1
node 2 3 1 1
node 3 1 1 1
node 4 2 1 1
node 5 3 1 1
node 6 2 1 1
node 7 3 1 3
node 8 2 0 2
gene 1 1 8 -1.95988 0 1 -1.95988 1
gene 3 2 8 -0.0431416 0 2 -0.0431416 1
gene 1 3 8 -3.73484 0 3 -3.73484 1
gene 3 4 8 -0.264182 0 4 -0.264182 1
gene 2 5 8 1.8778 0 5 1.8778 1
gene 1 6 8 4.25104 0 6 4.25104 1
gene 1 7 8 -2.61021 0 7 -2.61021 1
genomeend 114

/* Organism #115 Fitness: 56 Error: 0 */
genomestart 115
trait 1 0.1 0 0 0 0 0 0 0 
trait 2 0.1 0 0 0 0 0 0 0 
trait 3 0.3 0 0 0 0 0 0 0 
node 1 2 1 1
node 2 1 1 1
node 3 2 1 1
node 4 2 1 1
node 5 1 1 1
node 6 2 1 1
node 7 1 1 3
node 8 1 0 2
gene 1 1 8 -0.328049 0 1 -0.328049 1
gene 3 2 8 0.627191 0 2 0.627191 1
gene 1 3 8 -0.903845 0 3 -0.903845 1
gene 3 4 8 0.61782 0 4 0.61782 1
gene 2 5 8 0.634661 0 5 0.634661 1
gene 2 6 8 0.967298 0 6 0.967298 1
gene 2 7 8 -0.127617 0 7 -0.127617 1
genomeend 115

/* Organism #116 Fitness: 30 Error: 0 */
genomestart 116
trait 1 0.075 0 0 0.0183408 0 0.148882 0.189749 0 
trait 2 0.2 0 0 0 0 0 0 0 
trait 3 0.3 0 0 0 0 0 0 0 
node 1 3 1 1
node 2 1 1 1
node 3 2 1 1
node 4 1 1 1
node 5 1 1 1
node 6 1 1 1
node 7 1 1 3
node 8 3 0 2
gene 1 1 8 0.027855 0 1 0.027855 1
gene 1 2 8 -1.48672 0 2 -1.48672 1
gene 2 3 8 -1.5996 0 3 -1.5996 1
gene 3 4 8 -1.50372 0 4 -1.50372 1
gene 2 5 8 1.09612 0 5 1.09612 1
gene 1 6 8 0.327019 0 6 0.327019 1
gene 1 7 8 0.729525 0 7 0.729525 1
genomeend 116

/* Organism #117 Fitness: 36 Error: 0 */
genomestart 117
trait 1 0.075 0 0 0.0183408 0 0.148882 0.189749 0 
trait 2 0.205553 0 0 0 0 0 0 0 
trait 3 0.3 0 0 0 0 0 0 0 
node 1 3 1 1
node 2 3 1 1
node 3 1 1 1
node 4 3 1 1
node 5 2 1 1
node 6 3 1 1
node 7 2 1 3
node 8 1 0 2
gene 2 1 8 -0.0293604 0 1 -0.0293604 1
gene 1 2 8 0.495987 0 2 0.495987 1
gene 1 3 8 -3.26044 0 3 -3.26044 1
gene 3 4 8 -0.62268 0 4 -0.62268 1
gene 3 5 8 5.07536 0 5 5.07536 1
gene 1 6 8 0.0906104 0 6 0.0906104 1
gene 2 7 8 1.02286 0 7 1.02286 1
genomeend 117

/* Organism #118 Fitness: 37 Error: 0 */
genomestart 118
trait 1 0.0875 0 0 0.00917042 0 0.0744408 0.0948746 0 
trait 2 0.2 0 0 0 0 0 0 0 
trait 3 0.3 0 0 0 0 0.0647276 0 0 
node 1 3 1 1
node 2 3 1 1
node 3 1 1 1
node 4 2 1 1
node 5 3 1 1
node 6 2 1 1
node 7 3 1 3
node 8 2 0 2
gene 1 1 8 -2.0445 0 1 -2.0445 1
gene 1 2 8 1.35584 0 2 1.35584 1
gene 1 3 8 -1.96006 0 3 -1.96006 1
gene 3 4 8 -0.364331 0 4 -0.364331 1
gene 3 5 8 3.48494 0 5 3.48494 1
gene 2 6 8 0.439835 0 6 0.439835 1
gene 3 7 8 1.10561 0 7 1.10561 1
genomeend 118

/* Organism #119 Fitness: 17 Error: 0 */
genomestart 119
trait 1 0.1 0 0 0 0 0 0 0 
trait 2 0.2 0 0 0 0 0 0 0 
trait 3 0.3 0 0 0 0 0 0 0 
node 1 1 1 1
node 2 2 1 1
node 3 3 1 1
node 4 1 1 1
node 5 1 1 1
node 6 3 1 1
node 7 2 1 3
node 8 3 0 2
gene 3 1 8 -0.844437 0 1 -0.844437 1
gene 3 2 8 -1.9081 0 2 -1.9081 1
gene 3 3 8 -1.48872 0 3 -1.48872 1
gene 2 4 8 1.03575 0 4 1.03575 1
gene 2 5 8 -1.16516 0 5 -1.16516 1
gene 2 6 8 2.32114 0 6 2.32114 1
gene 2 7 8 -0.38148 0 7 -0.38148 1
genomeend 119

/* Organism #120 Fitness: 5 Error: 0 */
genomestart 120
trait 1 0.1 0 0 0 0 0 0 0 
trait 2 0.2 0 0 0 0 0 0 0 
trait 3 0.3 0 0 0 0 0 0 0 
node 1 3 1 1
node 2 3 1 1
node 3 2 1 1
node 4 2 1 1
node 5 2 1 1
node 6 3 1 1
node 7 3 1 3
node 8 1 0 2
gene 1 1 8 1.70081 0 1 1.70081 1
gene 3 2 8 0.849598 0 2 0.849598 1
gene 3 3 8 -0.532416 0 3 -0.532416 1
gene 3 4 8 -0.76666 0 4 -0.76666 1
gene 1 5 8 0.814878 0 5 0.814878 1
gene 1 6 8 -0.147889 0 6 -0.147889 1
gene 3 7 8 1.08602 0 7 1.08602 1
genomeend 120

/* Organism #121 Fitness: 100 Error: 0 */
genomestart 121
trait 1 0.1 0 0 0 0 0 0 0 
trait 2 0.211105 0 0 0 0 0 0 0 
trait 3 0.3 0 0 0 0 0 0 0 
node 1 3 1 1
node 2 3 1 1
node 3 2 1 1
node 4 2 1 1
node 5 2 1 1
node 6 3 1 1
node 7 3 1 3
node 8 1 0 2
gene 2 1 8 2.41578 0 1 2.41578 1
gene 2 2 8 2.11836 0 2 2.11836 1
gene 1 3 8 -0.56473 0 3 -0.56473 1
gene 3 4 8 1.89612 0 4 1.89612 1
gene 3 5 8 1.82689 0 5 1.82689 1
gene 3 6 8 3.8252 0 6 3.8252 1
gene 3 7 8 0.366682 0 7 0.366682 1
genomeend 121

/* Organism #122 Fitness: 54 Error: 0 */
genomestart 122
trait 1 0.1 0 0 0 0.0874491 0.0334943 0 0 
trait 2 0.15 0 0 0 0 0 0 0 
trait 3 0.3 0 0 0.265093 0.483168 0 0 0 
node 1 2 1 1
node 2 1 1 1
node 3 2 1 1
node 4 2 1 1
node 5 1 1 1
node 6 2 1 1
node 7 1 1 3
node 8 3 0 2
gene 1 1 8 0.730111 0 1 0.730111 1
gene 2 2 8 1.49397 0 2 1.49397 1
gene 1 3 8 -1.32754 0 3 -1.32754 1
gene 3 4 8 -1.69187 0 4 -1.69187 1
gene 1 5 8 0.861521 0 5 0.861521 1
gene 3 6 8 0.6362 0 6 0.6362 1
gene 3 7 8 0.587335 0 7 0.587335 1
genomeend 122

/* Organism #123 Fitness: 51 Error: 0 */
genomestart 123
trait 1 0.075 0 0 0.0183408 0 0.148882 0.189749 0 
trait 2 0.2 0 0 0 0 0 0 0 
trait 3 0.3 0 0 0 0 0 0 0 
node 1 3 1 1
node 2 3 1 1
node 3 1 1 1
node 4 3 1 1
node 5 2 1 1
node 6 3 1 1
node 7 2 1 3
node 8 1 0 2
gene 1 1 8 0.541136 0 1 0.541136 1
gene 3 2 8 2.08124 0 2 2.08124 1
gene 3 3 8 -1.48872 0 3 -1.48872 1
gene 2 4 8 -0.760372 0 4 -0.760372 1
gene 3 5 8 0.871778 0 5 0.871778 1
gene 2 6 8 1.12351 0 6 1.12351 1
gene 3 7 8 0.39643 0 7 0.39643 1
genomeend 123

/* Organism #124 Fitness: 33 Error: 0 */
genomestart 124
trait 1 0.1 0 0 0 0 0 0 0 
trait 2 0.2 0 0 0 0 0 0 0 
trait 3 0.3 0 0 0 0 0 0 0 
node 1 3 1 1
node 2 3 1 1
node 3 2 1 1
node 4 1 1 1
node 5 2 1 1
node 6 3 1 1
node 7 2 1 3
node 8 1 0 2
gene 2 1 8 -2.44819 0 1 -2.44819 1
gene 1 2 8 -2.02047 0 2 -2.02047 1
gene 1 3 8 -1.1943 0 3 -1.1943 1
gene 2 4 8 -0.568287 0 4 -0.568287 1
gene 3 5 8 1.02465 0 5 1.02465 1
gene 3 6 8 1.69473 0 6 1.69473 1
gene 2 7 8 0.0930652 0 7 0.0930652 1
genomeend 124

/* Organism #125 Fitness: 13 Error: 0 */
genomestart 125
trait 1 0.1 0 0 0 0 0 0 0 
trait 2 0.205553 0 0 0 0 0 0 0 
trait 3 0.3 0 0 0 0 0 0 0 
node 1 3 1 1
node 2 3 1 1
node 3 2 1 1
node 4 2 1 1
node 5 2 1 1
node 6 3 1 1
node 7 3 1 3
node 8 1 0 2
gene 2 1 8 2.26331 0 1 2.26331 1
gene 1 2 8 2.27558 0 2 2.27558 1
gene 1 3 8 -1.01113 0 3 -1.01113 1
gene 3 4 8 2.71868 0 4 2.71868 1
gene 3 5 8 -1.39539 0 5 -1.39539 1
gene 1 6 8 1.36056 0 6 1.36056 1
gene 2 7 8 -1.10317 0 7 -1.10317 1
genomeend 125

/* Organism #126 Fitness: 5 Error: 0 */
genomestart 126
trait 1 0.075 0 0 0.0183408 0 0.148882 0.189749 0 
trait 2 0.2 0 0.0956884 0 0 0 0.588367 0 
trait 3 0.3 0 0 0 0 0.129455 0 0 
node 1 3 1 1
node 2 3 1 1
node 3 1 1 1
node 4 3 1 1
node 5 2 1 1
node 6 3 1 1
node 7 2 1 3
node 8 1 0 2
gene 1 1 8 -0.722708 0 1 -0.722708 1
gene 1 2 8 0.740419 0 2 0.740419 1
gene 1 3 8 -0.617761 0 3 -0.617761 1
gene 3 4 8 2.08757 0 4 2.08757 1
gene 1 5 8 0.576962 0 5 0.576962 1
gene 1 6 8 -0.575901 0 6 -0.575901 1
gene 3 7 8 2.20381 0 7 2.20381 1
genomeend 126

/* Organism #127 Fitness: 5 Error: 0 */
genomestart 127
trait 1 0.1 0 0 0 0 0 0 0 
trait 2 0.205553 0 0 0 0 0 0 0 
trait 3 0.3 0 0 0 0 0 0 0 
node 1 1 1 1
node 2 2 1 1
node 3 3 1 1
node 4 1 1 1
node 5 1 1 1
node 6 3 1 1
node 7 2 1 3
node 8 3 0 2
gene 1 1 8 -3.10114 0 1 -3.10114 1
gene 2 2 8 1.36357 0 2 1.36357 1
gene 3 3 8 -1.74193 0 3 -1.74193 1
gene 2 4 8 -0.0916716 0 4 -0.0916716 1
gene 3 5 8 2.92544 0 5 2.92544 1
gene 2 6 8 -0.487042 0 6 -0.487042 1
gene 2 7 8 1.03271 0 7 1.03271 1
genomeend 127

/* Organism #128 Fitness: 5 Error: 0 */
genomestart 128
trait 1 0.0875 0 0 0.00917042 0 0.0744408 0.0948746 0 
trait 2 0.2 0 0 0 0 0 0 0 
trait 3 0.3 0 0 0 0 0 0 0 
node 1 3 1 1
node 2 3 1 1
node 3 1 1 1
node 4 3 1 1
node 5 2 1 1
node 6 3 1 1
node 7 2 1 3
node 8 3 0 2
gene 2 1 8 -1.69541 0 1 -1.69541 1
gene 1 2 8 0.242346 0 2 0.242346 1
gene 1 3 8 0.805872 0 3 0.805872 1
gene 2 4 8 1.65846 0 4 1.65846 1
gene 1 5 8 1.36694 0 5 1.36694 1
gene 3 6 8 -1.25173 0 6 -1.25173 1
gene 1 7 8 -2.13843 0 7 -2.13843 1
genomeend 128

/* Organism #129 Fitness: 32 Error: 0 */
genomestart 129
trait 1 0.05 0 0 0.0366817 0 0.297763 0.379499 0 
trait 2 0.2 0 0 0 0 0 0 0 
trait 3 0.3 0 0 0 0 0 0 0 
node 1 3 1 1
node 2 3 1 1
node 3 1 1 1
node 4 3 1 1
node 5 2 1 1
node 6 3 1 1
node 7 2 1 3
node 8 1 0 2
gene 1 1 8 0.388978 0 1 0.388978 1
gene 2 2 8 -0.369821 0 2 -0.369821 1
gene 1 3 8 -2.79657 0 3 -2.79657 1
gene 3 4 8 0.711452 0 4 0.711452 1
gene 3 5 8 2.19799 0 5 2.19799 1
gene 2 6 8 0.197158 0 6 0.197158 1
gene 3 7 8 -1.08713 0 7 -1.08713 1
genomeend 129

/* Organism #130 Fitness: 53 Error: 0 */
genomestart 130
trait 1 0.1 0 0 0 0 0 0 0 
trait 2 0.2 0 0 0 0 0 0 0 
trait 3 0.3 0 0 0 0 0 0 0 
node 1 3 1 1
node 2 1 1 1
node 3 2 1 1
node 4 2 1 1
node 5 1 1 1
node 6 3 1 1
node 7 1 1 3
node 8 3 0 2
gene 2 1 8 1.32489 0 1 1.32489 1
gene 1 2 8 0.867679 0 2 0.867679 1
gene 1 3 8 1.9903 0 3 1.9903 1
gene 2 4 8 2.97591 0 4 2.97591 1
gene 3 5 8 0.468129 0 5 0.468129 1
gene 1 6 8 4.56072 0 6 4.56072 1
gene 2 7 8 -0.452112 0 7 -0.452112 1
genomeend 130

/* Organism #131 Fitness: 15 Error: 0 */
genomestart 131
trait 1 0.075 0 0 0.0183408 0 0.148882 0.189749 0 
trait 2 0.2 0 0 0 0 0 0 0 
trait 3 0.3 0 0 0 0 0.0647276 0 0 
node 1 2 1 1
node 2 2 1 1
node 3 1 1 1
node 4 1 1 1
node 5 1 1 1
node 6 2 1 1
node 7 1 1 3
node 8 1 0 2
gene 2 1 8 1.37607 0 1 1.37607 1
gene 1 2 8 0.998733 0 2 0.998733 1
gene 1 3 8 -0.439162 0 3 -0.439162 1
gene 2 4 8 0.332615 0 4 0.332615 1
gene 2 5 8 -0.821303 0 5 -0.821303 1
gene 2 6 8 1.41265 0 6 1.41265 1
gene 1 7 8 1.47719 0 7 1.47719 1
genomeend 131

/* Organism #132 Fitness: 25 Error: 0 */
genomestart 132
trait 1 0.0875 0 0 0.00917042 0 0.0744408 0.0948746 0 
trait 2 0.15 0 0 0 0 0 0 0 
trait 3 0.3 0 0 0 0 0 0 0 
node 1 2 1 1
node 2 1 1 1
node 3 2 1 1
node 4 1 1 1
node 5 1 1 1
node 6 2 1 1
node 7 1 1 3
node 8 1 0 2
gene 1 1 8 0.890834 0 1 0.890834 1
gene 3 2 8 -2.30487 0 2 -2.30487 1
gene 2 3 8 2.25923 0 3 2.25923 1
gene 3 4 8 1.60088 0 4 1.60088 1
gene 2 5 8 1.98645 0 5 1.98645 1
gene 1 6 8 1.2547 0 6 1.2547 1
gene 2 7 8 -1.81827 0 7 -1.81827 1
genomeend 132

/* Organism #133 Fitness: 6 Error: 0 */
genomestart 133
trait 1 0.1 0 0 0 0 0 0 0 
trait 2 0.2 0 0 0 0 0 0 0 
trait 3 0.3 0 0 0 0 0 0 0 
node 1 3 1 1
node 2 3 1 1
node 3 1 1 1
node 4 2 1 1
node 5 3 1 1
node 6 2 1 1
node 7 3 1 3
node 8 2 0 2
gene 1 1 8 0.943739 0 1 0.943739 1
gene 3 2 8 -1.75988 0 2 -1.75988 1
gene 2 3 8 1.4835 0 3 1.4835 1
gene 3 4 8 -1.83949 0 4 -1.83949 1
gene 1 5 8 -1.14793 0 5 -1.14793 1
gene 1 6 8 -2.03901 0 6 -2.03901 1
gene 3 7 8 -0.0696167 0 7 -0.0696167 1
genomeend 133

/* Organism #134 Fitness: 5 Error: 0 */
genomestart 134
trait 1 0.075 0 0 0.0183408 0 0.148882 0.189749 0 
trait 2 0.2 0 0 0 0 0 0 0 
trait 3 0.3 0 0 0 0 0 0 0 
node 1 3 1 1
node 2 1 1 1
node 3 2 1 1
node 4 1 1 1
node 5 2 1 1
node 6 3 1 1
node 7 2 1 3
node 8 1 0 2
gene 1 1 8 0.485682 0 1 0.485682 1
gene 2 2 8 1.34936 0 2 1.34936 1
gene 1 3 8 -2.94433 0 3 -2.94433 1
gene 2 4 8 -2.41217 0 4 -2.41217 1
gene 1 5 8 1.35689 0 5 1.35689 1
gene 1 6 8 -1.27907 0 6 -1.27907 1
gene 2 7 8 1.54875 0 7 1.54875 1
genomeend 134

/* Organism #135 Fitness: 84 Error: 0 */
genomestart 135
trait 1 0.075 0 0 0.0183408 0 0.148882 0.189749 0 
trait 2 0.205553 0 0 0 0 0 0 0 
trait 3 0.3 0 0 0 0 0 0 0 
node 1 3 1 1
node 2 3 1 1
node 3 2 1 1
node 4 1 1 1
node 5 2 1 1
node 6 3 1 1
node 7 3 1 3
node 8 1 0 2
gene 1 1 8 -0.059943 0 1 -0.059943 1
gene 2 2 8 0.537335 0 2 0.537335 1
gene 1 3 8 -0.946315 0 3 -0.946315 1
gene 3 4 8 -0.60216 0 4 -0.60216 1
gene 3 5 8 2.29013 0 5 2.29013 1
gene 1 6 8 1.07905 0 6 1.07905 1
gene 1 7 8 -0.29774 0 7 -0.29774 1
genomeend 135

/* Organism #136 Fitness: 101 Error: 0 */
genomestart 136
trait 1 0.1 0 0 0 0 0 0 0 
trait 2 0.205553 0 0 0 0 0 0 0 
trait 3 0.3 0 0 0 0 0 0 0 
node 1 3 1 1
node 2 3 1 1
node 3 2 1 1
node 4 1 1 1
node 5 2 1 1
node 6 3 1 1
node 7 3 1 3
node 8 1 0 2
gene 1 1 8 1.3801 0 1 1.3801 1
gene 2 2 8 0.420557 0 2 0.420557 1
gene 3 3 8 -4.04893 0 3 -4.04893 1
gene 3 4 8 -1.41278 0 4 -1.41278 1
gene 3 5 8 3.47864 0 5 3.47864 1
gene 3 6 8 1.53197 0 6 1.53197 1
gene 1 7 8 0.468275 0 7 0.468275 1
genomeend 136

/* Organism #137 Fitness: 57 Error: 0 */
genomestart 137
trait 1 0.1 0 0 0 0 0 0 0 
trait 2 0.15 0 0 0 0 0 0 0 
trait 3 0.3 0 0 0 0 0 0 0 
node 1 2 1 1
node 2 1 1 1
node 3 2 1 1
node 4 2 1 1
node 5 1 1 1
node 6 2 1 1
node 7 1 1 3
node 8 1 0 2
gene 1 1 8 0.232195 0 1 0.232195 1
gene 3 2 8 0.0612619 0 2 0.0612619 1
gene 1 3 8 -0.294988 0 3 -0.294988 1
gene 3 4 8 1.1121 0 4 1.1121 1
gene 2 5 8 2.05924 0 5 2.05924 1
gene 2 6 8 2.30171 0 6 2.30171 1
gene 1 7 8 -0.388659 0 7 -0.388659 1
genomeend 137

/* Organism #138 Fitness: 31 Error: 0 */
genomestart 138
trait 1 0.1 0 0 0 0 0 0 0 
trait 2 0.2 0 0 0 0 0 0 0 
trait 3 0.3 0 0 0 0 0 0 0 
node 1 3 1 1
node 2 3 1 1
node 3 2 1 1
node 4 1 1 1
node 5 2 1 1
node 6 3 1 1
node 7 2 1 3
node 8 1 0 2
node 20 1 0 0
gene 2 1 8 0.854311 0 1 0.854311 1
gene 1 2 8 -0.221838 0 2 -0.221838 1
gene 2 3 8 0.0113808 0 3 0.0113808 1
gene 2 4 8 -1.5704 0 4 -1.5704 1
gene 1 5 8 1.2068 0 5 1.2068 0
gene 1 6 8 0.87095 0 6 0.87095 1
gene 3 7 8 -0.19646 0 7 -0.19646 1
gene 1 5 20 1 0 30 0 1
gene 1 20 8 1.2068 0 31 0 1
genomeend 138

/* Organism #139 Fitness: 84 Error: 0 */
genomestart 139
trait 1 0.1 0 0 0 0 0 0 0 
trait 2 0.2 0 0 0 0 0 0 0 
trait 3 0.3 0 0 0 0 0 0 0 
node 1 3 1 1
node 2 3 1 1
node 3 2 1 1
node 4 1 1 1
node 5 2 1 1
node 6 3 1 1
node 7 2 1 3
node 8 1 0 2
node 19 1 0 0
gene 2 1 8 -0.581938 0 1 -0.581938 1
gene 1 2 8 0.120067 0 2 0.120067 0
gene 1 3 8 -1.47632 0 3 -1.47632 1
gene 2 4 8 -0.568287 0 4 -0.568287 1
gene 1 5 8 1.42993 0 5 1.42993 1
gene 3 6 8 1.27857 0 6 1.27857 1
gene 2 7 8 0.0930652 0 7 0.0930652 1
gene 1 2 19 1 0 28 0 1
gene 1 19 8 0.120067 0 29 0 1
genomeend 139

/* Organism #140 Fitness: 25 Error: 0 */
genomestart 140
trait 1 0.0875 0 0 0.00917042 0 0.0744408 0.0948746 0 
trait 2 0.2 0 0 0 0 0 0 0 
trait 3 0.3 0 0 0 0 0 0 0 
node 1 3 1 1
node 2 3 1 1
node 3 1 1 1
node 4 3 1 1
node 5 2 1 1
node 6 3 1 1
node 7 2 1 3
node 8 1 0 2
gene 2 1 8 2.19223 0 1 2.19223 1
gene 1 2 8 -1.20387 0 2 -1.20387 1
gene 1 3 8 -1.5384 0 3 -1.5384 1
gene 2 4 8 -2.67228 0 4 -2.67228 1
gene 2 5 8 2.16327 0 5 2.16327 1
gene 2 6 8 0.270279 0 6 0.270279 1
gene 1 7 8 1.28679 0 7 1.28679 1
genomeend 140

/* Organism #141 Fitness: 5 Error: 0 */
genomestart 141
trait 1 0.1 0 0 0 0 0 0 0 
trait 2 0.205553 0 0 0 0 0 0 0 
trait 3 0.3 0 0 0 0 0 0 0 
node 1 2 1 1
node 2 3 1 1
node 3 3 1 1
node 4 1 1 1
node 5 1 1 1
node 6 2 1 1
node 7 1 1 3
node 8 2 0 2
gene 1 1 8 2.4059 0 1 2.4059 1
gene 3 2 8 1.3094 0 2 1.3094 1
gene 1 3 8 -1.50974 0 3 -1.50974 1
gene 3 4 8 0.330716 0 4 0.330716 1
gene 2 5 8 -1.67789 0 5 -1.67789 1
gene 1 6 8 -1.83983 0 6 -1.83983 1
gene 2 7 8 1.35174 0 7 1.35174 1
genomeend 141

/* Organism #142 Fitness: 32 Error: 0 */
genomestart 142
trait 1 0.1 0 0 0 0 0 0 0 
trait 2 0.2 0 0 0 0 0 0 0 
trait 3 0.3 0 0 0 0 0 0 0 
node 1 3 1 1
node 2 3 1 1
node 3 2 1 1
node 4 2 1 1
node 5 2 1 1
node 6 3 1 1
node 7 3 1 3
node 8 1 0 2
gene 2 1 8 0.0885363 0 1 0.0885363 1
gene 3 2 8 -0.403479 0 2 -0.403479 1
gene 1 3 8 2.03175 0 3 2.03175 1
gene 3 4 8 0.0393438 0 4 0.0393438 1
gene 1 5 8 0.990202 0 5 0.990202 1
gene 1 6 8 0.587215 0 6 0.587215 1
gene 1 7 8 -0.460915 0 7 -0.460915 1
genomeend 142

/* Organism #143 Fitness: 153 Error: 0 */
genomestart 143
trait 1 0.075 0 0 0.0183408 0 0.148882 0.189749 0 
trait 2 0.2 0 0 0 0 0 0 0 
trait 3 0.3 0 0 0 0 0 0 0 
node 1 3 1 1
node 2 2 1 1
node 3 2 1 1
node 4 2 1 1
node 5 1 1 1
node 6 3 1 1
node 7 1 1 3
node 8 3 0 2
gene 1 1 8 0.356888 0 1 0.356888 1
gene 1 2 8 0.275384 0 2 0.275384 1
gene 1 3 8 -0.822471 0 3 -0.822471 1
gene 2 4 8 -0.903499 0 4 -0.903499 1
gene 3 5 8 1.059 0 5 1.059 1
gene 1 6 8 0.820195 0 6 0.820195 1
gene 2 7 8 -0.198949 0 7 -0.198949 1
genomeend 143

/* Organism #144 Fitness: 76 Error: 0 */
genomestart 144
trait 1 0.05 0 0 0.0366817 0 0.297763 0.379499 0 
trait 2 0.2 0 0 0 0 0 0 0 
trait 3 0.3 0 0 0 0 0 0 0 
node 1 3 1 1
node 2 3 1 1
node 3 1 1 1
node 4 3 1 1
node 5 2 1 1
node 6 3 1 1
node 7 2 1 3
node 8 1 0 2
gene 2 1 8 0.842353 0 1 0.842353 1
gene 1 2 8 0.495987 0 2 0.495987 1
gene 1 3 8 -1.13007 0 3 -1.13007 1
gene 3 4 8 -0.577031 0 4 -0.577031 1
gene 3 5 8 0.993488 0 5 0.993488 1
gene 1 6 8 0.745451 0 6 0.745451 1
gene 2 7 8 0.0156919 0 7 0.0156919 1
genomeend 144

/* Organism #145 Fitness: 33 Error: 0 */
genomestart 145
trait 1 0.1 0 0 0 0 0 0 0 
trait 2 0.155553 0 0 0 0 0 0 0 
trait 3 0.3 0 0 0 0 0 0 0 
node 1 2 1 1
node 2 1 1 1
node 3 2 1 1
node 4 2 1 1
node 5 1 1 1
node 6 2 1 1
node 7 1 1 3
node 8 1 0 2
gene 3 1 8 1.7252 0 1 1.7252 1
gene 3 2 8 1.1581 0 2 1.1581 1
gene 3 3 8 3.31105 0 3 3.31105 1
gene 3 4 8 1.18381 0 4 1.18381 1
gene 2 5 8 2.62966 0 5 2.62966 1
gene 2 6 8 1.62641 0 6 1.62641 1
gene 2 7 8 -0.896446 0 7 -0.896446 1
genomeend 145

/* Organism #146 Fitness: 15 Error: 0 */
genomestart 146
trait 1 0.1 0 0 0 0 0 0 0 
trait 2 0.205553 0 0 0 0 0 0 0 
trait 3 0.3 0 0 0 0 0 0 0 
node 1 3 1 1
node 2 2 1 1
node 3 2 1 1
node 4 2 1 1
node 5 1 1 1
node 6 3 1 1
node 7 1 1 3
node 8 3 0 2
gene 3 1 8 -2.87322 0 1 -2.87322 1
gene 1 2 8 -2.26326 0 2 -2.26326 1
gene 3 3 8 -0.959239 0 3 -0.959239 1
gene 3 4 8 1.79455 0 4 1.79455 1
gene 2 5 8 0.634661 0 5 0.634661 1
gene 1 6 8 1.04573 0 6 1.04573 1
gene 3 7 8 1.58534 0 7 1.58534 1
genomeend 146

/* Organism #147 Fitness: 63 Error: 0 */
genomestart 147
trait 1 0.075 0 0 0.0183408 0 0.148882 0.189749 0 
trait 2 0.205553 0 0 0 0 0 0 0 
trait 3 0.3 0 0 0 0 0.129455 0 0 
node 1 3 1 1
node 2 3 1 1
node 3 1 1 1
node 4 3 1 1
node 5 2 1 1
node 6 3 1 1
node 7 2 1 3
node 8 1 0 2
gene 1 1 8 -0.962239 0 1 -0.962239 1
gene 2 2 8 0.578684 0 2 0.578684 1
gene 1 3 8 -1.98587 0 3 -1.98587 1
gene 2 4 8 -0.62729 0 4 -0.62729 1
gene 3 5 8 3.58677 0 5 3.58677 1
gene 3 6 8 1.41264 0 6 1.41264 1
gene 1 7 8 -0.611172 0 7 -0.611172 1
genomeend 147

/* Organism #148 Fitness: 5 Error: 0 */
genomestart 148
trait 1 0.075 0 0 0.0183408 0 0.148882 0.189749 0 
trait 2 0.205553 0 0 0 0 0 0 0 
trait 3 0.3 0 0 0 0 0 0 0 
node 1 3 1 1
node 2 3 1 1
node 3 2 1 1
node 4 1 1 1
node 5 2 1 1
node 6 3 1 1
node 7 3 1 3
node 8 1 0 2
gene 1 1 8 0.724341 0 1 0.724341 1
gene 2 2 8 -1.28615 0 2 -1.28615 1
gene 3 3 8 -0.490876 0 3 -0.490876 1
gene 3 4 8 -2.58792 0 4 -2.58792 1
gene 3 5 8 0.281026 0 5 0.281026 1
gene 3 6 8 0.149995 0 6 0.149995 1
gene 1 7 8 -0.720224 0 7 -0.720224 1
genomeend 148

/* Organism #149 Fitness: 17 Error: 0 */
genomestart 149
trait 1 0.1 0 0 0 0 0 0 0 
trait 2 0.2 0 0 0 0 0 0 0 
trait 3 0.3 0 0 0 0 0 0 0 
node 1 3 1 1
node 2 1 1 1
node 3 2 1 1
node 4 2 1 1
node 5 1 1 1
node 6 3 1 1
node 7 1 1 3
node 8 3 0 2
gene 2 1 8 3.7491 0 1 3.7491 1
gene 1 2 8 0.331824 0 2 0.331824 1
gene 1 3 8 1.33305 0 3 1.33305 1
gene 2 4 8 2.27348 0 4 2.27348 1
gene 3 5 8 1.02465 0 5 1.02465 1
gene 1 6 8 0.533849 0 6 0.533849 1
gene 2 7 8 0.426365 0 7 0.426365 1
genomeend 149
