
/* Species #1 : (Size 67) (AF 0.00165927) (Age 5)  */


/* Organism #0 Fitness: 0.0156712 Error: 0 */
genomestart 0
trait 1 0.1 0 0 0 0 0 0 0 
node 1 1 1 1
node 2 1 1 1
node 3 1 1 1
node 4 1 1 3
node 5 1 0 2
gene 1 1 5 -0.434773 0 1 -0.434773 1
gene 1 2 5 -0.797937 0 2 -0.797937 1
gene 1 3 5 0.606976 0 3 0.606976 1
gene 1 4 5 0.208569 0 4 0.208569 1
genomeend 0

/* Organism #1 Fitness: 0.0042 Error: 0 */
genomestart 1
trait 1 0.1 0 0 0 0 0 0 0 
node 1 1 1 1
node 2 1 1 1
node 3 1 1 1
node 4 1 1 3
node 5 1 0 2
gene 1 1 5 -0.118063 0 1 -0.118063 1
gene 1 2 5 0.753707 0 2 0.753707 1
gene 1 3 5 2.41266 0 3 2.41266 1
gene 1 4 5 -0.674358 0 4 -0.674358 1
genomeend 1

/* Organism #2 Fitness: 0.0033 Error: 0 */
genomestart 2
trait 1 0.1 0 0 0 0 0 0 0 
node 1 1 1 1
node 2 1 1 1
node 3 1 1 1
node 4 1 1 3
node 5 1 0 2
gene 1 1 5 -0.148059 0 1 -0.148059 1
gene 1 2 5 0.902172 0 2 0.902172 1
gene 1 3 5 1.41315 0 3 1.41315 1
gene 1 4 5 -0.178142 0 4 -0.178142 1
genomeend 2

/* Organism #3 Fitness: 0.0027 Error: 0 */
genomestart 3
trait 1 0.1 0.116995 0 0.0297313 0 0.00508654 0 0 
node 1 1 1 1
node 2 1 1 1
node 3 1 1 1
node 4 1 1 3
node 5 1 0 2
gene 1 1 5 -0.791066 0 1 -0.791066 1
gene 1 2 5 -0.238396 0 2 -0.238396 1
gene 1 3 5 4.1836 0 3 4.1836 1
gene 1 4 5 -0.55211 0 4 -0.55211 1
genomeend 3

/* Organism #4 Fitness: 0.0034 Error: 0 */
genomestart 4
trait 1 0.1 0 0 0 0 0 0 0 
node 1 1 1 1
node 2 1 1 1
node 3 1 1 1
node 4 1 1 3
node 5 1 0 2
gene 1 1 5 0.322228 0 1 0.322228 0
gene 1 2 5 0.0942471 0 2 0.0942471 1
gene 1 3 5 0.566654 0 3 0.566654 1
gene 1 4 5 0.00264566 0 4 0.00264566 1
genomeend 4

/* Organism #5 Fitness: 0.0035 Error: 0 */
genomestart 5
trait 1 0.1 0.23399 0 0.0594625 0 0.0101731 0.076562 0.188594 
node 1 1 1 1
node 2 1 1 1
node 3 1 1 1
node 4 1 1 3
node 5 1 0 2
gene 1 1 5 -0.385727 0 1 -0.385727 0
gene 1 2 5 1.16692 0 2 1.16692 1
gene 1 3 5 2.87563 0 3 2.87563 1
gene 1 4 5 -0.326883 0 4 -0.326883 1
genomeend 5

/* Organism #6 Fitness: 0.0033 Error: 0 */
genomestart 6
trait 1 0.1 0 0 0 0 0 0 0 
node 1 1 1 1
node 2 1 1 1
node 3 1 1 1
node 4 1 1 3
node 5 1 0 2
gene 1 1 5 1.22331 0 1 1.22331 1
gene 1 2 5 0.115047 0 2 0.115047 1
gene 1 3 5 2.47761 0 3 2.47761 1
gene 1 4 5 0.11396 0 4 0.11396 1
genomeend 6

/* Organism #7 Fitness: 0.0005 Error: 0 */
genomestart 7
trait 1 0.1 0.23399 0 0.0594625 0 0.0101731 0 0 
node 1 1 1 1
node 2 1 1 1
node 3 1 1 1
node 4 1 1 3
node 5 1 0 2
gene 1 1 5 -0.636712 0 1 -0.636712 1
gene 1 2 5 0.0148887 0 2 0.0148887 1
gene 1 3 5 2.97327 0 3 2.97327 1
gene 1 4 5 2.04034 0 4 2.04034 1
genomeend 7

/* Organism #8 Fitness: 0.0004 Error: 0 */
genomestart 8
trait 1 0.1 0.23399 0 0.0594625 0 0.0101731 0 0 
node 1 1 1 1
node 2 1 1 1
node 3 1 1 1
node 4 1 1 3
node 5 1 0 2
gene 1 1 5 1.19306 0 1 1.19306 1
gene 1 2 5 -1.54172 0 2 -1.54172 1
gene 1 3 5 1.58581 0 3 1.58581 1
gene 1 4 5 2.16012 0 4 2.16012 1
genomeend 8

/* Organism #9 Fitness: 0.0032 Error: 0 */
genomestart 9
trait 1 0.1 0.0584975 0 0.0148656 0 0.00254327 0 0 
node 1 1 1 1
node 2 1 1 1
node 3 1 1 1
node 4 1 1 3
node 5 1 0 2
gene 1 1 5 -0.604692 0 1 -0.604692 1
gene 1 2 5 0.42608 0 2 0.42608 1
gene 1 3 5 3.05897 0 3 3.05897 1
gene 1 4 5 -0.460695 0 4 -0.460695 1
genomeend 9

/* Organism #10 Fitness: 0.002 Error: 0 */
genomestart 10
trait 1 0.0875 0 0 0.0523976 0.0610095 0.0900584 0.0879199 0 
node 1 1 1 1
node 2 1 1 1
node 3 1 1 1
node 4 1 1 3
node 5 1 0 2
gene 1 1 5 -0.918139 0 1 -0.918139 0
gene 1 2 5 0.444818 0 2 0.444818 1
gene 1 3 5 1.29623 0 3 1.29623 1
gene 1 4 5 0.440029 0 4 0.440029 1
genomeend 10

/* Organism #11 Fitness: 0.0004 Error: 0 */
genomestart 11
trait 1 0.1 0.263239 0 0.0668953 0 0.0114447 0 0 
node 1 1 1 1
node 2 1 1 1
node 3 1 1 1
node 4 1 1 3
node 5 1 0 2
gene 1 1 5 -0.88918 0 1 -0.88918 1
gene 1 2 5 -2.38235 0 2 -2.38235 0
gene 1 3 5 1.71155 0 3 1.71155 1
gene 1 4 5 1.82761 0 4 1.82761 1
genomeend 11

/* Organism #12 Fitness: 0.0007 Error: 0 */
genomestart 12
trait 1 0.1 0 0 0 0 0 0 0 
node 1 1 1 1
node 2 1 1 1
node 3 1 1 1
node 4 1 1 3
node 5 1 0 2
gene 1 1 5 -0.432926 0 1 -0.432926 1
gene 1 2 5 -0.179893 0 2 -0.179893 1
gene 1 3 5 0.221044 0 3 0.221044 1
gene 1 4 5 0.320483 0 4 0.320483 1
genomeend 12

/* Organism #13 Fitness: 0.0027 Error: 0 */
genomestart 13
trait 1 0.1 0 0 0 0 0 0 0 
node 1 1 1 1
node 2 1 1 1
node 3 1 1 1
node 4 1 1 3
node 5 1 0 2
gene 1 1 5 -0.11268 0 1 -0.11268 1
gene 1 2 5 0.793064 0 2 0.793064 1
gene 1 3 5 2.08041 0 3 2.08041 1
gene 1 4 5 -0.0062789 0 4 -0.0062789 1
genomeend 13

/* Organism #14 Fitness: 0.0011 Error: 0 */
genomestart 14
trait 1 0.1 0 0 0 0 0 0 0 
node 1 1 1 1
node 2 1 1 1
node 3 1 1 1
node 4 1 1 3
node 5 1 0 2
gene 1 1 5 1.44645 0 1 1.44645 1
gene 1 2 5 -0.797937 0 2 -0.797937 1
gene 1 3 5 0.606976 0 3 0.606976 1
gene 1 4 5 -0.0325368 0 4 -0.0325368 1
genomeend 14

/* Organism #15 Fitness: 0.0055 Error: 0 */
genomestart 15
trait 1 0.1 0.23399 0 0.0594625 0 0.0101731 0 0 
node 1 1 1 1
node 2 1 1 1
node 3 1 1 1
node 4 1 1 3
node 5 1 0 2
gene 1 1 5 -1.63665 0 1 -1.63665 1
gene 1 2 5 -2.08264 0 2 -2.08264 1
gene 1 3 5 1.24391 0 3 1.24391 1
gene 1 4 5 0.596057 0 4 0.596057 1
genomeend 15

/* Organism #16 Fitness: 0.0006 Error: 0 */
genomestart 16
trait 1 0 0.0802299 0.036601 0 0 0 0.0312953 0.0610258 
node 1 1 1 1
node 2 1 1 1
node 3 1 1 1
node 4 1 1 3
node 5 1 0 2
node 7 1 0 0
gene 1 1 5 -0.726393 0 1 -0.726393 0
gene 1 2 5 0.0677232 0 2 0.0677232 1
gene 1 3 5 0.786188 0 3 0.786188 1
gene 1 4 5 -0.437741 0 4 -0.437741 1
gene 1 1 7 0.236851 0 23 0.236851 1
gene 1 7 5 1.55224 0 24 1.55224 1
genomeend 16

/* Organism #17 Fitness: 0.0005 Error: 0 */
genomestart 17
trait 1 0.1 0 0 0 0 0 0 0 
node 1 1 1 1
node 2 1 1 1
node 3 1 1 1
node 4 1 1 3
node 5 1 0 2
gene 1 1 5 0.614366 0 1 0.614366 1
gene 1 2 5 0.403524 0 2 0.403524 1
gene 1 3 5 1.3332 0 3 1.3332 1
gene 1 4 5 0.944018 0 4 0.944018 1
genomeend 17

/* Organism #18 Fitness: 0.0027 Error: 0 */
genomestart 18
trait 1 0.1 0.0584975 0 0.0148656 0 0.00254327 0 0 
node 1 1 1 1
node 2 1 1 1
node 3 1 1 1
node 4 1 1 3
node 5 1 0 2
gene 1 1 5 0.707083 0 1 0.707083 0
gene 1 2 5 0.0942471 0 2 0.0942471 1
gene 1 3 5 3.27389 0 3 3.27389 1
gene 1 4 5 0.440029 0 4 0.440029 1
genomeend 18

/* Organism #19 Fitness: 0.0019 Error: 0 */
genomestart 19
trait 1 0.1 0 0 0 0 0 0 0 
node 1 1 1 1
node 2 1 1 1
node 3 1 1 1
node 4 1 1 3
node 5 1 0 2
gene 1 1 5 0.55129 0 1 0.55129 1
gene 1 2 5 0.74157 0 2 0.74157 1
gene 1 3 5 1.29067 0 3 1.29067 1
gene 1 4 5 0.208569 0 4 0.208569 1
genomeend 19

/* Organism #20 Fitness: 0.0004 Error: 0 */
genomestart 20
trait 1 0.1 0.116995 0 0.0297313 0 0.00508654 0 0 
node 1 1 1 1
node 2 1 1 1
node 3 1 1 1
node 4 1 1 3
node 5 1 0 2
gene 1 1 5 -1.03167 0 1 -1.03167 1
gene 1 2 5 -0.805667 0 2 -0.805667 1
gene 1 3 5 -0.390085 0 3 -0.390085 1
gene 1 4 5 -0.552825 0 4 -0.552825 1
genomeend 20

/* Organism #21 Fitness: 0.0005 Error: 0 */
genomestart 21
trait 1 0 0.0145755 0 0.71796 0 0 0 0 
node 1 1 1 1
node 2 1 1 1
node 3 1 1 1
node 4 1 1 3
node 5 1 0 2
node 7 1 0 0
gene 1 1 5 -0.779856 0 1 -0.779856 0
gene 1 2 5 -0.631418 0 2 -0.631418 1
gene 1 3 5 0.728495 0 3 0.728495 1
gene 1 4 5 -0.1332 0 4 -0.1332 1
gene 1 1 7 0.979874 0 23 0.979874 1
gene 1 7 5 -1.24399 0 24 -1.24399 1
genomeend 21

/* Organism #22 Fitness: 0.0024 Error: 0 */
genomestart 22
trait 1 0.1 0 0 0 0 0 0 0 
node 1 1 1 1
node 2 1 1 1
node 3 1 1 1
node 4 1 1 3
node 5 1 0 2
gene 1 1 5 0.312314 0 1 0.312314 1
gene 1 2 5 0.00195283 0 2 0.00195283 1
gene 1 3 5 3.82372 0 3 3.82372 1
gene 1 4 5 0.422909 0 4 0.422909 1
genomeend 22

/* Organism #23 Fitness: 0.0005 Error: 0 */
genomestart 23
trait 1 0.075 0 0 0 0 0 0 0 
node 1 1 1 1
node 2 1 1 1
node 3 1 1 1
node 4 1 1 3
node 5 1 0 2
gene 1 1 5 -0.203765 0 1 -0.203765 1
gene 1 2 5 -1.69725 0 2 -1.69725 1
gene 1 3 5 -0.451485 0 3 -0.451485 1
gene 1 4 5 0.0634873 0 4 0.0634873 1
genomeend 23

/* Organism #24 Fitness: 0.0005 Error: 0 */
genomestart 24
trait 1 0.05 0 0 0 0 0 0 0 
node 1 1 1 1
node 2 1 1 1
node 3 1 1 1
node 4 1 1 3
node 5 1 0 2
gene 1 1 5 2.04761 0 1 2.04761 1
gene 1 2 5 -1.4497 0 2 -1.4497 1
gene 1 3 5 -0.938813 0 3 -0.938813 1
gene 1 4 5 -0.0728835 0 4 -0.0728835 1
genomeend 24

/* Organism #25 Fitness: 0.0004 Error: 0 */
genomestart 25
trait 1 0.05 0 0 0 0 0 0 0 
node 1 1 1 1
node 2 1 1 1
node 3 1 1 1
node 4 1 1 3
node 5 1 0 2
gene 1 1 5 1.02757 0 1 1.02757 1
gene 1 2 5 -1.04289 0 2 -1.04289 1
gene 1 3 5 -0.184368 0 3 -0.184368 1
gene 1 4 5 1.81447 0 4 1.81447 1
genomeend 25

/* Organism #26 Fitness: 0.0023 Error: 0 */
genomestart 26
trait 1 0.1 0.116995 0 0.0297313 0 0.00508654 0 0 
node 1 1 1 1
node 2 1 1 1
node 3 1 1 1
node 4 1 1 3
node 5 1 0 2
gene 1 1 5 -1.28079 0 1 -1.28079 1
gene 1 2 5 -1.47767 0 2 -1.47767 1
gene 1 3 5 2.74816 0 3 2.74816 1
gene 1 4 5 -0.668107 0 4 -0.668107 1
genomeend 26

/* Organism #27 Fitness: 0.0008 Error: 0 */
genomestart 27
trait 1 0.1 0.23399 0 0.0594625 0 0.0101731 0 0 
node 1 1 1 1
node 2 1 1 1
node 3 1 1 1
node 4 1 1 3
node 5 1 0 2
gene 1 1 5 -1.48458 0 1 -1.48458 1
gene 1 2 5 -4.09915 0 2 -4.09915 1
gene 1 3 5 0.766997 0 3 0.766997 1
gene 1 4 5 0.8254 0 4 0.8254 1
genomeend 27

/* Organism #28 Fitness: 0.0005 Error: 0 */
genomestart 28
trait 1 0.1 0.350985 0 0.0891938 0 0.0152596 0 0 
node 1 1 1 1
node 2 1 1 1
node 3 1 1 1
node 4 1 1 3
node 5 1 0 2
gene 1 1 5 -2.30021 0 1 -2.30021 1
gene 1 2 5 -1.45905 0 2 -1.45905 1
gene 1 3 5 0.546061 0 3 0.546061 1
gene 1 4 5 -0.248622 0 4 -0.248622 1
gene 1 5 5 -1.54827 1 103 -1.54827 1
genomeend 28

/* Organism #29 Fitness: 0.0007 Error: 0 */
genomestart 29
trait 1 0.1 0.116995 0 0.0297313 0 0.00508654 0 0 
node 1 1 1 1
node 2 1 1 1
node 3 1 1 1
node 4 1 1 3
node 5 1 0 2
gene 1 1 5 -2.3008 0 1 -2.3008 1
gene 1 2 5 -2.61065 0 2 -2.61065 1
gene 1 3 5 0.885287 0 3 0.885287 1
gene 1 4 5 1.21919 0 4 1.21919 1
genomeend 29

/* Organism #30 Fitness: 0.0004 Error: 0 */
genomestart 30
trait 1 0.1 0.175493 0 0.0445969 0 0.00762982 0 0 
node 1 1 1 1
node 2 1 1 1
node 3 1 1 1
node 4 1 1 3
node 5 1 0 2
gene 1 1 5 -2.15799 0 1 -2.15799 1
gene 1 2 5 -2.38311 0 2 -2.38311 1
gene 1 3 5 0.869604 0 3 0.869604 1
gene 1 4 5 -0.559537 0 4 -0.559537 1
genomeend 30

/* Organism #31 Fitness: 0.003 Error: 0 */
genomestart 31
trait 1 0.1 0.182805 0 0.0464551 0 0.00794772 0 0 
node 1 1 1 1
node 2 1 1 1
node 3 1 1 1
node 4 1 1 3
node 5 1 0 2
gene 1 1 5 -3.01177 0 1 -3.01177 1
gene 1 2 5 -1.11522 0 2 -1.11522 1
gene 1 3 5 2.66995 0 3 2.66995 1
gene 1 4 5 0.378511 0 4 0.378511 1
genomeend 31

/* Organism #32 Fitness: 0.002 Error: 0 */
genomestart 32
trait 1 0.1 0 0 0 0 0 0 0 
node 1 1 1 1
node 2 1 1 1
node 3 1 1 1
node 4 1 1 3
node 5 1 0 2
gene 1 1 5 -1.68816 0 1 -1.68816 1
gene 1 2 5 0.314989 0 2 0.314989 0
gene 1 3 5 1.34227 0 3 1.34227 1
gene 1 4 5 -0.51562 0 4 -0.51562 1
gene 1 5 5 0.434175 1 85 0.434175 1
genomeend 32

/* Organism #33 Fitness: 0.0005 Error: 0 */
genomestart 33
trait 1 0.1 0 0 0 0 0 0 0 
node 1 1 1 1
node 2 1 1 1
node 3 1 1 1
node 4 1 1 3
node 5 1 0 2
gene 1 1 5 -1.48105 0 1 -1.48105 1
gene 1 2 5 -0.0431577 0 2 -0.0431577 1
gene 1 3 5 1.03317 0 3 1.03317 1
gene 1 4 5 -1.20065 0 4 -1.20065 1
gene 1 5 5 -0.176552 1 85 -0.176552 1
genomeend 33

/* Organism #34 Fitness: 0.0006 Error: 0 */
genomestart 34
trait 1 0.075 0 0 0 0 0 0 0 
node 1 1 1 1
node 2 1 1 1
node 3 1 1 1
node 4 1 1 3
node 5 1 0 2
gene 1 1 5 -0.0151382 0 1 -0.0151382 1
gene 1 2 5 2.05715 0 2 2.05715 1
gene 1 3 5 -0.360599 0 3 -0.360599 1
gene 1 4 5 -0.185344 0 4 -0.185344 1
genomeend 34

/* Organism #35 Fitness: 0.0006 Error: 0 */
genomestart 35
trait 1 0.1 0 0 0 0 0 0 0 
node 1 1 1 1
node 2 1 1 1
node 3 1 1 1
node 4 1 1 3
node 5 1 0 2
gene 1 1 5 -0.223401 0 1 -0.223401 1
gene 1 2 5 2.03144 0 2 2.03144 1
gene 1 3 5 -0.268313 0 3 -0.268313 1
gene 1 4 5 -0.891489 0 4 -0.891489 1
genomeend 35

/* Organism #36 Fitness: 0.0004 Error: 0 */
genomestart 36
trait 1 0.1 0.350985 0 0.0891938 0 0.0152596 0 0 
node 1 1 1 1
node 2 1 1 1
node 3 1 1 1
node 4 1 1 3
node 5 1 0 2
gene 1 1 5 -0.949794 0 1 -0.949794 1
gene 1 2 5 -0.350828 0 2 -0.350828 1
gene 1 3 5 -0.948172 0 3 -0.948172 1
gene 1 4 5 -0.76352 0 4 -0.76352 1
genomeend 36

/* Organism #37 Fitness: 0.0048 Error: 0 */
genomestart 37
trait 1 0.05 0 0 0.11085 0 0 0.0885813 0 
node 1 1 1 1
node 2 1 1 1
node 3 1 1 1
node 4 1 1 3
node 5 1 0 2
gene 1 1 5 -1.09154 0 1 -1.09154 1
gene 1 2 5 0.45176 0 2 0.45176 1
gene 1 3 5 1.77961 0 3 1.77961 1
gene 1 4 5 -0.127325 0 4 -0.127325 1
gene 1 5 5 -0.55926 1 68 -0.55926 1
genomeend 37

/* Organism #38 Fitness: 0.0017 Error: 0 */
genomestart 38
trait 1 0.1 0 0 0 0 0 0 0 
node 1 1 1 1
node 2 1 1 1
node 3 1 1 1
node 4 1 1 3
node 5 1 0 2
gene 1 1 5 -0.122853 0 1 -0.122853 1
gene 1 2 5 -0.97172 0 2 -0.97172 1
gene 1 3 5 2.67539 0 3 2.67539 1
gene 1 4 5 -0.0941527 0 4 -0.0941527 1
gene 1 5 5 0.746801 1 85 0.746801 1
genomeend 38

/* Organism #39 Fitness: 0.0006 Error: 0 */
genomestart 39
trait 1 0.1 0.266895 0 0.0678244 0 0.0116037 0 0 
node 1 1 1 1
node 2 1 1 1
node 3 1 1 1
node 4 1 1 3
node 5 1 0 2
gene 1 1 5 -3.43756 0 1 -3.43756 1
gene 1 2 5 -2.12725 0 2 -2.12725 1
gene 1 3 5 1.0326 0 3 1.0326 1
gene 1 4 5 -0.141008 0 4 -0.141008 1
genomeend 39

/* Organism #40 Fitness: 0.002 Error: 0 */
genomestart 40
trait 1 0.1 0.23399 0 0.0594625 0 0.0101731 0 0 
node 1 1 1 1
node 2 1 1 1
node 3 1 1 1
node 4 1 1 3
node 5 1 0 2
gene 1 1 5 -0.668056 0 1 -0.668056 1
gene 1 2 5 -2.18292 0 2 -2.18292 1
gene 1 3 5 3.23951 0 3 3.23951 1
gene 1 4 5 -0.399287 0 4 -0.399287 1
genomeend 40

/* Organism #41 Fitness: 0.002 Error: 0 */
genomestart 41
trait 1 0.1 0.23399 0 0.0594625 0 0.0101731 0 0 
node 1 1 1 1
node 2 1 1 1
node 3 1 1 1
node 4 1 1 3
node 5 1 0 2
gene 1 1 5 -2.062 0 1 -2.062 1
gene 1 2 5 -0.210072 0 2 -0.210072 1
gene 1 3 5 1.73334 0 3 1.73334 1
gene 1 4 5 -0.545753 0 4 -0.545753 1
genomeend 41

/* Organism #42 Fitness: 0.0026 Error: 0 */
genomestart 42
trait 1 0.1 0.116995 0 0.0297313 0 0.00508654 0 0 
node 1 1 1 1
node 2 1 1 1
node 3 1 1 1
node 4 1 1 3
node 5 1 0 2
gene 1 1 5 -3.17684 0 1 -3.17684 0
gene 1 2 5 -2.10888 0 2 -2.10888 1
gene 1 3 5 1.34073 0 3 1.34073 1
gene 1 4 5 0.175162 0 4 0.175162 1
genomeend 42

/* Organism #43 Fitness: 0.0007 Error: 0 */
genomestart 43
trait 1 0.1 0 0 0 0 0 0.800481 0.987983 
node 1 1 1 1
node 2 1 1 1
node 3 1 1 1
node 4 1 1 3
node 5 1 0 2
gene 1 1 5 0.63233 0 1 0.63233 1
gene 1 2 5 1.36601 0 2 1.36601 1
gene 1 3 5 0.588854 0 3 0.588854 1
gene 1 4 5 0.134333 0 4 0.134333 1
genomeend 43

/* Organism #44 Fitness: 0.0004 Error: 0 */
genomestart 44
trait 1 0.1 0.248614 0 0.0631789 0 0.0108089 0 0 
node 1 1 1 1
node 2 1 1 1
node 3 1 1 1
node 4 1 1 3
node 5 1 0 2
gene 1 1 5 0.910087 0 1 0.910087 1
gene 1 2 5 -3.67335 0 2 -3.67335 1
gene 1 3 5 0.839816 0 3 0.839816 1
gene 1 4 5 -0.356934 0 4 -0.356934 1
genomeend 44

/* Organism #45 Fitness: 0.0039 Error: 0 */
genomestart 45
trait 1 0.09375 0.0731219 0 0.018582 0 0.00317909 0 0 
node 1 1 1 1
node 2 1 1 1
node 3 1 1 1
node 4 1 1 3
node 5 1 0 2
gene 1 1 5 0.327775 0 1 0.327775 1
gene 1 2 5 -2.81033 0 2 -2.81033 0
gene 1 3 5 0.887766 0 3 0.887766 1
gene 1 4 5 -0.259337 0 4 -0.259337 1
genomeend 45

/* Organism #46 Fitness: 0.0034 Error: 0 */
genomestart 46
trait 1 0.09375 0.0146244 0 0.00371641 0 0.000635818 0 0 
node 1 1 1 1
node 2 1 1 1
node 3 1 1 1
node 4 1 1 3
node 5 1 0 2
gene 1 1 5 0.659334 0 1 0.659334 1
gene 1 2 5 -3.19583 0 2 -3.19583 0
gene 1 3 5 1.48766 0 3 1.48766 1
gene 1 4 5 0.14486 0 4 0.14486 1
genomeend 46

/* Organism #47 Fitness: 0.0005 Error: 0 */
genomestart 47
trait 1 0.1 0 0 0 0 0 0 0 
node 1 1 1 1
node 2 1 1 1
node 3 1 1 1
node 4 1 1 3
node 5 1 0 2
node 12 1 0 0
gene 1 1 5 -1.12966 0 1 -1.12966 1
gene 1 2 5 -0.788565 0 2 -0.788565 0
gene 1 3 5 2.02017 0 3 2.02017 1
gene 1 4 5 0.0588081 0 4 0.0588081 1
gene 1 2 12 1.26783 0 120 1.26783 1
gene 1 12 5 -2.24279 0 121 -2.24279 1
genomeend 47

/* Organism #48 Fitness: 0.0004 Error: 0 */
genomestart 48
trait 1 0.084375 0.0658097 0 0.0167238 0 0.00286118 0 0 
node 1 1 1 1
node 2 1 1 1
node 3 1 1 1
node 4 1 1 3
node 5 1 0 2
gene 1 1 5 -0.0649381 0 1 -0.0649381 1
gene 1 2 5 -2.00846 0 2 -2.00846 0
gene 1 3 5 0.678454 0 3 0.678454 1
gene 1 4 5 -2.74973 0 4 -2.74973 1
genomeend 48

/* Organism #49 Fitness: 0.0006 Error: 0 */
genomestart 49
trait 1 0.1 0.0584975 0 0.0148656 0 0.00254327 0 0 
node 1 1 1 1
node 2 1 1 1
node 3 1 1 1
node 4 1 1 3
node 5 1 0 2
gene 1 1 5 -1.4667 0 1 -1.4667 1
gene 1 2 5 -1.15646 0 2 -1.15646 1
gene 1 3 5 2.78716 0 3 2.78716 1
gene 1 4 5 -1.38056 0 4 -1.38056 1
genomeend 49

/* Organism #50 Fitness: 0.0005 Error: 0 */
genomestart 50
trait 1 0.1 0.23399 0 0.0594625 0.0610095 0.100231 0.0879199 0 
node 1 1 1 1
node 2 1 1 1
node 3 1 1 1
node 4 1 1 3
node 5 1 0 2
gene 1 1 5 -0.343901 0 1 -0.343901 0
gene 1 2 5 0.648326 0 2 0.648326 1
gene 1 3 5 0.220587 0 3 0.220587 1
gene 1 4 5 -0.942048 0 4 -0.942048 1
genomeend 50

/* Organism #51 Fitness: 0.0004 Error: 0 */
genomestart 51
trait 1 0.1 0 0 0 0 0 0 0 
node 1 1 1 1
node 2 1 1 1
node 3 1 1 1
node 4 1 1 3
node 5 1 0 2
gene 1 1 5 -0.555123 0 1 -0.555123 1
gene 1 2 5 2.74284 0 2 2.74284 1
gene 1 3 5 0.660659 0 3 0.660659 1
gene 1 4 5 0.991163 0 4 0.991163 1
genomeend 51

/* Organism #52 Fitness: 0.0004 Error: 0 */
genomestart 52
trait 1 0.1 0.146244 0 0.385256 0 0.295209 0 0 
node 1 1 1 1
node 2 1 1 1
node 3 1 1 1
node 4 1 1 3
node 5 1 0 2
gene 1 1 5 -1.15642 0 1 -1.15642 1
gene 1 2 5 -0.657886 0 2 -0.657886 1
gene 1 3 5 1.23426 0 3 1.23426 1
gene 1 4 5 -1.31854 0 4 -1.31854 1
genomeend 52

/* Organism #53 Fitness: 0.0021 Error: 0 */
genomestart 53
trait 1 0.1 0 0 0 0 0 0 0 
node 1 1 1 1
node 2 1 1 1
node 3 1 1 1
node 4 1 1 3
node 5 1 0 2
gene 1 1 5 1.32325 0 1 1.32325 1
gene 1 2 5 -0.663817 0 2 -0.663817 1
gene 1 3 5 0.687046 0 3 0.687046 1
gene 1 4 5 0.218287 0 4 0.218287 1
gene 1 5 5 0.263138 1 97 0.263138 1
genomeend 53

/* Organism #54 Fitness: 0.0006 Error: 0 */
genomestart 54
trait 1 0.1 0 0 0 0.534368 0 0 0.645947 
node 1 1 1 1
node 2 1 1 1
node 3 1 1 1
node 4 1 1 3
node 5 1 0 2
node 15 1 0 0
gene 1 1 5 -0.392699 0 1 -0.392699 0
gene 1 2 5 -1.4573 0 2 -1.4573 1
gene 1 3 5 2.13446 0 3 2.13446 1
gene 1 4 5 -0.158705 0 4 -0.158705 1
gene 1 1 15 -0.465716 0 153 -0.465716 1
gene 1 15 5 -0.749058 0 154 -0.749058 1
genomeend 54

/* Organism #55 Fitness: 0.0005 Error: 0 */
genomestart 55
trait 1 0.1 0 0 0 0 0 0 0 
node 1 1 1 1
node 2 1 1 1
node 3 1 1 1
node 4 1 1 3
node 5 1 0 2
gene 1 1 5 -1.7145 0 1 -1.7145 1
gene 1 2 5 0.373381 0 2 0.373381 0
gene 1 3 5 1.72735 0 3 1.72735 1
gene 1 4 5 0.361516 0 4 0.361516 1
gene 1 5 5 1.56991 1 85 1.56991 1
genomeend 55

/* Organism #56 Fitness: 0.0007 Error: 0 */
genomestart 56
trait 1 0.075 1.38835e-05 0 0.617853 0 0 0.178257 0 
node 1 1 1 1
node 2 1 1 1
node 3 1 1 1
node 4 1 1 3
node 5 1 0 2
gene 1 1 5 -0.520281 0 1 -0.520281 1
gene 1 2 5 -0.694083 0 2 -0.694083 1
gene 1 3 5 0.661875 0 3 0.661875 1
gene 1 4 5 -0.270555 0 4 -0.270555 1
genomeend 56

/* Organism #57 Fitness: 0.0005 Error: 0 */
genomestart 57
trait 1 0.1 0 0 0 0 0 0 0 
node 1 1 1 1
node 2 1 1 1
node 3 1 1 1
node 4 1 1 3
node 5 1 0 2
gene 1 1 5 1.60623 0 1 1.60623 1
gene 1 2 5 -0.540179 0 2 -0.540179 1
gene 1 3 5 1.25507 0 3 1.25507 1
gene 1 4 5 0.15237 0 4 0.15237 1
gene 1 5 5 1.61215 1 157 1.61215 1
genomeend 57

/* Organism #58 Fitness: 0.0005 Error: 0 */
genomestart 58
trait 1 0.1 0 0 0 0 0 0.800481 0.987983 
node 1 1 1 1
node 2 1 1 1
node 3 1 1 1
node 4 1 1 3
node 5 1 0 2
gene 1 1 5 0.417313 0 1 0.417313 1
gene 1 2 5 -1.69004 0 2 -1.69004 1
gene 1 3 5 -1.97602 0 3 -1.97602 1
gene 1 4 5 -0.0742476 0 4 -0.0742476 1
genomeend 58

/* Organism #59 Fitness: 0.0007 Error: 0 */
genomestart 59
trait 1 0.1 0 0 0 0 0 0 0 
node 1 1 1 1
node 2 1 1 1
node 3 1 1 1
node 4 1 1 3
node 5 1 0 2
gene 1 1 5 -0.664179 0 1 -0.664179 1
gene 1 2 5 1.14361 0 2 1.14361 1
gene 1 3 5 -0.138084 0 3 -0.138084 1
gene 1 4 5 -0.0744425 0 4 -0.0744425 1
genomeend 59

/* Organism #60 Fitness: 0.0004 Error: 0 */
genomestart 60
trait 1 0.1 0 0 0 0.0305048 0.0450292 0.04396 0 
node 1 1 1 1
node 2 1 1 1
node 3 1 1 1
node 4 1 1 3
node 5 1 0 2
gene 1 1 5 -1.69286 0 1 -1.69286 0
gene 1 2 5 -0.758779 0 2 -0.758779 1
gene 1 3 5 -1.91489 0 3 -1.91489 1
gene 1 4 5 -0.838926 0 4 -0.838926 1
genomeend 60

/* Organism #61 Fitness: 0.0004 Error: 0 */
genomestart 61
trait 1 0.0875 0.116995 0 0.0297313 0 0.00508654 0 0 
node 1 1 1 1
node 2 1 1 1
node 3 1 1 1
node 4 1 1 3
node 5 1 0 2
gene 1 1 5 -3.05916 0 1 -3.05916 1
gene 1 2 5 -0.459176 0 2 -0.459176 1
gene 1 3 5 -0.735674 0 3 -0.735674 1
gene 1 4 5 -0.805646 0 4 -0.805646 1
genomeend 61

/* Organism #62 Fitness: 0.0033 Error: 0 */
genomestart 62
trait 1 0.1 0 0 0.0445969 0 0.378326 0 0.732697 
node 1 1 1 1
node 2 1 1 1
node 3 1 1 1
node 4 1 1 3
node 5 1 0 2
gene 1 1 5 1.6396 0 1 1.6396 0
gene 1 2 5 -1.99082 0 2 -1.99082 1
gene 1 3 5 1.96697 0 3 1.96697 1
gene 1 4 5 0.626587 0 4 0.626587 1
genomeend 62

/* Organism #63 Fitness: 0.0005 Error: 0 */
genomestart 63
trait 1 0.1 0 0 0 0 0 0 0 
node 1 1 1 1
node 2 1 1 1
node 3 1 1 1
node 4 1 1 3
node 5 1 0 2
gene 1 1 5 -1.23915 0 1 -1.23915 1
gene 1 2 5 -1.57531 0 2 -1.57531 1
gene 1 3 5 1.58225 0 3 1.58225 1
gene 1 4 5 0.62517 0 4 0.62517 1
gene 1 5 5 0.738785 1 105 0.738785 1
genomeend 63

/* Organism #64 Fitness: 0.0004 Error: 0 */
genomestart 64
trait 1 0.09375 0.0438731 0 0.0111492 0 0.00190745 0 0 
node 1 1 1 1
node 2 1 1 1
node 3 1 1 1
node 4 1 1 3
node 5 1 0 2
gene 1 1 5 -0.54423 0 1 -0.54423 1
gene 1 2 5 0.0528925 0 2 0.0528925 0
gene 1 3 5 -0.497797 0 3 -0.497797 1
gene 1 4 5 -1.72517 0 4 -1.72517 1
genomeend 64

/* Organism #65 Fitness: 0.0005 Error: 0 */
genomestart 65
trait 1 0.1 0 0 0 0 0 0 0 
node 1 1 1 1
node 2 1 1 1
node 3 1 1 1
node 4 1 1 3
node 5 1 0 2
node 12 1 0 0
gene 1 1 5 -0.563124 0 1 -0.563124 1
gene 1 2 5 -2.21323 0 2 -2.21323 1
gene 1 3 5 0.431039 0 3 0.431039 1
gene 1 4 5 0.337868 0 4 0.337868 1
gene 1 2 12 -1.83501 0 120 -1.83501 1
gene 1 12 5 -3.07485 0 121 -3.07485 1
genomeend 65

/* Organism #66 Fitness: 0.0004 Error: 0 */
genomestart 66
trait 1 0.1 0.0584975 0 0.0148656 0 0.00254327 0 0 
node 1 1 1 1
node 2 1 1 1
node 3 1 1 1
node 4 1 1 3
node 5 1 0 2
gene 1 1 5 -1.12796 0 1 -1.12796 1
gene 1 2 5 -1.35409 0 2 -1.35409 1
gene 1 3 5 1.38013 0 3 1.38013 1
gene 1 4 5 -1.74596 0 4 -1.74596 1
gene 1 5 5 0.254591 1 201 0.254591 1
genomeend 66

/* Species #2 : (Size 24) (AF 0.0028625) (Age 4)  */


/* Organism #67 Fitness: 0.0044 Error: 0 */
genomestart 67
trait 1 0.512288 0.100718 0.0360157 1 0.122629 0 0.406517 0.693504 
node 1 1 1 1
node 2 1 1 1
node 3 1 1 1
node 4 1 1 3
node 5 1 0 2
gene 1 1 5 2.77809 0 1 2.77809 1
gene 1 2 5 3.5682 0 2 3.5682 1
gene 1 3 5 3.2273 0 3 3.2273 1
gene 1 4 5 -1.20836 0 4 -1.20836 1
gene 1 5 5 -0.578626 1 173 -0.578626 1
genomeend 67

/* Organism #68 Fitness: 0.0033 Error: 0 */
genomestart 68
trait 1 0.1 0 0 0 0 0 0 0 
node 1 1 1 1
node 2 1 1 1
node 3 1 1 1
node 4 1 1 3
node 5 1 0 2
gene 1 1 5 2.21403 0 1 2.21403 1
gene 1 2 5 3.67521 0 2 3.67521 1
gene 1 3 5 2.9346 0 3 2.9346 1
gene 1 4 5 -1.31312 0 4 -1.31312 1
genomeend 68

/* Organism #69 Fitness: 0.0025 Error: 0 */
genomestart 69
trait 1 0.306144 0.0503591 0.0180078 0.5 0.0613146 0 0.203259 0.346752 
node 1 1 1 1
node 2 1 1 1
node 3 1 1 1
node 4 1 1 3
node 5 1 0 2
gene 1 1 5 2.92442 0 1 2.92442 1
gene 1 2 5 0.451829 0 2 0.451829 1
gene 1 3 5 3.26219 0 3 3.26219 1
gene 1 4 5 -1.69289 0 4 -1.69289 1
gene 1 5 5 -0.578626 1 173 -0.578626 1
genomeend 69

/* Organism #70 Fitness: 0.0017 Error: 0 */
genomestart 70
trait 1 0.1 0 0 0.0224 0 0 0.214135 0 
node 1 1 1 1
node 2 1 1 1
node 3 1 1 1
node 4 1 1 3
node 5 1 0 2
gene 1 1 5 3.16961 0 1 3.16961 1
gene 1 2 5 3.10399 0 2 3.10399 1
gene 1 3 5 1.70695 0 3 1.70695 1
gene 1 4 5 -0.501551 0 4 -0.501551 1
genomeend 70

/* Organism #71 Fitness: 0.0033 Error: 0 */
genomestart 71
trait 1 0.550332 0.0251795 0.00900392 0.648142 0.0306573 0 0.286542 0.64893 
node 1 1 1 1
node 2 1 1 1
node 3 1 1 1
node 4 1 1 3
node 5 1 0 2
gene 1 1 5 3.19759 0 1 3.19759 1
gene 1 2 5 3.10399 0 2 3.10399 1
gene 1 3 5 3.275 0 3 3.275 1
gene 1 4 5 -0.854955 0 4 -0.854955 1
genomeend 71

/* Organism #72 Fitness: 0.0031 Error: 0 */
genomestart 72
trait 1 0.1 0 0 0 0 0 0.0292224 0 
node 1 1 1 1
node 2 1 1 1
node 3 1 1 1
node 4 1 1 3
node 5 1 0 2
gene 1 1 5 1.01245 0 1 1.01245 1
gene 1 2 5 2.58321 0 2 2.58321 1
gene 1 3 5 3.45206 0 3 3.45206 1
gene 1 4 5 -1.3283 0 4 -1.3283 1
genomeend 72

/* Organism #73 Fitness: 0.0026 Error: 0 */
genomestart 73
trait 1 0.1 0 0 0.0448 0 0 0.369825 0 
node 1 1 1 1
node 2 1 1 1
node 3 1 1 1
node 4 1 1 3
node 5 1 0 2
gene 1 1 5 3.39335 0 1 3.39335 1
gene 1 2 5 3.04971 0 2 3.04971 1
gene 1 3 5 3.36578 0 3 3.36578 1
gene 1 4 5 -0.887374 0 4 -0.887374 1
genomeend 73

/* Organism #74 Fitness: 0.0029 Error: 0 */
genomestart 74
trait 1 0.1 0 0 0.0478445 0.139239 0 0.0292224 0.606591 
node 1 1 1 1
node 2 1 1 1
node 3 1 1 1
node 4 1 1 3
node 5 1 0 2
gene 1 1 5 1.70539 0 1 1.70539 1
gene 1 2 5 2.81154 0 2 2.81154 1
gene 1 3 5 2.09537 0 3 2.09537 1
gene 1 4 5 -0.874777 0 4 -0.874777 1
genomeend 74

/* Organism #75 Fitness: 0.0038 Error: 0 */
genomestart 75
trait 1 0.1 0 0 0 0 0 0.0584448 0 
node 1 1 1 1
node 2 1 1 1
node 3 1 1 1
node 4 1 1 3
node 5 1 0 2
gene 1 1 5 2.67787 0 1 2.67787 1
gene 1 2 5 2.06242 0 2 2.06242 1
gene 1 3 5 3.275 0 3 3.275 1
gene 1 4 5 -1.2732 0 4 -1.2732 1
genomeend 75

/* Organism #76 Fitness: 0.0024 Error: 0 */
genomestart 76
trait 1 0.1 0 0.023666 0.0224 0.401934 0.410487 0.184912 0.450911 
node 1 1 1 1
node 2 1 1 1
node 3 1 1 1
node 4 1 1 3
node 5 1 0 2
gene 1 1 5 3.61708 0 1 3.61708 1
gene 1 2 5 3.10399 0 2 3.10399 1
gene 1 3 5 3.275 0 3 3.275 1
gene 1 4 5 -1.2732 0 4 -1.2732 1
genomeend 76

/* Organism #77 Fitness: 0.0023 Error: 0 */
genomestart 77
trait 1 0.203072 0.0251795 0.00900392 0.2724 0.0306573 0 0.286542 0.173376 
node 1 1 1 1
node 2 1 1 1
node 3 1 1 1
node 4 1 1 3
node 5 1 0 2
gene 1 1 5 2.5803 0 1 2.5803 1
gene 1 2 5 2.4113 0 2 2.4113 1
gene 1 3 5 4.11049 0 3 4.11049 1
gene 1 4 5 -1.0082 0 4 -1.0082 1
genomeend 77

/* Organism #78 Fitness: 0.0032 Error: 0 */
genomestart 78
trait 1 0.203072 0.0251795 0.0326699 0.2724 0.432591 0.410487 0.286542 0.624287 
node 1 1 1 1
node 2 1 1 1
node 3 1 1 1
node 4 1 1 3
node 5 1 0 2
gene 1 1 5 3.1836 0 1 3.1836 1
gene 1 2 5 3.1929 0 2 3.1929 1
gene 1 3 5 3.30847 0 3 3.30847 1
gene 1 4 5 -1.06408 0 4 -1.06408 1
genomeend 78

/* Organism #79 Fitness: 0.0033 Error: 0 */
genomestart 79
trait 1 0.512288 0.100718 0.0360157 1 0.122629 0 0.406517 0.693504 
node 1 1 1 1
node 2 1 1 1
node 3 1 1 1
node 4 1 1 3
node 5 1 0 2
gene 1 1 5 2.11165 0 1 2.11165 1
gene 1 2 5 3.5682 0 2 3.5682 1
gene 1 3 5 3.40309 0 3 3.40309 1
gene 1 4 5 -1.20836 0 4 -1.20836 1
genomeend 79

/* Organism #80 Fitness: 0.0019 Error: 0 */
genomestart 80
trait 1 0.1 0 0 0.0224 0 0 0.214135 0 
node 1 1 1 1
node 2 1 1 1
node 3 1 1 1
node 4 1 1 3
node 5 1 0 2
gene 1 1 5 3.04993 0 1 3.04993 1
gene 1 2 5 1.75162 0 2 1.75162 1
gene 1 3 5 2.4152 0 3 2.4152 1
gene 1 4 5 -1.06085 0 4 -1.06085 1
genomeend 80

/* Organism #81 Fitness: 0.0024 Error: 0 */
genomestart 81
trait 1 0.1 0 0 0.0448 0 0 0.42827 0 
node 1 1 1 1
node 2 1 1 1
node 3 1 1 1
node 4 1 1 3
node 5 1 0 2
gene 1 1 5 3.61708 0 1 3.61708 1
gene 1 2 5 2.99543 0 2 2.99543 1
gene 1 3 5 1.70695 0 3 1.70695 1
gene 1 4 5 -0.583105 0 4 -0.583105 1
genomeend 81

/* Organism #82 Fitness: 0.0019 Error: 0 */
genomestart 82
trait 1 0.1 0 0 0.0224 0 0 0.214135 0 
node 1 1 1 1
node 2 1 1 1
node 3 1 1 1
node 4 1 1 3
node 5 1 0 2
gene 1 1 5 4.56595 0 1 4.56595 1
gene 1 2 5 3.87725 0 2 3.87725 1
gene 1 3 5 2.80426 0 3 2.80426 1
gene 1 4 5 -2.34029 0 4 -2.34029 1
genomeend 82

/* Organism #83 Fitness: 0.0029 Error: 0 */
genomestart 83
trait 1 0.1 0 0 0 0 0 0.0584448 0 
node 1 1 1 1
node 2 1 1 1
node 3 1 1 1
node 4 1 1 3
node 5 1 0 2
gene 1 1 5 2.89988 0 1 2.89988 1
gene 1 2 5 3.31304 0 2 3.31304 1
gene 1 3 5 2.46299 0 3 2.46299 1
gene 1 4 5 -1.09154 0 4 -1.09154 1
gene 1 5 5 -1.00448 1 85 -1.00448 1
genomeend 83

/* Organism #84 Fitness: 0.0036 Error: 0 */
genomestart 84
trait 1 0.306144 0.0503591 0.0180078 0.5 0.0613146 0 0.203259 0.346752 
node 1 1 1 1
node 2 1 1 1
node 3 1 1 1
node 4 1 1 3
node 5 1 0 2
gene 1 1 5 2.83027 0 1 2.83027 1
gene 1 2 5 4.51549 0 2 4.51549 1
gene 1 3 5 3.68261 0 3 3.68261 1
gene 1 4 5 -2.00444 0 4 -2.00444 1
genomeend 84

/* Organism #85 Fitness: 0.0036 Error: 0 */
genomestart 85
trait 1 0.306144 0.0503591 0.0180078 0.5 0.0613146 0 0.203259 0.346752 
node 1 1 1 1
node 2 1 1 1
node 3 1 1 1
node 4 1 1 3
node 5 1 0 2
gene 1 1 5 2.83027 0 1 2.83027 1
gene 1 2 5 4.51549 0 2 4.51549 1
gene 1 3 5 3.68261 0 3 3.68261 1
gene 1 4 5 -2.00444 0 4 -2.00444 1
genomeend 85

/* Organism #86 Fitness: 0.0035 Error: 0 */
genomestart 86
trait 1 0.1 0 0 0.0224 0 0 0.214135 0 
node 1 1 1 1
node 2 1 1 1
node 3 1 1 1
node 4 1 1 3
node 5 1 0 2
gene 1 1 5 4.07489 0 1 4.07489 1
gene 1 2 5 3.21712 0 2 3.21712 1
gene 1 3 5 2.34739 0 3 2.34739 1
gene 1 4 5 -1.43774 0 4 -1.43774 1
genomeend 86

/* Organism #87 Fitness: 0.003 Error: 0 */
genomestart 87
trait 1 0.1 0 0 0 0 0 0.0876672 0 
node 1 1 1 1
node 2 1 1 1
node 3 1 1 1
node 4 1 1 3
node 5 1 0 2
gene 1 1 5 2.67787 0 1 2.67787 1
gene 1 2 5 2.06242 0 2 2.06242 1
gene 1 3 5 3.26 0 3 3.26 1
gene 1 4 5 -1.15062 0 4 -1.15062 1
gene 1 5 5 -0.0483768 1 85 -0.0483768 1
genomeend 87

/* Organism #88 Fitness: 0.0019 Error: 0 */
genomestart 88
trait 1 0.1 0 0 0.0896001 0 0 0.73965 0 
node 1 1 1 1
node 2 1 1 1
node 3 1 1 1
node 4 1 1 3
node 5 1 0 2
gene 1 1 5 3.61708 0 1 3.61708 1
gene 1 2 5 2.99543 0 2 2.99543 1
gene 1 3 5 3.45656 0 3 3.45656 1
gene 1 4 5 -0.501551 0 4 -0.501551 1
gene 1 5 5 0.480416 1 174 0.480416 1
genomeend 88

/* Organism #89 Fitness: 0.0027 Error: 0 */
genomestart 89
trait 1 0.0875 0 0 0.130186 0 0.0701932 0.0511659 0 
node 1 1 1 1
node 2 1 1 1
node 3 1 1 1
node 4 1 1 3
node 5 1 0 2
gene 1 1 5 2.52389 0 1 2.52389 1
gene 1 2 5 3.2625 0 2 3.2625 1
gene 1 3 5 1.70949 0 3 1.70949 1
gene 1 4 5 -0.923701 0 4 -0.923701 1
genomeend 89

/* Organism #90 Fitness: 0.0025 Error: 0 */
genomestart 90
trait 1 0.1 0 0 0 0 0 0 0 
node 1 1 1 1
node 2 1 1 1
node 3 1 1 1
node 4 1 1 3
node 5 1 0 2
gene 1 1 5 0.289003 0 1 0.289003 1
gene 1 2 5 4.0667 0 2 4.0667 1
gene 1 3 5 3.70854 0 3 3.70854 1
gene 1 4 5 -0.725573 0 4 -0.725573 1
genomeend 90

/* Species #3 : (Size 46) (AF 0.0018587) (Age 4)  */


/* Organism #91 Fitness: 0.0046 Error: 0 */
genomestart 91
trait 1 0.41824 0.32092 0.146404 0.182159 0 0 0.125181 0.244103 
node 1 1 1 1
node 2 1 1 1
node 3 1 1 1
node 4 1 1 3
node 5 1 0 2
node 7 1 0 0
gene 1 1 5 0.246001 0 1 0.246001 0
gene 1 2 5 0.0551075 0 2 0.0551075 1
gene 1 3 5 0.776182 0 3 0.776182 1
gene 1 4 5 -0.0789505 0 4 -0.0789505 1
gene 1 1 7 1 0 23 0 1
gene 1 7 5 -0.106401 0 24 0 1
gene 1 3 7 -0.115477 0 147 0 1
genomeend 91

/* Organism #92 Fitness: 0.0005 Error: 0 */
genomestart 92
trait 1 0.25912 0.16046 0.073202 0.0910796 0 0 0.0625905 0.122052 
node 1 1 1 1
node 2 1 1 1
node 3 1 1 1
node 4 1 1 3
node 5 1 0 2
node 7 1 0 0
gene 1 1 5 0.296012 0 1 0.296012 0
gene 1 2 5 0.0890381 0 2 0.0890381 1
gene 1 3 5 -0.232008 0 3 -0.232008 1
gene 1 4 5 -0.115254 0 4 -0.115254 1
gene 1 1 7 2.75959 0 23 2.75959 1
gene 1 7 5 -0.683141 0 24 -0.683141 1
gene 1 3 7 1.10705 0 147 1.10705 1
genomeend 92

/* Organism #93 Fitness: 0.0007 Error: 0 */
genomestart 93
trait 1 0.41824 0.32092 0.146404 0.182159 0 0 0.125181 0.244103 
node 1 1 1 1
node 2 1 1 1
node 3 1 1 1
node 4 1 1 3
node 5 1 0 2
node 7 1 0 0
gene 1 1 5 1.50205 0 1 1.50205 0
gene 1 2 5 0.599796 0 2 0.599796 1
gene 1 3 5 -0.559463 0 3 -0.559463 1
gene 1 4 5 -0.263673 0 4 -0.263673 1
gene 1 1 7 0.794609 0 23 0.794609 1
gene 1 7 5 -0.146527 0 24 -0.146527 1
gene 1 3 7 0.954698 0 147 0.954698 1
genomeend 93

/* Organism #94 Fitness: 0.0004 Error: 0 */
genomestart 94
trait 1 0.480835 0.16046 0.073202 0.0910796 0.301179 0 0.0625905 0.122052 
node 1 1 1 1
node 2 1 1 1
node 3 1 1 1
node 4 1 1 3
node 5 1 0 2
node 7 1 0 0
gene 1 1 5 -1.19308 0 1 -1.19308 1
gene 1 2 5 0.0551075 0 2 0.0551075 1
gene 1 3 5 -0.338026 0 3 -0.338026 1
gene 1 4 5 -1.3716 0 4 -1.3716 1
gene 1 1 7 1.88538 0 23 1.88538 1
gene 1 7 5 0.345473 0 24 0.345473 1
gene 1 3 7 -0.115477 0 147 -0.115477 1
genomeend 94

/* Organism #95 Fitness: 0.0022 Error: 0 */
genomestart 95
trait 1 0.1 0 0 0 0 0 0 0 
node 1 1 1 1
node 2 1 1 1
node 3 1 1 1
node 4 1 1 3
node 5 1 0 2
node 7 1 0 0
gene 1 1 5 0.219946 0 1 0.219946 1
gene 1 2 5 0.295391 0 2 0.295391 1
gene 1 3 5 1.20168 0 3 1.20168 1
gene 1 4 5 -0.194618 0 4 -0.194618 1
gene 1 1 7 1.01287 0 23 0.262869 1
gene 1 7 5 -0.484744 0 24 -0.404944 1
gene 1 2 7 -0.800478 0 127 0 1
genomeend 95

/* Organism #96 Fitness: 0.0023 Error: 0 */
genomestart 96
trait 1 0.1 0 0 0 0 0 0 0 
node 1 1 1 1
node 2 1 1 1
node 3 1 1 1
node 4 1 1 3
node 5 1 0 2
node 7 1 0 0
gene 1 1 5 -0.64772 0 1 -0.64772 0
gene 1 2 5 0.278568 0 2 0.278568 1
gene 1 3 5 0.916626 0 3 0.916626 1
gene 1 4 5 -0.324879 0 4 -0.324879 1
gene 1 1 7 1.14896 0 23 0.648956 1
gene 1 7 5 -0.106401 0 24 0 1
gene 1 3 7 -0.547546 0 124 0 1
genomeend 96

/* Organism #97 Fitness: 0.0026 Error: 0 */
genomestart 97
trait 1 0.1 0 0 0 0.122019 0.180117 0.17584 0 
node 1 1 1 1
node 2 1 1 1
node 3 1 1 1
node 4 1 1 3
node 5 1 0 2
node 7 1 0 0
gene 1 1 5 0.449288 0 1 0.449288 0
gene 1 2 5 -0.292277 0 2 -0.292277 1
gene 1 3 5 2.81478 0 3 2.81478 1
gene 1 4 5 -1.86183 0 4 -1.86183 1
gene 1 1 7 0.813493 0 23 0.813493 1
gene 1 7 5 0.640411 0 24 0.640411 1
genomeend 97

/* Organism #98 Fitness: 0.0024 Error: 0 */
genomestart 98
trait 1 0.1 0 0 0 0 0 0 0 
node 1 1 1 1
node 2 1 1 1
node 3 1 1 1
node 4 1 1 3
node 5 1 0 2
node 7 1 0 0
gene 1 1 5 -0.106401 0 1 -0.106401 0
gene 1 2 5 0.278568 0 2 0.278568 1
gene 1 3 5 0.916626 0 3 0.916626 1
gene 1 4 5 -0.484242 0 4 -0.484242 1
gene 1 1 7 1 0 23 0 1
gene 1 7 5 -0.106401 0 24 0 1
gene 1 3 7 -0.547546 0 124 0 1
gene 1 2 7 -0.956563 0 206 -0.956563 1
genomeend 98

/* Organism #99 Fitness: 0.0026 Error: 0 */
genomestart 99
trait 1 0.1 0 0 0 0 0 0 0 
node 1 1 1 1
node 2 1 1 1
node 3 1 1 1
node 4 1 1 3
node 5 1 0 2
node 7 1 0 0
gene 1 1 5 -0.106401 0 1 -0.106401 0
gene 1 2 5 0.278568 0 2 0.278568 1
gene 1 3 5 0.916626 0 3 0.916626 1
gene 1 4 5 -0.484242 0 4 -0.484242 1
gene 1 1 7 1 0 23 0 1
gene 1 7 5 -0.106401 0 24 0 1
gene 1 3 7 -0.547546 0 124 0 1
gene 1 4 7 -0.0705931 0 203 0 1
genomeend 99

/* Organism #100 Fitness: 0.0039 Error: 0 */
genomestart 100
trait 1 0.321715 0 0 0 0.362188 0.0900584 0.0879199 0 
node 1 1 1 1
node 2 1 1 1
node 3 1 1 1
node 4 1 1 3
node 5 1 0 2
node 7 1 0 0
gene 1 1 5 -0.750452 0 1 -0.750452 0
gene 1 2 5 1.3319 0 2 1.3319 1
gene 1 3 5 0.916626 0 3 0.916626 1
gene 1 4 5 -0.484242 0 4 -0.484242 1
gene 1 1 7 1.19123 0 23 1.19123 1
gene 1 7 5 -0.106401 0 24 0 1
genomeend 100

/* Organism #101 Fitness: 0.0036 Error: 0 */
genomestart 101
trait 1 0.1 0 0 0 0.0610095 0.0900584 0.0879199 0 
node 1 1 1 1
node 2 1 1 1
node 3 1 1 1
node 4 1 1 3
node 5 1 0 2
node 7 1 0 0
gene 1 1 5 -0.428427 0 1 -0.428427 0
gene 1 2 5 0.805232 0 2 0.805232 1
gene 1 3 5 1.58654 0 3 1.58654 1
gene 1 4 5 -0.60632 0 4 -0.60632 1
gene 1 1 7 1.09561 0 23 0.595615 1
gene 1 7 5 0.16697 0 24 0.22017 1
gene 1 2 7 -0.956563 0 206 0 1
genomeend 101

/* Organism #102 Fitness: 0.0005 Error: 0 */
genomestart 102
trait 1 0.1 0 0 0 0.0305048 0.0450292 0.04396 0 
node 1 1 1 1
node 2 1 1 1
node 3 1 1 1
node 4 1 1 3
node 5 1 0 2
node 7 1 0 0
gene 1 1 5 -0.351094 0 1 -0.351094 0
gene 1 2 5 0.0942471 0 2 0.0942471 1
gene 1 3 5 -1.79781 0 3 -1.79781 1
gene 1 4 5 -0.56192 0 4 -0.56192 1
gene 1 1 7 1.91109 0 23 1.91109 1
gene 1 7 5 0.508826 0 24 0.508826 1
gene 1 3 7 -0.115477 0 147 0 1
gene 1 2 7 -0.956563 0 206 0 1
genomeend 102

/* Organism #103 Fitness: 0.0005 Error: 0 */
genomestart 103
trait 1 0.1 0 0 0 0.122019 0.780884 0.83076 0 
node 1 1 1 1
node 2 1 1 1
node 3 1 1 1
node 4 1 1 3
node 5 1 0 2
node 7 1 0 0
gene 1 1 5 0.891657 0 1 0.891657 1
gene 1 2 5 0.228065 0 2 0.228065 1
gene 1 3 5 -2.16357 0 3 -2.16357 1
gene 1 4 5 0.747011 0 4 0.747011 1
gene 1 1 7 0.260815 0 23 0.260815 1
gene 1 7 5 -0.489965 0 24 -0.489965 1
genomeend 103

/* Organism #104 Fitness: 0.0006 Error: 0 */
genomestart 104
trait 1 0.1 0 0 0 0.0610095 0.0900584 0.0879199 0 
node 1 1 1 1
node 2 1 1 1
node 3 1 1 1
node 4 1 1 3
node 5 1 0 2
node 7 1 0 0
gene 1 1 5 -0.106401 0 1 -0.106401 0
gene 1 2 5 0.52479 0 2 0.52479 1
gene 1 3 5 0.916626 0 3 0.916626 1
gene 1 4 5 -0.797808 0 4 -0.797808 1
gene 1 1 7 1.15826 0 23 1.15826 1
gene 1 7 5 -0.106401 0 24 0 1
gene 1 3 7 -0.547546 0 124 0 1
genomeend 104

/* Organism #105 Fitness: 0.0024 Error: 0 */
genomestart 105
trait 1 0.1 0 0 0 0.0305048 0.0450292 0.04396 0 
node 1 1 1 1
node 2 1 1 1
node 3 1 1 1
node 4 1 1 3
node 5 1 0 2
node 7 1 0 0
gene 1 1 5 -0.0971827 0 1 -0.0971827 1
gene 1 2 5 0.44974 0 2 0.44974 1
gene 1 3 5 0.242013 0 3 0.242013 1
gene 1 4 5 -0.0543532 0 4 -0.0543532 1
gene 1 1 7 1.08359 0 23 1.08359 1
gene 1 7 5 -0.0759022 0 24 -0.0759022 1
gene 1 3 7 -0.115477 0 147 0 1
genomeend 105

/* Organism #106 Fitness: 0.0005 Error: 0 */
genomestart 106
trait 1 0.1 0 0 0 0.0610095 0.0900584 0.0879199 0 
node 1 1 1 1
node 2 1 1 1
node 3 1 1 1
node 4 1 1 3
node 5 1 0 2
node 7 1 0 0
gene 1 1 5 0.45553 0 1 0.45553 1
gene 1 2 5 0.309519 0 2 0.309519 1
gene 1 3 5 0.584795 0 3 0.584795 1
gene 1 4 5 -0.172297 0 4 -0.172297 1
gene 1 1 7 0.707172 0 23 0.707172 1
gene 1 7 5 -1.27084 0 24 -1.27084 1
gene 1 3 7 -0.115477 0 147 0 1
genomeend 106

/* Organism #107 Fitness: 0.0005 Error: 0 */
genomestart 107
trait 1 0.1 0 0 0 0.0610095 0.0900584 0.0879199 0 
node 1 1 1 1
node 2 1 1 1
node 3 1 1 1
node 4 1 1 3
node 5 1 0 2
node 7 1 0 0
gene 1 1 5 0.629983 0 1 0.629983 0
gene 1 2 5 0.848604 0 2 0.848604 1
gene 1 3 5 0.724619 0 3 0.724619 1
gene 1 4 5 -2.51236 0 4 -2.51236 1
gene 1 1 7 0.430573 0 23 0.430573 1
gene 1 7 5 1.25667 0 24 1.25667 1
genomeend 107

/* Organism #108 Fitness: 0.0016 Error: 0 */
genomestart 108
trait 1 0.1 0 0 0 0 0 0 0 
node 1 1 1 1
node 2 1 1 1
node 3 1 1 1
node 4 1 1 3
node 5 1 0 2
node 7 1 0 0
gene 1 1 5 -0.596021 0 1 -0.596021 0
gene 1 2 5 -1.56191 0 2 -1.56191 1
gene 1 3 5 1.56538 0 3 1.56538 1
gene 1 4 5 0.219346 0 4 0.219346 1
gene 1 1 7 -0.665124 0 23 -0.665124 1
gene 1 7 5 -0.601678 0 24 -0.601678 1
gene 1 3 7 -1.58635 0 147 -1.58635 1
genomeend 108

/* Organism #109 Fitness: 0.002 Error: 0 */
genomestart 109
trait 1 0.1 0 0 0 0 0 0 0 
node 1 1 1 1
node 2 1 1 1
node 3 1 1 1
node 4 1 1 3
node 5 1 0 2
node 7 1 0 0
gene 1 1 5 -0.395511 0 1 -0.395511 0
gene 1 2 5 1.2149 0 2 1.2149 1
gene 1 3 5 1.51878 0 3 1.51878 1
gene 1 4 5 -0.778079 0 4 -0.778079 1
gene 1 1 7 1.23081 0 23 1.23081 1
gene 1 7 5 0.913703 0 24 0.913703 1
gene 1 3 7 -0.998548 0 147 -0.998548 1
genomeend 109

/* Organism #110 Fitness: 0.0005 Error: 0 */
genomestart 110
trait 1 0.1 0 0 0 0.0305048 0.0450292 0.04396 0 
node 1 1 1 1
node 2 1 1 1
node 3 1 1 1
node 4 1 1 3
node 5 1 0 2
node 7 1 0 0
gene 1 1 5 1.98709 0 1 1.98709 0
gene 1 2 5 0.805232 0 2 0.805232 1
gene 1 3 5 1.37316 0 3 1.37316 1
gene 1 4 5 -0.56192 0 4 -0.56192 1
gene 1 1 7 0.0469156 0 23 0.0469156 1
gene 1 7 5 -1.52829 0 24 -1.52829 1
genomeend 110

/* Organism #111 Fitness: 0.0004 Error: 0 */
genomestart 111
trait 1 0.29339 0.300496 0 0 0.370841 0.219597 0.04396 0 
node 1 1 1 1
node 2 1 1 1
node 3 1 1 1
node 4 1 1 3
node 5 1 0 2
node 7 1 0 0
gene 1 1 5 0.156729 0 1 0.156729 0
gene 1 2 5 0.115633 0 2 0.115633 1
gene 1 3 5 -0.760111 0 3 -0.760111 1
gene 1 4 5 -1.57859 0 4 -1.57859 1
gene 1 1 7 -0.969343 0 23 -0.969343 1
gene 1 7 5 -1.15727 0 24 -1.15727 1
gene 1 3 7 1.27123 0 147 1.27123 1
genomeend 111

/* Organism #112 Fitness: 0.0018 Error: 0 */
genomestart 112
trait 1 0.1 0 0 0.0056 0 0 0.0608393 0 
node 1 1 1 1
node 2 1 1 1
node 3 1 1 1
node 4 1 1 3
node 5 1 0 2
node 7 1 0 0
gene 1 1 5 -0.184511 0 1 -0.184511 0
gene 1 2 5 0.0942471 0 2 0.0942471 1
gene 1 3 5 3.71915 0 3 3.71915 1
gene 1 4 5 0.196384 0 4 0.196384 1
gene 1 1 7 1.85617 0 23 1.85617 1
gene 1 7 5 -0.663427 0 24 -0.663427 1
gene 1 3 7 -1.36474 0 147 -1.36474 1
genomeend 112

/* Organism #113 Fitness: 0.0012 Error: 0 */
genomestart 113
trait 1 0.1 0 0 0 0.0610095 0.0900584 0.0879199 0 
node 1 1 1 1
node 2 1 1 1
node 3 1 1 1
node 4 1 1 3
node 5 1 0 2
node 7 1 0 0
gene 1 1 5 0.875652 0 1 0.875652 0
gene 1 2 5 0.59967 0 2 0.59967 1
gene 1 3 5 1.75161 0 3 1.75161 1
gene 1 4 5 1.20864 0 4 1.20864 1
gene 1 1 7 1.03706 0 23 1.03706 1
gene 1 7 5 -1.03942 0 24 -1.03942 1
gene 1 3 7 -0.115477 0 147 0 1
gene 1 7 7 0.500824 1 221 0.500824 1
genomeend 113

/* Organism #114 Fitness: 0.0038 Error: 0 */
genomestart 114
trait 1 0.1 0 0 0 0.0610095 0.0900584 0.0879199 0 
node 1 1 1 1
node 2 1 1 1
node 3 1 1 1
node 4 1 1 3
node 5 1 0 2
node 7 1 0 0
gene 1 1 5 -0.732898 0 1 -0.732898 1
gene 1 2 5 1.03103 0 2 1.03103 1
gene 1 3 5 1.90719 0 3 1.90719 1
gene 1 4 5 -0.776572 0 4 -0.776572 1
gene 1 1 7 1.93473 0 23 1.93473 0
gene 1 7 5 0.148455 0 24 0.148455 1
gene 1 3 7 -0.115477 0 147 0 1
genomeend 114

/* Organism #115 Fitness: 0.0023 Error: 0 */
genomestart 115
trait 1 0.1 0 0 0 0.122019 0.180117 0.17584 0 
node 1 1 1 1
node 2 1 1 1
node 3 1 1 1
node 4 1 1 3
node 5 1 0 2
node 7 1 0 0
gene 1 1 5 -0.715344 0 1 -0.715344 0
gene 1 2 5 0.730159 0 2 0.730159 1
gene 1 3 5 2.03989 0 3 2.03989 1
gene 1 4 5 -1.15372 0 4 -1.15372 1
gene 1 1 7 1.86449 0 23 1.86449 1
gene 1 7 5 -0.14343 0 24 -0.14343 1
gene 1 3 7 -0.115477 0 147 0 1
gene 1 4 7 -0.0705931 0 203 0 1
genomeend 115

/* Organism #116 Fitness: 0.0022 Error: 0 */
genomestart 116
trait 1 0.1 0 0 0 0.122019 0.180117 0.17584 0 
node 1 1 1 1
node 2 1 1 1
node 3 1 1 1
node 4 1 1 3
node 5 1 0 2
node 7 1 0 0
gene 1 1 5 -0.715344 0 1 -0.715344 0
gene 1 2 5 0.730159 0 2 0.730159 1
gene 1 3 5 2.03989 0 3 2.03989 1
gene 1 4 5 -1.15372 0 4 -1.15372 1
gene 1 1 7 1.86449 0 23 1.86449 1
gene 1 7 5 -0.14343 0 24 -0.14343 1
gene 1 3 7 -0.115477 0 147 0 1
gene 1 2 7 -0.956563 0 206 0 1
genomeend 116

/* Organism #117 Fitness: 0.0004 Error: 0 */
genomestart 117
trait 1 0.210857 0 0 0 0.272608 0.180117 0.17584 0 
node 1 1 1 1
node 2 1 1 1
node 3 1 1 1
node 4 1 1 3
node 5 1 0 2
node 7 1 0 0
gene 1 1 5 1.45722 0 1 1.45722 0
gene 1 2 5 -0.0298135 0 2 -0.0298135 1
gene 1 3 5 1.10892 0 3 1.10892 1
gene 1 4 5 -2.52795 0 4 -2.52795 1
gene 1 1 7 -1.03955 0 23 -1.03955 1
gene 1 7 5 -0.0568194 0 24 -0.0568194 1
genomeend 117

/* Organism #118 Fitness: 0.0004 Error: 0 */
genomestart 118
trait 1 0.1 0.146244 0 0.0371641 0 0.00635818 0 0 
node 1 1 1 1
node 2 1 1 1
node 3 1 1 1
node 4 1 1 3
node 5 1 0 2
node 7 1 0 0
gene 1 1 5 1.06135 0 1 1.06135 0
gene 1 2 5 0.435221 0 2 0.435221 1
gene 1 3 5 1.75792 0 3 1.75792 1
gene 1 4 5 -0.730578 0 4 -0.730578 1
gene 1 1 7 0.801307 0 23 0.801307 1
gene 1 7 5 -1.90837 0 24 -1.90837 1
genomeend 118

/* Organism #119 Fitness: 0.0033 Error: 0 */
genomestart 119
trait 1 0.1 0 0 0 0.244038 0.360234 0.35168 0 
node 1 1 1 1
node 2 1 1 1
node 3 1 1 1
node 4 1 1 3
node 5 1 0 2
node 7 1 0 0
gene 1 1 5 0.699997 0 1 0.699997 0
gene 1 2 5 0.43054 0 2 0.43054 1
gene 1 3 5 0.940684 0 3 0.940684 1
gene 1 4 5 -0.981021 0 4 -0.981021 1
gene 1 1 7 0.526293 0 23 0.526293 1
gene 1 7 5 0.627492 0 24 0.627492 1
gene 1 2 7 0.554177 0 149 0 1
genomeend 119

/* Organism #120 Fitness: 0.0026 Error: 0 */
genomestart 120
trait 1 0.1 0 0 0 0 0 0 0 
node 1 1 1 1
node 2 1 1 1
node 3 1 1 1
node 4 1 1 3
node 5 1 0 2
node 7 1 0 0
gene 1 1 5 -0.106401 0 1 -0.106401 0
gene 1 2 5 0.278568 0 2 0.278568 1
gene 1 3 5 0.916626 0 3 0.916626 1
gene 1 4 5 -0.484242 0 4 -0.484242 1
gene 1 1 7 1 0 23 0 1
gene 1 7 5 -0.106401 0 24 0 1
gene 1 3 7 -0.547546 0 124 0 1
gene 1 2 7 0.554177 0 149 0 1
genomeend 120

/* Organism #121 Fitness: 0.0024 Error: 0 */
genomestart 121
trait 1 0.1 0 0 0 0.122019 0.180117 0.17584 0 
node 1 1 1 1
node 2 1 1 1
node 3 1 1 1
node 4 1 1 3
node 5 1 0 2
node 7 1 0 0
gene 1 1 5 0.699997 0 1 0.699997 0
gene 1 2 5 0.278568 0 2 0.278568 1
gene 1 3 5 0.916626 0 3 0.916626 1
gene 1 4 5 -0.484242 0 4 -0.484242 1
gene 1 1 7 0.526293 0 23 0.526293 1
gene 1 7 5 0.627492 0 24 0.627492 1
gene 1 2 7 0.554177 0 149 0 1
genomeend 121

/* Organism #122 Fitness: 0.0005 Error: 0 */
genomestart 122
trait 1 0.1 0 0 0 0.122019 0.180117 0.17584 0 
node 1 1 1 1
node 2 1 1 1
node 3 1 1 1
node 4 1 1 3
node 5 1 0 2
node 7 1 0 0
gene 1 1 5 0.699997 0 1 0.699997 0
gene 1 2 5 0.278568 0 2 0.278568 1
gene 1 3 5 0.940684 0 3 0.940684 1
gene 1 4 5 -0.981021 0 4 -0.981021 1
gene 1 1 7 1 0 23 0 1
gene 1 7 5 -0.106401 0 24 0 1
gene 1 2 7 0.554177 0 149 0 1
genomeend 122

/* Organism #123 Fitness: 0.0026 Error: 0 */
genomestart 123
trait 1 0.1 0 0 0 0 0 0 0 
node 1 1 1 1
node 2 1 1 1
node 3 1 1 1
node 4 1 1 3
node 5 1 0 2
node 7 1 0 0
gene 1 1 5 -0.106401 0 1 -0.106401 0
gene 1 2 5 0.278568 0 2 0.278568 1
gene 1 3 5 0.916626 0 3 0.916626 1
gene 1 4 5 -0.484242 0 4 -0.484242 1
gene 1 1 7 1 0 23 0 1
gene 1 7 5 -0.106401 0 24 0 1
gene 1 3 7 -0.547546 0 124 0 1
gene 1 2 7 0.554177 0 149 0 1
genomeend 123

/* Organism #124 Fitness: 0.0026 Error: 0 */
genomestart 124
trait 1 0.1 0 0 0 0 0 0 0 
node 1 1 1 1
node 2 1 1 1
node 3 1 1 1
node 4 1 1 3
node 5 1 0 2
node 7 1 0 0
gene 1 1 5 -0.106401 0 1 -0.106401 0
gene 1 2 5 0.278568 0 2 0.278568 1
gene 1 3 5 0.916626 0 3 0.916626 1
gene 1 4 5 -0.484242 0 4 -0.484242 1
gene 1 1 7 1 0 23 0 1
gene 1 7 5 -0.106401 0 24 0 1
gene 1 3 7 -0.547546 0 124 0 1
gene 1 2 7 0.554177 0 149 0 1
genomeend 124

/* Organism #125 Fitness: 0.0009 Error: 0 */
genomestart 125
trait 1 0.1 0 0 0 0.122019 0.180117 0.17584 0 
node 1 1 1 1
node 2 1 1 1
node 3 1 1 1
node 4 1 1 3
node 5 1 0 2
node 7 1 0 0
gene 1 1 5 -0.106401 0 1 -0.106401 0
gene 1 2 5 0.278568 0 2 0.278568 1
gene 1 3 5 0.916626 0 3 0.916626 1
gene 1 4 5 -0.484242 0 4 -0.484242 1
gene 1 1 7 0.526293 0 23 0.526293 1
gene 1 7 5 -0.106401 0 24 0 1
gene 1 2 7 0.554177 0 149 0 1
genomeend 125

/* Organism #126 Fitness: 0.0039 Error: 0 */
genomestart 126
trait 1 0.1 0 0 0 0 0 0 0 
node 1 1 1 1
node 2 1 1 1
node 3 1 1 1
node 4 1 1 3
node 5 1 0 2
node 7 1 0 0
gene 1 1 5 0.479343 0 1 0.479343 0
gene 1 2 5 0.355263 0 2 0.355263 1
gene 1 3 5 1.40176 0 3 1.40176 1
gene 1 4 5 -0.180428 0 4 -0.180428 1
gene 1 1 7 0.833489 0 23 0.333489 1
gene 1 7 5 0.00637007 0 24 0.0595705 1
gene 1 3 7 -0.547546 0 124 0 1
gene 1 4 7 0.372043 0 145 0 1
genomeend 126

/* Organism #127 Fitness: 0.0039 Error: 0 */
genomestart 127
trait 1 0.1 0 0 0 0 0 0 0 
node 1 1 1 1
node 2 1 1 1
node 3 1 1 1
node 4 1 1 3
node 5 1 0 2
node 7 1 0 0
gene 1 1 5 -0.64772 0 1 -0.64772 0
gene 1 2 5 0.355263 0 2 0.355263 1
gene 1 3 5 1.40176 0 3 1.40176 1
gene 1 4 5 -0.324879 0 4 -0.324879 1
gene 1 1 7 1.14896 0 23 0.648956 1
gene 1 7 5 -0.106401 0 24 0 1
gene 1 4 7 0.372043 0 145 0.372043 1
gene 1 3 7 -0.115477 0 147 0 1
genomeend 127

/* Organism #128 Fitness: 0.0021 Error: 0 */
genomestart 128
trait 1 0.1 0 0 0 0 0 0 0 
node 1 1 1 1
node 2 1 1 1
node 3 1 1 1
node 4 1 1 3
node 5 1 0 2
node 7 1 0 0
gene 1 1 5 0.156729 0 1 0.156729 0
gene 1 2 5 0.0942471 0 2 0.0942471 1
gene 1 3 5 2.28184 0 3 2.28184 1
gene 1 4 5 0.453214 0 4 0.453214 1
gene 1 1 7 0.25609 0 23 0.25609 1
gene 1 7 5 -0.660631 0 24 -0.660631 1
gene 1 4 7 0.372043 0 145 0 1
gene 1 3 7 -0.115477 0 147 0 0
genomeend 128

/* Organism #129 Fitness: 0.002 Error: 0 */
genomestart 129
trait 1 0.1 0 0.64486 0 0 0 0 0.0540737 
node 1 1 1 1
node 2 1 1 1
node 3 1 1 1
node 4 1 1 3
node 5 1 0 2
node 7 1 0 0
gene 1 1 5 0.0532355 0 1 0.0532355 0
gene 1 2 5 0.302037 0 2 0.302037 1
gene 1 3 5 1.33007 0 3 1.33007 1
gene 1 4 5 0.389499 0 4 0.389499 1
gene 1 1 7 0.422984 0 23 0.422984 1
gene 1 7 5 0.538342 0 24 0.538342 1
gene 1 4 7 -0.948576 0 145 -0.948576 1
gene 1 3 7 -1.26956 0 147 -1.26956 1
genomeend 129

/* Organism #130 Fitness: 0.0005 Error: 0 */
genomestart 130
trait 1 0.1 0 0 0 0 0 0 0 
node 1 1 1 1
node 2 1 1 1
node 3 1 1 1
node 4 1 1 3
node 5 1 0 2
node 7 1 0 0
gene 1 1 5 -0.106401 0 1 -0.106401 0
gene 1 2 5 0.278568 0 2 0.278568 1
gene 1 3 5 0.916626 0 3 0.916626 0
gene 1 4 5 -0.484242 0 4 -0.484242 1
gene 1 1 7 1 0 23 0 1
gene 1 7 5 -0.106401 0 24 0 1
gene 1 2 7 -0.800478 0 127 0 1
gene 1 4 7 0.372043 0 145 0 1
genomeend 130

/* Organism #131 Fitness: 0.0005 Error: 0 */
genomestart 131
trait 1 0.1 0 0 0 0 0 0 0 
node 1 1 1 1
node 2 1 1 1
node 3 1 1 1
node 4 1 1 3
node 5 1 0 2
node 7 1 0 0
gene 1 1 5 -0.106401 0 1 -0.106401 0
gene 1 2 5 0.355263 0 2 0.355263 1
gene 1 3 5 1.40176 0 3 1.40176 0
gene 1 4 5 -0.484242 0 4 -0.484242 1
gene 1 1 7 1 0 23 0 1
gene 1 7 5 -0.106401 0 24 0 1
gene 1 4 7 0.372043 0 145 0.372043 1
gene 1 3 7 -0.115477 0 147 0 1
gene 1 2 7 -0.956563 0 206 0 1
genomeend 131

/* Organism #132 Fitness: 0.0042 Error: 0 */
genomestart 132
trait 1 0.1 0 0 0 0 0 0 0 
node 1 1 1 1
node 2 1 1 1
node 3 1 1 1
node 4 1 1 3
node 5 1 0 2
node 7 1 0 0
gene 1 1 5 -0.106401 0 1 -0.106401 0
gene 1 2 5 0.278568 0 2 0.278568 1
gene 1 3 5 0.916626 0 3 0.916626 1
gene 1 4 5 -0.165516 0 4 -0.165516 1
gene 1 1 7 1 0 23 0 1
gene 1 7 5 -0.106401 0 24 0 1
gene 1 2 7 -0.800478 0 127 0 1
gene 1 4 7 0.372043 0 145 0 1
genomeend 132

/* Organism #133 Fitness: 0.0021 Error: 0 */
genomestart 133
trait 1 0.1 0 0 0 0 0 0 0 
node 1 1 1 1
node 2 1 1 1
node 3 1 1 1
node 4 1 1 3
node 5 1 0 2
node 7 1 0 0
gene 1 1 5 0.156729 0 1 0.156729 0
gene 1 2 5 0.0942471 0 2 0.0942471 1
gene 1 3 5 2.28184 0 3 2.28184 1
gene 1 4 5 0.453214 0 4 0.453214 1
gene 1 1 7 0.25609 0 23 0.25609 1
gene 1 7 5 -0.660631 0 24 -0.660631 1
gene 1 4 7 0.372043 0 145 0 1
gene 1 3 7 -0.115477 0 147 0 1
genomeend 133

/* Organism #134 Fitness: 0.0005 Error: 0 */
genomestart 134
trait 1 0.1 0 0 0 0 0 0 0 
node 1 1 1 1
node 2 1 1 1
node 3 1 1 1
node 4 1 1 3
node 5 1 0 2
node 7 1 0 0
gene 1 1 5 1.44554 0 1 1.44554 0
gene 1 2 5 1.33547 0 2 1.33547 1
gene 1 3 5 0.165486 0 3 0.165486 1
gene 1 4 5 0.453214 0 4 0.453214 1
gene 1 1 7 1.47568 0 23 1.47568 1
gene 1 7 5 -0.106401 0 24 -0.106401 1
gene 1 4 7 0.372043 0 145 0.372043 1
gene 1 3 7 -1.05074 0 147 -1.05074 1
genomeend 134

/* Organism #135 Fitness: 0.0027 Error: 0 */
genomestart 135
trait 1 0.1 0 0 0 0.122019 0.180117 0.17584 0 
node 1 1 1 1
node 2 1 1 1
node 3 1 1 1
node 4 1 1 3
node 5 1 0 2
node 7 1 0 0
gene 1 1 5 0.66595 0 1 0.66595 0
gene 1 2 5 -0.823852 0 2 -0.823852 1
gene 1 3 5 3.00265 0 3 3.00265 1
gene 1 4 5 0.713537 0 4 0.713537 1
gene 1 1 7 -1.50978 0 23 -1.50978 1
gene 1 7 5 0.13069 0 24 0.13069 1
genomeend 135

/* Organism #136 Fitness: 0.0008 Error: 0 */
genomestart 136
trait 1 0.1 0 0 0 0 0 0 0 
node 1 1 1 1
node 2 1 1 1
node 3 1 1 1
node 4 1 1 3
node 5 1 0 2
node 7 1 0 0
gene 1 1 5 -0.106401 0 1 -0.106401 0
gene 1 2 5 0.278568 0 2 0.278568 1
gene 1 3 5 0.916626 0 3 0.916626 1
gene 1 4 5 -0.484242 0 4 -0.484242 1
gene 1 1 7 1 0 23 0 1
gene 1 7 5 -0.106401 0 24 0 1
gene 1 3 7 -0.547546 0 124 0 1
gene 1 7 7 0.933211 1 169 0.933211 1
genomeend 136

/* Species #4 : (Size 3) (AF 0.000466667) (Age 4)  */


/* Organism #137 Fitness: 0.0005 Error: 0 */
genomestart 137
trait 1 0.1 0 0 0 0 0 0 0 
node 1 1 1 1
node 2 1 1 1
node 3 1 1 1
node 4 1 1 3
node 5 1 0 2
node 8 1 0 0
gene 1 1 5 0.243231 0 1 0.243231 1
gene 1 2 5 -0.826453 0 2 -0.826453 0
gene 1 3 5 -2.02438 0 3 -2.02438 1
gene 1 4 5 0.0492104 0 4 0.0492104 1
gene 1 2 8 0.357837 0 28 0.357837 1
gene 1 8 5 -2.00507 0 29 -2.00507 1
genomeend 137

/* Organism #138 Fitness: 0.0005 Error: 0 */
genomestart 138
trait 1 0.1 0 0 0 0 0 0 0 
node 1 1 1 1
node 2 1 1 1
node 3 1 1 1
node 4 1 1 3
node 5 1 0 2
node 8 1 0 0
gene 1 1 5 0.243231 0 1 0.243231 1
gene 1 2 5 -0.826453 0 2 -0.826453 0
gene 1 3 5 -2.02438 0 3 -2.02438 1
gene 1 4 5 0.0492104 0 4 0.0492104 1
gene 1 2 8 0.357837 0 28 0.357837 1
gene 1 8 5 -2.00507 0 29 -2.00507 1
gene 1 3 8 0.735753 0 207 0.735753 1
genomeend 138

/* Organism #139 Fitness: 0.0004 Error: 0 */
genomestart 139
trait 1 0.1 0 0 0 0 0 0 0 
node 1 1 1 1
node 2 1 1 1
node 3 1 1 1
node 4 1 1 3
node 5 1 0 2
node 8 1 0 0
gene 1 1 5 0.19208 0 1 0.19208 1
gene 1 2 5 0.939748 0 2 0.939748 0
gene 1 3 5 -1.52306 0 3 -1.52306 1
gene 1 4 5 -0.391656 0 4 -0.391656 1
gene 1 2 8 -0.769763 0 28 -0.769763 1
gene 1 8 5 -1.39825 0 29 -1.39825 1
genomeend 139

/* Species #5 : (Size 51) (AF 0.00168235) (Age 4)  */


/* Organism #140 Fitness: 0.0004 Error: 0 */
genomestart 140
trait 1 0.1 0 0 0.0224 0 0 0.214135 0 
node 1 1 1 1
node 2 1 1 1
node 3 1 1 1
node 4 1 1 3
node 5 1 0 2
gene 1 1 5 3.27075 0 1 3.27075 1
gene 1 2 5 0.250987 0 2 0.250987 1
gene 1 3 5 -1.0856 0 3 -1.0856 1
gene 1 4 5 -1.138 0 4 -1.138 1
genomeend 140

/* Organism #141 Fitness: 0.0004 Error: 0 */
genomestart 141
trait 1 0.1 0 0 0 0 0 0.0584448 0 
node 1 1 1 1
node 2 1 1 1
node 3 1 1 1
node 4 1 1 3
node 5 1 0 2
gene 1 1 5 3.13462 0 1 3.13462 1
gene 1 2 5 0.212219 0 2 0.212219 1
gene 1 3 5 -0.00925629 0 3 -0.00925629 1
gene 1 4 5 -3.19793 0 4 -3.19793 1
genomeend 141

/* Organism #142 Fitness: 0.0018 Error: 0 */
genomestart 142
trait 1 0.1 0 0 0.0224 0 0 0.243357 0 
node 1 1 1 1
node 2 1 1 1
node 3 1 1 1
node 4 1 1 3
node 5 1 0 2
gene 1 1 5 2.77195 0 1 2.77195 1
gene 1 2 5 1.67431 0 2 1.67431 1
gene 1 3 5 0.847326 0 3 0.847326 1
gene 1 4 5 -0.0434281 0 4 -0.0434281 1
genomeend 142

/* Organism #143 Fitness: 0.0008 Error: 0 */
genomestart 143
trait 1 0.306144 0.0503591 0.0180078 0.5 0.0613146 0 0.261704 0.346752 
node 1 1 1 1
node 2 1 1 1
node 3 1 1 1
node 4 1 1 3
node 5 1 0 2
gene 1 1 5 4.35463 0 1 4.35463 1
gene 1 2 5 0.910345 0 2 0.910345 1
gene 1 3 5 2.61704 0 3 2.61704 1
gene 1 4 5 -1.66512 0 4 -1.66512 1
genomeend 143

/* Organism #144 Fitness: 0.0034 Error: 0 */
genomestart 144
trait 1 0.1 0 0 0 0 0 0 0 
node 1 1 1 1
node 2 1 1 1
node 3 1 1 1
node 4 1 1 3
node 5 1 0 2
gene 1 1 5 1.54692 0 1 1.54692 1
gene 1 2 5 1.39189 0 2 1.39189 1
gene 1 3 5 2.34617 0 3 2.34617 1
gene 1 4 5 -0.405718 0 4 -0.405718 1
genomeend 144

/* Organism #145 Fitness: 0.0005 Error: 0 */
genomestart 145
trait 1 0.203072 0.0251795 0.00900392 0.2724 0.0306573 0 0.344987 0.173376 
node 1 1 1 1
node 2 1 1 1
node 3 1 1 1
node 4 1 1 3
node 5 1 0 2
gene 1 1 5 3.38608 0 1 3.38608 1
gene 1 2 5 0.68147 0 2 0.68147 1
gene 1 3 5 2.53736 0 3 2.53736 1
gene 1 4 5 -2.01949 0 4 -2.01949 1
genomeend 145

/* Organism #146 Fitness: 0.0021 Error: 0 */
genomestart 146
trait 1 0.05 0.0251795 0 0.2948 0.0306573 0 0.684912 0.173376 
node 1 1 1 1
node 2 1 1 1
node 3 1 1 1
node 4 1 1 3
node 5 1 0 2
gene 1 1 5 3.66027 0 1 3.66027 1
gene 1 2 5 1.22577 0 2 1.22577 1
gene 1 3 5 1.17063 0 3 1.17063 1
gene 1 4 5 -0.0866498 0 4 -0.0866498 1
genomeend 146

/* Organism #147 Fitness: 0.0033 Error: 0 */
genomestart 147
trait 1 0.1 0 0 0 0 0 0 0 
node 1 1 1 1
node 2 1 1 1
node 3 1 1 1
node 4 1 1 3
node 5 1 0 2
gene 1 1 5 3.48556 0 1 3.48556 1
gene 1 2 5 0.571954 0 2 0.571954 1
gene 1 3 5 1.44462 0 3 1.44462 1
gene 1 4 5 -0.0418158 0 4 -0.0418158 1
genomeend 147

/* Organism #148 Fitness: 0.0018 Error: 0 */
genomestart 148
trait 1 0.075 0.0125898 0 0.1586 0.0153286 0 0.464135 0.086688 
node 1 1 1 1
node 2 1 1 1
node 3 1 1 1
node 4 1 1 3
node 5 1 0 2
gene 1 1 5 3.73951 0 1 3.73951 1
gene 1 2 5 1.72915 0 2 1.72915 1
gene 1 3 5 0.955892 0 3 0.955892 1
gene 1 4 5 -0.0434281 0 4 -0.0434281 1
genomeend 148

/* Organism #149 Fitness: 0.0005 Error: 0 */
genomestart 149
trait 1 0.075 0.0125898 0 0.1474 0.0153286 0 0.342456 0.086688 
node 1 1 1 1
node 2 1 1 1
node 3 1 1 1
node 4 1 1 3
node 5 1 0 2
node 7 1 0 0
gene 1 1 5 3.66027 0 1 3.66027 1
gene 1 2 5 1.22577 0 2 1.22577 1
gene 1 3 5 1.17063 0 3 1.17063 1
gene 1 4 5 -0.0866498 0 4 -0.0866498 1
gene 1 1 7 1.85617 0 23 1.85617 1
gene 1 7 5 1.07927 0 24 1.07927 1
genomeend 149

/* Organism #150 Fitness: 0.0032 Error: 0 */
genomestart 150
trait 1 0.1 0 0 0 0 0 0 0 
node 1 1 1 1
node 2 1 1 1
node 3 1 1 1
node 4 1 1 3
node 5 1 0 2
gene 1 1 5 2.29761 0 1 2.29761 1
gene 1 2 5 0.731386 0 2 0.731386 1
gene 1 3 5 2.18392 0 3 2.18392 1
gene 1 4 5 -0.0654651 0 4 -0.0654651 1
genomeend 150

/* Organism #151 Fitness: 0.0034 Error: 0 */
genomestart 151
trait 1 0.1 0 0 0 0 0 0 0 
node 1 1 1 1
node 2 1 1 1
node 3 1 1 1
node 4 1 1 3
node 5 1 0 2
gene 1 1 5 1.54692 0 1 1.54692 1
gene 1 2 5 1.39189 0 2 1.39189 1
gene 1 3 5 2.34617 0 3 2.34617 1
gene 1 4 5 -0.405718 0 4 -0.405718 1
genomeend 151

/* Organism #152 Fitness: 0.0006 Error: 0 */
genomestart 152
trait 1 0.203072 0.0251795 0.00900392 0.25 0.0306573 0 0.130852 0.173376 
node 1 1 1 1
node 2 1 1 1
node 3 1 1 1
node 4 1 1 3
node 5 1 0 2
gene 1 1 5 1.54692 0 1 1.54692 1
gene 1 2 5 0.910345 0 2 0.910345 1
gene 1 3 5 2.34617 0 3 2.34617 1
gene 1 4 5 -1.66512 0 4 -1.66512 1
genomeend 152

/* Organism #153 Fitness: 0.0029 Error: 0 */
genomestart 153
trait 1 0.145286 0.0125898 0.00450196 0.151199 0.0458334 0.0450292 0.109386 0.086688 
node 1 1 1 1
node 2 1 1 1
node 3 1 1 1
node 4 1 1 3
node 5 1 0 2
gene 1 1 5 3.47842 0 1 3.47842 1
gene 1 2 5 1.14268 0 2 1.14268 1
gene 1 3 5 1.14646 0 3 1.14646 1
gene 1 4 5 -0.235967 0 4 -0.235967 1
genomeend 153

/* Organism #154 Fitness: 0.0004 Error: 0 */
genomestart 154
trait 1 0.151536 0.0125898 0.00450196 0.1362 0.0153286 0 0.201716 0.086688 
node 1 1 1 1
node 2 1 1 1
node 3 1 1 1
node 4 1 1 3
node 5 1 0 2
gene 1 1 5 3.26035 0 1 3.26035 1
gene 1 2 5 0.446845 0 2 0.446845 1
gene 1 3 5 1.26405 0 3 1.26405 1
gene 1 4 5 -2.60871 0 4 -2.60871 1
genomeend 154

/* Organism #155 Fitness: 0.0005 Error: 0 */
genomestart 155
trait 1 0.190572 0.0251795 0.00900392 0.302398 0.0916668 0.0900584 0.218772 0.173376 
node 1 1 1 1
node 2 1 1 1
node 3 1 1 1
node 4 1 1 3
node 5 1 0 2
gene 1 1 5 4.2914 0 1 4.2914 0
gene 1 2 5 0.464103 0 2 0.464103 1
gene 1 3 5 1.52972 0 3 1.52972 1
gene 1 4 5 1.05875 0 4 1.05875 1
genomeend 155

/* Organism #156 Fitness: 0.0021 Error: 0 */
genomestart 156
trait 1 0.151536 0.0125898 0.00450196 0.1362 0.0153286 0 0.172493 0.086688 
node 1 1 1 1
node 2 1 1 1
node 3 1 1 1
node 4 1 1 3
node 5 1 0 2
gene 1 1 5 3.43582 0 1 3.43582 1
gene 1 2 5 0.626712 0 2 0.626712 1
gene 1 3 5 1.99099 0 3 1.99099 1
gene 1 4 5 -1.03065 0 4 -1.03065 1
genomeend 156

/* Organism #157 Fitness: 0.0033 Error: 0 */
genomestart 157
trait 1 0.1 0 0 0 0 0 0 0 
node 1 1 1 1
node 2 1 1 1
node 3 1 1 1
node 4 1 1 3
node 5 1 0 2
gene 1 1 5 3.48556 0 1 3.48556 1
gene 1 2 5 0.571954 0 2 0.571954 1
gene 1 3 5 1.44462 0 3 1.44462 1
gene 1 4 5 -0.0418158 0 4 -0.0418158 1
genomeend 157

/* Organism #158 Fitness: 0.0033 Error: 0 */
genomestart 158
trait 1 0.1 0 0 0 0 0 0 0 
node 1 1 1 1
node 2 1 1 1
node 3 1 1 1
node 4 1 1 3
node 5 1 0 2
gene 1 1 5 3.48556 0 1 3.48556 1
gene 1 2 5 0.571954 0 2 0.571954 1
gene 1 3 5 1.44462 0 3 1.44462 1
gene 1 4 5 -0.0418158 0 4 -0.0418158 1
genomeend 158

/* Organism #159 Fitness: 0.0034 Error: 0 */
genomestart 159
trait 1 0.1 0.0584975 0 0.0148656 0 0.00254327 0 0 
node 1 1 1 1
node 2 1 1 1
node 3 1 1 1
node 4 1 1 3
node 5 1 0 2
gene 1 1 5 1.54692 0 1 1.54692 1
gene 1 2 5 1.39189 0 2 1.39189 1
gene 1 3 5 2.34617 0 3 2.34617 1
gene 1 4 5 -0.405718 0 4 -0.405718 1
genomeend 159

/* Organism #160 Fitness: 0.0018 Error: 0 */
genomestart 160
trait 1 0.1 0.0584975 0 0.0148656 0 0.00254327 0 0 
node 1 1 1 1
node 2 1 1 1
node 3 1 1 1
node 4 1 1 3
node 5 1 0 2
gene 1 1 5 4.54983 0 1 4.54983 1
gene 1 2 5 1.18851 0 2 1.18851 1
gene 1 3 5 2.37602 0 3 2.37602 1
gene 1 4 5 0.413215 0 4 0.413215 1
genomeend 160

/* Organism #161 Fitness: 0.0006 Error: 0 */
genomestart 161
trait 1 0.1 0 0 0.0448 0 0 0.42827 0 
node 1 1 1 1
node 2 1 1 1
node 3 1 1 1
node 4 1 1 3
node 5 1 0 2
gene 1 1 5 2.29231 0 1 2.29231 1
gene 1 2 5 2.28997 0 2 2.28997 1
gene 1 3 5 1.06782 0 3 1.06782 1
gene 1 4 5 0.302089 0 4 0.302089 1
genomeend 161

/* Organism #162 Fitness: 0.0035 Error: 0 */
genomestart 162
trait 1 0.1 0 0 0.0224 0 0 0.27258 0 
node 1 1 1 1
node 2 1 1 1
node 3 1 1 1
node 4 1 1 3
node 5 1 0 2
gene 1 1 5 3.61708 0 1 3.61708 1
gene 1 2 5 2.74883 0 2 2.74883 1
gene 1 3 5 2.12172 0 3 2.12172 1
gene 1 4 5 -0.583105 0 4 -0.583105 1
gene 1 5 5 -1.00448 1 85 -1.00448 1
genomeend 162

/* Organism #163 Fitness: 0.0016 Error: 0 */
genomestart 163
trait 1 0.1 0 0 0.0448 0 0 0.42827 0 
node 1 1 1 1
node 2 1 1 1
node 3 1 1 1
node 4 1 1 3
node 5 1 0 2
gene 1 1 5 4.56595 0 1 4.56595 1
gene 1 2 5 2.55699 0 2 2.55699 1
gene 1 3 5 1.89051 0 3 1.89051 1
gene 1 4 5 -0.258428 0 4 -0.258428 1
genomeend 163

/* Organism #164 Fitness: 0.003 Error: 0 */
genomestart 164
trait 1 0.1 0 0 0 0 0 0.11689 0 
node 1 1 1 1
node 2 1 1 1
node 3 1 1 1
node 4 1 1 3
node 5 1 0 2
gene 1 1 5 2.67787 0 1 2.67787 1
gene 1 2 5 2.06242 0 2 2.06242 1
gene 1 3 5 1.70695 0 3 1.70695 1
gene 1 4 5 -0.583105 0 4 -0.583105 1
gene 1 5 5 -0.0483768 1 85 -0.0483768 1
genomeend 164

/* Organism #165 Fitness: 0.0032 Error: 0 */
genomestart 165
trait 1 0.1 0 0 0.0448 0 0 0.42827 0 
node 1 1 1 1
node 2 1 1 1
node 3 1 1 1
node 4 1 1 3
node 5 1 0 2
gene 1 1 5 3.14748 0 1 3.14748 1
gene 1 2 5 2.52892 0 2 2.52892 1
gene 1 3 5 2.58175 0 3 2.58175 1
gene 1 4 5 -0.542328 0 4 -0.542328 1
gene 1 5 5 -0.0483768 1 85 -0.0483768 1
genomeend 165

/* Organism #166 Fitness: 0.003 Error: 0 */
genomestart 166
trait 1 0.1 0 0 0 0 0 0.11689 0 
node 1 1 1 1
node 2 1 1 1
node 3 1 1 1
node 4 1 1 3
node 5 1 0 2
gene 1 1 5 2.67787 0 1 2.67787 1
gene 1 2 5 2.06242 0 2 2.06242 1
gene 1 3 5 1.70695 0 3 1.70695 1
gene 1 4 5 -0.583105 0 4 -0.583105 1
gene 1 5 5 -0.0483768 1 85 -0.0483768 1
genomeend 166

/* Organism #167 Fitness: 0.003 Error: 0 */
genomestart 167
trait 1 0.1 0 0 0 0 0 0.11689 0 
node 1 1 1 1
node 2 1 1 1
node 3 1 1 1
node 4 1 1 3
node 5 1 0 2
gene 1 1 5 2.67787 0 1 2.67787 1
gene 1 2 5 2.06242 0 2 2.06242 1
gene 1 3 5 1.70695 0 3 1.70695 1
gene 1 4 5 -0.583105 0 4 -0.583105 1
gene 1 5 5 -0.0483768 1 85 -0.0483768 1
genomeend 167

/* Organism #168 Fitness: 0.003 Error: 0 */
genomestart 168
trait 1 0.1 0 0 0 0 0 0.11689 0 
node 1 1 1 1
node 2 1 1 1
node 3 1 1 1
node 4 1 1 3
node 5 1 0 2
gene 1 1 5 2.67787 0 1 2.67787 1
gene 1 2 5 2.06242 0 2 2.06242 1
gene 1 3 5 1.70695 0 3 1.70695 1
gene 1 4 5 -0.583105 0 4 -0.583105 1
gene 1 5 5 -0.0483768 1 85 -0.0483768 1
genomeend 168

/* Organism #169 Fitness: 0.0032 Error: 0 */
genomestart 169
trait 1 0.1 0 0 0.0448 0 0 0.42827 0 
node 1 1 1 1
node 2 1 1 1
node 3 1 1 1
node 4 1 1 3
node 5 1 0 2
gene 1 1 5 3.14748 0 1 3.14748 1
gene 1 2 5 2.52892 0 2 2.52892 1
gene 1 3 5 2.58175 0 3 2.58175 1
gene 1 4 5 -0.542328 0 4 -0.542328 1
gene 1 5 5 -0.0483768 1 85 -0.0483768 1
genomeend 169

/* Organism #170 Fitness: 0.0029 Error: 0 */
genomestart 170
trait 1 0.1 0 0 0 0 0 0.11689 0 
node 1 1 1 1
node 2 1 1 1
node 3 1 1 1
node 4 1 1 3
node 5 1 0 2
gene 1 1 5 3.11463 0 1 3.11463 1
gene 1 2 5 2.77608 0 2 2.77608 1
gene 1 3 5 1.70695 0 3 1.70695 1
gene 1 4 5 -1.15548 0 4 -1.15548 1
gene 1 5 5 0.0284487 1 85 0.0284487 1
genomeend 170

/* Organism #171 Fitness: 0.0004 Error: 0 */
genomestart 171
trait 1 0.1 0 0 0 0 0 0.11689 0 
node 1 1 1 1
node 2 1 1 1
node 3 1 1 1
node 4 1 1 3
node 5 1 0 2
gene 1 1 5 3.93694 0 1 3.93694 1
gene 1 2 5 1.93806 0 2 1.93806 1
gene 1 3 5 0.996072 0 3 0.996072 1
gene 1 4 5 1.15676 0 4 1.15676 1
gene 1 5 5 -0.0483768 1 85 -0.0483768 1
genomeend 171

/* Organism #172 Fitness: 0.0005 Error: 0 */
genomestart 172
trait 1 0.1 0 0 0 0 0 0.11689 0 
node 1 1 1 1
node 2 1 1 1
node 3 1 1 1
node 4 1 1 3
node 5 1 0 2
gene 1 1 5 2.12173 0 1 2.12173 1
gene 1 2 5 0.645132 0 2 0.645132 1
gene 1 3 5 1.52645 0 3 1.52645 1
gene 1 4 5 2.05433 0 4 2.05433 1
gene 1 5 5 -0.431972 1 85 -0.431972 1
genomeend 172

/* Organism #173 Fitness: 0.0032 Error: 0 */
genomestart 173
trait 1 0.1 0 0 0.0448 0 0 0.42827 0 
node 1 1 1 1
node 2 1 1 1
node 3 1 1 1
node 4 1 1 3
node 5 1 0 2
gene 1 1 5 3.14748 0 1 3.14748 1
gene 1 2 5 2.52892 0 2 2.52892 1
gene 1 3 5 2.58175 0 3 2.58175 1
gene 1 4 5 -0.542328 0 4 -0.542328 1
gene 1 5 5 -0.0483768 1 85 -0.0483768 1
genomeend 173

/* Organism #174 Fitness: 0.0004 Error: 0 */
genomestart 174
trait 1 0.075 0 0 0.104795 0.122019 0.180117 0.17584 0 
node 1 1 1 1
node 2 1 1 1
node 3 1 1 1
node 4 1 1 3
node 5 1 0 2
gene 1 1 5 1.83872 0 1 1.83872 0
gene 1 2 5 0.661628 0 2 0.661628 1
gene 1 3 5 -0.249253 0 3 -0.249253 1
gene 1 4 5 -1.72216 0 4 -1.72216 1
genomeend 174

/* Organism #175 Fitness: 0.0025 Error: 0 */
genomestart 175
trait 1 0.0875 0 0 0.0523976 0.0610095 0.0900584 0.0879199 0 
node 1 1 1 1
node 2 1 1 1
node 3 1 1 1
node 4 1 1 3
node 5 1 0 2
gene 1 1 5 4.84553 0 1 4.84553 0
gene 1 2 5 2.21071 0 2 2.21071 1
gene 1 3 5 1.39483 0 3 1.39483 1
gene 1 4 5 -0.338718 0 4 -0.338718 1
genomeend 175

/* Organism #176 Fitness: 0.0027 Error: 0 */
genomestart 176
trait 1 0.0875 0 0 0.0523976 0.0610095 0.0900584 0.0879199 0 
node 1 1 1 1
node 2 1 1 1
node 3 1 1 1
node 4 1 1 3
node 5 1 0 2
gene 1 1 5 5.47258 0 1 5.47258 0
gene 1 2 5 1.28739 0 2 1.28739 1
gene 1 3 5 1.56735 0 3 1.56735 1
gene 1 4 5 -0.133594 0 4 -0.133594 1
genomeend 176

/* Organism #177 Fitness: 0.0022 Error: 0 */
genomestart 177
trait 1 0.254608 0.0377693 0.0135059 0.375 0.0459859 0 0.2255 0.260064 
node 1 1 1 1
node 2 1 1 1
node 3 1 1 1
node 4 1 1 3
node 5 1 0 2
gene 1 1 5 3.83976 0 1 3.83976 1
gene 1 2 5 0.633155 0 2 0.633155 1
gene 1 3 5 1.53244 0 3 1.53244 1
gene 1 4 5 0.606548 0 4 0.606548 1
genomeend 177

/* Organism #178 Fitness: 0.0005 Error: 0 */
genomestart 178
trait 1 0.075 0 0 0 0 0 0.0292224 0 
node 1 1 1 1
node 2 1 1 1
node 3 1 1 1
node 4 1 1 3
node 5 1 0 2
gene 1 1 5 3.21338 0 1 3.21338 1
gene 1 2 5 1.5563 0 2 1.5563 1
gene 1 3 5 0.856276 0 3 0.856276 1
gene 1 4 5 0.560376 0 4 0.560376 1
genomeend 178

/* Organism #179 Fitness: 0.0007 Error: 0 */
genomestart 179
trait 1 0.196822 0.0251795 0.00900392 0.276199 0.061162 0.0450292 0.174812 0.173376 
node 1 1 1 1
node 2 1 1 1
node 3 1 1 1
node 4 1 1 3
node 5 1 0 2
gene 1 1 5 4.64457 0 1 4.64457 0
gene 1 2 5 2.21071 0 2 2.21071 1
gene 1 3 5 0.650227 0 3 0.650227 1
gene 1 4 5 -0.0461019 0 4 -0.0461019 1
genomeend 179

/* Organism #180 Fitness: 0.0005 Error: 0 */
genomestart 180
trait 1 0.203072 0.0251795 0.00900392 0.25 0.0306573 0 0.160074 0.173376 
node 1 1 1 1
node 2 1 1 1
node 3 1 1 1
node 4 1 1 3
node 5 1 0 2
gene 1 1 5 3.52657 0 1 3.52657 1
gene 1 2 5 0.270864 0 2 0.270864 1
gene 1 3 5 0.212144 0 3 0.212144 1
gene 1 4 5 0.733177 0 4 0.733177 1
gene 1 5 5 -0.195782 1 183 -0.195782 1
genomeend 180

/* Organism #181 Fitness: 0.0005 Error: 0 */
genomestart 181
trait 1 0.190572 0.0251795 0.00900392 0.25 0.0306573 0 0.145463 0.173376 
node 1 1 1 1
node 2 1 1 1
node 3 1 1 1
node 4 1 1 3
node 5 1 0 2
gene 1 1 5 3.83976 0 1 3.83976 1
gene 1 2 5 1.5563 0 2 1.5563 1
gene 1 3 5 0.856276 0 3 0.856276 1
gene 1 4 5 0.606548 0 4 0.606548 1
genomeend 181

/* Organism #182 Fitness: 0.0005 Error: 0 */
genomestart 182
trait 1 0.1 0 0 0 0 0 0 0 
node 1 1 1 1
node 2 1 1 1
node 3 1 1 1
node 4 1 1 3
node 5 1 0 2
gene 1 1 5 4.08874 0 1 4.08874 1
gene 1 2 5 -0.866783 0 2 -0.866783 1
gene 1 3 5 0.769343 0 3 0.769343 1
gene 1 4 5 -0.67124 0 4 -0.67124 1
gene 1 5 5 0.183345 1 97 0.183345 1
genomeend 182

/* Organism #183 Fitness: 0.0005 Error: 0 */
genomestart 183
trait 1 0.1 0 0 0 0 0 0 0 
node 1 1 1 1
node 2 1 1 1
node 3 1 1 1
node 4 1 1 3
node 5 1 0 2
gene 1 1 5 2.3774 0 1 2.3774 1
gene 1 2 5 0.423363 0 2 0.423363 1
gene 1 3 5 2.74516 0 3 2.74516 1
gene 1 4 5 -0.197662 0 4 -0.197662 1
gene 1 5 5 3.28263 1 97 3.28263 1
genomeend 183

/* Organism #184 Fitness: 0.0004 Error: 0 */
genomestart 184
trait 1 0.05 2.77669e-05 0 0 0.042947 0 0.356514 0 
node 1 1 1 1
node 2 1 1 1
node 3 1 1 1
node 4 1 1 3
node 5 1 0 2
gene 1 1 5 3.77434 0 1 3.77434 1
gene 1 2 5 1.63389 0 2 1.63389 1
gene 1 3 5 0.0636383 0 3 0.0636383 1
gene 1 4 5 0.878734 0 4 0.878734 1
genomeend 184

/* Organism #185 Fitness: 0.0005 Error: 0 */
genomestart 185
trait 1 0.075 0 0 0 0 0 0.0584448 0 
node 1 1 1 1
node 2 1 1 1
node 3 1 1 1
node 4 1 1 3
node 5 1 0 2
gene 1 1 5 4.57365 0 1 4.57365 1
gene 1 2 5 2.33401 0 2 2.33401 1
gene 1 3 5 0.221446 0 3 0.221446 1
gene 1 4 5 -1.23239 0 4 -1.23239 1
genomeend 185

/* Organism #186 Fitness: 0.0004 Error: 0 */
genomestart 186
trait 1 0.075 0 0 0 0 0 0.0584448 0 
node 1 1 1 1
node 2 1 1 1
node 3 1 1 1
node 4 1 1 3
node 5 1 0 2
gene 1 1 5 3.67746 0 1 3.67746 1
gene 1 2 5 2.3839 0 2 2.3839 1
gene 1 3 5 0.00480068 0 3 0.00480068 1
gene 1 4 5 1.76225 0 4 1.76225 1
genomeend 186

/* Organism #187 Fitness: 0.0011 Error: 0 */
genomestart 187
trait 1 0.075 0 0 0 0 0 0.0584448 0 
node 1 1 1 1
node 2 1 1 1
node 3 1 1 1
node 4 1 1 3
node 5 1 0 2
gene 1 1 5 3.53082 0 1 3.53082 1
gene 1 2 5 2.48221 0 2 2.48221 1
gene 1 3 5 0.231506 0 3 0.231506 1
gene 1 4 5 -0.530533 0 4 -0.530533 1
genomeend 187

/* Organism #188 Fitness: 0.0004 Error: 0 */
genomestart 188
trait 1 0.075 0 0 0.0523976 0.0610095 0.0900584 0.0879199 0 
node 1 1 1 1
node 2 1 1 1
node 3 1 1 1
node 4 1 1 3
node 5 1 0 2
gene 1 1 5 3.65334 0 1 3.65334 1
gene 1 2 5 1.88845 0 2 1.88845 1
gene 1 3 5 0.491891 0 3 0.491891 1
gene 1 4 5 0.763881 0 4 0.763881 1
genomeend 188

/* Organism #189 Fitness: 0.0006 Error: 0 */
genomestart 189
trait 1 0 0 0 0.0523976 0 0.95048 0.21291 0 
node 1 1 1 1
node 2 1 1 1
node 3 1 1 1
node 4 1 1 3
node 5 1 0 2
gene 1 1 5 4.87144 0 1 4.87144 0
gene 1 2 5 0.403986 0 2 0.403986 1
gene 1 3 5 -0.273917 0 3 -0.273917 1
gene 1 4 5 0.244248 0 4 0.244248 1
genomeend 189

/* Organism #190 Fitness: 0.0004 Error: 0 */
genomestart 190
trait 1 0.1 0 0 0 0 0 0 0 
node 1 1 1 1
node 2 1 1 1
node 3 1 1 1
node 4 1 1 3
node 5 1 0 2
gene 1 1 5 3.49616 0 1 3.49616 1
gene 1 2 5 -1.88794 0 2 -1.88794 1
gene 1 3 5 0.951146 0 3 0.951146 1
gene 1 4 5 -1.37381 0 4 -1.37381 1
genomeend 190

/* Species #6 : (Size 11) (AF 0.00122727) (Age 4)  */


/* Organism #191 Fitness: 0.0019 Error: 0 */
genomestart 191
trait 1 0.1 0 0 0 0 0 0 0 
node 1 1 1 1
node 2 1 1 1
node 3 1 1 1
node 4 1 1 3
node 5 1 0 2
node 7 1 0 0
gene 1 1 5 1.36377 0 1 1.36377 1
gene 1 2 5 0.550955 0 2 0.550955 1
gene 1 3 5 3.45418 0 3 3.45418 1
gene 1 4 5 -1.85638 0 4 -1.85638 1
gene 1 1 7 1.20821 0 23 1.20821 1
gene 1 7 5 0.606512 0 24 0.606512 1
genomeend 191

/* Organism #192 Fitness: 0.001 Error: 0 */
genomestart 192
trait 1 0.1 0 0 0 0.244038 0.360234 0.35168 0 
node 1 1 1 1
node 2 1 1 1
node 3 1 1 1
node 4 1 1 3
node 5 1 0 2
node 7 1 0 0
gene 1 1 5 1.20696 0 1 1.20696 0
gene 1 2 5 -0.857749 0 2 -0.857749 1
gene 1 3 5 0.269909 0 3 0.269909 1
gene 1 4 5 -1.52532 0 4 -1.52532 1
gene 1 1 7 2.06293 0 23 2.06293 1
gene 1 7 5 2.20221 0 24 2.20221 1
genomeend 192

/* Organism #193 Fitness: 0.0014 Error: 0 */
genomestart 193
trait 1 0.1 0 0 0 0.244038 0.360234 0.35168 0 
node 1 1 1 1
node 2 1 1 1
node 3 1 1 1
node 4 1 1 3
node 5 1 0 2
node 7 1 0 0
gene 1 1 5 1.20696 0 1 1.20696 0
gene 1 2 5 -0.857749 0 2 -0.857749 1
gene 1 3 5 0.269909 0 3 0.269909 1
gene 1 4 5 -1.52532 0 4 -1.52532 1
gene 1 1 7 2.06293 0 23 2.06293 1
gene 1 7 5 2.20221 0 24 2.20221 1
gene 1 4 7 -0.0705931 0 203 0 1
genomeend 193

/* Organism #194 Fitness: 0.0035 Error: 0 */
genomestart 194
trait 1 0.1 0 0 0 0 0 0 0 
node 1 1 1 1
node 2 1 1 1
node 3 1 1 1
node 4 1 1 3
node 5 1 0 2
node 7 1 0 0
gene 1 1 5 1.98709 0 1 1.98709 0
gene 1 2 5 1.46302 0 2 1.46302 1
gene 1 3 5 1.37316 0 3 1.37316 1
gene 1 4 5 -0.888017 0 4 -0.888017 1
gene 1 1 7 2.02487 0 23 2.02487 1
gene 1 7 5 0.37343 0 24 0.37343 1
genomeend 194

/* Organism #195 Fitness: 0.0004 Error: 0 */
genomestart 195
trait 1 0.1 0 0 0 0.0610095 0.0900584 0.0879199 0 
node 1 1 1 1
node 2 1 1 1
node 3 1 1 1
node 4 1 1 3
node 5 1 0 2
gene 1 1 5 0.868134 0 1 0.868134 1
gene 1 2 5 -0.394189 0 2 -0.394189 1
gene 1 3 5 -1.32627 0 3 -1.32627 1
gene 1 4 5 -1.7837 0 4 -1.7837 1
genomeend 195

/* Organism #196 Fitness: 0.0004 Error: 0 */
genomestart 196
trait 1 0.196177 0 0.46748 0.989076 0 0.482189 0 0 
node 1 1 1 1
node 2 1 1 1
node 3 1 1 1
node 4 1 1 3
node 5 1 0 2
gene 1 1 5 2.0346 0 1 2.0346 0
gene 1 2 5 -0.162677 0 2 -0.162677 1
gene 1 3 5 -0.521242 0 3 -0.521242 1
gene 1 4 5 -1.70176 0 4 -1.70176 1
genomeend 196

/* Organism #197 Fitness: 0.0011 Error: 0 */
genomestart 197
trait 1 0.1 0 0 0 0.244038 0.360234 0.35168 0 
node 1 1 1 1
node 2 1 1 1
node 3 1 1 1
node 4 1 1 3
node 5 1 0 2
node 7 1 0 0
gene 1 1 5 2.07211 0 1 2.07211 0
gene 1 2 5 0.432494 0 2 0.432494 1
gene 1 3 5 -0.402341 0 3 -0.402341 1
gene 1 4 5 -2.05436 0 4 -2.05436 1
gene 1 1 7 1.45153 0 23 1.45153 1
gene 1 7 5 1.50808 0 24 1.50808 1
gene 1 2 7 1.54101 0 149 1.54101 1
genomeend 197

/* Organism #198 Fitness: 0.0004 Error: 0 */
genomestart 198
trait 1 0.1 0 0 0 0.122019 0.180117 0.17584 0 
node 1 1 1 1
node 2 1 1 1
node 3 1 1 1
node 4 1 1 3
node 5 1 0 2
node 7 1 0 0
gene 1 1 5 1.18757 0 1 1.18757 0
gene 1 2 5 -0.947432 0 2 -0.947432 1
gene 1 3 5 -0.185072 0 3 -0.185072 1
gene 1 4 5 0.809824 0 4 0.809824 1
gene 1 1 7 0.763147 0 23 0.763147 1
gene 1 7 5 1.24193 0 24 1.24193 1
gene 1 2 7 0.554177 0 149 0.554177 1
genomeend 198

/* Organism #199 Fitness: 0.0004 Error: 0 */
genomestart 199
trait 1 0.1 0 0.0417838 0 0.407196 0 0.214037 0 
node 1 1 1 1
node 2 1 1 1
node 3 1 1 1
node 4 1 1 3
node 5 1 0 2
node 7 1 0 0
gene 1 1 5 -1.40929 0 1 -1.40929 0
gene 1 2 5 -1.71242 0 2 -1.71242 1
gene 1 3 5 0.631874 0 3 0.631874 1
gene 1 4 5 -1.53021 0 4 -1.53021 1
gene 1 1 7 1.22656 0 23 1.22656 1
gene 1 7 5 -0.933428 0 24 -0.933428 1
genomeend 199

/* Organism #200 Fitness: 0.0026 Error: 0 */
genomestart 200
trait 1 1 0 0 0 0 0 0 0 
node 1 1 1 1
node 2 1 1 1
node 3 1 1 1
node 4 1 1 3
node 5 1 0 2
node 7 1 0 0
gene 1 1 5 1.6419 0 1 1.6419 0
gene 1 2 5 1.58934 0 2 1.58934 1
gene 1 3 5 0.634949 0 3 0.634949 1
gene 1 4 5 -0.976138 0 4 -0.976138 1
gene 1 1 7 1.45909 0 23 1.45909 1
gene 1 7 5 0.664352 0 24 0.664352 1
gene 1 3 7 -1.48342 0 124 -1.48342 1
genomeend 200

/* Organism #201 Fitness: 0.0004 Error: 0 */
genomestart 201
trait 1 0.1 0 0 0 0 0 0 0 
node 1 1 1 1
node 2 1 1 1
node 3 1 1 1
node 4 1 1 3
node 5 1 0 2
node 7 1 0 0
gene 1 1 5 1.3866 0 1 1.3866 0
gene 1 2 5 -0.141709 0 2 -0.141709 1
gene 1 3 5 1.25491 0 3 1.25491 1
gene 1 4 5 -2.52885 0 4 -2.52885 1
gene 1 1 7 1.02472 0 23 1.02472 1
gene 1 7 5 0.652989 0 24 0.652989 1
gene 1 3 7 0.768295 0 124 0.768295 1
genomeend 201

/* Species #7 : (Size 6) (AF 0.000566667) (Age 4)  */


/* Organism #202 Fitness: 0.0006 Error: 0 */
genomestart 202
trait 1 0.05 0 0 0 0 0 0 0 
node 1 1 1 1
node 2 1 1 1
node 3 1 1 1
node 4 1 1 3
node 5 1 0 2
node 10 1 0 0
gene 1 1 5 2.41303 0 1 2.41303 0
gene 1 2 5 -1.00871 0 2 -1.00871 1
gene 1 3 5 -2.03731 0 3 -2.03731 1
gene 1 4 5 -0.395081 0 4 -0.395081 1
gene 1 1 10 1 0 87 0 1
gene 1 10 5 2.41303 0 88 0 1
genomeend 202

/* Organism #203 Fitness: 0.0006 Error: 0 */
genomestart 203
trait 1 0.0625 0 0 0 0 0 0 0 
node 1 1 1 1
node 2 1 1 1
node 3 1 1 1
node 4 1 1 3
node 5 1 0 2
node 10 1 0 0
gene 1 1 5 2.62194 0 1 2.62194 0
gene 1 2 5 -1.64869 0 2 -1.64869 1
gene 1 3 5 -2.11678 0 3 -2.11678 1
gene 1 4 5 -0.124857 0 4 -0.124857 1
gene 1 1 10 1 0 87 0 1
gene 1 10 5 2.41303 0 88 0 1
genomeend 203

/* Organism #204 Fitness: 0.0006 Error: 0 */
genomestart 204
trait 1 0.0625 0 0 0 0 0 0 0 
node 1 1 1 1
node 2 1 1 1
node 3 1 1 1
node 4 1 1 3
node 5 1 0 2
node 10 1 0 0
gene 1 1 5 2.83086 0 1 2.83086 0
gene 1 2 5 -2.28867 0 2 -2.28867 1
gene 1 3 5 -2.19625 0 3 -2.19625 1
gene 1 4 5 0.145367 0 4 0.145367 1
gene 1 1 10 1 0 87 0 1
gene 1 10 5 2.41303 0 88 0 1
genomeend 204

/* Organism #205 Fitness: 0.0006 Error: 0 */
genomestart 205
trait 1 0.05 0 0 0 0 0 0 0 
node 1 1 1 1
node 2 1 1 1
node 3 1 1 1
node 4 1 1 3
node 5 1 0 2
node 10 1 0 0
gene 1 1 5 3.65112 0 1 3.65112 0
gene 1 2 5 -0.283077 0 2 -0.283077 1
gene 1 3 5 -1.81142 0 3 -1.81142 1
gene 1 4 5 -0.527704 0 4 -0.527704 1
gene 1 1 10 2.14738 0 87 2.14738 1
gene 1 10 5 0.849103 0 88 0.849103 1
genomeend 205

/* Organism #206 Fitness: 0.0005 Error: 0 */
genomestart 206
trait 1 0.0875 0 0 0 0.242197 0.332908 0.17584 0.124052 
node 1 1 1 1
node 2 1 1 1
node 3 1 1 1
node 4 1 1 3
node 5 1 0 2
gene 1 1 5 2.22807 0 1 2.22807 0
gene 1 2 5 0.835519 0 2 0.835519 1
gene 1 3 5 -1.88487 0 3 -1.88487 1
gene 1 4 5 -0.582635 0 4 -0.582635 1
genomeend 206

/* Organism #207 Fitness: 0.0005 Error: 0 */
genomestart 207
trait 1 0.05 0 0 0 0 0 0 0 
node 1 1 1 1
node 2 1 1 1
node 3 1 1 1
node 4 1 1 3
node 5 1 0 2
gene 1 1 5 2.12325 0 1 2.12325 1
gene 1 2 5 0.543164 0 2 0.543164 1
gene 1 3 5 -2.00946 0 3 -2.00946 1
gene 1 4 5 -0.721559 0 4 -0.721559 1
genomeend 207

/* Species #8 : (Size 40) (AF 0.00419682) (Age 4)  */


/* Organism #208 Fitness: 0.002 Error: 0 */
genomestart 208
trait 1 0.1 0 0 0 0 0 0 0 
node 1 1 1 1
node 2 1 1 1
node 3 1 1 1
node 4 1 1 3
node 5 1 0 2
gene 1 1 5 -0.917173 0 1 -0.917173 1
gene 1 2 5 -1.92747 0 2 -1.92747 1
gene 1 3 5 3.86908 0 3 3.86908 1
gene 1 4 5 1.58784 0 4 1.58784 1
genomeend 208

/* Organism #209 Fitness: 0.0180363 Error: 0 */
genomestart 209
trait 1 0.1 0.23399 0 0.0594625 0 0.0101731 0 0 
node 1 1 1 1
node 2 1 1 1
node 3 1 1 1
node 4 1 1 3
node 5 1 0 2
gene 1 1 5 -1.99681 0 1 -1.99681 1
gene 1 2 5 -2.64596 0 2 -2.64596 1
gene 1 3 5 2.33276 0 3 2.33276 1
gene 1 4 5 0.995096 0 4 0.995096 1
gene 1 5 5 -0.916685 1 161 -0.916685 1
genomeend 209

/* Organism #210 Fitness: 0.0016 Error: 0 */
genomestart 210
trait 1 0.1 0.116995 0 0.0297313 0 0.00508654 0 0 
node 1 1 1 1
node 2 1 1 1
node 3 1 1 1
node 4 1 1 3
node 5 1 0 2
gene 1 1 5 -2.03789 0 1 -2.03789 1
gene 1 2 5 -3.88972 0 2 -3.88972 1
gene 1 3 5 1.95618 0 3 1.95618 1
gene 1 4 5 0.276467 0 4 0.276467 1
genomeend 210

/* Organism #211 Fitness: 0.0022 Error: 0 */
genomestart 211
trait 1 0.1 0.0658097 0 0.0167238 0 0.00286118 0 0 
node 1 1 1 1
node 2 1 1 1
node 3 1 1 1
node 4 1 1 3
node 5 1 0 2
gene 1 1 5 -2.30552 0 1 -2.30552 1
gene 1 2 5 -1.86676 0 2 -1.86676 1
gene 1 3 5 2.74428 0 3 2.74428 1
gene 1 4 5 0.775275 0 4 0.775275 1
genomeend 211

/* Organism #212 Fitness: 0.0180363 Error: 0 */
genomestart 212
trait 1 0.1 0.23399 0 0.0594625 0 0.0101731 0 0 
node 1 1 1 1
node 2 1 1 1
node 3 1 1 1
node 4 1 1 3
node 5 1 0 2
gene 1 1 5 -1.99681 0 1 -1.99681 1
gene 1 2 5 -2.64596 0 2 -2.64596 1
gene 1 3 5 2.33276 0 3 2.33276 1
gene 1 4 5 0.995096 0 4 0.995096 1
gene 1 5 5 -0.916685 1 161 -0.916685 1
genomeend 212

/* Organism #213 Fitness: 0.0087 Error: 0 */
genomestart 213
trait 1 0.1 0.46798 0 0.118925 0 0.0203462 0 0 
node 1 1 1 1
node 2 1 1 1
node 3 1 1 1
node 4 1 1 3
node 5 1 0 2
gene 1 1 5 -2.32967 0 1 -2.32967 1
gene 1 2 5 -1.29009 0 2 -1.29009 1
gene 1 3 5 2.28534 0 3 2.28534 1
gene 1 4 5 0.794316 0 4 0.794316 1
gene 1 5 5 -0.848032 1 103 -0.848032 1
genomeend 213

/* Organism #214 Fitness: 0.0007 Error: 0 */
genomestart 214
trait 1 0.1 0.23399 0 0.0594625 0 0.0101731 0 0 
node 1 1 1 1
node 2 1 1 1
node 3 1 1 1
node 4 1 1 3
node 5 1 0 2
gene 1 1 5 -3.35231 0 1 -3.35231 1
gene 1 2 5 -2.98558 0 2 -2.98558 1
gene 1 3 5 2.19915 0 3 2.19915 1
gene 1 4 5 0.581255 0 4 0.581255 1
gene 1 5 5 -1.60212 1 161 -1.60212 1
genomeend 214

/* Organism #215 Fitness: 0.0057 Error: 0 */
genomestart 215
trait 1 0.1 0.23399 0 0.0594625 0 0.0101731 0 0 
node 1 1 1 1
node 2 1 1 1
node 3 1 1 1
node 4 1 1 3
node 5 1 0 2
gene 1 1 5 -2.60479 0 1 -2.60479 1
gene 1 2 5 -3.13692 0 2 -3.13692 1
gene 1 3 5 1.44363 0 3 1.44363 1
gene 1 4 5 0.804574 0 4 0.804574 1
genomeend 215

/* Organism #216 Fitness: 0.0006 Error: 0 */
genomestart 216
trait 1 0.1 0.23399 0 0.0594625 0 0.0101731 0 0 
node 1 1 1 1
node 2 1 1 1
node 3 1 1 1
node 4 1 1 3
node 5 1 0 2
gene 1 1 5 -1.27614 0 1 -1.27614 1
gene 1 2 5 -3.15418 0 2 -3.15418 1
gene 1 3 5 2.56364 0 3 2.56364 1
gene 1 4 5 -0.529482 0 4 -0.529482 1
gene 1 5 5 0.041799 1 161 0.041799 1
genomeend 216

/* Organism #217 Fitness: 0.0029 Error: 0 */
genomestart 217
trait 1 0.1 0.175493 0 0.0445969 0 0.00762982 0 0 
node 1 1 1 1
node 2 1 1 1
node 3 1 1 1
node 4 1 1 3
node 5 1 0 2
gene 1 1 5 -2.36839 0 1 -2.36839 1
gene 1 2 5 -1.83649 0 2 -1.83649 1
gene 1 3 5 2.36989 0 3 2.36989 1
gene 1 4 5 1.1667 0 4 1.1667 1
genomeend 217

/* Organism #218 Fitness: 0.0082 Error: 0 */
genomestart 218
trait 1 0.1 0.350985 0 0.0891938 0 0.0152596 0 0 
node 1 1 1 1
node 2 1 1 1
node 3 1 1 1
node 4 1 1 3
node 5 1 0 2
gene 1 1 5 -1.96126 0 1 -1.96126 1
gene 1 2 5 -1.74853 0 2 -1.74853 1
gene 1 3 5 2.40048 0 3 2.40048 1
gene 1 4 5 0.998014 0 4 0.998014 1
gene 1 5 5 -0.848032 1 103 -0.848032 1
genomeend 218

/* Organism #219 Fitness: 0.0087 Error: 0 */
genomestart 219
trait 1 0.1 0.46798 0 0.118925 0 0.0203462 0 0 
node 1 1 1 1
node 2 1 1 1
node 3 1 1 1
node 4 1 1 3
node 5 1 0 2
gene 1 1 5 -2.32967 0 1 -2.32967 1
gene 1 2 5 -1.29009 0 2 -1.29009 1
gene 1 3 5 2.28534 0 3 2.28534 1
gene 1 4 5 0.794316 0 4 0.794316 1
gene 1 5 5 -0.848032 1 103 -0.848032 1
genomeend 219

/* Organism #220 Fitness: 0.0025 Error: 0 */
genomestart 220
trait 1 0.1 0.175493 0 0.0445969 0 0.00762982 0 0 
node 1 1 1 1
node 2 1 1 1
node 3 1 1 1
node 4 1 1 3
node 5 1 0 2
gene 1 1 5 -1.96173 0 1 -1.96173 1
gene 1 2 5 -2.03529 0 2 -2.03529 1
gene 1 3 5 3.24652 0 3 3.24652 1
gene 1 4 5 1.55834 0 4 1.55834 1
genomeend 220

/* Organism #221 Fitness: 0.0029 Error: 0 */
genomestart 221
trait 1 0.1 0.46798 0 0.118925 0 0.0203462 0 0 
node 1 1 1 1
node 2 1 1 1
node 3 1 1 1
node 4 1 1 3
node 5 1 0 2
gene 1 1 5 -3.68292 0 1 -3.68292 1
gene 1 2 5 -2.87518 0 2 -2.87518 1
gene 1 3 5 2.16401 0 3 2.16401 1
gene 1 4 5 0.397798 0 4 0.397798 1
genomeend 221

/* Organism #222 Fitness: 0.0018 Error: 0 */
genomestart 222
trait 1 0.1 0.23399 0 0.0594625 0 0.0101731 0 0 
node 1 1 1 1
node 2 1 1 1
node 3 1 1 1
node 4 1 1 3
node 5 1 0 2
gene 1 1 5 -2.3008 0 1 -2.3008 1
gene 1 2 5 -2.14312 0 2 -2.14312 1
gene 1 3 5 1.8882 0 3 1.8882 1
gene 1 4 5 1.52883 0 4 1.52883 1
genomeend 222

/* Organism #223 Fitness: 0.004 Error: 0 */
genomestart 223
trait 1 0.1 0.182805 0 0.0464551 0 0.00794772 0 0 
node 1 1 1 1
node 2 1 1 1
node 3 1 1 1
node 4 1 1 3
node 5 1 0 2
gene 1 1 5 -1.58998 0 1 -1.58998 1
gene 1 2 5 -3.82617 0 2 -3.82617 1
gene 1 3 5 3.19439 0 3 3.19439 1
gene 1 4 5 1.01322 0 4 1.01322 1
genomeend 223

/* Organism #224 Fitness: 0.0087 Error: 0 */
genomestart 224
trait 1 0.1 0.46798 0 0.118925 0 0.0203462 0 0 
node 1 1 1 1
node 2 1 1 1
node 3 1 1 1
node 4 1 1 3
node 5 1 0 2
gene 1 1 5 -2.32967 0 1 -2.32967 1
gene 1 2 5 -1.29009 0 2 -1.29009 1
gene 1 3 5 2.28534 0 3 2.28534 1
gene 1 4 5 0.794316 0 4 0.794316 1
gene 1 5 5 -0.848032 1 103 -0.848032 1
genomeend 224

/* Organism #225 Fitness: 0.0017 Error: 0 */
genomestart 225
trait 1 0.1 0.116995 0 0.0297313 0 0.00508654 0 0 
node 1 1 1 1
node 2 1 1 1
node 3 1 1 1
node 4 1 1 3
node 5 1 0 2
gene 1 1 5 -0.191363 0 1 -0.191363 1
gene 1 2 5 -2.96436 0 2 -2.96436 1
gene 1 3 5 1.75989 0 3 1.75989 1
gene 1 4 5 -0.262735 0 4 -0.262735 1
gene 1 5 5 0.826309 1 161 0.826309 1
genomeend 225

/* Organism #226 Fitness: 0.0022 Error: 0 */
genomestart 226
trait 1 0.1 0.23399 0 0.0594625 0 0.0101731 0 0 
node 1 1 1 1
node 2 1 1 1
node 3 1 1 1
node 4 1 1 3
node 5 1 0 2
gene 1 1 5 -2.13168 0 1 -2.13168 1
gene 1 2 5 -2.27404 0 2 -2.27404 1
gene 1 3 5 2.32777 0 3 2.32777 1
gene 1 4 5 0.901449 0 4 0.901449 1
genomeend 226

/* Organism #227 Fitness: 0.0036 Error: 0 */
genomestart 227
trait 1 0.1 0.175493 0 0.0445969 0 0.00762982 0 0 
node 1 1 1 1
node 2 1 1 1
node 3 1 1 1
node 4 1 1 3
node 5 1 0 2
gene 1 1 5 -3.0063 0 1 -3.0063 1
gene 1 2 5 -1.92747 0 2 -1.92747 1
gene 1 3 5 2.62396 0 3 2.62396 1
gene 1 4 5 1.52883 0 4 1.52883 1
genomeend 227

/* Organism #228 Fitness: 0.0043 Error: 0 */
genomestart 228
trait 1 0.1 0.23399 0 0.0594625 0 0.0101731 0 0 
node 1 1 1 1
node 2 1 1 1
node 3 1 1 1
node 4 1 1 3
node 5 1 0 2
gene 1 1 5 -1.62342 0 1 -1.62342 1
gene 1 2 5 -1.60878 0 2 -1.60878 1
gene 1 3 5 3.07721 0 3 3.07721 1
gene 1 4 5 1.19108 0 4 1.19108 1
gene 1 5 5 -0.848032 1 103 -0.848032 1
genomeend 228

/* Organism #229 Fitness: 0.0089 Error: 0 */
genomestart 229
trait 1 0.1 0.2998 0 0.0761864 0 0.0130343 0 0 
node 1 1 1 1
node 2 1 1 1
node 3 1 1 1
node 4 1 1 3
node 5 1 0 2
gene 1 1 5 -2.32967 0 1 -2.32967 1
gene 1 2 5 -1.80606 0 2 -1.80606 1
gene 1 3 5 1.61949 0 3 1.61949 1
gene 1 4 5 0.794316 0 4 0.794316 1
gene 1 5 5 -0.848032 1 103 -0.848032 1
genomeend 229

/* Organism #230 Fitness: 0.007 Error: 0 */
genomestart 230
trait 1 0.1 0.23399 0 0.0594625 0 0.0101731 0 0 
node 1 1 1 1
node 2 1 1 1
node 3 1 1 1
node 4 1 1 3
node 5 1 0 2
gene 1 1 5 -2.3008 0 1 -2.3008 1
gene 1 2 5 -2.89144 0 2 -2.89144 1
gene 1 3 5 1.8882 0 3 1.8882 1
gene 1 4 5 0.899835 0 4 0.899835 1
gene 1 5 5 -0.916685 1 161 -0.916685 1
genomeend 230

/* Organism #231 Fitness: 0.0048 Error: 0 */
genomestart 231
trait 1 0.1 0.350985 0 0.0891938 0 0.0152596 0 0 
node 1 1 1 1
node 2 1 1 1
node 3 1 1 1
node 4 1 1 3
node 5 1 0 2
gene 1 1 5 -2.45352 0 1 -2.45352 1
gene 1 2 5 -2.05405 0 2 -2.05405 1
gene 1 3 5 2.04666 0 3 2.04666 1
gene 1 4 5 0.629519 0 4 0.629519 1
gene 1 5 5 -0.848032 1 103 -0.848032 1
genomeend 231

/* Organism #232 Fitness: 0.007 Error: 0 */
genomestart 232
trait 1 0.1 0.350985 0 0.0891938 0 0.0152596 0 0 
node 1 1 1 1
node 2 1 1 1
node 3 1 1 1
node 4 1 1 3
node 5 1 0 2
gene 1 1 5 -2.50009 0 1 -2.50009 1
gene 1 2 5 -1.8156 0 2 -1.8156 1
gene 1 3 5 2.21263 0 3 2.21263 1
gene 1 4 5 0.697751 0 4 0.697751 1
gene 1 5 5 -0.848032 1 103 -0.848032 1
genomeend 232

/* Organism #233 Fitness: 0.0017 Error: 0 */
genomestart 233
trait 1 0.1 0.350985 0 0.0891938 0 0.0152596 0 0 
node 1 1 1 1
node 2 1 1 1
node 3 1 1 1
node 4 1 1 3
node 5 1 0 2
gene 1 1 5 -3.68292 0 1 -3.68292 1
gene 1 2 5 -3.13692 0 2 -3.13692 1
gene 1 3 5 1.44363 0 3 1.44363 1
gene 1 4 5 0.397798 0 4 0.397798 1
genomeend 233

/* Organism #234 Fitness: 0.0027 Error: 0 */
genomestart 234
trait 1 0.1 0.350985 0 0.0891938 0 0.0152596 0 0 
node 1 1 1 1
node 2 1 1 1
node 3 1 1 1
node 4 1 1 3
node 5 1 0 2
gene 1 1 5 -3.49064 0 1 -3.49064 1
gene 1 2 5 -2.19529 0 2 -2.19529 1
gene 1 3 5 3.50835 0 3 3.50835 1
gene 1 4 5 0.314798 0 4 0.314798 1
genomeend 234

/* Organism #235 Fitness: 0.0029 Error: 0 */
genomestart 235
trait 1 0.1 0.438731 0 0.111492 0 0.0190745 0 0 
node 1 1 1 1
node 2 1 1 1
node 3 1 1 1
node 4 1 1 3
node 5 1 0 2
gene 1 1 5 -4.77664 0 1 -4.77664 1
gene 1 2 5 -2.52665 0 2 -2.52665 1
gene 1 3 5 2.25709 0 3 2.25709 1
gene 1 4 5 1.3265 0 4 1.3265 1
genomeend 235

/* Organism #236 Fitness: 0.0024 Error: 0 */
genomestart 236
trait 1 0.1 0.365609 0 0.0929102 0 0.0158954 0 0 
node 1 1 1 1
node 2 1 1 1
node 3 1 1 1
node 4 1 1 3
node 5 1 0 2
gene 1 1 5 -3.49923 0 1 -3.49923 1
gene 1 2 5 -2.9815 0 2 -2.9815 1
gene 1 3 5 3.87901 0 3 3.87901 1
gene 1 4 5 0.651284 0 4 0.651284 1
genomeend 236

/* Organism #237 Fitness: 0.0028 Error: 0 */
genomestart 237
trait 1 0.1 0.177321 0 0.0450614 0 0.00770929 0 0 
node 1 1 1 1
node 2 1 1 1
node 3 1 1 1
node 4 1 1 3
node 5 1 0 2
gene 1 1 5 -3.37849 0 1 -3.37849 0
gene 1 2 5 -2.71975 0 2 -2.71975 1
gene 1 3 5 4.01223 0 3 4.01223 1
gene 1 4 5 1.55936 0 4 1.55936 1
genomeend 237

/* Organism #238 Fitness: 0.0005 Error: 0 */
genomestart 238
trait 1 0.1 0.0584975 0 0.0148656 0 0.00254327 0 0 
node 1 1 1 1
node 2 1 1 1
node 3 1 1 1
node 4 1 1 3
node 5 1 0 2
gene 1 1 5 -3.56457 0 1 -3.56457 1
gene 1 2 5 -1.82323 0 2 -1.82323 1
gene 1 3 5 2.4319 0 3 2.4319 1
gene 1 4 5 2.28275 0 4 2.28275 1
genomeend 238

/* Organism #239 Fitness: 0.0025 Error: 0 */
genomestart 239
trait 1 0.1 0.23399 0 0.0594625 0 0.0101731 0 0 
node 1 1 1 1
node 2 1 1 1
node 3 1 1 1
node 4 1 1 3
node 5 1 0 2
gene 1 1 5 -2.68164 0 1 -2.68164 1
gene 1 2 5 -1.15883 0 2 -1.15883 1
gene 1 3 5 3.62384 0 3 3.62384 1
gene 1 4 5 0.895109 0 4 0.895109 1
genomeend 239

/* Organism #240 Fitness: 0.0041 Error: 0 */
genomestart 240
trait 1 0.1 0.350985 0 0.0891938 0 0.0152596 0 0 
node 1 1 1 1
node 2 1 1 1
node 3 1 1 1
node 4 1 1 3
node 5 1 0 2
gene 1 1 5 -3.11241 0 1 -3.11241 1
gene 1 2 5 -3.13787 0 2 -3.13787 1
gene 1 3 5 3.98535 0 3 3.98535 1
gene 1 4 5 0.889496 0 4 0.889496 1
genomeend 240

/* Organism #241 Fitness: 0.0029 Error: 0 */
genomestart 241
trait 1 0.1 0.350985 0 0.0891938 0 0.0152596 0 0 
node 1 1 1 1
node 2 1 1 1
node 3 1 1 1
node 4 1 1 3
node 5 1 0 2
gene 1 1 5 -4.23722 0 1 -4.23722 1
gene 1 2 5 -2.60929 0 2 -2.60929 1
gene 1 3 5 3.39653 0 3 3.39653 1
gene 1 4 5 1.58149 0 4 1.58149 1
genomeend 241

/* Organism #242 Fitness: 0.0005 Error: 0 */
genomestart 242
trait 1 0.1 0.350985 0 0.0891938 0 0.0152596 0 0 
node 1 1 1 1
node 2 1 1 1
node 3 1 1 1
node 4 1 1 3
node 5 1 0 2
gene 1 1 5 -3.40394 0 1 -3.40394 1
gene 1 2 5 -2.07716 0 2 -2.07716 1
gene 1 3 5 2.65038 0 3 2.65038 1
gene 1 4 5 2.44883 0 4 2.44883 1
genomeend 242

/* Organism #243 Fitness: 0.0009 Error: 0 */
genomestart 243
trait 1 0.1 0.358297 0 0.091052 0 0.0155775 0 0 
node 1 1 1 1
node 2 1 1 1
node 3 1 1 1
node 4 1 1 3
node 5 1 0 2
gene 1 1 5 -4.36504 0 1 -4.36504 1
gene 1 2 5 -2.85487 0 2 -2.85487 1
gene 1 3 5 2.21216 0 3 2.21216 1
gene 1 4 5 1.8808 0 4 1.8808 1
genomeend 243

/* Organism #244 Fitness: 0.0041 Error: 0 */
genomestart 244
trait 1 0.1 0.350985 0 0.0891938 0 0.0152596 0 0 
node 1 1 1 1
node 2 1 1 1
node 3 1 1 1
node 4 1 1 3
node 5 1 0 2
gene 1 1 5 -3.11241 0 1 -3.11241 1
gene 1 2 5 -3.13787 0 2 -3.13787 1
gene 1 3 5 3.98535 0 3 3.98535 1
gene 1 4 5 0.889496 0 4 0.889496 1
genomeend 244

/* Organism #245 Fitness: 0.0021 Error: 0 */
genomestart 245
trait 1 0.1 0.248614 0 0.0631789 0 0.0108089 0 0 
node 1 1 1 1
node 2 1 1 1
node 3 1 1 1
node 4 1 1 3
node 5 1 0 2
gene 1 1 5 -2.08748 0 1 -2.08748 1
gene 1 2 5 -2.87518 0 2 -2.87518 1
gene 1 3 5 4.69674 0 3 4.69674 1
gene 1 4 5 1.87962 0 4 1.87962 1
genomeend 245

/* Organism #246 Fitness: 0.0005 Error: 0 */
genomestart 246
trait 1 0.1 0.46798 0 0.118925 0 0.0203462 0 0 
node 1 1 1 1
node 2 1 1 1
node 3 1 1 1
node 4 1 1 3
node 5 1 0 2
gene 1 1 5 -1.91218 0 1 -1.91218 1
gene 1 2 5 -3.36849 0 2 -3.36849 1
gene 1 3 5 1.01063 0 3 1.01063 1
gene 1 4 5 1.95782 0 4 1.95782 1
genomeend 246

/* Organism #247 Fitness: 0.0005 Error: 0 */
genomestart 247
trait 1 0.1 0.46798 0 0.118925 0 0.0203462 0 0 
node 1 1 1 1
node 2 1 1 1
node 3 1 1 1
node 4 1 1 3
node 5 1 0 2
gene 1 1 5 -1.91218 0 1 -1.91218 1
gene 1 2 5 -3.36849 0 2 -3.36849 1
gene 1 3 5 1.01063 0 3 1.01063 1
gene 1 4 5 1.95782 0 4 1.95782 1
genomeend 247

/* Species #9 : (Size 19) (AF 0.00184211) (Age 4)  */


/* Organism #248 Fitness: 0.0033 Error: 0 */
genomestart 248
trait 1 0.1 0 0 0 0 0 0 0 
node 1 1 1 1
node 2 1 1 1
node 3 1 1 1
node 4 1 1 3
node 5 1 0 2
node 8 1 0 0
gene 1 1 5 -1.22548 0 1 -1.22548 1
gene 1 2 5 -0.00184888 0 2 -0.00184888 0
gene 1 3 5 0.769732 0 3 0.769732 1
gene 1 4 5 0.293368 0 4 0.293368 1
gene 1 2 8 0.882214 0 28 0.882214 1
gene 1 8 5 -0.195945 0 29 -0.195945 1
gene 1 3 8 0.96512 0 115 0.96512 1
genomeend 248

/* Organism #249 Fitness: 0.0033 Error: 0 */
genomestart 249
trait 1 0.1 0 0 0 0 0 0 0 
node 1 1 1 1
node 2 1 1 1
node 3 1 1 1
node 4 1 1 3
node 5 1 0 2
node 8 1 0 0
gene 1 1 5 -1.22548 0 1 -1.22548 1
gene 1 2 5 -0.00184888 0 2 -0.00184888 0
gene 1 3 5 0.769732 0 3 0.769732 1
gene 1 4 5 0.293368 0 4 0.293368 1
gene 1 2 8 0.882214 0 28 0.882214 1
gene 1 8 5 -0.195945 0 29 -0.195945 1
gene 1 3 8 0.96512 0 115 0.96512 1
gene 1 1 8 0.0880824 0 209 0.0880824 1
genomeend 249

/* Organism #250 Fitness: 0.0021 Error: 0 */
genomestart 250
trait 1 0.1 0 0 0 0 0 0 0 
node 1 1 1 1
node 2 1 1 1
node 3 1 1 1
node 4 1 1 3
node 5 1 0 2
node 8 1 0 0
gene 1 1 5 -1.63936 0 1 -1.63936 1
gene 1 2 5 0.339454 0 2 0.339454 0
gene 1 3 5 0.986059 0 3 0.986059 1
gene 1 4 5 -1.97123 0 4 -1.97123 1
gene 1 2 8 0.982122 0 28 0.982122 1
gene 1 8 5 1.38282 0 29 1.38282 1
genomeend 250

/* Organism #251 Fitness: 0.0009 Error: 0 */
genomestart 251
trait 1 0.1 0 0 0 0 0 0 0 
node 1 1 1 1
node 2 1 1 1
node 3 1 1 1
node 4 1 1 3
node 5 1 0 2
node 8 1 0 0
gene 1 1 5 -1.63936 0 1 -1.63936 1
gene 1 2 5 0.339454 0 2 0.339454 0
gene 1 3 5 0.769732 0 3 0.769732 1
gene 1 4 5 -0.227935 0 4 -0.227935 1
gene 1 2 8 0.982122 0 28 0.982122 1
gene 1 8 5 -0.195945 0 29 -0.195945 1
gene 1 3 8 0.96512 0 115 0.96512 1
gene 1 8 8 -0.595669 1 210 -0.595669 1
genomeend 251

/* Organism #252 Fitness: 0.0027 Error: 0 */
genomestart 252
trait 1 0.1 0 0 0 0 0 0 0 
node 1 1 1 1
node 2 1 1 1
node 3 1 1 1
node 4 1 1 3
node 5 1 0 2
node 8 1 0 0
gene 1 1 5 -1.85671 0 1 -1.85671 1
gene 1 2 5 -0.158056 0 2 -0.158056 0
gene 1 3 5 0.231945 0 3 0.231945 1
gene 1 4 5 -1.56379 0 4 -1.56379 1
gene 1 2 8 1.51196 0 28 1.51196 1
gene 1 8 5 1.13356 0 29 1.13356 1
genomeend 252

/* Organism #253 Fitness: 0.0031 Error: 0 */
genomestart 253
trait 1 0.1 0 0 0 0 0 0 0 
node 1 1 1 1
node 2 1 1 1
node 3 1 1 1
node 4 1 1 3
node 5 1 0 2
node 8 1 0 0
gene 1 1 5 -1.43242 0 1 -1.43242 1
gene 1 2 5 0.168802 0 2 0.168802 0
gene 1 3 5 1.04151 0 3 1.04151 1
gene 1 4 5 0.0327161 0 4 0.0327161 1
gene 1 2 8 0.932168 0 28 0.932168 1
gene 1 8 5 0.0989782 0 29 0.0989782 1
gene 1 3 8 0.96512 0 115 0.96512 1
genomeend 253

/* Organism #254 Fitness: 0.0033 Error: 0 */
genomestart 254
trait 1 0.1 0 0 0 0 0 0 0 
node 1 1 1 1
node 2 1 1 1
node 3 1 1 1
node 4 1 1 3
node 5 1 0 2
node 8 1 0 0
gene 1 1 5 -1.22548 0 1 -1.22548 1
gene 1 2 5 0.0207175 0 2 0.0207175 0
gene 1 3 5 2.38841 0 3 2.38841 1
gene 1 4 5 -0.340656 0 4 -0.340656 1
gene 1 2 8 0.882214 0 28 0.882214 1
gene 1 8 5 0.0390848 0 29 0.0390848 1
gene 1 3 8 1.80067 0 115 1.80067 1
genomeend 254

/* Organism #255 Fitness: 0.0022 Error: 0 */
genomestart 255
trait 1 0.1 0 0 0 0 0 0 0 
node 1 1 1 1
node 2 1 1 1
node 3 1 1 1
node 4 1 1 3
node 5 1 0 2
node 8 1 0 0
gene 1 1 5 -1.22548 0 1 -1.22548 0
gene 1 2 5 -0.911246 0 2 -0.911246 0
gene 1 3 5 0.986059 0 3 0.986059 1
gene 1 4 5 -1.97123 0 4 -1.97123 1
gene 1 2 8 2.0418 0 28 2.0418 1
gene 1 8 5 1.18067 0 29 1.18067 1
genomeend 255

/* Organism #256 Fitness: 0.0017 Error: 0 */
genomestart 256
trait 1 0.1 0 0 0 0 0 0 0 
node 1 1 1 1
node 2 1 1 1
node 3 1 1 1
node 4 1 1 3
node 5 1 0 2
node 8 1 0 0
gene 1 1 5 -1.95236 0 1 -1.95236 1
gene 1 2 5 1.74408 0 2 1.74408 1
gene 1 3 5 2.21273 0 3 2.21273 1
gene 1 4 5 0.693356 0 4 0.693356 1
gene 1 2 8 1.97587 0 28 1.97587 1
gene 1 8 5 -0.332529 0 29 -0.332529 1
gene 1 3 8 1.77678 0 115 1.77678 1
genomeend 256

/* Organism #257 Fitness: 0.0019 Error: 0 */
genomestart 257
trait 1 0.1 0 0 0 0 0 0 0 
node 1 1 1 1
node 2 1 1 1
node 3 1 1 1
node 4 1 1 3
node 5 1 0 2
node 8 1 0 0
gene 1 1 5 -1.11579 0 1 -1.11579 1
gene 1 2 5 -0.563508 0 2 -0.563508 1
gene 1 3 5 1.98478 0 3 1.98478 1
gene 1 4 5 1.73924 0 4 1.73924 1
gene 1 2 8 2.05608 0 28 2.05608 1
gene 1 8 5 -0.465665 0 29 -0.465665 1
gene 1 3 8 1.3577 0 115 1.3577 1
genomeend 257

/* Organism #258 Fitness: 0.0006 Error: 0 */
genomestart 258
trait 1 0.1 0 0 0 0 0 0 0 
node 1 1 1 1
node 2 1 1 1
node 3 1 1 1
node 4 1 1 3
node 5 1 0 2
node 8 1 0 0
gene 1 1 5 -2.07294 0 1 -2.07294 1
gene 1 2 5 -0.992274 0 2 -0.992274 0
gene 1 3 5 1.70979 0 3 1.70979 1
gene 1 4 5 0.352727 0 4 0.352727 1
gene 1 2 8 0.878654 0 28 0.878654 1
gene 1 8 5 0.631509 0 29 0.631509 1
gene 1 3 8 -0.686988 0 115 -0.686988 1
genomeend 258

/* Organism #259 Fitness: 0.0004 Error: 0 */
genomestart 259
trait 1 0.1 0 0 0 0 0 0 0 
node 1 1 1 1
node 2 1 1 1
node 3 1 1 1
node 4 1 1 3
node 5 1 0 2
node 8 1 0 0
gene 1 1 5 -0.797271 0 1 -0.797271 1
gene 1 2 5 -0.643485 0 2 -0.643485 0
gene 1 3 5 0.986059 0 3 0.986059 1
gene 1 4 5 -3.19533 0 4 -3.19533 1
gene 1 2 8 -0.835205 0 28 -0.835205 1
gene 1 8 5 -0.0341748 0 29 -0.0341748 1
gene 1 3 8 0.0449586 0 115 0.0449586 1
genomeend 259

/* Organism #260 Fitness: 0.0005 Error: 0 */
genomestart 260
trait 1 0.1 0 0 0 0 0 0 0 
node 1 1 1 1
node 2 1 1 1
node 3 1 1 1
node 4 1 1 3
node 5 1 0 2
node 8 1 0 0
gene 1 1 5 -1.22548 0 1 -1.22548 1
gene 1 2 5 -1.59997 0 2 -1.59997 0
gene 1 3 5 0.986059 0 3 0.986059 1
gene 1 4 5 -2.78731 0 4 -2.78731 1
gene 1 2 8 1.93653 0 28 1.93653 1
gene 1 8 5 1.18067 0 29 1.18067 1
gene 1 3 8 0.648717 0 115 0.648717 1
genomeend 260

/* Organism #261 Fitness: 0.002 Error: 0 */
genomestart 261
trait 1 0.1 0 0 0 0 0 0 0 
node 1 1 1 1
node 2 1 1 1
node 3 1 1 1
node 4 1 1 3
node 5 1 0 2
node 8 1 0 0
gene 1 1 5 -1.22548 0 1 -1.22548 1
gene 1 2 5 -1.7922 0 2 -1.7922 0
gene 1 3 5 0.986059 0 3 0.986059 1
gene 1 4 5 -1.97123 0 4 -1.97123 1
gene 1 2 8 1.93653 0 28 1.93653 1
gene 1 8 5 1.18067 0 29 1.18067 1
gene 1 3 8 0.96512 0 115 0 1
genomeend 261

/* Organism #262 Fitness: 0.0019 Error: 0 */
genomestart 262
trait 1 0.1 0 0 0 0 0 0 0 
node 1 1 1 1
node 2 1 1 1
node 3 1 1 1
node 4 1 1 3
node 5 1 0 2
node 8 1 0 0
gene 1 1 5 0.569429 0 1 0.569429 1
gene 1 2 5 0.918062 0 2 0.918062 1
gene 1 3 5 1.73867 0 3 1.73867 1
gene 1 4 5 -1.50551 0 4 -1.50551 1
gene 1 2 8 0.10592 0 28 0.10592 1
gene 1 8 5 0.725616 0 29 0.725616 1
gene 1 3 8 0.304126 0 115 0.304126 1
genomeend 262

/* Organism #263 Fitness: 0.0004 Error: 0 */
genomestart 263
trait 1 0.1 0 0 0 0 0 0 0 
node 1 1 1 1
node 2 1 1 1
node 3 1 1 1
node 4 1 1 3
node 5 1 0 2
node 8 1 0 0
gene 1 1 5 -1.40642 0 1 -1.40642 1
gene 1 2 5 -0.142401 0 2 -0.142401 0
gene 1 3 5 -0.691874 0 3 -0.691874 1
gene 1 4 5 -3.16796 0 4 -3.16796 1
gene 1 2 8 1.15983 0 28 1.15983 1
gene 1 8 5 0.521716 0 29 0.521716 1
gene 1 3 8 1.71436 0 115 1.71436 1
genomeend 263

/* Organism #264 Fitness: 0.0018 Error: 0 */
genomestart 264
trait 1 0.1 0 0 0 0 0 0 0 
node 1 1 1 1
node 2 1 1 1
node 3 1 1 1
node 4 1 1 3
node 5 1 0 2
node 8 1 0 0
gene 1 1 5 -1.43787 0 1 -1.43787 0
gene 1 2 5 -1.25561 0 2 -1.25561 1
gene 1 3 5 1.58616 0 3 1.58616 1
gene 1 4 5 -2.28916 0 4 -2.28916 1
gene 1 2 8 2.42211 0 28 2.42211 1
gene 1 8 5 1.55227 0 29 1.55227 1
gene 1 3 8 0.648717 0 115 0.648717 1
genomeend 264

/* Organism #265 Fitness: 0.0024 Error: 0 */
genomestart 265
trait 1 0.1 0 0 0 0 0 0 0 
node 1 1 1 1
node 2 1 1 1
node 3 1 1 1
node 4 1 1 3
node 5 1 0 2
node 8 1 0 0
gene 1 1 5 -0.963857 0 1 -0.963857 0
gene 1 2 5 0.763245 0 2 0.763245 0
gene 1 3 5 2.47163 0 3 2.47163 1
gene 1 4 5 -0.855347 0 4 -0.855347 1
gene 1 2 8 3.46204 0 28 3.46204 1
gene 1 8 5 0.823321 0 29 0.823321 1
gene 1 3 8 -0.237167 0 115 -0.237167 1
genomeend 265

/* Organism #266 Fitness: 0.0005 Error: 0 */
genomestart 266
trait 1 0.1 0 0 0.622536 0 0.193585 0 0 
node 1 1 1 1
node 2 1 1 1
node 3 1 1 1
node 4 1 1 3
node 5 1 0 2
node 8 1 0 0
gene 1 1 5 -2.52863 0 1 -2.52863 0
gene 1 2 5 0.987552 0 2 0.987552 0
gene 1 3 5 0.887013 0 3 0.887013 0
gene 1 4 5 -0.228948 0 4 -0.228948 1
gene 1 2 8 2.99656 0 28 2.99656 1
gene 1 8 5 3.12833 0 29 3.12833 1
gene 1 3 8 0.0391276 0 115 0.0391276 1
genomeend 266

/* Species #10 : (Size 16) (AF 0.00183125) (Age 4)  */


/* Organism #267 Fitness: 0.002 Error: 0 */
genomestart 267
trait 1 0.1 0 0 0 0 0 0 0 
node 1 1 1 1
node 2 1 1 1
node 3 1 1 1
node 4 1 1 3
node 5 1 0 2
node 8 1 0 0
gene 1 1 5 -1.22548 0 1 -1.22548 0
gene 1 2 5 -0.911246 0 2 -0.911246 0
gene 1 3 5 0.986059 0 3 0.986059 1
gene 1 4 5 -1.79101 0 4 -1.79101 1
gene 1 2 8 1.93653 0 28 1.93653 1
gene 1 8 5 1.18067 0 29 1.18067 1
gene 1 3 8 0.735753 0 207 0 1
genomeend 267

/* Organism #268 Fitness: 0.0013 Error: 0 */
genomestart 268
trait 1 0.1 0 0 0 0 0 0 0 
node 1 1 1 1
node 2 1 1 1
node 3 1 1 1
node 4 1 1 3
node 5 1 0 2
node 8 1 0 0
gene 1 1 5 -1.22548 0 1 -1.22548 0
gene 1 2 5 -0.911246 0 2 -0.911246 0
gene 1 3 5 0.986059 0 3 0.986059 1
gene 1 4 5 -1.79101 0 4 -1.79101 1
gene 1 2 8 1.93653 0 28 1.93653 1
gene 1 8 5 1.18067 0 29 1.18067 1
gene 1 4 8 0.524279 0 213 0.524279 1
genomeend 268

/* Organism #269 Fitness: 0.0033 Error: 0 */
genomestart 269
trait 1 0.1 0 0 0 0 0 0 0 
node 1 1 1 1
node 2 1 1 1
node 3 1 1 1
node 4 1 1 3
node 5 1 0 2
node 8 1 0 0
gene 1 1 5 -1.22548 0 1 -1.22548 1
gene 1 2 5 -1.7922 0 2 -1.7922 0
gene 1 3 5 0.986059 0 3 0.986059 1
gene 1 4 5 -1.97123 0 4 -1.97123 1
gene 1 2 8 1.93653 0 28 1.93653 1
gene 1 8 5 1.18067 0 29 1.18067 1
gene 1 3 8 0.96512 0 115 0 1
gene 1 4 8 0.79194 0 164 0 1
genomeend 269

/* Organism #270 Fitness: 0.0005 Error: 0 */
genomestart 270
trait 1 0.1 0 0 0 0 0 0 0 
node 1 1 1 1
node 2 1 1 1
node 3 1 1 1
node 4 1 1 3
node 5 1 0 2
node 8 1 0 0
gene 1 1 5 -0.654618 0 1 -0.654618 1
gene 1 2 5 -2.6556 0 2 -2.6556 1
gene 1 3 5 0.986059 0 3 0.986059 1
gene 1 4 5 -2.16731 0 4 -2.16731 1
gene 1 2 8 1.93653 0 28 1.93653 1
gene 1 8 5 1.18067 0 29 1.18067 1
gene 1 3 8 0.361644 0 163 0 1
genomeend 270

/* Organism #271 Fitness: 0.0033 Error: 0 */
genomestart 271
trait 1 0.1 0 0 0 0 0 0 0 
node 1 1 1 1
node 2 1 1 1
node 3 1 1 1
node 4 1 1 3
node 5 1 0 2
node 8 1 0 0
gene 1 1 5 -1.22548 0 1 -1.22548 1
gene 1 2 5 -1.7922 0 2 -1.7922 0
gene 1 3 5 0.986059 0 3 0.986059 1
gene 1 4 5 -1.97123 0 4 -1.97123 1
gene 1 2 8 1.93653 0 28 1.93653 1
