
/* Species #1 : (Size 27) (AF 0.0256607) (Age 13)  */


/* Organism #0 Fitness: 0.103634 Error: 0 */
genomestart 0
trait 1 0.1 0.297515 0 0.0756057 0 0.0129349 0 0 
node 1 1 1 1
node 2 1 1 1
node 3 1 1 1
node 4 1 1 3
node 5 1 0 2
gene 1 1 5 -1.38278 0 1 -1.38278 1
gene 1 2 5 -2.24967 0 2 -2.24967 1
gene 1 3 5 1.918 0 3 1.918 1
gene 1 4 5 0.898415 0 4 0.898415 1
gene 1 5 5 -0.916685 1 161 -0.916685 1
genomeend 0

/* Organism #1 Fitness: 0.0292857 Error: 0 */
genomestart 1
trait 1 0.1 0.248614 0 0.0631789 0 0.0108089 0 0 
node 1 1 1 1
node 2 1 1 1
node 3 1 1 1
node 4 1 1 3
node 5 1 0 2
gene 1 1 5 -1.38278 0 1 -1.38278 1
gene 1 2 5 -2.78771 0 2 -2.78771 1
gene 1 3 5 2.33276 0 3 2.33276 1
gene 1 4 5 0.794316 0 4 0.794316 1
gene 1 5 5 -0.916685 1 161 -0.916685 1
genomeend 1

/* Organism #2 Fitness: 0.0097 Error: 0 */
genomestart 2
trait 1 0.1 0.279463 0 0.0710182 0 0.0121501 0 0 
node 1 1 1 1
node 2 1 1 1
node 3 1 1 1
node 4 1 1 3
node 5 1 0 2
gene 1 1 5 -1.38278 0 1 -1.38278 1
gene 1 2 5 -2.78771 0 2 -2.78771 1
gene 1 3 5 1.918 0 3 1.918 1
gene 1 4 5 0.898415 0 4 0.898415 1
gene 1 5 5 -0.916685 1 161 -0.916685 1
genomeend 2

/* Organism #3 Fitness: 0.0004 Error: 0 */
genomestart 3
trait 1 0.1 0.255013 0 0.0648049 0 0.0110871 0 0 
node 1 1 1 1
node 2 1 1 1
node 3 1 1 1
node 4 1 1 3
node 5 1 0 2
gene 1 1 5 1.52844 0 1 1.52844 1
gene 1 2 5 -2.61513 0 2 -2.61513 1
gene 1 3 5 2.33276 0 3 2.33276 1
gene 1 4 5 -0.905572 0 4 -0.905572 1
gene 1 5 5 -1.54866 1 161 -1.54866 1
genomeend 3

/* Organism #4 Fitness: 0.0034 Error: 0 */
genomestart 4
trait 1 0.1 0.255013 0 0.0648049 0 0.0110871 0 0 
node 1 1 1 1
node 2 1 1 1
node 3 1 1 1
node 4 1 1 3
node 5 1 0 2
gene 1 1 5 -0.476903 0 1 -0.476903 1
gene 1 2 5 -1.59234 0 2 -1.59234 1
gene 1 3 5 3.01947 0 3 3.01947 1
gene 1 4 5 2.50081 0 4 2.50081 1
gene 1 5 5 -2.01553 1 161 -2.01553 1
genomeend 4

/* Organism #5 Fitness: 0.0292857 Error: 0 */
genomestart 5
trait 1 0.1 0.255013 0 0.0648049 0 0.0110871 0 0 
node 1 1 1 1
node 2 1 1 1
node 3 1 1 1
node 4 1 1 3
node 5 1 0 2
gene 1 1 5 -1.38278 0 1 -1.38278 1
gene 1 2 5 -2.78771 0 2 -2.78771 1
gene 1 3 5 2.33276 0 3 2.33276 1
gene 1 4 5 0.794316 0 4 0.794316 1
gene 1 5 5 -0.916685 1 161 -0.916685 1
genomeend 5

/* Organism #6 Fitness: 0.0021 Error: 0 */
genomestart 6
trait 1 0.1 0.279463 0 0.0710182 0.543009 0.0121501 0.43184 0.424544 
node 1 1 1 1
node 2 1 1 1
node 3 1 1 1
node 4 1 1 3
node 5 1 0 2
gene 1 1 5 -1.38278 0 1 -1.38278 1
gene 1 2 5 -2.78771 0 2 -2.78771 1
gene 1 3 5 1.918 0 3 1.918 1
gene 1 4 5 0.794316 0 4 0.794316 1
gene 1 5 5 -0.916685 1 161 -0.916685 1
genomeend 6

/* Organism #7 Fitness: 0.0092 Error: 0 */
genomestart 7
trait 1 0.1 0.255013 0 0.0648049 0 0.0110871 0 0 
node 1 1 1 1
node 2 1 1 1
node 3 1 1 1
node 4 1 1 3
node 5 1 0 2
gene 1 1 5 -1.9593 0 1 -1.9593 1
gene 1 2 5 -4.53189 0 2 -4.53189 1
gene 1 3 5 3.21967 0 3 3.21967 1
gene 1 4 5 2.0128 0 4 2.0128 1
gene 1 5 5 -0.916685 1 161 -0.916685 1
genomeend 7

/* Organism #8 Fitness: 0.003 Error: 0 */
genomestart 8
trait 1 0.1 0.261411 0 0.0664308 0 0.0113652 0 0 
node 1 1 1 1
node 2 1 1 1
node 3 1 1 1
node 4 1 1 3
node 5 1 0 2
gene 1 1 5 -1.65388 0 1 -1.65388 1
gene 1 2 5 -1.48518 0 2 -1.48518 1
gene 1 3 5 1.45932 0 3 1.45932 1
gene 1 4 5 1.29602 0 4 1.29602 1
gene 1 5 5 -0.545255 1 161 -0.545255 1
genomeend 8

/* Organism #9 Fitness: 0.103634 Error: 0 */
genomestart 9
trait 1 0.1 0.273065 0 0.0693923 0 0.0118719 0 0 
node 1 1 1 1
node 2 1 1 1
node 3 1 1 1
node 4 1 1 3
node 5 1 0 2
gene 1 1 5 -1.38278 0 1 -1.38278 1
gene 1 2 5 -2.24967 0 2 -2.24967 1
gene 1 3 5 1.918 0 3 1.918 1
gene 1 4 5 0.898415 0 4 0.898415 1
gene 1 5 5 -0.916685 1 161 -0.916685 1
genomeend 9

/* Organism #10 Fitness: 0.0292857 Error: 0 */
genomestart 10
trait 1 0.1 0.248614 0 0.0631789 0 0.0108089 0 0 
node 1 1 1 1
node 2 1 1 1
node 3 1 1 1
node 4 1 1 3
node 5 1 0 2
gene 1 1 5 -1.38278 0 1 -1.38278 1
gene 1 2 5 -2.78771 0 2 -2.78771 1
gene 1 3 5 2.33276 0 3 2.33276 1
gene 1 4 5 0.794316 0 4 0.794316 1
gene 1 5 5 -0.916685 1 161 -0.916685 1
genomeend 10

/* Organism #11 Fitness: 0.0035 Error: 0 */
genomestart 11
trait 1 0.1 0.248614 0 0.0631789 0 0.0108089 0 0 
node 1 1 1 1
node 2 1 1 1
node 3 1 1 1
node 4 1 1 3
node 5 1 0 2
gene 1 1 5 -0.805686 0 1 -0.805686 1
gene 1 2 5 -4.52962 0 2 -4.52962 1
gene 1 3 5 3.93851 0 3 3.93851 1
gene 1 4 5 1.45896 0 4 1.45896 1
gene 1 5 5 -0.27627 1 161 -0.27627 1
genomeend 11

/* Organism #12 Fitness: 0.0292857 Error: 0 */
genomestart 12
trait 1 0.1 0.261411 0 0.0664308 0 0.0113652 0 0 
node 1 1 1 1
node 2 1 1 1
node 3 1 1 1
node 4 1 1 3
node 5 1 0 2
gene 1 1 5 -1.38278 0 1 -1.38278 1
gene 1 2 5 -2.78771 0 2 -2.78771 1
gene 1 3 5 2.33276 0 3 2.33276 1
gene 1 4 5 0.794316 0 4 0.794316 1
gene 1 5 5 -0.916685 1 161 -0.916685 1
genomeend 12

/* Organism #13 Fitness: 0.0005 Error: 0 */
genomestart 13
trait 1 0.1 0.255013 0 0.0648049 0 0.0110871 0 0 
node 1 1 1 1
node 2 1 1 1
node 3 1 1 1
node 4 1 1 3
node 5 1 0 2
gene 1 1 5 -0.0838789 0 1 -0.0838789 1
gene 1 2 5 -1.29109 0 2 -1.29109 1
gene 1 3 5 1.07889 0 3 1.07889 1
gene 1 4 5 -0.416748 0 4 -0.416748 1
gene 1 5 5 -1.46377 1 161 -1.46377 1
genomeend 13

/* Organism #14 Fitness: 0.0019 Error: 0 */
genomestart 14
trait 1 0.1 0.248614 0 0.0631789 0 0.0108089 0 0 
node 1 1 1 1
node 2 1 1 1
node 3 1 1 1
node 4 1 1 3
node 5 1 0 2
gene 1 1 5 -0.295791 0 1 -0.295791 1
gene 1 2 5 -3.95639 0 2 -3.95639 1
gene 1 3 5 1.93292 0 3 1.93292 1
gene 1 4 5 1.55031 0 4 1.55031 1
gene 1 5 5 0.277321 1 161 0.277321 1
genomeend 14

/* Organism #15 Fitness: 0.0579379 Error: 0 */
genomestart 15
trait 1 0.1 0.279463 0 0.0710182 0 0.0121501 0 0 
node 1 1 1 1
node 2 1 1 1
node 3 1 1 1
node 4 1 1 3
node 5 1 0 2
gene 1 1 5 -1.38278 0 1 -1.38278 1
gene 1 2 5 -2.51869 0 2 -2.51869 1
gene 1 3 5 2.12538 0 3 2.12538 1
gene 1 4 5 0.846365 0 4 0.846365 1
gene 1 5 5 -0.916685 1 161 -0.916685 1
genomeend 15

/* Organism #16 Fitness: 0.0292857 Error: 0 */
genomestart 16
trait 1 0.1 0.248614 0 0.0631789 0 0.0108089 0 0 
node 1 1 1 1
node 2 1 1 1
node 3 1 1 1
node 4 1 1 3
node 5 1 0 2
gene 1 1 5 -1.38278 0 1 -1.38278 1
gene 1 2 5 -2.78771 0 2 -2.78771 1
gene 1 3 5 2.33276 0 3 2.33276 1
gene 1 4 5 0.794316 0 4 0.794316 1
gene 1 5 5 -0.916685 1 161 -0.916685 1
genomeend 16

/* Organism #17 Fitness: 0.0156117 Error: 0 */
genomestart 17
trait 1 0.1 0.273065 0 0.0693923 0 0.0118719 0 0 
node 1 1 1 1
node 2 1 1 1
node 3 1 1 1
node 4 1 1 3
node 5 1 0 2
gene 1 1 5 -1.38278 0 1 -1.38278 1
gene 1 2 5 -2.24967 0 2 -2.24967 1
gene 1 3 5 2.33276 0 3 2.33276 1
gene 1 4 5 0.898415 0 4 0.898415 1
gene 1 5 5 -0.916685 1 161 -0.916685 1
genomeend 17

/* Organism #18 Fitness: 0.0398544 Error: 0 */
genomestart 18
trait 1 0.1 0.273065 0 0.0693923 0 0.0118719 0 0 
node 1 1 1 1
node 2 1 1 1
node 3 1 1 1
node 4 1 1 3
node 5 1 0 2
gene 1 1 5 -1.38278 0 1 -1.38278 1
gene 1 2 5 -2.24967 0 2 -2.24967 1
gene 1 3 5 1.918 0 3 1.918 1
gene 1 4 5 0.794316 0 4 0.794316 1
gene 1 5 5 -0.916685 1 161 -0.916685 1
genomeend 18

/* Organism #19 Fitness: 0.0005 Error: 0 */
genomestart 19
trait 1 0.1 0.248614 0 0.0631789 0 0.0108089 0 0 
node 1 1 1 1
node 2 1 1 1
node 3 1 1 1
node 4 1 1 3
node 5 1 0 2
gene 1 1 5 -0.160228 0 1 -0.160228 1
gene 1 2 5 -2.84778 0 2 -2.84778 1
gene 1 3 5 2.26884 0 3 2.26884 1
gene 1 4 5 -0.0767738 0 4 -0.0767738 1
gene 1 5 5 -2.19085 1 161 -2.19085 1
genomeend 19

/* Organism #20 Fitness: 0.0029 Error: 0 */
genomestart 20
trait 1 0.1 0.273065 0 0.0693923 0 0.0118719 0 0 
node 1 1 1 1
node 2 1 1 1
node 3 1 1 1
node 4 1 1 3
node 5 1 0 2
gene 1 1 5 -1.18423 0 1 -1.18423 1
gene 1 2 5 -3.52282 0 2 -3.52282 1
gene 1 3 5 2.10515 0 3 2.10515 1
gene 1 4 5 2.16307 0 4 2.16307 1
gene 1 5 5 -0.741188 1 161 -0.741188 1
genomeend 20

/* Organism #21 Fitness: 0.0137917 Error: 0 */
genomestart 21
trait 1 0.1 0.273065 0 0.0693923 0 0.0118719 0 0 
node 1 1 1 1
node 2 1 1 1
node 3 1 1 1
node 4 1 1 3
node 5 1 0 2
gene 1 1 5 -1.38278 0 1 -1.38278 1
gene 1 2 5 -2.24967 0 2 -2.24967 1
gene 1 3 5 2.33276 0 3 2.33276 1
gene 1 4 5 0.794316 0 4 0.794316 1
gene 1 5 5 -0.916685 1 161 -0.916685 1
genomeend 21

/* Organism #22 Fitness: 0.0292857 Error: 0 */
genomestart 22
trait 1 0.1 0.255013 0 0.0648049 0 0.0110871 0 0 
node 1 1 1 1
node 2 1 1 1
node 3 1 1 1
node 4 1 1 3
node 5 1 0 2
gene 1 1 5 -1.38278 0 1 -1.38278 1
gene 1 2 5 -2.78771 0 2 -2.78771 1
gene 1 3 5 2.33276 0 3 2.33276 1
gene 1 4 5 0.794316 0 4 0.794316 1
gene 1 5 5 -0.916685 1 161 -0.916685 1
genomeend 22

/* Organism #23 Fitness: 0.0004 Error: 0 */
genomestart 23
trait 1 0.1 0.297515 0 0.0756057 0 0.0129349 0 0 
node 1 1 1 1
node 2 1 1 1
node 3 1 1 1
node 4 1 1 3
node 5 1 0 2
gene 1 1 5 -2.55847 0 1 -2.55847 1
gene 1 2 5 -1.98471 0 2 -1.98471 1
gene 1 3 5 0.439969 0 3 0.439969 1
gene 1 4 5 -0.537216 0 4 -0.537216 1
gene 1 5 5 -0.916685 1 161 -0.916685 1
genomeend 23

/* Organism #24 Fitness: 0.0579379 Error: 0 */
genomestart 24
trait 1 0.1 0.273065 0 0.0693923 0 0.0118719 0 0 
node 1 1 1 1
node 2 1 1 1
node 3 1 1 1
node 4 1 1 3
node 5 1 0 2
gene 1 1 5 -1.38278 0 1 -1.38278 1
gene 1 2 5 -2.51869 0 2 -2.51869 1
gene 1 3 5 2.12538 0 3 2.12538 1
gene 1 4 5 0.846365 0 4 0.846365 1
gene 1 5 5 -0.916685 1 161 -0.916685 1
genomeend 24

/* Organism #25 Fitness: 0.0579379 Error: 0 */
genomestart 25
trait 1 0.1 0.273065 0 0.0693923 0 0.0118719 0 0 
node 1 1 1 1
node 2 1 1 1
node 3 1 1 1
node 4 1 1 3
node 5 1 0 2
gene 1 1 5 -1.38278 0 1 -1.38278 1
gene 1 2 5 -2.51869 0 2 -2.51869 1
gene 1 3 5 2.12538 0 3 2.12538 1
gene 1 4 5 0.846365 0 4 0.846365 1
gene 1 5 5 -0.916685 1 161 -0.916685 1
genomeend 25

/* Organism #26 Fitness: 0.0292857 Error: 0 */
genomestart 26
trait 1 0.1 0.248614 0 0.0631789 0 0.0108089 0 0 
node 1 1 1 1
node 2 1 1 1
node 3 1 1 1
node 4 1 1 3
node 5 1 0 2
gene 1 1 5 -1.38278 0 1 -1.38278 1
gene 1 2 5 -2.78771 0 2 -2.78771 1
gene 1 3 5 2.33276 0 3 2.33276 1
gene 1 4 5 0.794316 0 4 0.794316 1
gene 1 5 5 -0.916685 1 161 -0.916685 1
genomeend 26

/* Species #2 : (Size 5) (AF 0.00448) (Age 12)  */


/* Organism #27 Fitness: 0.0031 Error: 0 */
genomestart 27
trait 1 0.147472 0.0721046 0.246934 0.0866245 0.00766432 0.00286118 0.0561821 0.0730661 
node 1 1 1 1
node 2 1 1 1
node 3 1 1 1
node 4 1 1 3
node 5 1 0 2
gene 1 1 5 1.92454 0 1 1.92454 1
gene 1 2 5 2.27093 0 2 2.27093 1
gene 1 3 5 6.39137 0 3 6.39137 1
gene 1 4 5 1.36271 0 4 1.36271 1
gene 1 5 5 -0.873544 1 85 -0.873544 1
genomeend 27

/* Organism #28 Fitness: 0.0065 Error: 0 */
genomestart 28
trait 1 0.14264 0.0489877 0.154756 0.0758873 0.00622726 0.00190745 0.0736623 0.0649391 
node 1 1 1 1
node 2 1 1 1
node 3 1 1 1
node 4 1 1 3
node 5 1 0 2
gene 1 1 5 0.731227 0 1 0.731227 1
gene 1 2 5 2.89167 0 2 2.89167 1
gene 1 3 5 4.06017 0 3 4.06017 1
gene 1 4 5 -0.382099 0 4 -0.382099 1
gene 1 5 5 -1.56956 1 85 -1.56956 1
genomeend 28

/* Organism #29 Fitness: 0.0065 Error: 0 */
genomestart 29
trait 1 0.14103 0.0412821 0.12403 0.0723083 0.00574824 0.00158954 0.079489 0.0622301 
node 1 1 1 1
node 2 1 1 1
node 3 1 1 1
node 4 1 1 3
node 5 1 0 2
gene 1 1 5 0.731227 0 1 0.731227 1
gene 1 2 5 2.89167 0 2 2.89167 1
gene 1 3 5 4.06017 0 3 4.06017 1
gene 1 4 5 -0.382099 0 4 -0.382099 1
gene 1 5 5 -1.56956 1 85 -1.56956 1
genomeend 29

/* Organism #30 Fitness: 0.0053 Error: 0 */
genomestart 30
trait 1 0.145861 0.064399 0.216208 0.0830454 0.0071853 0.00254327 0.0620089 0.0703571 
node 1 1 1 1
node 2 1 1 1
node 3 1 1 1
node 4 1 1 3
node 5 1 0 2
gene 1 1 5 0.74737 0 1 0.74737 1
gene 1 2 5 2.82352 0 2 2.82352 1
gene 1 3 5 3.98144 0 3 3.98144 1
gene 1 4 5 -0.444066 0 4 -0.444066 1
gene 1 5 5 -1.52718 1 85 -1.52718 1
genomeend 30

/* Organism #31 Fitness: 0.001 Error: 0 */
genomestart 31
trait 1 0.08221 0.0204584 0.00429285 0.579525 0.0347013 0.0256554 0.0761914 0.16905 
node 1 1 1 1
node 2 1 1 1
node 3 1 1 1
node 4 1 1 3
node 5 1 0 2
gene 1 1 5 1.29377 0 1 1.29377 1
gene 1 2 5 2.22323 0 2 2.22323 1
gene 1 3 5 3.2825 0 3 3.2825 1
gene 1 4 5 -0.258512 0 4 -0.258512 1
gene 1 5 5 -2.97986 1 256 -2.97986 1
genomeend 31

/* Species #3 : (Size 5) (AF 0.00208) (Age 12)  */


/* Organism #32 Fitness: 0.0005 Error: 0 */
genomestart 32
trait 1 0.25912 0.16046 0.073202 0.0910796 0 0 0.0625905 0.122052 
node 1 1 1 1
node 2 1 1 1
node 3 1 1 1
node 4 1 1 3
node 5 1 0 2
node 7 1 0 0
gene 1 1 5 0.467814 0 1 0.467814 1
gene 1 2 5 1.10065 0 2 1.10065 1
gene 1 3 5 -0.222462 0 3 -0.222462 1
gene 1 4 5 -0.862464 0 4 -0.862464 1
gene 1 1 7 -0.230641 0 23 -0.230641 1
gene 1 7 5 0.353735 0 24 0.353735 1
gene 1 3 7 0.800548 0 147 0.800548 1
gene 1 2 7 0.68255 0 413 0.68255 1
gene 1 4 7 -0.930062 0 493 -0.930062 1
genomeend 32

/* Organism #33 Fitness: 0.0005 Error: 0 */
genomestart 33
trait 1 0.25912 0.16046 0.073202 0.0910796 0 0 0.0625905 0.122052 
node 1 1 1 1
node 2 1 1 1
node 3 1 1 1
node 4 1 1 3
node 5 1 0 2
node 7 1 0 0
gene 1 1 5 -0.107422 0 1 -0.107422 1
gene 1 2 5 1.66731 0 2 1.66731 1
gene 1 3 5 0.97844 0 3 0.97844 1
gene 1 4 5 -1.62433 0 4 -1.62433 1
gene 1 1 7 -0.472256 0 23 -0.472256 1
gene 1 7 5 -0.173802 0 24 -0.173802 1
gene 1 3 7 -1.14705 0 147 -1.14705 1
gene 1 2 7 -2.51663 0 413 -2.51663 1
gene 1 4 7 -0.625507 0 493 -0.625507 1
genomeend 33

/* Organism #34 Fitness: 0.0045 Error: 0 */
genomestart 34
trait 1 0.25912 0.16046 0.073202 0.0910796 0 0 0.0625905 0.122052 
node 1 1 1 1
node 2 1 1 1
node 3 1 1 1
node 4 1 1 3
node 5 1 0 2
node 7 1 0 0
gene 1 1 5 -0.940205 0 1 -0.940205 1
gene 1 2 5 0.0551075 0 2 0.0551075 1
gene 1 3 5 0.776182 0 3 0.776182 1
gene 1 4 5 -0.0789505 0 4 -0.0789505 1
gene 1 1 7 1 0 23 0 1
gene 1 7 5 -0.106401 0 24 0 1
gene 1 3 7 -0.647181 0 147 -0.647181 1
gene 1 2 7 -0.737946 0 413 -0.737946 1
gene 1 4 7 -0.802813 0 493 0 1
genomeend 34

/* Organism #35 Fitness: 0.0004 Error: 0 */
genomestart 35
trait 1 0.25912 0.16046 0.073202 0.0910796 0 0 0.0625905 0.122052 
node 1 1 1 1
node 2 1 1 1
node 3 1 1 1
node 4 1 1 3
node 5 1 0 2
node 7 1 0 0
gene 1 1 5 -1.97717 0 1 -1.97717 1
gene 1 2 5 0.131936 0 2 0.131936 1
gene 1 3 5 0.183365 0 3 0.183365 1
gene 1 4 5 -1.55014 0 4 -1.55014 1
gene 1 1 7 1.29494 0 23 1.29494 1
gene 1 7 5 -0.851077 0 24 -0.851077 1
gene 1 3 7 -2.38948 0 147 -2.38948 1
gene 1 2 7 1.40833 0 413 1.40833 1
gene 1 4 7 0.771429 0 493 0.771429 1
genomeend 35

/* Organism #36 Fitness: 0.0045 Error: 0 */
genomestart 36
trait 1 0.25912 0.16046 0.073202 0.0910796 0 0 0.0625905 0.122052 
node 1 1 1 1
node 2 1 1 1
node 3 1 1 1
node 4 1 1 3
node 5 1 0 2
node 7 1 0 0
gene 1 1 5 -0.940205 0 1 -0.940205 1
gene 1 2 5 0.0551075 0 2 0.0551075 1
gene 1 3 5 0.776182 0 3 0.776182 1
gene 1 4 5 -0.0789505 0 4 -0.0789505 1
gene 1 1 7 1 0 23 0 1
gene 1 7 5 -0.106401 0 24 0 1
gene 1 3 7 -0.647181 0 147 -0.647181 1
gene 1 2 7 -0.737946 0 413 -0.737946 1
gene 1 4 7 -0.802813 0 493 0 1
genomeend 36

/* Species #5 : (Size 7) (AF 0.00222857) (Age 12)  */


/* Organism #37 Fitness: 0.0024 Error: 0 */
genomestart 37
trait 1 0.151536 0.325003 0.00450196 0.191779 0.0153286 0.0114249 0.13595 0.086688 
node 1 1 1 1
node 2 1 1 1
node 3 1 1 1
node 4 1 1 3
node 5 1 0 2
gene 1 1 5 1.1309 0 1 1.1309 1
gene 1 2 5 0.74031 0 2 0.74031 1
gene 1 3 5 6.99466 0 3 6.99466 1
gene 1 4 5 -1.15085 0 4 -1.15085 1
gene 1 5 5 -3.24812 1 306 -3.24812 1
genomeend 37

/* Organism #38 Fitness: 0.0023 Error: 0 */
genomestart 38
trait 1 0.151536 0.325003 0.00450196 0.191779 0.0153286 0.0114249 0.13595 0.086688 
node 1 1 1 1
node 2 1 1 1
node 3 1 1 1
node 4 1 1 3
node 5 1 0 2
gene 1 1 5 2.64893 0 1 2.64893 1
gene 1 2 5 1.69315 0 2 1.69315 1
gene 1 3 5 6.82116 0 3 6.82116 1
gene 1 4 5 -1.09034 0 4 -1.09034 1
gene 1 5 5 -3.85165 1 306 -3.85165 1
genomeend 38

/* Organism #39 Fitness: 0.0023 Error: 0 */
genomestart 39
trait 1 0.151536 0.325003 0.00450196 0.191779 0.0153286 0.0114249 0.13595 0.086688 
node 1 1 1 1
node 2 1 1 1
node 3 1 1 1
node 4 1 1 3
node 5 1 0 2
gene 1 1 5 2.64893 0 1 2.64893 1
gene 1 2 5 1.69315 0 2 1.69315 1
gene 1 3 5 6.82116 0 3 6.82116 1
gene 1 4 5 -1.09034 0 4 -1.09034 1
gene 1 5 5 -3.85165 1 306 -3.85165 1
genomeend 39

/* Organism #40 Fitness: 0.0011 Error: 0 */
genomestart 40
trait 1 0.306144 0.230604 0.0180078 0.537396 0.0613146 0.00639792 0.260016 0.346752 
node 1 1 1 1
node 2 1 1 1
node 3 1 1 1
node 4 1 1 3
node 5 1 0 2
gene 1 1 5 2.45412 0 1 2.45412 1
gene 1 2 5 -0.119605 0 2 -0.119605 1
gene 1 3 5 6.11623 0 3 6.11623 1
gene 1 4 5 0.255845 0 4 0.255845 1
gene 1 5 5 -3.80076 1 306 -3.80076 1
genomeend 40

/* Organism #41 Fitness: 0.0011 Error: 0 */
genomestart 41
trait 1 0.746721 0.325003 0 0.191779 0.276529 0.0114249 0 0.846893 
node 1 1 1 1
node 2 1 1 1
node 3 1 1 1
node 4 1 1 3
node 5 1 0 2
gene 1 1 5 1.89111 0 1 1.89111 1
gene 1 2 5 0.816914 0 2 0.816914 1
gene 1 3 5 5.16925 0 3 5.16925 1
gene 1 4 5 0.182291 0 4 0.182291 1
gene 1 5 5 -4.19765 1 306 -4.19765 1
genomeend 41

/* Organism #42 Fitness: 0.0011 Error: 0 */
genomestart 42
trait 1 0.746721 0.325003 0 0.191779 0.276529 0.0114249 0 0.846893 
node 1 1 1 1
node 2 1 1 1
node 3 1 1 1
node 4 1 1 3
node 5 1 0 2
gene 1 1 5 1.89111 0 1 1.89111 1
gene 1 2 5 0.816914 0 2 0.816914 1
gene 1 3 5 5.16925 0 3 5.16925 1
gene 1 4 5 0.182291 0 4 0.182291 1
gene 1 5 5 -4.19765 1 306 -4.19765 1
genomeend 42

/* Organism #43 Fitness: 0.0053 Error: 0 */
genomestart 43
trait 1 0.0986295 0.32072 0.000562745 0.0631253 0.0156966 0.00812655 0.0210324 0.188962 
node 1 1 1 1
node 2 1 1 1
node 3 1 1 1
node 4 1 1 3
node 5 1 0 2
gene 1 1 5 2.08475 0 1 2.08475 1
gene 1 2 5 1.40206 0 2 1.40206 1
gene 1 3 5 6.51116 0 3 6.51116 1
gene 1 4 5 0.349402 0 4 0.349402 1
gene 1 5 5 -2.09797 1 313 -2.09797 1
genomeend 43

/* Species #6 : (Size 3) (AF 0.00123333) (Age 12)  */


/* Organism #44 Fitness: 0.0004 Error: 0 */
genomestart 44
trait 1 0.337215 0 0 0.0014 0.211357 0.0619151 0.0756548 0 
node 1 1 1 1
node 2 1 1 1
node 3 1 1 1
node 4 1 1 3
node 5 1 0 2
node 7 1 0 0
node 53 1 0 0
gene 1 1 5 0.112854 0 1 0.112854 0
gene 1 2 5 0.991016 0 2 0.991016 1
gene 1 3 5 1.98415 0 3 1.98415 1
gene 1 4 5 -1.607 0 4 -1.607 1
gene 1 1 7 -0.815459 0 23 -0.815459 0
gene 1 7 5 -1.51558 0 24 -1.51558 1
gene 1 2 7 -0.979299 0 268 -0.979299 0
gene 1 3 7 1.3736 0 494 1.3736 1
gene 1 1 53 1 0 706 1 1
gene 1 53 7 -0.440811 0 707 -0.440811 1
genomeend 44

/* Organism #45 Fitness: 0.0009 Error: 0 */
genomestart 45
trait 1 0.337215 0 0 0.0014 0.211357 0.0619151 0.0756548 0 
node 1 1 1 1
node 2 1 1 1
node 3 1 1 1
node 4 1 1 3
node 5 1 0 2
node 7 1 0 0
node 53 1 0 0
gene 1 1 5 0.878235 0 1 0.878235 0
gene 1 2 5 0.259696 0 2 0.259696 1
gene 1 3 5 2.01122 0 3 2.01122 1
gene 1 4 5 -1.85311 0 4 -1.85311 1
gene 1 1 7 0.853003 0 23 0.853003 0
gene 1 7 5 2.3053 0 24 2.3053 1
gene 1 2 7 -0.762845 0 268 -0.762845 1
gene 1 3 7 1.83098 0 494 1.83098 1
gene 1 1 53 1.87863 0 706 1.87863 1
gene 1 53 7 0.414632 0 707 0.414632 1
genomeend 45

/* Organism #46 Fitness: 0.0024 Error: 0 */
genomestart 46
trait 1 0.337215 0 0 0.0014 0.211357 0.0619151 0.0756548 0 
node 1 1 1 1
node 2 1 1 1
node 3 1 1 1
node 4 1 1 3
node 5 1 0 2
node 7 1 0 0
node 53 1 0 0
gene 1 1 5 -0.378239 0 1 -0.378239 0
gene 1 2 5 1.83376 0 2 1.83376 1
gene 1 3 5 1.98415 0 3 1.98415 1
gene 1 4 5 -0.88948 0 4 -0.88948 1
gene 1 1 7 -0.238057 0 23 -0.238057 0
gene 1 7 5 1.28533 0 24 1.28533 1
gene 1 2 7 0.710195 0 268 0.710195 1
gene 1 3 7 0.943846 0 494 0.943846 1
gene 1 1 53 1 0 706 0 1
gene 1 53 7 -0.238057 0 707 0 1
gene 1 3 53 -0.50283 0 773 -0.50283 1
genomeend 46

/* Species #7 : (Size 36) (AF 0.028163) (Age 12)  */


/* Organism #47 Fitness: 0.106239 Error: 0 */
genomestart 47
trait 1 0.071875 0.176407 0.0543208 0.0620756 0.0523887 0.0106201 0 0.0236856 
node 1 1 1 1
node 2 1 1 1
node 3 1 1 1
node 4 1 1 3
node 5 1 0 2
gene 1 1 5 -1.97328 0 1 -1.97328 1
gene 1 2 5 -5.35965 0 2 -5.35965 1
gene 1 3 5 4.76641 0 3 4.76641 1
gene 1 4 5 2.0232 0 4 2.0232 1
gene 1 5 5 -1.53305 1 390 -1.53305 1
genomeend 47

/* Organism #48 Fitness: 0.022296 Error: 0 */
genomestart 48
trait 1 0.084375 0.205655 0.0434566 0.061553 0.041911 0.0105307 0 0 
node 1 1 1 1
node 2 1 1 1
node 3 1 1 1
node 4 1 1 3
node 5 1 0 2
gene 1 1 5 -0.218716 0 1 -0.218716 1
gene 1 2 5 -5.75306 0 2 -5.75306 1
gene 1 3 5 4.50015 0 3 4.50015 1
gene 1 4 5 1.78924 0 4 1.78924 1
gene 1 5 5 -1.47739 1 390 -1.47739 1
genomeend 48

/* Organism #49 Fitness: 0.0013 Error: 0 */
genomestart 49
trait 1 0.073094 0.340669 0 0.547345 0.0505195 0.00991975 0.0096546 0.0586607 
node 1 1 1 1
node 2 1 1 1
node 3 1 1 1
node 4 1 1 3
node 5 1 0 2
gene 1 1 5 -0.0192466 0 1 -0.0192466 1
gene 1 2 5 -5.2757 0 2 -5.2757 1
gene 1 3 5 3.44171 0 3 3.44171 1
gene 1 4 5 2.41034 0 4 2.41034 1
gene 1 5 5 0.0625504 1 390 0.0625504 1
genomeend 49

/* Organism #50 Fitness: 0.0007 Error: 0 */
genomestart 50
trait 1 0.084375 0.205655 0.0434566 0.061553 0.041911 0.0105307 0 0 
node 1 1 1 1
node 2 1 1 1
node 3 1 1 1
node 4 1 1 3
node 5 1 0 2
gene 1 1 5 -1.50564 0 1 -1.50564 1
gene 1 2 5 -6.85178 0 2 -6.85178 1
gene 1 3 5 4.70695 0 3 4.70695 1
gene 1 4 5 1.45344 0 4 1.45344 1
gene 1 5 5 -3.09485 1 390 -3.09485 1
genomeend 50

/* Organism #51 Fitness: 0.0005 Error: 0 */
genomestart 51
trait 1 0.071875 0.176407 0.0543208 0.0620756 0.0523887 0.0106201 0 0.0236856 
node 1 1 1 1
node 2 1 1 1
node 3 1 1 1
node 4 1 1 3
node 5 1 0 2
gene 1 1 5 -2.49593 0 1 -2.49593 1
gene 1 2 5 -5.73031 0 2 -5.73031 1
gene 1 3 5 3.4468 0 3 3.4468 1
gene 1 4 5 0.753231 0 4 0.753231 1
gene 1 5 5 -2.79557 1 390 -2.79557 1
genomeend 51

/* Organism #52 Fitness: 0.0028 Error: 0 */
genomestart 52
trait 1 0.071875 0 0.0543208 0.87119 0 0.0106201 0 0.493738 
node 1 1 1 1
node 2 1 1 1
node 3 1 1 1
node 4 1 1 3
node 5 1 0 2
gene 1 1 5 -2.06943 0 1 -2.06943 1
gene 1 2 5 -3.95629 0 2 -3.95629 1
gene 1 3 5 3.35869 0 3 3.35869 1
gene 1 4 5 0.312907 0 4 0.312907 1
gene 1 5 5 -0.346382 1 390 -0.346382 1
genomeend 52

/* Organism #53 Fitness: 0.104445 Error: 0 */
genomestart 53
trait 1 0.078125 0.191031 0.0488887 0.0618143 0.0471498 0.0105754 0 0.0118428 
node 1 1 1 1
node 2 1 1 1
node 3 1 1 1
node 4 1 1 3
node 5 1 0 2
gene 1 1 5 -1.97328 0 1 -1.97328 1
gene 1 2 5 -5.35965 0 2 -5.35965 1
gene 1 3 5 4.76641 0 3 4.76641 1
gene 1 4 5 1.78924 0 4 1.78924 1
gene 1 5 5 -1.53305 1 390 -1.53305 1
genomeend 53

/* Organism #54 Fitness: 0.0053 Error: 0 */
genomestart 54
trait 1 0.060594 0.129661 0.0546021 0.0674096 0.0609972 0.0100092 0.0096546 0.0823464 
node 1 1 1 1
node 2 1 1 1
node 3 1 1 1
node 4 1 1 3
node 5 1 0 2
gene 1 1 5 -0.790524 0 1 -0.790524 1
gene 1 2 5 -5.03975 0 2 -5.03975 1
gene 1 3 5 5.08826 0 3 5.08826 1
gene 1 4 5 2.68031 0 4 2.68031 1
gene 1 5 5 -1.31901 1 390 -1.31901 1
genomeend 54

/* Organism #55 Fitness: 0.0283185 Error: 0 */
genomestart 55
trait 1 0.073094 0.15891 0.043738 0.066887 0.0505195 0.00991975 0.0096546 0.0586607 
node 1 1 1 1
node 2 1 1 1
node 3 1 1 1
node 4 1 1 3
node 5 1 0 2
gene 1 1 5 -0.331025 0 1 -0.331025 1
gene 1 2 5 -5.78629 0 2 -5.78629 1
gene 1 3 5 4.56199 0 3 4.56199 1
gene 1 4 5 1.22535 0 4 1.22535 1
gene 1 5 5 -1.40523 1 390 -1.40523 1
genomeend 55

/* Organism #56 Fitness: 0.0022 Error: 0 */
genomestart 56
trait 1 0.071875 0.176407 0.0543208 0.0620756 0.0523887 0.0106201 0 0.0236856 
node 1 1 1 1
node 2 1 1 1
node 3 1 1 1
node 4 1 1 3
node 5 1 0 2
gene 1 1 5 -2.20004 0 1 -2.20004 1
gene 1 2 5 -7.19557 0 2 -7.19557 1
gene 1 3 5 3.86564 0 3 3.86564 1
gene 1 4 5 2.44301 0 4 2.44301 1
gene 1 5 5 -1.81549 1 390 -1.81549 1
genomeend 56

/* Organism #57 Fitness: 0.0021 Error: 0 */
genomestart 57
trait 1 0.084375 0.205655 0.0434566 0.061553 0.041911 0.0105307 0 0 
node 1 1 1 1
node 2 1 1 1
node 3 1 1 1
node 4 1 1 3
node 5 1 0 2
gene 1 1 5 -0.218716 0 1 -0.218716 1
gene 1 2 5 -4.2374 0 2 -4.2374 1
gene 1 3 5 5.93183 0 3 5.93183 1
gene 1 4 5 1.99457 0 4 1.99457 1
gene 1 5 5 -0.148658 1 390 -0.148658 1
genomeend 57

/* Organism #58 Fitness: 0.0092 Error: 0 */
genomestart 58
trait 1 0.059375 0.147158 0.0651849 0.0625982 0.0628664 0.0107096 0 0.0473713 
node 1 1 1 1
node 2 1 1 1
node 3 1 1 1
node 4 1 1 3
node 5 1 0 2
gene 1 1 5 -3.49654 0 1 -3.49654 1
gene 1 2 5 -6.14648 0 2 -6.14648 1
gene 1 3 5 3.83051 0 3 3.83051 1
gene 1 4 5 2.81965 0 4 2.81965 1
gene 1 5 5 -0.938636 1 390 -0.938636 1
genomeend 58

/* Organism #59 Fitness: 0.0330251 Error: 0 */
genomestart 59
trait 1 0.084375 0.205655 0.0434566 0.061553 0.041911 0.0105307 0 0 
node 1 1 1 1
node 2 1 1 1
node 3 1 1 1
node 4 1 1 3
node 5 1 0 2
gene 1 1 5 -0.218716 0 1 -0.218716 1
gene 1 2 5 -5.35965 0 2 -5.35965 1
gene 1 3 5 4.50015 0 3 4.50015 1
gene 1 4 5 1.55528 0 4 1.55528 1
gene 1 5 5 -1.40523 1 390 -1.40523 1
genomeend 59

/* Organism #60 Fitness: 0.0005 Error: 0 */
genomestart 60
trait 1 0.0675781 0.165324 0.0543208 0.0620756 0.0523887 0.0106201 0 0.0355284 
node 1 1 1 1
node 2 1 1 1
node 3 1 1 1
node 4 1 1 3
node 5 1 0 2
gene 1 1 5 0.779105 0 1 0.779105 1
gene 1 2 5 -5.451 0 2 -5.451 1
gene 1 3 5 3.84658 0 3 3.84658 1
gene 1 4 5 2.90468 0 4 2.90468 1
gene 1 5 5 0.433611 1 390 0.433611 1
genomeend 60

/* Organism #61 Fitness: 0.105231 Error: 0 */
genomestart 61
trait 1 0.0773909 0.169992 0.043738 0.066887 0.0505195 0.00991975 0.0096546 0.0468179 
node 1 1 1 1
node 2 1 1 1
node 3 1 1 1
node 4 1 1 3
node 5 1 0 2
gene 1 1 5 -1.096 0 1 -1.096 1
gene 1 2 5 -5.37968 0 2 -5.37968 1
gene 1 3 5 4.63328 0 3 4.63328 1
gene 1 4 5 1.62428 0 4 1.62428 1
gene 1 5 5 -1.46914 1 390 -1.46914 1
genomeend 61

/* Organism #62 Fitness: 0.0036 Error: 0 */
genomestart 62
trait 1 0.084375 0.205655 0.0434566 0.061553 0.041911 0.0105307 0 0 
node 1 1 1 1
node 2 1 1 1
node 3 1 1 1
node 4 1 1 3
node 5 1 0 2
gene 1 1 5 -1.07522 0 1 -1.07522 1
gene 1 2 5 -3.86537 0 2 -3.86537 1
gene 1 3 5 6.06241 0 3 6.06241 1
gene 1 4 5 3.0678 0 4 3.0678 1
gene 1 5 5 -2.05771 1 390 -2.05771 1
genomeend 62

/* Organism #63 Fitness: 0.0084 Error: 0 */
genomestart 63
trait 1 0.071875 0.176407 0.0543208 0.0620756 0.0523887 0.0106201 0 0.0236856 
node 1 1 1 1
node 2 1 1 1
node 3 1 1 1
node 4 1 1 3
node 5 1 0 2
gene 1 1 5 -0.343455 0 1 -0.343455 1
gene 1 2 5 -4.76237 0 2 -4.76237 1
gene 1 3 5 4.6505 0 3 4.6505 1
gene 1 4 5 2.4031 0 4 2.4031 1
gene 1 5 5 -1.51511 1 390 -1.51511 1
genomeend 63

/* Organism #64 Fitness: 0.0384003 Error: 0 */
genomestart 64
trait 1 0.0618131 0.112165 0.0440194 0.0722209 0.059128 0.00930877 0.0193092 0.117321 
node 1 1 1 1
node 2 1 1 1
node 3 1 1 1
node 4 1 1 3
node 5 1 0 2
gene 1 1 5 -0.317692 0 1 -0.317692 1
gene 1 2 5 -5.41291 0 2 -5.41291 1
gene 1 3 5 4.39139 0 3 4.39139 1
gene 1 4 5 1.31275 0 4 1.31275 1
gene 1 5 5 -1.15322 1 390 -1.15322 1
genomeend 64

/* Organism #65 Fitness: 0.0093 Error: 0 */
genomestart 65
trait 1 0.0773909 0.169992 0.043738 0.066887 0.0505195 0.00991975 0.0096546 0.0468179 
node 1 1 1 1
node 2 1 1 1
node 3 1 1 1
node 4 1 1 3
node 5 1 0 2
gene 1 1 5 -0.218716 0 1 -0.218716 1
gene 1 2 5 -4.61289 0 2 -4.61289 1
gene 1 3 5 4.50015 0 3 4.50015 1
gene 1 4 5 2.0232 0 4 2.0232 1
gene 1 5 5 -1.40523 1 390 -1.40523 1
genomeend 65

/* Organism #66 Fitness: 0.0330251 Error: 0 */
genomestart 66
trait 1 0.0898909 0.199241 0.0328738 0.0663643 0.0400417 0.00983034 0.0096546 0.0231323 
node 1 1 1 1
node 2 1 1 1
node 3 1 1 1
node 4 1 1 3
node 5 1 0 2
gene 1 1 5 -0.218716 0 1 -0.218716 1
gene 1 2 5 -5.35965 0 2 -5.35965 1
gene 1 3 5 4.50015 0 3 4.50015 1
gene 1 4 5 1.55528 0 4 1.55528 1
gene 1 5 5 -1.40523 1 390 -1.40523 1
genomeend 66

/* Organism #67 Fitness: 0.0065 Error: 0 */
genomestart 67
trait 1 0.078125 0.191031 0.0488887 0.0618143 0.0471498 0.0105754 0 0.0118428 
node 1 1 1 1
node 2 1 1 1
node 3 1 1 1
node 4 1 1 3
node 5 1 0 2
gene 1 1 5 -1.29317 0 1 -1.29317 1
gene 1 2 5 -6.59595 0 2 -6.59595 1
gene 1 3 5 4.91874 0 3 4.91874 1
gene 1 4 5 2.89293 0 4 2.89293 1
gene 1 5 5 -2.19741 1 390 -2.19741 1
genomeend 67

/* Organism #68 Fitness: 0.0052 Error: 0 */
genomestart 68
trait 1 0.084375 0.205655 0.0434566 0.061553 0.041911 0.0105307 0 0 
node 1 1 1 1
node 2 1 1 1
node 3 1 1 1
node 4 1 1 3
node 5 1 0 2
gene 1 1 5 0.871428 0 1 0.871428 1
gene 1 2 5 -5.62003 0 2 -5.62003 1
gene 1 3 5 6.24936 0 3 6.24936 1
gene 1 4 5 3.18291 0 4 3.18291 1
gene 1 5 5 -1.54955 1 390 -1.54955 1
genomeend 68

/* Organism #69 Fitness: 0.0384003 Error: 0 */
genomestart 69
trait 1 0.0618131 0.112165 0.0440194 0.0722209 0.059128 0.00930877 0.0193092 0.117321 
node 1 1 1 1
node 2 1 1 1
node 3 1 1 1
node 4 1 1 3
node 5 1 0 2
gene 1 1 5 -0.317692 0 1 -0.317692 1
gene 1 2 5 -5.41291 0 2 -5.41291 1
gene 1 3 5 4.39139 0 3 4.39139 1
gene 1 4 5 1.31275 0 4 1.31275 1
gene 1 5 5 -1.15322 1 390 -1.15322 1
genomeend 69

/* Organism #70 Fitness: 0.002 Error: 0 */
genomestart 70
trait 1 0.084375 0.205655 0.0434566 0.061553 0.041911 0.0105307 0 0 
node 1 1 1 1
node 2 1 1 1
node 3 1 1 1
node 4 1 1 3
node 5 1 0 2
gene 1 1 5 -2.19511 0 1 -2.19511 1
gene 1 2 5 -5.92562 0 2 -5.92562 1
gene 1 3 5 4.9902 0 3 4.9902 1
gene 1 4 5 -0.261093 0 4 -0.261093 1
gene 1 5 5 -0.713356 1 390 -0.713356 1
genomeend 70

/* Organism #71 Fitness: 0.0026 Error: 0 */
genomestart 71
trait 1 0.0613281 0.1507 0.0597528 0.0623369 0.0576276 0.0106649 0 0.0473713 
node 1 1 1 1
node 2 1 1 1
node 3 1 1 1
node 4 1 1 3
node 5 1 0 2
gene 1 1 5 -0.951095 0 1 -0.951095 1
gene 1 2 5 -6.47248 0 2 -6.47248 1
gene 1 3 5 6.02398 0 3 6.02398 1
gene 1 4 5 3.04178 0 4 3.04178 1
gene 1 5 5 -0.12271 1 390 -0.12271 1
genomeend 71

/* Organism #72 Fitness: 0.0231659 Error: 0 */
genomestart 72
trait 1 0.0898909 0.199241 0.0328738 0.0663643 0.0400417 0.00983034 0.0096546 0.0231323 
node 1 1 1 1
node 2 1 1 1
node 3 1 1 1
node 4 1 1 3
node 5 1 0 2
gene 1 1 5 -0.218716 0 1 -0.218716 1
gene 1 2 5 -5.35965 0 2 -5.35965 1
gene 1 3 5 4.50015 0 3 4.50015 1
gene 1 4 5 1.22535 0 4 1.22535 1
gene 1 5 5 -1.40523 1 390 -1.40523 1
genomeend 72

/* Organism #73 Fitness: 0.022296 Error: 0 */
genomestart 73
trait 1 0.084375 0.205655 0.0434566 0.061553 0.041911 0.0105307 0 0 
node 1 1 1 1
node 2 1 1 1
node 3 1 1 1
node 4 1 1 3
node 5 1 0 2
gene 1 1 5 -0.218716 0 1 -0.218716 1
gene 1 2 5 -5.75306 0 2 -5.75306 1
gene 1 3 5 4.50015 0 3 4.50015 1
gene 1 4 5 1.78924 0 4 1.78924 1
gene 1 5 5 -1.47739 1 390 -1.47739 1
genomeend 73

/* Organism #74 Fitness: 0.0371166 Error: 0 */
genomestart 74
trait 1 0.1 0.23399 0 0.0594625 0 0.0101731 0 0 
node 1 1 1 1
node 2 1 1 1
node 3 1 1 1
node 4 1 1 3
node 5 1 0 2
gene 1 1 5 -2.18343 0 1 -2.18343 1
gene 1 2 5 -4.61289 0 2 -4.61289 1
gene 1 3 5 4.21305 0 3 4.21305 1
gene 1 4 5 1.22535 0 4 1.22535 1
gene 1 5 5 -1.49008 1 254 -1.49008 1
genomeend 74

/* Organism #75 Fitness: 0.0371166 Error: 0 */
genomestart 75
trait 1 0.1 0.23399 0 0.0594625 0 0.0101731 0 0 
node 1 1 1 1
node 2 1 1 1
node 3 1 1 1
node 4 1 1 3
node 5 1 0 2
gene 1 1 5 -2.18343 0 1 -2.18343 1
gene 1 2 5 -4.61289 0 2 -4.61289 1
gene 1 3 5 4.21305 0 3 4.21305 1
gene 1 4 5 1.22535 0 4 1.22535 1
gene 1 5 5 -1.49008 1 254 -1.49008 1
genomeend 75

/* Organism #76 Fitness: 0.0022 Error: 0 */
genomestart 76
trait 1 0.103221 0.226678 0.000281373 0.0654168 0.00860851 0.00985518 0.00591552 0.022455 
node 1 1 1 1
node 2 1 1 1
node 3 1 1 1
node 4 1 1 3
node 5 1 0 2
gene 1 1 5 -2.1842 0 1 -2.1842 1
gene 1 2 5 -5.31919 0 2 -5.31919 1
gene 1 3 5 4.78152 0 3 4.78152 1
gene 1 4 5 1.35074 0 4 1.35074 1
gene 1 5 5 -2.38475 1 254 -2.38475 1
genomeend 76

/* Organism #77 Fitness: 0.103436 Error: 0 */
genomestart 77
trait 1 0.1 0.23399 0 0 0 0.0101731 0 0.832464 
node 1 1 1 1
node 2 1 1 1
node 3 1 1 1
node 4 1 1 3
node 5 1 0 2
gene 1 1 5 -1.54361 0 1 -1.54361 1
gene 1 2 5 -5.67715 0 2 -5.67715 1
gene 1 3 5 4.65282 0 3 4.65282 1
gene 1 4 5 0.647994 0 4 0.647994 1
gene 1 5 5 -1.12862 1 254 -1.12862 1
genomeend 77

/* Organism #78 Fitness: 0.0371166 Error: 0 */
genomestart 78
trait 1 0.1 0.23399 0 0.0594625 0 0.0101731 0 0 
node 1 1 1 1
node 2 1 1 1
node 3 1 1 1
node 4 1 1 3
node 5 1 0 2
gene 1 1 5 -2.18343 0 1 -2.18343 1
gene 1 2 5 -4.61289 0 2 -4.61289 1
gene 1 3 5 4.21305 0 3 4.21305 1
gene 1 4 5 1.22535 0 4 1.22535 1
gene 1 5 5 -1.49008 1 254 -1.49008 1
genomeend 78

/* Organism #79 Fitness: 0.0371166 Error: 0 */
genomestart 79
trait 1 0.1 0.23399 0 0.0594625 0 0.0101731 0 0 
node 1 1 1 1
node 2 1 1 1
node 3 1 1 1
node 4 1 1 3
node 5 1 0 2
gene 1 1 5 -2.18343 0 1 -2.18343 1
gene 1 2 5 -4.61289 0 2 -4.61289 1
gene 1 3 5 4.21305 0 3 4.21305 1
gene 1 4 5 1.22535 0 4 1.22535 1
gene 1 5 5 -1.49008 1 254 -1.49008 1
genomeend 79

/* Organism #80 Fitness: 0.0170144 Error: 0 */
genomestart 80
trait 1 0.1 0.119731 0.262985 0.0885149 0 0.00508654 0 0.511547 
node 1 1 1 1
node 2 1 1 1
node 3 1 1 1
node 4 1 1 3
node 5 1 0 2
gene 1 1 5 -1.60736 0 1 -1.60736 1
gene 1 2 5 -6.10329 0 2 -6.10329 1
gene 1 3 5 4.56752 0 3 4.56752 1
gene 1 4 5 2.21765 0 4 2.21765 1
gene 1 5 5 -1.76973 1 192 -1.76973 1
genomeend 80

/* Organism #81 Fitness: 0.0170144 Error: 0 */
genomestart 81
trait 1 0.1 0.119731 0.262985 0.0885149 0 0.00508654 0 0.511547 
node 1 1 1 1
node 2 1 1 1
node 3 1 1 1
node 4 1 1 3
node 5 1 0 2
gene 1 1 5 -1.60736 0 1 -1.60736 1
gene 1 2 5 -6.10329 0 2 -6.10329 1
gene 1 3 5 4.56752 0 3 4.56752 1
gene 1 4 5 2.21765 0 4 2.21765 1
gene 1 5 5 -1.76973 1 192 -1.76973 1
genomeend 81

/* Organism #82 Fitness: 15 Error: 0 */
genomestart 82
trait 1 0.1 0.119731 0.262985 0.0885149 0 0.00508654 0 0.511547 
node 1 1 1 1
node 2 1 1 1
node 3 1 1 1
node 4 1 1 3
node 5 1 0 2
gene 1 1 5 -0.68463 0 1 -0.68463 1
gene 1 2 5 -5.70317 0 2 -5.70317 1
gene 1 3 5 4.56752 0 3 4.56752 1
gene 1 4 5 1.21368 0 4 1.21368 1
gene 1 5 5 -1.24976 1 192 -1.24976 1
genomeend 82

/* Species #8 : (Size 5) (AF 0.00348) (Age 12)  */


/* Organism #83 Fitness: 0.0032 Error: 0 */
genomestart 83
trait 1 0.0550781 0.136075 0.0651849 0.0625982 0.0628664 0.0107096 0 0.0592141 
node 1 1 1 1
node 2 1 1 1
node 3 1 1 1
node 4 1 1 3
node 5 1 0 2
gene 1 1 5 -0.129808 0 1 -0.129808 1
gene 1 2 5 -0.679491 0 2 -0.679491 1
gene 1 3 5 3.99161 0 3 3.99161 1
gene 1 4 5 3.15114 0 4 3.15114 1
gene 1 5 5 -2.73654 1 390 -2.73654 1
genomeend 83

/* Organism #84 Fitness: 0.0031 Error: 0 */
genomestart 84
trait 1 0.0921875 0.205198 0.0217283 0.119291 0.0209555 0.0103519 0 0.0320199 
node 1 1 1 1
node 2 1 1 1
node 3 1 1 1
node 4 1 1 3
node 5 1 0 2
gene 1 1 5 -0.287511 0 1 -0.287511 1
gene 1 2 5 -0.703291 0 2 -0.703291 1
gene 1 3 5 2.97031 0 3 2.97031 1
gene 1 4 5 2.02892 0 4 2.02892 1
gene 1 5 5 -1.32567 1 390 -1.32567 1
genomeend 84

/* Organism #85 Fitness: 0.003 Error: 0 */
genomestart 85
trait 1 0.112793 0.12529 0.0951952 0.0525289 0.0138309 0.048226 0.0404878 0.0263935 
node 1 1 1 1
node 2 1 1 1
node 3 1 1 1
node 4 1 1 3
node 5 1 0 2
gene 1 1 5 -0.56049 0 1 -0.56049 1
gene 1 2 5 0.74647 0 2 0.74647 1
gene 1 3 5 3.04181 0 3 3.04181 1
gene 1 4 5 1.44431 0 4 1.44431 1
gene 1 5 5 -1.20147 1 313 -1.20147 1
genomeend 85

/* Organism #86 Fitness: 0.0037 Error: 0 */
genomestart 86
trait 1 0.0901318 0.179019 0.0443007 0.066002 0.0516753 0.0072821 0.0223472 0.5 
node 1 1 1 1
node 2 1 1 1
node 3 1 1 1
node 4 1 1 3
node 5 1 0 2
gene 1 1 5 1.75723 0 1 1.75723 1
gene 1 2 5 -1.6094 0 2 -1.6094 1
gene 1 3 5 5.06217 0 3 5.06217 1
gene 1 4 5 1.01845 0 4 1.01845 1
gene 1 5 5 -0.431167 1 390 -0.431167 1
genomeend 86

/* Organism #87 Fitness: 0.0044 Error: 0 */
genomestart 87
trait 1 0.075 0.340245 0 0.0962841 0.0810945 0.0122668 0.00295776 0.247519 
node 1 1 1 1
node 2 1 1 1
node 3 1 1 1
node 4 1 1 3
node 5 1 0 2
gene 1 1 5 0.872944 0 1 0.872944 1
gene 1 2 5 -0.832975 0 2 -0.832975 1
gene 1 3 5 3.00724 0 3 3.00724 1
gene 1 4 5 0.7743 0 4 0.7743 1
gene 1 5 5 -1.74501 1 231 -1.74501 1
genomeend 87

/* Species #9 : (Size 1) (AF 0.0007) (Age 12)  */


/* Organism #88 Fitness: 0.0007 Error: 0 */
genomestart 88
trait 1 0 0 0 0 0 0 0 0 
node 1 1 1 1
node 2 1 1 1
node 3 1 1 1
node 4 1 1 3
node 5 1 0 2
node 8 1 0 0
gene 1 1 5 0.729299 0 1 0.729299 1
gene 1 2 5 1.79984 0 2 1.79984 0
gene 1 3 5 -1.68187 0 3 -1.68187 1
gene 1 4 5 -0.568358 0 4 -0.568358 1
gene 1 2 8 1.30574 0 28 1.30574 1
gene 1 8 5 1.08755 0 29 1.08755 1
gene 1 3 8 2.77857 0 115 2.77857 1
gene 1 1 8 -1.67938 0 209 -1.67938 1
gene 1 4 8 0.876884 0 348 0.876884 1
gene 1 5 5 -0.618679 1 774 -0.618679 1
genomeend 88

/* Species #10 : (Size 2) (AF 0.00095) (Age 12)  */


/* Organism #89 Fitness: 0.0004 Error: 0 */
genomestart 89
trait 1 0.1 0 0 0 0 0 0 0 
node 1 1 1 1
node 2 1 1 1
node 3 1 1 1
node 4 1 1 3
node 5 1 0 2
node 8 1 0 0
gene 1 1 5 -2.18178 0 1 -2.18178 1
gene 1 2 5 -2.31862 0 2 -2.31862 0
gene 1 3 5 0.956035 0 3 0.956035 1
gene 1 4 5 -2.12848 0 4 -2.12848 1
gene 1 2 8 0.285664 0 28 0.285664 1
gene 1 8 5 0.866671 0 29 0.866671 1
gene 1 3 8 0.0542308 0 115 0.0542308 1
gene 1 4 8 -0.203706 0 164 -0.203706 1
gene 1 1 8 1.7681 0 418 1.7681 1
genomeend 89

/* Organism #90 Fitness: 0.0015 Error: 0 */
genomestart 90
trait 1 0 0 0.0787633 0.109595 0 0 0.474114 0.123066 
node 1 1 1 1
node 2 1 1 1
node 3 1 1 1
node 4 1 1 3
node 5 1 0 2
node 8 1 0 0
gene 1 1 5 -0.63933 0 1 -0.63933 1
gene 1 2 5 -1.40563 0 2 -1.40563 0
gene 1 3 5 3.96108 0 3 3.96108 1
gene 1 4 5 -1.75759 0 4 -1.75759 1
gene 1 2 8 -1.35854 0 28 -1.35854 1
gene 1 8 5 0.922168 0 29 0.922168 1
gene 1 3 8 1.75063 0 115 1.75063 1
gene 1 4 8 0.870026 0 164 0.870026 1
gene 1 1 8 1.70993 0 418 1.70993 1
genomeend 90

/* Species #11 : (Size 3) (AF 0.00306667) (Age 12)  */


/* Organism #91 Fitness: 0.0006 Error: 0 */
genomestart 91
trait 1 0.1 0 0.00427533 0.0461028 0.0370253 0 0.225117 0.22089 
node 1 1 1 1
node 2 1 1 1
node 3 1 1 1
node 4 1 1 3
node 5 1 0 2
node 7 1 0 0
gene 1 1 5 0.131479 0 1 0.131479 0
gene 1 2 5 -0.139241 0 2 -0.139241 1
gene 1 3 5 3.28555 0 3 3.28555 1
gene 1 4 5 -1.50755 0 4 -1.50755 0
gene 1 1 7 1.57956 0 23 1.57956 1
gene 1 7 5 -1.22616 0 24 -1.22616 1
gene 1 3 7 -2.80573 0 124 -2.80573 1
gene 1 2 7 -1.44861 0 268 -1.44861 1
gene 1 4 7 1.45612 0 493 1.45612 1
genomeend 91

/* Organism #92 Fitness: 0.0041 Error: 0 */
genomestart 92
trait 1 0.1 0 0.00457361 0.0395167 0.0317359 0 0.230787 0.236301 
node 1 1 1 1
node 2 1 1 1
node 3 1 1 1
node 4 1 1 3
node 5 1 0 2
node 7 1 0 0
gene 1 1 5 0.131479 0 1 0.131479 0
gene 1 2 5 -0.965849 0 2 -0.965849 1
gene 1 3 5 3.20971 0 3 3.20971 1
gene 1 4 5 -0.346203 0 4 -0.346203 1
gene 1 1 7 1.57956 0 23 1.57956 1
gene 1 7 5 0.458019 0 24 0.458019 1
gene 1 3 7 -2.87274 0 124 -2.87274 1
gene 1 2 7 -0.789388 0 268 -0.789388 1
gene 1 4 7 0.811841 0 493 0.811841 1
genomeend 92

/* Organism #93 Fitness: 0.0045 Error: 0 */
genomestart 93
trait 1 0.1 0 0.00427533 0.0461028 0.0370253 0 0.225117 0.22089 
node 1 1 1 1
node 2 1 1 1
node 3 1 1 1
node 4 1 1 3
node 5 1 0 2
node 7 1 0 0
gene 1 1 5 0.572523 0 1 0.572523 0
gene 1 2 5 -0.660806 0 2 -0.660806 1
gene 1 3 5 2.79632 0 3 2.79632 1
gene 1 4 5 -1.05762 0 4 -1.05762 1
gene 1 1 7 2.35979 0 23 2.35979 1
gene 1 7 5 0.676577 0 24 0.676577 1
gene 1 3 7 -2.88225 0 124 -2.88225 1
gene 1 2 7 -0.63808 0 268 -0.63808 1
gene 1 4 7 -0.218339 0 493 -0.218339 1
genomeend 93

/* Species #13 : (Size 2) (AF 0.0037) (Age 11)  */


/* Organism #94 Fitness: 0.0052 Error: 0 */
genomestart 94
trait 1 0.1 0 0 0 0 0 0 0 
node 1 1 1 1
node 2 1 1 1
node 3 1 1 1
node 4 1 1 3
node 5 1 0 2
node 10 1 0 0
gene 1 1 5 4.79903 0 1 4.79903 1
gene 1 2 5 5.29574 0 2 5.29574 1
gene 1 3 5 2.4013 0 3 2.4013 1
gene 1 4 5 -1.00614 0 4 -1.00614 1
gene 1 1 10 -0.606631 0 87 -0.606631 1
gene 1 10 5 0.230037 0 88 0.230037 1
gene 1 3 10 1.47618 0 270 1.47618 1
gene 1 5 5 -1.3899 1 357 -1.3899 1
gene 1 2 10 -0.171085 0 496 -0.171085 1
gene 1 4 10 -0.766035 0 709 -0.766035 1
genomeend 94

/* Organism #95 Fitness: 0.0022 Error: 0 */
genomestart 95
trait 1 0.1 0 0 0 0 0 0 0 
node 1 1 1 1
node 2 1 1 1
node 3 1 1 1
node 4 1 1 3
node 5 1 0 2
node 10 1 0 0
gene 1 1 5 4.05039 0 1 4.05039 1
gene 1 2 5 5.06667 0 2 5.06667 1
gene 1 3 5 1.65593 0 3 1.65593 1
gene 1 4 5 -0.264914 0 4 -0.264914 1
gene 1 1 10 -0.0774052 0 87 -0.0774052 1
gene 1 10 5 1.03125 0 88 1.03125 1
gene 1 3 10 0.720957 0 270 0.720957 1
gene 1 5 5 -1.65369 1 357 -1.65369 1
gene 1 2 10 -0.398239 0 496 -0.398239 1
gene 1 4 10 -0.766035 0 709 -0.766035 1
genomeend 95

/* Species #14 : (Size 7) (AF 0.0052) (Age 11)  */


/* Organism #96 Fitness: 0.0071 Error: 0 */
genomestart 96
trait 1 0.112793 0.12529 0.0951952 0.0525289 0.0138309 0.048226 0.0404878 0.0263935 
node 1 1 1 1
node 2 1 1 1
node 3 1 1 1
node 4 1 1 3
node 5 1 0 2
gene 1 1 5 0.919511 0 1 0.919511 1
gene 1 2 5 0.0658483 0 2 0.0658483 1
gene 1 3 5 2.71503 0 3 2.71503 1
gene 1 4 5 0.060847 0 4 0.060847 1
gene 1 5 5 -0.840948 1 313 -0.840948 1
genomeend 96

/* Organism #97 Fitness: 0.0071 Error: 0 */
genomestart 97
trait 1 0.112793 0.12529 0.0951952 0.0525289 0.0138309 0.048226 0.0404878 0.0263935 
node 1 1 1 1
node 2 1 1 1
node 3 1 1 1
node 4 1 1 3
node 5 1 0 2
gene 1 1 5 0.919511 0 1 0.919511 1
gene 1 2 5 0.0658483 0 2 0.0658483 1
gene 1 3 5 2.71503 0 3 2.71503 1
gene 1 4 5 0.060847 0 4 0.060847 1
gene 1 5 5 -0.840948 1 313 -0.840948 1
genomeend 97

/* Organism #98 Fitness: 0.0043 Error: 0 */
genomestart 98
trait 1 0.112793 0.12529 0.0951952 0.0525289 0.0138309 0.048226 0.0404878 0.0263935 
node 1 1 1 1
node 2 1 1 1
node 3 1 1 1
node 4 1 1 3
node 5 1 0 2
gene 1 1 5 1.89972 0 1 1.89972 1
gene 1 2 5 -1.24752 0 2 -1.24752 1
gene 1 3 5 3.83973 0 3 3.83973 1
gene 1 4 5 -0.652839 0 4 -0.652839 1
gene 1 5 5 -0.572898 1 313 -0.572898 1
genomeend 98

/* Organism #99 Fitness: 0.0031 Error: 0 */
genomestart 99
trait 1 0.112793 0.12529 0.0951952 0.0525289 0.0138309 0.048226 0.0404878 0.0263935 
node 1 1 1 1
node 2 1 1 1
node 3 1 1 1
node 4 1 1 3
node 5 1 0 2
gene 1 1 5 0.919511 0 1 0.919511 1
gene 1 2 5 0.0658483 0 2 0.0658483 1
gene 1 3 5 2.66803 0 3 2.66803 1
gene 1 4 5 1.1717 0 4 1.1717 1
gene 1 5 5 -0.755562 1 313 -0.755562 1
genomeend 99

/* Organism #100 Fitness: 0.0071 Error: 0 */
genomestart 100
trait 1 0.112793 0.12529 0.0951952 0.0525289 0.0138309 0.048226 0.0404878 0.0263935 
node 1 1 1 1
node 2 1 1 1
node 3 1 1 1
node 4 1 1 3
node 5 1 0 2
gene 1 1 5 0.919511 0 1 0.919511 1
gene 1 2 5 0.0658483 0 2 0.0658483 1
gene 1 3 5 2.71503 0 3 2.71503 1
gene 1 4 5 0.060847 0 4 0.060847 1
gene 1 5 5 -0.840948 1 313 -0.840948 1
genomeend 100

/* Organism #101 Fitness: 0.0071 Error: 0 */
genomestart 101
trait 1 0.112793 0.12529 0.0951952 0.0525289 0.0138309 0.048226 0.0404878 0.0263935 
node 1 1 1 1
node 2 1 1 1
node 3 1 1 1
node 4 1 1 3
node 5 1 0 2
gene 1 1 5 0.919511 0 1 0.919511 1
gene 1 2 5 0.0658483 0 2 0.0658483 1
gene 1 3 5 2.71503 0 3 2.71503 1
gene 1 4 5 0.060847 0 4 0.060847 1
gene 1 5 5 -0.840948 1 313 -0.840948 1
genomeend 101

/* Organism #102 Fitness: 0.0006 Error: 0 */
genomestart 102
trait 1 0.1 0.221651 0 0.0563268 0 0.00963662 0 0 
node 1 1 1 1
node 2 1 1 1
node 3 1 1 1
node 4 1 1 3
node 5 1 0 2
gene 1 1 5 1.96019 0 1 1.96019 1
gene 1 2 5 0.131902 0 2 0.131902 1
gene 1 3 5 3.23532 0 3 3.23532 1
gene 1 4 5 -0.951633 0 4 -0.951633 1
gene 1 5 5 -2.11401 1 103 -2.11401 1
genomeend 102

/* Species #15 : (Size 3) (AF 0.0028) (Age 11)  */


/* Organism #103 Fitness: 0.0033 Error: 0 */
genomestart 103
trait 1 0.512288 0.100718 0.0360157 1 0.122629 0 0.406517 0.693504 
node 1 1 1 1
node 2 1 1 1
node 3 1 1 1
node 4 1 1 3
node 5 1 0 2
gene 1 1 5 -1.24018 0 1 -1.24018 1
gene 1 2 5 4.58825 0 2 4.58825 1
gene 1 3 5 6.12711 0 3 6.12711 1
gene 1 4 5 -1.6702 0 4 -1.6702 1
gene 1 5 5 -0.525887 1 321 -0.525887 1
genomeend 103

/* Organism #104 Fitness: 0.0034 Error: 0 */
genomestart 104
trait 1 0.512288 0.100718 0.0360157 1 0.122629 0 0.406517 0.693504 
node 1 1 1 1
node 2 1 1 1
node 3 1 1 1
node 4 1 1 3
node 5 1 0 2
gene 1 1 5 2.04524 0 1 2.04524 1
gene 1 2 5 4.66237 0 2 4.66237 1
gene 1 3 5 5.25866 0 3 5.25866 1
gene 1 4 5 -2.38168 0 4 -2.38168 1
gene 1 5 5 -1.27272 1 321 -1.27272 1
genomeend 104

/* Organism #105 Fitness: 0.0017 Error: 0 */
genomestart 105
trait 1 0.144251 0.0566933 0.185482 0.0794664 0.00670628 0.00222536 0.0678356 0.0676481 
node 1 1 1 1
node 2 1 1 1
node 3 1 1 1
node 4 1 1 3
node 5 1 0 2
gene 1 1 5 1.77185 0 1 1.77185 1
gene 1 2 5 3.76381 0 2 3.76381 1
gene 1 3 5 5.753 0 3 5.753 1
gene 1 4 5 -2.10526 0 4 -2.10526 1
gene 1 5 5 -0.0750659 1 85 -0.0750659 1
genomeend 105

/* Species #16 : (Size 16) (AF 0.00540321) (Age 11)  */


/* Organism #106 Fitness: 0.004 Error: 0 */
genomestart 106
trait 1 0.075 0.204627 0 0.124739 0 0.203458 0.101968 0 
node 1 1 1 1
node 2 1 1 1
node 3 1 1 1
node 4 1 1 3
node 5 1 0 2
gene 1 1 5 -2.15635 0 1 -2.15635 1
gene 1 2 5 1.72891 0 2 1.72891 1
gene 1 3 5 5.39489 0 3 5.39489 1
gene 1 4 5 1.04061 0 4 1.04061 1
gene 1 5 5 -2.47375 1 144 -2.47375 1
genomeend 106

/* Organism #107 Fitness: 0.0046 Error: 0 */
genomestart 107
trait 1 0.1 0.111511 0 0.00371641 0 0.393971 0 0 
node 1 1 1 1
node 2 1 1 1
node 3 1 1 1
node 4 1 1 3
node 5 1 0 2
gene 1 1 5 -3.00876 0 1 -3.00876 1
gene 1 2 5 -0.973337 0 2 -0.973337 1
gene 1 3 5 5.73544 0 3 5.73544 1
gene 1 4 5 0.861013 0 4 0.861013 1
gene 1 5 5 -1.31709 1 144 -1.31709 1
genomeend 107

/* Organism #108 Fitness: 0.0042 Error: 0 */
genomestart 108
trait 1 0.05 0.204627 0 0.209787 0 0.203458 0.203936 0 
node 1 1 1 1
node 2 1 1 1
node 3 1 1 1
node 4 1 1 3
node 5 1 0 2
gene 1 1 5 -3.00876 0 1 -3.00876 1
gene 1 2 5 -0.801545 0 2 -0.801545 1
gene 1 3 5 4.66086 0 3 4.66086 1
gene 1 4 5 1.14116 0 4 1.14116 1
gene 1 5 5 -1.31709 1 144 -1.31709 1
genomeend 108

/* Organism #109 Fitness: 0.0047 Error: 0 */
genomestart 109
trait 1 0.106442 0.219366 0.000562745 0.0713711 0.017217 0.00953727 0.011831 0.0449101 
node 1 1 1 1
node 2 1 1 1
node 3 1 1 1
node 4 1 1 3
node 5 1 0 2
gene 1 1 5 -1.42581 0 1 -1.42581 1
gene 1 2 5 -1.14326 0 2 -1.14326 1
gene 1 3 5 5.47941 0 3 5.47941 1
gene 1 4 5 0.416181 0 4 0.416181 1
gene 1 5 5 -0.792019 1 254 -0.792019 1
genomeend 109

/* Organism #110 Fitness: 0.0136257 Error: 0 */
genomestart 110
trait 1 0.096875 0.230162 0.00869132 0.0694528 0.00838219 0.0101135 0 0 
node 1 1 1 1
node 2 1 1 1
node 3 1 1 1
node 4 1 1 3
node 5 1 0 2
gene 1 1 5 -2.71813 0 1 -2.71813 1
gene 1 2 5 -1.81924 0 2 -1.81924 1
gene 1 3 5 6.10806 0 3 6.10806 1
gene 1 4 5 0.00509335 0 4 0.00509335 1
gene 1 5 5 -0.978337 1 253 -0.978337 1
genomeend 110

/* Organism #111 Fitness: 0.0057 Error: 0 */
genomestart 111
trait 1 0.0984375 0.232076 0.00434566 0.0644576 0.0041911 0.0101433 0 0 
node 1 1 1 1
node 2 1 1 1
node 3 1 1 1
node 4 1 1 3
node 5 1 0 2
gene 1 1 5 -2.71813 0 1 -2.71813 1
gene 1 2 5 -1.81924 0 2 -1.81924 1
gene 1 3 5 6.10806 0 3 6.10806 1
gene 1 4 5 0.330227 0 4 0.330227 1
gene 1 5 5 -0.978337 1 253 -0.978337 1
genomeend 111

/* Organism #112 Fitness: 0.0037 Error: 0 */
genomestart 112
trait 1 0.100072 0.229605 0.00672952 0.0724299 0.012743 0.0100626 0.00443664 0.0168413 
node 1 1 1 1
node 2 1 1 1
node 3 1 1 1
node 4 1 1 3
node 5 1 0 2
gene 1 1 5 -2.71813 0 1 -2.71813 1
gene 1 2 5 -1.81924 0 2 -1.81924 1
gene 1 3 5 6.10806 0 3 6.10806 1
gene 1 4 5 1.74799 0 4 1.74799 1
gene 1 5 5 -0.978337 1 253 -0.978337 1
genomeend 112

/* Organism #113 Fitness: 0.0136257 Error: 0 */
genomestart 113
trait 1 0.096875 0.230162 0.00869132 0.0694528 0.00838219 0.0101135 0 0 
node 1 1 1 1
node 2 1 1 1
node 3 1 1 1
node 4 1 1 3
node 5 1 0 2
gene 1 1 5 -2.71813 0 1 -2.71813 1
gene 1 2 5 -1.81924 0 2 -1.81924 1
gene 1 3 5 6.10806 0 3 6.10806 1
gene 1 4 5 0.00509335 0 4 0.00509335 1
gene 1 5 5 -0.978337 1 253 -0.978337 1
genomeend 113

/* Organism #114 Fitness: 0.0024 Error: 0 */
genomestart 114
trait 1 0.108053 0.22365 0.000703431 0.0763662 0.0215213 0.00972354 0.0147888 0.0561376 
node 1 1 1 1
node 2 1 1 1
node 3 1 1 1
node 4 1 1 3
node 5 1 0 2
gene 1 1 5 -1.44546 0 1 -1.44546 1
gene 1 2 5 -0.819123 0 2 -0.819123 1
gene 1 3 5 5.67016 0 3 5.67016 1
gene 1 4 5 1.5195 0 4 1.5195 1
gene 1 5 5 0.389976 1 254 0.389976 1
genomeend 114

/* Organism #115 Fitness: 0.0065 Error: 0 */
genomestart 115
trait 1 0.109663 0.227935 0.000844118 0.0813612 0.0258255 0.00990982 0.0177466 0.0673651 
node 1 1 1 1
node 2 1 1 1
node 3 1 1 1
node 4 1 1 3
node 5 1 0 2
gene 1 1 5 -3.55432 0 1 -3.55432 1
gene 1 2 5 -1.63087 0 2 -1.63087 1
gene 1 3 5 6.84915 0 3 6.84915 1
gene 1 4 5 0.548151 0 4 0.548151 1
gene 1 5 5 -1.51651 1 254 -1.51651 1
genomeend 115

/* Organism #116 Fitness: 0.0035 Error: 0 */
genomestart 116
trait 1 0.078125 0.191031 0.0488887 0.0618143 0.0471498 0.0105754 0 0.0118428 
node 1 1 1 1
node 2 1 1 1
node 3 1 1 1
node 4 1 1 3
node 5 1 0 2
gene 1 1 5 -3.19587 0 1 -3.19587 1
gene 1 2 5 1.13922 0 2 1.13922 1
gene 1 3 5 5.98616 0 3 5.98616 1
gene 1 4 5 0.87004 0 4 0.87004 1
gene 1 5 5 -1.02363 1 390 -1.02363 1
genomeend 116

/* Organism #117 Fitness: 0.0029 Error: 0 */
genomestart 117
trait 1 0.1 0.111511 0 0.00371641 0 0.393971 0 0 
node 1 1 1 1
node 2 1 1 1
node 3 1 1 1
node 4 1 1 3
node 5 1 0 2
gene 1 1 5 -4.46824 0 1 -4.46824 1
gene 1 2 5 -1.71959 0 2 -1.71959 1
gene 1 3 5 4.45464 0 3 4.45464 1
gene 1 4 5 2.89077 0 4 2.89077 1
gene 1 5 5 -1.11618 1 144 -1.11618 1
genomeend 117

/* Organism #118 Fitness: 0.0059 Error: 0 */
genomestart 118
trait 1 0.1 0.22782 0 0.0578947 0 0.00990485 0 0 
node 1 1 1 1
node 2 1 1 1
node 3 1 1 1
node 4 1 1 3
node 5 1 0 2
gene 1 1 5 -3.08161 0 1 -3.08161 1
gene 1 2 5 0.360886 0 2 0.360886 1
gene 1 3 5 5.36192 0 3 5.36192 1
gene 1 4 5 0.960759 0 4 0.960759 1
gene 1 5 5 -2.65191 1 103 -2.65191 1
genomeend 118

/* Organism #119 Fitness: 0.0039 Error: 0 */
genomestart 119
trait 1 0.1 0.111511 0 0.00371641 0 0.393971 0 0 
node 1 1 1 1
node 2 1 1 1
node 3 1 1 1
node 4 1 1 3
node 5 1 0 2
gene 1 1 5 -3.76322 0 1 -3.76322 1
gene 1 2 5 -1.17054 0 2 -1.17054 1
gene 1 3 5 4.9684 0 3 4.9684 1
gene 1 4 5 -0.922866 0 4 -0.922866 1
gene 1 5 5 -1.16854 1 144 -1.16854 1
genomeend 119

/* Organism #120 Fitness: 0.0039 Error: 0 */
genomestart 120
trait 1 0.1 0.111511 0 0.00371641 0 0.393971 0 0 
node 1 1 1 1
node 2 1 1 1
node 3 1 1 1
node 4 1 1 3
node 5 1 0 2
gene 1 1 5 -3.76322 0 1 -3.76322 1
gene 1 2 5 -1.17054 0 2 -1.17054 1
gene 1 3 5 4.9684 0 3 4.9684 1
gene 1 4 5 -0.922866 0 4 -0.922866 1
gene 1 5 5 -1.16854 1 144 -1.16854 1
genomeend 120

/* Organism #121 Fitness: 0.0033 Error: 0 */
genomestart 121
trait 1 0.10488 0.217452 0.00490841 0.0763662 0.0214081 0.00950746 0.011831 0.0449101 
node 1 1 1 1
node 2 1 1 1
node 3 1 1 1
node 4 1 1 3
node 5 1 0 2
gene 1 1 5 -2.75247 0 1 -2.75247 1
gene 1 2 5 -2.08952 0 2 -2.08952 1
gene 1 3 5 4.92172 0 3 4.92172 1
gene 1 4 5 1.17948 0 4 1.17948 1
gene 1 5 5 -0.159584 1 254 -0.159584 1
genomeend 121

/* Species #17 : (Size 12) (AF 0.0034) (Age 11)  */


/* Organism #122 Fitness: 0.0038 Error: 0 */
genomestart 122
trait 1 0.1 0.23399 0 0.0594625 0 0.0101731 0 0 
node 1 1 1 1
node 2 1 1 1
node 3 1 1 1
node 4 1 1 3
node 5 1 0 2
gene 1 1 5 -3.12068 0 1 -3.12068 1
gene 1 2 5 -4.10019 0 2 -4.10019 1
gene 1 3 5 3.38977 0 3 3.38977 1
gene 1 4 5 1.55319 0 4 1.55319 1
gene 1 5 5 -0.382434 1 254 -0.382434 1
genomeend 122

/* Organism #123 Fitness: 0.001 Error: 0 */
genomestart 123
trait 1 0.1 0.23399 0 0.0594625 0 0.0101731 0 0 
node 1 1 1 1
node 2 1 1 1
node 3 1 1 1
node 4 1 1 3
node 5 1 0 2
gene 1 1 5 -3.57988 0 1 -3.57988 1
gene 1 2 5 -4.23144 0 2 -4.23144 1
gene 1 3 5 4.15014 0 3 4.15014 1
gene 1 4 5 1.50922 0 4 1.50922 1
gene 1 5 5 -3.18463 1 254 -3.18463 1
genomeend 123

/* Organism #124 Fitness: 0.0038 Error: 0 */
genomestart 124
trait 1 0.1 0.23399 0 0.0594625 0 0.0101731 0 0 
node 1 1 1 1
node 2 1 1 1
node 3 1 1 1
node 4 1 1 3
node 5 1 0 2
gene 1 1 5 -0.899716 0 1 -0.899716 1
gene 1 2 5 -3.32072 0 2 -3.32072 1
gene 1 3 5 4.10264 0 3 4.10264 1
gene 1 4 5 -0.148789 0 4 -0.148789 1
gene 1 5 5 -0.871808 1 254 -0.871808 1
genomeend 124

/* Organism #125 Fitness: 0.003 Error: 0 */
genomestart 125
trait 1 0.1 0.23399 0 0.0594625 0 0.0101731 0 0 
node 1 1 1 1
node 2 1 1 1
node 3 1 1 1
node 4 1 1 3
node 5 1 0 2
gene 1 1 5 -1.30063 0 1 -1.30063 1
gene 1 2 5 -5.22453 0 2 -5.22453 1
gene 1 3 5 5.44296 0 3 5.44296 1
gene 1 4 5 -0.115687 0 4 -0.115687 1
gene 1 5 5 -1.61588 1 254 -1.61588 1
genomeend 125

/* Organism #126 Fitness: 0.0008 Error: 0 */
genomestart 126
trait 1 0.1 0.23399 0 0.0594625 0 0.0101731 0 0 
node 1 1 1 1
node 2 1 1 1
node 3 1 1 1
node 4 1 1 3
node 5 1 0 2
gene 1 1 5 -1.44503 0 1 -1.44503 1
gene 1 2 5 -3.46688 0 2 -3.46688 1
gene 1 3 5 3.60859 0 3 3.60859 1
gene 1 4 5 0.725375 0 4 0.725375 1
gene 1 5 5 -2.00061 1 254 -2.00061 1
genomeend 126

/* Organism #127 Fitness: 0.0045 Error: 0 */
genomestart 127
trait 1 0.103221 0.226678 0.000281373 0.0654168 0.00860851 0.00985518 0.00591552 0.022455 
node 1 1 1 1
node 2 1 1 1
node 3 1 1 1
node 4 1 1 3
node 5 1 0 2
gene 1 1 5 -1.28768 0 1 -1.28768 1
gene 1 2 5 -4.61289 0 2 -4.61289 1
gene 1 3 5 5.69914 0 3 5.69914 1
gene 1 4 5 0.276605 0 4 0.276605 1
gene 1 5 5 -0.927496 1 254 -0.927496 1
genomeend 127

/* Organism #128 Fitness: 0.001 Error: 0 */
genomestart 128
trait 1 0.103221 0.226678 0.000281373 0.0654168 0.00860851 0.00985518 0.00591552 0.022455 
node 1 1 1 1
node 2 1 1 1
node 3 1 1 1
node 4 1 1 3
node 5 1 0 2
gene 1 1 5 -3.40726 0 1 -3.40726 1
gene 1 2 5 -4.61289 0 2 -4.61289 1
gene 1 3 5 5.50049 0 3 5.50049 1
gene 1 4 5 0.276605 0 4 0.276605 1
gene 1 5 5 1.15956 1 254 1.15956 1
genomeend 128

/* Organism #129 Fitness: 0.0032 Error: 0 */
genomestart 129
trait 1 0.106442 0.219366 0.000562745 0.0713711 0.017217 0.00953727 0.011831 0.0449101 
node 1 1 1 1
node 2 1 1 1
node 3 1 1 1
node 4 1 1 3
node 5 1 0 2
gene 1 1 5 -1.28768 0 1 -1.28768 1
gene 1 2 5 -3.71686 0 2 -3.71686 1
gene 1 3 5 4.21305 0 3 4.21305 1
gene 1 4 5 1.02729 0 4 1.02729 1
gene 1 5 5 -0.119477 1 254 -0.119477 1
genomeend 129

/* Organism #130 Fitness: 0.0088 Error: 0 */
genomestart 130
trait 1 0 0.226678 0.25968 0.434851 0 0.00985518 0.00591552 0.022455 
node 1 1 1 1
node 2 1 1 1
node 3 1 1 1
node 4 1 1 3
node 5 1 0 2
gene 1 1 5 -1.12183 0 1 -1.12183 1
gene 1 2 5 -4.61289 0 2 -4.61289 1
gene 1 3 5 5.71658 0 3 5.71658 1
gene 1 4 5 1.25209 0 4 1.25209 1
gene 1 5 5 -1.56361 1 254 -1.56361 1
genomeend 130

/* Organism #131 Fitness: 0.0077 Error: 0 */
genomestart 131
trait 1 0.106442 0.219366 0.000562745 0.0713711 0.017217 0.00953727 0.011831 0.0449101 
node 1 1 1 1
node 2 1 1 1
node 3 1 1 1
node 4 1 1 3
node 5 1 0 2
gene 1 1 5 -1.73556 0 1 -1.73556 1
gene 1 2 5 -3.64181 0 2 -3.64181 1
gene 1 3 5 4.95609 0 3 4.95609 1
gene 1 4 5 0.750978 0 4 0.750978 1
gene 1 5 5 -1.20879 1 254 -1.20879 1
genomeend 131

/* Organism #132 Fitness: 0.0006 Error: 0 */
genomestart 132
trait 1 0.10644 0.243555 0.000844118 0.087234 0.127379 0.0105407 0.0252247 0.562591 
node 1 1 1 1
node 2 1 1 1
node 3 1 1 1
node 4 1 1 3
node 5 1 0 2
gene 1 1 5 -0.641037 0 1 -0.641037 1
gene 1 2 5 -4.80335 0 2 -4.80335 0
gene 1 3 5 3.92786 0 3 3.92786 1
gene 1 4 5 -1.71228 0 4 -1.71228 1
gene 1 5 5 -1.98434 1 254 -1.98434 1
genomeend 132

/* Organism #133 Fitness: 0.0026 Error: 0 */
genomestart 133
trait 1 0.10488 0.217452 0.00490841 0.0763662 0.0214081 0.00950746 0.011831 0.0449101 
node 1 1 1 1
node 2 1 1 1
node 3 1 1 1
node 4 1 1 3
node 5 1 0 2
gene 1 1 5 -4.99252 0 1 -4.99252 1
gene 1 2 5 -3.4302 0 2 -3.4302 1
gene 1 3 5 3.92436 0 3 3.92436 1
gene 1 4 5 1.03979 0 4 1.03979 1
gene 1 5 5 -0.0450882 1 254 -0.0450882 1
genomeend 133

/* Species #18 : (Size 2) (AF 0.0035) (Age 11)  */


/* Organism #134 Fitness: 0.0023 Error: 0 */
genomestart 134
trait 1 0.023191 0 0 0 0 1 0 0.795905 
node 1 1 1 1
node 2 1 1 1
node 3 1 1 1
node 4 1 1 3
node 5 1 0 2
node 10 1 0 0
gene 1 1 5 -1.27876 0 1 -1.27876 1
gene 1 2 5 1.11241 0 2 1.11241 1
gene 1 3 5 4.89514 0 3 4.89514 1
gene 1 4 5 -1.74742 0 4 -1.74742 1
gene 1 1 10 -0.259297 0 87 -0.259297 1
gene 1 10 5 1.17992 0 88 1.17992 1
gene 1 5 5 0.393788 1 283 0.393788 1
gene 1 2 10 3.65679 0 643 3.65679 1
genomeend 134

/* Organism #135 Fitness: 0.0047 Error: 0 */
genomestart 135
trait 1 0.023191 0 0 0 0 1 0 0.795905 
node 1 1 1 1
node 2 1 1 1
node 3 1 1 1
node 4 1 1 3
node 5 1 0 2
node 10 1 0 0
gene 1 1 5 0.0399912 0 1 0.0399912 1
gene 1 2 5 1.72477 0 2 1.72477 1
gene 1 3 5 2.68802 0 3 2.68802 1
gene 1 4 5 0.725006 0 4 0.725006 1
gene 1 1 10 0.86563 0 87 0.86563 1
gene 1 10 5 -1.21848 0 88 -1.21848 1
gene 1 5 5 -0.656429 1 283 -0.656429 1
gene 1 2 10 2.48178 0 643 2.48178 1
gene 1 4 10 -0.929693 0 709 -0.929693 1
genomeend 135

/* Species #21 : (Size 1) (AF 0.0035) (Age 11)  */


/* Organism #136 Fitness: 0.0035 Error: 0 */
genomestart 136
trait 1 0.1 0 0 0 0 0 0 0 
node 1 1 1 1
node 2 1 1 1
node 3 1 1 1
node 4 1 1 3
node 5 1 0 2
node 15 1 0 0
gene 1 1 5 0.743715 0 1 0.743715 0
gene 1 2 5 2.48878 0 2 2.48878 1
gene 1 3 5 2.13446 0 3 2.13446 1
gene 1 4 5 -0.922884 0 4 -0.922884 1
gene 1 1 15 1.72455 0 153 1.22455 1
gene 1 15 5 0.0123157 0 154 0.00615785 1
gene 1 4 15 0.630128 0 227 0.59744 1
gene 1 2 15 -0.61726 0 499 -0.61726 1
gene 1 15 15 -0.0150602 1 644 -0.0150602 1
genomeend 136

/* Species #22 : (Size 8) (AF 0.0061015) (Age 11)  */


/* Organism #137 Fitness: 0.0148526 Error: 0 */
genomestart 137
trait 1 0.075 0.175493 0.0695306 0.0594625 0.0670575 0.0101731 0 0 
node 1 1 1 1
node 2 1 1 1
node 3 1 1 1
node 4 1 1 3
node 5 1 0 2
gene 1 1 5 1.38598 0 1 1.38598 1
gene 1 2 5 -1.74246 0 2 -1.74246 1
gene 1 3 5 4.43765 0 3 4.43765 1
gene 1 4 5 1.18183 0 4 1.18183 1
gene 1 5 5 -1.76546 1 364 -1.76546 1
genomeend 137

/* Organism #138 Fitness: 0.0082 Error: 0 */
genomestart 138
trait 1 0.0875 0.233076 0.0347653 0.0666631 0.0335288 0.011405 0 0 
node 1 1 1 1
node 2 1 1 1
node 3 1 1 1
node 4 1 1 3
node 5 1 0 2
gene 1 1 5 1.58233 0 1 1.58233 1
gene 1 2 5 -3.19941 0 2 -3.19941 1
gene 1 3 5 4.94977 0 3 4.94977 1
gene 1 4 5 0.425901 0 4 0.425901 1
gene 1 5 5 -0.825776 1 364 -0.825776 1
genomeend 138

/* Organism #139 Fitness: 0.0024 Error: 0 */
genomestart 139
trait 1 0.075 0.175493 0.0695306 0.0594625 0.0670575 0.0101731 0 0 
node 1 1 1 1
node 2 1 1 1
node 3 1 1 1
node 4 1 1 3
node 5 1 0 2
gene 1 1 5 0.334787 0 1 0.334787 1
gene 1 2 5 -0.884492 0 2 -0.884492 1
gene 1 3 5 4.23801 0 3 4.23801 1
gene 1 4 5 2.18536 0 4 2.18536 1
gene 1 5 5 -0.139496 1 364 -0.139496 1
genomeend 139

/* Organism #140 Fitness: 0.0145594 Error: 0 */
genomestart 140
trait 1 0.08125 0.204284 0.0521479 0.0630628 0.0502932 0.010789 0 0 
node 1 1 1 1
node 2 1 1 1
node 3 1 1 1
node 4 1 1 3
node 5 1 0 2
gene 1 1 5 1.25364 0 1 1.25364 1
gene 1 2 5 -1.74246 0 2 -1.74246 1
gene 1 3 5 4.43765 0 3 4.43765 1
gene 1 4 5 1.18183 0 4 1.18183 1
gene 1 5 5 -1.76546 1 364 -1.76546 1
genomeend 140

/* Organism #141 Fitness: 0.0005 Error: 0 */
genomestart 141
trait 1 0.730995 0 0.0695306 0 0.0670575 0.0400304 0 0 
node 1 1 1 1
node 2 1 1 1
node 3 1 1 1
node 4 1 1 3
node 5 1 0 2
gene 1 1 5 0.826189 0 1 0.826189 1
gene 1 2 5 -0.680688 0 2 -0.680688 1
gene 1 3 5 5.82956 0 3 5.82956 1
gene 1 4 5 1.45747 0 4 1.45747 1
gene 1 5 5 1.45643 1 364 1.45643 1
genomeend 141

/* Organism #142 Fitness: 0.0043 Error: 0 */
genomestart 142
trait 1 0.08125 0.204284 0.0521479 0.0630628 0.0502932 0.010789 0 0 
node 1 1 1 1
node 2 1 1 1
node 3 1 1 1
node 4 1 1 3
node 5 1 0 2
gene 1 1 5 1.25364 0 1 1.25364 1
gene 1 2 5 -1.74246 0 2 -1.74246 1
gene 1 3 5 4.43765 0 3 4.43765 1
gene 1 4 5 0.298312 0 4 0.298312 1
gene 1 5 5 -1.76546 1 364 -1.76546 1
genomeend 142

/* Organism #143 Fitness: 0.0035 Error: 0 */
genomestart 143
trait 1 0.0875 0.233076 0.0347653 0.0666631 0.0335288 0.011405 0 0 
node 1 1 1 1
node 2 1 1 1
node 3 1 1 1
node 4 1 1 3
node 5 1 0 2
gene 1 1 5 0.484352 0 1 0.484352 1
gene 1 2 5 -0.765916 0 2 -0.765916 1
gene 1 3 5 4.92 0 3 4.92 1
gene 1 4 5 1.77968 0 4 1.77968 1
gene 1 5 5 -1.27118 1 364 -1.27118 1
genomeend 143

/* Organism #144 Fitness: 0.0005 Error: 0 */
genomestart 144
trait 1 0.100384 0.0584975 0.0358908 0.0535484 0.0679628 0.00381491 0.0236621 0.0898202 
node 1 1 1 1
node 2 1 1 1
node 3 1 1 1
node 4 1 1 3
node 5 1 0 2
gene 1 1 5 1.5071 0 1 1.5071 1
gene 1 2 5 -1.8228 0 2 -1.8228 1
gene 1 3 5 2.45168 0 3 2.45168 1
gene 1 4 5 2.15142 0 4 2.15142 1
genomeend 144

/* Species #23 : (Size 14) (AF 0.0145036) (Age 11)  */


/* Organism #145 Fitness: 0.0038 Error: 0 */
genomestart 145
trait 1 0.0927221 0.212028 0.0226936 0.125769 0.034012 0.00945531 0.0111736 0.107637 
node 1 1 1 1
node 2 1 1 1
node 3 1 1 1
node 4 1 1 3
node 5 1 0 2
gene 1 1 5 -1.11712 0 1 -1.11712 1
gene 1 2 5 -3.39838 0 2 -3.39838 1
gene 1 3 5 7.57319 0 3 7.57319 1
gene 1 4 5 2.12354 0 4 2.12354 1
gene 1 5 5 -4.07119 1 192 -4.07119 1
genomeend 145

/* Organism #146 Fitness: 0.0363284 Error: 0 */
genomestart 146
trait 1 0.1 0.0347206 0.525969 0 0 0 0 0.959054 
node 1 1 1 1
node 2 1 1 1
node 3 1 1 1
node 4 1 1 3
node 5 1 0 2
gene 1 1 5 0.334489 0 1 0.334489 1
gene 1 2 5 -5.02739 0 2 -5.02739 1
gene 1 3 5 3.96782 0 3 3.96782 1
gene 1 4 5 1.4417 0 4 1.4417 1
gene 1 5 5 -1.49135 1 192 -1.49135 1
genomeend 146

/* Organism #147 Fitness: 0.0077 Error: 0 */
genomestart 147
trait 1 0.1 0.204741 0 0.17703 0 0.0101731 0 0.0640399 
node 1 1 1 1
node 2 1 1 1
node 3 1 1 1
node 4 1 1 3
node 5 1 0 2
gene 1 1 5 -3.54921 0 1 -3.54921 1
gene 1 2 5 -7.1792 0 2 -7.1792 1
gene 1 3 5 5.16721 0 3 5.16721 1
gene 1 4 5 2.9936 0 4 2.9936 1
gene 1 5 5 -2.04811 1 192 -2.04811 1
genomeend 147

/* Organism #148 Fitness: 0.0363284 Error: 0 */
genomestart 148
trait 1 0.1 0.0347206 0.525969 0 0 0 0 0.959054 
node 1 1 1 1
node 2 1 1 1
node 3 1 1 1
node 4 1 1 3
node 5 1 0 2
gene 1 1 5 0.334489 0 1 0.334489 1
gene 1 2 5 -5.02739 0 2 -5.02739 1
gene 1 3 5 3.96782 0 3 3.96782 1
gene 1 4 5 1.4417 0 4 1.4417 1
gene 1 5 5 -1.49135 1 192 -1.49135 1
genomeend 148

/* Organism #149 Fitness: 0.0031 Error: 0 */
genomestart 149
trait 1 0.1 0.204741 0 0.17703 0 0.0101731 0 0.0640399 
node 1 1 1 1
node 2 1 1 1
node 3 1 1 1
node 4 1 1 3
node 5 1 0 2
gene 1 1 5 -4.28847 0 1 -4.28847 1
gene 1 2 5 -5.65612 0 2 -5.65612 1
gene 1 3 5 4.75456 0 3 4.75456 1
gene 1 4 5 3.28544 0 4 3.28544 1
gene 1 5 5 -2.40125 1 192 -2.40125 1
genomeend 149

/* Organism #150 Fitness: 0.0045 Error: 0 */
genomestart 150
trait 1 0.1 0.119731 0.262985 0.0885149 0 0.00508654 0 0.511547 
node 1 1 1 1
node 2 1 1 1
node 3 1 1 1
node 4 1 1 3
node 5 1 0 2
gene 1 1 5 -2.29217 0 1 -2.29217 1
gene 1 2 5 -4.48255 0 2 -4.48255 1
gene 1 3 5 6.03966 0 3 6.03966 1
gene 1 4 5 2.99312 0 4 2.99312 1
gene 1 5 5 -1.88623 1 192 -1.88623 1
genomeend 150

/* Organism #151 Fitness: 0.0363284 Error: 0 */
genomestart 151
trait 1 0.1 0.0347206 0.525969 0 0 0 0 0.959054 
node 1 1 1 1
node 2 1 1 1
node 3 1 1 1
node 4 1 1 3
node 5 1 0 2
gene 1 1 5 0.334489 0 1 0.334489 1
gene 1 2 5 -5.02739 0 2 -5.02739 1
gene 1 3 5 3.96782 0 3 3.96782 1
gene 1 4 5 1.4417 0 4 1.4417 1
gene 1 5 5 -1.49135 1 192 -1.49135 1
genomeend 151

/* Organism #152 Fitness: 0.0008 Error: 0 */
genomestart 152
trait 1 0.1 0.119731 0.262985 0.0885149 0 0.00508654 0 0.511547 
node 1 1 1 1
node 2 1 1 1
node 3 1 1 1
node 4 1 1 3
node 5 1 0 2
gene 1 1 5 -1.0342 0 1 -1.0342 1
gene 1 2 5 -5.39606 0 2 -5.39606 1
gene 1 3 5 5.66986 0 3 5.66986 1
gene 1 4 5 0.633566 0 4 0.633566 1
gene 1 5 5 -2.69471 1 192 -2.69471 1
genomeend 152

/* Organism #153 Fitness: 0.0142365 Error: 0 */
genomestart 153
trait 1 0.1 0.119731 0.262985 0.0885149 0 0.00508654 0 0.511547 
node 1 1 1 1
node 2 1 1 1
node 3 1 1 1
node 4 1 1 3
node 5 1 0 2
gene 1 1 5 0.334489 0 1 0.334489 1
gene 1 2 5 -7.1792 0 2 -7.1792 1
gene 1 3 5 3.96782 0 3 3.96782 1
gene 1 4 5 2.9936 0 4 2.9936 1
gene 1 5 5 -1.49135 1 192 -1.49135 1
genomeend 153

/* Organism #154 Fitness: 0.0055 Error: 0 */
genomestart 154
trait 1 0.1 0.119731 0.262985 0.0885149 0 0.00508654 0 0.511547 
node 1 1 1 1
node 2 1 1 1
node 3 1 1 1
node 4 1 1 3
node 5 1 0 2
gene 1 1 5 0.290493 0 1 0.290493 1
gene 1 2 5 -3.51778 0 2 -3.51778 1
gene 1 3 5 5.75765 0 3 5.75765 1
gene 1 4 5 1.67235 0 4 1.67235 1
gene 1 5 5 -1.39063 1 192 -1.39063 1
genomeend 154

/* Organism #155 Fitness: 0.0077 Error: 0 */
genomestart 155
trait 1 0.1 0.204741 0 0.17703 0 0.0101731 0 0.0640399 
node 1 1 1 1
node 2 1 1 1
node 3 1 1 1
node 4 1 1 3
node 5 1 0 2
gene 1 1 5 -3.54921 0 1 -3.54921 1
gene 1 2 5 -7.1792 0 2 -7.1792 1
gene 1 3 5 5.16721 0 3 5.16721 1
gene 1 4 5 2.9936 0 4 2.9936 1
gene 1 5 5 -2.04811 1 192 -2.04811 1
genomeend 155

/* Organism #156 Fitness: 0.009 Error: 0 */
genomestart 156
trait 1 0.1 0.119731 0.262985 0.0885149 0 0.00508654 0 0.511547 
node 1 1 1 1
node 2 1 1 1
node 3 1 1 1
node 4 1 1 3
node 5 1 0 2
gene 1 1 5 0.334489 0 1 0.334489 1
gene 1 2 5 -5.02739 0 2 -5.02739 1
gene 1 3 5 3.96782 0 3 3.96782 1
gene 1 4 5 2.9936 0 4 2.9936 1
gene 1 5 5 -1.49135 1 192 -1.49135 1
genomeend 156

/* Organism #157 Fitness: 0.0363284 Error: 0 */
genomestart 157
trait 1 0.1 0.0347206 0.525969 0 0 0 0 0.959054 
node 1 1 1 1
node 2 1 1 1
node 3 1 1 1
node 4 1 1 3
node 5 1 0 2
gene 1 1 5 0.334489 0 1 0.334489 1
gene 1 2 5 -5.02739 0 2 -5.02739 1
gene 1 3 5 3.96782 0 3 3.96782 1
gene 1 4 5 1.4417 0 4 1.4417 1
gene 1 5 5 -1.49135 1 192 -1.49135 1
genomeend 157

/* Organism #158 Fitness: 0.0014 Error: 0 */
genomestart 158
trait 1 0.0996988 0.218858 0.0361722 0.0851111 0.0758111 0.00787818 0.0341783 0.184301 
node 1 1 1 1
node 2 1 1 1
node 3 1 1 1
node 4 1 1 3
node 5 1 0 2
gene 1 1 5 -1.4331 0 1 -1.4331 1
gene 1 2 5 -4.23531 0 2 -4.23531 1
gene 1 3 5 5.34597 0 3 5.34597 1
gene 1 4 5 2.9076 0 4 2.9076 1
gene 1 5 5 -4.46872 1 313 -4.46872 1
genomeend 158

/* Species #25 : (Size 4) (AF 0.0021) (Age 11)  */


/* Organism #159 Fitness: 0.0019 Error: 0 */
genomestart 159
trait 1 0.1 0.0347206 0.525969 0 0 0 0 0.959054 
node 1 1 1 1
node 2 1 1 1
node 3 1 1 1
node 4 1 1 3
node 5 1 0 2
gene 1 1 5 2.08666 0 1 2.08666 1
gene 1 2 5 -4.48141 0 2 -4.48141 1
gene 1 3 5 3.61138 0 3 3.61138 1
gene 1 4 5 0.418707 0 4 0.418707 1
gene 1 5 5 -1.36862 1 192 -1.36862 1
genomeend 159

/* Organism #160 Fitness: 0.0027 Error: 0 */
genomestart 160
trait 1 0.1 0 1 0 0 0 0 1 
node 1 1 1 1
node 2 1 1 1
node 3 1 1 1
node 4 1 1 3
node 5 1 0 2
gene 1 1 5 1.75868 0 1 1.75868 1
gene 1 2 5 -3.78115 0 2 -3.78115 1
gene 1 3 5 3.93595 0 3 3.93595 1
gene 1 4 5 1.4417 0 4 1.4417 1
gene 1 5 5 0.360853 1 192 0.360853 1
genomeend 160

/* Organism #161 Fitness: 0.0033 Error: 0 */
genomestart 161
trait 1 0.1 0.0347206 0.525969 0 0 0 0 0.959054 
node 1 1 1 1
node 2 1 1 1
node 3 1 1 1
node 4 1 1 3
node 5 1 0 2
gene 1 1 5 0.0482115 0 1 0.0482115 1
gene 1 2 5 -3.90761 0 2 -3.90761 1
gene 1 3 5 5.15841 0 3 5.15841 1
gene 1 4 5 -0.743464 0 4 -0.743464 1
gene 1 5 5 -1.43193 1 192 -1.43193 1
genomeend 161

/* Organism #162 Fitness: 0.0005 Error: 0 */
genomestart 162
trait 1 0.1 0.0347206 0.525969 0 0 0 0 0.959054 
node 1 1 1 1
node 2 1 1 1
node 3 1 1 1
node 4 1 1 3
node 5 1 0 2
gene 1 1 5 -1.0963 0 1 -1.0963 1
gene 1 2 5 -6.00272 0 2 -6.00272 1
gene 1 3 5 4.0194 0 3 4.0194 1
gene 1 4 5 -0.660021 0 4 -0.660021 1
gene 1 5 5 0.557432 1 192 0.557432 1
genomeend 162

/* Species #26 : (Size 8) (AF 0.0050125) (Age 11)  */


/* Organism #163 Fitness: 0.0095 Error: 0 */
genomestart 163
trait 1 0.1 0.309812 0 0.0990496 0.0231905 0.0133075 0 0 
node 1 1 1 1
node 2 1 1 1
node 3 1 1 1
node 4 1 1 3
node 5 1 0 2
gene 1 1 5 -5.66479 0 1 -5.66479 1
gene 1 2 5 -2.69742 0 2 -2.69742 1
gene 1 3 5 4.78745 0 3 4.78745 1
gene 1 4 5 1.03248 0 4 1.03248 1
gene 1 5 5 -1.25116 1 186 -1.25116 1
genomeend 163

/* Organism #164 Fitness: 0.0029 Error: 0 */
genomestart 164
trait 1 0.1 0.319887 0 0.0914505 0.0115953 0.0138266 0 0 
node 1 1 1 1
node 2 1 1 1
node 3 1 1 1
node 4 1 1 3
node 5 1 0 2
gene 1 1 5 -6.31351 0 1 -6.31351 1
gene 1 2 5 -3.10585 0 2 -3.10585 1
gene 1 3 5 6.46526 0 3 6.46526 1
gene 1 4 5 0.110615 0 4 0.110615 1
gene 1 5 5 -0.408008 1 186 -0.408008 1
genomeend 164

/* Organism #165 Fitness: 0.003 Error: 0 */
genomestart 165
trait 1 0.1 0.329963 0 0.0838514 0 0.0143456 0 0 
node 1 1 1 1
node 2 1 1 1
node 3 1 1 1
node 4 1 1 3
node 5 1 0 2
gene 1 1 5 -3.79649 0 1 -3.79649 1
gene 1 2 5 -2.22266 0 2 -2.22266 1
gene 1 3 5 4.04576 0 3 4.04576 1
gene 1 4 5 -0.978355 0 4 -0.978355 1
gene 1 5 5 -0.717999 1 186 -0.717999 1
genomeend 165

/* Organism #166 Fitness: 0.0067 Error: 0 */
genomestart 166
trait 1 0.1 0.329963 0 0.0838514 0 0.0143456 0 0 
node 1 1 1 1
node 2 1 1 1
node 3 1 1 1
node 4 1 1 3
node 5 1 0 2
gene 1 1 5 -6.73236 0 1 -6.73236 1
gene 1 2 5 -1.60808 0 2 -1.60808 1
gene 1 3 5 3.49716 0 3 3.49716 1
gene 1 4 5 0.491808 0 4 0.491808 1
gene 1 5 5 -0.942092 1 186 -0.942092 1
genomeend 166

/* Organism #167 Fitness: 0.0064 Error: 0 */
genomestart 167
trait 1 0.1 0.319887 0 0.0914505 0.0115953 0.0138266 0 0 
node 1 1 1 1
node 2 1 1 1
node 3 1 1 1
node 4 1 1 3
node 5 1 0 2
gene 1 1 5 -5.66479 0 1 -5.66479 1
gene 1 2 5 -3.04711 0 2 -3.04711 1
gene 1 3 5 4.78745 0 3 4.78745 1
gene 1 4 5 0.688667 0 4 0.688667 1
gene 1 5 5 -1.25116 1 186 -1.25116 1
genomeend 167

/* Organism #168 Fitness: 0.0048 Error: 0 */
genomestart 168
trait 1 0.1 0.319887 0 0.0914505 0.0115953 0.0138266 0 0 
node 1 1 1 1
node 2 1 1 1
node 3 1 1 1
node 4 1 1 3
node 5 1 0 2
gene 1 1 5 -5.87931 0 1 -5.87931 1
gene 1 2 5 -3.32789 0 2 -3.32789 1
gene 1 3 5 4.78745 0 3 4.78745 1
gene 1 4 5 1.58668 0 4 1.58668 1
gene 1 5 5 -2.18631 1 186 -2.18631 1
genomeend 168

/* Organism #169 Fitness: 0.0016 Error: 0 */
genomestart 169
trait 1 0.1 0.329963 0 0.0838514 0 0.0143456 0 0 
node 1 1 1 1
node 2 1 1 1
node 3 1 1 1
node 4 1 1 3
node 5 1 0 2
gene 1 1 5 -4.66252 0 1 -4.66252 1
gene 1 2 5 -2.53405 0 2 -2.53405 1
gene 1 3 5 3.15854 0 3 3.15854 1
gene 1 4 5 1.72737 0 4 1.72737 1
gene 1 5 5 -2.33604 1 186 -2.33604 1
genomeend 169

/* Organism #170 Fitness: 0.0052 Error: 0 */
genomestart 170
trait 1 0.10488 0.217452 0.00490841 0.0763662 0.0214081 0.00950746 0.011831 0.0449101 
node 1 1 1 1
node 2 1 1 1
node 3 1 1 1
node 4 1 1 3
node 5 1 0 2
gene 1 1 5 -4.77299 0 1 -4.77299 1
gene 1 2 5 -1.97855 0 2 -1.97855 1
gene 1 3 5 4.74707 0 3 4.74707 1
gene 1 4 5 0.59346 0 4 0.59346 1
gene 1 5 5 -0.625324 1 254 -0.625324 1
genomeend 170

/* Species #28 : (Size 2) (AF 0.001) (Age 11)  */


/* Organism #171 Fitness: 0.0015 Error: 0 */
genomestart 171
trait 1 0.084658 0.0945061 0.0712188 0.0914663 0.118709 0.0065072 0.0579276 0.138794 
node 1 1 1 1
node 2 1 1 1
node 3 1 1 1
node 4 1 1 3
node 5 1 0 2
gene 1 1 5 -1.8702 0 1 -1.8702 1
gene 1 2 5 -5.11468 0 2 -5.11468 0
gene 1 3 5 -1.32288 0 3 -1.32288 1
gene 1 4 5 0.816918 0 4 0.816918 1
gene 1 5 5 -2.858 1 534 -2.858 1
genomeend 171

/* Organism #172 Fitness: 0.0005 Error: 0 */
genomestart 172
trait 1 0.1 0.204741 0 0.17703 0 0.0101731 0 0.0640399 
node 1 1 1 1
node 2 1 1 1
node 3 1 1 1
node 4 1 1 3
node 5 1 0 2
gene 1 1 5 -1.82567 0 1 -1.82567 1
gene 1 2 5 -5.89861 0 2 -5.89861 1
gene 1 3 5 -1.35417 0 3 -1.35417 1
gene 1 4 5 1.55673 0 4 1.55673 1
gene 1 5 5 1.59093 1 192 1.59093 1
genomeend 172

/* Species #29 : (Size 6) (AF 0.00431667) (Age 11)  */


/* Organism #173 Fitness: 0.0047 Error: 0 */
genomestart 173
trait 1 0.103269 0.229048 0.00476772 0.075407 0.0171039 0.0100116 0.00887328 0.0336826 
node 1 1 1 1
node 2 1 1 1
node 3 1 1 1
node 4 1 1 3
node 5 1 0 2
gene 1 1 5 -3.32583 0 1 -3.32583 1
gene 1 2 5 -2.25268 0 2 -2.25268 1
gene 1 3 5 5.39844 0 3 5.39844 1
gene 1 4 5 1.74799 0 4 1.74799 1
gene 1 5 5 -1.6042 1 253 -1.6042 1
genomeend 173

/* Organism #174 Fitness: 0.0037 Error: 0 */
genomestart 174
trait 1 0.0984375 0.232076 0.00434566 0.0644576 0.0041911 0.0101433 0 0 
node 1 1 1 1
node 2 1 1 1
node 3 1 1 1
node 4 1 1 3
node 5 1 0 2
gene 1 1 5 -3.42298 0 1 -3.42298 1
gene 1 2 5 1.1678 0 2 1.1678 1
gene 1 3 5 8 0 3 8 1
gene 1 4 5 0.433899 0 4 0.433899 1
gene 1 5 5 -0.823476 1 253 -0.823476 1
genomeend 174

/* Organism #175 Fitness: 0.0041 Error: 0 */
genomestart 175
trait 1 0.103269 0.229048 0.00476772 0.075407 0.0171039 0.0100116 0.00887328 0.0336826 
node 1 1 1 1
node 2 1 1 1
node 3 1 1 1
node 4 1 1 3
node 5 1 0 2
gene 1 1 5 -1.53838 0 1 -1.53838 1
gene 1 2 5 -1.42804 0 2 -1.42804 1
gene 1 3 5 6.69542 0 3 6.69542 1
gene 1 4 5 1.74799 0 4 1.74799 1
gene 1 5 5 -1.79383 1 253 -1.79383 1
genomeend 175

/* Organism #176 Fitness: 0.0064 Error: 0 */
genomestart 176
trait 1 0.1 0.24006 0 0.0576043 0 0.0194782 0 0 
node 1 1 1 1
node 2 1 1 1
node 3 1 1 1
node 4 1 1 3
node 5 1 0 2
gene 1 1 5 -2.24158 0 1 -2.24158 1
gene 1 2 5 -4.11918 0 2 -4.11918 1
gene 1 3 5 7.98861 0 3 7.98861 1
gene 1 4 5 1.1736 0 4 1.1736 1
gene 1 5 5 -1.48875 1 253 -1.48875 1
genomeend 176

/* Organism #177 Fitness: 0.0061 Error: 0 */
genomestart 177
trait 1 0.1 0.24006 0 0.0576043 0 0.0194782 0 0 
node 1 1 1 1
node 2 1 1 1
node 3 1 1 1
node 4 1 1 3
node 5 1 0 2
gene 1 1 5 -1.28345 0 1 -1.28345 1
gene 1 2 5 -3.49401 0 2 -3.49401 1
gene 1 3 5 8 0 3 8 1
gene 1 4 5 0.999082 0 4 0.999082 1
gene 1 5 5 -1.48875 1 253 -1.48875 1
genomeend 177

/* Organism #178 Fitness: 0.0009 Error: 0 */
genomestart 178
trait 1 0.1 0.297972 0 0.0757218 0 0.0129548 0 0 
node 1 1 1 1
node 2 1 1 1
node 3 1 1 1
node 4 1 1 3
node 5 1 0 2
gene 1 1 5 -1.47368 0 1 -1.47368 1
gene 1 2 5 -1.62832 0 2 -1.62832 1
gene 1 3 5 5.84053 0 3 5.84053 1
gene 1 4 5 0.205468 0 4 0.205468 1
gene 1 5 5 -3.48144 1 229 -3.48144 1
genomeend 178

/* Species #30 : (Size 2) (AF 0.0015) (Age 11)  */


/* Organism #179 Fitness: 0.0008 Error: 0 */
genomestart 179
trait 1 0.1 0.23399 0 0.0594625 0 0.0101731 0 0 
node 1 1 1 1
node 2 1 1 1
node 3 1 1 1
node 4 1 1 3
node 5 1 0 2
gene 1 1 5 1.24458 0 1 1.24458 1
gene 1 2 5 -8 0 2 -8 1
gene 1 3 5 5.63826 0 3 5.63826 1
gene 1 4 5 0.81208 0 4 0.81208 1
gene 1 5 5 -1.98538 1 254 -1.98538 1
genomeend 179

/* Organism #180 Fitness: 0.0022 Error: 0 */
genomestart 180
trait 1 0.1 0.23399 0 0.0594625 0 0.0101731 0 0 
node 1 1 1 1
node 2 1 1 1
node 3 1 1 1
node 4 1 1 3
node 5 1 0 2
gene 1 1 5 3.34345 0 1 3.34345 1
gene 1 2 5 -7.58614 0 2 -7.58614 1
gene 1 3 5 3.59776 0 3 3.59776 1
gene 1 4 5 1.14268 0 4 1.14268 1
gene 1 5 5 0.172429 1 254 0.172429 1
genomeend 180

/* Species #31 : (Size 1) (AF 0.0006) (Age 11)  */


/* Organism #181 Fitness: 0.0006 Error: 0 */
genomestart 181
trait 1 0 0.175132 0 0 0 0 0.80528 0 
node 1 1 1 1
node 2 1 1 1
node 3 1 1 1
node 4 1 1 3
node 5 1 0 2
node 8 1 0 0
gene 1 1 5 1.57317 0 1 1.57317 1
gene 1 2 5 -0.919018 0 2 -0.919018 1
gene 1 3 5 1.09368 0 3 1.09368 1
gene 1 4 5 -1.68381 0 4 -1.68381 1
gene 1 2 8 1.20051 0 28 1.20051 1
gene 1 8 5 3.93197 0 29 3.93197 1
gene 1 1 8 1.85553 0 353 1.85553 1
gene 1 5 5 1.88985 1 565 1.88985 1
genomeend 181

/* Species #32 : (Size 1) (AF 0.0005) (Age 11)  */


/* Organism #182 Fitness: 0.0005 Error: 0 */
genomestart 182
trait 1 0.05 0.158498 0.366534 0.114512 0.364287 0.108468 0.0672911 0.143171 
node 1 1 1 1
node 2 1 1 1
node 3 1 1 1
node 4 1 1 3
node 5 1 0 2
node 12 1 0 0
gene 1 1 5 1.93499 0 1 1.93499 1
gene 1 2 5 -0.394222 0 2 -0.394222 0
gene 1 3 5 -0.358383 0 3 -0.358383 1
gene 1 4 5 -0.0619216 0 4 -0.0619216 1
gene 1 2 12 0.138576 0 120 0.138576 1
gene 1 12 5 -3.83785 0 121 -3.83785 1
gene 1 4 12 -1.36631 0 363 -1.36631 1
gene 1 5 5 2.21185 1 566 2.21185 1
genomeend 182

/* Species #34 : (Size 9) (AF 0.00953484) (Age 11)  */


/* Organism #183 Fitness: 0.0140867 Error: 0 */
genomestart 183
trait 1 0.1 0.24613 0 0.0557461 0 0.0287833 0 0 
node 1 1 1 1
node 2 1 1 1
node 3 1 1 1
node 4 1 1 3
node 5 1 0 2
gene 1 1 5 -1.28345 0 1 -1.28345 1
gene 1 2 5 -3.49401 0 2 -3.49401 1
gene 1 3 5 8 0 3 8 1
gene 1 4 5 0.999082 0 4 0.999082 1
gene 1 5 5 -1.92429 1 253 -1.92429 1
genomeend 183

/* Organism #184 Fitness: 0.0140867 Error: 0 */
genomestart 184
trait 1 0.1 0.24613 0 0.0557461 0 0.0287833 0 0 
node 1 1 1 1
node 2 1 1 1
node 3 1 1 1
node 4 1 1 3
node 5 1 0 2
gene 1 1 5 -1.28345 0 1 -1.28345 1
gene 1 2 5 -3.49401 0 2 -3.49401 1
gene 1 3 5 8 0 3 8 1
gene 1 4 5 0.999082 0 4 0.999082 1
gene 1 5 5 -1.92429 1 253 -1.92429 1
genomeend 184

/* Organism #185 Fitness: 0.0068 Error: 0 */
genomestart 185
trait 1 0.1 0.24006 0 0.0576043 0 0.0194782 0 0 
node 1 1 1 1
node 2 1 1 1
node 3 1 1 1
node 4 1 1 3
node 5 1 0 2
gene 1 1 5 -1.28345 0 1 -1.28345 1
gene 1 2 5 -3.49401 0 2 -3.49401 1
gene 1 3 5 7.98861 0 3 7.98861 1
gene 1 4 5 1.34499 0 4 1.34499 1
gene 1 5 5 -1.92429 1 253 -1.92429 1
genomeend 185

/* Organism #186 Fitness: 0.0131401 Error: 0 */
genomestart 186
trait 1 0.1 0.116995 0 0.0594625 0.334332 0.0101731 0 0 
node 1 1 1 1
node 2 1 1 1
node 3 1 1 1
node 4 1 1 3
node 5 1 0 2
gene 1 1 5 -2.24158 0 1 -2.24158 1
gene 1 2 5 -5.21138 0 2 -5.21138 1
gene 1 3 5 7.98861 0 3 7.98861 1
gene 1 4 5 1.1736 0 4 1.1736 1
gene 1 5 5 -1.48875 1 253 -1.48875 1
genomeend 186

/* Organism #187 Fitness: 0.0071 Error: 0 */
genomestart 187
trait 1 0.1 0.267925 0 0.10338 0 0.0846138 0 0.0320199 
node 1 1 1 1
node 2 1 1 1
node 3 1 1 1
node 4 1 1 3
node 5 1 0 2
gene 1 1 5 -0.667567 0 1 -0.667567 1
gene 1 2 5 -2.3257 0 2 -2.3257 1
gene 1 3 5 8 0 3 8 1
gene 1 4 5 0.952069 0 4 0.952069 1
gene 1 5 5 -2.37402 1 192 -2.37402 1
genomeend 187

/* Organism #188 Fitness: 0.0071 Error: 0 */
genomestart 188
trait 1 0.1 0.267925 0 0.10338 0 0.0846138 0 0.0320199 
node 1 1 1 1
node 2 1 1 1
node 3 1 1 1
node 4 1 1 3
node 5 1 0 2
gene 1 1 5 -0.667567 0 1 -0.667567 1
gene 1 2 5 -2.3257 0 2 -2.3257 1
gene 1 3 5 8 0 3 8 1
gene 1 4 5 0.952069 0 4 0.952069 1
gene 1 5 5 -2.37402 1 192 -2.37402 1
genomeend 188

/* Organism #189 Fitness: 0.0071 Error: 0 */
genomestart 189
trait 1 0.1 0.292205 0 0.0959477 0 0.121834 0 0.0320199 
node 1 1 1 1
node 2 1 1 1
node 3 1 1 1
node 4 1 1 3
node 5 1 0 2
gene 1 1 5 -0.667567 0 1 -0.667567 1
gene 1 2 5 -3.33897 0 2 -3.33897 1
gene 1 3 5 8 0 3 8 1
gene 1 4 5 0.952069 0 4 0.952069 1
gene 1 5 5 -2.17268 1 192 -2.17268 1
genomeend 189

/* Organism #190 Fitness: 0.0071 Error: 0 */
genomestart 190
trait 1 0.1 0.267925 0 0.10338 0 0.0846138 0 0.0320199 
node 1 1 1 1
node 2 1 1 1
node 3 1 1 1
node 4 1 1 3
node 5 1 0 2
gene 1 1 5 -0.667567 0 1 -0.667567 1
gene 1 2 5 -2.3257 0 2 -2.3257 1
gene 1 3 5 8 0 3 8 1
gene 1 4 5 0.952069 0 4 0.952069 1
gene 1 5 5 -2.37402 1 192 -2.37402 1
genomeend 190

/* Organism #191 Fitness: 0.0093 Error: 0 */
genomestart 191
trait 1 0.1 0.292205 0 0.0959477 0 0.121834 0 0.0320199 
node 1 1 1 1
node 2 1 1 1
node 3 1 1 1
node 4 1 1 3
node 5 1 0 2
gene 1 1 5 -0.502566 0 1 -0.502566 1
gene 1 2 5 -2.83234 0 2 -2.83234 1
gene 1 3 5 8 0 3 8 1
gene 1 4 5 0.958864 0 4 0.958864 1
gene 1 5 5 -2.27335 1 192 -2.27335 1
genomeend 191

/* Species #36 : (Size 10) (AF 0.00674) (Age 10)  */


/* Organism #192 Fitness: 0.0089 Error: 0 */
genomestart 192
trait 1 0.106442 0.219366 0.000562745 0.0713711 0.017217 0.00953727 0.011831 0.0449101 
node 1 1 1 1
node 2 1 1 1
node 3 1 1 1
node 4 1 1 3
node 5 1 0 2
gene 1 1 5 -1.35641 0 1 -1.35641 1
gene 1 2 5 -0.63853 0 2 -0.63853 1
gene 1 3 5 4.95609 0 3 4.95609 1
gene 1 4 5 0.0793543 0 4 0.0793543 1
gene 1 5 5 -1.12237 1 254 -1.12237 1
genomeend 192

/* Organism #193 Fitness: 0.0089 Error: 0 */
genomestart 193
trait 1 0.106442 0.219366 0.000562745 0.0713711 0.017217 0.00953727 0.011831 0.0449101 
node 1 1 1 1
node 2 1 1 1
node 3 1 1 1
node 4 1 1 3
node 5 1 0 2
gene 1 1 5 -1.35641 0 1 -1.35641 1
gene 1 2 5 -0.63853 0 2 -0.63853 1
gene 1 3 5 4.95609 0 3 4.95609 1
gene 1 4 5 0.0793543 0 4 0.0793543 1
gene 1 5 5 -1.12237 1 254 -1.12237 1
genomeend 193

/* Organism #194 Fitness: 0.0089 Error: 0 */
genomestart 194
trait 1 0.106442 0.219366 0.000562745 0.0713711 0.017217 0.00953727 0.011831 0.0449101 
node 1 1 1 1
node 2 1 1 1
node 3 1 1 1
node 4 1 1 3
node 5 1 0 2
gene 1 1 5 -1.35641 0 1 -1.35641 1
gene 1 2 5 -0.63853 0 2 -0.63853 1
gene 1 3 5 4.95609 0 3 4.95609 1
gene 1 4 5 0.0793543 0 4 0.0793543 1
gene 1 5 5 -1.12237 1 254 -1.12237 1
genomeend 194

/* Organism #195 Fitness: 0.0024 Error: 0 */
genomestart 195
trait 1 0.109663 0.227935 0.000844118 0.0813612 0.0258255 0.00990982 0.0177466 0.0673651 
node 1 1 1 1
node 2 1 1 1
node 3 1 1 1
node 4 1 1 3
node 5 1 0 2
gene 1 1 5 -5.08424 0 1 -5.08424 1
gene 1 2 5 -3.18293 0 2 -3.18293 1
gene 1 3 5 6.63982 0 3 6.63982 1
gene 1 4 5 2.09593 0 4 2.09593 1
gene 1 5 5 -0.285309 1 254 -0.285309 1
genomeend 195

/* Organism #196 Fitness: 0.0071 Error: 0 */
genomestart 196
trait 1 0.10488 0.217452 0.00490841 0.0763662 0.0214081 0.00950746 0.011831 0.0449101 
node 1 1 1 1
node 2 1 1 1
node 3 1 1 1
node 4 1 1 3
node 5 1 0 2
gene 1 1 5 -4.50286 0 1 -4.50286 1
gene 1 2 5 -1.93619 0 2 -1.93619 1
gene 1 3 5 5.431 0 3 5.431 1
gene 1 4 5 0.20289 0 4 0.20289 1
gene 1 5 5 -1.13876 1 254 -1.13876 1
genomeend 196

/* Organism #197 Fitness: 0.0071 Error: 0 */
genomestart 197
trait 1 0.10488 0.217452 0.00490841 0.0763662 0.0214081 0.00950746 0.011831 0.0449101 
node 1 1 1 1
node 2 1 1 1
node 3 1 1 1
node 4 1 1 3
node 5 1 0 2
gene 1 1 5 -4.50286 0 1 -4.50286 1
gene 1 2 5 -1.93619 0 2 -1.93619 1
gene 1 3 5 5.431 0 3 5.431 1
gene 1 4 5 0.20289 0 4 0.20289 1
gene 1 5 5 -1.13876 1 254 -1.13876 1
genomeend 197

/* Organism #198 Fitness: 0.0071 Error: 0 */
genomestart 198
trait 1 0.10488 0.217452 0.00490841 0.0763662 0.0214081 0.00950746 0.011831 0.0449101 
node 1 1 1 1
node 2 1 1 1
node 3 1 1 1
node 4 1 1 3
node 5 1 0 2
gene 1 1 5 -4.50286 0 1 -4.50286 1
gene 1 2 5 -1.93619 0 2 -1.93619 1
gene 1 3 5 5.431 0 3 5.431 1
gene 1 4 5 0.20289 0 4 0.20289 1
gene 1 5 5 -1.13876 1 254 -1.13876 1
genomeend 198

/* Organism #199 Fitness: 0.0071 Error: 0 */
genomestart 199
trait 1 0.10488 0.217452 0.00490841 0.0763662 0.0214081 0.00950746 0.011831 0.0449101 
node 1 1 1 1
node 2 1 1 1
node 3 1 1 1
node 4 1 1 3
node 5 1 0 2
gene 1 1 5 -4.50286 0 1 -4.50286 1
gene 1 2 5 -1.93619 0 2 -1.93619 1
gene 1 3 5 5.431 0 3 5.431 1
gene 1 4 5 0.20289 0 4 0.20289 1
gene 1 5 5 -1.13876 1 254 -1.13876 1
genomeend 199

/* Organism #200 Fitness: 0.0071 Error: 0 */
genomestart 200
trait 1 0.10488 0.217452 0.00490841 0.0763662 0.0214081 0.00950746 0.011831 0.0449101 
node 1 1 1 1
node 2 1 1 1
node 3 1 1 1
node 4 1 1 3
node 5 1 0 2
gene 1 1 5 -4.50286 0 1 -4.50286 1
gene 1 2 5 -1.93619 0 2 -1.93619 1
gene 1 3 5 5.431 0 3 5.431 1
gene 1 4 5 0.20289 0 4 0.20289 1
gene 1 5 5 -1.13876 1 254 -1.13876 1
genomeend 200

/* Organism #201 Fitness: 0.0028 Error: 0 */
genomestart 201
trait 1 0.473562 0.217452 0 0.0763662 0.0214081 0 0.011831 0 
node 1 1 1 1
node 2 1 1 1
node 3 1 1 1
node 4 1 1 3
node 5 1 0 2
gene 1 1 5 -4.60611 0 1 -4.60611 1
gene 1 2 5 -2.29539 0 2 -2.29539 1
gene 1 3 5 7.18163 0 3 7.18163 1
gene 1 4 5 -0.934335 0 4 -0.934335 1
gene 1 5 5 -1.00342 1 254 -1.00342 1
genomeend 201

/* Species #37 : (Size 2) (AF 0.0011) (Age 10)  */


/* Organism #202 Fitness: 0.0004 Error: 0 */
genomestart 202
trait 1 0.283529 0 0 0 0 0 0 0.249973 
node 1 1 1 1
node 2 1 1 1
node 3 1 1 1
node 4 1 1 3
node 5 1 0 2
node 7 1 0 0
gene 1 1 5 2.19715 0 1 2.19715 0
gene 1 2 5 1.42846 0 2 1.42846 1
gene 1 3 5 0.0778636 0 3 0.0778636 1
gene 1 4 5 -1.63492 0 4 -1.63492 1
gene 1 1 7 0.732456 0 23 0.732456 1
gene 1 7 5 -0.186075 0 24 -0.186075 1
gene 1 3 7 -0.72338 0 124 -0.72338 1
gene 1 2 7 2.32783 0 149 2.32783 1
gene 1 4 7 -1.44794 0 708 -1.44794 1
genomeend 202

/* Organism #203 Fitness: 0.0018 Error: 0 */
genomestart 203
trait 1 0.467059 0 0 0 0 0 0 0.499946 
node 1 1 1 1
node 2 1 1 1
node 3 1 1 1
node 4 1 1 3
node 5 1 0 2
node 7 1 0 0
gene 1 1 5 2.46636 0 1 2.46636 0
gene 1 2 5 1.47425 0 2 1.47425 1
gene 1 3 5 0.62875 0 3 0.62875 1
gene 1 4 5 -0.267485 0 4 -0.267485 1
gene 1 1 7 -1.20979 0 23 -1.20979 1
gene 1 7 5 -0.722639 0 24 -0.722639 1
gene 1 3 7 0.492539 0 124 0.492539 1
gene 1 2 7 1.97512 0 149 1.97512 1
gene 1 4 7 -1.15545 0 708 -1.15545 1
genomeend 203

/* Species #42 : (Size 3) (AF 0.00206667) (Age 10)  */


/* Organism #204 Fitness: 0.0025 Error: 0 */
genomestart 204
trait 1 0.136736 0.0587113 0.0430588 0 0.225494 0.185257 0.20835 0.056541 
node 1 1 1 1
node 2 1 1 1
node 3 1 1 1
node 4 1 1 3
node 5 1 0 2
node 7 1 0 0
gene 1 1 5 -2.10287 0 1 -2.10287 1
gene 1 2 5 0.602286 0 2 0.602286 1
gene 1 3 5 6.9619 0 3 6.9619 1
gene 1 4 5 -0.59156 0 4 -0.59156 1
gene 1 1 7 0.812983 0 23 0.812983 1
gene 1 7 5 2.75397 0 24 2.75397 1
gene 1 7 7 -0.615916 1 299 -0.615916 1
gene 1 5 5 0.964059 1 776 0.964059 1
genomeend 204

/* Organism #205 Fitness: 0.002 Error: 0 */
genomestart 205
trait 1 0.136736 0.0587113 0.0430588 0 0.225494 0.185257 0.20835 0.056541 
node 1 1 1 1
node 2 1 1 1
node 3 1 1 1
node 4 1 1 3
node 5 1 0 2
node 7 1 0 0
gene 1 1 5 -1.10381 0 1 -1.10381 1
gene 1 2 5 0.0884503 0 2 0.0884503 1
gene 1 3 5 5.67212 0 3 5.67212 1
gene 1 4 5 -0.952767 0 4 -0.952767 1
gene 1 1 7 1.20162 0 23 1.20162 1
gene 1 7 5 2.13652 0 24 2.13652 1
gene 1 7 7 -0.615916 1 299 -0.615916 1
genomeend 205

/* Organism #206 Fitness: 0.0017 Error: 0 */
genomestart 206
trait 1 0.075 0 0 0 0 0.0548236 0 0 
node 1 1 1 1
node 2 1 1 1
node 3 1 1 1
node 4 1 1 3
node 5 1 0 2
node 7 1 0 0
gene 1 1 5 1.19538 0 1 1.19538 1
gene 1 2 5 0.00803401 0 2 0.00803401 0
gene 1 3 5 3.8274 0 3 3.8274 1
gene 1 4 5 0.348639 0 4 0.348639 1
gene 1 1 7 -0.248629 0 23 -0.248629 1
gene 1 7 5 1.63194 0 24 1.63194 1
gene 1 7 7 -1.13202 1 299 -1.13202 1
gene 1 2 7 0.703779 0 662 0.703779 1
genomeend 206

/* Species #43 : (Size 1) (AF 0.0009) (Age 10)  */


/* Organism #207 Fitness: 0.0009 Error: 0 */
genomestart 207
trait 1 0.1 0.088546 0 0.0225017 0 0.00384968 0 0 
node 1 1 1 1
node 2 1 1 1
node 3 1 1 1
node 4 1 1 3
node 5 1 0 2
gene 1 1 5 -1.9405 0 1 -1.9405 1
gene 1 2 5 -0.947644 0 2 -0.947644 1
gene 1 3 5 -3.61752 0 3 -3.61752 1
gene 1 4 5 2.36455 0 4 2.36455 1
gene 1 5 5 -4.18681 1 155 -4.18681 1
genomeend 207

/* Species #45 : (Size 4) (AF 0.00335) (Age 10)  */


/* Organism #208 Fitness: 0.0039 Error: 0 */
genomestart 208
trait 1 0.08221 0.0204584 0.00429285 0.579525 0.0347013 0.0256554 0.0761914 0.16905 
node 1 1 1 1
node 2 1 1 1
node 3 1 1 1
node 4 1 1 3
node 5 1 0 2
gene 1 1 5 1.75108 0 1 1.75108 1
gene 1 2 5 1.67629 0 2 1.67629 1
gene 1 3 5 2.61328 0 3 2.61328 1
gene 1 4 5 0.665976 0 4 0.665976 1
gene 1 5 5 -1.8457 1 256 -1.8457 1
genomeend 208

/* Organism #209 Fitness: 0.0039 Error: 0 */
genomestart 209
trait 1 0.08221 0.0204584 0.00429285 0.579525 0.0347013 0.0256554 0.0761914 0.16905 
node 1 1 1 1
node 2 1 1 1
node 3 1 1 1
node 4 1 1 3
node 5 1 0 2
gene 1 1 5 1.75108 0 1 1.75108 1
gene 1 2 5 1.67629 0 2 1.67629 1
gene 1 3 5 2.61328 0 3 2.61328 1
gene 1 4 5 0.665976 0 4 0.665976 1
gene 1 5 5 -1.8457 1 256 -1.8457 1
genomeend 209

/* Organism #210 Fitness: 0.0034 Error: 0 */
genomestart 210
trait 1 0.08221 0.0204584 0.00429285 0.579525 0.0347013 0.0256554 0.0761914 0.16905 
node 1 1 1 1
node 2 1 1 1
node 3 1 1 1
node 4 1 1 3
node 5 1 0 2
gene 1 1 5 1.86872 0 1 1.86872 1
gene 1 2 5 0.262372 0 2 0.262372 1
gene 1 3 5 3.5006 0 3 3.5006 1
gene 1 4 5 0.8607 0 4 0.8607 1
gene 1 5 5 -0.733059 1 256 -0.733059 1
genomeend 210

/* Organism #211 Fitness: 0.0022 Error: 0 */
genomestart 211
trait 1 0.380732 0 0.00858571 0.16185 0.104706 0.0681968 0.016485 0.49363 
node 1 1 1 1
node 2 1 1 1
node 3 1 1 1
node 4 1 1 3
node 5 1 0 2
gene 1 1 5 1.76149 0 1 1.76149 0
gene 1 2 5 4.04331 0 2 4.04331 1
gene 1 3 5 2.70919 0 3 2.70919 1
gene 1 4 5 0.502006 0 4 0.502006 1
gene 1 5 5 -1.43289 1 717 -1.43289 1
genomeend 211

/* Species #49 : (Size 1) (AF 0.0004) (Age 10)  */


/* Organism #212 Fitness: 0.0004 Error: 0 */
genomestart 212
trait 1 0.632158 0 0.930034 0.0818436 0.0553895 0.00790799 0.0386184 0.0925292 
node 1 1 1 1
node 2 1 1 1
node 3 1 1 1
node 4 1 1 3
node 5 1 0 2
gene 1 1 5 0.264657 0 1 0.264657 1
gene 1 2 5 1.20557 0 2 1.20557 0
gene 1 3 5 1.27792 0 3 1.27792 1
gene 1 4 5 -2.60931 0 4 -2.60931 1
gene 1 5 5 -2.45573 1 254 -2.45573 1
genomeend 212

/* Species #51 : (Size 1) (AF 0.0007) (Age 10)  */


/* Organism #213 Fitness: 0.0007 Error: 0 */
genomestart 213
trait 1 0.1 0 0 0 0 0 0 0 
node 1 1 1 1
node 2 1 1 1
node 3 1 1 1
node 4 1 1 3
node 5 1 0 2
node 8 1 0 0
gene 1 1 5 -1.47693 0 1 -1.47693 1
gene 1 2 5 0.79875 0 2 0.79875 0
gene 1 3 5 -0.301135 0 3 -0.301135 0
gene 1 4 5 -1.48333 0 4 -1.48333 1
gene 1 2 8 3.72491 0 28 3.72491 1
gene 1 8 5 0.750073 0 29 0.750073 1
gene 1 5 5 0.385396 1 110 0.385396 1
gene 1 3 8 -0.337655 0 163 -0.337655 1
gene 1 4 8 0.319797 0 417 0.319797 1
gene 1 8 8 -0.563906 1 568 -0.563906 1
gene 1 1 8 0.705624 0 777 0.705624 1
genomeend 213

/* Species #53 : (Size 1) (AF 0.002) (Age 10)  */


/* Organism #214 Fitness: 0.002 Error: 0 */
genomestart 214
trait 1 0.1 0 0 0 0 0 0 0 
node 1 1 1 1
node 2 1 1 1
node 3 1 1 1
node 4 1 1 3
node 5 1 0 2
node 8 1 0 0
node 11 1 0 0
gene 1 1 5 0.354154 0 1 0.354154 1
gene 1 2 5 -1.51967 0 2 -1.51967 0
gene 1 3 5 1.25973 0 3 1.25973 1
gene 1 4 5 0.315628 0 4 0.315628 1
gene 1 2 8 -1.67067 0 28 -1.67067 0
gene 1 8 5 1.50424 0 29 1.50424 1
gene 1 2 11 -0.952205 0 112 -0.952205 1
gene 1 11 8 -1.5321 0 113 -1.5321 1
gene 1 11 5 -0.216286 0 243 -0.216286 1
gene 1 3 11 -1.32261 0 369 -1.32261 1
gene 1 4 11 1.0846 0 428 1.0846 1
gene 1 1 8 -1.09147 0 569 -1.09147 1
gene 1 3 8 0.313245 0 778 0.313245 1
genomeend 214

/* Species #54 : (Size 3) (AF 0.003) (Age 10)  */


/* Organism #215 Fitness: 0.0032 Error: 0 */
genomestart 215
trait 1 0 1 0 0.0297313 0 0 0 0 
node 1 1 1 1
node 2 1 1 1
node 3 1 1 1
node 4 1 1 3
node 5 1 0 2
node 8 1 0 0
node 16 1 0 0
gene 1 1 5 -3.81525 0 1 -3.81525 1
gene 1 2 5 -1.70991 0 2 -1.70991 0
gene 1 3 5 3.74378 0 3 3.74378 1
gene 1 4 5 -0.715642 0 4 -0.715642 1
gene 1 2 8 1.07657 0 28 1.07657 1
gene 1 8 5 2.38619 0 29 2.38619 0
gene 1 8 16 -1.39722 0 166 -1.39722 1
gene 1 16 5 0.380736 0 167 0.380736 1
gene 1 1 16 1.24674 0 570 1.24674 1
gene 1 3 8 -0.195488 0 652 -0.195488 1
gene 1 2 16 0.363096 0 779 0.363096 1
genomeend 215

/* Organism #216 Fitness: 0.0036 Error: 0 */
genomestart 216
trait 1 0 1 0 0.0297313 0 0 0 0 
node 1 1 1 1
node 2 1 1 1
node 3 1 1 1
node 4 1 1 3
node 5 1 0 2
node 8 1 0 0
node 16 1 0 0
gene 1 1 5 -3.81525 0 1 -3.81525 1
gene 1 2 5 -1.70991 0 2 -1.70991 0
gene 1 3 5 3.74378 0 3 3.74378 1
gene 1 4 5 -0.715642 0 4 -0.715642 1
gene 1 2 8 1.07657 0 28 1.07657 1
gene 1 8 5 2.38619 0 29 2.38619 0
gene 1 8 16 -1.39722 0 166 -1.39722 1
gene 1 16 5 0.380736 0 167 0.380736 1
gene 1 1 16 1.24674 0 570 1.24674 1
gene 1 3 8 -0.195488 0 652 -0.195488 1
gene 1 3 16 0.706384 0 780 0.706384 1
genomeend 216

/* Organism #217 Fitness: 0.0022 Error: 0 */
genomestart 217
trait 1 0 1 0 0.0297313 0 0 0 0 
node 1 1 1 1
node 2 1 1 1
node 3 1 1 1
node 4 1 1 3
node 5 1 0 2
node 8 1 0 0
node 16 1 0 0
gene 1 1 5 -3.81525 0 1 -3.81525 1
gene 1 2 5 -1.70991 0 2 -1.70991 1
gene 1 3 5 3.72887 0 3 3.72887 1
gene 1 4 5 0.399981 0 4 0.399981 1
gene 1 2 8 2.8417 0 28 2.8417 1
gene 1 8 5 1.58579 0 29 1.58579 0
gene 1 8 16 -1.74889 0 166 -1.74889 1
gene 1 16 5 1.90807 0 167 1.90807 1
gene 1 1 16 2.75892 0 570 2.75892 1
gene 1 3 8 -0.260876 0 652 -0.260876 1
genomeend 217

/* Species #55 : (Size 3) (AF 0.00423333) (Age 10)  */


/* Organism #218 Fitness: 0.0037 Error: 0 */
genomestart 218
trait 1 0.126111 0 0.0862428 0 0.0114393 0.0168859 0.016485 0 
node 1 1 1 1
node 2 1 1 1
node 3 1 1 1
node 4 1 1 3
node 5 1 0 2
node 7 1 0 0
gene 1 1 5 -1.62199 0 1 -1.62199 0
gene 1 2 5 0.716597 0 2 0.716597 1
gene 1 3 5 4.64603 0 3 4.64603 1
gene 1 4 5 -1.99828 0 4 -1.99828 1
gene 1 1 7 0.646023 0 23 0.646023 1
gene 1 7 5 0.662213 0 24 0.662213 1
gene 1 3 7 -1.14543 0 298 -1.14543 1
gene 1 2 7 0.414882 0 714 0.414882 1
genomeend 218

/* Organism #219 Fitness: 0.0034 Error: 0 */
genomestart 219
trait 1 0.113055 0 0.0431214 0 0.00571964 0.00844297 0.00824249 0 
node 1 1 1 1
node 2 1 1 1
node 3 1 1 1
node 4 1 1 3
node 5 1 0 2
node 7 1 0 0
gene 1 1 5 -1.16804 0 1 -1.16804 1
gene 1 2 5 0.716597 0 2 0.716597 1
gene 1 3 5 3.83286 0 3 3.83286 1
gene 1 4 5 -1.99828 0 4 -1.99828 1
gene 1 1 7 0.646023 0 23 0.646023 1
gene 1 7 5 0.662213 0 24 0.662213 1
gene 1 3 7 -1.14543 0 298 -1.14543 1
gene 1 2 7 0.414882 0 714 0 1
genomeend 219

/* Organism #220 Fitness: 0.0056 Error: 0 */
genomestart 220
trait 1 0.1 0 0 0 0 0 0 0 
node 1 1 1 1
node 2 1 1 1
node 3 1 1 1
node 4 1 1 3
node 5 1 0 2
node 7 1 0 0
gene 1 1 5 -1.16804 0 1 -1.16804 1
gene 1 2 5 1.04549 0 2 1.04549 1
gene 1 3 5 3.83286 0 3 3.83286 1
gene 1 4 5 -1.99828 0 4 -1.99828 1
gene 1 1 7 0.0713239 0 23 0.0713239 1
gene 1 7 5 1.56352 0 24 1.56352 1
gene 1 3 7 -0.888543 0 298 -0.888543 1
gene 1 2 7 0.414882 0 714 0 1
gene 1 4 7 -0.31138 0 781 -0.31138 1
genomeend 220

/* Species #56 : (Size 6) (AF 0.00296667) (Age 10)  */


/* Organism #221 Fitness: 0.0053 Error: 0 */
genomestart 221
trait 1 0.1 0 0 0 0 0 0.198603 0 
node 1 1 1 1
node 2 1 1 1
node 3 1 1 1
node 4 1 1 3
node 5 1 0 2
node 7 1 0 0
gene 1 1 5 -0.443347 0 1 -0.443347 0
gene 1 2 5 -1.47811 0 2 -1.47811 1
gene 1 3 5 4.75162 0 3 4.75162 1
gene 1 4 5 -2.57074 0 4 -2.57074 1
gene 1 1 7 0.0563086 0 23 0.0563086 1
gene 1 7 5 3.9357 0 24 3.9357 1
gene 1 3 7 -1.87985 0 124 -1.87985 1
gene 1 2 7 0.941178 0 206 0.941178 1
gene 1 7 7 -0.613209 1 304 -0.613209 1
gene 1 4 7 -0.106858 0 349 -0.106858 1
genomeend 221

/* Organism #222 Fitness: 0.0007 Error: 0 */
genomestart 222
trait 1 0.1 0 0 0 0 0 0.198603 0 
node 1 1 1 1
node 2 1 1 1
node 3 1 1 1
node 4 1 1 3
node 5 1 0 2
node 7 1 0 0
gene 1 1 5 0.84397 0 1 0.84397 0
gene 1 2 5 1.07527 0 2 1.07527 1
gene 1 3 5 4.75162 0 3 4.75162 1
gene 1 4 5 -2.57074 0 4 -2.57074 1
gene 1 1 7 0.0563086 0 23 0.0563086 1
gene 1 7 5 3.41763 0 24 3.41763 1
gene 1 3 7 -1.87985 0 124 -1.87985 1
gene 1 2 7 0.920761 0 206 0.920761 1
gene 1 7 7 0.355858 1 304 0.355858 1
gene 1 4 7 1.49228 0 349 1.49228 1
genomeend 222

/* Organism #223 Fitness: 0.0053 Error: 0 */
genomestart 223
trait 1 0.1 0 0 0 0 0 0.198603 0 
node 1 1 1 1
node 2 1 1 1
node 3 1 1 1
node 4 1 1 3
node 5 1 0 2
node 7 1 0 0
gene 1 1 5 -0.443347 0 1 -0.443347 0
gene 1 2 5 -1.47811 0 2 -1.47811 1
gene 1 3 5 4.75162 0 3 4.75162 1
gene 1 4 5 -2.57074 0 4 -2.57074 1
gene 1 1 7 0.0563086 0 23 0.0563086 1
gene 1 7 5 3.9357 0 24 3.9357 1
gene 1 3 7 -1.87985 0 124 -1.87985 1
gene 1 2 7 0.941178 0 206 0.941178 1
gene 1 7 7 -0.613209 1 304 -0.613209 1
gene 1 4 7 -0.106858 0 349 -0.106858 1
genomeend 223

/* Organism #224 Fitness: 0.0007 Error: 0 */
genomestart 224
trait 1 0.1 0 0 0 0 0 0.198603 0 
node 1 1 1 1
node 2 1 1 1
node 3 1 1 1
node 4 1 1 3
node 5 1 0 2
node 7 1 0 0
gene 1 1 5 -0.430437 0 1 -0.430437 1
gene 1 2 5 -0.702507 0 2 -0.702507 1
gene 1 3 5 0.602772 0 3 0.602772 1
gene 1 4 5 -2.5547 0 4 -2.5547 1
gene 1 1 7 1.25506 0 23 1.25506 1
gene 1 7 5 4.33738 0 24 4.33738 1
gene 1 3 7 0.779809 0 124 0.779809 1
gene 1 2 7 0.418092 0 206 0.418092 1
gene 1 7 7 0.23703 1 304 0.23703 1
gene 1 4 7 -0.157265 0 349 -0.157265 1
genomeend 224

/* Organism #225 Fitness: 0.0053 Error: 0 */
genomestart 225
trait 1 0.1 0 0 0 0 0 0.198603 0 
node 1 1 1 1
node 2 1 1 1
node 3 1 1 1
node 4 1 1 3
node 5 1 0 2
node 7 1 0 0
gene 1 1 5 -0.443347 0 1 -0.443347 0
gene 1 2 5 -1.47811 0 2 -1.47811 1
gene 1 3 5 4.75162 0 3 4.75162 1
gene 1 4 5 -2.57074 0 4 -2.57074 1
gene 1 1 7 0.0563086 0 23 0.0563086 1
gene 1 7 5 3.9357 0 24 3.9357 1
gene 1 3 7 -1.87985 0 124 -1.87985 1
gene 1 2 7 0.941178 0 206 0.941178 1
gene 1 7 7 -0.613209 1 304 -0.613209 1
gene 1 4 7 -0.106858 0 349 -0.106858 1
genomeend 225

/* Organism #226 Fitness: 0.0005 Error: 0 */
genomestart 226
trait 1 0.1 0 0 0 0 0 0.173778 0 
node 1 1 1 1
node 2 1 1 1
node 3 1 1 1
node 4 1 1 3
node 5 1 0 2
node 7 1 0 0
gene 1 1 5 -0.451854 0 1 -0.451854 1
gene 1 2 5 -1.16891 0 2 -1.16891 1
gene 1 3 5 4.98351 0 3 4.98351 1
gene 1 4 5 -1.9241 0 4 -1.9241 1
gene 1 1 7 -0.290886 0 23 -0.290886 1
gene 1 7 5 -0.833274 0 24 -0.833274 1
gene 1 3 7 0.109984 0 124 0.109984 1
gene 1 2 7 0.76034 0 206 0.76034 1
gene 1 7 7 1.32122 1 304 1.32122 1
gene 1 4 7 2.01469 0 349 2.01469 1
genomeend 226

/* Species #57 : (Size 3) (AF 0.00266667) (Age 10)  */


/* Organism #227 Fitness: 0.0019 Error: 0 */
genomestart 227
trait 1 0.254072 0 0 0 0.0984151 0.0619151 0.060445 0 
node 1 1 1 1
node 2 1 1 1
node 3 1 1 1
node 4 1 1 3
node 5 1 0 2
node 7 1 0 0
gene 1 1 5 -1.84733 0 1 -1.84733 0
gene 1 2 5 1.74255 0 2 1.74255 1
gene 1 3 5 4.08208 0 3 4.08208 1
gene 1 4 5 -1.79835 0 4 -1.79835 1
gene 1 1 7 1.00087 0 23 1.00087 1
gene 1 7 5 2.00626 0 24 2.00626 1
gene 1 2 7 -2.26373 0 413 -2.26373 1
gene 1 4 7 -1.60879 0 493 -1.60879 1
genomeend 227

/* Organism #228 Fitness: 0.0034 Error: 0 */
genomestart 228
trait 1 0.254072 0 0 0 0.0984151 0.0619151 0.060445 0 
node 1 1 1 1
node 2 1 1 1
node 3 1 1 1
node 4 1 1 3
node 5 1 0 2
node 7 1 0 0
gene 1 1 5 -1.56179 0 1 -1.56179 1
gene 1 2 5 2.15436 0 2 2.15436 1
gene 1 3 5 2.59106 0 3 2.59106 1
gene 1 4 5 -0.991446 0 4 -0.991446 1
gene 1 1 7 2.78042 0 23 2.78042 1
gene 1 7 5 2.23994 0 24 2.23994 1
gene 1 2 7 -0.737946 0 413 0 1
gene 1 4 7 -0.802813 0 493 0 1
genomeend 228

/* Organism #229 Fitness: 0.0027 Error: 0 */
genomestart 229
trait 1 0.254072 0 0 0 0.0984151 0.0619151 0.060445 0 
node 1 1 1 1
node 2 1 1 1
node 3 1 1 1
node 4 1 1 3
node 5 1 0 2
node 7 1 0 0
gene 1 1 5 -2.20338 0 1 -2.20338 0
gene 1 2 5 2.7269 0 2 2.7269 1
gene 1 3 5 3.17204 0 3 3.17204 1
gene 1 4 5 -0.301942 0 4 -0.301942 1
gene 1 1 7 1.307 0 23 1.307 1
gene 1 7 5 1.43378 0 24 1.43378 1
gene 1 2 7 -1.75471 0 413 -1.75471 1
gene 1 4 7 -1.46947 0 493 -1.46947 1
genomeend 229

/* Species #60 : (Size 1) (AF 0.0023) (Age 10)  */


/* Organism #230 Fitness: 0.0023 Error: 0 */
genomestart 230
trait 1 0.380732 0 0.00858571 0.16185 0.104706 0.0681968 0.016485 0.49363 
node 1 1 1 1
node 2 1 1 1
node 3 1 1 1
node 4 1 1 3
node 5 1 0 2
gene 1 1 5 1.19186 0 1 1.19186 0
gene 1 2 5 5.3787 0 2 5.3787 1
gene 1 3 5 3.10157 0 3 3.10157 1
gene 1 4 5 -1.8456 0 4 -1.8456 1
gene 1 5 5 0.639679 1 717 0.639679 1
genomeend 230

/* Species #63 : (Size 1) (AF 0.0021) (Age 10)  */


/* Organism #231 Fitness: 0.0021 Error: 0 */
genomestart 231
trait 1 0.203072 0.0251795 0.00900392 0.2612 0.0306573 0 0.237919 0.173376 
node 1 1 1 1
node 2 1 1 1
node 3 1 1 1
node 4 1 1 3
node 5 1 0 2
gene 1 1 5 0.606022 0 1 0.606022 1
gene 1 2 5 6.41647 0 2 6.41647 1
gene 1 3 5 3.38467 0 3 3.38467 1
gene 1 4 5 0.940636 0 4 0.940636 1
gene 1 5 5 -2.80153 1 85 -2.80153 1
genomeend 231

/* Species #66 : (Size 12) (AF 0.00625833) (Age 10)  */


/* Organism #232 Fitness: 0.008 Error: 0 */
genomestart 232
trait 1 0.075 0.292188 0 0.0686481 0.0810945 0.00400118 0.229985 0.247519 
node 1 1 1 1
node 2 1 1 1
node 3 1 1 1
node 4 1 1 3
node 5 1 0 2
gene 1 1 5 -5.20699 0 1 -5.20699 1
gene 1 2 5 0.0806216 0 2 0.0806216 1
gene 1 3 5 8 0 3 8 1
gene 1 4 5 -0.210369 0 4 -0.210369 1
gene 1 5 5 -1.75021 1 231 -1.75021 1
genomeend 232

/* Organism #233 Fitness: 0.0052 Error: 0 */
genomestart 233
trait 1 0.05 0.271007 0 0.0885087 0.162189 0.00673073 0.00591552 0.495037 
node 1 1 1 1
node 2 1 1 1
node 3 1 1 1
node 4 1 1 3
node 5 1 0 2
gene 1 1 5 -4.88838 0 1 -4.88838 1
gene 1 2 5 -1.31901 0 2 -1.31901 1
gene 1 3 5 7.9006 0 3 7.9006 1
gene 1 4 5 0.225195 0 4 0.225195 1
gene 1 5 5 -2.55368 1 231 -2.55368 1
genomeend 233

/* Organism #234 Fitness: 0.0051 Error: 0 */
genomestart 234
trait 1 0.1 0.313369 0 0.0487874 0 0.00127164 0.454055 0 
node 1 1 1 1
node 2 1 1 1
node 3 1 1 1
node 4 1 1 3
node 5 1 0 2
gene 1 1 5 -4.65003 0 1 -4.65003 1
gene 1 2 5 1.02529 0 2 1.02529 1
gene 1 3 5 6.80699 0 3 6.80699 1
gene 1 4 5 -0.645933 0 4 -0.645933 1
gene 1 5 5 -0.908515 1 231 -0.908515 1
genomeend 234

/* Organism #235 Fitness: 0.0051 Error: 0 */
genomestart 235
trait 1 0.1 0.313369 0 0.0487874 0 0.00127164 0.454055 0 
node 1 1 1 1
node 2 1 1 1
node 3 1 1 1
node 4 1 1 3
node 5 1 0 2
gene 1 1 5 -4.65003 0 1 -4.65003 1
gene 1 2 5 1.02529 0 2 1.02529 1
gene 1 3 5 6.80699 0 3 6.80699 1
gene 1 4 5 -0.645933 0 4 -0.645933 1
gene 1 5 5 -0.908515 1 231 -0.908515 1
genomeend 235

/* Organism #236 Fitness: 0.0045 Error: 0 */
genomestart 236
trait 1 0.05 0.271007 0 0.0885087 0.162189 0.00673073 0.00591552 0.495037 
node 1 1 1 1
node 2 1 1 1
node 3 1 1 1
node 4 1 1 3
node 5 1 0 2
gene 1 1 5 -5.94913 0 1 -5.94913 1
gene 1 2 5 -0.279664 0 2 -0.279664 1
gene 1 3 5 8 0 3 8 1
gene 1 4 5 0.323358 0 4 0.323358 1
gene 1 5 5 -1.28985 1 231 -1.28985 1
genomeend 236

/* Organism #237 Fitness: 0.0075 Error: 0 */
genomestart 237
trait 1 0.1 0.278593 0 0.0371641 0 0.00635818 0.227027 0 
node 1 1 1 1
node 2 1 1 1
node 3 1 1 1
node 4 1 1 3
node 5 1 0 2
gene 1 1 5 -4.24915 0 1 -4.24915 1
gene 1 2 5 2.42456 0 2 2.42456 1
gene 1 3 5 8 0 3 8 1
gene 1 4 5 -0.675279 0 4 -0.675279 1
gene 1 5 5 -2.10855 1 306 -2.10855 1
genomeend 237

/* Organism #238 Fitness: 0.0075 Error: 0 */
genomestart 238
trait 1 0.1 0.278593 0 0.0371641 0 0.00635818 0.227027 0 
node 1 1 1 1
node 2 1 1 1
node 3 1 1 1
node 4 1 1 3
node 5 1 0 2
gene 1 1 5 -4.24915 0 1 -4.24915 1
gene 1 2 5 2.42456 0 2 2.42456 1
gene 1 3 5 8 0 3 8 1
gene 1 4 5 -0.675279 0 4 -0.675279 1
gene 1 5 5 -2.10855 1 306 -2.10855 1
genomeend 238

/* Organism #239 Fitness: 0.0075 Error: 0 */
genomestart 239
trait 1 0.1 0.278593 0 0.0371641 0 0.00635818 0.227027 0 
node 1 1 1 1
node 2 1 1 1
node 3 1 1 1
node 4 1 1 3
node 5 1 0 2
gene 1 1 5 -4.24915 0 1 -4.24915 1
