
/* Species #1 : (Size 20) (AF 0.00943544) (Age 10)  */


/* Organism #0 Fitness: 0.0007 Error: 0 */
genomestart 0
trait 1 0.1 0.293402 0 0.0745604 0 0.0127561 0 0 
node 1 1 1 1
node 2 1 1 1
node 3 1 1 1
node 4 1 1 3
node 5 1 0 2
gene 1 1 5 1.38444 0 1 1.38444 1
gene 1 2 5 -1.2767 0 2 -1.2767 1
gene 1 3 5 -0.68121 0 3 -0.68121 1
gene 1 4 5 0.641721 0 4 0.641721 1
gene 1 5 5 -0.236056 1 103 -0.236056 1
genomeend 0

/* Organism #1 Fitness: 0.0292857 Error: 0 */
genomestart 1
trait 1 0.1 0.248614 0 0.0631789 0 0.0108089 0 0 
node 1 1 1 1
node 2 1 1 1
node 3 1 1 1
node 4 1 1 3
node 5 1 0 2
gene 1 1 5 -1.38278 0 1 -1.38278 1
gene 1 2 5 -2.78771 0 2 -2.78771 1
gene 1 3 5 2.33276 0 3 2.33276 1
gene 1 4 5 0.794316 0 4 0.794316 1
gene 1 5 5 -0.916685 1 161 -0.916685 1
genomeend 1

/* Organism #2 Fitness: 0.0005 Error: 0 */
genomestart 2
trait 1 0.112884 0.185547 0.00112549 0.0784019 0.034434 0.00806694 0.0236621 0.0898202 
node 1 1 1 1
node 2 1 1 1
node 3 1 1 1
node 4 1 1 3
node 5 1 0 2
gene 1 1 5 -1.19385 0 1 -1.19385 1
gene 1 2 5 -2.74661 0 2 -2.74661 1
gene 1 3 5 1.56219 0 3 1.56219 1
gene 1 4 5 0.118129 0 4 0.118129 1
gene 1 5 5 -1.86236 1 161 -1.86236 1
genomeend 2

/* Organism #3 Fitness: 0.0161134 Error: 0 */
genomestart 3
trait 1 0.1 0.279691 0 0.0710763 0 0.01216 0 0 
node 1 1 1 1
node 2 1 1 1
node 3 1 1 1
node 4 1 1 3
node 5 1 0 2
gene 1 1 5 -1.96126 0 1 -1.96126 1
gene 1 2 5 -1.74853 0 2 -1.74853 1
gene 1 3 5 1.61949 0 3 1.61949 1
gene 1 4 5 0.995096 0 4 0.995096 1
gene 1 5 5 -0.916685 1 161 -0.916685 1
genomeend 3

/* Organism #4 Fitness: 0.009 Error: 0 */
genomestart 4
trait 1 0.05 0.211596 0.231254 0.2871 0 0.00608001 0 0 
node 1 1 1 1
node 2 1 1 1
node 3 1 1 1
node 4 1 1 3
node 5 1 0 2
gene 1 1 5 -1.96126 0 1 -1.96126 1
gene 1 2 5 -1.74853 0 2 -1.74853 1
gene 1 3 5 1.61949 0 3 1.61949 1
gene 1 4 5 0.995096 0 4 0.995096 1
gene 1 5 5 -0.799278 1 161 -0.799278 1
genomeend 4

/* Organism #5 Fitness: 0.0019 Error: 0 */
genomestart 5
trait 1 0.1 0.346415 0 0.0880324 0 0.0150609 0 0 
node 1 1 1 1
node 2 1 1 1
node 3 1 1 1
node 4 1 1 3
node 5 1 0 2
gene 1 1 5 -1.36817 0 1 -1.36817 1
gene 1 2 5 -2.25512 0 2 -2.25512 1
gene 1 3 5 1.02617 0 3 1.02617 1
gene 1 4 5 1.74464 0 4 1.74464 1
gene 1 5 5 -2.36193 1 103 -2.36193 1
genomeend 5

/* Organism #6 Fitness: 0.0004 Error: 0 */
genomestart 6
trait 1 0.1 0.325392 0 0.0826901 0 0.0141469 0 0 
node 1 1 1 1
node 2 1 1 1
node 3 1 1 1
node 4 1 1 3
node 5 1 0 2
gene 1 1 5 -0.369685 0 1 -0.369685 1
gene 1 2 5 -0.532992 0 2 -0.532992 1
gene 1 3 5 -0.293952 0 3 -0.293952 1
gene 1 4 5 -0.644198 0 4 -0.644198 1
gene 1 5 5 -1.60262 1 103 -1.60262 1
genomeend 6

/* Organism #7 Fitness: 0.0160285 Error: 0 */
genomestart 7
trait 1 0.1 0.2998 0 0.0761864 0 0.0130343 0 0 
node 1 1 1 1
node 2 1 1 1
node 3 1 1 1
node 4 1 1 3
node 5 1 0 2
gene 1 1 5 -1.96126 0 1 -1.96126 1
gene 1 2 5 -1.74853 0 2 -1.74853 1
gene 1 3 5 1.61949 0 3 1.61949 1
gene 1 4 5 0.998014 0 4 0.998014 1
gene 1 5 5 -0.916685 1 161 -0.916685 1
genomeend 7

/* Organism #8 Fitness: 0.0158152 Error: 0 */
genomestart 8
trait 1 0.1 0.346415 0 0.0880324 0 0.0150609 0 0 
node 1 1 1 1
node 2 1 1 1
node 3 1 1 1
node 4 1 1 3
node 5 1 0 2
gene 1 1 5 -2.14119 0 1 -2.14119 1
gene 1 2 5 -2.24967 0 2 -2.24967 1
gene 1 3 5 1.918 0 3 1.918 1
gene 1 4 5 0.898415 0 4 0.898415 1
gene 1 5 5 -0.894746 1 103 -0.894746 1
genomeend 8

/* Organism #9 Fitness: 0.0168837 Error: 0 */
genomestart 9
trait 1 0.05 0.244958 0.231254 0.295578 0 0.00753047 0 0 
node 1 1 1 1
node 2 1 1 1
node 3 1 1 1
node 4 1 1 3
node 5 1 0 2
gene 1 1 5 -2.14119 0 1 -2.14119 1
gene 1 2 5 -2.24967 0 2 -2.24967 1
gene 1 3 5 1.918 0 3 1.918 1
gene 1 4 5 1.16104 0 4 1.16104 1
gene 1 5 5 -0.894746 1 103 -0.894746 1
genomeend 9

/* Organism #10 Fitness: 0.0292857 Error: 0 */
genomestart 10
trait 1 0.1 0.248614 0 0.0631789 0 0.0108089 0 0 
node 1 1 1 1
node 2 1 1 1
node 3 1 1 1
node 4 1 1 3
node 5 1 0 2
gene 1 1 5 -1.38278 0 1 -1.38278 1
gene 1 2 5 -2.78771 0 2 -2.78771 1
gene 1 3 5 2.33276 0 3 2.33276 1
gene 1 4 5 0.794316 0 4 0.794316 1
gene 1 5 5 -0.916685 1 161 -0.916685 1
genomeend 10

/* Organism #11 Fitness: 0.0013 Error: 0 */
genomestart 11
trait 1 0.1 0.241302 0 0.0613207 0 0.010491 0 0 
node 1 1 1 1
node 2 1 1 1
node 3 1 1 1
node 4 1 1 3
node 5 1 0 2
gene 1 1 5 -1.07211 0 1 -1.07211 1
gene 1 2 5 -1.05838 0 2 -1.05838 1
gene 1 3 5 1.79087 0 3 1.79087 1
gene 1 4 5 0.794316 0 4 0.794316 1
gene 1 5 5 -1.40474 1 161 -1.40474 1
genomeend 11

/* Organism #12 Fitness: 0.002 Error: 0 */
genomestart 12
trait 1 0.1 1 0 0 0 0.0131535 0 0 
node 1 1 1 1
node 2 1 1 1
node 3 1 1 1
node 4 1 1 3
node 5 1 0 2
gene 1 1 5 -1.4244 0 1 -1.4244 1
gene 1 2 5 -1.80946 0 2 -1.80946 1
gene 1 3 5 1.76369 0 3 1.76369 1
gene 1 4 5 -0.0381432 0 4 -0.0381432 1
gene 1 5 5 0.110398 1 161 0.110398 1
genomeend 12

/* Organism #13 Fitness: 0.002 Error: 0 */
genomestart 13
trait 1 0.05 0.234447 0.231254 0.292907 0 0.00707347 0 0 
node 1 1 1 1
node 2 1 1 1
node 3 1 1 1
node 4 1 1 3
node 5 1 0 2
gene 1 1 5 0.482422 0 1 0.482422 1
gene 1 2 5 -0.792938 0 2 -0.792938 1
gene 1 3 5 0.686337 0 3 0.686337 1
gene 1 4 5 0.998014 0 4 0.998014 1
gene 1 5 5 -0.848032 1 103 -0.848032 1
genomeend 13

/* Organism #14 Fitness: 0.0093 Error: 0 */
genomestart 14
trait 1 0.1 0.256841 0 0.0652694 0 0.0111666 0 0 
node 1 1 1 1
node 2 1 1 1
node 3 1 1 1
node 4 1 1 3
node 5 1 0 2
gene 1 1 5 -1.99681 0 1 -1.99681 1
gene 1 2 5 -1.74853 0 2 -1.74853 1
gene 1 3 5 2.33276 0 3 2.33276 1
gene 1 4 5 0.995096 0 4 0.995096 1
gene 1 5 5 -0.916685 1 161 -0.916685 1
genomeend 14

/* Organism #15 Fitness: 0.0158152 Error: 0 */
genomestart 15
trait 1 0.1 0.346415 0 0.0880324 0 0.0150609 0 0 
node 1 1 1 1
node 2 1 1 1
node 3 1 1 1
node 4 1 1 3
node 5 1 0 2
gene 1 1 5 -2.14119 0 1 -2.14119 1
gene 1 2 5 -2.24967 0 2 -2.24967 1
gene 1 3 5 1.918 0 3 1.918 1
gene 1 4 5 0.898415 0 4 0.898415 1
gene 1 5 5 -0.894746 1 103 -0.894746 1
genomeend 15

/* Organism #16 Fitness: 0.0053 Error: 0 */
genomestart 16
trait 1 0.1 0.318309 0 0.0808899 0 0.013839 0 0 
node 1 1 1 1
node 2 1 1 1
node 3 1 1 1
node 4 1 1 3
node 5 1 0 2
gene 1 1 5 -1.99737 0 1 -1.99737 1
gene 1 2 5 -1.57765 0 2 -1.57765 1
gene 1 3 5 5.54868 0 3 5.54868 1
gene 1 4 5 0.577635 0 4 0.577635 1
gene 1 5 5 -1.92659 1 103 -1.92659 1
genomeend 16

/* Organism #17 Fitness: 0.0137815 Error: 0 */
genomestart 17
trait 1 0.1 0.409483 0 0.104059 0 0.0178029 0 0 
node 1 1 1 1
node 2 1 1 1
node 3 1 1 1
node 4 1 1 3
node 5 1 0 2
gene 1 1 5 -2.32967 0 1 -2.32967 1
gene 1 2 5 -3.13787 0 2 -3.13787 1
gene 1 3 5 3.98535 0 3 3.98535 1
gene 1 4 5 0.794316 0 4 0.794316 1
gene 1 5 5 -0.848032 1 103 -0.848032 1
genomeend 17

/* Organism #18 Fitness: 0.0023 Error: 0 */
genomestart 18
trait 1 0.1 0.349728 0 0.0888744 0 0.015205 0 0 
node 1 1 1 1
node 2 1 1 1
node 3 1 1 1
node 4 1 1 3
node 5 1 0 2
gene 1 1 5 -3.20837 0 1 -3.20837 1
gene 1 2 5 -2.78318 0 2 -2.78318 1
gene 1 3 5 3.91924 0 3 3.91924 1
gene 1 4 5 1.13236 0 4 1.13236 1
gene 1 5 5 0.0977445 1 103 0.0977445 1
genomeend 18

/* Organism #19 Fitness: 0.001 Error: 0 */
genomestart 19
trait 1 0.104724 0 0 0.0148656 0 0.801577 0 0 
node 1 1 1 1
node 2 1 1 1
node 3 1 1 1
node 4 1 1 3
node 5 1 0 2
gene 1 1 5 -1.01686 0 1 -1.01686 1
gene 1 2 5 -1.94704 0 2 -1.94704 1
gene 1 3 5 2.51144 0 3 2.51144 1
gene 1 4 5 0.672966 0 4 0.672966 1
gene 1 5 5 -1.66347 1 231 -1.66347 1
genomeend 19

/* Species #2 : (Size 5) (AF 0.00386) (Age 9)  */


/* Organism #20 Fitness: 0.0009 Error: 0 */
genomestart 20
trait 1 0.156291 0.00314744 0.00112549 0.0866177 0.00383216 0 0.155102 0.0811163 
node 1 1 1 1
node 2 1 1 1
node 3 1 1 1
node 4 1 1 3
node 5 1 0 2
gene 1 1 5 2.63825 0 1 2.63825 1
gene 1 2 5 2.98251 0 2 2.98251 1
gene 1 3 5 1.58046 0 3 1.58046 1
gene 1 4 5 -0.587579 0 4 -0.587579 1
gene 1 5 5 -1.56956 1 85 -1.56956 1
genomeend 20

/* Organism #21 Fitness: 0.0045 Error: 0 */
genomestart 21
trait 1 0.169175 0.0209193 0.00225098 0.115984 0.00766432 0.000635818 0.0887022 0.102788 
node 1 1 1 1
node 2 1 1 1
node 3 1 1 1
node 4 1 1 3
node 5 1 0 2
gene 1 1 5 1.47838 0 1 1.47838 1
gene 1 2 5 2.89167 0 2 2.89167 1
gene 1 3 5 3.27817 0 3 3.27817 1
gene 1 4 5 -0.382099 0 4 -0.382099 1
gene 1 5 5 -1.56956 1 85 -1.56956 1
genomeend 21

/* Organism #22 Fitness: 0.0035 Error: 0 */
genomestart 22
trait 1 0.119326 0.0266577 0.735736 0 0.00574824 0.000953727 0 0.032508 
node 1 1 1 1
node 2 1 1 1
node 3 1 1 1
node 4 1 1 3
node 5 1 0 2
gene 1 1 5 1.28573 0 1 1.28573 1
gene 1 2 5 0.890453 0 2 0.890453 1
gene 1 3 5 3.25198 0 3 3.25198 1
gene 1 4 5 -0.219752 0 4 -0.219752 1
genomeend 22

/* Organism #23 Fitness: 0.0053 Error: 0 */
genomestart 23
trait 1 0.147472 0.0721046 0.246934 0.0866245 0.00766432 0.00286118 0.0561821 0.0730661 
node 1 1 1 1
node 2 1 1 1
node 3 1 1 1
node 4 1 1 3
node 5 1 0 2
gene 1 1 5 0.731227 0 1 0.731227 1
gene 1 2 5 2.89167 0 2 2.89167 1
gene 1 3 5 4.91248 0 3 4.91248 1
gene 1 4 5 -0.382099 0 4 -0.382099 1
gene 1 5 5 -1.56956 1 85 -1.56956 1
genomeend 23

/* Organism #24 Fitness: 0.0051 Error: 0 */
genomestart 24
trait 1 0.134588 0.0104596 0.00112549 0.0579921 0.00383216 0.000317909 0.102796 0.0513941 
node 1 1 1 1
node 2 1 1 1
node 3 1 1 1
node 4 1 1 3
node 5 1 0 2
gene 1 1 5 0.712614 0 1 0.712614 1
gene 1 2 5 2.45578 0 2 2.45578 1
gene 1 3 5 4.06017 0 3 4.06017 1
gene 1 4 5 -0.382099 0 4 -0.382099 1
gene 1 5 5 -1.56956 1 85 -1.56956 1
genomeend 24

/* Species #3 : (Size 3) (AF 0.00403333) (Age 9)  */


/* Organism #25 Fitness: 0.0039 Error: 0 */
genomestart 25
trait 1 0.25912 0.16046 0.073202 0.0910796 0 0 0.0625905 0.122052 
node 1 1 1 1
node 2 1 1 1
node 3 1 1 1
node 4 1 1 3
node 5 1 0 2
node 7 1 0 0
gene 1 1 5 0.061509 0 1 0.061509 0
gene 1 2 5 -1.37226 0 2 -1.37226 1
gene 1 3 5 2.57312 0 3 2.57312 1
gene 1 4 5 -0.104037 0 4 -0.104037 0
gene 1 1 7 -0.0530028 0 23 -0.0530028 1
gene 1 7 5 -0.31708 0 24 -0.31708 1
gene 1 3 7 -0.115477 0 147 -0.115477 1
gene 1 4 7 -2.44686 0 493 -2.44686 1
genomeend 25

/* Organism #26 Fitness: 0.0045 Error: 0 */
genomestart 26
trait 1 0.25912 0.16046 0.073202 0.0910796 0 0 0.0625905 0.122052 
node 1 1 1 1
node 2 1 1 1
node 3 1 1 1
node 4 1 1 3
node 5 1 0 2
node 7 1 0 0
gene 1 1 5 -0.940205 0 1 -0.940205 1
gene 1 2 5 0.0551075 0 2 0.0551075 1
gene 1 3 5 0.776182 0 3 0.776182 1
gene 1 4 5 -0.0789505 0 4 -0.0789505 1
gene 1 1 7 1 0 23 0 1
gene 1 7 5 -0.106401 0 24 0 1
gene 1 3 7 -0.647181 0 147 -0.647181 1
gene 1 2 7 -0.737946 0 413 -0.737946 1
gene 1 4 7 -0.802813 0 493 0 1
genomeend 26

/* Organism #27 Fitness: 0.0037 Error: 0 */
genomestart 27
trait 1 0.25912 0.16046 0.073202 0.0910796 0 0 0.0625905 0.122052 
node 1 1 1 1
node 2 1 1 1
node 3 1 1 1
node 4 1 1 3
node 5 1 0 2
node 7 1 0 0
gene 1 1 5 -0.940205 0 1 -0.940205 1
gene 1 2 5 0.0551075 0 2 0.0551075 1
gene 1 3 5 0.846404 0 3 0.846404 1
gene 1 4 5 -0.609148 0 4 -0.609148 0
gene 1 1 7 1 0 23 0 1
gene 1 7 5 -0.106401 0 24 0 1
gene 1 3 7 -0.647181 0 147 -0.647181 1
gene 1 2 7 -0.737946 0 413 -0.737946 1
gene 1 4 7 -0.802813 0 493 0 1
genomeend 27

/* Species #4 : (Size 1) (AF 0.0004) (Age 9)  */


/* Organism #28 Fitness: 0.0004 Error: 0 */
genomestart 28
trait 1 0.1 0 0 0 0 0 0 0 
node 1 1 1 1
node 2 1 1 1
node 3 1 1 1
node 4 1 1 3
node 5 1 0 2
node 8 1 0 0
gene 1 1 5 0.00611662 0 1 0.00611662 1
gene 1 2 5 -0.585043 0 2 -0.585043 0
gene 1 3 5 -4.85719 0 3 -4.85719 1
gene 1 4 5 -0.567737 0 4 -0.567737 1
gene 1 2 8 1.07289 0 28 1.07289 1
gene 1 8 5 -2.69662 0 29 -2.69662 1
gene 1 4 8 2.62868 0 348 2.62868 1
genomeend 28

/* Species #5 : (Size 2) (AF 0.0026) (Age 9)  */


/* Organism #29 Fitness: 0.0044 Error: 0 */
genomestart 29
trait 1 0.062884 0.0157372 0.00408374 0.53405 0.0540739 0.0513108 0.0577345 0.164724 
node 1 1 1 1
node 2 1 1 1
node 3 1 1 1
node 4 1 1 3
node 5 1 0 2
gene 1 1 5 2.24086 0 1 2.24086 1
gene 1 2 5 1.54674 0 2 1.54674 1
gene 1 3 5 2.59957 0 3 2.59957 1
gene 1 4 5 -0.163308 0 4 -0.163308 1
gene 1 5 5 -0.740752 1 265 -0.740752 1
genomeend 29

/* Organism #30 Fitness: 0.0008 Error: 0 */
genomestart 30
trait 1 0.331912 0.056654 0.0261753 0.5681 0.169462 0.102622 0.274894 0.502824 
node 1 1 1 1
node 2 1 1 1
node 3 1 1 1
node 4 1 1 3
node 5 1 0 2
gene 1 1 5 2.96059 0 1 2.96059 1
gene 1 2 5 0.125415 0 2 0.125415 1
gene 1 3 5 4.14524 0 3 4.14524 1
gene 1 4 5 -0.590564 0 4 -0.590564 1
gene 1 5 5 -2.46581 1 265 -2.46581 1
genomeend 30

/* Species #6 : (Size 4) (AF 0.001325) (Age 9)  */


/* Organism #31 Fitness: 0.002 Error: 0 */
genomestart 31
trait 1 0.337215 0 0 0.0014 0.211357 0.0619151 0.0756548 0 
node 1 1 1 1
node 2 1 1 1
node 3 1 1 1
node 4 1 1 3
node 5 1 0 2
node 7 1 0 0
gene 1 1 5 -0.378239 0 1 -0.378239 0
gene 1 2 5 1.83376 0 2 1.83376 1
gene 1 3 5 1.98415 0 3 1.98415 1
gene 1 4 5 -0.88948 0 4 -0.88948 1
gene 1 1 7 -0.238057 0 23 -0.238057 1
gene 1 7 5 1.28533 0 24 1.28533 1
gene 1 2 7 0.710195 0 268 0.710195 1
gene 1 3 7 0.943846 0 494 0.943846 1
gene 1 4 7 -0.58677 0 562 -0.58677 1
genomeend 31

/* Organism #32 Fitness: 0.0004 Error: 0 */
genomestart 32
trait 1 0.337215 0 0 0.0014 0 0 0.0756548 0 
node 1 1 1 1
node 2 1 1 1
node 3 1 1 1
node 4 1 1 3
node 5 1 0 2
node 7 1 0 0
gene 1 1 5 0.383454 0 1 0.383454 0
gene 1 2 5 -0.0178786 0 2 -0.0178786 1
gene 1 3 5 0.642188 0 3 0.642188 1
gene 1 4 5 -0.88948 0 4 -0.88948 1
gene 1 1 7 1.0531 0 23 1.0531 1
gene 1 7 5 -0.485143 0 24 -0.485143 1
gene 1 2 7 -0.114538 0 268 -0.114538 1
gene 1 3 7 0.543289 0 494 0.543289 1
genomeend 32

/* Organism #33 Fitness: 0.0021 Error: 0 */
genomestart 33
trait 1 0.337215 0 0 0.0014 0.211357 0.0619151 0.0756548 0 
node 1 1 1 1
node 2 1 1 1
node 3 1 1 1
node 4 1 1 3
node 5 1 0 2
node 7 1 0 0
gene 1 1 5 -0.378239 0 1 -0.378239 0
gene 1 2 5 1.83376 0 2 1.83376 1
gene 1 3 5 1.98415 0 3 1.98415 1
gene 1 4 5 -0.88948 0 4 -0.88948 1
gene 1 1 7 -0.238057 0 23 -0.238057 1
gene 1 7 5 1.28533 0 24 1.28533 1
gene 1 2 7 0.710195 0 268 0.710195 1
gene 1 3 7 0.943846 0 494 0.943846 1
genomeend 33

/* Organism #34 Fitness: 0.0008 Error: 0 */
genomestart 34
trait 1 0.337215 0 0 0.0014 0.211357 0.0619151 0.0756548 0 
node 1 1 1 1
node 2 1 1 1
node 3 1 1 1
node 4 1 1 3
node 5 1 0 2
node 7 1 0 0
gene 1 1 5 0.866596 0 1 0.866596 0
gene 1 2 5 3.19542 0 2 3.19542 1
gene 1 3 5 0.989797 0 3 0.989797 1
gene 1 4 5 -0.379109 0 4 -0.379109 1
gene 1 1 7 0.484593 0 23 0.484593 1
gene 1 7 5 0.255031 0 24 0.255031 1
gene 1 2 7 0.743197 0 268 0.743197 1
gene 1 3 7 0.223553 0 494 0.223553 1
genomeend 34

/* Species #7 : (Size 15) (AF 0.0047539) (Age 9)  */


/* Organism #35 Fitness: 0.0019 Error: 0 */
genomestart 35
trait 1 0.0971613 0.0753752 0.0358908 0.0597406 0.0679628 0.0045004 0.0311402 0.0911747 
node 1 1 1 1
node 2 1 1 1
node 3 1 1 1
node 4 1 1 3
node 5 1 0 2
gene 1 1 5 1.87065 0 1 1.87065 1
gene 1 2 5 -3.64869 0 2 -3.64869 1
gene 1 3 5 3.26472 0 3 3.26472 1
gene 1 4 5 0.19395 0 4 0.19395 1
genomeend 35

/* Organism #36 Fitness: 0.0066 Error: 0 */
genomestart 36
trait 1 0.097259 0.40745 0.00112549 0.0667881 0.0313932 0.00608001 0.0420648 0.377925 
node 1 1 1 1
node 2 1 1 1
node 3 1 1 1
node 4 1 1 3
node 5 1 0 2
gene 1 1 5 2.19742 0 1 2.19742 1
gene 1 2 5 -2.27819 0 2 -2.27819 1
gene 1 3 5 6.43654 0 3 6.43654 1
gene 1 4 5 1.38614 0 4 1.38614 1
gene 1 5 5 -2.09797 1 313 -2.09797 1
genomeend 36

/* Organism #37 Fitness: 0.0071 Error: 0 */
genomestart 37
trait 1 0.0986295 0.32072 0.000562745 0.0631253 0.0156966 0.00812655 0.0210324 0.188962 
node 1 1 1 1
node 2 1 1 1
node 3 1 1 1
node 4 1 1 3
node 5 1 0 2
gene 1 1 5 2.19742 0 1 2.19742 1
gene 1 2 5 -2.27819 0 2 -2.27819 1
gene 1 3 5 6.41948 0 3 6.41948 1
gene 1 4 5 1.00085 0 4 1.00085 1
gene 1 5 5 -2.09797 1 313 -2.09797 1
genomeend 37

/* Organism #38 Fitness: 0.0073 Error: 0 */
genomestart 38
trait 1 0.112877 0.126008 0.00225098 0.102134 0.0688681 0.00528524 0.0772368 0.185058 
node 1 1 1 1
node 2 1 1 1
node 3 1 1 1
node 4 1 1 3
node 5 1 0 2
gene 1 1 5 0.115296 0 1 0.115296 1
gene 1 2 5 -4.28366 0 2 -4.28366 0
gene 1 3 5 4.48876 0 3 4.48876 1
gene 1 4 5 0.904089 0 4 0.904089 1
gene 1 5 5 -2.03259 1 254 -2.03259 1
genomeend 38

/* Organism #39 Fitness: 0.0073 Error: 0 */
genomestart 39
trait 1 0.112877 0.126008 0.00225098 0.102134 0.0688681 0.00528524 0.0772368 0.185058 
node 1 1 1 1
node 2 1 1 1
node 3 1 1 1
node 4 1 1 3
node 5 1 0 2
gene 1 1 5 0.115296 0 1 0.115296 1
gene 1 2 5 -4.28366 0 2 -4.28366 0
gene 1 3 5 4.48876 0 3 4.48876 1
gene 1 4 5 0.904089 0 4 0.904089 1
gene 1 5 5 -2.03259 1 254 -2.03259 1
genomeend 39

/* Organism #40 Fitness: 0.0186085 Error: 0 */
genomestart 40
trait 1 0.06875 0.177321 0.0869132 0.0636435 0.0838219 0.0108884 0 0 
node 1 1 1 1
node 2 1 1 1
node 3 1 1 1
node 4 1 1 3
node 5 1 0 2
gene 1 1 5 1.15809 0 1 1.15809 1
gene 1 2 5 -5.28203 0 2 -5.28203 1
gene 1 3 5 4.19608 0 3 4.19608 1
gene 1 4 5 1.07765 0 4 1.07765 1
gene 1 5 5 -1.40523 1 390 -1.40523 1
genomeend 40

/* Organism #41 Fitness: 0.0031 Error: 0 */
genomestart 41
trait 1 0.100768 0.116995 0.0717816 0.107097 0.135926 0.00762982 0.0473241 0.17964 
node 1 1 1 1
node 2 1 1 1
node 3 1 1 1
node 4 1 1 3
node 5 1 0 2
gene 1 1 5 1.6381 0 1 1.6381 1
gene 1 2 5 -5.6388 0 2 -5.6388 1
gene 1 3 5 4.91456 0 3 4.91456 1
gene 1 4 5 2.62978 0 4 2.62978 1
genomeend 41

/* Organism #42 Fitness: 0.0025 Error: 0 */
genomestart 42
trait 1 0.0878774 0.0675106 0.0717816 0.102134 0.135926 0.00528524 0.0772368 0.185058 
node 1 1 1 1
node 2 1 1 1
node 3 1 1 1
node 4 1 1 3
node 5 1 0 2
gene 1 1 5 0.961094 0 1 0.961094 1
gene 1 2 5 -4.97978 0 2 -4.97978 0
gene 1 3 5 7.22481 0 3 7.22481 1
gene 1 4 5 0.231154 0 4 0.231154 1
genomeend 42

/* Organism #43 Fitness: 0.0026 Error: 0 */
genomestart 43
trait 1 0.1 0.265643 0 0.230058 0.185524 0.0102526 0 0 
node 1 1 1 1
node 2 1 1 1
node 3 1 1 1
node 4 1 1 3
node 5 1 0 2
gene 1 1 5 -0.140074 0 1 -0.140074 1
gene 1 2 5 -5.28249 0 2 -5.28249 1
gene 1 3 5 5.37202 0 3 5.37202 1
gene 1 4 5 1.01031 0 4 1.01031 1
gene 1 5 5 -0.265453 1 186 -0.265453 1
genomeend 43

/* Organism #44 Fitness: 0.003 Error: 0 */
genomestart 44
trait 1 0.100768 0.116995 0.0717816 0.107097 0.135926 0.00762982 0.0473241 0.17964 
node 1 1 1 1
node 2 1 1 1
node 3 1 1 1
node 4 1 1 3
node 5 1 0 2
gene 1 1 5 2.57297 0 1 2.57297 1
gene 1 2 5 -4.99274 0 2 -4.99274 1
gene 1 3 5 4.29053 0 3 4.29053 1
gene 1 4 5 2.26966 0 4 2.26966 1
genomeend 44

/* Organism #45 Fitness: 0.0018 Error: 0 */
genomestart 45
trait 1 0.0878774 0.0675106 0.0717816 0.102134 0.135926 0.00528524 0.0772368 0.185058 
node 1 1 1 1
node 2 1 1 1
node 3 1 1 1
node 4 1 1 3
node 5 1 0 2
gene 1 1 5 0.942029 0 1 0.942029 1
gene 1 2 5 -4.00144 0 2 -4.00144 0
gene 1 3 5 6.14016 0 3 6.14016 1
gene 1 4 5 -1.70176 0 4 -1.70176 1
genomeend 45

/* Organism #46 Fitness: 0.0017 Error: 0 */
genomestart 46
trait 1 0.0878774 0.0675106 0.0717816 0.102134 0.135926 0.00528524 0.0772368 0.185058 
node 1 1 1 1
node 2 1 1 1
node 3 1 1 1
node 4 1 1 3
node 5 1 0 2
gene 1 1 5 1.38556 0 1 1.38556 1
gene 1 2 5 -3.76958 0 2 -3.76958 0
gene 1 3 5 7.92188 0 3 7.92188 1
gene 1 4 5 -1.28358 0 4 -1.28358 1
genomeend 46

/* Organism #47 Fitness: 0.0027 Error: 0 */
genomestart 47
trait 1 0.0878774 0.0675106 0.0717816 0.102134 0.135926 0.00528524 0.0772368 0.185058 
node 1 1 1 1
node 2 1 1 1
node 3 1 1 1
node 4 1 1 3
node 5 1 0 2
gene 1 1 5 0.897415 0 1 0.897415 1
gene 1 2 5 -5.08285 0 2 -5.08285 0
gene 1 3 5 6.00587 0 3 6.00587 1
gene 1 4 5 -0.399775 0 4 -0.399775 1
gene 1 5 5 -0.225328 1 534 -0.225328 1
genomeend 47

/* Organism #48 Fitness: 0.0021 Error: 0 */
genomestart 48
trait 1 0.1 0.263239 0 0.0668953 0 0.0114447 0 0 
node 1 1 1 1
node 2 1 1 1
node 3 1 1 1
node 4 1 1 3
node 5 1 0 2
gene 1 1 5 0.9303 0 1 0.9303 1
gene 1 2 5 -1.23958 0 2 -1.23958 1
gene 1 3 5 4.74197 0 3 4.74197 1
gene 1 4 5 1.91746 0 4 1.91746 1
genomeend 48

/* Organism #49 Fitness: 0.003 Error: 0 */
genomestart 49
trait 1 0.1 0.267925 0 0.10338 0 0.0846138 0 0.0320199 
node 1 1 1 1
node 2 1 1 1
node 3 1 1 1
node 4 1 1 3
node 5 1 0 2
gene 1 1 5 1.40227 0 1 1.40227 1
gene 1 2 5 -2.87733 0 2 -2.87733 1
gene 1 3 5 6.42251 0 3 6.42251 1
gene 1 4 5 0.10846 0 4 0.10846 1
gene 1 5 5 -3.42678 1 192 -3.42678 1
genomeend 49

/* Species #8 : (Size 5) (AF 0.00086) (Age 9)  */


/* Organism #50 Fitness: 0.0023 Error: 0 */
genomestart 50
trait 1 0 0.143502 0.462507 0.503124 0 0 0 0 
node 1 1 1 1
node 2 1 1 1
node 3 1 1 1
node 4 1 1 3
node 5 1 0 2
gene 1 1 5 0.482422 0 1 0.482422 1
gene 1 2 5 -0.792938 0 2 -0.792938 1
gene 1 3 5 0.686337 0 3 0.686337 1
gene 1 4 5 1.16104 0 4 1.16104 1
gene 1 5 5 -0.799278 1 161 -0.799278 1
genomeend 50

/* Organism #51 Fitness: 0.0004 Error: 0 */
genomestart 51
trait 1 0.125768 0.137104 0.00225098 0.0973413 0.0688681 0.00596079 0.0473241 0.17964 
node 1 1 1 1
node 2 1 1 1
node 3 1 1 1
node 4 1 1 3
node 5 1 0 2
gene 1 1 5 -0.390896 0 1 -0.390896 1
gene 1 2 5 -2.84727 0 2 -2.84727 1
gene 1 3 5 0.791621 0 3 0.791621 1
gene 1 4 5 -0.758838 0 4 -0.758838 1
gene 1 5 5 -2.80803 1 161 -2.80803 1
genomeend 51

/* Organism #52 Fitness: 0.0005 Error: 0 */
genomestart 52
trait 1 0.1 0.302542 0 0.0768832 0 0.0131535 0 0 
node 1 1 1 1
node 2 1 1 1
node 3 1 1 1
node 4 1 1 3
node 5 1 0 2
gene 1 1 5 -3.24159 0 1 -3.24159 1
gene 1 2 5 -2.74632 0 2 -2.74632 1
gene 1 3 5 2.85277 0 3 2.85277 1
gene 1 4 5 1.67646 0 4 1.67646 1
gene 1 5 5 0.822521 1 161 0.822521 1
genomeend 52

/* Organism #53 Fitness: 0.0005 Error: 0 */
genomestart 53
trait 1 0.1 0.274207 0 0.0696826 0 0.0119216 0 0 
node 1 1 1 1
node 2 1 1 1
node 3 1 1 1
node 4 1 1 3
node 5 1 0 2
gene 1 1 5 -0.135793 0 1 -0.135793 1
gene 1 2 5 -2.99612 0 2 -2.99612 1
gene 1 3 5 0.502629 0 3 0.502629 1
gene 1 4 5 0.173692 0 4 0.173692 1
gene 1 5 5 -0.649001 1 161 -0.649001 1
genomeend 53

/* Organism #54 Fitness: 0.0006 Error: 0 */
genomestart 54
trait 1 0.0793541 0 0 0 0.115957 0 0.158858 0 
node 1 1 1 1
node 2 1 1 1
node 3 1 1 1
node 4 1 1 3
node 5 1 0 2
gene 1 1 5 -1.2548 0 1 -1.2548 1
gene 1 2 5 -3.70827 0 2 -3.70827 1
gene 1 3 5 2.82867 0 3 2.82867 1
gene 1 4 5 1.28885 0 4 1.28885 1
gene 1 5 5 0.753888 1 186 0.753888 1
genomeend 54

/* Species #9 : (Size 1) (AF 0.0007) (Age 9)  */


/* Organism #55 Fitness: 0.0007 Error: 0 */
genomestart 55
trait 1 0.1 0 0 0 0 0 0 0 
node 1 1 1 1
node 2 1 1 1
node 3 1 1 1
node 4 1 1 3
node 5 1 0 2
node 8 1 0 0
gene 1 1 5 -1.75319 0 1 -1.75319 1
gene 1 2 5 1.69363 0 2 1.69363 0
gene 1 3 5 -0.198686 0 3 -0.198686 1
gene 1 4 5 -0.976248 0 4 -0.976248 1
gene 1 2 8 2.96503 0 28 2.96503 1
gene 1 8 5 1.08755 0 29 1.08755 1
gene 1 3 8 2.48738 0 115 2.48738 1
gene 1 1 8 -1.78265 0 209 -1.78265 1
gene 1 4 8 0.876884 0 348 0.876884 1
genomeend 55

/* Species #10 : (Size 5) (AF 0.0015) (Age 9)  */


/* Organism #56 Fitness: 0.0024 Error: 0 */
genomestart 56
trait 1 0.1 0 0 0 0 0 0 0 
node 1 1 1 1
node 2 1 1 1
node 3 1 1 1
node 4 1 1 3
node 5 1 0 2
node 8 1 0 0
gene 1 1 5 -2.09991 0 1 -2.09991 1
gene 1 2 5 -1.85367 0 2 -1.85367 1
gene 1 3 5 3.80201 0 3 3.80201 1
gene 1 4 5 -2.22747 0 4 -2.22747 1
gene 1 2 8 -0.4492 0 28 -0.4492 1
gene 1 8 5 0.663668 0 29 0.663668 1
gene 1 3 8 1.34548 0 115 1.34548 1
gene 1 4 8 1.13687 0 164 1.13687 1
genomeend 56

/* Organism #57 Fitness: 0.0004 Error: 0 */
genomestart 57
trait 1 0.1 0 0 0 0 0 0 0 
node 1 1 1 1
node 2 1 1 1
node 3 1 1 1
node 4 1 1 3
node 5 1 0 2
node 8 1 0 0
gene 1 1 5 -2.39486 0 1 -2.39486 1
gene 1 2 5 1.10194 0 2 1.10194 0
gene 1 3 5 2.15115 0 3 2.15115 1
gene 1 4 5 -3.93413 0 4 -3.93413 1
gene 1 2 8 1.40929 0 28 1.40929 1
gene 1 8 5 0.0165459 0 29 0.0165459 1
gene 1 3 8 2.8387 0 115 2.8387 1
gene 1 4 8 -0.0203027 0 164 -0.0203027 1
genomeend 57

/* Organism #58 Fitness: 0.0007 Error: 0 */
genomestart 58
trait 1 0.934959 0 0 0 0 0 0 0 
node 1 1 1 1
node 2 1 1 1
node 3 1 1 1
node 4 1 1 3
node 5 1 0 2
node 8 1 0 0
gene 1 1 5 -1.31106 0 1 -1.31106 1
gene 1 2 5 -1.09496 0 2 -1.09496 1
gene 1 3 5 2.3168 0 3 2.3168 1
gene 1 4 5 -1.24907 0 4 -1.24907 1
gene 1 2 8 3.60828 0 28 3.60828 1
gene 1 8 5 2.00462 0 29 2.00462 1
gene 1 3 8 1.90004 0 115 1.90004 1
gene 1 4 8 0.615429 0 164 0.615429 1
gene 1 1 8 2.66601 0 418 2.66601 1
genomeend 58

/* Organism #59 Fitness: 0.0007 Error: 0 */
genomestart 59
trait 1 0.1 0 0 0 0 0 0 0 
node 1 1 1 1
node 2 1 1 1
node 3 1 1 1
node 4 1 1 3
node 5 1 0 2
node 8 1 0 0
gene 1 1 5 0.460295 0 1 0.460295 1
gene 1 2 5 -0.411935 0 2 -0.411935 0
gene 1 3 5 2.5338 0 3 2.5338 1
gene 1 4 5 -2.2299 0 4 -2.2299 1
gene 1 2 8 2.63926 0 28 2.63926 1
gene 1 8 5 2.12388 0 29 2.12388 1
gene 1 3 8 0.761674 0 115 0.761674 1
gene 1 4 8 1.35137 0 164 1.35137 1
gene 1 1 8 2.65008 0 418 2.65008 1
genomeend 59

/* Organism #60 Fitness: 0.0033 Error: 0 */
genomestart 60
trait 1 0.1 0 0 0 0 0 0 0 
node 1 1 1 1
node 2 1 1 1
node 3 1 1 1
node 4 1 1 3
node 5 1 0 2
node 8 1 0 0
gene 1 1 5 -1.22548 0 1 -1.22548 1
gene 1 2 5 -1.7922 0 2 -1.7922 0
gene 1 3 5 0.986059 0 3 0.986059 1
gene 1 4 5 -1.97123 0 4 -1.97123 1
gene 1 2 8 1.93653 0 28 1.93653 1
gene 1 8 5 1.18067 0 29 1.18067 1
gene 1 3 8 0.96512 0 115 0 1
gene 1 4 8 0.79194 0 164 0 1
gene 1 1 8 0.948665 0 418 0.948665 1
genomeend 60

/* Species #11 : (Size 6) (AF 0.00296667) (Age 9)  */


/* Organism #61 Fitness: 0.0043 Error: 0 */
genomestart 61
trait 1 0.226357 0 0 0.0014 0.030263 0.0168859 0.0316948 0 
node 1 1 1 1
node 2 1 1 1
node 3 1 1 1
node 4 1 1 3
node 5 1 0 2
node 7 1 0 0
gene 1 1 5 0.807078 0 1 0.807078 0
gene 1 2 5 0.383446 0 2 0.383446 1
gene 1 3 5 1.83498 0 3 1.83498 1
gene 1 4 5 -0.165516 0 4 -0.165516 1
gene 1 1 7 1.29791 0 23 1.29791 1
gene 1 7 5 -0.106401 0 24 0 1
gene 1 3 7 -0.547546 0 124 0 1
gene 1 4 7 -0.0705931 0 203 -0.0705931 1
genomeend 61

/* Organism #62 Fitness: 0.0034 Error: 0 */
genomestart 62
trait 1 0.457521 0 0 0.0007 0.076141 0.00844297 0.145887 0.0716336 
node 1 1 1 1
node 2 1 1 1
node 3 1 1 1
node 4 1 1 3
node 5 1 0 2
node 7 1 0 0
gene 1 1 5 0.807078 0 1 0.807078 0
gene 1 2 5 -0.359903 0 2 -0.359903 1
gene 1 3 5 1.83498 0 3 1.83498 1
gene 1 4 5 -0.222897 0 4 -0.222897 1
gene 1 1 7 1.29791 0 23 1.29791 1
gene 1 7 5 -0.106401 0 24 0 1
gene 1 3 7 -0.547546 0 124 0 1
gene 1 4 7 -0.0705931 0 203 -0.0705931 1
genomeend 62

/* Organism #63 Fitness: 0.0018 Error: 0 */
genomestart 63
trait 1 0.226357 0 0 0.0014 0.030263 0.0168859 0.0316948 0 
node 1 1 1 1
node 2 1 1 1
node 3 1 1 1
node 4 1 1 3
node 5 1 0 2
node 7 1 0 0
gene 1 1 5 1.03517 0 1 1.03517 0
gene 1 2 5 0.105972 0 2 0.105972 1
gene 1 3 5 2.72669 0 3 2.72669 1
gene 1 4 5 -0.665725 0 4 -0.665725 1
gene 1 1 7 0.751965 0 23 0.751965 1
gene 1 7 5 1.52025 0 24 1.52025 1
gene 1 3 7 0.678353 0 124 0.678353 1
gene 1 4 7 -1.08053 0 203 -1.08053 1
gene 1 2 7 -1.32084 0 413 -1.32084 1
genomeend 63

/* Organism #64 Fitness: 0.0046 Error: 0 */
genomestart 64
trait 1 0.419768 0 0 0.00105 0.0226972 0.0126645 0.0237711 0 
node 1 1 1 1
node 2 1 1 1
node 3 1 1 1
node 4 1 1 3
node 5 1 0 2
node 7 1 0 0
gene 1 1 5 1.03517 0 1 1.03517 0
gene 1 2 5 0.986391 0 2 0.986391 1
gene 1 3 5 1.23497 0 3 1.23497 1
gene 1 4 5 -0.570827 0 4 -0.570827 1
gene 1 1 7 1.3785 0 23 1.3785 1
gene 1 7 5 0.278976 0 24 0.332176 1
gene 1 3 7 -1.01548 0 124 -0.741709 1
gene 1 4 7 -0.802813 0 493 0 1
genomeend 64

/* Organism #65 Fitness: 0.0024 Error: 0 */
genomestart 65
trait 1 0.226357 0 0 0.0014 0.030263 0.0168859 0.0316948 0 
node 1 1 1 1
node 2 1 1 1
node 3 1 1 1
node 4 1 1 3
node 5 1 0 2
node 7 1 0 0
gene 1 1 5 2.01816 0 1 2.01816 0
gene 1 2 5 1.32124 0 2 1.32124 1
gene 1 3 5 1.63015 0 3 1.63015 1
gene 1 4 5 0.877001 0 4 0.877001 1
gene 1 1 7 -0.445602 0 23 -0.445602 1
gene 1 7 5 -1.13039 0 24 -1.13039 1
gene 1 3 7 0.72462 0 124 0.72462 1
gene 1 4 7 0.893018 0 203 0.893018 1
gene 1 2 7 -0.50168 0 413 -0.50168 1
genomeend 65

/* Organism #66 Fitness: 0.0013 Error: 0 */
genomestart 66
trait 1 0.419768 0 0 0.00105 0.0226972 0.0126645 0.0237711 0 
node 1 1 1 1
node 2 1 1 1
node 3 1 1 1
node 4 1 1 3
node 5 1 0 2
node 7 1 0 0
gene 1 1 5 1.93114 0 1 1.93114 0
gene 1 2 5 1.09877 0 2 1.09877 1
gene 1 3 5 0.0143065 0 3 0.0143065 1
gene 1 4 5 -1.50424 0 4 -1.50424 1
gene 1 1 7 1.38004 0 23 1.38004 1
gene 1 7 5 2.75733 0 24 2.75733 1
gene 1 3 7 1.87596 0 124 1.87596 1
gene 1 4 7 -0.798554 0 203 -0.798554 1
genomeend 66

/* Species #13 : (Size 5) (AF 0.00292) (Age 8)  */


/* Organism #67 Fitness: 0.0044 Error: 0 */
genomestart 67
trait 1 0.1 0 0 0 0 0 0 0 
node 1 1 1 1
node 2 1 1 1
node 3 1 1 1
node 4 1 1 3
node 5 1 0 2
node 10 1 0 0
gene 1 1 5 3.23084 0 1 3.23084 1
gene 1 2 5 3.5019 0 2 3.5019 1
gene 1 3 5 2.2665 0 3 2.2665 1
gene 1 4 5 -1.66591 0 4 -1.66591 1
gene 1 1 10 -1.44732 0 87 -1.44732 1
gene 1 10 5 0.26057 0 88 0.26057 1
gene 1 3 10 -0.210833 0 270 0 1
gene 1 5 5 -0.0536536 1 357 -0.0536536 1
gene 1 2 10 0.611347 0 496 0.611347 1
genomeend 67

/* Organism #68 Fitness: 0.0024 Error: 0 */
genomestart 68
trait 1 0.1 0 0 0 0 0 0 0 
node 1 1 1 1
node 2 1 1 1
node 3 1 1 1
node 4 1 1 3
node 5 1 0 2
node 10 1 0 0
gene 1 1 5 3.23084 0 1 3.23084 1
gene 1 2 5 3.5019 0 2 3.5019 1
gene 1 3 5 2.2665 0 3 2.2665 1
gene 1 4 5 -1.66591 0 4 -1.66591 1
gene 1 1 10 -1.44732 0 87 -1.44732 1
gene 1 10 5 0.26057 0 88 0.26057 1
gene 1 3 10 -0.210833 0 270 0 1
gene 1 5 5 -0.0536536 1 357 -0.0536536 1
gene 1 2 10 0.611347 0 496 0 1
gene 1 4 10 0.788645 0 563 0.788645 1
genomeend 68

/* Organism #69 Fitness: 0.003 Error: 0 */
genomestart 69
trait 1 0.1 0 0 0 0 0 0 0 
node 1 1 1 1
node 2 1 1 1
node 3 1 1 1
node 4 1 1 3
node 5 1 0 2
node 10 1 0 0
gene 1 1 5 1.52586 0 1 1.52586 1
gene 1 2 5 3.85382 0 2 3.85382 1
gene 1 3 5 3.88469 0 3 3.88469 1
gene 1 4 5 -0.267789 0 4 -0.267789 1
gene 1 1 10 -0.87918 0 87 -0.87918 1
gene 1 10 5 -0.5251 0 88 -0.5251 1
gene 1 3 10 0.0231687 0 270 0.0231687 1
gene 1 5 5 -0.614515 1 357 -0.614515 1
gene 1 2 10 -0.870108 0 496 -0.870108 1
genomeend 69

/* Organism #70 Fitness: 0.0024 Error: 0 */
genomestart 70
trait 1 0.1 0 0 0 0 0 0 0 
node 1 1 1 1
node 2 1 1 1
node 3 1 1 1
node 4 1 1 3
node 5 1 0 2
node 10 1 0 0
gene 1 1 5 3.23084 0 1 3.23084 1
gene 1 2 5 3.5019 0 2 3.5019 1
gene 1 3 5 2.2665 0 3 2.2665 1
gene 1 4 5 -1.66591 0 4 -1.66591 1
gene 1 1 10 -1.44732 0 87 -1.44732 1
gene 1 10 5 0.26057 0 88 0.26057 1
gene 1 3 10 -0.210833 0 270 0 1
gene 1 5 5 -0.0536536 1 357 -0.0536536 1
gene 1 2 10 0.611347 0 496 0 1
gene 1 4 10 0.788645 0 563 0 1
genomeend 70

/* Organism #71 Fitness: 0.0024 Error: 0 */
genomestart 71
trait 1 0.1 0 0 0 0 0 0 0 
node 1 1 1 1
node 2 1 1 1
node 3 1 1 1
node 4 1 1 3
node 5 1 0 2
node 10 1 0 0
gene 1 1 5 3.23084 0 1 3.23084 1
gene 1 2 5 3.5019 0 2 3.5019 1
gene 1 3 5 2.2665 0 3 2.2665 1
gene 1 4 5 -1.66591 0 4 -1.66591 1
gene 1 1 10 -1.44732 0 87 -1.44732 1
gene 1 10 5 0.26057 0 88 0.26057 1
gene 1 3 10 -0.210833 0 270 0 1
gene 1 5 5 -0.0536536 1 357 -0.0536536 1
gene 1 2 10 0.611347 0 496 0.305673 1
gene 1 4 10 0.788645 0 563 0 1
genomeend 71

/* Species #14 : (Size 11) (AF 0.00373636) (Age 8)  */


/* Organism #72 Fitness: 0.0071 Error: 0 */
genomestart 72
trait 1 0.112884 0.160817 0.00112549 0.0713175 0.00383216 0.00685491 0.0236621 0.021672 
node 1 1 1 1
node 2 1 1 1
node 3 1 1 1
node 4 1 1 3
node 5 1 0 2
gene 1 1 5 0.919511 0 1 0.919511 1
gene 1 2 5 0.0658483 0 2 0.0658483 1
gene 1 3 5 2.71503 0 3 2.71503 1
gene 1 4 5 0.060847 0 4 0.060847 1
gene 1 5 5 -0.840948 1 313 -0.840948 1
genomeend 72

/* Organism #73 Fitness: 0.0032 Error: 0 */
genomestart 73
trait 1 0.112884 0.160817 0.00112549 0.0713175 0.00383216 0.00685491 0.0236621 0.021672 
node 1 1 1 1
node 2 1 1 1
node 3 1 1 1
node 4 1 1 3
node 5 1 0 2
gene 1 1 5 1.14978 0 1 1.14978 1
gene 1 2 5 0.647391 0 2 0.647391 1
gene 1 3 5 4.36937 0 3 4.36937 1
gene 1 4 5 1.34466 0 4 1.34466 1
gene 1 5 5 -0.874717 1 313 -0.874717 1
genomeend 73

/* Organism #74 Fitness: 0.0057 Error: 0 */
genomestart 74
trait 1 0.090817 0.169069 0.0440194 0.0674805 0.043827 0.00887165 0.011831 0.010836 
node 1 1 1 1
node 2 1 1 1
node 3 1 1 1
node 4 1 1 3
node 5 1 0 2
gene 1 1 5 0.4883 0 1 0.4883 1
gene 1 2 5 0.231709 0 2 0.231709 1
gene 1 3 5 2.88456 0 3 2.88456 1
gene 1 4 5 0.140517 0 4 0.140517 1
gene 1 5 5 -0.840948 1 313 -0.840948 1
genomeend 74

/* Organism #75 Fitness: 0.0006 Error: 0 */
genomestart 75
trait 1 0.112884 0.160817 0.00112549 0.0713175 0.00383216 0.00685491 0.0236621 0.021672 
node 1 1 1 1
node 2 1 1 1
node 3 1 1 1
node 4 1 1 3
node 5 1 0 2
gene 1 1 5 0.767717 0 1 0.767717 1
gene 1 2 5 0.734588 0 2 0.734588 1
gene 1 3 5 1.34907 0 3 1.34907 1
gene 1 4 5 -1.27813 0 4 -1.27813 1
gene 1 5 5 0.254206 1 313 0.254206 1
genomeend 75

/* Organism #76 Fitness: 0.0071 Error: 0 */
genomestart 76
trait 1 0.112884 0.160817 0.00112549 0.0713175 0.00383216 0.00685491 0.0236621 0.021672 
node 1 1 1 1
node 2 1 1 1
node 3 1 1 1
node 4 1 1 3
node 5 1 0 2
gene 1 1 5 0.919511 0 1 0.919511 1
gene 1 2 5 0.0658483 0 2 0.0658483 1
gene 1 3 5 2.71503 0 3 2.71503 1
gene 1 4 5 0.060847 0 4 0.060847 1
gene 1 5 5 -0.840948 1 313 -0.840948 1
genomeend 76

/* Organism #77 Fitness: 0.0055 Error: 0 */
genomestart 77
trait 1 0.090817 0.169069 0.0440194 0.0674805 0.043827 0.00887165 0.011831 0.010836 
node 1 1 1 1
node 2 1 1 1
node 3 1 1 1
node 4 1 1 3
node 5 1 0 2
gene 1 1 5 0.919511 0 1 0.919511 1
gene 1 2 5 0.39757 0 2 0.39757 1
gene 1 3 5 3.0541 0 3 3.0541 1
gene 1 4 5 0.060847 0 4 0.060847 1
gene 1 5 5 -0.840948 1 313 -0.840948 1
genomeend 77

/* Organism #78 Fitness: 0.0036 Error: 0 */
genomestart 78
trait 1 0.06875 0.177321 0.0869132 0.0636435 0.0838219 0.0108884 0 0 
node 1 1 1 1
node 2 1 1 1
node 3 1 1 1
node 4 1 1 3
node 5 1 0 2
gene 1 1 5 0.057089 0 1 0.057089 1
gene 1 2 5 0.39757 0 2 0.39757 1
gene 1 3 5 3.0541 0 3 3.0541 1
gene 1 4 5 0.220187 0 4 0.220187 1
gene 1 5 5 -0.348175 1 390 -0.348175 1
genomeend 78

/* Organism #79 Fitness: 0.0032 Error: 0 */
genomestart 79
trait 1 0.101536 0.0251795 0.00450196 0.625 0.0153286 0 0.0946483 0.173376 
node 1 1 1 1
node 2 1 1 1
node 3 1 1 1
node 4 1 1 3
node 5 1 0 2
gene 1 1 5 2.26769 0 1 2.26769 1
gene 1 2 5 0.399327 0 2 0.399327 1
gene 1 3 5 2.71567 0 3 2.71567 1
gene 1 4 5 0.540244 0 4 0.540244 1
gene 1 5 5 -1.8457 1 256 -1.8457 1
genomeend 79

/* Organism #80 Fitness: 0.0006 Error: 0 */
genomestart 80
trait 1 0.16442 0.0214757 0.0639357 0.159966 0.0692585 0.000635818 0.106479 0.0975241 
node 1 1 1 1
node 2 1 1 1
node 3 1 1 1
node 4 1 1 3
node 5 1 0 2
gene 1 1 5 -0.941736 0 1 -0.941736 1
gene 1 2 5 -0.587197 0 2 -0.587197 1
gene 1 3 5 2.84024 0 3 2.84024 1
gene 1 4 5 3.02856 0 4 3.02856 1
gene 1 5 5 -0.656282 1 313 -0.656282 1
genomeend 80

/* Organism #81 Fitness: 0.0008 Error: 0 */
genomestart 81
trait 1 0.0901318 0.179019 0.0443007 0.066002 0.0516753 0.0072821 0.0223472 0.5 
node 1 1 1 1
node 2 1 1 1
node 3 1 1 1
node 4 1 1 3
node 5 1 0 2
gene 1 1 5 -0.398485 0 1 -0.398485 1
gene 1 2 5 -0.00851355 0 2 -0.00851355 1
gene 1 3 5 3.76008 0 3 3.76008 1
gene 1 4 5 0.0905873 0 4 0.0905873 1
gene 1 5 5 -3.92111 1 313 -3.92111 1
genomeend 81

/* Organism #82 Fitness: 0.0037 Error: 0 */
genomestart 82
trait 1 0.075 0.175493 0.0695306 0.0594625 0.0670575 0.0101731 0 0 
node 1 1 1 1
node 2 1 1 1
node 3 1 1 1
node 4 1 1 3
node 5 1 0 2
gene 1 1 5 0.223554 0 1 0.223554 1
gene 1 2 5 -0.145802 0 2 -0.145802 1
gene 1 3 5 3.16775 0 3 3.16775 1
gene 1 4 5 0.37969 0 4 0.37969 1
gene 1 5 5 -0.192258 1 364 -0.192258 1
genomeend 82

/* Species #15 : (Size 8) (AF 0.0029875) (Age 8)  */


/* Organism #83 Fitness: 0.0054 Error: 0 */
genomestart 83
trait 1 0.512288 0.100718 0.0360157 1 0.122629 0 0.406517 0.693504 
node 1 1 1 1
node 2 1 1 1
node 3 1 1 1
node 4 1 1 3
node 5 1 0 2
gene 1 1 5 2.07671 0 1 2.07671 1
gene 1 2 5 5.15374 0 2 5.15374 1
gene 1 3 5 4.56095 0 3 4.56095 1
gene 1 4 5 -1.66859 0 4 -1.66859 1
gene 1 5 5 -0.96674 1 321 -0.96674 1
genomeend 83

/* Organism #84 Fitness: 0.0018 Error: 0 */
genomestart 84
trait 1 0.512288 0.100718 0.0360157 1 0.122629 0 0.406517 0.693504 
node 1 1 1 1
node 2 1 1 1
node 3 1 1 1
node 4 1 1 3
node 5 1 0 2
gene 1 1 5 3.57864 0 1 3.57864 1
gene 1 2 5 4.35001 0 2 4.35001 1
gene 1 3 5 5.32649 0 3 5.32649 1
gene 1 4 5 -2.82285 0 4 -2.82285 1
gene 1 5 5 0.014294 1 321 0.014294 1
genomeend 84

/* Organism #85 Fitness: 0.0025 Error: 0 */
genomestart 85
trait 1 0.512288 0.100718 0.0360157 1 0.122629 0 0.406517 0.693504 
node 1 1 1 1
node 2 1 1 1
node 3 1 1 1
node 4 1 1 3
node 5 1 0 2
gene 1 1 5 2.75063 0 1 2.75063 1
gene 1 2 5 6.79359 0 2 6.79359 1
gene 1 3 5 4.13511 0 3 4.13511 1
gene 1 4 5 -0.0428906 0 4 -0.0428906 1
gene 1 5 5 -1.70051 1 321 -1.70051 1
genomeend 85

/* Organism #86 Fitness: 0.0054 Error: 0 */
genomestart 86
trait 1 0.512288 0.100718 0.0360157 1 0.122629 0 0.406517 0.693504 
node 1 1 1 1
node 2 1 1 1
node 3 1 1 1
node 4 1 1 3
node 5 1 0 2
gene 1 1 5 2.07671 0 1 2.07671 1
gene 1 2 5 5.15374 0 2 5.15374 1
gene 1 3 5 4.56095 0 3 4.56095 1
gene 1 4 5 -1.66859 0 4 -1.66859 1
gene 1 5 5 -0.96674 1 321 -0.96674 1
genomeend 86

/* Organism #87 Fitness: 0.0054 Error: 0 */
genomestart 87
trait 1 0.512288 0.100718 0.0360157 1 0.122629 0 0.406517 0.693504 
node 1 1 1 1
node 2 1 1 1
node 3 1 1 1
node 4 1 1 3
node 5 1 0 2
gene 1 1 5 2.07671 0 1 2.07671 1
gene 1 2 5 5.15374 0 2 5.15374 1
gene 1 3 5 4.56095 0 3 4.56095 1
gene 1 4 5 -1.66859 0 4 -1.66859 1
gene 1 5 5 -0.96674 1 321 -0.96674 1
genomeend 87

/* Organism #88 Fitness: 0.0005 Error: 0 */
genomestart 88
trait 1 0.512288 0.100718 0.0360157 1 0.122629 0 0.406517 0.693504 
node 1 1 1 1
node 2 1 1 1
node 3 1 1 1
node 4 1 1 3
node 5 1 0 2
gene 1 1 5 1.92956 0 1 1.92956 1
gene 1 2 5 3.54978 0 2 3.54978 1
gene 1 3 5 4.20278 0 3 4.20278 1
gene 1 4 5 -3.37867 0 4 -3.37867 1
gene 1 5 5 -2.13794 1 321 -2.13794 1
genomeend 88

/* Organism #89 Fitness: 0.0007 Error: 0 */
genomestart 89
trait 1 0.512288 0.100718 0.0360157 1 0 0 0 1 
node 1 1 1 1
node 2 1 1 1
node 3 1 1 1
node 4 1 1 3
node 5 1 0 2
gene 1 1 5 2.74906 0 1 2.74906 1
gene 1 2 5 4.29449 0 2 4.29449 1
gene 1 3 5 4.60609 0 3 4.60609 1
gene 1 4 5 -3.71979 0 4 -3.71979 1
genomeend 89

/* Organism #90 Fitness: 0.0022 Error: 0 */
genomestart 90
trait 1 0.512288 0.100718 0.0360157 1 0.122629 0 0.406517 0.693504 
node 1 1 1 1
node 2 1 1 1
node 3 1 1 1
node 4 1 1 3
node 5 1 0 2
gene 1 1 5 -0.150783 0 1 -0.150783 1
gene 1 2 5 7.27787 0 2 7.27787 1
gene 1 3 5 4.90064 0 3 4.90064 1
gene 1 4 5 -1.03204 0 4 -1.03204 1
gene 1 5 5 -0.293418 1 321 -0.293418 1
genomeend 90

/* Species #16 : (Size 4) (AF 0.002725) (Age 8)  */


/* Organism #91 Fitness: 0.0009 Error: 0 */
genomestart 91
trait 1 0.1 0.296144 0 0.0752573 0 0.0128753 0 0 
node 1 1 1 1
node 2 1 1 1
node 3 1 1 1
node 4 1 1 3
node 5 1 0 2
gene 1 1 5 -2.7883 0 1 -2.7883 1
gene 1 2 5 2.73383 0 2 2.73383 1
gene 1 3 5 -0.0042553 0 3 -0.0042553 1
gene 1 4 5 2.32199 0 4 2.32199 1
gene 1 5 5 -2.35611 1 229 -2.35611 1
genomeend 91

/* Organism #92 Fitness: 0.0036 Error: 0 */
genomestart 92
trait 1 0.1 0.297515 0 0.0756057 0 0.0129349 0 0 
node 1 1 1 1
node 2 1 1 1
node 3 1 1 1
node 4 1 1 3
node 5 1 0 2
gene 1 1 5 -3.38042 0 1 -3.38042 1
gene 1 2 5 0.966564 0 2 0.966564 1
gene 1 3 5 3.96524 0 3 3.96524 1
gene 1 4 5 1.27825 0 4 1.27825 1
gene 1 5 5 -1.99568 1 229 -1.99568 1
genomeend 92

/* Organism #93 Fitness: 0.0036 Error: 0 */
genomestart 93
trait 1 0.1 0.297743 0 0.0756637 0 0.0129449 0 0 
node 1 1 1 1
node 2 1 1 1
node 3 1 1 1
node 4 1 1 3
node 5 1 0 2
gene 1 1 5 -4.10606 0 1 -4.10606 1
gene 1 2 5 0.654765 0 2 0.654765 1
gene 1 3 5 5.58874 0 3 5.58874 1
gene 1 4 5 1.68287 0 4 1.68287 1
gene 1 5 5 -2.34381 1 229 -2.34381 1
genomeend 93

/* Organism #94 Fitness: 0.0028 Error: 0 */
genomestart 94
trait 1 0.1 0.183719 0.433568 0.0466874 0 0.0092591 0 0 
node 1 1 1 1
node 2 1 1 1
node 3 1 1 1
node 4 1 1 3
node 5 1 0 2
gene 1 1 5 -3.20239 0 1 -3.20239 1
gene 1 2 5 -0.0917174 0 2 -0.0917174 1
gene 1 3 5 1.56282 0 3 1.56282 1
gene 1 4 5 1.52765 0 4 1.52765 1
gene 1 5 5 -1.54393 1 231 -1.54393 1
genomeend 94

/* Species #17 : (Size 14) (AF 0.00890977) (Age 8)  */


/* Organism #95 Fitness: 0.0371166 Error: 0 */
genomestart 95
trait 1 0.1 0.23399 0 0.0594625 0 0.0101731 0 0 
node 1 1 1 1
node 2 1 1 1
node 3 1 1 1
node 4 1 1 3
node 5 1 0 2
gene 1 1 5 -2.18343 0 1 -2.18343 1
gene 1 2 5 -4.61289 0 2 -4.61289 1
gene 1 3 5 4.21305 0 3 4.21305 1
gene 1 4 5 1.22535 0 4 1.22535 1
gene 1 5 5 -1.49008 1 254 -1.49008 1
genomeend 95

/* Organism #96 Fitness: 0.0031 Error: 0 */
genomestart 96
trait 1 0.1 0.262325 0 0.0666631 0 0.011405 0 0 
node 1 1 1 1
node 2 1 1 1
node 3 1 1 1
node 4 1 1 3
node 5 1 0 2
gene 1 1 5 -2.33335 0 1 -2.33335 1
gene 1 2 5 -1.84287 0 2 -1.84287 1
gene 1 3 5 3.67382 0 3 3.67382 1
gene 1 4 5 2.09822 0 4 2.09822 1
gene 1 5 5 -0.726813 1 254 -0.726813 1
genomeend 96

/* Organism #97 Fitness: 0.0152403 Error: 0 */
genomestart 97
trait 1 0.1 0.23399 0 0.0594625 0 0.0101731 0 0 
node 1 1 1 1
node 2 1 1 1
node 3 1 1 1
node 4 1 1 3
node 5 1 0 2
gene 1 1 5 -1.02242 0 1 -1.02242 1
gene 1 2 5 -3.62883 0 2 -3.62883 1
gene 1 3 5 3.19863 0 3 3.19863 1
gene 1 4 5 1.82328 0 4 1.82328 1
gene 1 5 5 -1.28157 1 254 -1.28157 1
genomeend 97

/* Organism #98 Fitness: 0.0146202 Error: 0 */
genomestart 98
trait 1 0.112877 0.126008 0.00225098 0.102134 0.0688681 0.00528524 0.0772368 0.185058 
node 1 1 1 1
node 2 1 1 1
node 3 1 1 1
node 4 1 1 3
node 5 1 0 2
gene 1 1 5 -0.192051 0 1 -0.192051 1
gene 1 2 5 -4.99723 0 2 -4.99723 1
gene 1 3 5 4.15895 0 3 4.15895 1
gene 1 4 5 1.17806 0 4 1.17806 1
gene 1 5 5 -0.829434 1 254 -0.829434 1
genomeend 98

/* Organism #99 Fitness: 0.0049 Error: 0 */
genomestart 99
trait 1 0.112877 0.126008 0.00225098 0.102134 0.0688681 0.00528524 0.0772368 0.185058 
node 1 1 1 1
node 2 1 1 1
node 3 1 1 1
node 4 1 1 3
node 5 1 0 2
gene 1 1 5 -0.0753669 0 1 -0.0753669 1
gene 1 2 5 -5.38286 0 2 -5.38286 0
gene 1 3 5 3.92564 0 3 3.92564 1
gene 1 4 5 0.163477 0 4 0.163477 1
gene 1 5 5 -0.840281 1 254 -0.840281 1
genomeend 99

/* Organism #100 Fitness: 0.0024 Error: 0 */
genomestart 100
trait 1 0.112877 0.126008 0.00225098 0.102134 0.0688681 0.00528524 0.0772368 0.185058 
node 1 1 1 1
node 2 1 1 1
node 3 1 1 1
node 4 1 1 3
node 5 1 0 2
gene 1 1 5 -1.4157 0 1 -1.4157 1
gene 1 2 5 -4.03368 0 2 -4.03368 0
gene 1 3 5 4.33354 0 3 4.33354 1
gene 1 4 5 2.61578 0 4 2.61578 1
gene 1 5 5 -0.697775 1 254 -0.697775 1
genomeend 100

/* Organism #101 Fitness: 0.0088 Error: 0 */
genomestart 101
trait 1 0.1 0.23399 0 0.0594625 0 0.0101731 0 0 
node 1 1 1 1
node 2 1 1 1
node 3 1 1 1
node 4 1 1 3
node 5 1 0 2
gene 1 1 5 -1.0273 0 1 -1.0273 1
gene 1 2 5 -5.98176 0 2 -5.98176 1
gene 1 3 5 4.36731 0 3 4.36731 1
gene 1 4 5 2.05259 0 4 2.05259 1
gene 1 5 5 -0.722491 1 254 -0.722491 1
genomeend 101

/* Organism #102 Fitness: 0.0086 Error: 0 */
genomestart 102
trait 1 0.1 0.23399 0 0.0594625 0 0.0101731 0 0 
node 1 1 1 1
node 2 1 1 1
node 3 1 1 1
node 4 1 1 3
node 5 1 0 2
gene 1 1 5 -1.24855 0 1 -1.24855 1
gene 1 2 5 -6.31855 0 2 -6.31855 1
gene 1 3 5 4.80422 0 3 4.80422 1
gene 1 4 5 2.14113 0 4 2.14113 1
gene 1 5 5 -0.776077 1 254 -0.776077 1
genomeend 102

/* Organism #103 Fitness: 0.0019 Error: 0 */
genomestart 103
trait 1 0.1 0.23399 0 0.0594625 0 0.0101731 0 0 
node 1 1 1 1
node 2 1 1 1
node 3 1 1 1
node 4 1 1 3
node 5 1 0 2
gene 1 1 5 -0.628253 0 1 -0.628253 1
gene 1 2 5 -7.13942 0 2 -7.13942 1
gene 1 3 5 3.34299 0 3 3.34299 1
gene 1 4 5 1.96923 0 4 1.96923 1
gene 1 5 5 -1.49155 1 254 -1.49155 1
genomeend 103

/* Organism #104 Fitness: 0.0039 Error: 0 */
genomestart 104
trait 1 0.1 0.23399 0 0.0594625 0 0.0101731 0 0 
node 1 1 1 1
node 2 1 1 1
node 3 1 1 1
node 4 1 1 3
node 5 1 0 2
gene 1 1 5 -2.3847 0 1 -2.3847 1
gene 1 2 5 -1.68794 0 2 -1.68794 1
gene 1 3 5 3.98329 0 3 3.98329 1
gene 1 4 5 1.11379 0 4 1.11379 1
gene 1 5 5 -2.46785 1 254 -2.46785 1
genomeend 104

/* Organism #105 Fitness: 0.0079 Error: 0 */
genomestart 105
trait 1 0.1 0.23399 0 0.0594625 0 0.0101731 0 0 
node 1 1 1 1
node 2 1 1 1
node 3 1 1 1
node 4 1 1 3
node 5 1 0 2
gene 1 1 5 -1.59552 0 1 -1.59552 1
gene 1 2 5 -5.43727 0 2 -5.43727 1
gene 1 3 5 4.80422 0 3 4.80422 1
gene 1 4 5 2.03292 0 4 2.03292 1
gene 1 5 5 -0.869741 1 254 -0.869741 1
genomeend 105

/* Organism #106 Fitness: 0.0146597 Error: 0 */
genomestart 106
trait 1 0.1 0.23399 0 0.0594625 0 0.0101731 0 0 
node 1 1 1 1
node 2 1 1 1
node 3 1 1 1
node 4 1 1 3
node 5 1 0 2
gene 1 1 5 0.107419 0 1 0.107419 1
gene 1 2 5 -6.31855 0 2 -6.31855 1
gene 1 3 5 4.3449 0 3 4.3449 1
gene 1 4 5 2.14113 0 4 2.14113 1
gene 1 5 5 -1.23065 1 254 -1.23065 1
genomeend 106

/* Organism #107 Fitness: 0.0008 Error: 0 */
genomestart 107
trait 1 0.1 0.265643 0 0.230058 0.185524 0.0102526 0 0 
node 1 1 1 1
node 2 1 1 1
node 3 1 1 1
node 4 1 1 3
node 5 1 0 2
gene 1 1 5 -3.93062 0 1 -3.93062 1
gene 1 2 5 -4.57426 0 2 -4.57426 1
gene 1 3 5 4.9679 0 3 4.9679 1
gene 1 4 5 1.14793 0 4 1.14793 1
gene 1 5 5 -4.46865 1 186 -4.46865 1
genomeend 107

/* Organism #108 Fitness: 0.0008 Error: 0 */
genomestart 108
trait 1 0.1 0.265643 0 0.230058 0.185524 0.0102526 0 0 
node 1 1 1 1
node 2 1 1 1
node 3 1 1 1
node 4 1 1 3
node 5 1 0 2
gene 1 1 5 -3.93062 0 1 -3.93062 1
gene 1 2 5 -4.57426 0 2 -4.57426 1
gene 1 3 5 4.9679 0 3 4.9679 1
gene 1 4 5 1.14793 0 4 1.14793 1
gene 1 5 5 -4.46865 1 186 -4.46865 1
genomeend 108

/* Species #18 : (Size 4) (AF 0.00255) (Age 8)  */


/* Organism #109 Fitness: 0.0021 Error: 0 */
genomestart 109
trait 1 0.1 0 0 0 0 0.368631 0 0 
node 1 1 1 1
node 2 1 1 1
node 3 1 1 1
node 4 1 1 3
node 5 1 0 2
node 10 1 0 0
gene 1 1 5 1.00681 0 1 1.00681 0
gene 1 2 5 0.920666 0 2 0.920666 1
gene 1 3 5 0.709338 0 3 0.709338 1
gene 1 4 5 -0.115264 0 4 -0.115264 1
gene 1 1 10 0.840295 0 87 0.840295 1
gene 1 10 5 1.84858 0 88 1.84858 1
gene 1 5 5 -1.11569 1 283 -1.11569 1
gene 1 3 10 0.529735 0 497 0.529735 1
genomeend 109

/* Organism #110 Fitness: 0.0005 Error: 0 */
genomestart 110
trait 1 0.1 0 0 0 0 0.368631 0 0 
node 1 1 1 1
node 2 1 1 1
node 3 1 1 1
node 4 1 1 3
node 5 1 0 2
node 10 1 0 0
gene 1 1 5 -1.53937 0 1 -1.53937 0
gene 1 2 5 0.662853 0 2 0.662853 1
gene 1 3 5 0.896679 0 3 0.896679 0
gene 1 4 5 -0.0409516 0 4 -0.0409516 1
gene 1 1 10 1.05649 0 87 1.05649 1
gene 1 10 5 -1.42417 0 88 -1.42417 1
gene 1 5 5 -1.1198 1 283 -1.1198 1
gene 1 3 10 -1.73268 0 497 -1.73268 1
genomeend 110

/* Organism #111 Fitness: 0.0038 Error: 0 */
genomestart 111
trait 1 0.1 0 0 0 0 0.368631 0 0 
node 1 1 1 1
node 2 1 1 1
node 3 1 1 1
node 4 1 1 3
node 5 1 0 2
node 10 1 0 0
gene 1 1 5 -0.0762828 0 1 -0.0762828 0
gene 1 2 5 0.920666 0 2 0.920666 1
gene 1 3 5 2.71718 0 3 2.71718 1
gene 1 4 5 -0.115264 0 4 -0.115264 1
gene 1 1 10 2.20316 0 87 2.20316 1
gene 1 10 5 0.264571 0 88 0.264571 1
gene 1 5 5 -1.51883 1 283 -1.51883 1
gene 1 3 10 0.529735 0 497 0.529735 1
gene 1 2 10 -0.234335 0 564 -0.234335 1
genomeend 111

/* Organism #112 Fitness: 0.0038 Error: 0 */
genomestart 112
trait 1 0.023191 0 0 0 0 1 0 0.795905 
node 1 1 1 1
node 2 1 1 1
node 3 1 1 1
node 4 1 1 3
node 5 1 0 2
node 10 1 0 0
gene 1 1 5 -0.0762828 0 1 -0.0762828 0
gene 1 2 5 0.920666 0 2 0.920666 1
gene 1 3 5 2.71718 0 3 2.71718 1
gene 1 4 5 -0.115264 0 4 -0.115264 1
gene 1 1 10 2.20316 0 87 2.20316 1
gene 1 10 5 0.264571 0 88 0.264571 1
gene 1 5 5 -1.51883 1 283 -1.51883 1
genomeend 112

/* Species #19 : (Size 1) (AF 0.0006) (Age 8)  */


/* Organism #113 Fitness: 0.0006 Error: 0 */
genomestart 113
trait 1 0.0875 0 0 0 0 0 0 0 
node 1 1 1 1
node 2 1 1 1
node 3 1 1 1
node 4 1 1 3
node 5 1 0 2
gene 1 1 5 0.267438 0 1 0.267438 1
gene 1 2 5 1.14912 0 2 1.14912 1
gene 1 3 5 -6.80768 0 3 -6.80768 1
gene 1 4 5 0.00762109 0 4 0.00762109 1
gene 1 5 5 -0.495692 1 469 -0.495692 1
genomeend 113

/* Species #21 : (Size 3) (AF 0.0024) (Age 8)  */


/* Organism #114 Fitness: 0.0035 Error: 0 */
genomestart 114
trait 1 0.1 0 0 0 0 0 0 0 
node 1 1 1 1
node 2 1 1 1
node 3 1 1 1
node 4 1 1 3
node 5 1 0 2
node 15 1 0 0
gene 1 1 5 0.743715 0 1 0.743715 0
gene 1 2 5 2.48878 0 2 2.48878 1
gene 1 3 5 2.13446 0 3 2.13446 1
gene 1 4 5 -0.922884 0 4 -0.922884 1
gene 1 1 15 1.72455 0 153 1.22455 1
gene 1 15 5 0.0123157 0 154 0.00615785 1
gene 1 4 15 0.630128 0 227 0.59744 1
gene 1 2 15 -0.61726 0 499 -0.61726 1
genomeend 114

/* Organism #115 Fitness: 0.0004 Error: 0 */
genomestart 115
trait 1 0.1 0 0 0 0 0 0 0 
node 1 1 1 1
node 2 1 1 1
node 3 1 1 1
node 4 1 1 3
node 5 1 0 2
node 15 1 0 0
gene 1 1 5 0.032147 0 1 0.032147 0
gene 1 2 5 1.28378 0 2 1.28378 1
gene 1 3 5 1.13612 0 3 1.13612 1
gene 1 4 5 -1.01444 0 4 -1.01444 1
gene 1 1 15 -0.0796804 0 153 -0.0796804 1
gene 1 15 5 -1.6591 0 154 -1.6591 1
gene 1 4 15 2.31545 0 227 2.31545 1
genomeend 115

/* Organism #116 Fitness: 0.0033 Error: 0 */
genomestart 116
trait 1 0.1 0 0 0 0 0 0 0 
node 1 1 1 1
node 2 1 1 1
node 3 1 1 1
node 4 1 1 3
node 5 1 0 2
node 15 1 0 0
gene 1 1 5 -0.1305 0 1 -0.1305 0
gene 1 2 5 2.76323 0 2 2.76323 1
gene 1 3 5 2.64824 0 3 2.64824 1
gene 1 4 5 -0.78688 0 4 -0.78688 1
gene 1 1 15 0.391955 0 153 -0.108045 1
gene 1 15 5 -0.267241 0 154 -0.273399 1
gene 1 4 15 0.0653773 0 227 0 1
gene 1 2 15 -0.61726 0 499 -0.61726 1
genomeend 116

/* Species #22 : (Size 5) (AF 0.00424) (Age 8)  */


/* Organism #117 Fitness: 0.0008 Error: 0 */
genomestart 117
trait 1 0.0986295 0.32072 0.000562745 0.0631253 0.0156966 0.00812655 0.0210324 0.188962 
node 1 1 1 1
node 2 1 1 1
node 3 1 1 1
node 4 1 1 3
node 5 1 0 2
gene 1 1 5 2.47351 0 1 2.47351 1
gene 1 2 5 -2.14498 0 2 -2.14498 1
gene 1 3 5 6.85629 0 3 6.85629 1
gene 1 4 5 -0.579075 0 4 -0.579075 1
gene 1 5 5 -3.01694 1 313 -3.01694 1
genomeend 117

/* Organism #118 Fitness: 0.0054 Error: 0 */
genomestart 118
trait 1 0.0986295 0.32072 0.000562745 0.0631253 0.0156966 0.00812655 0.0210324 0.188962 
node 1 1 1 1
node 2 1 1 1
node 3 1 1 1
node 4 1 1 3
node 5 1 0 2
gene 1 1 5 1.61554 0 1 1.61554 1
gene 1 2 5 -0.906902 0 2 -0.906902 1
gene 1 3 5 6.42801 0 3 6.42801 1
gene 1 4 5 1.19349 0 4 1.19349 1
gene 1 5 5 -2.09797 1 313 -2.09797 1
genomeend 118

/* Organism #119 Fitness: 0.0079 Error: 0 */
genomestart 119
trait 1 0.111514 0.180718 0.00168824 0.0683605 0.0195288 0.00367582 0.0446945 1 
node 1 1 1 1
node 2 1 1 1
node 3 1 1 1
node 4 1 1 3
node 5 1 0 2
gene 1 1 5 0.541845 0 1 0.541845 1
gene 1 2 5 -1.05531 0 2 -1.05531 1
gene 1 3 5 5.18913 0 3 5.18913 1
gene 1 4 5 1.23134 0 4 1.23134 1
gene 1 5 5 -2.39831 1 313 -2.39831 1
genomeend 119

/* Organism #120 Fitness: 0.0032 Error: 0 */
genomestart 120
trait 1 0.113268 0.0584975 0.153633 0.0885149 0.17199 0.00445073 0.0236621 0.0898202 
node 1 1 1 1
node 2 1 1 1
node 3 1 1 1
node 4 1 1 3
node 5 1 0 2
gene 1 1 5 1.44795 0 1 1.44795 1
gene 1 2 5 -0.147427 0 2 -0.147427 1
gene 1 3 5 5.93498 0 3 5.93498 1
gene 1 4 5 2.99694 0 4 2.99694 1
gene 1 5 5 -2.18415 1 313 -2.18415 1
genomeend 120

/* Organism #121 Fitness: 0.0039 Error: 0 */
genomestart 121
trait 1 0.111514 0.203725 0.118305 0.0683605 0.119724 0.00367582 0.0210324 0.188962 
node 1 1 1 1
node 2 1 1 1
node 3 1 1 1
node 4 1 1 3
node 5 1 0 2
gene 1 1 5 1.21306 0 1 1.21306 1
gene 1 2 5 -1.63399 0 2 -1.63399 1
gene 1 3 5 7.49544 0 3 7.49544 1
gene 1 4 5 2.39723 0 4 2.39723 1
gene 1 5 5 -2.18415 1 313 -2.18415 1
genomeend 121

/* Species #23 : (Size 2) (AF 0.0236097) (Age 8)  */


/* Organism #122 Fitness: 0.0330251 Error: 0 */
genomestart 122
trait 1 0.084375 0.205655 0.0434566 0.061553 0.041911 0.0105307 0 0 
node 1 1 1 1
node 2 1 1 1
node 3 1 1 1
node 4 1 1 3
node 5 1 0 2
gene 1 1 5 -0.218716 0 1 -0.218716 1
gene 1 2 5 -5.35965 0 2 -5.35965 1
gene 1 3 5 4.50015 0 3 4.50015 1
gene 1 4 5 1.55528 0 4 1.55528 1
gene 1 5 5 -1.40523 1 390 -1.40523 1
genomeend 122

/* Organism #123 Fitness: 0.0141943 Error: 0 */
genomestart 123
trait 1 0.1 0.23399 0 0.0594625 0 0.0101731 0 0 
node 1 1 1 1
node 2 1 1 1
node 3 1 1 1
node 4 1 1 3
node 5 1 0 2
gene 1 1 5 0.601647 0 1 0.601647 1
gene 1 2 5 -5.67095 0 2 -5.67095 1
gene 1 3 5 2.49476 0 3 2.49476 1
gene 1 4 5 1.88362 0 4 1.88362 1
gene 1 5 5 -0.644697 1 254 -0.644697 1
genomeend 123

/* Species #25 : (Size 9) (AF 0.0163411) (Age 8)  */


/* Organism #124 Fitness: 0.105094 Error: 0 */
genomestart 124
trait 1 0.084375 0.205655 0.0434566 0.061553 0.041911 0.0105307 0 0 
node 1 1 1 1
node 2 1 1 1
node 3 1 1 1
node 4 1 1 3
node 5 1 0 2
gene 1 1 5 -1.97328 0 1 -1.97328 1
gene 1 2 5 -6.14648 0 2 -6.14648 1
gene 1 3 5 5.48026 0 3 5.48026 1
gene 1 4 5 2.0232 0 4 2.0232 1
gene 1 5 5 -1.54955 1 390 -1.54955 1
genomeend 124

/* Organism #125 Fitness: 0.0046 Error: 0 */
genomestart 125
trait 1 0.034375 0.0886603 0.0869132 0.0636435 0.0838219 0.0108884 0 0.0947425 
node 1 1 1 1
node 2 1 1 1
node 3 1 1 1
node 4 1 1 3
node 5 1 0 2
gene 1 1 5 -0.463492 0 1 -0.463492 1
gene 1 2 5 -7.01523 0 2 -7.01523 1
gene 1 3 5 4.36357 0 3 4.36357 1
gene 1 4 5 1.75049 0 4 1.75049 1
gene 1 5 5 -0.527871 1 390 -0.527871 1
genomeend 125

/* Organism #126 Fitness: 0.0069 Error: 0 */
genomestart 126
trait 1 0 0 0.0869132 0.0636435 0.0838219 0.0108884 0 0.189485 
node 1 1 1 1
node 2 1 1 1
node 3 1 1 1
node 4 1 1 3
node 5 1 0 2
gene 1 1 5 -0.496292 0 1 -0.496292 1
gene 1 2 5 -6.19459 0 2 -6.19459 1
gene 1 3 5 4.76641 0 3 4.76641 1
gene 1 4 5 1.01951 0 4 1.01951 1
gene 1 5 5 -1.53305 1 390 -1.53305 1
genomeend 126

/* Organism #127 Fitness: 0.0133754 Error: 0 */
genomestart 127
trait 1 0.034375 0.0886603 0.0869132 0.0636435 0.0838219 0.0108884 0 0.0947425 
node 1 1 1 1
node 2 1 1 1
node 3 1 1 1
node 4 1 1 3
node 5 1 0 2
gene 1 1 5 -0.390374 0 1 -0.390374 1
gene 1 2 5 -6.23129 0 2 -6.23129 1
gene 1 3 5 4.48125 0 3 4.48125 1
gene 1 4 5 1.78081 0 4 1.78081 1
gene 1 5 5 -0.773383 1 390 -0.773383 1
genomeend 127

/* Organism #128 Fitness: 0.0069 Error: 0 */
genomestart 128
trait 1 0.034375 0.0886603 0.0869132 0.0636435 0.0838219 0.0108884 0 0.0947425 
node 1 1 1 1
node 2 1 1 1
node 3 1 1 1
node 4 1 1 3
node 5 1 0 2
gene 1 1 5 -0.496292 0 1 -0.496292 1
gene 1 2 5 -6.19459 0 2 -6.19459 1
gene 1 3 5 4.76641 0 3 4.76641 1
gene 1 4 5 1.01951 0 4 1.01951 1
gene 1 5 5 -1.53305 1 390 -1.53305 1
genomeend 128

/* Organism #129 Fitness: 0.0035 Error: 0 */
genomestart 129
trait 1 0.084759 0.147158 0.0793474 0.0853702 0.109874 0.0092591 0.0236621 0.0898202 
node 1 1 1 1
node 2 1 1 1
node 3 1 1 1
node 4 1 1 3
node 5 1 0 2
gene 1 1 5 1.6381 0 1 1.6381 1
gene 1 2 5 -7.96278 0 2 -7.96278 1
gene 1 3 5 4.91456 0 3 4.91456 1
gene 1 4 5 2.47125 0 4 2.47125 1
gene 1 5 5 -0.362068 1 390 -0.362068 1
genomeend 129

/* Organism #130 Fitness: 0.0021 Error: 0 */
genomestart 130
trait 1 0 0.116995 0.31571 0.107097 0.135926 0.456082 0.0473241 0.17964 
node 1 1 1 1
node 2 1 1 1
node 3 1 1 1
node 4 1 1 3
node 5 1 0 2
gene 1 1 5 1.24863 0 1 1.24863 1
gene 1 2 5 -6.21773 0 2 -6.21773 1
gene 1 3 5 3.55593 0 3 3.55593 1
gene 1 4 5 2.11325 0 4 2.11325 1
genomeend 130

/* Organism #131 Fitness: 0.0005 Error: 0 */
genomestart 131
trait 1 0.100768 0.116995 0.0717816 0.107097 0.135926 0.00762982 0.0473241 0.17964 
node 1 1 1 1
node 2 1 1 1
node 3 1 1 1
node 4 1 1 3
node 5 1 0 2
gene 1 1 5 1.41736 0 1 1.41736 1
gene 1 2 5 -4.99274 0 2 -4.99274 1
gene 1 3 5 4.10562 0 3 4.10562 1
gene 1 4 5 -1.21407 0 4 -1.21407 1
genomeend 131

/* Organism #132 Fitness: 0.0041 Error: 0 */
genomestart 132
trait 1 0.06875 0.177321 0.0869132 0.0636435 0.0838219 0.0108884 0 0 
node 1 1 1 1
node 2 1 1 1
node 3 1 1 1
node 4 1 1 3
node 5 1 0 2
gene 1 1 5 -0.332216 0 1 -0.332216 1
gene 1 2 5 -1.22164 0 2 -1.22164 1
gene 1 3 5 3.96069 0 3 3.96069 1
gene 1 4 5 1.24317 0 4 1.24317 1
gene 1 5 5 -1.08893 1 390 -1.08893 1
genomeend 132

/* Species #26 : (Size 11) (AF 0.00565455) (Age 8)  */


/* Organism #133 Fitness: 0.0082 Error: 0 */
genomestart 133
trait 1 0.1 0.290659 0 0.0738636 0 0.0126369 0 0 
node 1 1 1 1
node 2 1 1 1
node 3 1 1 1
node 4 1 1 3
node 5 1 0 2
gene 1 1 5 -2.60872 0 1 -2.60872 1
gene 1 2 5 -2.11404 0 2 -2.11404 1
gene 1 3 5 4.12948 0 3 4.12948 1
gene 1 4 5 0.358239 0 4 0.358239 1
gene 1 5 5 -0.809055 1 186 -0.809055 1
genomeend 133

/* Organism #134 Fitness: 0.0041 Error: 0 */
genomestart 134
trait 1 0.1 0.290317 0 0.0737765 0 0.012622 0 0 
node 1 1 1 1
node 2 1 1 1
node 3 1 1 1
node 4 1 1 3
node 5 1 0 2
gene 1 1 5 -3.52207 0 1 -3.52207 1
gene 1 2 5 -2.11404 0 2 -2.11404 1
gene 1 3 5 5.0783 0 3 5.0783 1
gene 1 4 5 1.27841 0 4 1.27841 1
gene 1 5 5 -0.809055 1 186 -0.809055 1
genomeend 134

/* Organism #135 Fitness: 0.0082 Error: 0 */
genomestart 135
trait 1 0.1 0.290659 0 0.0738636 0 0.0126369 0 0 
node 1 1 1 1
node 2 1 1 1
node 3 1 1 1
node 4 1 1 3
node 5 1 0 2
gene 1 1 5 -2.60872 0 1 -2.60872 1
gene 1 2 5 -2.11404 0 2 -2.11404 1
gene 1 3 5 4.12948 0 3 4.12948 1
gene 1 4 5 0.358239 0 4 0.358239 1
gene 1 5 5 -0.809055 1 186 -0.809055 1
genomeend 135

/* Organism #136 Fitness: 0.0034 Error: 0 */
genomestart 136
trait 1 0.1 0.290317 0 0.0737765 0 0.012622 0 0 
node 1 1 1 1
node 2 1 1 1
node 3 1 1 1
node 4 1 1 3
node 5 1 0 2
gene 1 1 5 -2.6952 0 1 -2.6952 1
gene 1 2 5 -3.20217 0 2 -3.20217 1
gene 1 3 5 2.91239 0 3 2.91239 1
gene 1 4 5 2.21586 0 4 2.21586 1
gene 1 5 5 -0.623996 1 186 -0.623996 1
genomeend 136

/* Organism #137 Fitness: 0.0089 Error: 0 */
genomestart 137
trait 1 0.1 0.329963 0 0.0838514 0 0.0143456 0 0 
node 1 1 1 1
node 2 1 1 1
node 3 1 1 1
node 4 1 1 3
node 5 1 0 2
gene 1 1 5 -5.48152 0 1 -5.48152 1
gene 1 2 5 -3.04711 0 2 -3.04711 1
gene 1 3 5 4.76989 0 3 4.76989 1
gene 1 4 5 0.688667 0 4 0.688667 1
gene 1 5 5 -0.809055 1 186 -0.809055 1
genomeend 137

/* Organism #138 Fitness: 0.0082 Error: 0 */
genomestart 138
trait 1 0.1 0.290659 0 0.0738636 0 0.0126369 0 0 
node 1 1 1 1
node 2 1 1 1
node 3 1 1 1
node 4 1 1 3
node 5 1 0 2
gene 1 1 5 -2.60872 0 1 -2.60872 1
gene 1 2 5 -2.11404 0 2 -2.11404 1
gene 1 3 5 4.12948 0 3 4.12948 1
gene 1 4 5 0.358239 0 4 0.358239 1
gene 1 5 5 -0.809055 1 186 -0.809055 1
genomeend 138

/* Organism #139 Fitness: 0.0046 Error: 0 */
genomestart 139
trait 1 0.1 0.305741 0 0.0776961 0 0.0132926 0 0 
node 1 1 1 1
node 2 1 1 1
node 3 1 1 1
node 4 1 1 3
node 5 1 0 2
gene 1 1 5 -5.21838 0 1 -5.21838 1
gene 1 2 5 -2.73896 0 2 -2.73896 1
gene 1 3 5 4.76989 0 3 4.76989 1
gene 1 4 5 0.400932 0 4 0.400932 1
gene 1 5 5 -1.54449 1 186 -1.54449 1
genomeend 139

/* Organism #140 Fitness: 0.0045 Error: 0 */
genomestart 140
trait 1 0.1 0.289661 0 0.114248 0.046381 0.0122693 0 0 
node 1 1 1 1
node 2 1 1 1
node 3 1 1 1
node 4 1 1 3
node 5 1 0 2
gene 1 1 5 -2.60872 0 1 -2.60872 1
gene 1 2 5 -0.946349 0 2 -0.946349 1
gene 1 3 5 4.12948 0 3 4.12948 1
gene 1 4 5 0.642587 0 4 0.642587 1
gene 1 5 5 -0.809055 1 186 -0.809055 1
genomeend 140

/* Organism #141 Fitness: 0.0053 Error: 0 */
genomestart 141
trait 1 0.1 0.288663 0 0.154632 0.0927621 0.0119017 0 0 
node 1 1 1 1
node 2 1 1 1
node 3 1 1 1
node 4 1 1 3
node 5 1 0 2
gene 1 1 5 -3.33109 0 1 -3.33109 1
gene 1 2 5 -0.946349 0 2 -0.946349 1
gene 1 3 5 4.63295 0 3 4.63295 1
gene 1 4 5 0.642587 0 4 0.642587 1
gene 1 5 5 -1.87082 1 186 -1.87082 1
genomeend 141

/* Organism #142 Fitness: 0.0048 Error: 0 */
genomestart 142
trait 1 0.1 0.290488 0 0.0738201 0 0.0126294 0 0 
node 1 1 1 1
node 2 1 1 1
node 3 1 1 1
node 4 1 1 3
node 5 1 0 2
gene 1 1 5 -2.65196 0 1 -2.65196 1
gene 1 2 5 -2.6581 0 2 -2.6581 1
gene 1 3 5 3.52094 0 3 3.52094 1
gene 1 4 5 1.28705 0 4 1.28705 1
gene 1 5 5 -0.716525 1 186 -0.716525 1
genomeend 142

/* Organism #143 Fitness: 0.002 Error: 0 */
genomestart 143
trait 1 0.1 0.256789 0 0.0673599 0 0.0115242 0 0.913699 
node 1 1 1 1
node 2 1 1 1
node 3 1 1 1
node 4 1 1 3
node 5 1 0 2
gene 1 1 5 -5.44866 0 1 -5.44866 1
gene 1 2 5 -3.01083 0 2 -3.01083 1
gene 1 3 5 6.65174 0 3 6.65174 1
gene 1 4 5 2.72845 0 4 2.72845 1
genomeend 143

/* Species #28 : (Size 1) (AF 0.0004) (Age 8)  */


/* Organism #144 Fitness: 0.0004 Error: 0 */
genomestart 144
trait 1 0.075 0.175493 0.0695306 0.0594625 0.0670575 0.0101731 0 0 
node 1 1 1 1
node 2 1 1 1
node 3 1 1 1
node 4 1 1 3
node 5 1 0 2
gene 1 1 5 -3.18897 0 1 -3.18897 1
gene 1 2 5 -6.58413 0 2 -6.58413 1
gene 1 3 5 0.040897 0 3 0.040897 1
gene 1 4 5 0.481766 0 4 0.481766 1
genomeend 144

/* Species #29 : (Size 2) (AF 0.00415) (Age 8)  */


/* Organism #145 Fitness: 0.0034 Error: 0 */
genomestart 145
trait 1 0.06875 0.177321 0.0869132 0.0636435 0.0838219 0.0108884 0 0 
node 1 1 1 1
node 2 1 1 1
node 3 1 1 1
node 4 1 1 3
node 5 1 0 2
gene 1 1 5 -0.206227 0 1 -0.206227 1
gene 1 2 5 -7.96278 0 2 -7.96278 1
gene 1 3 5 5.55857 0 3 5.55857 1
gene 1 4 5 2.47125 0 4 2.47125 1
gene 1 5 5 -0.362068 1 390 -0.362068 1
genomeend 145

/* Organism #146 Fitness: 0.0049 Error: 0 */
genomestart 146
trait 1 0.0901318 0.179019 0.0443007 0.066002 0.0516753 0.0072821 0.0223472 0.5 
node 1 1 1 1
node 2 1 1 1
node 3 1 1 1
node 4 1 1 3
node 5 1 0 2
gene 1 1 5 -1.53929 0 1 -1.53929 1
gene 1 2 5 -1.56692 0 2 -1.56692 1
gene 1 3 5 4.71991 0 3 4.71991 1
gene 1 4 5 1.01845 0 4 1.01845 1
gene 1 5 5 -2.18917 1 390 -2.18917 1
genomeend 146

/* Species #30 : (Size 2) (AF 0.00275) (Age 8)  */


/* Organism #147 Fitness: 0.0037 Error: 0 */
genomestart 147
trait 1 0.1 0.23399 0 0.0594625 0 0.0101731 0 0 
node 1 1 1 1
node 2 1 1 1
node 3 1 1 1
node 4 1 1 3
node 5 1 0 2
gene 1 1 5 0.165399 0 1 0.165399 1
gene 1 2 5 -7.54638 0 2 -7.54638 1
gene 1 3 5 5.8085 0 3 5.8085 1
gene 1 4 5 3.00235 0 4 3.00235 1
gene 1 5 5 -2.99306 1 254 -2.99306 1
genomeend 147

/* Organism #148 Fitness: 0.0018 Error: 0 */
genomestart 148
trait 1 0.06875 0.177321 0.0869132 0.0636435 0.0838219 0.0108884 0 0 
node 1 1 1 1
node 2 1 1 1
node 3 1 1 1
node 4 1 1 3
node 5 1 0 2
gene 1 1 5 -0.94395 0 1 -0.94395 1
gene 1 2 5 -8 0 2 -8 1
gene 1 3 5 5.66865 0 3 5.66865 1
gene 1 4 5 2.83891 0 4 2.83891 1
gene 1 5 5 0.930308 1 390 0.930308 1
genomeend 148

/* Species #31 : (Size 1) (AF 0.0007) (Age 8)  */


/* Organism #149 Fitness: 0.0007 Error: 0 */
genomestart 149
trait 1 0.0875 0 0 0 0 0 0 0 
node 1 1 1 1
node 2 1 1 1
node 3 1 1 1
node 4 1 1 3
node 5 1 0 2
node 8 1 0 0
gene 1 1 5 2.63606 0 1 2.63606 1
gene 1 2 5 0.781442 0 2 0.781442 1
gene 1 3 5 0.103255 0 3 0.103255 1
gene 1 4 5 -1.69089 0 4 -1.69089 1
gene 1 2 8 2.77986 0 28 2.77986 1
gene 1 8 5 2.41673 0 29 2.41673 1
gene 1 1 8 0.346472 0 353 0 1
gene 1 5 5 -0.944041 1 565 -0.944041 1
genomeend 149

/* Species #32 : (Size 1) (AF 0.0005) (Age 8)  */


/* Organism #150 Fitness: 0.0005 Error: 0 */
genomestart 150
trait 1 0.05 0.158498 0.366534 0.114512 0.364287 0.108468 0.0672911 0.143171 
node 1 1 1 1
node 2 1 1 1
node 3 1 1 1
node 4 1 1 3
node 5 1 0 2
node 12 1 0 0
gene 1 1 5 -1.37999 0 1 -1.37999 1
gene 1 2 5 0.233246 0 2 0.233246 0
gene 1 3 5 -1.28342 0 3 -1.28342 1
gene 1 4 5 -0.00886836 0 4 -0.00886836 1
gene 1 2 12 -1.49198 0 120 -1.49198 1
gene 1 12 5 -2.19132 0 121 -2.19132 1
gene 1 4 12 -2.0769 0 363 -2.0769 1
gene 1 5 5 0.747591 1 566 0.747591 1
genomeend 150

/* Species #33 : (Size 5) (AF 0.00086) (Age 8)  */


/* Organism #151 Fitness: 0.0007 Error: 0 */
genomestart 151
trait 1 0.1 0 0 0.212118 0.0992086 0 0.227682 0 
node 1 1 1 1
node 2 1 1 1
node 3 1 1 1
node 4 1 1 3
node 5 1 0 2
node 8 1 0 0
gene 1 1 5 -0.00583741 0 1 -0.00583741 1
gene 1 2 5 -3.13065 0 2 -3.13065 0
gene 1 3 5 -1.16777 0 3 -1.16777 1
gene 1 4 5 -3.49361 0 4 -3.49361 1
gene 1 2 8 1.61942 0 28 1.61942 1
gene 1 8 5 4.29032 0 29 4.29032 1
gene 1 3 8 2.76002 0 115 2.76002 1
gene 1 5 5 -0.167895 1 199 -0.167895 1
gene 1 1 8 1.84559 0 418 1.84559 1
genomeend 151

/* Organism #152 Fitness: 0.0006 Error: 0 */
genomestart 152
trait 1 0.1 0 0 0.212118 0.0992086 0 0.227682 0 
node 1 1 1 1
node 2 1 1 1
node 3 1 1 1
node 4 1 1 3
node 5 1 0 2
node 8 1 0 0
gene 1 1 5 1.87755 0 1 1.87755 1
gene 1 2 5 -2.99597 0 2 -2.99597 1
gene 1 3 5 -0.969997 0 3 -0.969997 1
gene 1 4 5 -1.29027 0 4 -1.29027 1
gene 1 2 8 3.96818 0 28 3.96818 1
gene 1 8 5 3.76868 0 29 3.76868 1
gene 1 3 8 1.08057 0 115 1.08057 1
gene 1 5 5 0.288071 1 199 0.288071 1
gene 1 1 8 -0.750977 0 418 -0.750977 1
genomeend 152

/* Organism #153 Fitness: 0.0007 Error: 0 */
genomestart 153
trait 1 0.1 0 0 0.212118 0.0992086 0 0.227682 0 
node 1 1 1 1
node 2 1 1 1
node 3 1 1 1
node 4 1 1 3
node 5 1 0 2
node 8 1 0 0
gene 1 1 5 0.823514 0 1 0.823514 1
gene 1 2 5 -3.66308 0 2 -3.66308 0
gene 1 3 5 -1.65588 0 3 -1.65588 1
gene 1 4 5 -3.52375 0 4 -3.52375 1
gene 1 2 8 2.64454 0 28 2.64454 1
gene 1 8 5 3.44039 0 29 3.44039 1
gene 1 3 8 2.93919 0 115 2.93919 1
gene 1 5 5 -0.0917367 1 199 -0.0917367 1
gene 1 1 8 0.618234 0 418 0.618234 1
genomeend 153

/* Organism #154 Fitness: 0.0014 Error: 0 */
genomestart 154
trait 1 0.1 0 0 0.212118 0.0992086 0 0.227682 0 
node 1 1 1 1
node 2 1 1 1
node 3 1 1 1
node 4 1 1 3
node 5 1 0 2
node 8 1 0 0
gene 1 1 5 1.60407 0 1 1.60407 1
gene 1 2 5 -0.942655 0 2 -0.942655 0
gene 1 3 5 0.572673 0 3 0.572673 1
gene 1 4 5 -3.39826 0 4 -3.39826 1
gene 1 2 8 1.48425 0 28 1.48425 1
gene 1 8 5 1.86502 0 29 1.86502 1
gene 1 3 8 2.04853 0 115 2.04853 1
gene 1 5 5 0.248226 1 199 0.248226 1
gene 1 1 8 -1.22972 0 418 -1.22972 1
genomeend 154

/* Organism #155 Fitness: 0.0009 Error: 0 */
genomestart 155
trait 1 0.1 0 0 0.212118 0.0992086 0 0.227682 0 
node 1 1 1 1
node 2 1 1 1
node 3 1 1 1
node 4 1 1 3
node 5 1 0 2
node 8 1 0 0
gene 1 1 5 1.06766 0 1 1.06766 1
gene 1 2 5 -0.860305 0 2 -0.860305 0
gene 1 3 5 2.36843 0 3 2.36843 1
gene 1 4 5 -0.344293 0 4 -0.344293 1
gene 1 2 8 0.80476 0 28 0.80476 1
gene 1 8 5 2.00473 0 29 2.00473 1
gene 1 3 8 1.65931 0 115 1.65931 1
gene 1 5 5 -0.18038 1 199 -0.18038 1
gene 1 1 8 0.034878 0 418 0.034878 1
genomeend 155

/* Species #34 : (Size 19) (AF 0.00524549) (Age 8)  */


/* Organism #156 Fitness: 0.0051 Error: 0 */
genomestart 156
trait 1 0.1 0.23399 0 0.0594625 0 0.0101731 0 0 
node 1 1 1 1
node 2 1 1 1
node 3 1 1 1
node 4 1 1 3
node 5 1 0 2
gene 1 1 5 -0.0388868 0 1 -0.0388868 1
gene 1 2 5 0.105007 0 2 0.105007 1
gene 1 3 5 8 0 3 8 1
gene 1 4 5 0.638844 0 4 0.638844 1
gene 1 5 5 -2.08663 1 253 -2.08663 1
genomeend 156

/* Organism #157 Fitness: 0.0047 Error: 0 */
genomestart 157
trait 1 0.1 0.23399 0 0.0594625 0 0.0101731 0 0 
node 1 1 1 1
node 2 1 1 1
node 3 1 1 1
node 4 1 1 3
node 5 1 0 2
gene 1 1 5 1.03366 0 1 1.03366 1
gene 1 2 5 0.464391 0 2 0.464391 1
gene 1 3 5 6.41948 0 3 6.41948 1
gene 1 4 5 1.00085 0 4 1.00085 1
gene 1 5 5 -2.26289 1 253 -2.26289 1
genomeend 157

/* Organism #158 Fitness: 0.0038 Error: 0 */
genomestart 158
trait 1 0.1 0.23399 0 0.0594625 0 0.0101731 0 0 
node 1 1 1 1
node 2 1 1 1
node 3 1 1 1
node 4 1 1 3
node 5 1 0 2
gene 1 1 5 -0.413697 0 1 -0.413697 1
gene 1 2 5 0.822579 0 2 0.822579 1
gene 1 3 5 5.48798 0 3 5.48798 1
gene 1 4 5 -0.625259 0 4 -0.625259 1
gene 1 5 5 -1.9112 1 253 -1.9112 1
genomeend 158

/* Organism #159 Fitness: 0.0032 Error: 0 */
genomestart 159
trait 1 0.125768 0.175493 0.00225098 0.107097 0.0688681 0.00762982 0.0473241 0.17964 
node 1 1 1 1
node 2 1 1 1
node 3 1 1 1
node 4 1 1 3
node 5 1 0 2
gene 1 1 5 -2.38536 0 1 -2.38536 1
gene 1 2 5 -0.676603 0 2 -0.676603 1
gene 1 3 5 6.23661 0 3 6.23661 1
gene 1 4 5 2.32337 0 4 2.32337 1
gene 1 5 5 -1.30514 1 254 -1.30514 1
genomeend 159

/* Organism #160 Fitness: 0.0071 Error: 0 */
genomestart 160
trait 1 0.1 0.23399 0 0.0594625 0 0.0101731 0 0 
node 1 1 1 1
node 2 1 1 1
node 3 1 1 1
node 4 1 1 3
node 5 1 0 2
gene 1 1 5 -1.89088 0 1 -1.89088 1
gene 1 2 5 -0.933202 0 2 -0.933202 1
gene 1 3 5 5.9639 0 3 5.9639 1
gene 1 4 5 0.917212 0 4 0.917212 1
gene 1 5 5 -2.14446 1 253 -2.14446 1
genomeend 160

/* Organism #161 Fitness: 0.0043 Error: 0 */
genomestart 161
trait 1 0.09375 0.163266 0.0173826 0.063416 0.0167644 0.00731191 0 0 
node 1 1 1 1
node 2 1 1 1
node 3 1 1 1
node 4 1 1 3
node 5 1 0 2
gene 1 1 5 -0.303221 0 1 -0.303221 1
gene 1 2 5 -0.345309 0 2 -0.345309 1
gene 1 3 5 5.70562 0 3 5.70562 1
gene 1 4 5 0.818672 0 4 0.818672 1
gene 1 5 5 -1.37058 1 231 -1.37058 1
genomeend 161

/* Organism #162 Fitness: 0.0083 Error: 0 */
genomestart 162
trait 1 0.09375 0.163266 0.0173826 0.063416 0.0167644 0.00731191 0 0 
node 1 1 1 1
node 2 1 1 1
node 3 1 1 1
node 4 1 1 3
node 5 1 0 2
gene 1 1 5 -2.13596 0 1 -2.13596 1
gene 1 2 5 -1.3565 0 2 -1.3565 1
gene 1 3 5 5.1759 0 3 5.1759 1
gene 1 4 5 0.00509335 0 4 0.00509335 1
gene 1 5 5 -0.978337 1 253 -0.978337 1
genomeend 162

/* Organism #163 Fitness: 0.0066 Error: 0 */
genomestart 163
trait 1 0.0875 0.0925424 0.0347653 0.0673694 0.0335288 0.00445073 0 0 
node 1 1 1 1
node 2 1 1 1
node 3 1 1 1
node 4 1 1 3
node 5 1 0 2
gene 1 1 5 -1.6401 0 1 -1.6401 1
gene 1 2 5 -1.15501 0 2 -1.15501 1
gene 1 3 5 4.99175 0 3 4.99175 1
gene 1 4 5 0.636497 0 4 0.636497 1
gene 1 5 5 -1.37058 1 231 -1.37058 1
genomeend 163

/* Organism #164 Fitness: 0.0031 Error: 0 */
genomestart 164
trait 1 0.1 0.23399 0 0.0594625 0 0.0101731 0 0 
node 1 1 1 1
node 2 1 1 1
node 3 1 1 1
node 4 1 1 3
node 5 1 0 2
gene 1 1 5 -1.75885 0 1 -1.75885 1
gene 1 2 5 0.0179004 0 2 0.0179004 1
gene 1 3 5 7.39119 0 3 7.39119 1
gene 1 4 5 2.00586 0 4 2.00586 1
gene 1 5 5 -0.837308 1 253 -0.837308 1
genomeend 164

/* Organism #165 Fitness: 0.0048 Error: 0 */
genomestart 165
trait 1 0.1 0.297058 0 0.0754895 0 0.0129151 0 0 
node 1 1 1 1
node 2 1 1 1
node 3 1 1 1
node 4 1 1 3
node 5 1 0 2
gene 1 1 5 -2.71813 0 1 -2.71813 1
gene 1 2 5 -1.81924 0 2 -1.81924 1
gene 1 3 5 6.10806 0 3 6.10806 1
gene 1 4 5 0.753091 0 4 0.753091 1
gene 1 5 5 -0.401198 1 229 -0.401198 1
genomeend 165

/* Organism #166 Fitness: 0.0098 Error: 0 */
genomestart 166
trait 1 0.1 0.282549 0 0.0445969 0 0.0846138 0 0 
node 1 1 1 1
node 2 1 1 1
node 3 1 1 1
node 4 1 1 3
node 5 1 0 2
gene 1 1 5 -2.24158 0 1 -2.24158 1
gene 1 2 5 -2.35748 0 2 -2.35748 1
gene 1 3 5 6.06559 0 3 6.06559 1
gene 1 4 5 1.34499 0 4 1.34499 1
gene 1 5 5 -2.03624 1 253 -2.03624 1
genomeend 166

/* Organism #167 Fitness: 0.0053 Error: 0 */
genomestart 167
trait 1 0.1 0.428227 0 0 0 0.307936 0 0 
node 1 1 1 1
node 2 1 1 1
node 3 1 1 1
node 4 1 1 3
node 5 1 0 2
gene 1 1 5 -1.54657 0 1 -1.54657 1
gene 1 2 5 -3.22751 0 2 -3.22751 1
gene 1 3 5 8 0 3 8 1
gene 1 4 5 1.10718 0 4 1.10718 1
gene 1 5 5 -1.43883 1 253 -1.43883 1
genomeend 167

/* Organism #168 Fitness: 0.0045 Error: 0 */
genomestart 168
trait 1 0.1 0.282549 0 0.0445969 0 0.0846138 0 0 
node 1 1 1 1
node 2 1 1 1
node 3 1 1 1
node 4 1 1 3
node 5 1 0 2
gene 1 1 5 -0.757884 0 1 -0.757884 1
gene 1 2 5 -2.35748 0 2 -2.35748 1
gene 1 3 5 6.6478 0 3 6.6478 1
gene 1 4 5 1.64197 0 4 1.64197 1
gene 1 5 5 -1.61781 1 253 -1.61781 1
genomeend 168

/* Organism #169 Fitness: 0.0138643 Error: 0 */
genomestart 169
trait 1 0.1 0.23399 0 0.0594625 0 0.0101731 0 0 
node 1 1 1 1
node 2 1 1 1
node 3 1 1 1
node 4 1 1 3
node 5 1 0 2
gene 1 1 5 -2.24158 0 1 -2.24158 1
gene 1 2 5 -4.11918 0 2 -4.11918 1
gene 1 3 5 8 0 3 8 1
gene 1 4 5 1.34499 0 4 1.34499 1
gene 1 5 5 -2.03624 1 253 -2.03624 1
genomeend 169

/* Organism #170 Fitness: 0.0038 Error: 0 */
genomestart 170
trait 1 0.0939387 0.15075 0.0358908 0.0807984 0.0679628 0.00772916 0.0386184 0.0925292 
node 1 1 1 1
node 2 1 1 1
node 3 1 1 1
node 4 1 1 3
node 5 1 0 2
gene 1 1 5 -1.2794 0 1 -1.2794 1
gene 1 2 5 0.868031 0 2 0.868031 0
gene 1 3 5 7.25913 0 3 7.25913 1
gene 1 4 5 -0.398672 0 4 -0.398672 1
gene 1 5 5 -2.43457 1 253 -2.43457 1
genomeend 170

/* Organism #171 Fitness: 0.0028 Error: 0 */
genomestart 171
trait 1 0 0.265067 0 0.0673599 0 0.0115242 0.727463 0 
node 1 1 1 1
node 2 1 1 1
node 3 1 1 1
node 4 1 1 3
node 5 1 0 2
gene 1 1 5 -1.68671 0 1 -1.68671 1
gene 1 2 5 -0.49185 0 2 -0.49185 1
gene 1 3 5 5.84407 0 3 5.84407 1
gene 1 4 5 3.90321 0 4 3.90321 1
gene 1 5 5 -2.06532 1 253 -2.06532 1
genomeend 171

/* Organism #172 Fitness: 0.0028 Error: 0 */
genomestart 172
trait 1 0 0.265067 0 0.0673599 0 0 0.823191 0.106392 
node 1 1 1 1
node 2 1 1 1
node 3 1 1 1
node 4 1 1 3
node 5 1 0 2
gene 1 1 5 -0.463851 0 1 -0.463851 1
gene 1 2 5 -1.18307 0 2 -1.18307 1
gene 1 3 5 6.28533 0 3 6.28533 1
gene 1 4 5 4.35498 0 4 4.35498 1
gene 1 5 5 -2.32163 1 253 -2.32163 1
genomeend 172

/* Organism #173 Fitness: 0.0028 Error: 0 */
genomestart 173
trait 1 0 0.265067 0 0.0673599 0 0.0115242 0.727463 0 
node 1 1 1 1
node 2 1 1 1
node 3 1 1 1
node 4 1 1 3
node 5 1 0 2
gene 1 1 5 -1.68671 0 1 -1.68671 1
gene 1 2 5 -0.49185 0 2 -0.49185 1
gene 1 3 5 5.84407 0 3 5.84407 1
gene 1 4 5 3.90321 0 4 3.90321 1
gene 1 5 5 -2.06532 1 253 -2.06532 1
genomeend 173

/* Organism #174 Fitness: 0.003 Error: 0 */
genomestart 174
trait 1 0.075 0.175493 0.0695306 0.0594625 0.0670575 0.0101731 0 0 
node 1 1 1 1
node 2 1 1 1
node 3 1 1 1
node 4 1 1 3
node 5 1 0 2
gene 1 1 5 -1.42073 0 1 -1.42073 1
gene 1 2 5 0.674798 0 2 0.674798 1
gene 1 3 5 5.72768 0 3 5.72768 1
gene 1 4 5 1.24852 0 4 1.24852 1
gene 1 5 5 -0.469527 1 364 -0.469527 1
genomeend 174

/* Species #36 : (Size 5) (AF 0.00394) (Age 7)  */


/* Organism #175 Fitness: 0.0056 Error: 0 */
genomestart 175
trait 1 0.112884 0.204741 0.00112549 0.0832797 0.034434 0.00890145 0.0236621 0.0898202 
node 1 1 1 1
node 2 1 1 1
node 3 1 1 1
node 4 1 1 3
node 5 1 0 2
gene 1 1 5 -2.98641 0 1 -2.98641 1
gene 1 2 5 -1.51156 0 2 -1.51156 1
gene 1 3 5 7.14793 0 3 7.14793 1
gene 1 4 5 -0.0431704 0 4 -0.0431704 1
gene 1 5 5 -0.725886 1 254 -0.725886 1
genomeend 175

/* Organism #176 Fitness: 0.0045 Error: 0 */
genomestart 176
trait 1 0.1 0.297972 0 0.0757218 0 0.0129548 0 0 
node 1 1 1 1
node 2 1 1 1
node 3 1 1 1
node 4 1 1 3
node 5 1 0 2
gene 1 1 5 -4.32195 0 1 -4.32195 1
gene 1 2 5 -1.4765 0 2 -1.4765 1
gene 1 3 5 5.68105 0 3 5.68105 1
gene 1 4 5 1.51556 0 4 1.51556 1
gene 1 5 5 -1.66461 1 229 -1.66461 1
genomeend 176

/* Organism #177 Fitness: 0.0042 Error: 0 */
genomestart 177
trait 1 0.1 0.297743 0 0.0756637 0 0.0129449 0 0 
node 1 1 1 1
node 2 1 1 1
node 3 1 1 1
node 4 1 1 3
node 5 1 0 2
gene 1 1 5 -4.19008 0 1 -4.19008 1
gene 1 2 5 -1.56218 0 2 -1.56218 1
gene 1 3 5 5.68105 0 3 5.68105 1
gene 1 4 5 1.51556 0 4 1.51556 1
gene 1 5 5 -1.41474 1 229 -1.41474 1
genomeend 177

/* Organism #178 Fitness: 0.0006 Error: 0 */
genomestart 178
trait 1 0.1 0.297515 0 0.0756057 0 0.0129349 0 0 
node 1 1 1 1
node 2 1 1 1
node 3 1 1 1
node 4 1 1 3
node 5 1 0 2
gene 1 1 5 -4.61931 0 1 -4.61931 1
gene 1 2 5 -0.873862 0 2 -0.873862 1
gene 1 3 5 6.96837 0 3 6.96837 1
gene 1 4 5 1.51556 0 4 1.51556 1
gene 1 5 5 1.12498 1 229 1.12498 1
genomeend 178

/* Organism #179 Fitness: 0.0048 Error: 0 */
genomestart 179
trait 1 0.106442 0.251128 0.000562745 0.0794427 0.017217 0.0109182 0.011831 0.0449101 
node 1 1 1 1
node 2 1 1 1
node 3 1 1 1
node 4 1 1 3
node 5 1 0 2
gene 1 1 5 -3.52231 0 1 -3.52231 1
gene 1 2 5 -1.57971 0 2 -1.57971 1
gene 1 3 5 6.41449 0 3 6.41449 1
gene 1 4 5 0.736192 0 4 0.736192 1
gene 1 5 5 -1.16487 1 229 -1.16487 1
genomeend 179

/* Species #37 : (Size 3) (AF 0.0018) (Age 7)  */


/* Organism #180 Fitness: 0.0032 Error: 0 */
genomestart 180
trait 1 0.1 0 0 0 0 0 0 0 
node 1 1 1 1
node 2 1 1 1
node 3 1 1 1
node 4 1 1 3
node 5 1 0 2
node 7 1 0 0
gene 1 1 5 0.956454 0 1 0.956454 0
gene 1 2 5 3.07074 0 2 3.07074 1
gene 1 3 5 0.728537 0 3 0.728537 1
gene 1 4 5 -0.455003 0 4 -0.455003 1
gene 1 1 7 -0.653961 0 23 -0.653961 1
gene 1 7 5 -0.47702 0 24 -0.47702 1
gene 1 3 7 -0.0225361 0 124 -0.0225361 1
gene 1 2 7 1.08785 0 149 1.08785 1
genomeend 180

/* Organism #181 Fitness: 0.0004 Error: 0 */
genomestart 181
trait 1 0.1 0 0 0 0 0 0 0 
node 1 1 1 1
node 2 1 1 1
node 3 1 1 1
node 4 1 1 3
node 5 1 0 2
node 7 1 0 0
gene 1 1 5 1.15612 0 1 1.15612 0
gene 1 2 5 4.05567 0 2 4.05567 1
gene 1 3 5 -0.552588 0 3 -0.552588 1
gene 1 4 5 0.202705 0 4 0.202705 1
gene 1 1 7 -2.12614 0 23 -2.12614 1
gene 1 7 5 -0.108264 0 24 -0.108264 1
gene 1 3 7 0.665543 0 124 0.665543 1
gene 1 2 7 -0.253097 0 149 -0.253097 1
genomeend 181

/* Organism #182 Fitness: 0.0018 Error: 0 */
genomestart 182
trait 1 0.1 0 0 0 0 0 0 0 
node 1 1 1 1
node 2 1 1 1
node 3 1 1 1
node 4 1 1 3
node 5 1 0 2
node 7 1 0 0
gene 1 1 5 0.956454 0 1 0.956454 0
gene 1 2 5 3.07074 0 2 3.07074 1
gene 1 3 5 0.728537 0 3 0.728537 1
gene 1 4 5 -0.455003 0 4 -0.455003 1
gene 1 1 7 -0.653961 0 23 -0.653961 1
gene 1 7 5 -0.47702 0 24 -0.47702 1
gene 1 3 7 -0.0225361 0 124 -0.0225361 1
gene 1 2 7 1.08785 0 149 1.08785 1
gene 1 4 7 -0.58677 0 562 0 1
genomeend 182

/* Species #39 : (Size 4) (AF 0.002125) (Age 7)  */


/* Organism #183 Fitness: 0.0026 Error: 0 */
genomestart 183
trait 1 0.0625 0 0.0076809 0.0574032 0.16535 0.258317 0.315416 0.0498922 
node 1 1 1 1
node 2 1 1 1
node 3 1 1 1
node 4 1 1 3
node 5 1 0 2
node 15 1 0 0
gene 1 1 5 -0.296113 0 1 -0.296113 0
gene 1 2 5 -0.462431 0 2 -0.462431 1
gene 1 3 5 1.56067 0 3 1.56067 1
gene 1 4 5 0.631298 0 4 0.631298 1
gene 1 1 15 -1.38093 0 153 -1.38093 1
gene 1 15 5 -0.736737 0 154 -0.736737 1
gene 1 4 15 -0.574273 0 296 -0.574273 1
gene 1 3 15 -0.16758 0 567 -0.16758 1
genomeend 183

/* Organism #184 Fitness: 0.0028 Error: 0 */
genomestart 184
trait 1 0.0625 0 0.0076809 0.0574032 0.16535 0.258317 0.315416 0.0498922 
node 1 1 1 1
node 2 1 1 1
node 3 1 1 1
node 4 1 1 3
node 5 1 0 2
node 15 1 0 0
gene 1 1 5 -0.296113 0 1 -0.296113 0
gene 1 2 5 -0.0128256 0 2 -0.0128256 1
gene 1 3 5 1.56067 0 3 1.56067 1
gene 1 4 5 0.631298 0 4 0.631298 1
gene 1 1 15 1 0 153 1 1
gene 1 15 5 -1.38207 0 154 -1.38207 1
gene 1 4 15 -0.574273 0 296 -0.574273 1
gene 1 3 15 0.901948 0 362 0 1
gene 1 2 15 -0.61726 0 499 0 1
genomeend 184

/* Organism #185 Fitness: 0.0026 Error: 0 */
genomestart 185
trait 1 0.075 0 0.0153618 0.114806 0.136411 0.242601 0.210277 0.0997845 
node 1 1 1 1
node 2 1 1 1
node 3 1 1 1
node 4 1 1 3
node 5 1 0 2
node 15 1 0 0
gene 1 1 5 -0.296113 0 1 -0.296113 1
gene 1 2 5 -0.0128256 0 2 -0.0128256 1
gene 1 3 5 1.56067 0 3 1.56067 1
gene 1 4 5 0.631298 0 4 0.631298 1
gene 1 1 15 -1.38093 0 153 -1.38093 1
gene 1 15 5 -0.736737 0 154 -0.736737 1
gene 1 4 15 -0.574273 0 296 -0.574273 1
gene 1 3 15 0.901948 0 362 0 1
gene 1 2 15 -0.61726 0 499 0 1
genomeend 185

/* Organism #186 Fitness: 0.0005 Error: 0 */
genomestart 186
trait 1 0.05 0 1 0 0.572881 0.131583 1 0 
node 1 1 1 1
node 2 1 1 1
node 3 1 1 1
node 4 1 1 3
node 5 1 0 2
node 15 1 0 0
gene 1 1 5 -1.63486 0 1 -1.63486 1
gene 1 2 5 1.654 0 2 1.654 1
gene 1 3 5 -0.351522 0 3 -0.351522 1
gene 1 4 5 0.238202 0 4 0.238202 1
gene 1 1 15 0.880771 0 153 0.880771 1
gene 1 15 5 -1.43271 0 154 -1.43271 1
gene 1 4 15 -1.02303 0 296 -1.02303 1
genomeend 186

/* Species #42 : (Size 5) (AF 0.00286) (Age 7)  */


/* Organism #187 Fitness: 0.0023 Error: 0 */
genomestart 187
trait 1 0.09375 0 0 0 0 0.0137059 0 0 
node 1 1 1 1
node 2 1 1 1
node 3 1 1 1
node 4 1 1 3
node 5 1 0 2
node 7 1 0 0
gene 1 1 5 -0.879767 0 1 -0.879767 1
gene 1 2 5 -1.02885 0 2 -1.02885 1
gene 1 3 5 4.58485 0 3 4.58485 1
gene 1 4 5 -0.130977 0 4 -0.130977 1
gene 1 1 7 0.896846 0 23 0.896846 1
gene 1 7 5 1.88512 0 24 1.88512 1
gene 1 7 7 -2.53777 1 299 -2.53777 1
gene 1 4 7 -0.58677 0 562 0 1
genomeend 187

/* Organism #188 Fitness: 0.0042 Error: 0 */
genomestart 188
trait 1 0.412636 0.46969 0.344471 0 0.827799 0 0.260078 0.452328 
node 1 1 1 1
node 2 1 1 1
node 3 1 1 1
node 4 1 1 3
node 5 1 0 2
node 7 1 0 0
gene 1 1 5 -1.72575 0 1 -1.72575 1
gene 1 2 5 -0.359903 0 2 -0.359903 1
gene 1 3 5 4.67514 0 3 4.67514 1
gene 1 4 5 -0.222897 0 4 -0.222897 1
gene 1 1 7 1.02397 0 23 1.02397 1
gene 1 7 5 0.309892 0 24 0.309892 1
gene 1 7 7 -1.66294 1 299 -1.66294 1
genomeend 188

/* Organism #189 Fitness: 0.0033 Error: 0 */
genomestart 189
trait 1 0.09375 0 0 0 0 0.0137059 0 0 
node 1 1 1 1
node 2 1 1 1
node 3 1 1 1
node 4 1 1 3
node 5 1 0 2
node 7 1 0 0
gene 1 1 5 -1.33363 0 1 -1.33363 1
gene 1 2 5 0.15583 0 2 0.15583 1
gene 1 3 5 4.67021 0 3 4.67021 1
gene 1 4 5 -1.83675 0 4 -1.83675 1
gene 1 1 7 -0.718251 0 23 -0.718251 1
gene 1 7 5 2.66834 0 24 2.66834 1
gene 1 7 7 -2.97913 1 299 -2.97913 1
genomeend 189

/* Organism #190 Fitness: 0.0027 Error: 0 */
genomestart 190
trait 1 0.253193 0.234845 0.172235 0 0.4139 0.00685296 0.130039 0.226164 
node 1 1 1 1
node 2 1 1 1
node 3 1 1 1
node 4 1 1 3
node 5 1 0 2
node 7 1 0 0
gene 1 1 5 -1.52969 0 1 -1.52969 1
gene 1 2 5 -0.102037 0 2 -0.102037 1
gene 1 3 5 4.67268 0 3 4.67268 1
gene 1 4 5 -1.02982 0 4 -1.02982 1
gene 1 1 7 0.152858 0 23 0.152858 1
gene 1 7 5 1.48911 0 24 1.48911 1
gene 1 7 7 -2.32104 1 299 -2.32104 1
gene 1 4 7 -0.58677 0 562 0 1
genomeend 190

/* Organism #191 Fitness: 0.0018 Error: 0 */
genomestart 191
trait 1 0.250068 0.234845 0.172235 0 0.4139 0.0137059 0.130039 0.226164 
node 1 1 1 1
node 2 1 1 1
node 3 1 1 1
node 4 1 1 3
node 5 1 0 2
node 7 1 0 0
gene 1 1 5 -1.30276 0 1 -1.30276 0
gene 1 2 5 0.0975782 0 2 0.0975782 1
gene 1 3 5 4.21528 0 3 4.21528 1
gene 1 4 5 -1.08051 0 4 -1.08051 1
gene 1 1 7 0.960407 0 23 0.960407 1
gene 1 7 5 -0.423877 0 24 -0.423877 1
gene 1 7 7 -2.53777 1 299 -2.53777 1
genomeend 191

/* Species #43 : (Size 5) (AF 0.0009) (Age 7)  */


/* Organism #192 Fitness: 0.0004 Error: 0 */
genomestart 192
trait 1 0.1 0.177092 0 0.0450034 0 0.00769936 0 0 
node 1 1 1 1
node 2 1 1 1
node 3 1 1 1
node 4 1 1 3
node 5 1 0 2
gene 1 1 5 -5.86634 0 1 -5.86634 1
gene 1 2 5 -1.77571 0 2 -1.77571 1
gene 1 3 5 -0.956002 0 3 -0.956002 1
gene 1 4 5 -0.721683 0 4 -0.721683 1
gene 1 5 5 -2.52979 1 155 -2.52979 1
genomeend 192

/* Organism #193 Fitness: 0.001 Error: 0 */
genomestart 193
trait 1 0.1 0.177092 0 0.0450034 0 0.00769936 0 0 
node 1 1 1 1
node 2 1 1 1
node 3 1 1 1
node 4 1 1 3
node 5 1 0 2
gene 1 1 5 -2.5251 0 1 -2.5251 1
gene 1 2 5 -1.1338 0 2 -1.1338 1
gene 1 3 5 -2.30133 0 3 -2.30133 1
gene 1 4 5 1.26373 0 4 1.26373 1
gene 1 5 5 -1.78316 1 155 -1.78316 1
genomeend 193

/* Organism #194 Fitness: 0.0005 Error: 0 */
genomestart 194
trait 1 0.1 0.409483 0 0.104059 0 0.0178029 0 0 
node 1 1 1 1
node 2 1 1 1
node 3 1 1 1
node 4 1 1 3
node 5 1 0 2
gene 1 1 5 -5.17435 0 1 -5.17435 1
gene 1 2 5 -1.44145 0 2 -1.44145 1
gene 1 3 5 -0.415103 0 3 -0.415103 1
gene 1 4 5 0.00491394 0 4 0.00491394 1
genomeend 194

/* Organism #195 Fitness: 0.0013 Error: 0 */
genomestart 195
trait 1 0.1 0 0 0 0 0 0 0 
node 1 1 1 1
node 2 1 1 1
node 3 1 1 1
node 4 1 1 3
node 5 1 0 2
gene 1 1 5 -1.52623 0 1 -1.52623 1
gene 1 2 5 -0.529303 0 2 -0.529303 1
gene 1 3 5 -3.59952 0 3 -3.59952 1
gene 1 4 5 0.736531 0 4 0.736531 1
gene 1 5 5 -3.84754 1 155 -3.84754 1
genomeend 195

/* Organism #196 Fitness: 0.0013 Error: 0 */
genomestart 196
trait 1 0.1 0 0 0 0 0 0 0 
node 1 1 1 1
node 2 1 1 1
node 3 1 1 1
node 4 1 1 3
node 5 1 0 2
gene 1 1 5 -1.52623 0 1 -1.52623 1
gene 1 2 5 -0.529303 0 2 -0.529303 1
gene 1 3 5 -3.59952 0 3 -3.59952 1
gene 1 4 5 0.736531 0 4 0.736531 1
gene 1 5 5 -3.84754 1 155 -3.84754 1
genomeend 196

/* Species #44 : (Size 6) (AF 0.00281667) (Age 7)  */


/* Organism #197 Fitness: 0.0044 Error: 0 */
genomestart 197
trait 1 0.1 0 0.00636328 0 0 0 0.264804 0.328767 
node 1 1 1 1
node 2 1 1 1
node 3 1 1 1
node 4 1 1 3
node 5 1 0 2
node 7 1 0 0
gene 1 1 5 0.0356942 0 1 0.0356942 0
gene 1 2 5 0.0970677 0 2 0.0970677 1
gene 1 3 5 4.28525 0 3 4.28525 1
gene 1 4 5 -0.766092 0 4 -0.766092 1
gene 1 1 7 2.57768 0 23 2.57768 1
gene 1 7 5 1.3704 0 24 1.3704 1
gene 1 3 7 -1.97189 0 124 -1.97189 1
gene 1 2 7 -0.913286 0 268 0 1
gene 1 4 7 -0.802813 0 493 0 1
genomeend 197

/* Organism #198 Fitness: 0.002 Error: 0 */
genomestart 198
trait 1 0.1 0 0.772524 0 0.0423146 0 0.219448 0.00356394 
node 1 1 1 1
node 2 1 1 1
node 3 1 1 1
node 4 1 1 3
node 5 1 0 2
node 7 1 0 0
gene 1 1 5 1.16283 0 1 1.16283 0
gene 1 2 5 -0.0731711 0 2 -0.0731711 1
gene 1 3 5 3.47384 0 3 3.47384 1
gene 1 4 5 0.329974 0 4 0.329974 1
gene 1 1 7 4.09666 0 23 4.09666 1
gene 1 7 5 1.9231 0 24 1.9231 1
gene 1 3 7 0.050384 0 124 0.050384 1
gene 1 2 7 -1.3826 0 268 -1.3826 1
gene 1 4 7 -0.200761 0 493 -0.200761 1
genomeend 198

/* Organism #199 Fitness: 0.0018 Error: 0 */
genomestart 199
trait 1 0.1 0 0.00397705 0.0526889 0.0423146 0 0.219448 0.205479 
node 1 1 1 1
node 2 1 1 1
node 3 1 1 1
node 4 1 1 3
node 5 1 0 2
node 7 1 0 0
gene 1 1 5 0.316757 0 1 0.316757 0
gene 1 2 5 2.02069 0 2 2.02069 1
gene 1 3 5 2.2101 0 3 2.2101 1
gene 1 4 5 -0.423072 0 4 -0.423072 1
gene 1 1 7 2.90649 0 23 2.90649 1
gene 1 7 5 1.23917 0 24 1.23917 1
gene 1 3 7 -3.00563 0 124 -3.00563 1
gene 1 2 7 -2.35957 0 268 -2.35957 1
gene 1 4 7 -0.802813 0 493 -0.802813 1
genomeend 199

/* Organism #200 Fitness: 0.0005 Error: 0 */
genomestart 200
trait 1 0.1 0 0.00397705 0.0526889 0.0423146 0 0.219448 0.205479 
node 1 1 1 1
node 2 1 1 1
node 3 1 1 1
node 4 1 1 3
node 5 1 0 2
node 7 1 0 0
gene 1 1 5 1.88286 0 1 1.88286 0
gene 1 2 5 0.181632 0 2 0.181632 1
gene 1 3 5 2.63888 0 3 2.63888 1
gene 1 4 5 -1.88562 0 4 -1.88562 1
gene 1 1 7 3.54341 0 23 3.54341 1
gene 1 7 5 1.30634 0 24 1.30634 1
gene 1 3 7 -1.74149 0 124 -1.74149 1
gene 1 2 7 -1.53331 0 268 -1.53331 1
gene 1 4 7 -1.63334 0 493 -1.63334 1
genomeend 200

/* Organism #201 Fitness: 0.0041 Error: 0 */
genomestart 201
trait 1 0.1 0 0.00397705 0.0526889 0.0423146 0 0.219448 0.205479 
node 1 1 1 1
node 2 1 1 1
node 3 1 1 1
node 4 1 1 3
node 5 1 0 2
node 7 1 0 0
gene 1 1 5 0.711601 0 1 0.711601 0
gene 1 2 5 0.231875 0 2 0.231875 1
gene 1 3 5 3.87499 0 3 3.87499 1
gene 1 4 5 -0.766092 0 4 -0.766092 1
gene 1 1 7 2.90649 0 23 2.90649 1
gene 1 7 5 1.23917 0 24 1.23917 1
gene 1 3 7 -1.70655 0 124 -1.70655 1
gene 1 2 7 -0.800785 0 268 -0.344142 1
gene 1 4 7 -0.802813 0 493 0 1
genomeend 201

/* Organism #202 Fitness: 0.0041 Error: 0 */
genomestart 202
trait 1 0.1 0 0.00397705 0.0526889 0.0423146 0 0.219448 0.205479 
node 1 1 1 1
node 2 1 1 1
node 3 1 1 1
node 4 1 1 3
node 5 1 0 2
node 7 1 0 0
gene 1 1 5 1.38751 0 1 1.38751 0
gene 1 2 5 0.366682 0 2 0.366682 1
gene 1 3 5 3.46473 0 3 3.46473 1
gene 1 4 5 -0.766092 0 4 -0.766092 1
gene 1 1 7 2.57768 0 23 2.57768 1
gene 1 7 5 1.3704 0 24 1.3704 1
gene 1 3 7 -1.44122 0 124 -1.44122 1
gene 1 2 7 -0.913286 0 268 0 1
gene 1 4 7 -0.802813 0 493 0 1
genomeend 202

/* Species #45 : (Size 5) (AF 0.00184) (Age 7)  */


/* Organism #203 Fitness: 0.0013 Error: 0 */
genomestart 203
trait 1 0 0.0251795 0 1 0 0 0 0.173376 
node 1 1 1 1
node 2 1 1 1
node 3 1 1 1
node 4 1 1 3
node 5 1 0 2
gene 1 1 5 2.26769 0 1 2.26769 1
gene 1 2 5 0.906628 0 2 0.906628 1
gene 1 3 5 2.71567 0 3 2.71567 1
gene 1 4 5 0.540244 0 4 0.540244 1
gene 1 5 5 -3.17508 1 256 -3.17508 1
genomeend 203

/* Organism #204 Fitness: 0.0033 Error: 0 */
genomestart 204
trait 1 0.101536 0.0251795 0.00450196 0.625 0.0153286 0 0.0946483 0.173376 
node 1 1 1 1
node 2 1 1 1
node 3 1 1 1
node 4 1 1 3
node 5 1 0 2
gene 1 1 5 2.26769 0 1 2.26769 1
gene 1 2 5 0.906628 0 2 0.906628 1
gene 1 3 5 2.28517 0 3 2.28517 1
gene 1 4 5 0.540244 0 4 0.540244 1
gene 1 5 5 -1.8457 1 256 -1.8457 1
genomeend 204

/* Organism #205 Fitness: 0.001 Error: 0 */
genomestart 205
trait 1 0.101536 0.0251795 0.00450196 0.625 0.0153286 0 0.0946483 0.173376 
node 1 1 1 1
node 2 1 1 1
node 3 1 1 1
node 4 1 1 3
node 5 1 0 2
gene 1 1 5 2.75054 0 1 2.75054 1
gene 1 2 5 -0.725914 0 2 -0.725914 1
gene 1 3 5 0.616133 0 3 0.616133 1
gene 1 4 5 2.19623 0 4 2.19623 1
gene 1 5 5 -2.10395 1 256 -2.10395 1
genomeend 205

/* Organism #206 Fitness: 0.002 Error: 0 */
genomestart 206
trait 1 0.101536 0.0251795 0.00450196 0.625 0.0153286 0 0.0946483 0.173376 
node 1 1 1 1
node 2 1 1 1
node 3 1 1 1
node 4 1 1 3
node 5 1 0 2
gene 1 1 5 2.26769 0 1 2.26769 1
gene 1 2 5 0.906628 0 2 0.906628 1
gene 1 3 5 2.71567 0 3 2.71567 1
gene 1 4 5 1.4685 0 4 1.4685 1
gene 1 5 5 -3.17508 1 256 -3.17508 1
genomeend 206

/* Organism #207 Fitness: 0.0016 Error: 0 */
genomestart 207
trait 1 0.1 0.263239 0 0.0668953 0 0.0114447 0 0 
node 1 1 1 1
node 2 1 1 1
node 3 1 1 1
node 4 1 1 3
node 5 1 0 2
gene 1 1 5 1.56497 0 1 1.56497 1
gene 1 2 5 -1.83986 0 2 -1.83986 1
gene 1 3 5 3.30513 0 3 3.30513 1
gene 1 4 5 1.81735 0 4 1.81735 1
genomeend 207

/* Species #47 : (Size 1) (AF 0.0004) (Age 7)  */


/* Organism #208 Fitness: 0.0004 Error: 0 */
genomestart 208
trait 1 0.075 0 0.40457 0 0 0 0 0 
node 1 1 1 1
node 2 1 1 1
node 3 1 1 1
node 4 1 1 3
node 5 1 0 2
gene 1 1 5 2.56608 0 1 2.56608 1
gene 1 2 5 0.659421 0 2 0.659421 1
gene 1 3 5 -1.20926 0 3 -1.20926 1
gene 1 4 5 -2.0703 0 4 -2.0703 1
gene 1 5 5 -1.42769 1 156 -1.42769 1
genomeend 208

/* Species #49 : (Size 1) (AF 0.0004) (Age 7)  */


/* Organism #209 Fitness: 0.0004 Error: 0 */
genomestart 209
trait 1 0.306144 0.0503591 0.0180078 0.5 0.0613146 0 0.203259 0.346752 
node 1 1 1 1
node 2 1 1 1
node 3 1 1 1
node 4 1 1 3
node 5 1 0 2
gene 1 1 5 -0.783323 0 1 -0.783323 1
gene 1 2 5 0.194986 0 2 0.194986 1
gene 1 3 5 -0.438904 0 3 -0.438904 1
gene 1 4 5 -3.57084 0 4 -3.57084 1
genomeend 209

/* Species #50 : (Size 2) (AF 0.0012) (Age 7)  */


/* Organism #210 Fitness: 0.0012 Error: 0 */
genomestart 210
trait 1 0.1 0.23399 0 0.0594625 0 0.0101731 0 0 
node 1 1 1 1
node 2 1 1 1
node 3 1 1 1
node 4 1 1 3
node 5 1 0 2
gene 1 1 5 0.24841 0 1 0.24841 1
gene 1 2 5 -8 0 2 -8 1
gene 1 3 5 0.713227 0 3 0.713227 1
gene 1 4 5 2.94077 0 4 2.94077 1
gene 1 5 5 -2.10384 1 254 -2.10384 1
genomeend 210

/* Organism #211 Fitness: 0.0012 Error: 0 */
genomestart 211
trait 1 0.1 0.23399 0 0.0594625 0 0.0101731 0 0 
node 1 1 1 1
node 2 1 1 1
node 3 1 1 1
node 4 1 1 3
node 5 1 0 2
gene 1 1 5 0.24841 0 1 0.24841 1
gene 1 2 5 -8 0 2 -8 1
gene 1 3 5 0.713227 0 3 0.713227 1
gene 1 4 5 2.94077 0 4 2.94077 1
gene 1 5 5 -2.10384 1 254 -2.10384 1
genomeend 211

/* Species #51 : (Size 1) (AF 0.0006) (Age 7)  */


/* Organism #212 Fitness: 0.0006 Error: 0 */
genomestart 212
trait 1 0.1 0 0 0 0 0 0 0 
node 1 1 1 1
node 2 1 1 1
node 3 1 1 1
node 4 1 1 3
node 5 1 0 2
node 8 1 0 0
gene 1 1 5 0.652819 0 1 0.652819 1
gene 1 2 5 1.38819 0 2 1.38819 0
gene 1 3 5 1.46781 0 3 1.46781 1
gene 1 4 5 -0.262294 0 4 -0.262294 1
gene 1 2 8 3.18688 0 28 3.18688 1
gene 1 8 5 1.03799 0 29 1.03799 1
gene 1 5 5 0.219055 1 110 0.219055 1
gene 1 3 8 -0.479036 0 163 -0.479036 1
gene 1 4 8 0.205391 0 417 0.205391 1
gene 1 8 8 0.30979 1 568 0.30979 1
genomeend 212

/* Species #52 : (Size 1) (AF 0.0004) (Age 7)  */


/* Organism #213 Fitness: 0.0004 Error: 0 */
genomestart 213
trait 1 0.1 0 0 0 0 0 0 0 
node 1 1 1 1
node 2 1 1 1
node 3 1 1 1
node 4 1 1 3
node 5 1 0 2
node 8 1 0 0
gene 1 1 5 2.30822 0 1 2.30822 1
gene 1 2 5 -0.659718 0 2 -0.659718 1
gene 1 3 5 2.14706 0 3 2.14706 1
gene 1 4 5 0.997379 0 4 0.997379 1
gene 1 2 8 2.12858 0 28 2.12858 1
gene 1 8 5 1.50437 0 29 1.50437 1
gene 1 1 8 0.893722 0 114 0.893722 1
gene 1 4 8 0.516819 0 164 0.516819 1
gene 1 3 8 -0.68569 0 368 -0.68569 1
genomeend 213

/* Species #53 : (Size 4) (AF 0.0012) (Age 7)  */


/* Organism #214 Fitness: 0.0033 Error: 0 */
genomestart 214
trait 1 0.1 0 0 0 0 0 0 0 
node 1 1 1 1
node 2 1 1 1
node 3 1 1 1
node 4 1 1 3
node 5 1 0 2
node 8 1 0 0
node 11 1 0 0
gene 1 1 5 -0.22027 0 1 -0.22027 1
gene 1 2 5 -0.37011 0 2 -0.37011 0
gene 1 3 5 0.195118 0 3 0.195118 1
gene 1 4 5 -0.283118 0 4 -0.283118 1
gene 1 2 8 0.318096 0 28 -0.181904 0
gene 1 8 5 -0.0926126 0 29 0.0744959 1
gene 1 2 11 0.363881 0 112 -0.136119 1
gene 1 11 8 1.78316 0 113 1.28316 1
gene 1 11 5 0.450705 0 243 0.450705 1
gene 1 3 11 0.408574 0 369 0.408574 1
gene 1 4 11 -0.0168857 0 428 -0.0168857 1
gene 1 1 8 -0.0727813 0 569 -0.0727813 1
genomeend 214

/* Organism #215 Fitness: 0.0005 Error: 0 */
genomestart 215
trait 1 0.1 0 0 0 0 0 0 0 
node 1 1 1 1
node 2 1 1 1
node 3 1 1 1
node 4 1 1 3
node 5 1 0 2
node 8 1 0 0
node 11 1 0 0
gene 1 1 5 0.887147 0 1 0.887147 1
gene 1 2 5 0.559721 0 2 0.559721 0
gene 1 3 5 0.898301 0 3 0.898301 1
gene 1 4 5 -0.0218129 0 4 -0.0218129 1
gene 1 2 8 -0.476205 0 28 -0.476205 0
gene 1 8 5 1.5502 0 29 1.5502 1
gene 1 2 11 0.363881 0 112 0.363881 1
gene 1 11 8 -0.0157182 0 113 -0.0157182 1
gene 1 11 5 1.89253 0 243 1.89253 1
gene 1 3 11 -0.599446 0 369 -0.599446 1
gene 1 4 11 -0.0168857 0 428 -0.0168857 1
genomeend 215

/* Organism #216 Fitness: 0.0005 Error: 0 */
genomestart 216
trait 1 0.1 0 0 0 0 0 0 0 
node 1 1 1 1
node 2 1 1 1
node 3 1 1 1
node 4 1 1 3
node 5 1 0 2
node 8 1 0 0
node 11 1 0 0
gene 1 1 5 -0.769893 0 1 -0.769893 1
gene 1 2 5 -0.365758 0 2 -0.365758 0
gene 1 3 5 1.77096 0 3 1.77096 1
gene 1 4 5 0.616806 0 4 0.616806 1
gene 1 2 8 -0.95164 0 28 -0.95164 0
gene 1 8 5 1.36023 0 29 1.36023 1
gene 1 2 11 1.66797 0 112 1.66797 1
gene 1 11 8 0.188862 0 113 0.188862 1
gene 1 11 5 0.0236891 0 243 0.0236891 1
gene 1 3 11 0.408574 0 369 0.408574 1
gene 1 4 11 -0.0168857 0 428 -0.0168857 1
genomeend 216

/* Organism #217 Fitness: 0.0005 Error: 0 */
genomestart 217
trait 1 0.1 0 0 0 0 0 0 0 
node 1 1 1 1
node 2 1 1 1
node 3 1 1 1
node 4 1 1 3
node 5 1 0 2
node 8 1 0 0
node 11 1 0 0
gene 1 1 5 0.656874 0 1 0.656874 1
gene 1 2 5 -1.52647 0 2 -1.52647 0
gene 1 3 5 -0.308289 0 3 -0.308289 1
gene 1 4 5 -0.483053 0 4 -0.483053 1
gene 1 2 8 0.895726 0 28 0.895726 0
gene 1 8 5 -0.552025 0 29 -0.552025 1
gene 1 2 11 -1.30746 0 112 -1.30746 1
gene 1 11 8 1.78316 0 113 1.78316 1
gene 1 11 5 -0.562745 0 243 -0.562745 1
gene 1 3 11 -1.11462 0 369 -1.11462 1
gene 1 4 11 -0.444705 0 428 -0.444705 1
genomeend 217

/* Species #54 : (Size 5) (AF 0.0026) (Age 7)  */


/* Organism #218 Fitness: 0.0031 Error: 0 */
genomestart 218
trait 1 0 1 0 0.0297313 0 0 0 0 
node 1 1 1 1
node 2 1 1 1
node 3 1 1 1
node 4 1 1 3
node 5 1 0 2
node 8 1 0 0
node 16 1 0 0
gene 1 1 5 -3.9911 0 1 -3.9911 1
gene 1 2 5 -0.838259 0 2 -0.838259 0
gene 1 3 5 1.76101 0 3 1.76101 1
gene 1 4 5 -0.944445 0 4 -0.944445 1
gene 1 2 8 0.697652 0 28 0.697652 1
gene 1 8 5 2.02368 0 29 2.02368 0
gene 1 8 16 -0.353798 0 166 -0.353798 1
gene 1 16 5 2.27098 0 167 2.27098 1
genomeend 218

/* Organism #219 Fitness: 0.0006 Error: 0 */
genomestart 219
trait 1 0 1 0 0.0297313 0 0 0 0 
node 1 1 1 1
node 2 1 1 1
node 3 1 1 1
node 4 1 1 3
node 5 1 0 2
node 8 1 0 0
node 16 1 0 0
gene 1 1 5 -3.10875 0 1 -3.10875 1
gene 1 2 5 -3.57728 0 2 -3.57728 0
gene 1 3 5 1.91348 0 3 1.91348 1
gene 1 4 5 -1.55344 0 4 -1.55344 1
gene 1 2 8 2.50492 0 28 2.50492 1
gene 1 8 5 0.979331 0 29 0.979331 0
gene 1 8 16 -0.538969 0 166 -0.538969 1
gene 1 16 5 0.709188 0 167 0.709188 1
genomeend 219

/* Organism #220 Fitness: 0.0034 Error: 0 */
genomestart 220
trait 1 0 1 0 0.0297313 0 0 0 0 
node 1 1 1 1
node 2 1 1 1
node 3 1 1 1
node 4 1 1 3
node 5 1 0 2
node 8 1 0 0
node 16 1 0 0
gene 1 1 5 -3.02418 0 1 -3.02418 1
gene 1 2 5 -4.23749 0 2 -4.23749 0
gene 1 3 5 2.98076 0 3 2.98076 1
gene 1 4 5 -1.91891 0 4 -1.91891 1
gene 1 2 8 1.64905 0 28 1.64905 1
gene 1 8 5 2.02368 0 29 2.02368 0
gene 1 8 16 -0.406205 0 166 -0.406205 1
gene 1 16 5 2.39111 0 167 2.39111 1
genomeend 220

/* Organism #221 Fitness: 0.0034 Error: 0 */
genomestart 221
trait 1 0 1 0 0.0297313 0 0 0 0 
node 1 1 1 1
node 2 1 1 1
node 3 1 1 1
node 4 1 1 3
node 5 1 0 2
node 8 1 0 0
node 16 1 0 0
gene 1 1 5 -3.02418 0 1 -3.02418 1
gene 1 2 5 -4.23749 0 2 -4.23749 0
gene 1 3 5 2.98076 0 3 2.98076 1
gene 1 4 5 -1.91891 0 4 -1.91891 1
gene 1 2 8 1.64905 0 28 1.64905 1
gene 1 8 5 2.02368 0 29 2.02368 0
gene 1 8 16 -0.406205 0 166 -0.406205 1
gene 1 16 5 2.39111 0 167 2.39111 1
gene 1 1 16 0.717743 0 570 0.717743 1
genomeend 221

/* Organism #222 Fitness: 0.0025 Error: 0 */
genomestart 222
trait 1 0 1 0 0.0297313 0 0 0 0 
node 1 1 1 1
node 2 1 1 1
node 3 1 1 1
node 4 1 1 3
node 5 1 0 2
node 8 1 0 0
node 16 1 0 0
gene 1 1 5 -1.87208 0 1 -1.87208 1
gene 1 2 5 -4.23749 0 2 -4.23749 0
gene 1 3 5 3.72067 0 3 3.72067 1
gene 1 4 5 -0.52327 0 4 -0.52327 1
gene 1 2 8 1.10279 0 28 1.10279 1
gene 1 8 5 1.54447 0 29 1.54447 0
gene 1 8 16 -0.197255 0 166 -0.197255 1
gene 1 16 5 2.75849 0 167 2.75849 1
genomeend 222

/* Species #55 : (Size 8) (AF 0.00265) (Age 7)  */


/* Organism #223 Fitness: 0.0056 Error: 0 */
genomestart 223
trait 1 0.1 0 0 0 0 0 0 0 
node 1 1 1 1
node 2 1 1 1
node 3 1 1 1
node 4 1 1 3
node 5 1 0 2
node 7 1 0 0
gene 1 1 5 -1.16804 0 1 -1.16804 1
gene 1 2 5 -0.327141 0 2 -0.327141 1
gene 1 3 5 3.83286 0 3 3.83286 1
gene 1 4 5 -1.99828 0 4 -1.99828 1
gene 1 1 7 0.91267 0 23 0.91267 1
gene 1 7 5 1.74475 0 24 1.74475 1
gene 1 3 7 -0.888543 0 298 -0.888543 1
genomeend 223

/* Organism #224 Fitness: 0.0017 Error: 0 */
genomestart 224
trait 1 0.1 0 0 0 0 0 0 0 
node 1 1 1 1
node 2 1 1 1
node 3 1 1 1
node 4 1 1 3
node 5 1 0 2
node 7 1 0 0
gene 1 1 5 0.451366 0 1 0.451366 1
gene 1 2 5 -1.64888 0 2 -1.64888 1
gene 1 3 5 3.78831 0 3 3.78831 1
gene 1 4 5 -0.88985 0 4 -0.88985 1
gene 1 1 7 2.0362 0 23 2.0362 1
gene 1 7 5 1.99317 0 24 1.99317 1
gene 1 3 7 0.15417 0 298 0.15417 1
genomeend 224

/* Organism #225 Fitness: 0.0022 Error: 0 */
genomestart 225
trait 1 0.1 0 0 0 0 0 0 0 
node 1 1 1 1
node 2 1 1 1
node 3 1 1 1
node 4 1 1 3
node 5 1 0 2
node 7 1 0 0
gene 1 1 5 -1.16804 0 1 -1.16804 1
gene 1 2 5 -0.327141 0 2 -0.327141 1
gene 1 3 5 3.83286 0 3 3.83286 1
gene 1 4 5 -1.99828 0 4 -1.99828 1
gene 1 1 7 0.91267 0 23 0.91267 1
gene 1 7 5 1.74475 0 24 1.74475 1
gene 1 3 7 -0.888543 0 298 -0.888543 1
gene 1 4 7 -0.58677 0 562 0 1
genomeend 225

/* Organism #226 Fitness: 0.0043 Error: 0 */
genomestart 226
trait 1 0.1 0 0 0 0 0 0 0 
node 1 1 1 1
node 2 1 1 1
node 3 1 1 1
node 4 1 1 3
node 5 1 0 2
node 7 1 0 0
gene 1 1 5 -1.16804 0 1 -1.16804 1
gene 1 2 5 -0.327141 0 2 -0.327141 1
gene 1 3 5 3.83286 0 3 3.83286 1
gene 1 4 5 -1.99828 0 4 -1.99828 1
gene 1 1 7 0.91267 0 23 0.91267 1
gene 1 7 5 1.74475 0 24 1.74475 1
gene 1 3 7 -0.888543 0 298 -0.888543 1
gene 1 5 5 -0.64512 1 571 -0.64512 1
genomeend 226

/* Organism #227 Fitness: 0.0004 Error: 0 */
genomestart 227
trait 1 0.1 0 0 0 0 0 0 0 
node 1 1 1 1
node 2 1 1 1
node 3 1 1 1
node 4 1 1 3
node 5 1 0 2
node 7 1 0 0
gene 1 1 5 -1.58151 0 1 -1.58151 1
gene 1 2 5 -1.73283 0 2 -1.73283 1
gene 1 3 5 2.73603 0 3 2.73603 1
gene 1 4 5 -2.50948 0 4 -2.50948 1
gene 1 1 7 1.24615 0 23 1.24615 1
gene 1 7 5 0.175531 0 24 0.175531 1
gene 1 3 7 -2.32864 0 298 -2.32864 1
genomeend 227

/* Organism #228 Fitness: 0.0039 Error: 0 */
genomestart 228
trait 1 0.1 0 0 0 0 0 0 0 
node 1 1 1 1
node 2 1 1 1
node 3 1 1 1
node 4 1 1 3
node 5 1 0 2
node 7 1 0 0
gene 1 1 5 0.112958 0 1 0.112958 1
gene 1 2 5 1.04549 0 2 1.04549 1
gene 1 3 5 4.64603 0 3 4.64603 1
gene 1 4 5 -1.99828 0 4 -1.99828 1
gene 1 1 7 0.0713239 0 23 0.0713239 1
gene 1 7 5 1.56352 0 24 1.56352 1
gene 1 3 7 -1.14543 0 298 -1.14543 1
genomeend 228

/* Organism #229 Fitness: 0.0022 Error: 0 */
genomestart 229
trait 1 0.1 0 0 0 0 0 0 0 
node 1 1 1 1
node 2 1 1 1
node 3 1 1 1
node 4 1 1 3
node 5 1 0 2
node 7 1 0 0
gene 1 1 5 -1.16804 0 1 -1.16804 1
gene 1 2 5 -0.327141 0 2 -0.327141 1
gene 1 3 5 3.83286 0 3 3.83286 1
gene 1 4 5 -1.99828 0 4 -1.99828 1
gene 1 1 7 0.91267 0 23 0.91267 1
gene 1 7 5 1.74475 0 24 1.74475 1
gene 1 3 7 -0.888543 0 298 -0.888543 1
gene 1 4 7 -0.58677 0 562 0 1
genomeend 229

/* Organism #230 Fitness: 0.0009 Error: 0 */
genomestart 230
trait 1 0.1 0 0 0 0 0 0 0 
node 1 1 1 1
node 2 1 1 1
node 3 1 1 1
node 4 1 1 3
node 5 1 0 2
node 7 1 0 0
gene 1 1 5 -1.35873 0 1 -1.35873 1
gene 1 2 5 0.773525 0 2 0.773525 1
gene 1 3 5 3.02852 0 3 3.02852 1
gene 1 4 5 -1.25123 0 4 -1.25123 1
gene 1 1 7 2.43097 0 23 2.43097 1
gene 1 7 5 2.41361 0 24 2.41361 1
gene 1 3 7 -0.0135477 0 298 -0.0135477 1
genomeend 230

/* Species #56 : (Size 4) (AF 0.003475) (Age 7)  */


/* Organism #231 Fitness: 0.0035 Error: 0 */
genomestart 231
trait 1 0.1 0 0 0 0 0 0.132402 0 
node 1 1 1 1
node 2 1 1 1
node 3 1 1 1
node 4 1 1 3
node 5 1 0 2
node 7 1 0 0
gene 1 1 5 1.21161 0 1 1.21161 1
gene 1 2 5 0.124917 0 2 0.124917 1
gene 1 3 5 3.60815 0 3 3.60815 1
gene 1 4 5 -0.404164 0 4 -0.404164 1
gene 1 1 7 -0.117011 0 23 -0.117011 1
gene 1 7 5 0.528951 0 24 0.528951 1
gene 1 3 7 -2.38447 0 124 -2.38447 1
gene 1 2 7 -0.470763 0 206 -0.470763 1
gene 1 7 7 -0.255961 1 304 -0.255961 1
gene 1 4 7 0.498147 0 349 0.498147 1
genomeend 231

/* Organism #232 Fitness: 0.0053 Error: 0 */
genomestart 232
trait 1 0.1 0 0 0 0 0 0.198603 0 
node 1 1 1 1
node 2 1 1 1
node 3 1 1 1
node 4 1 1 3
node 5 1 0 2
node 7 1 0 0
gene 1 1 5 -0.443347 0 1 -0.443347 0
gene 1 2 5 -1.47811 0 2 -1.47811 1
gene 1 3 5 4.75162 0 3 4.75162 1
gene 1 4 5 -2.57074 0 4 -2.57074 1
gene 1 1 7 0.0563086 0 23 0.0563086 1
gene 1 7 5 3.9357 0 24 3.9357 1
gene 1 3 7 -1.87985 0 124 -1.87985 1
gene 1 2 7 0.941178 0 206 0.941178 1
gene 1 7 7 -0.613209 1 304 -0.613209 1
gene 1 4 7 -0.106858 0 349 -0.106858 1
genomeend 232

/* Organism #233 Fitness: 0.002 Error: 0 */
genomestart 233
trait 1 0.1 0 0 0 0 0 0.132402 0 
node 1 1 1 1
node 2 1 1 1
node 3 1 1 1
node 4 1 1 3
node 5 1 0 2
node 7 1 0 0
gene 1 1 5 1.21161 0 1 1.21161 0
gene 1 2 5 0.124917 0 2 0.124917 1
gene 1 3 5 3.60815 0 3 3.60815 1
gene 1 4 5 -1.26611 0 4 -1.26611 1
gene 1 1 7 -0.117011 0 23 -0.117011 1
gene 1 7 5 -0.0737145 0 24 -0.0737145 1
gene 1 3 7 -0.124511 0 124 -0.124511 1
gene 1 2 7 -1.29294 0 206 -1.29294 1
gene 1 7 7 -0.255961 1 304 -0.255961 1
gene 1 4 7 0.498147 0 349 0.498147 1
genomeend 233

/* Organism #234 Fitness: 0.0031 Error: 0 */
genomestart 234
trait 1 0.1 0 0 0 0 0 0.165503 0 
node 1 1 1 1
node 2 1 1 1
